4.041852056980133057e-02,-4.411231260746717453e-03,4.421158134937286377e-02,1.602597683668136597e-01,-5.774043500423431396e-03,7.590836286544799805e-02,1.178831234574317932e-01,5.829517915844917297e-02,5.077144131064414978e-03,3.182092914357781410e-03,3.561590984463691711e-02,1.202211603522300720e-01,7.916489243507385254e-02,8.608289808034896851e-02,-1.956699229776859283e-02,5.440969020128250122e-03,-3.645088523626327515e-02,-4.719876125454902649e-02,-3.359859064221382141e-02,-6.633931398391723633e-02,7.117596268653869629e-02,6.634619832038879395e-02,-5.345706641674041748e-02,-2.563407644629478455e-02,-1.319606602191925049e-01,7.252993434667587280e-02,-1.451141946017742157e-02,8.261626213788986206e-02,-6.717515736818313599e-02,4.697826132178306580e-02,-1.023404002189636230e-01,-3.330347314476966858e-02,3.113001212477684021e-02,2.003951743245124817e-02,-1.065602432936429977e-02,-1.470272541046142578e-01,-1.329801883548498154e-02,8.191300556063652039e-03,-1.623540557920932770e-02,-1.194766685366630554e-01,1.324104028753936291e-03,4.438407719135284424e-02,1.831897050142288208e-01,-9.971124120056629181e-03,-3.672334551811218262e-02,2.665113098919391632e-02,-2.420205622911453247e-03,1.122031360864639282e-01,3.723407909274101257e-02,4.975921940058469772e-03,-4.002201557159423828e-02,-5.837374925613403320e-02,2.670276165008544922e-02,-5.339448153972625732e-02,4.197214916348457336e-02,-5.165462940931320190e-02,-7.957045733928680420e-02,1.134344041347503662e-01,-1.401906367391347885e-02,-3.796865046024322510e-02,6.472105160355567932e-03,-1.866568438708782196e-02,4.906738921999931335e-02,-1.359935253858566284e-01,2.506652288138866425e-02,-2.715530805289745331e-02,-3.923162445425987244e-02,9.943983517587184906e-03,9.489481151103973389e-02,-1.341345012187957764e-01,2.888097800314426422e-02,-1.492206007242202759e-02,-3.892146423459053040e-02,-7.803019881248474121e-02,8.020061254501342773e-02,-1.080333068966865540e-02,2.188469842076301575e-02,3.688551858067512512e-02,1.229769289493560791e-01,-2.363390848040580750e-02,3.535122796893119812e-02,2.173130633309483528e-03,-4.362642392516136169e-02,-2.782613970339298248e-02,-3.902955725789070129e-02,2.980369143187999725e-02,7.382185012102127075e-02,2.187109924852848053e-02,-4.611627385020256042e-02,1.912497356534004211e-02,-6.163069233298301697e-02,7.742049545049667358e-02,8.571602404117584229e-03,3.652206389233469963e-03,2.184073999524116516e-02,-5.009414255619049072e-02,7.259611040353775024e-02,-1.561133116483688354e-01,-3.785345703363418579e-02,-9.678260982036590576e-02,-4.713645949959754944e-02,-5.535328015685081482e-02,6.271302700042724609e-02,-4.409256950020790100e-02,-4.371229559183120728e-02,-7.184219360351562500e-02,5.318304896354675293e-02,1.045813634991645813e-01,1.939586736261844635e-02,1.142713986337184906e-02,8.555704355239868164e-02,8.547926694154739380e-02,6.687842309474945068e-02,2.390698762610554695e-03,5.921347066760063171e-03,8.391471952199935913e-02,2.230404177680611610e-03,7.266297936439514160e-02,2.809634804725646973e-02,3.093066252768039703e-02,5.058540962636470795e-03,3.681144118309020996e-02,2.133637480437755585e-02,4.103180766105651855e-02,6.165140867233276367e-02,5.955195426940917969e-02,5.293199326843023300e-03,5.275411531329154968e-02,-3.524403274059295654e-02,-2.555225044488906860e-02,-2.264894172549247742e-02,-6.417544186115264893e-02,8.650937676429748535e-02,4.388404637575149536e-02,-4.122399911284446716e-02,-4.136667773127555847e-02,-9.040639549493789673e-02,6.197044625878334045e-02,1.483336370438337326e-02,1.074357032775878906e-01,-2.673925645649433136e-02,5.945872142910957336e-02,-9.979010373353958130e-02,-1.534695457667112350e-02,4.718889668583869934e-02,3.033920004963874817e-02,2.461840864270925522e-03,-4.254591837525367737e-02,-4.524711146950721741e-02,4.113535396754741669e-03,-2.826030686264857650e-05,-1.154623255133628845e-01,7.673039799556136131e-04,5.513897538185119629e-02,1.095847636461257935e-01,-5.872663483023643494e-02,-5.099800229072570801e-02,2.944359369575977325e-02,-2.883644960820674896e-02,3.514778986573219299e-02,-3.508302324917167425e-04,1.752056926488876343e-02,-5.427452549338340759e-02,-9.849076159298419952e-03,2.624377608299255371e-02,-7.510499656200408936e-02,1.133850682526826859e-02,1.082336530089378357e-02,-3.712307661771774292e-02,1.063588783144950867e-01,1.376198511570692062e-02,-3.750604018568992615e-02,6.710598617792129517e-02,2.384757157415151596e-03,6.455680727958679199e-02,-8.228626847267150879e-02,7.358636241406202316e-03,-1.923632808029651642e-02,-3.081465698778629303e-02,-6.923729961272329092e-05,4.868391901254653931e-02,-1.033660545945167542e-01,-6.527081131935119629e-03,-3.255267813801765442e-02,2.198617206886410713e-03,-3.567202016711235046e-02,7.171884179115295410e-02,-8.736819028854370117e-02,-7.273577153682708740e-03,-7.497227285057306290e-03,7.096934318542480469e-02,-2.045188657939434052e-02,2.402451355010271072e-03,4.042277857661247253e-02,-4.481400921940803528e-02,-2.290186472237110138e-03,-4.366502538323402405e-02,-2.172354608774185181e-02,4.921396821737289429e-02,5.268151313066482544e-02,5.539788305759429932e-02,4.151225835084915161e-02,-2.431284665362909436e-04,5.620785988867282867e-03,3.650530055165290833e-02,9.949766099452972412e-03,-2.000273391604423523e-02,-5.053820833563804626e-02,4.276310652494430542e-02,-1.161943748593330383e-01,-1.183659285306930542e-01,-1.224250718951225281e-01,-7.990615442395210266e-03,-8.785657584667205811e-02,1.053722947835922241e-01,-8.847253024578094482e-02,-7.475588470697402954e-02,-6.916980445384979248e-02,7.621655613183975220e-02,6.257524341344833374e-02,2.418874390423297882e-02,3.464786708354949951e-02,3.844039142131805420e-02,6.287240236997604370e-02,6.026004627346992493e-02,3.234250470995903015e-02,-4.316689446568489075e-03,1.969249360263347626e-02,6.349166482686996460e-02,3.438336774706840515e-02,1.263272296637296677e-02,1.544953230768442154e-02,6.456031464040279388e-03,3.649849444627761841e-02,1.414104457944631577e-02,7.724705152213573456e-03,4.405613988637924194e-02,1.373925991356372833e-02,-2.559648640453815460e-02,4.479731991887092590e-02,9.258179925382137299e-03,-2.646604739129543304e-02,3.453883109614253044e-03,-5.253623425960540771e-02,6.608593463897705078e-02,-2.081413194537162781e-02,-2.209652774035930634e-02,-3.276712447404861450e-02,-5.145915597677230835e-02,2.248611487448215485e-02,-4.807780496776103973e-03,6.484752893447875977e-02,8.361389860510826111e-03,9.074887633323669434e-02,-9.400836378335952759e-02,6.299347151070833206e-03,4.796124249696731567e-02,4.904216155409812927e-02,-2.945890650153160095e-03,2.487129904329776764e-02,-9.503032267093658447e-02,-1.609514839947223663e-02,6.197678856551647186e-03,-7.778900116682052612e-02,2.370190434157848358e-02,2.310061454772949219e-02,1.145584741607308388e-03,-8.284614235162734985e-02,-2.423543669283390045e-02,2.175145037472248077e-02,-4.240233078598976135e-02,-4.474537447094917297e-02,-1.524771563708782196e-02,2.213223278522491455e-02,-8.344567567110061646e-02,-2.304688468575477600e-02,2.263259701430797577e-02,-8.229701220989227295e-02,5.404691211879253387e-03,1.192398648709058762e-02,1.117567531764507294e-03,3.978983685374259949e-02,2.695018611848354340e-02,-4.655612632632255554e-02,3.131850808858871460e-02,2.034387318417429924e-03,4.641480743885040283e-02,-6.109694391489028931e-02,9.542545303702354431e-03,1.426890399307012558e-02,-1.347338873893022537e-02,1.163182314485311508e-03,1.990737952291965485e-02,-6.910579651594161987e-02,-2.950876951217651367e-02,-4.044700413942337036e-02,3.261140733957290649e-02,3.297091647982597351e-02,3.238042816519737244e-02,-7.296313345432281494e-02,-1.809797808527946472e-02,-1.974344626069068909e-02,1.259416434913873672e-02,1.558221038430929184e-02,1.054910360835492611e-03,5.709094926714897156e-02,-5.074592679738998413e-02,5.943880882114171982e-03,-4.890194162726402283e-02,-6.625728309154510498e-02,3.711153566837310791e-02,7.504679262638092041e-02,2.682686783373355865e-02,8.082505315542221069e-02,3.480819985270500183e-02,-5.270192399621009827e-02,8.519748598337173462e-02,2.904697507619857788e-02,-3.613492101430892944e-02,-4.905290529131889343e-02,2.350776828825473785e-02,-1.572654396295547485e-02,-1.089164838194847107e-01,-8.556941151618957520e-02,-3.133144695311784744e-03,-8.452019095420837402e-02,1.112323179841041565e-01,-4.015432670712471008e-02,-6.382374465465545654e-02,-2.772169932723045349e-02,6.322558969259262085e-02,2.264851517975330353e-02,4.667990282177925110e-02,4.602259397506713867e-02,2.342919260263442993e-02,6.242389976978302002e-02,3.590951487421989441e-02,3.970121219754219055e-02,-2.550604986026883125e-03,-2.291589416563510895e-02,4.913500323891639709e-02,5.143868736922740936e-03,-1.537817530333995819e-02,6.187143153510987759e-04,6.944507826119661331e-03,1.065284828655421734e-03,1.564429141581058502e-02,-2.949678897857666016e-02,3.321488574147224426e-02,-3.167960047721862793e-02,-4.413353651762008667e-02,1.426158472895622253e-02,6.638135761022567749e-02,-2.190237119793891907e-02,-2.765570208430290222e-02,-1.580055803060531616e-02,4.155537486076354980e-02,-7.255182415246963501e-02,-4.513551015406847000e-03,-4.051759093999862671e-02,-2.233343198895454407e-02,-4.068432375788688660e-02,-3.482180833816528320e-02,3.436481347307562828e-03,1.924066059291362762e-02,6.822039932012557983e-02,-6.838386505842208862e-02,1.825562358135357499e-04,-4.461209103465080261e-02,1.923583261668682098e-02,7.997817359864711761e-03,2.690738253295421600e-02,-7.667155563831329346e-02,-6.575650721788406372e-02,8.062885701656341553e-02,-5.858102440834045410e-02,2.829547226428985596e-02,1.464943774044513702e-02,-5.276720970869064331e-02,-7.369854301214218140e-02,3.288641199469566345e-02,2.147796563804149628e-02,-4.822441563010215759e-02,-6.397233158349990845e-02,-1.889673434197902679e-02,-2.350805094465613365e-03,-7.527723163366317749e-02,1.432842668145895004e-02,5.853487178683280945e-03,-7.343351840972900391e-02,7.710013072937726974e-03,1.604062877595424652e-02,-1.713087968528270721e-02,-3.780269250273704529e-02,3.963253647089004517e-02,-5.659304931759834290e-02,-5.697178095579147339e-02,2.249051630496978760e-02,7.831227965652942657e-03,-2.644714154303073883e-02,-8.466361090540885925e-03,8.911737799644470215e-02,4.311276227235794067e-02,-7.499143946915864944e-03,-2.443564881104975939e-04,-5.734900757670402527e-02,-5.154160782694816589e-03,-1.607705140486359596e-03,7.840449362993240356e-02,8.786183595657348633e-02,5.219197366386651993e-03,-2.395838871598243713e-02,8.670890703797340393e-03,-3.530488163232803345e-02,-1.819970086216926575e-02,3.654265403747558594e-02,5.042800214141607285e-03,9.143948554992675781e-02,-5.627607181668281555e-02,-8.807661943137645721e-03,-2.191584557294845581e-02,-1.040238216519355774e-01,1.714014448225498199e-02,7.773715257644653320e-02,-2.003489434719085693e-02,8.025336265563964844e-02,4.284550994634628296e-02,-6.214659661054611206e-02,1.245331540703773499e-01,3.350693732500076294e-02,-5.951861664652824402e-02,-6.109911017119884491e-03,-6.011473946273326874e-03,3.664963692426681519e-02,3.044062294065952301e-03,5.234857089817523956e-03,5.083122104406356812e-02,-6.359696388244628906e-02,1.022988259792327881e-01,2.030511014163494110e-02,-3.651089966297149658e-02,4.314057528972625732e-02,3.369259834289550781e-02,4.021054191980510950e-04,4.712662845849990845e-02,6.891053169965744019e-02,-7.445398252457380295e-03,2.397620864212512970e-02,1.365941483527421951e-02,2.008619159460067749e-02,-9.535015560686588287e-03,-4.777783155441284180e-02,-6.193491164594888687e-03,-5.582358688116073608e-02,-3.734127804636955261e-02,-2.977459691464900970e-03,2.369329892098903656e-02,-7.926416397094726562e-02,-1.638996787369251251e-02,-5.918059498071670532e-02,1.294038072228431702e-02,-2.347722835838794708e-02,-4.245616495609283447e-02,-2.588495612144470215e-02,6.348844617605209351e-02,-2.878984808921813965e-02,-4.264039918780326843e-02,-1.991076162084937096e-03,2.858049795031547546e-02,-8.045164495706558228e-02,-1.126125641167163849e-02,-1.946287974715232849e-02,2.065803296864032745e-02,-3.246839717030525208e-02,-4.311383143067359924e-02,-3.164198249578475952e-02,9.704648982733488083e-04,1.761622168123722076e-02,-1.470369845628738403e-02,1.088925078511238098e-02,-1.036356911063194275e-01,2.330848760902881622e-02,3.068349137902259827e-02,2.944747172296047211e-02,7.989097386598587036e-03,-2.562241256237030029e-02,1.025654599070549011e-01,-4.678486287593841553e-02,2.273938246071338654e-02,6.457158597186207771e-04,-6.631917506456375122e-02,-9.563658386468887329e-03,1.559353470802307129e-01,1.437784638255834579e-03,-5.586904287338256836e-02,-4.277740791440010071e-02,-6.621845066547393799e-03,-6.839025765657424927e-02,-5.725963786244392395e-02,4.160989075899124146e-02,6.563987117260694504e-03,-3.410188853740692139e-02,2.716590836644172668e-02,1.456393580883741379e-02,-2.167079411447048187e-02,-9.042680263519287109e-02,4.725542664527893066e-02,-4.201000928878784180e-02,-1.170831769704818726e-01,1.767057552933692932e-02,-4.333116859197616577e-02,1.376739051192998886e-02,-2.098774723708629608e-02,9.675437211990356445e-02,8.994698524475097656e-02,-2.611205354332923889e-02,-1.301202829927206039e-02,-3.526715934276580811e-02,1.808543130755424500e-02,2.860288321971893311e-02,1.230947226285934448e-01,9.953403472900390625e-02,-5.035336315631866455e-02,1.841127872467041016e-02,2.338681137189269066e-03,-1.734094135463237762e-02,-7.164617069065570831e-03,3.843129798769950867e-02,1.359012443572282791e-02,8.297411352396011353e-02,-3.623906895518302917e-02,2.567997202277183533e-02,2.947537600994110107e-02,-6.942367553710937500e-02,-5.645590834319591522e-03,7.108227163553237915e-02,-3.981602564454078674e-02,6.462241709232330322e-02,4.833236709237098694e-02,-6.360712647438049316e-02,7.317876070737838745e-02,-1.390718948096036911e-02,-3.358286991715431213e-02,1.776449568569660187e-02,-2.883827127516269684e-02,5.815044790506362915e-02,6.771167367696762085e-02,7.759041339159011841e-02,7.616217434406280518e-02,-4.222162812948226929e-02,6.395129114389419556e-02,3.396612405776977539e-02,-2.842631004750728607e-02,1.019766852259635925e-01,8.825605735182762146e-03,-4.332325607538223267e-02,3.950264304876327515e-02,1.074304729700088501e-01,6.548015866428613663e-03,2.356190606951713562e-02,-1.724967733025550842e-03,4.663664847612380981e-03,-7.455096114426851273e-03,-3.375130519270896912e-02,-6.061058491468429565e-02,-7.081910967826843262e-02,-1.556455064564943314e-02,-2.202364616096019745e-02,3.078899160027503967e-02,-6.220277771353721619e-02,-5.817345157265663147e-02,-4.332688450813293457e-02,-1.867039874196052551e-02,-2.265233173966407776e-02,-3.279427811503410339e-02,-4.113985598087310791e-02,1.898228935897350311e-02,1.319302711635828018e-02,-5.414870381355285645e-02,1.352078374475240707e-02,-1.106011681258678436e-02,-3.821020945906639099e-02,1.558712683618068695e-02,1.631277264095842838e-03,4.987380653619766235e-02,-3.273281082510948181e-02,-4.276278242468833923e-02,-4.412070661783218384e-02,3.099313471466302872e-03,-1.686108112335205078e-02,2.938642911612987518e-02,4.383541643619537354e-02,-8.142224699258804321e-02,-1.125539653003215790e-03,8.061183243989944458e-02,2.666318230330944061e-02,9.703127294778823853e-02,5.289888009428977966e-02,8.127474226057529449e-03,-3.432722017168998718e-02,2.295403182506561279e-02,-4.423214122653007507e-03,-2.650696411728858948e-02,4.567962512373924255e-02,5.529887229204177856e-02,-1.689037121832370758e-02,-3.841793164610862732e-02,-2.251467108726501465e-02,-1.282685901969671249e-03,-1.233802177011966705e-02,-2.800492011010646820e-02,3.766540437936782837e-02,1.846333779394626617e-02,-2.552741765975952148e-02,4.513046145439147949e-02,1.190678868442773819e-02,8.353983052074909210e-03,-8.125251531600952148e-02,4.209060594439506531e-02,-3.435529023408889771e-02,-5.396497994661331177e-02,1.527726929634809494e-02,-6.987196207046508789e-02,2.434789948165416718e-02,-4.115449264645576477e-02,-2.777240425348281860e-02,8.981341123580932617e-02,-2.994084917008876801e-02,-1.968168839812278748e-02,1.833738386631011963e-02,2.281432226300239563e-02,4.324430599808692932e-02,-4.761646687984466553e-02,8.372686058282852173e-02,-2.685879170894622803e-02,2.327733486890792847e-02,1.059240661561489105e-02,2.251840755343437195e-02,-1.435984298586845398e-02,7.946205139160156250e-02,-1.057352870702743530e-02,7.822760194540023804e-02,-1.339052338153123856e-02,5.480473861098289490e-02,8.091986179351806641e-02,-3.574053989723324776e-03,-2.273881994187831879e-02,6.085319072008132935e-02,-1.457591354846954346e-02,4.439498111605644226e-02,4.788838326930999756e-02,-5.708438158035278320e-02,-2.452923450618982315e-03,-7.494530826807022095e-02,5.698535963892936707e-02,1.103747636079788208e-02,-6.016888841986656189e-02,5.112948641180992126e-02,7.348673045635223389e-02,1.017838045954704285e-01,-6.820696871727705002e-03,7.471526041626930237e-03,2.071103313937783241e-03,5.159486457705497742e-02,-1.487933215685188770e-03,9.054083377122879028e-02,1.413675118237733841e-02,-4.519918188452720642e-02,6.627723574638366699e-03,1.050459370017051697e-01,6.832946091890335083e-03,-1.587768644094467163e-02,-2.858608029782772064e-02,2.536311512812972069e-03,-2.072459086775779724e-02,-2.376542612910270691e-02,-6.751386821269989014e-02,-5.172173306345939636e-02,-4.647735878825187683e-02,-8.351654745638370514e-03,1.196585781872272491e-02,6.768308579921722412e-03,-5.887030437588691711e-02,-3.294098004698753357e-02,-3.635990619659423828e-02,-1.636572368443012238e-02,1.645651995204389095e-03,-3.687342628836631775e-02,-4.249012842774391174e-02,3.323135897517204285e-02,-2.507228963077068329e-02,3.780474886298179626e-02,-3.705582395195960999e-02,1.834671758115291595e-02,2.017981372773647308e-02,1.895575225353240967e-02,5.743012577295303345e-02,-2.665227092802524567e-02,-3.084626980125904083e-02,-6.299754977226257324e-02,2.799359150230884552e-02,-5.911612883210182190e-02,6.574602425098419189e-02,2.999852783977985382e-02,-1.015007961541414261e-02,-5.303411185741424561e-02,7.638007402420043945e-02,3.270343691110610962e-02,1.272116005420684814e-01,6.805314123630523682e-02,-8.325602114200592041e-02,-1.644573546946048737e-02,-3.644665936008095741e-03,-9.093863889575004578e-03,-1.382911205291748047e-02,6.425563246011734009e-02,-4.985497519373893738e-02,-2.782610803842544556e-02,-2.755434811115264893e-02,-6.034646183252334595e-03,8.897343650460243225e-03,2.510582841932773590e-02,2.306111715734004974e-02,3.516739979386329651e-02,-7.085444405674934387e-03,5.247917957603931427e-03,3.271012380719184875e-02,1.722268946468830109e-02,4.013250768184661865e-02,-7.031532377004623413e-02,3.381153568625450134e-02,-3.268072754144668579e-02,8.098827674984931946e-03,-2.765280427411198616e-03,-7.480268180370330811e-02,4.739698767662048340e-02,-3.944034874439239502e-02,-1.028470098972320557e-01,5.927551537752151489e-03,-1.711307093501091003e-02,-6.185085512697696686e-03,1.483530737459659576e-02,7.655025459825992584e-03,1.476366259157657623e-02,-1.166819855570793152e-01,6.571338512003421783e-03,-3.215081244707107544e-02,6.184413656592369080e-02,-2.036395017057657242e-03,3.042476437985897064e-02,1.028841268271207809e-02,5.582247674465179443e-02,-1.977698691189289093e-02,5.498144403100013733e-02,9.820864535868167877e-03,5.363918095827102661e-02,9.606872498989105225e-02,4.918202385306358337e-02,-3.113367781043052673e-02,5.502959713339805603e-02,2.204975485801696777e-02,4.056883510202169418e-03,-4.182188771665096283e-03,-3.993217647075653076e-02,-6.877661496400833130e-02,-6.132157891988754272e-02,1.034585610032081604e-01,3.839952126145362854e-02,-7.177238911390304565e-02,5.801032483577728271e-02,6.523682177066802979e-02,8.962249010801315308e-02,-1.879513077437877655e-02,5.020214989781379700e-02,-2.546439319849014282e-02,9.245079010725021362e-02,2.821055054664611816e-02,1.798348687589168549e-02,3.056831844151020050e-02,-5.185195431113243103e-02,1.347295008599758148e-03,7.976920902729034424e-02,-3.609099984169006348e-02,-4.431078955531120300e-02,-9.517274051904678345e-02,-3.585972357541322708e-03,-6.829112768173217773e-03,-2.253078669309616089e-02,-2.019931562244892120e-02,-2.841584198176860809e-02,-3.309108689427375793e-02,-2.994098234921693802e-03,-1.765391975641250610e-02,3.105282969772815704e-02,-1.416550669819116592e-02,-2.214823104441165924e-02,-2.811442315578460693e-02,-5.252634175121784210e-03,6.434295326471328735e-03,-4.294459521770477295e-02,-4.862330481410026550e-02,4.481557011604309082e-02,9.035139344632625580e-03,5.759048089385032654e-02,-6.124978512525558472e-02,4.256934672594070435e-02,2.726048417389392853e-02,3.276874125003814697e-02,4.550057649612426758e-02,-2.604248374700546265e-02,3.409948199987411499e-02,-3.967381268739700317e-02,6.797366309911012650e-03,-6.185748055577278137e-02,9.233844280242919922e-02,2.361160703003406525e-02,3.022595681250095367e-02,-8.615630865097045898e-02,7.799945026636123657e-02,4.874998703598976135e-02,7.563821226358413696e-02,1.177870575338602066e-02,-1.241901889443397522e-01,1.589335850439965725e-03,5.809475667774677277e-03,1.240463345311582088e-03,7.676597218960523605e-03,6.320796161890029907e-02,-6.003633886575698853e-02,-3.457041457295417786e-02,-3.901017829775810242e-02,2.029563300311565399e-02,5.852093920111656189e-03,2.680535055696964264e-02,2.315971069037914276e-02,4.528073593974113464e-02,-3.685311600565910339e-02,5.048924311995506287e-02,7.410093210637569427e-03,3.337217867374420166e-02,6.997921317815780640e-02,-5.180075019598007202e-02,-8.360449224710464478e-03,-1.716580428183078766e-02,4.417008906602859497e-02,-7.841783575713634491e-03,-5.217743292450904846e-02,4.326833784580230713e-02,-1.202607434242963791e-02,-8.046817779541015625e-02,-8.291329443454742432e-02,-2.893266268074512482e-03,3.245360217988491058e-03,1.559722144156694412e-02,-7.330942433327436447e-03,-1.690945774316787720e-02,-4.466032236814498901e-02,-3.432981297373771667e-02,-3.041973896324634552e-02,6.297936290502548218e-02,1.618158305063843727e-03,8.419327437877655029e-03,-5.727225448936223984e-03,2.394443005323410034e-02,-1.592040993273258209e-02,3.761361539363861084e-02,3.381678462028503418e-02,7.712574303150177002e-02,8.291926980018615723e-02,6.705722957849502563e-02,-4.953242838382720947e-02,6.563959270715713501e-02,-1.783641055226325989e-02,-4.662584513425827026e-02,-5.044826120138168335e-02,-2.826915122568607330e-02,-1.079651638865470886e-01,5.778420250862836838e-03,5.959786474704742432e-02,3.215773031115531921e-02,-8.738808333873748779e-02,1.353491377085447311e-02,3.373759612441062927e-02,4.210644960403442383e-02,-3.895820677280426025e-02,6.628574430942535400e-02,-4.256159812211990356e-02,6.416651606559753418e-02,3.436913341283798218e-02,-2.958890050649642944e-02,5.049811303615570068e-02,-9.216947853565216064e-02,6.857352796941995621e-03,7.762113213539123535e-02,-4.657178744673728943e-02,-5.801986157894134521e-02,-8.361999690532684326e-02,-3.905565291643142700e-02,-1.896016765385866165e-03,-9.780222550034523010e-03,4.591237753629684448e-03,-1.479698717594146729e-02,-2.808888629078865051e-02,-1.944631710648536682e-02,-2.730767615139484406e-02,7.501770276576280594e-03,2.640239149332046509e-02,-2.567067183554172516e-02,-5.915151163935661316e-02,-4.509226884692907333e-03,4.528310894966125488e-02,-3.358062356710433960e-03,-8.439891040325164795e-03,1.968267373740673065e-02,5.606250092387199402e-02,-3.299904288724064827e-03,-7.539551705121994019e-02,3.232383355498313904e-02,4.164691269397735596e-02,6.402140855789184570e-02,8.031362295150756836e-02,-3.317507728934288025e-02,1.078161150217056274e-01,-1.414625812321901321e-02,-2.554187178611755371e-02,-3.877815976738929749e-02,8.921113610267639160e-02,2.056967467069625854e-02,3.822505846619606018e-02,-5.180679634213447571e-02,4.762194305658340454e-02,6.085664778947830200e-02,2.075404301285743713e-02,-1.390275452286005020e-02,-2.514808438718318939e-02,4.548471793532371521e-02,-9.031856432557106018e-03,1.485560496803373098e-04,-1.949491165578365326e-02,2.718242816627025604e-02,-1.163706765510141850e-03,-1.822127215564250946e-02,-7.664431817829608917e-03,1.616091094911098480e-02,-3.185331588611006737e-03,2.358957007527351379e-02,5.948655679821968079e-02,1.591198146343231201e-02,-4.854638874530792236e-02,6.331387907266616821e-02,-3.167807683348655701e-02,3.781070932745933533e-02,6.580255180597305298e-02,-2.600786276161670685e-02,-5.570627003908157349e-02,-2.902515232563018799e-02,4.163894057273864746e-02,1.563132624141871929e-03,-2.257847785949707031e-02,6.156502664089202881e-02,1.002304535359144211e-02,-1.471623498946428299e-02,-6.425344944000244141e-02,3.196352347731590271e-02,-1.906974054872989655e-02,5.066918209195137024e-02,-2.039199881255626678e-02,2.471256768330931664e-03,2.482136897742748260e-02,-7.077346742153167725e-02,-5.230180453509092331e-03,8.301533013582229614e-02,-1.732498756609857082e-03,-2.005693502724170685e-02,-3.497102111577987671e-02,-1.487732212990522385e-02,-1.686648093163967133e-02,2.081832289695739746e-02,1.992598921060562134e-02,7.503242045640945435e-02,4.513696581125259399e-02,6.654547154903411865e-02,-2.259034849703311920e-02,4.394534230232238770e-02,-1.359624601900577545e-02,-8.954057842493057251e-02,-8.955839276313781738e-02,-1.549841836094856262e-02,-1.011321619153022766e-01,5.453911051154136658e-02,-2.076819725334644318e-02,3.012086451053619385e-02,-9.505304694175720215e-02,-6.200695643201470375e-04,1.601158455014228821e-02,1.612463220953941345e-02,-2.730811247602105141e-03,7.245007902383804321e-02,-2.977514080703258514e-02,2.142247371375560760e-02,9.092954546213150024e-02,-3.058828413486480713e-02,5.459877848625183105e-02,-1.212436333298683167e-01,-1.343858544714748859e-03,4.355112835764884949e-02,-9.119979292154312134e-02,-5.298307538032531738e-02,-3.644973412156105042e-02,-4.026943817734718323e-02,6.891368422657251358e-03,-8.759030140936374664e-03,4.823087900876998901e-02,1.878180168569087982e-02,-2.552581951022148132e-02,-2.658984623849391937e-02,-3.254079446196556091e-02,1.991639658808708191e-02,3.624412789940834045e-02,-2.597581595182418823e-02,-5.082732066512107849e-02,-1.309699565172195435e-02,7.615707069635391235e-02,4.002075642347335815e-02,1.571501046419143677e-02,4.121039062738418579e-02,9.809246659278869629e-02,-2.980032935738563538e-03,-9.007988125085830688e-02,2.263635024428367615e-02,4.833176359534263611e-02,7.445801794528961182e-02,8.483871817588806152e-02,-2.889521420001983643e-02,1.505655795335769653e-01,2.820919081568717957e-02,-2.073162933811545372e-03,-6.580912321805953979e-02,7.002980262041091919e-02,-2.015809761360287666e-03,5.506649985909461975e-02,3.945421427488327026e-03,-1.726711168885231018e-02,5.770883336663246155e-02,-2.650152333080768585e-02,-1.840090379118919373e-02,4.781762883067131042e-02,7.421176135540008545e-02,-5.145077407360076904e-02,-2.761933207511901855e-02,-4.243392497301101685e-02,2.371688187122344971e-02,-3.019461035728454590e-02,-1.603700034320354462e-02,1.758954301476478577e-02,3.485598415136337280e-02,-1.495101675391197205e-02,-3.692105645313858986e-03,8.730397373437881470e-02,5.300479009747505188e-03,-5.194314941763877869e-02,1.335161477327346802e-01,-3.156194090843200684e-02,6.709184497594833374e-02,2.564277872443199158e-02,1.784634776413440704e-02,-9.978286176919937134e-02,1.282157562673091888e-02,4.483993106987327337e-04,5.531715229153633118e-03,1.354199927300214767e-02,8.153896778821945190e-02,3.332759067416191101e-02,3.418291732668876648e-02,-1.252209488302469254e-02,1.532472204416990280e-02,-3.389891237020492554e-02,8.287350833415985107e-02,-1.857689395546913147e-02,1.581794023513793945e-02,-7.219235412776470184e-03,-9.080261737108230591e-02,-2.372070029377937317e-02,1.420380175113677979e-01,1.300600916147232056e-02,8.004506118595600128e-03,-1.934563857503235340e-03,-6.070982292294502258e-02,1.211788691580295563e-02,-5.720357410609722137e-03,1.826094579882919788e-03,7.785500586032867432e-02,-2.454079687595367432e-02,3.938709199428558350e-02,9.521671570837497711e-03,4.763858765363693237e-02,1.587284915149211884e-02,-1.363200545310974121e-01,-8.318327367305755615e-02,4.556142538785934448e-02,-7.028111815452575684e-02,2.953157946467399597e-02,-6.468365341424942017e-02,3.721593692898750305e-02,-1.106840595602989197e-01,2.819576114416122437e-02,2.967013232409954071e-02,1.163407787680625916e-02,-7.922978140413761139e-03,1.002296507358551025e-01,-5.290911346673965454e-02,-3.013519942760467529e-02,1.243667080998420715e-01,-2.979858964681625366e-02,1.001198217272758484e-01,-1.249863132834434509e-01,-2.720255032181739807e-02,2.336844056844711304e-02,-1.619387865066528320e-01,-5.178168416023254395e-02,