-2.970414643641561270e-04,5.468432325869798660e-03,-1.130255591124296188e-02,8.866139687597751617e-04,1.211949903517961502e-02,-6.330522592179477215e-04,7.436630316078662872e-03,-3.133796417387202382e-05,2.254333160817623138e-02,-8.040442131459712982e-03,-1.517449133098125458e-02,-1.046464871615171432e-02,-1.575925573706626892e-02,9.980797767639160156e-03,-6.031701923348009586e-04,-1.911123748868703842e-03,4.968144930899143219e-03,-8.574134670197963715e-03,-2.226728573441505432e-02,5.731578916311264038e-03,7.215211633592844009e-03,-8.569603785872459412e-03,-1.417386066168546677e-02,-6.056775338947772980e-03,1.803962141275405884e-02,2.155211940407752991e-02,1.669731177389621735e-02,3.584103193134069443e-03,1.039674534695222974e-04,1.298652379773557186e-03,-1.438992563635110855e-02,8.924659341573715210e-03,4.597870633006095886e-03,1.532572507858276367e-02,-1.238846592605113983e-02,-5.831252317875623703e-03,-2.837573923170566559e-02,-9.734396822750568390e-03,1.589341089129447937e-03,3.356813220307230949e-03,-7.000523619353771210e-03,-1.816812530159950256e-02,-2.922267420217394829e-03,-4.794318228960037231e-03,2.078062971122562885e-04,6.350329611450433731e-03,-1.923880539834499359e-02,-1.048006024211645126e-02,5.543557927012443542e-03,3.353407979011535645e-02,-6.428312975913286209e-03,-8.166686631739139557e-03,-1.030944194644689560e-02,-8.506040088832378387e-03,1.215564273297786713e-02,1.682576024904847145e-03,1.699572429060935974e-02,-9.402532130479812622e-03,-6.954343523830175400e-03,-2.603792957961559296e-02,-1.151175331324338913e-02,-1.754255034029483795e-02,-1.561484578996896744e-02,-2.386080886935815215e-04,-4.358558449894189835e-03,-1.231755712069571018e-03,7.681092247366905212e-03,4.537696018815040588e-03,7.715109270066022873e-03,1.017880532890558243e-02,-4.267619457095861435e-03,4.541895352303981781e-03,2.518443623557686806e-03,7.315566297620534897e-03,-3.991313278675079346e-03,-6.142643745988607407e-03,9.331517852842807770e-03,2.509283460676670074e-02,-1.694997586309909821e-02,-2.879164880141615868e-03,-3.517919394653290510e-04,-3.212378825992345810e-03,-2.528426703065633774e-04,7.844664156436920166e-03,3.160774009302258492e-03,9.022547863423824310e-03,-3.010722249746322632e-02,-8.858638815581798553e-03,-5.632758140563964844e-03,-1.258898898959159851e-02,5.219690501689910889e-03,1.899049058556556702e-02,1.538750156760215759e-02,2.011957019567489624e-02,-1.676361280260607600e-04,1.028262637555599213e-02,-1.705873990431427956e-03,6.390246562659740448e-03,-1.689459197223186493e-02,1.509080990217626095e-03,-3.724103560671210289e-03,-6.138758268207311630e-03,3.029729006811976433e-03,6.984476000070571899e-03,-7.173924706876277924e-03,4.911040887236595154e-03,-3.078932932112365961e-04,3.423957619816064835e-03,-1.529966201633214951e-02,-2.909483620896935463e-03,9.256574325263500214e-03,1.610609935596585274e-03,-9.076205082237720490e-03,-1.159187522716820240e-03,-6.501113995909690857e-03,-2.485783537849783897e-03,-1.124918926507234573e-02,-4.830678924918174744e-03,-1.131895370781421661e-02,4.948546644300222397e-03,1.200836501084268093e-03,-9.235817007720470428e-03,-1.430860836990177631e-03,1.988261239603161812e-03,2.294119447469711304e-03,-5.226556677371263504e-03,6.432036869227886200e-03,1.517231483012437820e-02,