-1.849654875695705414e-02,2.203018963336944580e-02,-1.974822394549846649e-02,-2.779008820652961731e-02,-9.664433076977729797e-03,3.280422091484069824e-02,-5.454504117369651794e-02,-1.920158416032791138e-02,2.837778301909565926e-03,3.048151172697544098e-02,-4.231912642717361450e-02,-8.178066462278366089e-02,2.241569012403488159e-02,7.480896078050136566e-03,3.478533029556274414e-02,7.409072946757078171e-03,1.541528757661581039e-02,1.408859062939882278e-02,3.906562551856040955e-02,-2.991112880408763885e-02,-9.769690781831741333e-02,3.605740144848823547e-02,6.948125548660755157e-03,-4.257876798510551453e-02,-1.171618979424238205e-02,-1.721587590873241425e-02,2.945858798921108246e-02,9.488995186984539032e-03,1.088263653218746185e-02,7.155596464872360229e-02,-6.788853555917739868e-02,3.722748532891273499e-02,1.430446375161409378e-02,6.411897391080856323e-02,-2.373173646628856659e-02,-9.887501597404479980e-03,5.587862432003021240e-02,2.618479542434215546e-02,1.232309080660343170e-02,-1.102461665868759155e-01,-1.747521571815013885e-02,-7.579686492681503296e-02,8.557667583227157593e-02,8.546189963817596436e-02,-4.335051402449607849e-02,-1.000446081161499023e-01,7.139911409467458725e-03,2.022520825266838074e-02,-3.164238482713699341e-02,4.002147167921066284e-02,6.800807267427444458e-02,7.405459135770797729e-02,-5.492521822452545166e-02,-1.289958972483873367e-02,-4.970379173755645752e-02,-6.759744882583618164e-02,-2.725889347493648529e-02,5.681164935231208801e-02,9.514737129211425781e-02,-1.083152741193771362e-02,-9.779402054846286774e-03,-8.220744319260120392e-03,1.328584272414445877e-02,-8.587108552455902100e-02,2.160236425697803497e-02,-1.693899370729923248e-02,-2.979037910699844360e-02,-4.085979424417018890e-03,-6.548048555850982666e-02,-2.426293864846229553e-02,-2.604801394045352936e-02,-1.098376233130693436e-02,-3.388557955622673035e-02,-2.069577760994434357e-02,-5.976330430712550879e-05,-1.560643967241048813e-02,-3.139166533946990967e-02,2.563473768532276154e-03,5.489180237054824829e-02,-1.361469831317663193e-02,1.133584454655647278e-01,2.419385127723217010e-02,3.355555608868598938e-02,2.548071322962641716e-03,3.728923946619033813e-02,-8.577290922403335571e-03,2.130548469722270966e-02,-1.146760210394859314e-02,4.324070177972316742e-03,2.677156589925289154e-02,5.292806401848793030e-02,4.303815774619579315e-03,-2.437708713114261627e-02,-9.857663884758949280e-03,-6.080736219882965088e-02,1.456093881279230118e-02,-9.418146684765815735e-03,-1.542245689779520035e-02,2.424187213182449341e-02,-2.361552603542804718e-02,-8.093702048063278198e-02,-9.160660207271575928e-03,-7.936454564332962036e-02,-1.434908900409936905e-02,-9.362719021737575531e-03,-5.514376796782016754e-03,-4.496654868125915527e-02,4.245400056242942810e-02,7.807750999927520752e-02,-1.454926561564207077e-02,1.302832853980362415e-03,9.521389729343354702e-04,2.350361645221710205e-02,-3.773493692278862000e-02,-2.215233445167541504e-02,4.369671270251274109e-02,-1.173835098743438721e-01,6.718839704990386963e-02,-3.554854542016983032e-02,2.427053637802600861e-03,-5.834889784455299377e-02,1.020785495638847351e-01,-1.917869667522609234e-03,1.426012348383665085e-02,5.317051336169242859e-02,1.491101458668708801e-02,-2.839117869734764099e-02,8.224134147167205811e-02,1.040298193693161011e-01,8.992332220077514648e-02,-6.974704563617706299e-02,-9.090954065322875977e-02,-9.627206623554229736e-02,-3.016713075339794159e-02,5.807605013251304626e-02,-4.217443615198135376e-02,3.390367329120635986e-02,3.351241350173950195e-02,1.897485181689262390e-02,-9.221228957176208496e-02,-3.730971366167068481e-02,-3.527028858661651611e-02,9.868466854095458984e-02,3.148952871561050415e-02,-1.007747184485197067e-02,-3.237051889300346375e-02,-7.492296863347291946e-03,5.709239467978477478e-02,-4.662446677684783936e-02,3.963407129049301147e-02,1.370396837592124939e-02,-6.355173885822296143e-02,-2.485211752355098724e-02,5.599863082170486450e-02,1.453626304864883423e-01,8.249641209840774536e-02,-2.397746138740330935e-04,7.205654680728912354e-02,3.669011220335960388e-02,2.036352828145027161e-02,1.796545460820198059e-02,9.688004851341247559e-02,-5.787827074527740479e-02,-3.613782301545143127e-02,-2.229002676904201508e-02,7.148166000843048096e-02,3.420656546950340271e-02,-1.141256373375654221e-02,3.388579562306404114e-02,-1.112652104347944260e-02,1.196550950407981873e-02,4.843847453594207764e-02,1.242800522595643997e-02,6.270373612642288208e-02,-6.461250782012939453e-02,4.124702140688896179e-02,-1.198792457580566406e-01,9.039980918169021606e-02,-1.246784161776304245e-02,3.284315019845962524e-02,5.594791844487190247e-02,1.195732876658439636e-02,-7.004972547292709351e-02,4.087088163942098618e-03,4.991317912936210632e-02,3.395169973373413086e-02,1.454921439290046692e-02,-8.831189945340156555e-03,-7.082887738943099976e-02,6.959732621908187866e-02,-7.869984954595565796e-02,-6.004191935062408447e-02,4.206264019012451172e-02,8.802736550569534302e-02,6.886954605579376221e-02,4.723246209323406219e-03,-2.418663725256919861e-02,-1.004486680030822754e-01,-2.471376955509185791e-02,1.093582361936569214e-01,1.638936996459960938e-01,5.494520068168640137e-02,-8.400951325893402100e-02,-3.301135450601577759e-02,1.097976639866828918e-01,1.089942827820777893e-01,-2.408868074417114258e-02,-2.235252410173416138e-02,-1.604289188981056213e-02,-8.715067058801651001e-02,3.152105584740638733e-02,5.675351712852716446e-03,-8.680716273374855518e-04,1.916996389627456665e-02,7.172185927629470825e-02,6.541217863559722900e-02,-1.447013765573501587e-02,-4.076398536562919617e-02,2.955609001219272614e-02,-6.056007929146289825e-03,6.188227236270904541e-02,1.601736433804035187e-02,-2.429482899606227875e-02,2.277688868343830109e-02,1.034497991204261780e-01,1.434052288532257080e-01,-1.198726007714867592e-03,-3.064185380935668945e-02,-1.505502965301275253e-02,6.953310221433639526e-02,7.604145910590887070e-03,-2.453129179775714874e-02,-1.126697733998298645e-01,-8.598381280899047852e-02,-3.575840964913368225e-02,-7.874498143792152405e-03,4.639030992984771729e-02,2.000561170279979706e-02,1.465543508529663086e-01,-7.781714200973510742e-02,-9.481562674045562744e-02,3.075051866471767426e-02,-2.408881857991218567e-02,-7.704276125878095627e-03,-1.014826819300651550e-01,-4.721128195524215698e-02,5.582964047789573669e-02,-1.076494678854942322e-01,-1.005539000034332275e-01,-9.548796340823173523e-03,1.036534365266561508e-02,5.620743334293365479e-02,-4.759651795029640198e-02,5.114844068884849548e-02,3.721306473016738892e-02,5.155639350414276123e-02,2.587247639894485474e-02,-4.559465497732162476e-02,9.945136308670043945e-02,-2.240293286740779877e-02,-1.898305956274271011e-03,-2.615050040185451508e-02,6.416222080588340759e-03,-3.735965862870216370e-02,-5.297533050179481506e-02,1.540078315883874893e-02,8.531799167394638062e-02,5.298990383744239807e-02,3.136492148041725159e-02,1.241439115256071091e-02,-1.612736284732818604e-02,1.240060105919837952e-02,-8.403985947370529175e-02,-3.267852216958999634e-02,3.819902194663882256e-03,2.673285081982612610e-03,5.335856112651526928e-04,-9.174879640340805054e-02,-7.190692424774169922e-02,-1.640316215343773365e-03,5.813143029808998108e-02,-5.089715495705604553e-02,3.161872923374176025e-02,-2.309764735400676727e-03,-8.180118352174758911e-02,3.091748803853988647e-02,1.644658669829368591e-02,2.092595398426055908e-02,-5.808805301785469055e-02,3.885765746235847473e-02,1.184894423931837082e-02,2.364111505448818207e-02,3.346864506602287292e-02,2.736569382250308990e-02,1.273816265165805817e-02,5.766667425632476807e-02,-2.620299905538558960e-02,4.347092285752296448e-02,-1.396660134196281433e-02,3.435763716697692871e-02,1.083244383335113525e-02,4.302748292684555054e-02,-9.889367036521434784e-03,-5.867082998156547546e-02,1.011767089366912842e-01,6.566891074180603027e-02,-2.558153122663497925e-02,1.604870776645839214e-03,-6.384723633527755737e-02,-3.425361216068267822e-02,8.735936880111694336e-02,4.803438857197761536e-02,-4.153315350413322449e-02,2.993058972060680389e-02,4.839655384421348572e-02,1.058789044618606567e-01,1.278427429497241974e-02,-1.078502158634364605e-03,4.458682611584663391e-02,2.793017588555812836e-02,2.033477090299129486e-02,-2.088841795921325684e-02,6.368859857320785522e-02,9.252555668354034424e-03,2.471882663667201996e-02,4.986600950360298157e-02,6.366989016532897949e-02,-5.241131875663995743e-03,-2.461752854287624359e-02,-2.413078583776950836e-02,1.135796657763421535e-03,-5.576191097497940063e-02,-4.207793995738029480e-02,3.012148663401603699e-02,2.662559226155281067e-02,-1.689117848873138428e-01,-1.469187717884778976e-02,6.264435499906539917e-02,3.775683417916297913e-02,4.654742777347564697e-02,-1.189991948194801807e-03,2.087507862597703934e-03,5.866443738341331482e-02,-3.435418009757995605e-02,-1.600518077611923218e-02,7.711193989962339401e-03,6.889094412326812744e-02,2.257711626589298248e-02,-4.562114179134368896e-02,-2.777895517647266388e-02,1.660878583788871765e-02,1.736596040427684784e-02,5.661344528198242188e-02,6.773360818624496460e-02,-3.809015825390815735e-02,6.680896133184432983e-02,4.136080387979745865e-03,-4.275194182991981506e-02,6.578946113586425781e-02,-4.913891851902008057e-02,4.104106500744819641e-02,-2.906752936542034149e-02,2.451777830719947815e-02,3.114988654851913452e-02,-4.520744830369949341e-02,-1.338130515068769455e-02,4.662100225687026978e-02,-4.936271160840988159e-02,3.650156036019325256e-02,-2.223013434559106827e-03,3.601388260722160339e-02,2.966017089784145355e-02,2.960635162889957428e-02,1.442337222397327423e-02,1.403721608221530914e-02,6.130637228488922119e-02,-2.338187955319881439e-02,5.107983946800231934e-03,3.004074655473232269e-02,2.314694039523601532e-02,-4.264336079359054565e-02,-5.563215166330337524e-02,2.772303298115730286e-02,3.392013534903526306e-02,5.563716217875480652e-02,-5.487754940986633301e-02,5.153729766607284546e-02,-2.662718482315540314e-02,5.802451167255640030e-03,6.228743493556976318e-02,5.229975655674934387e-02,1.486807502806186676e-02,-5.297825112938880920e-02,-7.962440699338912964e-02,-2.357428427785634995e-03,-8.604069799184799194e-02,1.720050536096096039e-02,4.338441789150238037e-02,-1.210881676524877548e-02,8.303959667682647705e-02,-1.459829062223434448e-01,1.801150967366993427e-03,-2.199282124638557434e-02,-7.324508856981992722e-03,-8.213759213685989380e-02,-7.843060884624719620e-04,-8.104907721281051636e-02,-5.699052289128303528e-02,-5.110177025198936462e-02,1.062695588916540146e-02,-2.939609065651893616e-02,-1.830092817544937134e-02,-5.828182771801948547e-02,2.631397359073162079e-02,-7.050260901451110840e-02,1.120628640055656433e-01,-6.129068136215209961e-02,-3.250525146722793579e-02,4.316889122128486633e-02,6.714470684528350830e-02,1.667248271405696869e-02,4.992998018860816956e-02,-3.379973024129867554e-02,2.782993949949741364e-02,3.380158171057701111e-02,5.383839830756187439e-03,2.080492116510868073e-02,-6.968931760638952255e-03,-7.161370664834976196e-02,1.872422918677330017e-02,8.384925872087478638e-02,-1.543349027633666992e-02,1.842983765527606010e-03,1.601945608854293823e-03,-1.330118998885154724e-02,2.642814442515373230e-02,-5.784070864319801331e-02,-6.182247027754783630e-02,-5.886763706803321838e-02,7.519150618463754654e-03,-2.076661773025989532e-02,3.055368736386299133e-02,2.563458634540438652e-03,-2.149330638349056244e-02,5.145942419767379761e-02,5.061792675405740738e-03,3.185420855879783630e-02,-6.605571508407592773e-02,1.626321300864219666e-02,-1.176654640585184097e-02,1.059347242116928101e-01,9.413807839155197144e-02,-1.222346499562263489e-01,1.632826216518878937e-02,3.682829439640045166e-02,5.970577150583267212e-02,9.575860202312469482e-02,-6.426900625228881836e-02,-2.630876610055565834e-03,2.925307955592870712e-03,-3.920407220721244812e-02,8.326967060565948486e-02,1.281771436333656311e-02,-5.572034046053886414e-02,7.811471819877624512e-03,-9.636444738134741783e-04,-9.733478724956512451e-02,-2.801335602998733521e-02,-3.424191102385520935e-02,-3.655232489109039307e-02,-1.368553785141557455e-04,-6.945373117923736572e-02,7.222677022218704224e-02,-8.302398025989532471e-02,5.683734640479087830e-02,-5.028678849339485168e-02,-8.084304630756378174e-02,6.092490255832672119e-02,-3.178722783923149109e-02,9.381456300616264343e-03,3.242482617497444153e-02,2.457219921052455902e-02,1.243889778852462769e-01,3.679597377777099609e-02,-1.768382149748504162e-03,-4.332393780350685120e-02,2.284789085388183594e-02,4.693433176726102829e-03,-1.032908260822296143e-01,-6.201614812016487122e-02,-5.164645612239837646e-02,-6.774345785379409790e-02,-6.824201345443725586e-02,-6.229421868920326233e-02,1.040998101234436035e-02,-5.950136855244636536e-02,-1.062148585915565491e-01,-3.620021045207977295e-02,-9.334868751466274261e-03,-6.092730164527893066e-02,-1.630869880318641663e-02,-1.131213363260030746e-02,6.698129326105117798e-02,3.370652720332145691e-02,-1.095232740044593811e-01,1.453629136085510254e-02,-3.374330326914787292e-02,-2.705263672396540642e-03,5.470212548971176147e-02,1.969657465815544128e-02,-4.013204481452703476e-03,-7.867105305194854736e-02,4.337539523839950562e-02,-6.095843017101287842e-02,-5.725410580635070801e-02,3.207436949014663696e-02,9.905172511935234070e-03,1.333424262702465057e-02,-3.527854755520820618e-02,-9.555567055940628052e-02,5.042999610304832458e-02,2.631796710193157196e-02,-8.982725441455841064e-02,-4.597580432891845703e-02,3.636775910854339600e-02,6.635096669197082520e-02,3.450077027082443237e-02,8.093346841633319855e-03,6.477778404951095581e-02,-1.390668004751205444e-01,6.184304878115653992e-02,-2.545892074704170227e-02,-4.027639329433441162e-02,-1.035389397293329239e-02,7.297907769680023193e-02,-2.510301209986209869e-02,-1.556219626218080521e-02,-1.083064675331115723e-01,3.854481875896453857e-02,-2.855690254364162683e-04,3.408532962203025818e-02,-5.097457021474838257e-02,2.495340071618556976e-02,-9.795181686058640480e-04,4.408817365765571594e-02,-7.590724620968103409e-03,7.422068715095520020e-02,-3.002032078802585602e-02,-2.108565345406532288e-02,-3.880143165588378906e-02,6.875587254762649536e-02,1.059355586767196655e-02,4.763083904981613159e-02,1.007199566811323166e-02,2.402727678418159485e-02,-1.677988469600677490e-01,-2.302868850529193878e-02,-6.344461441040039062e-02,-5.792999267578125000e-02,-9.247649461030960083e-02,-5.726089328527450562e-02,-3.919421136379241943e-02,2.388649992644786835e-02,1.918348670005798340e-02,2.642992325127124786e-02,-7.679525762796401978e-02,-8.315455168485641479e-02,3.237809613347053528e-02,5.452856048941612244e-02,-6.733962893486022949e-02,8.109715580940246582e-02,-8.614535629749298096e-02,3.739153966307640076e-02,-6.881265342235565186e-02,7.662427425384521484e-02,-3.043623641133308411e-02,4.750519618391990662e-02,2.494694851338863373e-02,7.697086781263351440e-03,5.066399276256561279e-02,-8.929169736802577972e-03,-1.253104768693447113e-02,-3.397968038916587830e-02,3.981017693877220154e-02,-5.843101441860198975e-02,5.562353879213333130e-02,-2.704775892198085785e-02,1.569657586514949799e-02,-2.708785049617290497e-02,-8.978509902954101562e-02,-6.929710507392883301e-02,2.752050012350082397e-02,2.769997157156467438e-02,4.463020339608192444e-02,-2.148778922855854034e-02,8.542845025658607483e-03,1.144929509609937668e-02,3.259610012173652649e-02,-3.839033842086791992e-02,5.569619312882423401e-02,-9.132790565490722656e-02,-8.374893665313720703e-02,2.877663075923919678e-02,-3.178575634956359863e-02,6.006630882620811462e-02,-8.398832380771636963e-02,-4.220637306571006775e-02,-2.039277255535125732e-01,-2.950589731335639954e-02,-7.402855157852172852e-02,-5.196195840835571289e-02,1.055882498621940613e-02,-1.173256244510412216e-02,2.498531341552734375e-02,-6.743758171796798706e-02,-1.387046128511428833e-01,5.802014842629432678e-03,-7.449015043675899506e-03,-1.447266899049282074e-02,-2.314837183803319931e-03,9.965971112251281738e-02,-2.703995257616043091e-02,2.256565028801560402e-03,-3.125979378819465637e-02,-5.057561025023460388e-02,1.731180772185325623e-02,-6.794812623411417007e-03,-1.338105555623769760e-02,-5.605687573552131653e-02,9.698724374175071716e-03,-2.482528984546661377e-02,5.082136765122413635e-02,9.881831705570220947e-02,-1.622608280740678310e-03,-2.906761318445205688e-02,-1.370084434747695923e-01,-9.850139170885086060e-02,-5.449818447232246399e-02,-2.896675281226634979e-02,-9.113734215497970581e-02,-3.157482948154211044e-03,3.495774418115615845e-02,-3.782281652092933655e-02,-1.252469699829816818e-02,8.710957132279872894e-03,-1.816856302320957184e-02,6.471273303031921387e-02,-1.250751223415136337e-02,-3.922052308917045593e-02,5.022805929183959961e-02,7.780494540929794312e-02,-3.238458186388015747e-02,-6.007605791091918945e-02,-9.994849562644958496e-02,5.769715644419193268e-03,-6.137074530124664307e-02,4.520040005445480347e-03,2.933962829411029816e-02,1.580680161714553833e-02,-1.303465068340301514e-01,2.641262672841548920e-02,-3.482020925730466843e-03,5.161557719111442566e-02,-7.045559585094451904e-02,8.633888326585292816e-03,1.073941309005022049e-02,-4.229462519288063049e-02,5.663921311497688293e-02,-4.025797359645366669e-03,-6.153087597340345383e-03,-1.888836547732353210e-02,-8.374956995248794556e-02,-6.784560531377792358e-02,-2.418607473373413086e-02,-6.147893145680427551e-02,2.273015491664409637e-02,5.698907189071178436e-03,1.615419425070285797e-02,8.024020493030548096e-02,5.104951187968254089e-02,-6.756566464900970459e-02,-1.408014446496963501e-01,-1.322297900915145874e-01,-5.103922914713621140e-03,-3.480423241853713989e-02,4.655759409070014954e-02,-1.193465571850538254e-02,-8.536871522665023804e-02,-1.512751076370477676e-02,-6.923203915357589722e-02,-6.376715749502182007e-02,-1.267751865088939667e-02,7.205291651189327240e-03,1.632367447018623352e-02,3.347987309098243713e-02,-9.574381262063980103e-02,-9.488921612501144409e-02,-3.262909874320030212e-02,2.840582048520445824e-03,9.794253110885620117e-02,-7.321505993604660034e-02,5.996199324727058411e-02,-8.053488284349441528e-02,1.161579694598913193e-02,3.416841477155685425e-02,-3.620989248156547546e-02,6.964065134525299072e-02,-6.572007387876510620e-02,-3.186988830566406250e-02,-7.711216062307357788e-02,-1.167659461498260498e-02,4.126758873462677002e-02,3.214337676763534546e-02,-5.521899834275245667e-02,3.911020606756210327e-02,-1.022622827440500259e-02,-7.460490334779024124e-03,-6.667567044496536255e-02,-2.294437773525714874e-02,4.863488674163818359e-02,-6.086623668670654297e-02,-7.614838425070047379e-03,-4.455080255866050720e-02,4.797952249646186829e-02,8.030192553997039795e-02,-6.292690336704254150e-02,1.023376211524009705e-01,1.285226084291934967e-02,-2.097624354064464569e-02,-5.858004093170166016e-02,-8.141998946666717529e-02,4.682660102844238281e-02,5.904786288738250732e-02,-6.699477136135101318e-02,-8.210965991020202637e-02,-9.606117964722216129e-04,-5.107015743851661682e-02,6.162107922136783600e-03,-1.129920929670333862e-01,1.044432967901229858e-01,-4.669852182269096375e-02,1.002500429749488831e-01,8.555634878575801849e-03,3.015796281397342682e-02,-3.295894712209701538e-02,3.951451182365417480e-02,-5.775572359561920166e-02,2.864335291087627411e-02,-2.297995379194617271e-03,-1.032422110438346863e-01,-2.288664691150188446e-02,4.390909522771835327e-02,1.466255355626344681e-02,6.225048750638961792e-02,2.001591771841049194e-02,3.279722481966018677e-02,-2.954944968223571777e-02,-2.013487368822097778e-02,-1.085169613361358643e-03,-5.308607220649719238e-02,-1.810766197741031647e-02,-2.887957030907273293e-03,1.456211321055889130e-02,7.379014045000076294e-02,-1.822708547115325928e-02,1.170595213770866394e-01,4.872493818402290344e-02,-2.104927599430084229e-02,-1.035994589328765869e-01,-8.171683549880981445e-02,1.423208508640527725e-02,-7.069801539182662964e-02,-3.569914028048515320e-02,-9.963987767696380615e-02,-7.085482031106948853e-02,-6.151319667696952820e-02,-7.821416854858398438e-02,1.237874198704957962e-02,-7.009481638669967651e-02,-2.392209880053997040e-02,-3.495749458670616150e-02,-5.141722410917282104e-02,-5.068124830722808838e-02,4.269447235856205225e-04,2.953848801553249359e-03,-1.240209862589836121e-01,-3.549886494874954224e-02,-1.193242967128753662e-01,-6.519363820552825928e-02,-5.715393926948308945e-03,-2.469553984701633453e-02,-8.649230003356933594e-02,-2.770564332604408264e-02,-4.152199253439903259e-03,-2.183551155030727386e-02,-5.454720929265022278e-02,-4.594679176807403564e-02,-4.476336762309074402e-02,-7.093300670385360718e-02,-4.370427876710891724e-02,-4.155807569622993469e-02,3.325352678075432777e-03,3.331800922751426697e-02,-4.209907725453376770e-02,-1.342677175998687744e-01,-2.678095363080501556e-02,-5.593824200332164764e-03,-4.317098110914230347e-02,1.012782752513885498e-02,-3.825421258807182312e-02,-2.504645101726055145e-02,-3.634036332368850708e-02,-1.726735383272171021e-02,-4.248666390776634216e-02,-5.219615250825881958e-02,-1.110938861966133118e-01,2.658002451062202454e-02,-4.673816636204719543e-02,-3.151583299040794373e-02,-6.922453176230192184e-03,-9.685213118791580200e-02,-1.819816678762435913e-01,1.285948604345321655e-02,9.131515771150588989e-02,1.288450229912996292e-02,-4.277276620268821716e-02,7.584919035434722900e-02,-2.430845797061920166e-02,-7.338690757751464844e-02,-9.698604047298431396e-02,-8.387750945985317230e-03,-8.180050551891326904e-02,6.408303976058959961e-02,-8.798050880432128906e-02,-3.515346348285675049e-02,-6.761302053928375244e-02,-5.631101876497268677e-02,-1.155478954315185547e-01,-5.118613690137863159e-02,-6.917974352836608887e-02,-5.606909468770027161e-02,-5.054918304085731506e-02,7.987007498741149902e-03,-5.088346078991889954e-02,-6.615386158227920532e-02,-5.027063935995101929e-02,-1.151861175894737244e-01,-6.634200364351272583e-02,-4.610100761055946350e-03,-1.510936114937067032e-02,-4.466561973094940186e-02,-1.538354530930519104e-02,-2.577391825616359711e-02,-1.224719136953353882e-01,-7.065416872501373291e-02,-3.554456308484077454e-02,-3.456200286746025085e-02,-1.074258238077163696e-01,-6.685031950473785400e-02,-5.852693691849708557e-02,-6.328836083412170410e-02,-4.459976777434349060e-02,-7.006163150072097778e-02,-1.722538843750953674e-02,-7.551148533821105957e-03,1.882060058414936066e-02,-6.259386986494064331e-02,-1.934207044541835785e-02,-1.005242094397544861e-01,-4.946962371468544006e-02,-4.329401999711990356e-02,-8.274016529321670532e-02,3.927490115165710449e-02,-3.467714041471481323e-02,-8.736999332904815674e-02,-4.228225350379943848e-02,1.393094938248395920e-02,-1.121099013835191727e-02,-3.833170514553785324e-03,-6.176330149173736572e-02,-3.248519077897071838e-02,6.634581834077835083e-02,-6.309019774198532104e-02,-4.263090342283248901e-02,-7.768682390451431274e-02,-2.184518054127693176e-02,-4.758732020854949951e-02,-5.052000284194946289e-02,-9.946580976247787476e-03,-1.265512313693761826e-03,-4.877923801541328430e-02,-1.556717511266469955e-02,-1.076811999082565308e-01,-9.284892678260803223e-02,-4.575791954994201660e-02,-6.453071534633636475e-02,2.482266351580619812e-02,4.116175230592489243e-03,3.925279900431632996e-02,3.423490375280380249e-02,-9.640769101679325104e-03,-4.218149930238723755e-02,6.027662381529808044e-02,-5.071121826767921448e-02,3.442604467272758484e-02,2.540881186723709106e-02,1.933202147483825684e-02,3.389796987175941467e-02,-3.881638124585151672e-02,4.152047261595726013e-02,2.630756609141826630e-02,6.079650670289993286e-02,-4.539802297949790955e-02,-2.620339393615722656e-02,2.779683843255043030e-02,3.412546962499618530e-02,-1.880519650876522064e-02,-1.478824391961097717e-02,1.833931356668472290e-02,-6.481668096967041492e-04,1.575257480144500732e-01,2.877742797136306763e-02,6.430192291736602783e-02,1.252739429473876953e-01,-8.683864772319793701e-02,-5.332182627171278000e-03,-9.699956327676773071e-02,2.578607387840747833e-02,-3.081042133271694183e-02,8.555597811937332153e-02,-5.916675552725791931e-03,7.465925812721252441e-02,-1.920966617763042450e-02,-5.896783620119094849e-02,-1.997550204396247864e-02,-8.736368268728256226e-02,1.945160329341888428e-02,6.967315077781677246e-02,-1.824585162103176117e-02,5.330929707270115614e-05,-2.689063549041748047e-02,4.175461456179618835e-02,1.799931167624890804e-03,-6.954034790396690369e-03,6.202819570899009705e-02,3.677185252308845520e-02,-4.481955617666244507e-02,7.393443584442138672e-02,2.862291783094406128e-02,-5.311295017600059509e-02,6.912442855536937714e-03,3.970667719841003418e-02,1.592648774385452271e-02,1.164833828806877136e-02,-4.640126973390579224e-02,-2.010607160627841949e-02,9.125960059463977814e-03,-5.564702674746513367e-02,8.344868570566177368e-02,-8.172181993722915649e-02,7.811994757503271103e-03,2.144389227032661438e-02,1.194431725889444351e-02,5.323254968971014023e-03,-4.760603606700897217e-02,2.436112798750400543e-02,3.550631925463676453e-02,1.104666851460933685e-02,-1.881237607449293137e-03,8.168547600507736206e-02,-3.340999782085418701e-02,1.455650571733713150e-02,-7.270105183124542236e-02,-3.697530925273895264e-02,9.251573681831359863e-02,9.363337419927120209e-03,-6.390553712844848633e-02,-7.984307408332824707e-02,-1.323270052671432495e-01,8.438590914011001587e-02,8.710150606930255890e-03,-7.111702114343643188e-02,-4.496160522103309631e-02,-6.962714344263076782e-02,1.594805798958986998e-04,-1.051558107137680054e-01,2.804958820343017578e-02,1.094329878687858582e-01,2.084106672555208206e-03,2.463582530617713928e-02,2.031364850699901581e-02,3.521781787276268005e-02,2.356946468353271484e-02,6.510033272206783295e-03,6.904532667249441147e-03,-8.189377188682556152e-02,8.941414952278137207e-02,-3.803133219480514526e-02,1.903526857495307922e-02,-2.985070087015628815e-02,8.646182715892791748e-02,3.594859689474105835e-02,1.655786670744419098e-02,1.383791714906692505e-01,-2.689987234771251678e-02,5.021032411605119705e-03,4.875028133392333984e-02,1.246285531669855118e-02,2.893775515258312225e-02,1.709783263504505157e-02,1.333155781030654907e-01,1.079502254724502563e-01,-1.319251582026481628e-02,3.226764872670173645e-02,2.739334478974342346e-02,1.191891133785247803e-01,1.059486530721187592e-02,-9.753706306219100952e-02,1.226822808384895325e-01,-4.018541425466537476e-03,-5.369867011904716492e-02,-1.918143779039382935e-02,1.559991091489791870e-01,5.248482897877693176e-02,-2.035075426101684570e-02,5.568839609622955322e-02,-7.661466021090745926e-03,4.233134910464286804e-02,4.737174883484840393e-02,-4.858765378594398499e-02,7.518135011196136475e-02,-1.684857718646526337e-02,-1.298350561410188675e-02,1.619446277618408203e-02,3.192634135484695435e-02,3.909265995025634766e-02,-3.876874980051070452e-04,8.037416846491396427e-04,-2.276536263525485992e-02,6.667183246463537216e-03,-1.742578111588954926e-02,-3.978954628109931946e-02,1.400503516197204590e-01,4.213870316743850708e-02,2.388417720794677734e-02,-2.300770953297615051e-02,-3.611261397600173950e-02,6.154743582010269165e-02,-5.000661127269268036e-03,-9.538149088621139526e-02,6.979331374168395996e-02,2.830883953720331192e-03,-3.501739352941513062e-02,-5.789306387305259705e-02,-4.641523119062185287e-03,-7.391541730612516403e-04,7.398740202188491821e-02,9.674594737589359283e-03,-4.990395391359925270e-04,1.324166636914014816e-02,1.370409596711397171e-02,3.440264239907264709e-02,7.699923217296600342e-02,8.954338729381561279e-02,-2.008576318621635437e-02,5.607404559850692749e-02,-9.133278392255306244e-03,-4.169440269470214844e-02,2.750031091272830963e-02,5.165114253759384155e-02,-5.610569380223751068e-03,-9.819983504712581635e-03,-4.219234362244606018e-02,1.014118641614913940e-01,-1.833336614072322845e-02,9.799854457378387451e-02,-1.876096799969673157e-02,-2.427330799400806427e-02,2.421305328607559204e-02,3.066377947106957436e-03,6.975015997886657715e-02,-7.488272339105606079e-02,-1.799312606453895569e-02,2.702879160642623901e-02,-1.223604485858231783e-04,4.996519908308982849e-02,-1.094607543200254440e-02,2.358832769095897675e-02,-1.427207514643669128e-02,6.009260937571525574e-02,6.624941527843475342e-02,-3.147976845502853394e-02,4.800747334957122803e-02,3.837575390934944153e-02,1.172676011919975281e-01,4.459274932742118835e-02,2.259717322885990143e-02,2.227988280355930328e-02,2.530395239591598511e-02,-8.815829642117023468e-03,5.560487136244773865e-02,5.996789038181304932e-02,-7.740102708339691162e-03,-6.216716393828392029e-02,-1.332268957048654556e-02,5.708752200007438660e-02,2.536634914577007294e-02,9.834511578083038330e-02,-3.440740704536437988e-02,2.108953334391117096e-02,1.847770623862743378e-02,9.580683708190917969e-02,-4.533258825540542603e-02,1.422269549220800400e-02,1.510418485850095749e-02,-1.245239749550819397e-02,7.307448983192443848e-02,-4.235472530126571655e-02,4.937000200152397156e-02,-4.794870689511299133e-02,1.100813299417495728e-01,6.994988024234771729e-02,-4.943675920367240906e-02,6.892542541027069092e-02,-3.149889037013053894e-02,5.637615919113159180e-02,1.313865035772323608e-01,-2.205870114266872406e-02,-2.292292378842830658e-02,-3.025598637759685516e-02,-5.917880480410531163e-05,-1.330849528312683105e-02,8.727086242288351059e-04,-9.927448816597461700e-03,9.471884369850158691e-02,2.275313716381788254e-03,1.978709734976291656e-02,-6.726817786693572998e-02,-3.125186264514923096e-02,-3.629526868462562561e-02,1.699172332882881165e-02,-2.340070903301239014e-02,1.418319791555404663e-01,2.876790612936019897e-02,8.179055526852607727e-03,7.268174085766077042e-03,-3.837901726365089417e-02,5.152039602398872375e-02,-4.499965161085128784e-02,4.949969053268432617e-02,-4.837652668356895447e-02,4.345709457993507385e-02,-1.441845763474702835e-02,5.032845959067344666e-02,-1.049215532839298248e-02,-1.209780666977167130e-02,3.440428152680397034e-02,2.677917666733264923e-02,-8.422083407640457153e-02,6.438252329826354980e-02,-7.717974483966827393e-03,-2.898819558322429657e-02,-8.869109442457556725e-04,-2.934517711400985718e-02,5.471060797572135925e-02,6.894271075725555420e-02,-6.739839166402816772e-02,6.829944904893636703e-03,-1.115511450916528702e-02,7.930175401270389557e-03,5.083785206079483032e-02,-5.489381402730941772e-02,-1.117541044950485229e-01,-6.977471709251403809e-02,3.405483067035675049e-02,-7.941099256277084351e-02,-4.534751176834106445e-02,-7.981721311807632446e-02,-2.388626523315906525e-02,-4.982982575893402100e-02,8.190692961215972900e-02,6.643660366535186768e-02,8.308590389788150787e-03,4.232420399785041809e-02,-9.403990209102630615e-02,-4.151772300247102976e-04,3.199474886059761047e-02,-2.136104740202426910e-02,4.406830668449401855e-02,1.161257624626159668e-01,5.288154631853103638e-02,7.281062752008438110e-02,-2.741220407187938690e-02,-5.687890946865081787e-02,5.609159171581268311e-02,4.392305016517639160e-02,-4.891683906316757202e-02,-1.049545928835868835e-01,-8.514529094099998474e-03,-7.514921575784683228e-02,5.105430725961923599e-03,6.020645797252655029e-02,-3.220946714282035828e-02,4.689866304397583008e-02,-7.583283632993698120e-02,-1.919388025999069214e-02,3.632668405771255493e-02,-5.867458879947662354e-02,-1.064742207527160645e-01,3.150774165987968445e-02,1.212991476058959961e-01,2.282418869435787201e-02,4.267904907464981079e-02,8.510731160640716553e-02,8.004810079000890255e-04,-2.240586280822753906e-02,1.452032756060361862e-02,-8.811369538307189941e-02,-2.689028624445199966e-03,4.929472133517265320e-02,-5.457103624939918518e-02,4.262344539165496826e-02,-1.392100751399993896e-02,-5.815481394529342651e-02,-2.096382901072502136e-02,-6.214945763349533081e-02,-2.935052290558815002e-02,-7.340210489928722382e-03,-4.815066605806350708e-02,2.331767790019512177e-02,4.499217960983514786e-03,1.223087427206337452e-03,2.417702786624431610e-02,8.929774165153503418e-02,5.119752511382102966e-02,4.662079736590385437e-02,-8.364944718778133392e-03,-2.905839588493108749e-03,7.064563035964965820e-02,-4.213677346706390381e-02,-5.008947849273681641e-02,4.052854608744382858e-03,7.769548147916793823e-02,-4.001206904649734497e-02,-6.243967916816473007e-03,-4.436614364385604858e-02,-1.197111606597900391e-01,-1.906607672572135925e-02,8.024211227893829346e-02,7.778541743755340576e-02,4.691361449658870697e-03,3.791731595993041992e-02,-5.984543263912200928e-02,5.421607196331024170e-02,-1.387067139148712158e-02,3.771705552935600281e-02,3.124509379267692566e-02,6.573301553726196289e-02,-1.853436231613159180e-02,1.236373186111450195e-02,8.201619610190391541e-03,-1.934608444571495056e-02,3.181913867592811584e-02,-7.173326611518859863e-02,8.528775721788406372e-02,-2.801590040326118469e-02,-2.116995491087436676e-02,5.696896463632583618e-03,-2.338200621306896210e-02,3.451020270586013794e-02,-2.851992100477218628e-02,3.533251211047172546e-02,-3.424296528100967407e-02,3.980583325028419495e-02,-1.181660220026969910e-02,6.177910044789314270e-02,9.099665097892284393e-03,-1.901298202574253082e-02,-4.708489775657653809e-02,1.496449392288923264e-02,9.431877732276916504e-02,-5.363879352807998657e-02,1.169091463088989258e-02,-2.868544124066829681e-02,-1.187399700284004211e-01,-1.502875704318284988e-02,2.172244898974895477e-02,-9.703862667083740234e-02,-3.426514938473701477e-02,8.033687621355056763e-02,2.166894264519214630e-02,3.183351829648017883e-03,9.010010212659835815e-02,2.468333952128887177e-02,5.114968866109848022e-03,-1.438683718442916870e-01,8.418875746428966522e-03,1.720526814460754395e-02,-3.895702958106994629e-02,3.307171631604433060e-03,8.233728818595409393e-03,-7.273542135953903198e-02,-6.120629981160163879e-02,-6.117520853877067566e-02,6.093737110495567322e-02,-6.962891668081283569e-02,-4.955395124852657318e-03,9.925602376461029053e-02,-7.616945356130599976e-02,5.084465444087982178e-02,7.824300974607467651e-02,-1.057396158576011658e-01,-6.461326777935028076e-02,5.024937447160482407e-03,-7.743935286998748779e-02,-9.580109268426895142e-02,6.391075253486633301e-02,5.464689061045646667e-02,-6.275059189647436142e-03,-3.360920026898384094e-02,-7.610414177179336548e-02,-3.925790637731552124e-02,-2.097023464739322662e-02,4.160431399941444397e-02,-9.073686785995960236e-03,3.126522898674011230e-02,-1.001377180218696594e-01,-1.198157761245965958e-02,1.422347128391265869e-02,-2.639042027294635773e-02,6.403391808271408081e-02,-2.463740482926368713e-02,1.057375408709049225e-02,6.476862728595733643e-02,-2.739734575152397156e-02,1.155894715338945389e-02,-3.229800239205360413e-02,1.324506998062133789e-01,-3.695884346961975098e-02,6.822625547647476196e-02,5.845215916633605957e-02,2.291650883853435516e-02,1.117803249508142471e-02,4.633955657482147217e-02,-7.305923104286193848e-02,5.496804416179656982e-02,-8.325990289449691772e-02,-1.405542995780706406e-02,-3.236242756247520447e-02,-1.101035159081220627e-03,6.727359723299741745e-03,3.830410540103912354e-02,-5.264652892947196960e-02,-6.805590353906154633e-03,-9.938303381204605103e-02,-1.273117512464523315e-01,-3.219442814588546753e-02,-2.737601473927497864e-02,5.089545994997024536e-02,-4.870741069316864014e-02,-5.782316904515028000e-03,-6.856749206781387329e-02,3.833660110831260681e-02,1.031374931335449219e-02,-2.545648254454135895e-02,4.877534136176109314e-02,8.174659311771392822e-02,-2.593663707375526428e-02,-1.235153377056121826e-01,1.652088575065135956e-02,2.467839792370796204e-02,5.636193975806236267e-02,-1.857113651931285858e-02,-1.466139405965805054e-01,-4.628429561853408813e-02,-2.442881651222705841e-02,-1.944078505039215088e-02,-1.613398268818855286e-02,-2.567742578685283661e-02,-4.463548306375741959e-03,6.731953471899032593e-02,2.961048856377601624e-02,9.297307580709457397e-03,-6.786817312240600586e-02,5.764434486627578735e-02,-4.077174887061119080e-02,4.090623557567596436e-02,1.030313223600387573e-01,3.113447874784469604e-02,-2.158287353813648224e-02,-4.297400638461112976e-02,3.725911676883697510e-02,3.912973031401634216e-02,-6.837524473667144775e-02,9.947494417428970337e-02,1.332133263349533081e-01,1.604907587170600891e-02,1.732580959796905518e-01,2.467947639524936676e-02,-9.607156738638877869e-03,-9.317243471741676331e-03,1.523519214242696762e-02,1.546171456575393677e-01,-3.452119231224060059e-02,-2.137912251055240631e-02,-1.789141632616519928e-02,1.160034015774726868e-01,-1.024707406759262085e-02,-6.568604148924350739e-03,-1.295335311442613602e-02,5.011545959860086441e-03,-2.060842141509056091e-02,8.397977054119110107e-02,1.339165419340133667e-01,2.868109382688999176e-02,1.482197083532810211e-02,-1.781299151480197906e-02,1.017622351646423340e-01,-8.421818912029266357e-02,9.876497089862823486e-03,-1.722594909369945526e-02,-2.982999011874198914e-02,1.012227684259414673e-01,7.677993923425674438e-02,-2.735059335827827454e-02,-1.010856823995709419e-03,-8.810132741928100586e-02,5.243591591715812683e-02,5.940405279397964478e-02,-2.254765480756759644e-03,2.629607543349266052e-02,5.672216881066560745e-03,5.232172459363937378e-02,-1.661917008459568024e-02,-2.738316729664802551e-02,4.354432225227355957e-02,-6.756518501788377762e-03,8.687662333250045776e-02,1.105509400367736816e-01,5.719260871410369873e-02,-3.953469917178153992e-02,3.829737007617950439e-02,-5.995938554406166077e-02,1.316561847925186157e-01,4.365647584199905396e-02,-8.983882516622543335e-02,4.180963337421417236e-02,-9.603544138371944427e-03,4.416814818978309631e-02,5.634475871920585632e-02,-1.058777980506420135e-02,2.474980242550373077e-02,2.921088598668575287e-02,7.799109444022178650e-03,9.151427447795867920e-02,-4.209571331739425659e-02,-1.174425054341554642e-02,-6.518256664276123047e-02,-4.850353114306926727e-03,-1.915130391716957092e-02,4.768542200326919556e-02,2.014805004000663757e-02,1.167289316654205322e-01,9.055319428443908691e-02,5.553901940584182739e-02,5.187954008579254150e-02,6.274729222059249878e-02,1.339406706392765045e-02,-3.875793889164924622e-02,-2.744049392640590668e-02,8.483938872814178467e-03,8.394014835357666016e-02,1.106689870357513428e-01,9.176811575889587402e-02,1.914738118648529053e-02,3.342970460653305054e-02,1.058804243803024292e-01,2.935827895998954773e-02,-1.463726609945297241e-01,4.233476147055625916e-02,-3.794551268219947815e-02,-1.454495452344417572e-02,3.195425122976303101e-02,1.231857910752296448e-01,-6.102266907691955566e-02,-5.147888138890266418e-02,-3.483575582504272461e-02,-5.376931652426719666e-02,-6.829820573329925537e-02,7.711107283830642700e-02,7.102598249912261963e-02,-1.077248677611351013e-01,1.041204929351806641e-01,1.309342235326766968e-01,8.416480384767055511e-03,-7.712348550558090210e-02,-3.823436424136161804e-02,-4.589275922626256943e-03,1.294382731430232525e-03,5.772253964096307755e-03,-6.513308733701705933e-02,-9.694725275039672852e-03,5.745157599449157715e-02,-5.639994516968727112e-03,-1.175741199404001236e-02,2.489918470382690430e-02,-2.308926731348037720e-02,1.592036895453929901e-02,-1.728657074272632599e-02,-7.035469170659780502e-04,-8.451265841722488403e-02,1.984142139554023743e-02,-2.479971945285797119e-02,-4.027294740080833435e-02,-5.611982196569442749e-02,4.878847859799861908e-03,-8.997945114970207214e-03,-7.957724481821060181e-02,5.398904532194137573e-02,-5.461678653955459595e-02,3.008715249598026276e-02,9.811215102672576904e-02,1.580969255883246660e-04,-3.248835355043411255e-02,3.587105125188827515e-02,-6.719433236867189407e-03,7.007898762822151184e-03,2.256901748478412628e-02,-3.125452250242233276e-02,-2.091083116829395294e-02,2.074435725808143616e-02,-5.006219074130058289e-02,3.699335269629955292e-03,-5.262533947825431824e-02,1.902600005269050598e-02,-2.676539309322834015e-02,-9.745252132415771484e-02,-9.968851372832432389e-05,-3.951330110430717468e-02,1.005245149135589600e-01,7.619536668062210083e-02,2.541172318160533905e-03,-1.818256638944149017e-02,4.293723776936531067e-02,-1.042664647102355957e-01,6.213143095374107361e-02,-8.865877054631710052e-03,-3.957402333617210388e-02,1.059741973876953125e-01,1.066553071141242981e-01,6.224784627556800842e-02,-6.290271994657814503e-04,5.880146473646163940e-02,8.029310405254364014e-02,6.249562650918960571e-02,1.196404686197638512e-03,2.626089192926883698e-02,4.886033013463020325e-02,5.215060338377952576e-02,4.554478451609611511e-02,7.618199288845062256e-02,3.943562507629394531e-02,-2.694241888821125031e-02,-4.595145210623741150e-02,-6.288442760705947876e-02,-5.085960030555725098e-03,-1.775125227868556976e-02,1.033102627843618393e-03,3.462969511747360229e-02,-3.930167481303215027e-02,1.009867265820503235e-01,8.157052844762802124e-02,-4.631895944476127625e-02,3.519357740879058838e-02,6.663361191749572754e-02,-1.359089650213718414e-02,1.211246997117996216e-01,1.836861018091440201e-03,8.966404199600219727e-02,3.029957227408885956e-02,-4.504027590155601501e-02,4.351292736828327179e-03,4.771094024181365967e-02,3.083614865317940712e-03,-2.587216347455978394e-02,7.716424763202667236e-03,9.482722729444503784e-02,4.212578758597373962e-02,-1.417253445833921432e-02,9.004265302792191505e-04,4.492738470435142517e-02,-2.778440248221158981e-03,1.271376293152570724e-02,-2.321139350533485413e-02,-2.890239655971527100e-02,-2.082275599241256714e-02,1.231893151998519897e-01,-4.975099582225084305e-03,3.175897523760795593e-02,-1.830746419727802277e-02,-9.806899353861808777e-03,-1.138716842979192734e-02,6.890696287155151367e-02,6.768642365932464600e-02,3.505602013319730759e-03,1.170260220533236861e-04,-8.139129728078842163e-03,-6.031309813261032104e-02,3.814906999468803406e-02,1.630597002804279327e-02,-2.474553883075714111e-02,3.440646454691886902e-02,-3.852527961134910583e-02,1.036616449709981680e-04,-4.894364997744560242e-02,1.168089825659990311e-02,4.810101538896560669e-02,3.121677413582801819e-02,-3.641635179519653320e-02,8.004400879144668579e-02,1.165406703948974609e-01,-4.754078015685081482e-02,-2.732498198747634888e-02,3.943339362740516663e-02,9.173993952572345734e-03,-3.333103656768798828e-02,-3.673010692000389099e-02,1.125073879957199097e-01,-2.658544853329658508e-02,1.032261177897453308e-02,2.325361780822277069e-02,6.832141429185867310e-02,-4.639478400349617004e-03,2.259717509150505066e-02,5.032413080334663391e-02,-3.539473284035921097e-03,1.422603148967027664e-02,9.123194217681884766e-02,-8.235620334744453430e-03,3.299628570675849915e-02,-1.116675138473510742e-02,5.771015770733356476e-03,-7.859473675489425659e-02,8.528529852628707886e-02,2.979652956128120422e-02,-8.972945809364318848e-02,3.469619899988174438e-02,8.442325145006179810e-02,9.819497354328632355e-03,-2.977082319557666779e-02,9.583258628845214844e-02,8.166541904211044312e-02,-3.457176499068737030e-03,5.443609505891799927e-02,-4.628179222345352173e-02,4.963425919413566589e-02,-5.137092620134353638e-02,-2.617443539202213287e-02,7.495218515396118164e-02,7.493138313293457031e-02,7.049283385276794434e-02,7.405950129032135010e-02,3.863541409373283386e-02,4.296356812119483948e-02,-1.164621580392122269e-02,-6.702778488397598267e-02,-5.504975095391273499e-02,3.412242978811264038e-02,-1.594227924942970276e-02,2.546877227723598480e-02,2.210774458944797516e-02,-5.680891685187816620e-03,-1.452533006668090820e-01,7.343949750065803528e-03,-2.482946217060089111e-02,-8.137872815132141113e-02,2.289669588208198547e-02,1.410823501646518707e-02,4.863546043634414673e-02,-2.707302197813987732e-02,3.270254237577319145e-03,2.974656969308853149e-02,9.019893594086170197e-03,8.277019485831260681e-03,-2.822358533740043640e-02,4.184645600616931915e-03,-1.113385930657386780e-01,6.621565204113721848e-03,7.341104792430996895e-04,-5.496763065457344055e-02,-6.745231151580810547e-02,5.195362027734518051e-03,-7.701560109853744507e-02,-8.120690286159515381e-02,-2.409309893846511841e-02,-4.878838360309600830e-02,1.456695795059204102e-02,-1.100812330842018127e-01,-4.648437350988388062e-02,1.566218957304954529e-02,7.265970110893249512e-02,2.023965306580066681e-02,1.151465401053428650e-01,-1.097810827195644379e-02,3.267362341284751892e-02,-3.082482330501079559e-02,9.310322254896163940e-02,-2.569241914898157120e-03,-1.051090136170387268e-01,-2.120402269065380096e-02,3.473179414868354797e-02,3.083830699324607849e-03,-7.111128419637680054e-02,-2.353281527757644653e-02,9.146657586097717285e-02,4.710134118795394897e-02,-6.546796113252639771e-02,-1.713718660175800323e-02,-5.602516233921051025e-02,-4.330348223447799683e-02,-3.258322179317474365e-02,2.870396338403224945e-02,-3.439587727189064026e-02,7.463731616735458374e-02,1.400396134704351425e-02,1.947234012186527252e-02,-2.409360185265541077e-02,5.886633880436420441e-03,-9.802800416946411133e-02,2.439375594258308411e-02,4.430195689201354980e-02,-2.890972793102264404e-02,-4.585590213537216187e-02,-2.542032115161418915e-02,-1.539446879178285599e-02,5.930496752262115479e-02,4.455860331654548645e-02,-6.831564754247665405e-02,-2.630887739360332489e-02,-1.520751416683197021e-02,-2.881950698792934418e-02,1.017277222126722336e-02,-8.296407014131546021e-02,-5.808063223958015442e-02,-1.276760175824165344e-02,1.334789115935564041e-02,-4.279351606965065002e-02,3.159719705581665039e-02,-5.551273003220558167e-02,-2.231523627415299416e-03,6.599797308444976807e-02,3.409048542380332947e-02,-4.502293467521667480e-02,-1.651773042976856232e-02,-1.184204667806625366e-01,-1.089732069522142410e-02,-1.710417307913303375e-02,-2.982709184288978577e-02,-2.332776598632335663e-02,-5.364963039755821228e-02,-4.851093515753746033e-03,-1.439282763749361038e-02,5.866675451397895813e-02,5.932940915226936340e-02,2.909581735730171204e-02,5.056216567754745483e-02,-2.969851158559322357e-02,-2.470057271420955658e-02,-3.277124464511871338e-02,-1.188265681266784668e-01,-1.187755316495895386e-01,-1.724865660071372986e-02,-4.647442325949668884e-02,-1.033749505877494812e-01,-3.631045343354344368e-03,2.727955952286720276e-02,-4.926862195134162903e-02,-1.037699878215789795e-01,2.861963817849755287e-03,-2.717888727784156799e-02,-3.046194277703762054e-02,5.610109120607376099e-02,2.800083719193935394e-02,1.623135409317910671e-03,-5.192688480019569397e-02,3.493698686361312866e-02,-2.375745959579944611e-02,-1.970199681818485260e-02,5.705022439360618591e-02,1.661837100982666016e-02,-1.574372313916683197e-02,-9.341633319854736328e-02,4.659736296162009239e-04,-4.638563469052314758e-02,1.340990066528320312e-01,2.119245007634162903e-02,2.383477613329887390e-02,-2.898789197206497192e-02,1.895793341100215912e-02,4.450251162052154541e-02,2.469303086400032043e-02,9.158541262149810791e-02,2.158128283917903900e-02,-1.470830850303173065e-02,1.029365286231040955e-01,-4.857371747493743896e-02,8.765478432178497314e-02,5.621912330389022827e-02,-4.200877994298934937e-02,-1.748459599912166595e-02,-2.287807874381542206e-02,-2.882967004552483559e-03,3.134697675704956055e-02,1.581302881240844727e-01,-3.475859016180038452e-02,-3.817692399024963379e-02,7.732183206826448441e-03,4.490203689783811569e-03,9.271080605685710907e-03,-9.932988323271274567e-03,6.362137943506240845e-02,3.426370024681091309e-02,2.350496128201484680e-02,6.402236223220825195e-02,-6.451346725225448608e-02,-6.952860951423645020e-02,8.816694468259811401e-02,-8.205318823456764221e-03,-8.633091300725936890e-02,5.890252068638801575e-03,1.505970861762762070e-02,3.262706473469734192e-02,1.102894768118858337e-01,-2.019782178103923798e-02,4.033650830388069153e-02,7.076450157910585403e-03,3.753723576664924622e-02,2.419739030301570892e-02,-1.288845390081405640e-02,-1.449096668511629105e-02,6.074557453393936157e-02,8.555552922189235687e-03,8.060429990291595459e-02,-1.177786886692047119e-01,7.421471178531646729e-02,5.258816760033369064e-03,-2.511909976601600647e-02,-9.276168793439865112e-02,-6.242976710200309753e-02,-7.999788969755172729e-02,5.851188674569129944e-02,-2.232534065842628479e-02,3.982829302549362183e-02,3.605182515457272530e-03,-8.388032764196395874e-02,6.622456014156341553e-02,9.256634116172790527e-02,-5.101350322365760803e-02,-1.566984574310481548e-03,5.361882224678993225e-02,5.588254425674676895e-04,-2.635219134390354156e-03,3.243790939450263977e-02,-4.862726479768753052e-02,3.960316628217697144e-02,1.012383699417114258e-01,9.726855158805847168e-02,-4.734699800610542297e-02,2.103442139923572540e-02,2.317117713391780853e-02,-1.080990582704544067e-02,5.647799745202064514e-02,5.274400487542152405e-02,7.985050976276397705e-02,4.021263122558593750e-02,-1.076253689825534821e-02,5.089960247278213501e-02,-3.620165213942527771e-02,-2.286417223513126373e-02,2.638551220297813416e-02,6.216985359787940979e-02,-3.021631389856338501e-02,8.946181088685989380e-02,8.621152490377426147e-02,5.313468724489212036e-02,6.506682839244604111e-03,-3.296835720539093018e-02,-2.251388877630233765e-02,4.661078006029129028e-02,1.817004522308707237e-03,3.313204739242792130e-03,5.985447019338607788e-02,4.676135629415512085e-02,3.471105545759201050e-02,4.896315932273864746e-02,3.247502818703651428e-02,-3.788750109379179776e-05,1.751584187150001526e-02,3.640011698007583618e-02,4.282552748918533325e-02,5.810830369591712952e-02,-1.075664348900318146e-02,3.565213829278945923e-02,2.138177491724491119e-02,-4.240842908620834351e-02,-1.693167351186275482e-02,7.822373509407043457e-02,3.574467077851295471e-02,-4.552930127829313278e-03,7.604144513607025146e-02,-5.486462265253067017e-02,-1.705309934914112091e-02,4.428929463028907776e-02,2.204676531255245209e-02,1.372218970209360123e-02,-2.019260637462139130e-02,-2.745732665061950684e-02,1.189141534268856049e-02,9.857231751084327698e-03,-4.401090368628501892e-02,3.875102847814559937e-02,3.470094874501228333e-02,-5.160535499453544617e-02,-1.163769140839576721e-01,5.844071134924888611e-02,9.072480350732803345e-02,-6.586007773876190186e-02,9.409447014331817627e-02,3.764265775680541992e-02,-7.078872621059417725e-02,9.053355455398559570e-02,6.278137862682342529e-02,7.536528259515762329e-02,8.398357778787612915e-02,-1.701239682734012604e-02,-2.845860086381435394e-02,-9.594096988439559937e-02,2.189535088837146759e-02,2.947346493601799011e-02,-3.632942587137222290e-02,-6.609500199556350708e-02,-4.931627213954925537e-02,8.327777683734893799e-02,-7.188870757818222046e-02,-8.018121123313903809e-02,-4.617442563176155090e-02,-3.065956057980656624e-03,-5.424835160374641418e-02,-1.129864342510700226e-02,4.948943108320236206e-02,-2.840777859091758728e-02,-3.012174740433692932e-02,-3.643404692411422729e-02,-2.031884528696537018e-02,5.107276514172554016e-02,-2.584499679505825043e-02,-4.892868921160697937e-02,-7.457319647073745728e-02,-5.228001251816749573e-02,1.249894313514232635e-02,4.856279864907264709e-02,-1.029701717197895050e-02,-3.851903602480888367e-02,-8.176545053720474243e-02,-1.453370451927185059e-01,-6.236368790268898010e-02,-8.021575957536697388e-02,-7.121301442384719849e-02,-2.798664756119251251e-02,4.611289128661155701e-03,-5.093875899910926819e-02,3.344197571277618408e-02,7.303984463214874268e-02,2.348845824599266052e-02,-4.037920758128166199e-02,-5.879477132111787796e-03,1.442553568631410599e-02,-3.394233295693993568e-03,3.879876062273979187e-02,-6.079323589801788330e-02,7.413038611412048340e-02,7.399631291627883911e-02,-8.877181261777877808e-02,-1.889003254473209381e-02,-7.447701413184404373e-03,1.190204173326492310e-02,2.759721875190734863e-02,1.264553517103195190e-01,1.486128848046064377e-02,8.557318150997161865e-02,2.514336025342345238e-03,1.800577901303768158e-02,5.390563979744911194e-03,-4.686676897108554840e-03,-1.451881676912307739e-01,8.767272531986236572e-02,3.454347141087055206e-03,-3.321933373808860779e-02,5.924136191606521606e-02,-6.706142798066139221e-03,-1.263030171394348145e-01,-2.314713597297668457e-02,7.288036867976188660e-03,-3.051102533936500549e-02,7.703691720962524414e-02,1.060590799897909164e-02,1.167200040072202682e-02,-3.527339547872543335e-02,-7.987506687641143799e-02,-5.489586666226387024e-02,-8.661543950438499451e-03,1.448619086295366287e-02,8.672979474067687988e-02,-7.334761321544647217e-02,-6.507465988397598267e-02,-6.339147686958312988e-02,-2.834051474928855896e-02,-1.152132172137498856e-02,3.783483803272247314e-02,-4.537567868828773499e-02,6.657151132822036743e-02,-1.093052700161933899e-02,-3.938836976885795593e-02,8.770453184843063354e-02,-8.681064099073410034e-02,1.055877804756164551e-01,5.146941915154457092e-02,-2.131847850978374481e-02,-1.149970442056655884e-01,-8.403742313385009766e-02,-3.215260058641433716e-02,-1.033980622887611389e-01,8.099289238452911377e-02,1.125837862491607666e-02,-1.562588475644588470e-02,-1.228166185319423676e-02,1.028347760438919067e-01,1.420421991497278214e-02,-5.894155427813529968e-02,-2.752758003771305084e-02,2.574705705046653748e-02,-1.896369606256484985e-01,-2.070030011236667633e-02,2.597270160913467407e-02,5.012144334614276886e-03,6.554350256919860840e-02,1.278484147042036057e-02,-3.240395709872245789e-02,