1.851453259587287903e-02,1.314105689525604248e-01,-1.306091248989105225e-01,-1.342308707535266876e-02,1.903630644083023071e-01,5.926324054598808289e-03,-2.402181364595890045e-02,-6.543045490980148315e-02,-1.666280627250671387e-01,-3.138202726840972900e-01,4.089770466089248657e-02,-1.783258318901062012e-01,-2.411127537488937378e-01,-1.284601986408233643e-01,-8.413206785917282104e-02,1.344421505928039551e-01,-7.013001292943954468e-02,3.257190808653831482e-02,-2.328033149242401123e-01,-1.093944460153579712e-01,-2.200875729322433472e-01,-1.996182948350906372e-01,1.240798458456993103e-01,1.629331111907958984e-01,-1.214170157909393311e-01,1.315063517540693283e-02,1.473722606897354126e-01,1.560754030942916870e-01,-2.423791885375976562e-01,-1.521112173795700073e-01,1.420252770185470581e-01,-2.951126694679260254e-01,-2.170577943325042725e-01,1.692603677511215210e-01,-2.334508299827575684e-01,-1.519795358180999756e-01,-3.842623829841613770e-01,4.612800851464271545e-02,-2.603787779808044434e-01,-2.284612208604812622e-01,-2.176493406295776367e-01,-3.747653365135192871e-01,-4.979708045721054077e-02,1.776173561811447144e-01,1.690117269754409790e-01,1.310838162899017334e-01,-1.217821314930915833e-01,3.092421777546405792e-02,-3.893245458602905273e-01,-3.852917253971099854e-02,-9.767066687345504761e-02,-2.021653354167938232e-01,-1.149936858564615250e-02,-4.509459435939788818e-02,-3.425661101937294006e-02,-1.216693371534347534e-01,7.536922395229339600e-02,1.132848262786865234e-01,2.112901955842971802e-01,-2.349574863910675049e-01,-2.974274754524230957e-01,1.343846321105957031e-01,-1.729158610105514526e-01,-3.133428394794464111e-01,-8.532257378101348877e-02,1.633428782224655151e-01,-1.255069375038146973e-01,-2.502675056457519531e-01,1.615593731403350830e-01,-1.540721394121646881e-02,9.754770249128341675e-02,-1.725363582372665405e-01,8.149236440658569336e-02,6.679818779230117798e-02,-2.283627092838287354e-01,-2.340389192104339600e-01,1.090794652700424194e-01,-5.377700552344322205e-02,-1.343113631010055542e-01,-9.436750411987304688e-02,5.337034910917282104e-02,1.349190622568130493e-01,-1.822478175163269043e-01,-2.317533940076828003e-01,-2.863806784152984619e-01,6.254029273986816406e-02,-1.006281077861785889e-01,-1.593246161937713623e-01,-3.342932462692260742e-01,1.934999078512191772e-01,-1.755714565515518188e-01,-1.218849271535873413e-01,-3.827888891100883484e-02,-1.364554613828659058e-01,1.696044355630874634e-01,1.151552274823188782e-01,-3.314314782619476318e-01,-1.089000478386878967e-01,-1.570879966020584106e-01,1.153461858630180359e-01,8.899507671594619751e-02,1.131456643342971802e-01,1.154200434684753418e-01,-2.025105357170104980e-01,-2.237547785043716431e-01,-2.479940503835678101e-01,2.082329690456390381e-01,3.534054756164550781e-02,-1.816844046115875244e-01,1.627166420221328735e-01,1.202097460627555847e-01,-1.154016256332397461e-01,-1.188620403409004211e-01,-1.992837041616439819e-01,-5.059853941202163696e-02,1.937245726585388184e-01,-1.866625249385833740e-01,-1.337665319442749023e-01,-1.314858049154281616e-01,-1.765633076429367065e-01,7.390093058347702026e-02,-6.317458301782608032e-02,2.051095813512802124e-01,-2.234906405210494995e-01,-1.095517873764038086e-01,2.611746266484260559e-02,1.009698733687400818e-01,-3.112820386886596680e-01,-1.111767068505287170e-01,-1.318491548299789429e-01,3.556777164340019226e-02,-6.759238243103027344e-02,-2.365018129348754883e-01,-2.065864056348800659e-01,-3.694583103060722351e-02,-5.901245027780532837e-02,1.461496800184249878e-01,-1.390743106603622437e-01,1.354746669530868530e-01,-2.964414358139038086e-01,-5.593668296933174133e-02,7.851128280162811279e-02,1.610112935304641724e-01,-1.793037652969360352e-01,-1.770578771829605103e-01,1.911213696002960205e-01,-1.243129298090934753e-01,-4.903066530823707581e-02,-8.480735868215560913e-02,-2.533520758152008057e-01,6.831762939691543579e-02,1.523561179637908936e-01,-7.755676656961441040e-02,-1.730511337518692017e-01,-1.326273828744888306e-01,-2.081365883350372314e-01,-1.853708624839782715e-01,1.051640287041664124e-01,-2.425042390823364258e-01,-1.514103263616561890e-02,-2.735407948493957520e-01,-2.533500492572784424e-01,5.144030600786209106e-02,1.439654976129531860e-01,2.391171604394912720e-01,-2.775455117225646973e-01,-9.772001206874847412e-02,-1.210847944021224976e-01,-1.320829242467880249e-01,1.152578443288803101e-01,-1.770537644624710083e-01,-1.066529937088489532e-02,-1.889522522687911987e-01,1.818168312311172485e-01,-3.237556815147399902e-01,1.695618927478790283e-01,1.217748895287513733e-01,-2.097992300987243652e-01,-1.860151886940002441e-01,-1.977884024381637573e-01,-1.247438266873359680e-01,-2.630777424201369286e-03,-2.403728067874908447e-01,7.176522165536880493e-02,-2.435324937105178833e-01,2.238564938306808472e-01,-2.268179953098297119e-01,-2.108051627874374390e-01,1.779124736785888672e-01,1.534425187855958939e-02,-1.318560838699340820e-01,-7.701395452022552490e-02,-3.469910919666290283e-01,-6.466361880302429199e-02,-2.444393783807754517e-01,1.330472081899642944e-01,-1.619533002376556396e-01,-1.970419585704803467e-01,-8.052127063274383545e-02,2.475479096174240112e-01,-2.354364842176437378e-01,-1.129549741744995117e-01,1.260824128985404968e-02,1.469095945358276367e-01,-2.838080227375030518e-01,4.187898710370063782e-02,-8.523584902286529541e-02,-2.746707499027252197e-01,-2.653325349092483521e-02,1.073407307267189026e-01,-1.331093162298202515e-01,-2.508771121501922607e-01,-8.760508149862289429e-02,-6.337179243564605713e-02,1.645305305719375610e-01,1.801683306694030762e-01,1.041934341192245483e-01,-3.200555741786956787e-01,-1.625075489282608032e-01,-1.083635166287422180e-01,-4.866284504532814026e-02,-1.943827569484710693e-01,2.310295999050140381e-01,2.345878332853317261e-01,-8.655407279729843140e-02,-5.731486156582832336e-02,-3.371062874794006348e-02,-2.138533070683479309e-02,-3.053838610649108887e-01,5.269286409020423889e-02,-1.488375812768936157e-01,-3.867419064044952393e-02,9.065961092710494995e-02,-1.375346183776855469e-01,-1.386326551437377930e-01,1.048013754189014435e-02,2.420362979173660278e-01,-1.525348704308271408e-02,-2.775960266590118408e-01,-1.078445389866828918e-01,-3.538725078105926514e-01,4.779373854398727417e-02,-2.060615271329879761e-01,-1.045453324913978577e-01,1.080771312117576599e-01,-2.017610073089599609e-01,-6.701281666755676270e-02,-1.653998196125030518e-01,-1.529452502727508545e-01,1.819400787353515625e-01,5.259069427847862244e-02,-3.345654904842376709e-02,-3.296213448047637939e-01,8.471077680587768555e-02,-2.896537482738494873e-01,1.024036109447479248e-01,-2.830593287944793701e-01,1.567054837942123413e-01,-3.055025935173034668e-01,1.615249067544937134e-01,-1.604335457086563110e-01,-1.516053974628448486e-01,-2.820965945720672607e-01,1.246028766036033630e-01,-3.243448734283447266e-01,-8.748843520879745483e-02,1.426119506359100342e-01,7.486766576766967773e-02,-2.937144935131072998e-01,1.839841753244400024e-01,2.941364981234073639e-02,6.587629672139883041e-03,-2.459031343460083008e-01,-2.559085786342620850e-01,1.614103317260742188e-01,-1.700582057237625122e-01,-4.373911023139953613e-01,-1.094597727060317993e-01,-2.379366010427474976e-01,-2.830184698104858398e-01,9.560627490282058716e-02,-1.923632174730300903e-01,-3.515066206455230713e-02,-1.182718053460121155e-01,1.103267297148704529e-01,1.705201715230941772e-01,-7.614599913358688354e-02,2.044857479631900787e-02,-3.187944591045379639e-01,3.304259479045867920e-02,1.936697214841842651e-01,-2.591298520565032959e-01,-2.928182780742645264e-01,-1.750096827745437622e-01,8.020313084125518799e-02,7.904980331659317017e-02,-4.405665025115013123e-02,3.424236923456192017e-02,-2.255638241767883301e-01,2.673113904893398285e-02,-2.719040811061859131e-01,-2.271140962839126587e-01,-1.078522577881813049e-02,1.192089542746543884e-01,-1.776537299156188965e-01,2.303291708230972290e-01,-1.098381802439689636e-01,2.006629854440689087e-02,-1.226453930139541626e-01,-3.550019487738609314e-02,-2.634046971797943115e-01,1.341189295053482056e-01,-2.562944293022155762e-01,-8.575388789176940918e-02,-1.083894595503807068e-01,1.386778205633163452e-01,1.477970182895660400e-01,-1.222582757472991943e-01,1.848776936531066895e-01,1.631044745445251465e-01,-1.593344807624816895e-01,-1.554473191499710083e-01,-1.125548854470252991e-01,-1.516697555780410767e-01,-1.771697252988815308e-01,1.874853372573852539e-01,1.742834001779556274e-01,-1.923554539680480957e-01,-5.118476599454879761e-02,-9.188639372587203979e-02,2.869181148707866669e-02,7.356666028499603271e-02,-1.708858758211135864e-01,-1.978093981742858887e-01,-2.575840353965759277e-01,-1.304091662168502808e-01,-2.664354443550109863e-01,1.197369489818811417e-02,-2.376537472009658813e-01,1.556129157543182373e-01,-2.259289026260375977e-01,4.507198184728622437e-02,-1.981284767389297485e-01,-1.739362180233001709e-01,-8.923246711492538452e-02,-2.602333426475524902e-01,1.540782153606414795e-01,1.361365020275115967e-01,-3.143061101436614990e-01,1.079660877585411072e-01,1.651758104562759399e-01,8.105941861867904663e-02,-1.685733646154403687e-01,1.598966568708419800e-01,-1.137143447995185852e-01,-1.751855611801147461e-01,-2.669368982315063477e-01,-2.853538393974304199e-01,-1.607205122709274292e-01,2.893667900934815407e-03,-5.732080712914466858e-02,9.150258451700210571e-02,-1.423133164644241333e-01,-7.566715776920318604e-02,1.567870676517486572e-01,-2.427221089601516724e-01,-2.549829483032226562e-01,-1.111564487218856812e-01,-1.514534801244735718e-01,1.089203581213951111e-01,9.821411222219467163e-02,-1.812759190797805786e-01,-2.430773675441741943e-01,6.402761489152908325e-02,-2.590757906436920166e-01,9.483028948307037354e-02,-2.720291614532470703e-01,1.352537721395492554e-01,-2.287640422582626343e-01,-3.129293918609619141e-01,2.126681953668594360e-01,-2.013325318694114685e-02,-7.794865965843200684e-02,-2.259042486548423767e-02,-2.790977060794830322e-01,-9.888654202222824097e-02,-1.485460847616195679e-01,-1.539118587970733643e-01,1.355065107345581055e-01,-1.383487284183502197e-01,-2.532604038715362549e-01,1.910938620567321777e-01,1.415920555591583252e-01,-5.145096685737371445e-03,-1.013671457767486572e-01,2.225620001554489136e-01,-2.961196005344390869e-01,-9.634140878915786743e-02,1.802960187196731567e-01,1.803724318742752075e-01,-6.275191903114318848e-02,4.743928089737892151e-02,-4.700757563114166260e-02,-1.541296839714050293e-01,-1.961153149604797363e-01,-2.744428515434265137e-01,-1.386486738920211792e-01,6.480497121810913086e-02,-2.136814147233963013e-01,1.248893886804580688e-01,-2.637666165828704834e-01,-4.925432801246643066e-02,-2.609213888645172119e-01,-9.355907887220382690e-02,6.812288612127304077e-02,2.090092599391937256e-01,-1.195992622524499893e-02,-1.583946347236633301e-01,-1.570456922054290771e-01,-3.356955051422119141e-01,-2.873874306678771973e-01,-5.119843035936355591e-02,-9.495846927165985107e-02,-9.269951283931732178e-02,-1.757060289382934570e-01,2.109502106904983521e-01,-1.829817146062850952e-01,-2.620288431644439697e-01,1.655982881784439087e-01,1.185545995831489563e-01,-1.872807927429676056e-02,-1.058082729578018188e-01,-2.062859088182449341e-01,1.219827830791473389e-01,-2.596048712730407715e-01,-1.913574934005737305e-01,-5.021604895591735840e-02,-8.536875247955322266e-02,6.808851845562458038e-03,-2.748532593250274658e-01,1.978184431791305542e-01,9.985001385211944580e-02,-7.601324468851089478e-02,-9.436885267496109009e-02,1.392214298248291016e-01,1.405698433518409729e-02,-6.996362656354904175e-02,1.106554940342903137e-01,-2.114023864269256592e-01,-2.387775629758834839e-01,-5.398967117071151733e-02,-1.278567314147949219e-01,-7.766541838645935059e-02,-8.946376293897628784e-02,-1.938852220773696899e-01,1.660321056842803955e-01,1.380750238895416260e-01,3.263488039374351501e-02,-2.317005246877670288e-01,-2.009153813123703003e-01,-1.707509458065032959e-01,-6.906452775001525879e-02,-1.301545649766921997e-01,2.165950089693069458e-01,7.024101167917251587e-02,-7.779967784881591797e-02,-4.291488602757453918e-02,-1.808387786149978638e-01,1.246798262000083923e-01,-9.451891481876373291e-02,-2.151588052511215210e-01,-1.442325115203857422e-01,7.262285798788070679e-02,-1.890066862106323242e-01,-1.291522979736328125e-01,-1.346651911735534668e-01,-9.481333941221237183e-02,9.446490556001663208e-02,1.388996541500091553e-01,-1.668370217084884644e-01,-2.268533259630203247e-01,1.016474887728691101e-01,-2.923144698143005371e-01,-1.296826452016830444e-01,-1.600326150655746460e-01,2.245081067085266113e-01,-1.928709745407104492e-01,1.657653003931045532e-01,1.716833412647247314e-01,-2.625138461589813232e-01,-1.805355846881866455e-01,-1.832152009010314941e-01,-3.064860105514526367e-01,-1.422769129276275635e-01,-8.173500746488571167e-02,-1.803247630596160889e-01,1.261681616306304932e-01,-1.337801367044448853e-01,-6.222070008516311646e-02,-1.490801423788070679e-01,1.933903694152832031e-01,1.346317529678344727e-01,-2.232408523559570312e-01,-7.484568282961845398e-03,-2.110632061958312988e-01,1.115273982286453247e-01,-2.723733782768249512e-01,6.594754755496978760e-02,-1.943438947200775146e-01,-1.365015655755996704e-01,-1.728049367666244507e-01,1.632649153470993042e-01,1.616731882095336914e-01,-2.726710438728332520e-01,-2.664023637771606445e-01,4.847979173064231873e-02,-2.252359092235565186e-01,2.284333109855651855e-02,1.264220625162124634e-01,1.479105800390243530e-01,-2.142099142074584961e-01,2.060866728425025940e-02,-1.804722547531127930e-01,-1.253303885459899902e-01,-1.364979594945907593e-01,-2.874694466590881348e-01,-2.391728162765502930e-01,1.694552004337310791e-01,-1.744256168603897095e-01,-5.307994782924652100e-02,-1.509299129247665405e-01,1.314711272716522217e-01,1.407896280288696289e-01,-2.801789939403533936e-01,-2.150123566389083862e-01,-2.678355276584625244e-01,-2.769634425640106201e-01,8.336787670850753784e-02,-2.629523351788520813e-02,1.284826099872589111e-01,1.097823753952980042e-01,8.311205357313156128e-02,-1.212898567318916321e-01,-1.522416621446609497e-01,1.400305330753326416e-01,-2.798767015337944031e-02,-1.108897924423217773e-01,-1.204290613532066345e-01,-1.126496344804763794e-01,1.093476191163063049e-01,-1.530525833368301392e-01,-2.016030699014663696e-01,-3.309703171253204346e-01,9.620216675102710724e-03,-2.341302782297134399e-01,-9.842302650213241577e-02,-1.767401397228240967e-01,1.029214337468147278e-01,-1.050371453166007996e-01,-3.179988265037536621e-01,1.724882423877716064e-01,1.424512714147567749e-01,-1.150193661451339722e-01,3.075237385928630829e-03,-5.886518955230712891e-02,2.125701121985912323e-02,-1.805056482553482056e-01,-7.941272854804992676e-02,1.102968379855155945e-01,-7.380132377147674561e-02,-2.200291454792022705e-01,-1.206530109047889709e-01,-6.990921497344970703e-02,-1.610101759433746338e-01,-1.400238722562789917e-01,1.968982517719268799e-01,-2.440619617700576782e-01,-1.399770528078079224e-01,1.627244949340820312e-01,8.907978981733322144e-02,-1.975458264350891113e-01,1.142087639891542494e-04,1.544805765151977539e-01,-2.674747109413146973e-01,-1.804559677839279175e-01,1.319491863250732422e-01,-1.208331286907196045e-01,-1.424014121294021606e-01,1.386896613985300064e-02,-2.374542206525802612e-01,1.297268122434616089e-01,2.689310908317565918e-01,2.997311297804117203e-03,-1.900230050086975098e-01,1.435560435056686401e-01,-2.699304223060607910e-01,-1.251855045557022095e-01,-1.026624292135238647e-01,-9.878477454185485840e-02,-1.082948148250579834e-01,-2.178936004638671875e-01,1.657317578792572021e-01,-2.023046612739562988e-01,-6.915546953678131104e-02,-8.291543275117874146e-02,-1.004180759191513062e-01,-1.958129554986953735e-01,1.659106612205505371e-01,-1.597543060779571533e-02,-1.491486132144927979e-01,-1.911110430955886841e-01,5.575783550739288330e-02,-1.159044578671455383e-01,-1.152800172567367554e-01,-1.352952271699905396e-01,-1.340064406394958496e-01,-1.797508150339126587e-01,-9.966030716896057129e-03,2.909673936665058136e-02,-7.941270619630813599e-02,2.479560226202011108e-01,8.532260358333587646e-02,2.290510199964046478e-02,-3.613950684666633606e-02,-3.627420663833618164e-01,-4.800468683242797852e-02,-2.844279110431671143e-01,-7.597468048334121704e-02,1.090946570038795471e-01,1.054268702864646912e-02,1.439264416694641113e-01,2.110701203346252441e-01,-2.971895039081573486e-01,-1.586531400680541992e-01,6.669013202190399170e-02,-1.728380322456359863e-01,-3.794482722878456116e-02,7.792811840772628784e-02,-1.075878143310546875e-01,-2.575582861900329590e-01,5.620262026786804199e-02,9.823632985353469849e-02,-2.110964655876159668e-01,-1.778015196323394775e-01,-2.954433858394622803e-01,-1.325483471155166626e-01,1.516091227531433105e-01,9.426123648881912231e-02,-2.933730781078338623e-01,-1.173509284853935242e-01,3.322828412055969238e-01,-6.235477700829505920e-02,-9.945610165596008301e-02,-5.993306264281272888e-02,-2.031760066747665405e-01,-1.770152002573013306e-01,-1.880653500556945801e-01,2.173961102962493896e-01,1.772139668464660645e-01,-9.007863700389862061e-02,-4.509200155735015869e-01,-1.989206671714782715e-01,5.009698867797851562e-02,-2.425905764102935791e-01,1.493155509233474731e-01,-9.257472306489944458e-02,-1.647895127534866333e-01,-7.267144322395324707e-02,1.350109875202178955e-01,1.740352809429168701e-01,-1.661798655986785889e-01,5.727771297097206116e-02,-2.864720225334167480e-01,-1.191874817013740540e-01,-6.891206651926040649e-02,-2.055629342794418335e-01,1.692338138818740845e-01,-1.221209913492202759e-01,-1.492557525634765625e-01,1.341727375984191895e-01,1.944658011198043823e-01,7.527912408113479614e-02,-1.566538512706756592e-01,-9.792646020650863647e-02,-2.610867619514465332e-01,1.826806217432022095e-01,1.762271374464035034e-01,-1.977605819702148438e-01,4.101474769413471222e-03,-1.031189337372779846e-01,-2.781886374577879906e-03,-8.642608672380447388e-02,-3.806781768798828125e-02,-1.460068672895431519e-01,-2.469018846750259399e-01,1.071839686483144760e-02,-2.104852944612503052e-01,2.092748731374740601e-01,1.493712663650512695e-01,1.184667721390724182e-01,-2.022561989724636078e-02,6.549209356307983398e-02,-1.014008074998855591e-01,-1.384927332401275635e-01,-2.898505628108978271e-01,-2.615751028060913086e-01,-1.868671178817749023e-01,-1.135674118995666504e-01,-4.963942617177963257e-02,1.929151862859725952e-01,2.181297540664672852e-01,-1.428939402103424072e-01,-1.208820939064025879e-01,-5.726124718785285950e-02,-1.216663643717765808e-01,-2.288157641887664795e-01,-1.662382185459136963e-01,7.165690511465072632e-02,-1.459754258394241333e-01,-2.296883612871170044e-02,-2.702404558658599854e-01,1.737992316484451294e-01,-1.826492249965667725e-01,-1.246831789612770081e-01,-1.441001445055007935e-01,-2.176280319690704346e-01,7.490301877260208130e-02,1.618818342685699463e-01,3.695586696267127991e-02,-2.147338241338729858e-01,-1.027239263057708740e-01,-2.546719610691070557e-01,6.119918450713157654e-02,1.823625713586807251e-02,-8.081901818513870239e-02,-1.422098278999328613e-01,-2.085123769938945770e-02,-5.949284136295318604e-02,-1.821215450763702393e-01,-2.130098491907119751e-01,-2.371035963296890259e-01,-2.207965999841690063e-01,1.785947531461715698e-01,2.229341268539428711e-01,-3.280527889728546143e-01,-6.376228481531143188e-02,-1.283870339393615723e-01,-1.076353192329406738e-01,-1.227670609951019287e-01,-1.819625496864318848e-01,-4.479032382369041443e-02,-1.061905398964881897e-01,1.628143340349197388e-01,1.696876883506774902e-01,-1.980372071266174316e-01,1.872580051422119141e-01,-1.415343582630157471e-01,9.505514800548553467e-02,-2.101805806159973145e-01,-1.225525066256523132e-01,1.162189990282058716e-01,-2.706879377365112305e-01,-5.782661959528923035e-02,-1.979063302278518677e-01,-1.771937608718872070e-01,1.644154638051986694e-01,1.160367950797080994e-01,-1.761788427829742432e-01,-2.419631332159042358e-01,2.446960471570491791e-02,1.067638099193572998e-01,1.537867039442062378e-01,-1.643924862146377563e-01,1.911018341779708862e-01,-9.780987352132797241e-02,-1.322159618139266968e-01,-2.523829936981201172e-01,-2.131372541189193726e-01,-1.559560149908065796e-01,-1.290101259946823120e-01,-1.796740889549255371e-01,1.092938035726547241e-01,-1.987866014242172241e-01,-1.306560933589935303e-01,1.422588527202606201e-01,-8.865765482187271118e-02,-2.192046642303466797e-01,9.527947008609771729e-02,1.966891437768936157e-01,-2.574616670608520508e-02,-1.247567385435104370e-01,-2.295732349157333374e-01,1.692644059658050537e-01,-2.560366988182067871e-01,-7.946400344371795654e-02,-1.595339477062225342e-01,-2.207060903310775757e-01,1.598721295595169067e-01,-1.843430288136005402e-02,-6.132881343364715576e-02,8.129712194204330444e-02,-2.099493332207202911e-02,1.286542601883411407e-02,-1.111235171556472778e-01,-3.506942093372344971e-01,1.827908307313919067e-01,-2.151134461164474487e-01,-1.462292373180389404e-01,-2.011310011148452759e-01,1.045581474900245667e-01,-9.940926916897296906e-03,3.653858974575996399e-02,1.533121466636657715e-01,-2.951515913009643555e-01,3.061202913522720337e-02,-2.067009508609771729e-01,-3.484923541545867920e-01,-2.458469010889530182e-02,-1.329027712345123291e-01,-1.198331117630004883e-01,1.503287106752395630e-01,-2.128461450338363647e-01,-1.091982796788215637e-01,-1.250844895839691162e-01,-7.539890706539154053e-02,7.771611213684082031e-02,1.754996031522750854e-01,-7.498156628571450710e-04,-2.767230570316314697e-01,-2.731159515678882599e-02,-1.791150420904159546e-01,-1.425581276416778564e-01,1.100865602493286133e-01,-3.188962638378143311e-01,1.496780365705490112e-01,-2.324166595935821533e-01,5.248508602380752563e-02,1.036073714494705200e-01,1.540330350399017334e-01,-3.619597554206848145e-01,7.048896700143814087e-02,-2.513015568256378174e-01,-2.289703488349914551e-01,-1.765540987253189087e-01,1.278343349695205688e-01,-5.803794413805007935e-02,2.781777083873748779e-01,-8.332909643650054932e-02,-1.232156306505203247e-01,1.467310637235641479e-01,-1.155674383044242859e-01,-1.924383193254470825e-01,8.607831597328186035e-02,6.800993531942367554e-02,-2.378335446119308472e-01,-1.907560080289840698e-01,1.350239068269729614e-01,2.118811942636966705e-02,-1.492254883050918579e-01,1.001310721039772034e-02,1.251870542764663696e-01,-1.271325051784515381e-01,-1.198395416140556335e-01,-2.053317278623580933e-01,1.403155326843261719e-01,-1.869293302297592163e-01,-1.921508610248565674e-01,1.152004599571228027e-01,-2.657227814197540283e-01,1.486150771379470825e-01,-1.400794982910156250e-01,-3.136079013347625732e-02,9.435676969587802887e-03,-9.920045733451843262e-02,-2.501321136951446533e-01,9.849748015403747559e-02,-3.556433320045471191e-01,-8.457454852759838104e-03,-2.018726319074630737e-01,-7.842666469514369965e-03,4.605909436941146851e-02,-5.902059748768806458e-02,1.424869447946548462e-01,2.022115141153335571e-01,-2.040395736694335938e-01,-1.223647221922874451e-01,-1.113508865237236023e-01,-1.144778281450271606e-01,-3.443188667297363281e-01,1.784250438213348389e-01,-2.365959882736206055e-01,1.519701480865478516e-01,-1.914800703525543213e-01,-4.537539556622505188e-02,-2.311781197786331177e-01,-2.629832625389099121e-01,-8.298099786043167114e-02,2.321829050779342651e-01,-1.291267424821853638e-01,6.249596178531646729e-02,-3.416529297828674316e-01,-5.408440530300140381e-02,-7.709117978811264038e-02,-2.622660398483276367e-01,-6.658672541379928589e-02,2.104594707489013672e-01,-8.362971991300582886e-02,-9.694761037826538086e-02,1.670028567314147949e-01,6.129497662186622620e-02,9.261137992143630981e-02,-2.326382845640182495e-01,7.243192940950393677e-02,-6.936278939247131348e-02,-1.739229857921600342e-01,-3.066736832261085510e-02,1.648409664630889893e-01,-1.056562289595603943e-01,-2.030294090509414673e-01,-6.275637540966272354e-03,-7.732961326837539673e-02,-1.306030452251434326e-01,-3.826008411124348640e-03,1.002648845314979553e-01,7.402391731739044189e-02,-1.542534530162811279e-01,-1.826396882534027100e-01,1.807723492383956909e-01,1.603239588439464569e-02,-2.006041556596755981e-01,-1.494749635457992554e-01,-1.322186589241027832e-01,7.616745680570602417e-02,-9.857869148254394531e-02,-1.970396786928176880e-01,1.309808045625686646e-01,-1.946212351322174072e-01,4.637513309717178345e-03,1.188034713268280029e-01,-4.770030826330184937e-02,-4.248955845832824707e-02,-2.537460625171661377e-02,2.162402570247650146e-01,-2.663542926311492920e-01,-2.264999300241470337e-01,-1.421491652727127075e-01,-3.781703114509582520e-02,-7.411888241767883301e-02,-3.492196500301361084e-01,-1.499244421720504761e-01,-2.419593632221221924e-01,9.640475362539291382e-02,-3.350968658924102783e-01,1.975807249546051025e-01,-9.455597400665283203e-02,9.944710880517959595e-02,-1.783667355775833130e-01,-1.211612150073051453e-01,5.225348845124244690e-02,1.683214157819747925e-01,-2.112810760736465454e-01,6.165215373039245605e-02,-1.658916324377059937e-01,1.743183583021163940e-01,-1.392759084701538086e-01,-1.288920044898986816e-01,-5.810804292559623718e-02,2.946274727582931519e-02,-1.353083252906799316e-01,-2.008591592311859131e-01,-2.158133387565612793e-01,1.497868895530700684e-01,-1.950773298740386963e-01,1.630769968032836914e-01,-2.134438455104827881e-01,-9.749059379100799561e-02,-1.016288697719573975e-01,-1.226516664028167725e-01,-1.369054764509201050e-01,-1.405984461307525635e-01,1.108131930232048035e-02,1.438053548336029053e-01,2.114994972944259644e-01,-2.066517174243927002e-01,-1.803636252880096436e-01,8.445975929498672485e-02,-8.742190152406692505e-02,-6.865852326154708862e-02,1.435420513153076172e-01,-2.454445511102676392e-01,-2.052487432956695557e-01,-2.611769437789916992e-01,-1.799258440732955933e-01,3.202698379755020142e-02,1.690247058868408203e-01,1.729857176542282104e-02,1.019684001803398132e-01,-1.603261828422546387e-01,1.149359270930290222e-01,-2.397473007440567017e-01,-2.081548720598220825e-01,-1.228307336568832397e-01,2.094161510467529297e-01,1.167803853750228882e-01,-9.219345450401306152e-02,-7.020045816898345947e-02,-7.166008651256561279e-02,-8.510883152484893799e-02,-3.605121672153472900e-01,5.321806296706199646e-02,1.558258980512619019e-01,-8.910610526800155640e-02,-2.257241010665893555e-01,2.185084819793701172e-01,-6.034930422902107239e-02,-7.200176827609539032e-03,-2.571085989475250244e-01,-1.761926114559173584e-01,4.399799555540084839e-02,-1.908059567213058472e-01,-3.342308402061462402e-01,4.839622974395751953e-02,-2.375157922506332397e-01,-1.896145790815353394e-01,1.314149349927902222e-01,-1.145054325461387634e-01,-1.935913562774658203e-01,-1.664602160453796387e-01,1.012548059225082397e-01,3.251164034008979797e-02,1.532439589500427246e-01,-1.231516599655151367e-01,1.493733674287796021e-01,2.393020987510681152e-01,1.715954989194869995e-01,-1.730155497789382935e-01,-1.323719620704650879e-01,7.836150005459785461e-03,-2.187049686908721924e-01,-1.756987571716308594e-01,-1.562069654464721680e-01,-1.965077221393585205e-01,-7.049257308244705200e-02,3.409427031874656677e-02,9.112378954887390137e-02,-1.527652442455291748e-01,-1.835991293191909790e-01,-1.192230731248855591e-01,7.654841244220733643e-02,-1.593579053878784180e-01,-1.819906532764434814e-01,2.072597593069076538e-01,-4.656344652175903320e-02,-1.114716380834579468e-01,-6.636764109134674072e-02,1.095320209860801697e-01,-2.862395048141479492e-01,2.220583893358707428e-02,-1.862700134515762329e-01,1.244070976972579956e-01,-3.108977675437927246e-01,1.386577785015106201e-01,-1.833335161209106445e-01,-1.573738455772399902e-01,-1.217776164412498474e-01,-1.403091847896575928e-01,-3.155426383018493652e-01,1.764579564332962036e-01,-2.963290214538574219e-01,4.902653396129608154e-02,-1.908917427062988281e-01,-1.643947958946228027e-01,8.915992826223373413e-02,-1.558350920677185059e-01,-1.244225129485130310e-01,-2.367388159036636353e-01,-8.943656831979751587e-02,6.593371182680130005e-02,1.571084856986999512e-01,1.818637847900390625e-01,-3.002707958221435547e-01,6.277923285961151123e-02,4.870744049549102783e-02,2.859745323657989502e-01,-4.561394453048706055e-02,-9.587852656841278076e-02,1.506610810756683350e-01,-3.005730807781219482e-01,-1.476456373929977417e-01,-2.107916623353958130e-01,-7.695583999156951904e-02,-1.523672491312026978e-01,-3.181313574314117432e-01,1.489421818405389786e-02,1.065771058201789856e-01,-2.532238066196441650e-01,-1.852832734584808350e-01,-1.169746369123458862e-01,1.438493728637695312e-01,1.697951853275299072e-01,-1.233738809823989868e-01,-1.236778497695922852e-01,-1.438841223716735840e-01,-1.922705471515655518e-01,1.020055636763572693e-02,-2.045782506465911865e-01,-1.980914324522018433e-01,7.191787939518690109e-03,2.469999715685844421e-02,-1.206344142556190491e-01,1.005185097455978394e-01,1.282217502593994141e-01,-2.540995776653289795e-01,-2.454002648591995239e-01,1.904588937759399414e-01,1.102987229824066162e-01,-2.320056408643722534e-01,-8.147142082452774048e-02,-3.701622486114501953e-01,9.503652900457382202e-02,-1.567687839269638062e-01,2.120706588029861450e-01,-2.258220911026000977e-01,-1.591774970293045044e-01,7.589517161250114441e-03,-2.375684119760990143e-02,-3.138400614261627197e-01,1.630560755729675293e-01,-4.297853112220764160e-01,-4.168151691555976868e-02,-1.610746383666992188e-01,-3.006424307823181152e-01,1.314612329006195068e-01,-1.403536051511764526e-01,-1.011785268783569336e-01,-1.754695028066635132e-01,1.021329611539840698e-01,1.558578759431838989e-01,-8.166453987360000610e-02,-6.813538819551467896e-02,-2.032041847705841064e-01,-1.896106302738189697e-01,1.598973274230957031e-01,9.655300527811050415e-02,-2.201229482889175415e-01,1.560830920934677124e-01,-1.439936906099319458e-01,-1.734616458415985107e-01,-1.579969078302383423e-01,-1.889320313930511475e-01,-3.311000168323516846e-01,1.953177452087402344e-01,1.054551675915718079e-01,-1.626380234956741333e-01,1.713732928037643433e-01,2.100624293088912964e-01,-1.295200437307357788e-01,-1.892468333244323730e-01,-2.544129965826869011e-03,-1.418982595205307007e-01,-1.669987291097640991e-02,-8.908113464713096619e-03,-6.927967071533203125e-02,-2.073151320219039917e-01,1.041567623615264893e-01,-1.684644669294357300e-01,2.278507500886917114e-01,1.991740316152572632e-01,-2.287918329238891602e-01,-4.566838592290878296e-02,-2.406164109706878662e-01,-7.824674248695373535e-02,-6.778924912214279175e-02,-2.503929100930690765e-02,-1.164214611053466797e-01,-7.459846884012222290e-02,-2.868055999279022217e-01,1.161058247089385986e-01,-2.849627733230590820e-01,-5.020022019743919373e-02,-1.362408101558685303e-01,1.353367865085601807e-01,-2.115090787410736084e-01,-7.778768986463546753e-02,1.687069982290267944e-01,-2.928416132926940918e-01,-2.326435744762420654e-01,1.714907139539718628e-01,1.559186428785324097e-01,8.185268193483352661e-02,-1.971835792064666748e-01,-1.419332474470138550e-01,3.320182114839553833e-02,-9.044400602579116821e-02,-1.330009996891021729e-01,-1.582981646060943604e-01,-1.066346168518066406e-01,1.535951495170593262e-01,2.800265885889530182e-02,-2.123248130083084106e-01,-2.185122519731521606e-01,7.292605936527252197e-02,-1.741541922092437744e-01,-1.257309913635253906e-01,3.468715399503707886e-02,-2.395840883255004883e-01,1.883993893861770630e-01,1.271305382251739502e-01,-3.891718760132789612e-02,-6.394948065280914307e-02,-1.764080673456192017e-01,-3.329481184482574463e-01,1.374340057373046875e-01,-8.030230179429054260e-03,-2.144826054573059082e-01,-1.617434173822402954e-01,-1.818863600492477417e-01,-7.179114967584609985e-02,-1.835830509662628174e-01,2.681460678577423096e-01,-1.237178817391395569e-01,-8.016955852508544922e-02,-8.754329755902290344e-03,-3.379994630813598633e-02,8.130756020545959473e-02,-1.033297553658485413e-01,-1.663948595523834229e-01,-1.551132053136825562e-01,1.292154490947723389e-01,-8.196608722209930420e-02,9.816433489322662354e-02,-1.844855844974517822e-01,-9.978704154491424561e-02,1.608617156744003296e-01,-7.967898249626159668e-02,-2.206770628690719604e-01,-2.268493175506591797e-01,-5.983402952551841736e-02,-2.790387906134128571e-02,-1.479527205228805542e-01,-2.474022805690765381e-01,1.991261690855026245e-01,-1.667897552251815796e-01,-1.723824739456176758e-01,-1.754880994558334351e-01,-9.676910191774368286e-02,2.183465361595153809e-01,2.030593305826187134e-01,-4.066567718982696533e-01,-2.968042790889739990e-01,1.389566063880920410e-01,-7.053220272064208984e-02,-2.197874039411544800e-01,3.420630469918251038e-02,1.732583045959472656e-01,9.593179076910018921e-02,-2.260373206809163094e-03,7.304778695106506348e-02,-2.175057232379913330e-01,4.998682439327239990e-02,-2.741821706295013428e-01,-8.862049132585525513e-02,1.123152151703834534e-01,-1.047299709171056747e-02,-1.945715993642807007e-01,1.454114317893981934e-01,1.347437053918838501e-01,-1.745239347219467163e-01,-6.642563641071319580e-02,-2.157508581876754761e-01,2.427107244729995728e-01,-1.590282320976257324e-01,-5.387226492166519165e-02,-1.618188023567199707e-01,-1.208706051111221313e-01,1.685956679284572601e-02,1.712898015975952148e-01,-3.649649396538734436e-02,2.090632617473602295e-01,-2.532103955745697021e-01,-2.616279125213623047e-01,-5.199125781655311584e-02,1.167243346571922302e-01,-1.614218801259994507e-01,-3.125411868095397949e-01,-3.399385372176766396e-03,1.367738395929336548e-01,-1.619295924901962280e-01,-1.687063872814178467e-01,-1.514477878808975220e-01,1.536153405904769897e-01,8.905760943889617920e-02,-6.209934875369071960e-02,-2.104675322771072388e-01,-2.529807686805725098e-01,-6.983591616153717041e-02,-1.453149616718292236e-01,1.390619389712810516e-02,-1.220293194055557251e-01,2.161229252815246582e-01,-2.029344886541366577e-01,-1.812067329883575439e-01,-8.035662770271301270e-02,1.945327222347259521e-01,-2.338998615741729736e-01,-1.916923969984054565e-01,-1.861194074153900146e-01,4.827653244137763977e-02,-4.065293967723846436e-01,-1.375414729118347168e-01,-1.326945722103118896e-01,1.592024266719818115e-01,4.535032436251640320e-02,-3.896853327751159668e-02,-7.657022029161453247e-02,-2.727350592613220215e-01,-1.652174144983291626e-01,-3.911040723323822021e-02,-1.273795031011104584e-02,1.477707475423812866e-01,5.606816709041595459e-02,-1.466380357742309570e-01,1.445533484220504761e-01,2.716805338859558105e-01,-2.041395604610443115e-01,-3.021645825356245041e-03,-1.460686326026916504e-01,-7.147604227066040039e-02,-2.883772738277912140e-02,-2.060927823185920715e-02,-8.993874490261077881e-02,-2.497571110725402832e-01,-2.980450093746185303e-01,8.398357033729553223e-02,-2.982803285121917725e-01,-1.390617191791534424e-01,-1.907360553741455078e-01,-1.049438491463661194e-01,-5.559995397925376892e-02,1.949867606163024902e-01,-2.132032960653305054e-01,-3.210667893290519714e-02,-6.306827813386917114e-02,1.960527002811431885e-01,-2.487772703170776367e-01,-1.075907126069068909e-01,2.207630723714828491e-01,-1.481876522302627563e-02,-1.077275872230529785e-01,-1.614145338535308838e-01,1.227572485804557800e-01,-2.167078256607055664e-01,-6.232856586575508118e-02,-8.939820528030395508e-02,1.400766968727111816e-01,-1.853668987751007080e-01,-3.352610468864440918e-01,-1.395858377218246460e-01,1.695780307054519653e-01,1.401798874139785767e-01,-1.068070605397224426e-01,2.237722724676132202e-01,-8.022306859493255615e-02,-9.621915966272354126e-02,-2.616626620292663574e-01,-1.909905672073364258e-01,-5.441405996680259705e-02,-1.108408719301223755e-01,-2.381798624992370605e-01,8.532932400703430176e-02,1.074883565306663513e-01,-2.793947160243988037e-01,-2.041793167591094971e-01,-1.953613460063934326e-01,1.474789828062057495e-01,1.316396147012710571e-01,-3.906206786632537842e-02,-1.232430934906005859e-01,-2.917033433914184570e-01,-1.482887864112854004e-01,-2.278500497341156006e-01,-1.135240774601697922e-02,1.506802290678024292e-01,-1.226178109645843506e-01,-1.719990819692611694e-01,-9.856921434402465820e-02,1.653151363134384155e-01,9.090790897607803345e-02,-8.432729542255401611e-02,-1.331750750541687012e-01,-3.124765157699584961e-01,-4.792451485991477966e-02,-6.672859936952590942e-02,-3.196728974580764771e-02,-1.310098171234130859e-01,-1.335132271051406860e-01,1.102713048458099365e-01,-2.613137960433959961e-01,1.236146539449691772e-01,-2.715152502059936523e-01,-1.025398820638656616e-01,1.272666007280349731e-01,1.638494133949279785e-01,-2.762386202812194824e-01,-2.331595569849014282e-01,1.448891162872314453e-01,7.746846228837966919e-02,-1.095796450972557068e-01,-8.220199495553970337e-02,-2.362165004014968872e-01,9.181286394596099854e-02,1.045364215970039368e-01,-1.574329137802124023e-01,-1.437618732452392578e-01,-3.652135729789733887e-01,-1.432031095027923584e-01,4.658999294042587280e-02,-5.237007141113281250e-02,-1.920928955078125000e-01,-2.132759094238281250e-01,7.806048542261123657e-02,-1.073551252484321594e-01,-9.511202573776245117e-02,-1.015922501683235168e-01,2.143696695566177368e-01,1.360841840505599976e-01,-2.151466757059097290e-01,-2.244701236486434937e-01,-1.694414764642715454e-01,-4.704763740301132202e-02,-1.461241841316223145e-01,-1.023222580552101135e-01,-2.133860588073730469e-01,-3.022406101226806641e-01,6.286810338497161865e-02,-8.199363201856613159e-02,1.999368071556091309e-01,1.575181186199188232e-01,-1.014368236064910889e-01,5.847696959972381592e-02,-3.004680573940277100e-01,-3.274957239627838135e-01,-2.673678100109100342e-01,4.810584709048271179e-02,1.480605900287628174e-01,-7.109580188989639282e-02,1.751911938190460205e-01,2.165507972240447998e-01,-1.285638362169265747e-01,-4.713689163327217102e-02,-3.195730596780776978e-02,-4.716940224170684814e-02,-2.235932499170303345e-01,1.418678909540176392e-01,-9.898167103528976440e-02,1.252049952745437622e-01,-2.126762866973876953e-01,-2.584909498691558838e-01,2.247230894863605499e-02,-6.736437231302261353e-02,-1.768875569105148315e-01,-9.359791874885559082e-02,-1.132944822311401367e-01,1.650505959987640381e-01,-2.270037382841110229e-01,4.945187643170356750e-02,1.744264066219329834e-01,-1.981567740440368652e-01,-1.379179060459136963e-01,-1.629785895347595215e-01,1.179667785763740540e-01,6.663320958614349365e-02,-9.421641379594802856e-02,-1.012517064809799194e-01,-3.572690784931182861e-01,-3.012798540294170380e-02,1.510139703750610352e-01,-2.585425972938537598e-01,2.342139780521392822e-01,-9.974461793899536133e-02,-2.397354245185852051e-01,3.811252862215042114e-02,-1.771188229322433472e-01,-7.884574681520462036e-02,-6.926257908344268799e-02,-2.944986335933208466e-02,4.545408114790916443e-02,9.645172208547592163e-02,-2.678587734699249268e-01,1.305474340915679932e-01,-2.115626186132431030e-01,-1.883635520935058594e-01,-2.585974335670471191e-01,1.641811132431030273e-01,-5.233965069055557251e-02,-1.971568465232849121e-01,9.069067984819412231e-02,-1.537064164876937866e-01,5.197022855281829834e-02,1.907039284706115723e-01,1.146513074636459351e-01,-1.270437836647033691e-01,-5.787491798400878906e-02,-2.693891525268554688e-01,-1.070962250232696533e-01,1.317251473665237427e-01,-1.343438178300857544e-01,-6.993841845542192459e-03,-2.063881605863571167e-01,-1.369576454162597656e-01,2.019107490777969360e-01,6.821565330028533936e-02,-1.376692056655883789e-01,9.531683474779129028e-02,1.597975641489028931e-01,-3.486737608909606934e-01,-1.214606314897537231e-01,-3.062999621033668518e-02,1.203212141990661621e-01,7.117062062025070190e-02,-1.123539209365844727e-01,-1.358200758695602417e-01,-3.069154322147369385e-01,-1.308539658784866333e-01,-1.983848214149475098e-01,-1.852889806032180786e-01,1.335632055997848511e-01,1.755193918943405151e-01,2.876081503927707672e-02,-3.806464001536369324e-02,-2.123641781508922577e-02,-2.487909197807312012e-01,-2.174699753522872925e-01,-2.194568514823913574e-01,-9.887824207544326782e-02,1.423600018024444580e-01,