-9.736740030348300934e-03,-1.284015476703643799e-01,-2.883733250200748444e-02,1.867247000336647034e-02,4.076303541660308838e-02,-1.460519619286060333e-02,-2.454930683597922325e-03,-1.297097932547330856e-02,-3.989939019083976746e-02,-1.282911980524659157e-03,1.691864058375358582e-02,8.442117273807525635e-02,-2.479768916964530945e-02,-6.600198149681091309e-02,1.018304154276847839e-01,-1.190433185547590256e-02,-5.489954352378845215e-02,1.458385307341814041e-02,4.989051073789596558e-02,-1.151139587163925171e-01,-1.443409826606512070e-02,-5.169525742530822754e-02,2.615701407194137573e-02,6.192695349454879761e-02,-6.445231288671493530e-02,5.785532295703887939e-02,-3.414789214730262756e-02,5.457023624330759048e-03,5.128347501158714294e-02,-3.927659243345260620e-02,-1.999346772208809853e-03,-2.022412978112697601e-02,3.685399144887924194e-02,-3.763985261321067810e-02,-4.452664777636528015e-02,-6.556411832571029663e-02,-7.105239480733871460e-02,-1.657236926257610321e-02,-1.868042908608913422e-02,3.624761849641799927e-02,-4.564280156046152115e-03,-9.062113612890243530e-02,-3.871605545282363892e-02,2.783261612057685852e-02,-1.985487528145313263e-02,2.891929447650909424e-02,-5.288837850093841553e-02,-2.098153159022331238e-02,