-4.804361611604690552e-02,2.958144061267375946e-02,1.138143427670001984e-02,1.118510812520980835e-01,-2.807923592627048492e-02,-2.359458245337009430e-02,-2.446533180773258209e-02,8.639056235551834106e-02,-1.279670372605323792e-02,-3.764042630791664124e-02,-1.377298980951309204e-01,-4.737557843327522278e-02,8.225338906049728394e-02,7.939737290143966675e-02,3.925294801592826843e-02,-4.509642720222473145e-02,-2.254455350339412689e-03,3.844389319419860840e-02,-6.988040357828140259e-02,6.951741129159927368e-02,7.879391312599182129e-02,4.922192171216011047e-02,3.832205384969711304e-02,5.981821566820144653e-02,9.718489833176136017e-03,-9.070613980293273926e-02,-1.098389178514480591e-02,4.627474769949913025e-02,2.645085798576474190e-03,4.480442777276039124e-02,-1.234006136655807495e-02,1.942147687077522278e-02,-8.863531053066253662e-02,-5.009210482239723206e-02,-1.065961346030235291e-01,-6.158618722110986710e-03,2.084395848214626312e-02,2.419217303395271301e-02,7.673297822475433350e-02,-1.108384225517511368e-02,1.279754564166069031e-02,1.673611067235469818e-02,-5.880192294716835022e-02,8.377798646688461304e-02,7.677099853754043579e-02,1.078909412026405334e-01,-4.288240149617195129e-02,1.425954047590494156e-02,2.206182628870010376e-01,-6.688226014375686646e-02,-6.367910653352737427e-02,-1.128626801073551178e-02,9.999109804630279541e-02,6.715027615427970886e-03,1.443761885166168213e-01,4.309133626520633698e-03,1.710324287414550781e-01,3.897299244999885559e-02,-5.339008197188377380e-02,6.249885633587837219e-02,-5.896182730793952942e-02,3.429245948791503906e-02,2.002742886543273926e-01,-1.053460910916328430e-01,-1.049724817276000977e-01,-8.380218595266342163e-02,-4.152016341686248779e-02,1.755076460540294647e-03,1.896854117512702942e-02,4.173324257135391235e-02,-6.502100080251693726e-02,5.327983200550079346e-02,-1.357186138629913330e-01,1.042022183537483215e-01,1.164328008890151978e-01,2.294309288263320923e-01,-2.022516913712024689e-02,-8.814514428377151489e-02,1.032604873180389404e-01,-3.265804797410964966e-02,-7.489275187253952026e-02,-3.130977973341941833e-02,2.239213325083255768e-02,1.482695341110229492e-02,-3.338562324643135071e-02,6.790882349014282227e-02,6.787418574094772339e-02,6.425574421882629395e-02,-1.461213082075119019e-01,-5.436027795076370239e-02,1.232911460101604462e-02,8.289997279644012451e-02,-7.824914902448654175e-02,-6.045305356383323669e-02,-3.895435482263565063e-02,8.108439296483993530e-02,9.335350990295410156e-02,1.004135161638259888e-01,1.888053566217422485e-01,-7.051959633827209473e-02,2.934622019529342651e-02,-1.428628154098987579e-02,2.513211220502853394e-02,-9.906028211116790771e-02,-7.221984863281250000e-02,5.838603898882865906e-02,1.156115531921386719e-01,1.279812902212142944e-01,-2.712806500494480133e-02,7.212144136428833008e-02,2.045230194926261902e-02,1.027291566133499146e-01,3.071560710668563843e-02,-1.263045370578765869e-01,-1.338208168745040894e-01,1.246405113488435745e-02,6.272932142019271851e-02,1.056932210922241211e-01,-2.656704746186733246e-02,3.267729282379150391e-02,-5.156696960330009460e-02,3.667553141713142395e-02,-4.843113198876380920e-02,-1.252766791731119156e-02,-3.299180790781974792e-02,-2.530728578567504883e-01,-5.459003150463104248e-02,1.740711554884910583e-02,1.758974604308605194e-02,-2.251041680574417114e-02,3.521727398037910461e-02,-9.143682569265365601e-02,6.723453104496002197e-02,1.003851294517517090e-01,3.899613022804260254e-02,-1.113532185554504395e-01,1.265456080436706543e-01,-7.035776227712631226e-02,8.045189827680587769e-02,-1.204854696989059448e-01,-6.766182370483875275e-03,1.785437949001789093e-02,-5.659019574522972107e-02,1.207917556166648865e-02,1.495383563451468945e-03,-6.198276579380035400e-02,-7.004822790622711182e-02,9.132017940282821655e-02,-1.069858521223068237e-01,-1.049087103456258774e-02,-9.806739538908004761e-02,-7.957413047552108765e-02,-9.025762975215911865e-02,-4.883699119091033936e-02,-4.010690748691558838e-02,1.446412950754165649e-01,-1.127417758107185364e-01,1.273685134947299957e-03,-1.522397398948669434e-01,2.068150229752063751e-02,-6.604268401861190796e-02,-2.260455042123794556e-01,-1.581136882305145264e-02,2.742679789662361145e-02,1.354562789201736450e-01,-2.673368342220783234e-02,7.999832928180694580e-02,-1.491673104465007782e-02,1.469893753528594971e-01,6.575575470924377441e-02,-6.759408116340637207e-02,1.473168563097715378e-02,-6.277319788932800293e-02,-7.417057454586029053e-02,-1.046684533357620239e-01,1.157156750559806824e-01,4.393447935581207275e-02,8.163783699274063110e-02,-3.897777944803237915e-02,5.523382872343063354e-02,4.905422031879425049e-02,4.955825954675674438e-02,8.040884882211685181e-02,1.307211667299270630e-01,-4.190702736377716064e-02,5.344043672084808350e-02,1.959357596933841705e-02,1.139081194996833801e-01,2.903626998886466026e-03,-1.555897109210491180e-02,3.005008399486541748e-02,-1.448480486869812012e-01,-1.254732608795166016e-01,5.205331742763519287e-02,5.123207345604896545e-02,1.148784235119819641e-01,-1.897753216326236725e-02,6.213412154465913773e-03,-4.769939556717872620e-02,6.859683245420455933e-02,5.254603177309036255e-02,-1.156800910830497742e-01,-1.421541422605514526e-01,-3.667735680937767029e-02,1.437643263489007950e-02,2.318393252789974213e-02,-7.807110995054244995e-02,-2.491927146911621094e-02,3.042668476700782776e-02,2.829774981364607811e-03,-6.853873282670974731e-02,8.998136967420578003e-02,8.964016288518905640e-02,5.186399444937705994e-02,-8.383001200854778290e-03,5.563473794609308243e-03,2.615831978619098663e-02,-1.071837097406387329e-01,-5.032378435134887695e-02,2.133472450077533722e-02,-5.682180076837539673e-02,3.671815618872642517e-02,-7.266849279403686523e-02,-4.816657304763793945e-02,-2.172075957059860229e-02,-3.033016994595527649e-02,-1.347915679216384888e-01,-8.014065772294998169e-02,3.587792813777923584e-02,5.399836227297782898e-02,-1.170707587152719498e-02,-8.131007105112075806e-02,-1.180247813463211060e-01,-4.172682017087936401e-02,-8.465703576803207397e-02,4.711385816335678101e-02,1.088393032550811768e-01,4.434380680322647095e-02,-1.605712622404098511e-02,-4.474997147917747498e-02,1.790102124214172363e-01,-7.049649208784103394e-02,-1.983164064586162567e-02,-3.213344886898994446e-02,7.257687300443649292e-02,-5.882065370678901672e-02,7.063737511634826660e-02,1.479790359735488892e-01,1.735735684633255005e-01,1.424196511507034302e-01,-1.245799884200096130e-01,1.202257350087165833e-01,-3.165793418884277344e-02,4.520836099982261658e-02,2.447073757648468018e-01,-4.854909330606460571e-02,-7.787179946899414062e-02,2.658467926084995270e-02,-1.801880300045013428e-01,-2.178720198571681976e-02,-2.684681117534637451e-02,5.204166099429130554e-02,-4.765617474913597107e-02,3.611809387803077698e-02,-6.775584816932678223e-02,-2.486285939812660217e-02,8.195152133703231812e-02,2.250591665506362915e-01,-1.397718787193298340e-01,-1.055465713143348694e-01,1.148541867733001709e-01,9.444132447242736816e-02,-1.683575659990310669e-01,-3.565485030412673950e-02,-3.098047338426113129e-02,-4.381680116057395935e-02,-4.744660481810569763e-02,1.633326858282089233e-01,5.768223106861114502e-02,-1.379570923745632172e-02,-2.530884444713592529e-01,-5.616888776421546936e-02,-3.304186463356018066e-02,6.117661297321319580e-02,-1.519518494606018066e-01,-1.241307705640792847e-01,-9.979066252708435059e-02,1.352990269660949707e-01,1.399072110652923584e-01,-1.645347848534584045e-02,2.206587493419647217e-01,-1.196380481123924255e-01,2.312023751437664032e-02,-9.996652603149414062e-02,7.613755762577056885e-02,-3.720641136169433594e-02,-1.100590676069259644e-01,1.571289449930191040e-02,9.666904807090759277e-02,1.011319458484649658e-01,-2.051631361246109009e-01,4.370807111263275146e-02,7.016190141439437866e-02,2.776856422424316406e-01,-1.465903222560882568e-01,-1.463474333286285400e-01,-7.875252515077590942e-02,-1.746852509677410126e-02,9.678970277309417725e-02,1.445253491401672363e-01,1.086251884698867798e-01,1.219428554177284241e-01,9.076031297445297241e-02,-6.556916981935501099e-02,-1.439225226640701294e-01,-1.247042790055274963e-01,5.020249634981155396e-03,-2.163155823945999146e-01,9.996622800827026367e-02,-7.261953502893447876e-02,4.631057847291231155e-03,-3.365203365683555603e-02,4.252907261252403259e-02,9.234753996133804321e-02,1.222503930330276489e-01,1.035640537738800049e-01,-3.393994644284248352e-02,-7.206711918115615845e-02,7.425291091203689575e-02,-7.329019159078598022e-02,1.220754906535148621e-01,-4.371615871787071228e-02,-3.979341313242912292e-02,-1.293902378529310226e-02,-1.001823097467422485e-01,8.557662367820739746e-02,-3.992036357522010803e-02,-3.967180475592613220e-02,2.215493097901344299e-02,1.200668588280677795e-01,2.687814878299832344e-03,-6.734335329383611679e-03,-1.228843778371810913e-01,-1.889821738004684448e-01,-8.722572773694992065e-02,-4.414227977395057678e-02,-7.408267259597778320e-02,1.282876431941986084e-01,-1.286582797765731812e-01,3.134667500853538513e-02,-1.547399461269378662e-01,-4.141619428992271423e-02,5.072107538580894470e-03,-2.015327513217926025e-01,-1.695330999791622162e-02,-3.732458222657442093e-03,1.539700627326965332e-01,-9.346809983253479004e-02,6.751071661710739136e-02,1.041287481784820557e-01,1.361317336559295654e-01,3.605218604207038879e-02,-1.087080463767051697e-01,-2.193462662398815155e-02,-3.116196580231189728e-02,2.376004680991172791e-02,-1.746583431959152222e-01,8.197013288736343384e-03,2.365894056856632233e-02,-2.496695145964622498e-02,5.620159581303596497e-02,1.979255676269531250e-01,1.935141086578369141e-01,1.793188974261283875e-02,1.288640648126602173e-01,3.403940796852111816e-02,-1.590339653193950653e-02,-1.965395919978618622e-02,-2.654008381068706512e-02,1.451150625944137573e-01,-1.529725268483161926e-02,-6.846476811915636063e-03,1.326538156718015671e-02,-2.142044454813003540e-01,-2.483873441815376282e-02,-7.769587449729442596e-03,3.081132844090461731e-02,6.607311964035034180e-02,6.139986962080001831e-02,-2.164664492011070251e-02,-1.163969263434410095e-01,3.590093180537223816e-02,4.025483876466751099e-02,-1.332528591156005859e-01,-7.288892567157745361e-02,-3.410102427005767822e-02,2.753333561122417450e-02,1.102678254246711731e-01,-9.728743135929107666e-02,3.636205568909645081e-02,5.697548389434814453e-03,-8.075945079326629639e-02,-2.813275344669818878e-02,7.316320389509201050e-02,4.816745594143867493e-02,7.613904774188995361e-02,-5.232060328125953674e-02,-7.289286702871322632e-02,-6.607057061046361923e-03,3.620055690407752991e-02,-1.386812794953584671e-02,6.064902618527412415e-02,-4.433216154575347900e-02,2.967255935072898865e-02,-5.420880392193794250e-02,-1.515628024935722351e-02,9.922235459089279175e-02,3.315452113747596741e-02,-1.382261365652084351e-01,-8.121392875909805298e-02,-7.570901513099670410e-02,8.281157910823822021e-02,1.998712308704853058e-02,-9.390392154455184937e-02,-1.324659287929534912e-01,-8.431813120841979980e-02,-1.483859214931726456e-02,-2.962349727749824524e-02,6.373298168182373047e-02,1.434360444545745850e-02,1.017520576715469360e-02,2.485643513500690460e-02,3.276127576828002930e-02,-9.986954182386398315e-02,-1.414009928703308105e-01,5.061819683760404587e-03,3.965534642338752747e-02,-1.180721819400787354e-01,1.419600914232432842e-03,1.440619826316833496e-01,1.293914616107940674e-01,6.352154165506362915e-02,-1.527857184410095215e-01,1.170845702290534973e-01,9.791287593543529510e-03,6.604755669832229614e-02,7.341910531977191567e-06,1.241301074624061584e-01,2.273720130324363708e-02,9.037084132432937622e-02,-1.727394908666610718e-01,8.667499758303165436e-03,-3.821330890059471130e-02,6.260585039854049683e-02,4.300263524055480957e-02,-2.518174052238464355e-02,5.927179381251335144e-02,-8.490049093961715698e-02,1.226065978407859802e-01,7.115716487169265747e-02,-2.247074842453002930e-01,-1.123613342642784119e-01,5.232268571853637695e-02,1.373189538717269897e-01,-9.048930555582046509e-02,-8.271480910480022430e-03,-5.254483968019485474e-02,6.068457663059234619e-02,-5.451523140072822571e-02,1.450263559818267822e-01,8.760325610637664795e-03,1.393154263496398926e-03,-2.232649773359298706e-01,-4.285966977477073669e-02,-4.658324271440505981e-02,6.040408834815025330e-02,-1.657059490680694580e-01,-8.452702313661575317e-02,-1.312980800867080688e-01,1.081474423408508301e-01,4.052634909749031067e-02,-1.008821353316307068e-01,1.890957653522491455e-01,-1.929638832807540894e-01,7.251344621181488037e-02,-2.071717977523803711e-01,2.197759412229061127e-02,-1.039425283670425415e-02,-8.288896083831787109e-02,-1.031146645545959473e-01,-3.674229979515075684e-02,1.229140534996986389e-02,-2.151820212602615356e-01,-7.508432120084762573e-02,3.494926169514656067e-02,1.456123292446136475e-01,-1.362379938364028931e-01,-8.077909052371978760e-02,-5.049274489283561707e-02,-7.759074121713638306e-02,1.534234881401062012e-01,1.496702134609222412e-01,2.690400481224060059e-01,1.210955455899238586e-01,1.763456314802169800e-01,-1.089202314615249634e-01,-1.709512472152709961e-01,-1.560166925191879272e-01,7.822545617818832397e-02,-1.013125851750373840e-01,2.338288575410842896e-01,-1.273693591356277466e-01,1.648966968059539795e-02,-5.653487890958786011e-02,2.080397680401802063e-02,2.162465155124664307e-01,1.726811230182647705e-01,-4.327425360679626465e-02,-8.543645590543746948e-02,-1.165454238653182983e-01,1.192205119878053665e-02,-8.646533638238906860e-02,2.048222720623016357e-02,7.501006871461868286e-02,-9.642209857702255249e-02,-5.196307599544525146e-02,-5.129411444067955017e-02,1.909787207841873169e-01,-8.289672434329986572e-02,7.282439619302749634e-02,1.072564050555229187e-01,7.276743650436401367e-02,-4.450847953557968140e-02,-2.354003861546516418e-02,-1.196712106466293335e-01,-1.283726841211318970e-01,-1.037751734256744385e-01,9.954704903066158295e-03,-3.776936978101730347e-02,9.322718530893325806e-02,-1.628984212875366211e-01,1.512321643531322479e-02,-3.348565846681594849e-02,-8.489671349525451660e-02,-3.191959112882614136e-02,-5.360215529799461365e-02,2.274916879832744598e-02,-9.097459167242050171e-02,8.979128301143646240e-02,-7.416426390409469604e-02,1.528936438262462616e-02,1.506249755620956421e-01,-1.361831184476613998e-02,-3.847940638661384583e-02,-1.314760595560073853e-01,-4.682196676731109619e-02,3.194905817508697510e-02,1.214614063501358032e-01,-2.068678289651870728e-01,-6.192270293831825256e-02,-3.914949670433998108e-02,-4.821712896227836609e-02,1.063063889741897583e-01,2.023480087518692017e-01,2.019468545913696289e-01,3.662629798054695129e-02,1.906481385231018066e-01,-5.054966732859611511e-02,7.710285484790802002e-02,-6.046036258339881897e-02,-3.432747721672058105e-02,5.907335132360458374e-02,-7.259239256381988525e-02,1.092841923236846924e-01,4.238488897681236267e-02,-2.370655685663223267e-01,4.283826053142547607e-02,-6.032284349203109741e-02,1.306660752743482590e-02,1.288407891988754272e-01,1.112067624926567078e-01,-4.194045439362525940e-02,-9.311401844024658203e-02,-3.722570836544036865e-02,-7.866273820400238037e-02,-4.879897460341453552e-02,8.297455310821533203e-02,1.105618011206388474e-02,-1.431919168680906296e-02,8.347991853952407837e-02,-2.196181751787662506e-02,3.592933341860771179e-02,8.515110611915588379e-02,-1.341468840837478638e-01,-4.947652667760848999e-02,-1.862634345889091492e-02,-6.929600238800048828e-02,4.954533651471138000e-02,-1.664165034890174866e-02,-9.935925900936126709e-02,-1.954988017678260803e-02,1.484853029251098633e-01,-6.675965152680873871e-03,6.428933143615722656e-02,-3.570251911878585815e-02,-2.973567880690097809e-02,-4.600225389003753662e-02,-2.397642843425273895e-02,4.231141135096549988e-02,2.804160676896572113e-02,-8.286941051483154297e-02,-3.288489207625389099e-02,-1.282231509685516357e-01,8.575867116451263428e-02,2.263025566935539246e-02,1.579968258738517761e-03,1.635362277738749981e-03,1.356934476643800735e-02,3.892105445265769958e-02,4.133736342191696167e-02,6.836433708667755127e-02,-4.534787312150001526e-02,5.282628908753395081e-02,-2.261215075850486755e-02,-2.641875110566616058e-02,-1.267141550779342651e-01,-1.462147533893585205e-01,2.709002606570720673e-02,4.380634520202875137e-03,-1.323048621416091919e-01,-2.748999185860157013e-02,1.757127046585083008e-01,3.255995362997055054e-02,5.756752192974090576e-02,-9.951648116111755371e-02,6.941397488117218018e-02,8.013633638620376587e-02,7.103151828050613403e-02,-2.298969030380249023e-01,6.558076292276382446e-02,9.753218293190002441e-02,9.008157253265380859e-02,-1.312006413936614990e-01,4.465965088456869125e-03,7.042291108518838882e-03,7.561024278402328491e-02,1.110465005040168762e-01,-1.479368060827255249e-01,8.123753219842910767e-02,-7.482860819436609745e-04,5.439398437738418579e-02,4.038121178746223450e-02,-9.536126255989074707e-02,-7.030946761369705200e-02,-1.230771988630294800e-01,1.145211607217788696e-01,1.158594153821468353e-02,-2.268973179161548615e-02,9.284476749598979950e-03,1.859931349754333496e-01,-4.775038734078407288e-02,7.295266538858413696e-02,-1.183458417654037476e-01,9.425063431262969971e-02,-2.569538168609142303e-02,-5.935629829764366150e-02,4.404587298631668091e-02,4.797432571649551392e-02,-1.874357908964157104e-01,-1.860085129737854004e-02,-8.829324692487716675e-02,5.658687278628349304e-02,-2.293536439538002014e-02,-1.836135238409042358e-01,1.004615649580955505e-01,-1.778126955032348633e-01,-3.529533743858337402e-02,-2.389559894800186157e-01,-1.721467636525630951e-02,3.461676184087991714e-03,-2.735713496804237366e-02,-1.230678632855415344e-01,-1.267350465059280396e-01,-8.143161539919674397e-05,-1.314803063869476318e-01,-8.622308820486068726e-02,-3.922189027070999146e-02,-5.781077593564987183e-02,1.429715286940336227e-02,6.950307637453079224e-02,-9.628324955701828003e-02,-5.011957138776779175e-02,1.782969236373901367e-01,1.689345687627792358e-01,1.851279288530349731e-01,6.475375592708587646e-02,1.095455735921859741e-01,-1.372146308422088623e-01,-3.367147222161293030e-02,-6.827241927385330200e-02,2.149089425802230835e-01,2.193938940763473511e-02,2.506703734397888184e-01,-1.940128952264785767e-01,9.497429430484771729e-02,-6.204922217875719070e-03,1.168652847409248352e-01,9.070954471826553345e-02,1.206601932644844055e-01,-1.665670871734619141e-01,-6.669372320175170898e-02,-1.001753136515617371e-01,-1.978284120559692383e-02,-1.684326827526092529e-01,-6.639312952756881714e-03,3.105307742953300476e-02,-1.094293221831321716e-01,-7.188222557306289673e-02,-2.011575177311897278e-02,1.537476629018783569e-01,-8.805587887763977051e-02,8.027616888284683228e-02,8.448898047208786011e-02,3.312136977910995483e-02,-7.693392038345336914e-02,4.075896739959716797e-02,-5.704556778073310852e-02,-1.214989572763442993e-01,-2.992139942944049835e-02,-1.557097863405942917e-02,-1.206006295979022980e-02,3.595984354615211487e-02,-2.263563498854637146e-02,-4.879152029752731323e-02,9.338958561420440674e-02,-8.998847752809524536e-02,-6.263922899961471558e-02,1.219383068382740021e-02,3.869749978184700012e-02,-5.275112017989158630e-02,3.548751398921012878e-02,-1.237646862864494324e-01,-6.910977512598037720e-02,1.475702673196792603e-01,-1.146017760038375854e-01,-1.764857321977615356e-01,-2.384868822991847992e-02,-5.546785145998001099e-02,2.511810325086116791e-02,2.498125284910202026e-01,-2.478641085326671600e-02,-1.927493326365947723e-02,-3.707439452409744263e-02,-8.284947834908962250e-03,6.824909895658493042e-02,1.251519098877906799e-02,1.722093969583511353e-01,-2.279756031930446625e-02,2.429496049880981445e-01,-1.009570285677909851e-01,4.409236833453178406e-02,2.603061497211456299e-02,-4.167288541793823242e-02,-7.210801821202039719e-03,-7.614172995090484619e-02,6.610416620969772339e-02,2.209534496068954468e-01,-6.951228529214859009e-02,3.201032429933547974e-02,-3.018743731081485748e-02,7.118973135948181152e-02,5.519595369696617126e-02,7.854204624891281128e-02,-4.407767206430435181e-02,-5.029860883951187134e-02,-8.055932819843292236e-02,-1.274169981479644775e-01,8.107074350118637085e-02,1.129135638475418091e-01,4.103273153305053711e-03,-1.545074582099914551e-01,1.655820570886135101e-02,6.044731289148330688e-02,-3.916678577661514282e-02,2.272822149097919464e-02,-1.492320448160171509e-01,2.583210170269012451e-02,-3.069060621783137321e-04,-1.713447086513042450e-02,-5.255862325429916382e-02,1.606844551861286163e-02,-2.434182539582252502e-02,-6.430223584175109863e-02,1.068662554025650024e-01,1.580431312322616577e-02,-2.438970096409320831e-02,-6.375514715909957886e-02,-9.341377764940261841e-02,-1.989135891199111938e-02,1.531654968857765198e-03,-6.823734380304813385e-03,-5.452818050980567932e-02,3.123722784221172333e-02,9.264870733022689819e-02,-5.697368457913398743e-02,-2.512419829145073891e-03,2.397475764155387878e-02,4.052444174885749817e-02,3.293721005320549011e-02,4.466386511921882629e-02,1.472686082124710083e-01,6.932327896356582642e-02,-6.084481999278068542e-02,-1.431361958384513855e-02,-2.489802800118923187e-02,-5.493850260972976685e-02,1.119396835565567017e-02,-1.081355810165405273e-01,-1.520563513040542603e-01,5.538062006235122681e-02,-9.270743280649185181e-02,2.050678431987762451e-02,-7.640169002115726471e-03,1.177132725715637207e-01,-3.985847532749176025e-02,6.400679796934127808e-02,-6.334255635738372803e-02,-2.163029834628105164e-02,1.210374478250741959e-02,6.631878018379211426e-02,-1.941373646259307861e-01,-5.834430828690528870e-02,1.181316077709197998e-01,2.940843580290675163e-03,-7.857540994882583618e-02,5.240665376186370850e-02,-1.209086831659078598e-02,1.294180005788803101e-01,7.504803687334060669e-02,-1.603325903415679932e-01,4.870387911796569824e-02,6.331225857138633728e-03,5.158177018165588379e-02,-9.022420644760131836e-02,2.891824021935462952e-02,7.316713035106658936e-02,-1.779236793518066406e-01,7.765322923660278320e-03,1.051702350378036499e-01,7.627980411052703857e-02,-1.931337267160415649e-02,6.914536654949188232e-02,-1.252937596291303635e-02,-6.325063109397888184e-02,-1.090669184923171997e-01,1.678553521633148193e-01,1.488692313432693481e-01,-3.184010460972785950e-02,1.373972743749618530e-01,5.118783935904502869e-02,-9.826396405696868896e-02,5.803829431533813477e-02,-9.763517975807189941e-02,-1.196696460247039795e-01,-1.480719596147537231e-01,-1.954948753118515015e-01,3.851776942610740662e-02,-8.664184808731079102e-02,-1.168101131916046143e-01,-8.781396597623825073e-02,2.485803328454494476e-02,9.992326796054840088e-02,7.901117205619812012e-03,-6.249629333615303040e-02,-1.250939220190048218e-01,8.993762731552124023e-02,7.826202362775802612e-02,5.870575830340385437e-02,-4.162146896123886108e-02,-2.112297564744949341e-01,6.348609179258346558e-02,1.543250530958175659e-01,-4.314377903938293457e-02,3.658037632703781128e-02,1.404079198837280273e-01,1.832429021596908569e-01,1.484038233757019043e-01,-1.449646335095167160e-02,-2.328922227025032043e-02,-7.955678552389144897e-02,8.326082676649093628e-02,5.254570767283439636e-02,2.052331715822219849e-01,1.052760630846023560e-01,1.529816538095474243e-01,-1.389096230268478394e-01,2.187283709645271301e-02,4.346946626901626587e-02,1.237438321113586426e-01,-7.568433880805969238e-02,-1.052823439240455627e-01,-1.841125786304473877e-01,-8.327632397413253784e-02,7.114853709936141968e-02,-6.246525794267654419e-02,-1.387743204832077026e-01,-3.597792983055114746e-02,-7.406620681285858154e-02,1.416216022334992886e-03,-4.877321422100067139e-02,6.401298101991415024e-03,8.431947231292724609e-02,-6.199128553271293640e-02,1.597726345062255859e-01,5.312487110495567322e-02,8.799591101706027985e-03,-7.499400526285171509e-02,5.271710827946662903e-02,-3.312832862138748169e-02,-1.305559128522872925e-01,1.322877258062362671e-01,3.040484525263309479e-02,-2.318915911018848419e-02,-1.088194735348224640e-02,9.722002595663070679e-02,5.810858681797981262e-02,1.106524541974067688e-01,-6.249197944998741150e-02,-1.050739586353302002e-01,9.513300657272338867e-02,2.099428139626979828e-02,-8.255863934755325317e-02,-6.680424511432647705e-02,-5.937051773071289062e-02,-1.698188483715057373e-01,1.714445836842060089e-02,-1.481337696313858032e-01,-1.211728528141975403e-01,-8.512710034847259521e-02,3.298310935497283936e-02,-3.862379863858222961e-02,1.159126758575439453e-01,2.174023389816284180e-01,-9.350802749395370483e-03,-1.781400479376316071e-02,-1.823612861335277557e-02,1.605996489524841309e-02,-1.254632920026779175e-01,1.104021538048982620e-02,3.629990294575691223e-02,2.637158036231994629e-01,-1.642629057168960571e-01,2.944853715598583221e-02,-2.029427792876958847e-03,-1.184179484844207764e-01,-9.641553461551666260e-02,3.293776139616966248e-02,-5.048618465662002563e-02,2.134976685047149658e-01,1.325532346963882446e-01,5.260047316551208496e-02,-5.190416052937507629e-02,2.795448526740074158e-02,-7.520520687103271484e-02,6.512135732918977737e-03,-2.517903596162796021e-02,5.653112009167671204e-02,-1.168267279863357544e-01,-4.196252301335334778e-02,4.264000430703163147e-02,6.552473455667495728e-02,7.076621055603027344e-02,-1.191667467355728149e-01,-1.110940203070640564e-01,1.059120595455169678e-01,-4.724398627877235413e-02,3.188298270106315613e-02,-4.805899411439895630e-02,-4.019684717059135437e-02,-4.985176399350166321e-02,-8.409499377012252808e-02,-3.410743549466133118e-02,9.179132059216499329e-03,3.684201091527938843e-02,-2.168521657586097717e-02,-1.071221660822629929e-03,-4.464434087276458740e-02,-7.423262111842632294e-03,-2.729155309498310089e-02,-3.652710467576980591e-02,9.066269733011722565e-03,5.344263091683387756e-02,-7.590185105800628662e-02,-2.256597392261028290e-02,4.025238007307052612e-02,5.227572470903396606e-02,-3.618527203798294067e-02,-3.521598502993583679e-02,3.349325433373451233e-02,-3.777589648962020874e-02,8.554549515247344971e-02,3.545833006501197815e-02,1.532319039106369019e-01,2.174477279186248779e-02,-1.112029552459716797e-01,-2.214710600674152374e-02,-4.722108319401741028e-02,-1.422393601387739182e-02,-5.414392426609992981e-02,2.576144598424434662e-02,-3.982131928205490112e-02,-1.601424254477024078e-02,-3.230357170104980469e-02,6.726157665252685547e-02,2.169762365520000458e-02,3.205893561244010925e-02,-1.452242583036422729e-01,1.783279143273830414e-02,1.016875058412551880e-01,3.105157287791371346e-03,1.188917364925146103e-02,-5.011272430419921875e-02,-3.252932336181402206e-03,-1.629211381077766418e-02,1.029186472296714783e-01,4.170164465904235840e-03,4.764115810394287109e-02,8.380604535341262817e-02,-7.033485174179077148e-02,1.229433417320251465e-01,3.206921741366386414e-03,-1.224479973316192627e-01,8.113408088684082031e-02,-8.626736700534820557e-03,2.638127654790878296e-02,-8.194805681705474854e-02,5.175455287098884583e-02,1.636777222156524658e-01,-1.098196506500244141e-01,-3.541811555624008179e-02,2.801310736685991287e-03,6.938740611076354980e-02,1.044254004955291748e-02,-5.938033759593963623e-02,-6.283739954233169556e-02,-9.573087096214294434e-02,-7.742158323526382446e-02,1.004007905721664429e-01,1.194194033741950989e-01,-2.654154039919376373e-02,1.247355490922927856e-01,4.401962831616401672e-02,-6.807051599025726318e-02,1.232433989644050598e-01,-6.835830211639404297e-02,-1.736245006322860718e-01,-1.298606395721435547e-01,-8.458968997001647949e-02,-1.204905845224857330e-02,1.549075245857238770e-01,2.349297888576984406e-02,8.513608574867248535e-02,1.789688691496849060e-02,1.179990991950035095e-01,-4.606701433658599854e-02,-1.881941035389900208e-02,-4.577780887484550476e-02,3.488821163773536682e-02,1.347832381725311279e-01,1.914013326168060303e-01,5.223715677857398987e-03,-3.057782351970672607e-01,-5.890674144029617310e-02,1.383246183395385742e-01,9.579169750213623047e-02,-7.013618014752864838e-04,1.009663864970207214e-01,1.083868071436882019e-01,9.692457318305969238e-02,-1.486129476688802242e-03,-6.570778787136077881e-02,-1.140169892460107803e-02,5.269406363368034363e-02,5.100957304239273071e-02,8.101920783519744873e-02,1.777985692024230957e-01,-3.838384896516799927e-02,1.397993322461843491e-02,-4.701907187700271606e-02,5.906252935528755188e-02,8.063307404518127441e-02,-6.699158996343612671e-02,-2.624669969081878662e-01,-1.712871640920639038e-01,-4.145464301109313965e-02,1.760653853416442871e-01,-1.189895197749137878e-01,-7.983387261629104614e-02,-7.724834978580474854e-02,-5.822993442416191101e-02,1.152178794145584106e-01,-1.945462450385093689e-02,1.833724230527877808e-02,-1.030083447694778442e-01,2.861989475786685944e-02,1.040352359414100647e-01,7.799377664923667908e-03,-5.689078196883201599e-02,1.313373260200023651e-02,1.689462922513484955e-02,-4.298065230250358582e-02,-8.122016489505767822e-02,1.696955114603042603e-01,4.573810473084449768e-02,-4.144823923707008362e-02,3.249935060739517212e-02,1.213859915733337402e-01,1.520968973636627197e-01,4.276862367987632751e-02,6.410089880228042603e-02,-6.278149783611297607e-02,8.710313588380813599e-02,6.891229003667831421e-02,-7.416816055774688721e-02,-5.396897345781326294e-02,-7.238272577524185181e-02,-1.427995413541793823e-01,5.201712250709533691e-02,-1.200512275099754333e-01,-5.729283764958381653e-02,-6.844202429056167603e-02,4.939377680420875549e-02,-1.115544363856315613e-01,-3.970828652381896973e-02,2.311654835939407349e-01,3.364033252000808716e-02,-1.863993675215169787e-04,2.314826101064682007e-02,-1.393536571413278580e-02,-1.244232282042503357e-01,-6.008692458271980286e-02,8.012463897466659546e-02,2.020382881164550781e-01,-1.318324939347803593e-03,-4.189398884773254395e-02,-9.996696561574935913e-02,-5.190213769674301147e-02,-9.826800227165222168e-02,6.946014612913131714e-02,-1.337417811155319214e-01,9.614094346761703491e-02,3.569136261940002441e-01,3.063633106648921967e-02,2.015162631869316101e-02,8.303291164338588715e-03,-8.244688063859939575e-02,-5.073276907205581665e-02,-2.650783397257328033e-03,2.621615864336490631e-02,-5.522305518388748169e-02,9.343922138214111328e-02,5.786469206213951111e-02,3.652045503258705139e-02,5.871526151895523071e-02,-6.112030521035194397e-02,-1.639990359544754028e-01,4.262578487396240234e-02,-8.104010485112667084e-03,2.725278958678245544e-02,8.221783488988876343e-02,-1.771291531622409821e-02,1.263222564011812210e-02,-3.511978313326835632e-02,-2.729873545467853546e-02,-4.364407435059547424e-02,-2.253192663192749023e-02,-3.665488213300704956e-02,-7.795868813991546631e-02,2.435510978102684021e-02,-3.066823258996009827e-02,8.018743246793746948e-04,-9.678782895207405090e-03,6.854046136140823364e-02,4.037803784012794495e-02,-4.696320742368698120e-02,-5.459143966436386108e-02,1.152352020144462585e-01,2.285996079444885254e-02,1.671697758138179779e-02,-1.994551531970500946e-02,-1.075154286809265614e-03,1.924997544847428799e-03,1.021218374371528625e-01,1.410047151148319244e-02,8.311592787504196167e-02,-1.721973530948162079e-02,-1.412827968597412109e-01,1.972198672592639923e-02,2.783375419676303864e-02,-2.411941997706890106e-02,-1.119016557931900024e-01,1.265934556722640991e-01,3.163807094097137451e-02,-3.586319833993911743e-02,-7.692679017782211304e-02,9.734513610601425171e-02,-2.141218446195125580e-02,-2.694659866392612457e-02,-1.491356939077377319e-01,-3.193744644522666931e-02,1.154400110244750977e-01,3.503479063510894775e-02,-2.285878360271453857e-02,-1.393096446990966797e-01,8.680356293916702271e-02,1.851061941124498844e-03,5.878612771630287170e-02,-4.018096998333930969e-02,1.277242600917816162e-01,2.549248561263084412e-02,-7.031351327896118164e-02,8.776419609785079956e-02,-1.389246899634599686e-02,-1.398355066776275635e-01,1.192185357213020325e-01,-2.509717643260955811e-02,-1.443608198314905167e-02,-7.937632501125335693e-02,9.695041179656982422e-02,1.081876978278160095e-01,-1.513966079801321030e-02,-7.169707119464874268e-02,-4.348996654152870178e-02,-2.348758466541767120e-02,-1.563301123678684235e-02,-5.548003688454627991e-02,1.904792338609695435e-02,-5.888748168945312500e-02,6.296329665929079056e-03,-4.983593523502349854e-02,1.105647832155227661e-01,5.819443985819816589e-02,7.749307900667190552e-02,-5.001762136816978455e-02,4.022131487727165222e-02,1.343700289726257324e-01,-1.635468006134033203e-02,-1.605621725320816040e-01,-1.048912554979324341e-01,-2.160569839179515839e-02,-6.609785556793212891e-02,1.768408268690109253e-01,2.815762767568230629e-03,1.191794425249099731e-01,-2.821383811533451080e-02,6.798550486564636230e-02,-1.546388864517211914e-01,4.482035338878631592e-02,1.032793428748846054e-02,-2.959718927741050720e-02,1.015523299574851990e-01,1.188343763351440430e-01,-7.870106957852840424e-03,-1.729719191789627075e-01,-8.631321042776107788e-02,1.112135648727416992e-01,8.697439730167388916e-02,-3.093623369932174683e-02,4.196220543235540390e-03,5.333656817674636841e-02,-2.297900064149871469e-04,2.536879107356071472e-02,-7.584878057241439819e-02,1.020817384123802185e-01,8.651804178953170776e-02,2.230196259915828705e-02,3.752980008721351624e-02,1.143108680844306946e-01,-1.245172098278999329e-01,-5.401951726526021957e-03,-2.396022155880928040e-02,-3.689396381378173828e-02,-5.287774279713630676e-02,-8.525262027978897095e-02,-1.837536841630935669e-01,-1.203140318393707275e-01,-7.262124866247177124e-02,1.882792115211486816e-01,-8.990994840860366821e-02,-7.886523753404617310e-02,-8.708108961582183838e-02,-5.778639577329158783e-03,1.204336434602737427e-01,3.710638359189033508e-02,-1.969685778021812439e-02,-1.452353298664093018e-01,7.724914699792861938e-02,1.696595549583435059e-02,1.158598344773054123e-02,-8.796633034944534302e-02,4.594734683632850647e-02,4.161403328180313110e-02,3.206926211714744568e-02,-1.789946854114532471e-02,7.718564569950103760e-02,6.611132062971591949e-03,2.786444872617721558e-02,2.070669457316398621e-02,5.348277091979980469e-02,8.561784029006958008e-02,-8.430112153291702271e-02,1.326476335525512695e-01,-7.418897747993469238e-02,1.035779491066932678e-01,1.173185929656028748e-02,-7.464221119880676270e-02,7.013627141714096069e-02,-3.299408778548240662e-02,-1.357956081628799438e-01,7.305962592363357544e-02,-6.030508503317832947e-02,3.255756944417953491e-02,-2.696808986365795135e-02,9.750948101282119751e-02,-9.678851068019866943e-02,-6.659948080778121948e-02,1.687506884336471558e-01,1.349925547838211060e-01,7.289668172597885132e-02,-4.189925640821456909e-02,-1.869145967066287994e-02,-5.412479862570762634e-02,-1.061601340770721436e-01,-5.954646971076726913e-03,1.836619675159454346e-01,9.138238430023193359e-02,-1.882241107523441315e-02,-5.739011988043785095e-02,3.297000424936413765e-03,-5.667562410235404968e-02,3.358683362603187561e-02,-1.908804923295974731e-01,-9.442958980798721313e-03,2.199009209871292114e-01,1.951529271900653839e-02,9.354798495769500732e-02,-1.455443911254405975e-03,-7.340919226408004761e-02,-8.851428329944610596e-02,-6.186511740088462830e-02,4.446582868695259094e-03,4.792356118559837341e-02,6.690498441457748413e-02,4.612255096435546875e-02,-1.178772188723087311e-03,8.173458278179168701e-03,5.836136266589164734e-02,-7.947414368391036987e-02,-3.647159785032272339e-02,-5.008872970938682556e-02,-3.468777984380722046e-02,5.378884077072143555e-02,2.443378791213035583e-02,6.291623227298259735e-03,-8.392138779163360596e-02,-2.650816459208726883e-04,-5.394703894853591919e-02,-3.365281596779823303e-02,3.111282177269458771e-02,-3.648541867733001709e-02,1.276623457670211792e-02,-9.546902962028980255e-03,9.663739800453186035e-02,1.990223862230777740e-02,8.904466032981872559e-02,6.068165972828865051e-02,-3.751003742218017578e-02,-5.732500180602073669e-02,8.102229237556457520e-02,-1.629747822880744934e-02,8.202605694532394409e-02,-8.831047266721725464e-02,-6.767265498638153076e-02,5.517300218343734741e-02,3.019619034603238106e-03,2.502735331654548645e-02,-8.852930366992950439e-02,-3.918382897973060608e-02,-9.072107076644897461e-02,-4.470410570502281189e-02,-2.362108975648880005e-02,1.302135828882455826e-02,-2.245694585144519806e-02,1.107363402843475342e-01,3.589667379856109619e-02,-1.503972895443439484e-02,-6.740446388721466064e-02,6.589413434267044067e-02,-6.568504869937896729e-02,-4.951423406600952148e-02,-1.228835284709930420e-01,-1.201596260070800781e-01,1.047533452510833740e-01,-1.315707457251846790e-03,-6.937909871339797974e-02,-1.032933443784713745e-01,1.525064408779144287e-01,2.956892736256122589e-02,2.912208251655101776e-02,6.745671387761831284e-03,1.028029397130012512e-01,4.628902301192283630e-03,-6.974944472312927246e-02,-2.625811286270618439e-02,-3.324943780899047852e-02,-8.434611558914184570e-02,7.143476605415344238e-02,-5.491533502936363220e-02,-1.266092900186777115e-02,-7.295335084199905396e-02,1.363347321748733521e-01,1.477288547903299332e-02,-4.865457862615585327e-02,1.896279864013195038e-02,-3.361554443836212158e-02,-5.364986509084701538e-02,4.228275269269943237e-02,-7.489962875843048096e-02,5.963598564267158508e-02,-6.073501706123352051e-02,2.098556235432624817e-02,-5.835388228297233582e-02,6.138665229082107544e-02,7.819490879774093628e-02,-7.085961848497390747e-02,-9.940212219953536987e-02,1.069602519273757935e-01,1.047895699739456177e-01,-4.931322857737541199e-02,-5.155355855822563171e-02,-5.807689204812049866e-02,-2.627040259540081024e-03,-7.458455115556716919e-02,1.531011462211608887e-01,-2.421072125434875488e-02,1.121120452880859375e-01,3.839529678225517273e-02,-5.090836435556411743e-02,-1.098300293087959290e-01,8.313295245170593262e-02,3.159067779779434204e-02,-4.072585329413414001e-02,9.604627266526222229e-03,4.687421396374702454e-02,1.095096115022897720e-02,-4.039678350090980530e-02,-2.991565316915512085e-02,1.047011464834213257e-01,1.238112673163414001e-01,-1.323798447847366333e-01,4.787119105458259583e-02,4.700052365660667419e-02,-3.560547158122062683e-02,6.921976059675216675e-02,-1.270231306552886963e-01,9.506142884492874146e-02,3.455695509910583496e-02,2.462582476437091827e-02,-6.934082508087158203e-02,1.539703924208879471e-02,-1.284767538309097290e-01,-2.931182086467742920e-02,-4.849620535969734192e-02,-1.013728529214859009e-01,-9.285867214202880859e-02,-9.881790727376937866e-02,-7.641030102968215942e-02,-4.695121664553880692e-03,-6.069328263401985168e-02,1.338859647512435913e-01,2.707508625462651253e-03,-5.303730815649032593e-02,-5.009367689490318298e-02,-2.892257180064916611e-03,5.551481619477272034e-02,8.931960165500640869e-02,-3.772916272282600403e-02,-4.634473472833633423e-02,7.055602967739105225e-02,3.041619248688220978e-02,-1.996827498078346252e-02,-4.412144050002098083e-02,4.373314976692199707e-02,-8.074346929788589478e-02,3.058698400855064392e-02,2.378052845597267151e-02,1.372538041323423386e-02,5.403691530227661133e-02,-4.802294820547103882e-02,2.320260182023048401e-02,-3.132972121238708496e-02,2.314259111881256104e-02,-8.162308484315872192e-02,1.248214170336723328e-01,-1.065576523542404175e-01,5.547874793410301208e-02,4.155945405364036560e-02,-8.158035576343536377e-03,1.625628024339675903e-01,3.369449824094772339e-02,-1.946691870689392090e-01,4.167837277054786682e-02,2.800665050745010376e-02,6.503690034151077271e-02,-5.716284736990928650e-03,4.610999021679162979e-03,-9.048219770193099976e-02,-4.989580437541007996e-02,6.413336843252182007e-02,-5.311511922627687454e-04,1.795771345496177673e-02,-1.388182491064071655e-02,-7.688418030738830566e-03,-5.776630714535713196e-02,-1.513449996709823608e-01,-6.943783164024353027e-02,4.771452397108078003e-02,1.560346782207489014e-02,-3.316041082143783569e-02,-8.428267389535903931e-02,8.279808610677719116e-02,-4.878369346261024475e-02,-2.951675467193126678e-02,-8.999540656805038452e-02,-2.227120660245418549e-02,7.954215258359909058e-02,5.673267319798469543e-02,9.268938004970550537e-02,-1.078975796699523926e-01,-9.886491298675537109e-02,8.865405805408954620e-03,-2.488003298640251160e-02,3.432870656251907349e-02,1.423295959830284119e-02,5.985015258193016052e-02,7.496903836727142334e-02,1.830927841365337372e-02,4.450591653585433960e-02,9.297646582126617432e-02,-3.367616981267929077e-02,4.958016332238912582e-03,5.258574709296226501e-02,2.107604779303073883e-02,9.705813974142074585e-02,8.660731464624404907e-02,-8.000708371400833130e-02,1.491687726229429245e-02,-9.502501226961612701e-03,4.662953689694404602e-02,3.749123960733413696e-02,-5.050176754593849182e-02,-5.196679383516311646e-02,2.742617018520832062e-02,-5.704217031598091125e-02,1.006013974547386169e-01,3.490503504872322083e-02,1.624861359596252441e-02,1.316231582313776016e-02,3.154633194208145142e-02,4.650027491152286530e-03,1.063132807612419128e-01,4.261915571987628937e-03,9.186296164989471436e-02,-2.665805071592330933e-02,-6.795801967382431030e-02,4.746969416737556458e-02,-1.204976718872785568e-02,-3.166127717122435570e-03,-1.126851290464401245e-01,-1.085982844233512878e-01,-2.262401767075061798e-02,4.061263054609298706e-03,6.243464350700378418e-02,2.756609395146369934e-02,-5.119461193680763245e-02,1.112670972943305969e-01,1.278381645679473877e-01,2.232172340154647827e-02,2.748162858188152313e-02,2.866487205028533936e-02,-5.607707053422927856e-02,-1.236353591084480286e-01,-6.130185350775718689e-02,-1.231507062911987305e-01,6.440825760364532471e-02,-8.027678355574607849e-03,1.908477745018899441e-03,-1.015847176313400269e-01,1.053140759468078613e-01,-6.048226729035377502e-03,1.367682125419378281e-02,7.183634489774703979e-02,1.072215363383293152e-01,-9.435886144638061523e-02,-4.242237657308578491e-02,-9.304739534854888916e-02,-2.951462380588054657e-02,-1.505375374108552933e-02,5.314671248197555542e-02,-2.512345835566520691e-02,-1.182869262993335724e-02,-1.257018744945526123e-01,1.396864056587219238e-01,-2.347306162118911743e-02,-8.770811371505260468e-03,8.064019493758678436e-03,2.682111691683530807e-03,-1.148682385683059692e-01,7.273409049957990646e-03,-6.141639128327369690e-02,9.303623437881469727e-02,-7.255548238754272461e-02,2.228128351271152496e-02,-1.512130796909332275e-01,3.871550783514976501e-02,8.902805298566818237e-02,-1.287494003772735596e-01,-1.353585273027420044e-01,1.247173398733139038e-01,1.238460168242454529e-01,3.083339519798755646e-02,-8.647812530398368835e-03,5.951566155999898911e-03,5.763176083564758301e-02,-3.804434835910797119e-02,1.310683488845825195e-01,7.061717659235000610e-02,-2.435246668756008148e-02,-1.684454327914863825e-04,-1.045341193675994873e-01,-7.725092023611068726e-02,8.944703638553619385e-02,6.862379610538482666e-02,3.040997311472892761e-02,-5.380698665976524353e-02,-3.961090743541717529e-02,3.246311843395233154e-02,8.470137603580951691e-03,-3.384023532271385193e-02,9.743605554103851318e-02,9.294804185628890991e-02,-6.374385952949523926e-02,1.014272719621658325e-01,1.753795333206653595e-02,-4.239832237362861633e-02,8.975756913423538208e-02,-4.684230312705039978e-02,5.224597826600074768e-02,1.128801181912422180e-01,8.852283656597137451e-02,-6.096924468874931335e-02,4.432756081223487854e-02,-9.379228204488754272e-02,-3.058046102523803711e-02,-9.410165995359420776e-02,-9.297781437635421753e-02,-1.028981059789657593e-01,-3.518040478229522705e-02,-6.154429167509078979e-02,-1.576605252921581268e-02,-4.888491332530975342e-02,1.070934385061264038e-01,4.975638538599014282e-02,-4.081274941563606262e-02,-3.232433274388313293e-02,-4.232736304402351379e-02,5.345687642693519592e-02,8.211611956357955933e-02,-1.360745355486869812e-02,-7.715212553739547729e-02,1.360690873116254807e-02,-6.146939471364021301e-03,-8.566068112850189209e-02,-7.948328554630279541e-02,5.742990970611572266e-02,-5.627639219164848328e-02,3.650118410587310791e-02,7.326526939868927002e-02,7.450309395790100098e-02,8.151440881192684174e-03,-6.714286655187606812e-02,-1.294709928333759308e-02,-1.023140624165534973e-01,-9.703126549720764160e-02,-6.399799883365631104e-02,8.753817528486251831e-04,-5.509836599230766296e-03,9.097556769847869873e-02,-1.375831943005323410e-02,1.183149404823780060e-02,1.844616681337356567e-01,1.019370090216398239e-02,-1.318729221820831299e-01,1.102044619619846344e-02,-3.557739034295082092e-02,7.294172793626785278e-02,-2.892931364476680756e-02,9.983007796108722687e-03,-1.684350892901420593e-02,-7.305879145860671997e-03,-2.582930587232112885e-02,-2.926869504153728485e-02,-4.882885608822107315e-03,-5.981680378317832947e-02,-1.683968864381313324e-02,-5.246257036924362183e-02,-6.833638250827789307e-02,-9.924187511205673218e-02,-1.788535900413990021e-02,-5.285714194178581238e-02,1.874429173767566681e-02,-4.027434810996055603e-02,1.209230124950408936e-01,-1.181297749280929565e-01,-4.540469497442245483e-02,3.075241344049572945e-03,6.128539517521858215e-02,-7.468663970939815044e-04,5.268361046910285950e-02,1.321303192526102066e-02,-8.124712109565734863e-02,-9.707159548997879028e-02,2.941717207431793213e-02,7.492685317993164062e-02,1.195456758141517639e-01,1.105945706367492676e-01,-3.675629198551177979e-02,5.225109681487083435e-02,4.370956867933273315e-02,-4.707577079534530640e-02,7.619574666023254395e-02,4.914513975381851196e-02,-3.907968103885650635e-02,9.262803196907043457e-02,-6.132081896066665649e-02,1.281039714813232422e-01,1.202385127544403076e-01,-6.628064811229705811e-02,4.069224745035171509e-02,-7.551724463701248169e-02,7.830467820167541504e-02,-1.093245763331651688e-02,-3.952002897858619690e-02,5.398806929588317871e-02,9.675484895706176758e-02,-4.598877206444740295e-02,7.408706843852996826e-02,2.585768327116966248e-02,5.882946029305458069e-02,9.271247545257210732e-04,8.352711051702499390e-02,6.076668947935104370e-02,1.067814156413078308e-01,4.325115308165550232e-02,6.416026502847671509e-02,-6.991453468799591064e-03,-8.561042696237564087e-02,3.018699958920478821e-02,-6.335408892482519150e-03,5.105210468173027039e-02,-7.863275706768035889e-02,-1.117793545126914978e-01,4.952536150813102722e-02,-3.831737488508224487e-02,-4.519789293408393860e-02,4.488928988575935364e-02,-6.360357161611318588e-03,7.028131186962127686e-02,7.588282972574234009e-02,4.664431512355804443e-02,3.202328085899353027e-02,1.881553791463375092e-02,-7.129275798797607422e-02,-1.090452745556831360e-01,-1.445021480321884155e-02,-1.662774235010147095e-01,6.796020269393920898e-02,-3.015336208045482635e-02,-4.553593695163726807e-02,-7.993736118078231812e-02,6.067033857107162476e-02,5.304630380123853683e-03,1.351828966289758682e-02,6.141272559762001038e-02,4.555649682879447937e-02,-8.338527381420135498e-02,-4.446841403841972351e-02,-9.682454913854598999e-02,-3.064326196908950806e-02,9.379030205309391022e-03,-4.353935830295085907e-03,-6.722650676965713501e-02,-4.250673577189445496e-02,-1.297297030687332153e-01,1.196729913353919983e-01,-1.998814567923545837e-02,-1.414783671498298645e-02,8.787239901721477509e-03,6.760805845260620117e-02,-7.204628735780715942e-02,-5.305232107639312744e-02,8.609775686636567116e-04,1.824057102203369141e-02,-4.637610167264938354e-02,3.168039023876190186e-02,-1.094589456915855408e-01,5.951401218771934509e-02,1.241293475031852722e-01,-1.542663127183914185e-01,-2.025617659091949463e-01,1.677514165639877319e-01,7.401002943515777588e-02,3.839252516627311707e-02,2.933678589761257172e-02,3.798243030905723572e-02,6.305558979511260986e-02,4.549595527350902557e-03,7.083798944950103760e-02,4.299771413207054138e-02,-1.198539324104785919e-02,-3.811481967568397522e-02,-1.074482277035713196e-01,-6.080481037497520447e-02,7.928027957677841187e-02,1.017584130167961121e-01,4.019661620259284973e-02,-9.465973824262619019e-02,-9.174436330795288086e-02,5.908373370766639709e-02,1.574949547648429871e-02,-1.878580264747142792e-02,5.926039442420005798e-02,9.007910639047622681e-02,-1.305510848760604858e-01,5.773913860321044922e-02,-3.366160392761230469e-02,1.891126157715916634e-03,7.576722651720046997e-02,-5.737406387925148010e-02,6.287270784378051758e-02,1.212520226836204529e-01,9.067142754793167114e-02,-1.039072945713996887e-01,9.586164355278015137e-02,-5.875917896628379822e-02,7.621562480926513672e-02,-7.693307101726531982e-02,-1.361287534236907959e-01,-3.920071199536323547e-02,-4.302965849637985229e-02,6.801412673667073250e-04,4.117184504866600037e-02,-5.755443871021270752e-02,1.293892115354537964e-01,6.900233775377273560e-02,1.544631645083427429e-02,-2.233256958425045013e-02,1.424795854836702347e-02,-4.735258966684341431e-02,3.315089643001556396e-02,4.491623491048812866e-03,-1.221025958657264709e-01,-1.890444941818714142e-02,-2.113809809088706970e-02,-1.064578294754028320e-01,-5.289168283343315125e-02,2.025921270251274109e-02,-7.706420123577117920e-02,7.602116465568542480e-02,9.181238710880279541e-02,1.039230599999427795e-01,2.569371601566672325e-03,-4.730404540896415710e-02,7.018864154815673828e-02,-1.772550791501998901e-01,-1.059326678514480591e-01,-5.108444765210151672e-02,-4.246937483549118042e-02,2.744424529373645782e-02,5.312378704547882080e-02,2.174311690032482147e-02,3.697780147194862366e-02,6.485530734062194824e-02,4.340727627277374268e-02,-9.973640739917755127e-02,-7.809523493051528931e-03,-1.248142030090093613e-02,7.183758169412612915e-02,1.855264231562614441e-02,-9.412882849574089050e-03,2.159711159765720367e-02,-4.454439878463745117e-02,-4.847823828458786011e-02,-7.287186384201049805e-02,-8.918648213148117065e-02,-8.094649761915206909e-02,3.862813755404204130e-04,-1.171192526817321777e-02,-9.423572570085525513e-02,-1.088104471564292908e-01,1.231335196644067764e-02,-7.880250364542007446e-02,9.623105078935623169e-02,9.977306239306926727e-03,7.745840400457382202e-02,-9.361212700605392456e-02,2.937451377511024475e-02,8.362384140491485596e-02,5.477744340896606445e-02,1.667162217199802399e-02,