-2.562847435474395752e-01,-1.280869245529174805e-01,-6.064875423908233643e-02,9.040491282939910889e-02,-2.009972184896469116e-01,4.693436622619628906e-02,1.162784267216920853e-02,4.779427126049995422e-02,-1.428724080324172974e-01,-3.349201381206512451e-02,1.050012260675430298e-01,1.200980469584465027e-01,-2.279248386621475220e-01,-1.070652455091476440e-01,3.371072933077812195e-02,4.566385596990585327e-02,1.454416066408157349e-01,-2.292859368026256561e-02,4.143442958593368530e-02,-2.341956049203872681e-01,-1.038708165287971497e-01,-9.029509872198104858e-02,1.264497935771942139e-01,6.941492110490798950e-02,-2.929866015911102295e-01,8.372830599546432495e-02,-1.441176980733871460e-01,7.107637077569961548e-02,7.553795725107192993e-02,-5.725871399044990540e-02,1.106190457940101624e-01,-1.140791922807693481e-01,4.353591799736022949e-02,7.529205642640590668e-03,1.846418716013431549e-02,-9.167988598346710205e-02,-3.962856233119964600e-01,-1.047994494438171387e-01,1.348733454942703247e-01,1.092332080006599426e-01,-2.179274260997772217e-01,-9.301788359880447388e-02,8.138453960418701172e-02,4.563505575060844421e-02,8.845682255923748016e-03,2.296902835369110107e-01,-3.088681697845458984e-01,-2.256422489881515503e-01,-2.620337307453155518e-01,2.871971018612384796e-02,6.768450886011123657e-02,-1.123517602682113647e-01,1.074506714940071106e-01,-1.039866432547569275e-01,1.066710874438285828e-01,5.592350661754608154e-02,-1.320904344320297241e-01,-1.826664805412292480e-01,-4.276891797780990601e-02,-1.253143325448036194e-02,-2.518637478351593018e-01,-4.410090856254100800e-03,7.078541070222854614e-02,9.334125369787216187e-02,6.293617188930511475e-02,-7.924092561006546021e-02,-4.242628440260887146e-02,-6.992939114570617676e-02,-1.615680605173110962e-01,-1.218083351850509644e-01,-9.855908574536442757e-04,1.344319880008697510e-01,5.903214961290359497e-02,-1.024898737668991089e-01,4.186499491333961487e-02,-9.644880145788192749e-02,4.606687650084495544e-02,-2.525336444377899170e-01,-2.222510725259780884e-01,-2.196995727717876434e-02,8.437041542492806911e-04,1.403290331363677979e-01,-7.719872146844863892e-02,1.428563594818115234e-01,-1.212838888168334961e-01,-4.256776720285415649e-02,4.523227736353874207e-02,1.175377890467643738e-01,-6.366819888353347778e-02,6.799744069576263428e-02,-5.520034953951835632e-02,-3.088265061378479004e-01,-1.140678897500038147e-01,-1.288630366325378418e-01,1.244390085339546204e-01,8.124282956123352051e-02,1.228972673416137695e-01,-1.663185656070709229e-01,-3.997105732560157776e-02,-4.686459433287382126e-03,-7.025034725666046143e-02,-1.135596558451652527e-01,-9.000948816537857056e-02,2.347220433875918388e-04,1.067389920353889465e-01,1.078163310885429382e-01,-9.018477052450180054e-02,-8.020030707120895386e-02,-2.433112859725952148e-01,-2.469881437718868256e-02,-3.541370630264282227e-01,3.184838965535163879e-02,-3.194652497768402100e-02,1.310967206954956055e-01,6.614449899643659592e-03,3.840633854269981384e-02,1.993993818759918213e-01,-3.167585432529449463e-01,-1.182994395494461060e-01,-1.977559551596641541e-02,-2.883086204528808594e-01,1.471939831972122192e-01,-1.439700871706008911e-01,-1.974238008260726929e-01,-2.937528304755687714e-03,-4.428038001060485840e-02,-5.814245343208312988e-02,-1.345653086900711060e-01,1.455105692148208618e-01,6.617033481597900391e-02,-3.960856795310974121e-02,-1.261552125215530396e-01,2.532738447189331055e-01,1.221382394433021545e-01,7.287307083606719971e-02,-2.162590622901916504e-01,-2.913498878479003906e-01,-1.008831560611724854e-01,-3.412774764001369476e-03,1.483779549598693848e-01,-1.134855747222900391e-01,-5.657615140080451965e-02,-1.474546641111373901e-01,-1.577977389097213745e-01,-2.169054597616195679e-01,-1.366782840341329575e-02,6.626829970628023148e-03,-2.604937851428985596e-01,9.053606539964675903e-03,1.106419861316680908e-01,-1.308549046516418457e-01,-2.162381112575531006e-01,7.546284049749374390e-02,5.253247916698455811e-02,1.017834544181823730e-01,3.815915808081626892e-02,1.427112817764282227e-01,-1.712778061628341675e-01,-8.538597077131271362e-02,1.539632212370634079e-02,-2.719767093658447266e-01,-1.339092999696731567e-01,-6.809610873460769653e-02,-8.724997751414775848e-03,-3.732882672920823097e-03,1.843199282884597778e-01,-1.045086160302162170e-01,-5.272698774933815002e-02,1.778278313577175140e-02,5.005198717117309570e-02,1.092052236199378967e-01,-1.713751703500747681e-01,9.685575962066650391e-02,-4.064203705638647079e-03,-4.854534287005662918e-03,-1.742034964263439178e-02,-1.057138368487358093e-01,-2.431062906980514526e-01,9.652277082204818726e-02,-4.073878377676010132e-02,-3.566403687000274658e-02,-1.149697452783584595e-01,6.296645104885101318e-02,1.434200853109359741e-01,6.143327802419662476e-02,-1.585300117731094360e-01,6.981468945741653442e-02,-2.218334525823593140e-01,-7.719115912914276123e-02,-1.082790419459342957e-01,9.822448343038558960e-02,-6.086140125989913940e-02,-2.042564153671264648e-01,-9.714777022600173950e-02,-1.196705736219882965e-02,-1.380816251039505005e-01,5.439844727516174316e-02,2.455248311161994934e-02,-2.069250494241714478e-01,-1.395954005420207977e-02,4.873568192124366760e-02,1.059118285775184631e-01,7.518779486417770386e-02,7.502046972513198853e-02,-3.662942945957183838e-01,1.346560120582580566e-01,-3.295833766460418701e-01,-2.638044394552707672e-02,7.354052364826202393e-02,-2.932044863700866699e-01,9.438454359769821167e-02,2.464065141975879669e-02,9.761162102222442627e-02,6.373896449804306030e-02,1.203235145658254623e-02,-3.236193656921386719e-01,-2.382609993219375610e-01,3.215025365352630615e-02,-3.187574148178100586e-01,9.419261664152145386e-02,-9.746380150318145752e-02,5.750019848346710205e-02,-1.026202291250228882e-01,1.633031964302062988e-01,7.283342629671096802e-02,-1.326995640993118286e-01,-1.061865836381912231e-01,4.450289160013198853e-02,-1.711447387933731079e-01,-8.400664664804935455e-03,9.872208535671234131e-02,1.102986410260200500e-01,-2.081960141658782959e-01,6.837392575107514858e-04,6.220995262265205383e-02,1.070070862770080566e-01,-7.487788051366806030e-02,7.538951933383941650e-02,-1.659300327301025391e-01,-2.262093871831893921e-01,-1.041137799620628357e-01,-8.418568223714828491e-02,1.770520210266113281e-01,3.609349951148033142e-02,-1.561478525400161743e-01,2.101161628961563110e-01,-2.465662807226181030e-01,-2.909885160624980927e-02,-1.257408112287521362e-01,-1.747952252626419067e-01,-2.085656225681304932e-01,-3.234431892633438110e-02,-8.638782799243927002e-02,7.732187211513519287e-02,-1.677974611520767212e-01,2.880820073187351227e-02,-1.575913131237030029e-01,-3.968860954046249390e-03,-1.621675193309783936e-01,1.539476811885833740e-01,4.584256559610366821e-02,-1.728565841913223267e-01,-5.555080994963645935e-02,5.737437680363655090e-02,-3.005139827728271484e-01,2.936262637376785278e-02,-2.487184703350067139e-01,-1.609448194503784180e-01,7.752889394760131836e-02,-5.580858886241912842e-02,-1.643296889960765839e-02,3.714812174439430237e-02,1.321213543415069580e-01,8.069565892219543457e-02,2.977712079882621765e-02,-8.640043437480926514e-02,5.479924008250236511e-02,-1.926922649145126343e-01,-1.164474040269851685e-01,1.414529383182525635e-01,7.496365904808044434e-02,-1.009630262851715088e-01,-5.819103121757507324e-02,-4.664760828018188477e-02,-7.889906316995620728e-02,1.511665433645248413e-01,-1.700896024703979492e-01,1.573362387716770172e-02,-4.228360950946807861e-01,8.899318985641002655e-03,-9.942518919706344604e-02,1.299542337656021118e-01,2.234016507863998413e-01,-1.342998892068862915e-01,2.812635712325572968e-02,8.268301188945770264e-02,4.143016785383224487e-02,-2.220529019832611084e-01,-6.810887157917022705e-02,-2.898055827245116234e-03,1.225858926773071289e-01,-1.089822277426719666e-01,6.317011266946792603e-02,-1.245183721184730530e-01,-2.275283485651016235e-01,-1.425924059003591537e-02,1.023187711834907532e-01,-1.425719261169433594e-01,-3.229606896638870239e-02,-1.285435110330581665e-01,-8.246346563100814819e-02,1.129604876041412354e-02,-1.996917724609375000e-01,2.507706172764301300e-03,1.002395525574684143e-01,9.716096520423889160e-02,-1.045119911432266235e-01,1.428892090916633606e-02,-3.922031819820404053e-02,-4.156501963734626770e-02,-1.623212397098541260e-01,-3.899551555514335632e-02,-1.270711272954940796e-01,6.284444779157638550e-02,-3.906965255737304688e-01,2.246984280645847321e-02,-1.089099422097206116e-02,3.710649535059928894e-02,-5.360680446028709412e-02,7.705364376306533813e-02,-2.027290165424346924e-01,-1.674046814441680908e-01,2.525560557842254639e-02,7.766024768352508545e-02,9.199754148721694946e-02,2.916354872286319733e-02,1.801392063498497009e-02,2.736149542033672333e-02,4.004472866654396057e-02,-1.599906384944915771e-01,3.426743298768997192e-02,-5.079470574855804443e-02,8.690290898084640503e-02,2.502112090587615967e-02,-1.482021957635879517e-01,3.137201815843582153e-02,-3.065860364586114883e-03,-1.324939727783203125e-01,2.877188473939895630e-02,-9.437704831361770630e-02,7.053180038928985596e-02,8.570515364408493042e-02,-2.603992521762847900e-01,-1.590241342782974243e-01,-2.005595713853836060e-02,2.022559791803359985e-01,3.363714367151260376e-02,3.671107813715934753e-02,-1.307074278593063354e-01,-2.601628005504608154e-02,-4.122325181961059570e-01,-3.503772197291254997e-03,2.344653755426406860e-02,-1.330308467149734497e-01,-1.993565261363983154e-01,1.469184607267379761e-01,1.842238940298557281e-02,-7.712377607822418213e-02,1.557374447584152222e-01,1.226988956332206726e-01,-7.604398578405380249e-02,-1.056794356554746628e-02,1.763905882835388184e-01,-2.522525005042552948e-02,-2.895836532115936279e-01,-1.064507588744163513e-01,8.140669018030166626e-02,-1.867523193359375000e-01,5.631072446703910828e-03,-7.707262784242630005e-02,-1.883895993232727051e-01,9.907014667987823486e-02,7.746777683496475220e-02,3.111260198056697845e-02,-2.592050433158874512e-01,6.398022174835205078e-02,4.275777935981750488e-02,-2.836185507476329803e-02,6.431647390127182007e-02,-9.497345983982086182e-02,-2.854180335998535156e-01,-1.388139426708221436e-01,1.058947890996932983e-01,1.192873045802116394e-01,-3.275553509593009949e-02,-8.930262178182601929e-02,-1.117706745862960815e-01,2.714580856263637543e-02,3.866455331444740295e-02,-1.245868355035781860e-01,-2.574032843112945557e-01,1.130202189087867737e-01,8.390417695045471191e-02,1.337235122919082642e-01,-1.246440783143043518e-01,-8.709221333265304565e-02,-8.754134923219680786e-02,-1.807903312146663666e-02,-2.029633074998855591e-01,1.199095174670219421e-01,-1.967790871858596802e-01,-2.194938510656356812e-01,-1.240817382931709290e-01,1.592025756835937500e-01,-9.597816318273544312e-02,1.229743286967277527e-02,1.669692397117614746e-01,-1.467683818191289902e-02,-1.706180721521377563e-01,-1.498452723026275635e-01,1.815501898527145386e-01,2.024452984333038330e-01,3.767997492104768753e-03,-5.320259556174278259e-02,-4.593169316649436951e-02,-4.628349095582962036e-02,-1.355512291193008423e-01,-1.941418796777725220e-01,-1.044771820306777954e-01,-1.941750496625900269e-01,3.737664222717285156e-02,-6.443622708320617676e-02,-9.983687847852706909e-02,3.307005390524864197e-02,-3.819734603166580200e-02,-3.208123743534088135e-01,2.358744479715824127e-02,2.496647648513317108e-03,-2.994224429130554199e-01,-1.001994237303733826e-01,1.036923006176948547e-01,9.966516494750976562e-02,8.440652489662170410e-02,-1.685197837650775909e-02,-2.632139325141906738e-01,-3.619270771741867065e-02,-1.794277578592300415e-01,-6.213824823498725891e-02,1.568684875965118408e-01,-1.505034416913986206e-01,-1.515875458717346191e-01,-1.510049402713775635e-01,7.853017002344131470e-02,6.140119209885597229e-02,-1.247569546103477478e-02,1.044370755553245544e-01,5.527862906455993652e-02,1.061586886644363403e-01,2.562400326132774353e-02,-6.741318851709365845e-02,-2.346407771110534668e-01,-1.559225171804428101e-01,5.083484575152397156e-02,1.464141309261322021e-01,-1.634069532155990601e-01,-7.911949604749679565e-02,-1.179447472095489502e-01,-1.773832440376281738e-01,-4.556451737880706787e-01,3.659619018435478210e-02,-2.384848147630691528e-01,-3.367941081523895264e-02,1.129082962870597839e-01,-2.354958057403564453e-01,2.408279106020927429e-02,-3.593838959932327271e-02,4.956223070621490479e-02,7.587225735187530518e-02,-5.016712471842765808e-02,1.597579717636108398e-01,5.414388701319694519e-02,1.045967563986778259e-01,2.295426791533827782e-03,-9.730747342109680176e-02,1.295224279165267944e-01,2.012965036556124687e-03,1.511512324213981628e-03,-2.037600427865982056e-01,-6.386662274599075317e-02,-8.251794427633285522e-02,6.384882330894470215e-02,-2.479621469974517822e-01,-1.060806587338447571e-01,6.001475825905799866e-02,-1.707994192838668823e-01,6.389387696981430054e-02,-2.408220432698726654e-02,8.238832652568817139e-02,-1.861401349306106567e-01,-2.323700636625289917e-01,9.906561672687530518e-02,-2.235606312751770020e-02,9.513794630765914917e-02,-5.367355048656463623e-02,-8.014902472496032715e-02,-5.351145938038825989e-02,-8.263376355171203613e-02,-3.904354199767112732e-02,5.631785839796066284e-02,-1.937456279993057251e-01,-3.539258847013115883e-03,-4.946305602788925171e-02,-2.339391261339187622e-01,9.936645627021789551e-02,1.111865341663360596e-01,1.179519295692443848e-01,-1.857272237539291382e-01,1.472547352313995361e-01,1.041394025087356567e-01,-2.855796217918395996e-01,-1.682961583137512207e-01,-4.499065503478050232e-02,-5.958185996860265732e-03,1.449072510004043579e-01,-4.942800849676132202e-02,-1.457066535949707031e-01,-1.818723231554031372e-01,-2.534873187541961670e-01,-2.633895874023437500e-01,5.358303897082805634e-03,1.047907397150993347e-01,8.593189716339111328e-02,-1.116428002715110779e-01,1.295650191605091095e-02,-2.296915277838706970e-02,4.907225072383880615e-02,-1.117506995797157288e-01,2.050307951867580414e-02,-5.088277533650398254e-02,1.155803352594375610e-02,-5.837441608309745789e-02,-5.301882699131965637e-02,-1.207704022526741028e-01,3.977265208959579468e-03,-1.553079336881637573e-01,1.151293702423572540e-02,-1.442917287349700928e-01,6.294281780719757080e-02,-4.898760095238685608e-02,-1.274196431040763855e-02,7.470259908586740494e-03,2.092315703630447388e-01,-2.854304620996117592e-03,-2.656679041683673859e-02,-4.658411443233489990e-02,-9.922990202903747559e-02,1.770922355353832245e-02,-9.536021389067173004e-03,4.916603863239288330e-02,-1.143626347184181213e-01,-1.373877972364425659e-01,1.031202375888824463e-01,1.043522506952285767e-01,-1.920277774333953857e-01,1.034523099660873413e-01,-1.702713966369628906e-01,9.829864650964736938e-02,-2.404789030551910400e-01,-5.442647263407707214e-02,9.406644105911254883e-02,9.894556552171707153e-02,4.269296303391456604e-02,-2.708484232425689697e-02,-1.489193439483642578e-01,-9.380587935447692871e-02,2.834305725991725922e-02,9.374531358480453491e-02,2.064195275306701660e-02,-2.504729628562927246e-01,4.999586381018161774e-03,-2.747363969683647156e-02,-4.600007459521293640e-02,-1.651942729949951172e-01,1.271476149559020996e-01,2.021319717168807983e-01,-1.211265251040458679e-01,-1.756540238857269287e-01,8.453151583671569824e-02,2.889068983495235443e-02,-2.095826901495456696e-02,-3.294493257999420166e-01,9.178028441965579987e-03,5.745450034737586975e-02,-1.035795062780380249e-01,8.734674006700515747e-02,8.221777528524398804e-02,-1.606343239545822144e-01,8.739437907934188843e-02,3.674375265836715698e-02,-1.674208045005798340e-01,9.437444619834423065e-03,6.155015528202056885e-02,1.386521905660629272e-01,1.225414723157882690e-01,-1.243034675717353821e-01,-1.486254185438156128e-01,8.046755194664001465e-02,-2.668830156326293945e-01,-8.110638707876205444e-02,-7.907724380493164062e-02,1.381017565727233887e-01,-2.601763606071472168e-01,-4.453908205032348633e-01,4.215066879987716675e-02,3.072758950293064117e-02,-2.826987998560070992e-03,7.685875147581100464e-02,-2.676043510437011719e-01,7.630294561386108398e-02,1.497753709554672241e-01,1.009134855121374130e-02,-1.352189183235168457e-01,-2.977984249591827393e-01,-1.187782268971204758e-02,-1.138084307312965393e-01,6.930372118949890137e-02,-8.729522116482257843e-03,6.600247323513031006e-02,-7.207481563091278076e-02,7.401143014430999756e-02,-2.179304510354995728e-01,4.738627746701240540e-02,-1.226384267210960388e-01,-1.376912444829940796e-01,-2.398374229669570923e-01,4.576181620359420776e-02,-9.623735398054122925e-02,5.250329617410898209e-03,-5.303860176354646683e-03,-2.361383140087127686e-01,1.238421816378831863e-02,-6.527667492628097534e-02,-2.044789195060729980e-01,-3.454475104808807373e-02,2.137535624206066132e-02,1.266798377037048340e-01,8.786495029926300049e-02,-1.479503512382507324e-02,9.461641311645507812e-03,-6.591100245714187622e-02,1.107647791504859924e-01,-7.853191345930099487e-02,-3.072216212749481201e-01,1.445347368717193604e-01,-1.185104176402091980e-01,8.672685176134109497e-02,-1.373968869447708130e-01,-1.077677384018898010e-01,8.523644506931304932e-02,3.103643469512462616e-02,3.623006865382194519e-02,-2.560864686965942383e-01,1.041308194398880005e-01,-1.799980551004409790e-02,1.041530445218086243e-01,1.770832687616348267e-01,1.180828064680099487e-01,1.900593936443328857e-02,-7.840127684175968170e-03,-1.890216171741485596e-01,-8.261812478303909302e-02,-1.538762003183364868e-01,-1.192035526037216187e-01,3.569092601537704468e-02,5.253144539892673492e-03,1.258751563727855682e-02,-2.383256554603576660e-01,1.914754882454872131e-02,-7.447053492069244385e-02,-1.192787196487188339e-02,-2.001045942306518555e-01,1.178218889981508255e-02,8.282737806439399719e-03,1.386321634054183960e-01,-2.272131145000457764e-01,-1.898566074669361115e-02,7.553031295537948608e-02,2.195179089903831482e-02,-2.360635250806808472e-01,2.110629379749298096e-01,1.002667546272277832e-01,-9.856930375099182129e-02,-4.205476492643356323e-02,-1.545041650533676147e-01,2.858994007110595703e-01,-3.390975296497344971e-01,-2.710960209369659424e-01,-1.441322360187768936e-02,6.393728312104940414e-03,8.997654914855957031e-02,-3.941825404763221741e-02,5.535437911748886108e-02,-9.695578366518020630e-02,-1.872820779681205750e-02,-8.346782624721527100e-02,-5.199791863560676575e-02,-1.565156430006027222e-01,8.168636262416839600e-02,-4.262308403849601746e-02,1.357827931642532349e-01,1.700213178992271423e-02,-6.630626320838928223e-02,4.045965522527694702e-02,-1.858555674552917480e-01,2.940923161804676056e-02,-3.411152660846710205e-01,-3.320986330509185791e-01,1.189511343836784363e-01,9.360656142234802246e-02,-5.774291604757308960e-02,-2.608161866664886475e-01,4.106473177671432495e-02,9.472712874412536621e-02,1.444840878248214722e-01,-1.676676720380783081e-01,-4.781509190797805786e-02,9.170509129762649536e-02,7.967360434122383595e-04,-7.186320424079895020e-02,6.181805580854415894e-02,-2.504097521305084229e-01,-9.371858090162277222e-02,-2.169149816036224365e-01,1.418535318225622177e-02,6.044009700417518616e-02,-8.588829636573791504e-02,-3.480517864227294922e-02,6.974422186613082886e-02,-2.006241530179977417e-01,1.601097732782363892e-01,-6.209566071629524231e-02,-1.647308915853500366e-01,-3.285183608531951904e-01,1.219034567475318909e-01,3.422584012150764465e-02,-1.164041385054588318e-01,-1.751348972320556641e-01,1.330318767577409744e-02,2.428464591503143311e-03,-1.104117278009653091e-02,2.046834081411361694e-01,-1.127565931528806686e-02,-6.503818929195404053e-02,7.098966091871261597e-02,-6.676054745912551880e-02,-3.272379189729690552e-02,-1.957197636365890503e-01,1.059005316346883774e-02,4.617456719279289246e-02,7.577293366193771362e-02,-6.675775349140167236e-02,4.024130851030349731e-02,1.060909684747457504e-02,-6.922180950641632080e-02,-1.792555898427963257e-01,-1.019431427121162415e-01,9.199208766222000122e-02,5.713310837745666504e-02,1.496482640504837036e-01,-1.062663570046424866e-01,-2.662263512611389160e-01,-7.310928404331207275e-02,-1.417638212442398071e-01,-1.233685314655303955e-01,-1.099049076437950134e-01,2.435307353734970093e-01,-1.513383537530899048e-01,-2.124989479780197144e-01,7.873277366161346436e-02,-6.365336477756500244e-02,9.681500494480133057e-02,-1.053914353251457214e-01,-4.119253531098365784e-02,1.712728291749954224e-02,-3.226489573717117310e-02,-8.768215775489807129e-02,-1.160608530044555664e-01,-1.939575001597404480e-02,1.552047953009605408e-02,1.417171210050582886e-01,-1.041985675692558289e-01,-8.308696746826171875e-02,-2.616497576236724854e-01,1.271888166666030884e-01,-5.821159854531288147e-02,-3.034509718418121338e-01,-1.876455396413803101e-01,1.562854796648025513e-01,5.565676465630531311e-02,-1.618689745664596558e-01,2.029702812433242798e-01,-4.139156267046928406e-02,-2.110237926244735718e-01,-1.789906919002532959e-01,-9.564185887575149536e-02,8.369828760623931885e-02,2.127862870693206787e-01,-3.658437132835388184e-01,-1.881433576345443726e-01,-1.458126455545425415e-01,-5.460562556982040405e-02,9.958678483963012695e-02,-1.156209856271743774e-01,4.570762161165475845e-03,-2.756987214088439941e-01,-8.949809707701206207e-03,-3.559287488460540771e-01,-4.123627021908760071e-02,1.051405519247055054e-01,-2.980818748474121094e-01,-2.712357640266418457e-01,1.202535107731819153e-01,1.122524514794349670e-01,-8.717732131481170654e-02,2.578445672988891602e-01,1.028524413704872131e-01,-2.138680368661880493e-01,-1.701214611530303955e-01,-1.948487460613250732e-01,1.016535907983779907e-01,-1.495954245328903198e-01,-1.319012641906738281e-01,-1.722610145807266235e-01,6.962991505861282349e-02,-7.161298394203186035e-02,1.852288544178009033e-01,1.242289468646049500e-01,-1.457385569810867310e-01,-1.580892801284790039e-01,4.561319574713706970e-02,-1.803097724914550781e-01,-9.234029799699783325e-02,-1.924252063035964966e-01,8.202777057886123657e-02,-8.490119874477386475e-02,7.338054478168487549e-02,-6.429378688335418701e-02,-1.717867329716682434e-02,-6.405824422836303711e-02,-6.345102936029434204e-02,2.696619182825088501e-02,1.184923201799392700e-01,-1.523074209690093994e-01,-9.961679577827453613e-02,1.439474076032638550e-01,9.744288027286529541e-02,-1.099191904067993164e-01,1.058764904737472534e-01,-1.180270835757255554e-01,-3.419109284877777100e-01,-3.401723504066467285e-02,-1.053436398506164551e-01,-7.025345414876937866e-02,8.546292781829833984e-02,-1.447648555040359497e-01,1.132683269679546356e-02,-4.184101149439811707e-02,9.053128957748413086e-02,-7.468982040882110596e-02,1.181985810399055481e-01,-6.466434895992279053e-02,-7.362729310989379883e-02,-4.473508149385452271e-02,-2.104728221893310547e-01,9.105136245489120483e-02,-2.041454985737800598e-02,-2.974828779697418213e-01,-1.019275002181529999e-02,-2.788940966129302979e-01,-9.979711472988128662e-02,8.517739921808242798e-02,6.059226579964160919e-04,1.086009070277214050e-01,4.310155287384986877e-02,6.065806746482849121e-02,4.094833880662918091e-02,7.868873327970504761e-02,-1.143759712576866150e-01,-3.010493814945220947e-01,-5.187088251113891602e-02,9.245756268501281738e-02,7.397282123565673828e-02,-4.356275871396064758e-02,2.614649385213851929e-02,7.963194698095321655e-02,-9.676922112703323364e-03,-1.523778289556503296e-01,-1.721844673156738281e-01,1.116815507411956787e-01,-6.733663380146026611e-02,5.544902011752128601e-02,-6.393530219793319702e-02,-1.593117266893386841e-01,1.537138409912586212e-02,7.126250118017196655e-02,2.404501661658287048e-02,9.171396493911743164e-02,-1.498694866895675659e-01,-2.064742147922515869e-01,7.970021665096282959e-02,2.428218163549900055e-02,-1.080720797181129456e-01,-1.870604604482650757e-01,-3.950472548604011536e-02,-2.087287008762359619e-01,1.361676901578903198e-01,-1.607122123241424561e-01,9.341837465763092041e-02,-2.106894254684448242e-01,-1.814698986709117889e-02,9.381268173456192017e-02,-2.156254798173904419e-01,-2.687782645225524902e-01,7.159382849931716919e-02,1.131667420268058777e-01,1.097157504409551620e-02,-5.154390260577201843e-02,4.439959675073623657e-02,5.102671682834625244e-02,-7.433107495307922363e-02,-1.763859242200851440e-01,-9.967432171106338501e-02,-3.291653096675872803e-02,8.452228456735610962e-02,-1.284480094909667969e-01,-8.899400383234024048e-02,-1.525142192840576172e-01,-1.345877796411514282e-01,-7.313892245292663574e-03,5.728919431567192078e-02,2.202036380767822266e-01,-5.681616440415382385e-02,7.628666609525680542e-02,1.070896759629249573e-01,1.497258804738521576e-02,-1.241956576704978943e-01,-1.061806306242942810e-01,-7.176487892866134644e-02,-1.730530709028244019e-01,5.697529762983322144e-02,-1.262369155883789062e-01,1.213645711541175842e-01,-1.927337050437927246e-01,6.235932186245918274e-02,-1.539752483367919922e-01,-1.564838290214538574e-01,-5.820310488343238831e-02,-1.192692965269088745e-01,2.612730301916599274e-02,8.855112642049789429e-02,-1.233892813324928284e-01,-9.804792702198028564e-03,-1.377627700567245483e-01,3.942643851041793823e-02,-2.543948292732238770e-01,1.441967189311981201e-01,-1.740845479071140289e-02,-2.891810536384582520e-01,2.245614491403102875e-02,-2.017193138599395752e-01,2.324880287051200867e-02,7.828260958194732666e-02,-1.452307254076004028e-01,8.282198011875152588e-02,1.453297138214111328e-01,9.071732312440872192e-02,-3.509327769279479980e-02,-3.741064965724945068e-01,-1.460539177060127258e-03,-1.197011675685644150e-02,-1.237603947520256042e-01,4.464576765894889832e-02,-2.654227912425994873e-01,3.107729554176330566e-02,7.315176725387573242e-02,-1.524781137704849243e-01,-8.957611769437789917e-02,-4.043355584144592285e-02,9.279753267765045166e-02,1.252909284085035324e-02,1.896581351757049561e-01,-2.368607930839061737e-02,-3.380979597568511963e-02,-1.934805810451507568e-01,-9.893537312746047974e-02,5.303057655692100525e-02,-1.973880529403686523e-01,2.897788304835557938e-03,9.213344752788543701e-02,-5.928816646337509155e-02,1.347440332174301147e-01,-1.324548721313476562e-01,1.196537688374519348e-01,-7.123941928148269653e-02,-1.573392003774642944e-01,-2.464317828416824341e-01,7.801922038197517395e-03,-9.992230683565139771e-02,