-9.246073663234710693e-02,-8.786705881357192993e-02,4.548670351505279541e-02,1.141134202480316162e-01,-3.044530153274536133e-01,2.495725639164447784e-02,2.160056382417678833e-01,-3.794208467006683350e-01,2.411813735961914062e-01,1.173359304666519165e-01,2.265693843364715576e-01,-1.814578324556350708e-01,1.415960043668746948e-01,2.755720615386962891e-01,4.447735846042633057e-02,9.927450120449066162e-02,4.325868561863899231e-02,2.442554682493209839e-01,-2.800781838595867157e-02,7.392380386590957642e-02,-3.133080899715423584e-01,-1.430836170911788940e-01,5.189289897680282593e-02,2.616541683673858643e-01,1.422264873981475830e-01,-3.850553557276725769e-02,-3.606525659561157227e-01,3.130673244595527649e-02,-1.544610708951950073e-01,1.749689280986785889e-01,1.635172516107559204e-01,1.096949577331542969e-01,2.761674225330352783e-01,-2.974778115749359131e-01,-1.579240113496780396e-01,1.650863438844680786e-01,1.371246278285980225e-01,1.111880615353584290e-01,-6.721367686986923218e-02,2.283960282802581787e-01,2.874390222132205963e-02,1.460077911615371704e-01,-2.548109926283359528e-02,-3.185705840587615967e-01,1.777064353227615356e-01,3.874855861067771912e-02,-4.919325187802314758e-02,-2.344802469015121460e-01,2.398315072059631348e-01,1.899878978729248047e-01,-3.464212715625762939e-01,4.447664692997932434e-02,-3.145368695259094238e-01,2.683509290218353271e-01,-1.580024957656860352e-01,-8.225682377815246582e-02,-3.160640001296997070e-01,3.411820903420448303e-02,1.115994825959205627e-01,-4.054223299026489258e-01,-8.741537481546401978e-02,-3.465409576892852783e-01,4.912976920604705811e-02,-6.620986387133598328e-03,4.456333443522453308e-02,2.644951641559600830e-01,-1.001649871468544006e-01,-2.999341785907745361e-01,3.430957794189453125e-01,4.383879527449607849e-02,1.493958290666341782e-02,-2.423800230026245117e-01,1.161170005798339844e-01,1.691853404045104980e-01,-5.719653144478797913e-02,4.661072790622711182e-02,9.191863238811492920e-03,1.644997149705886841e-01,2.162978202104568481e-01,-4.101762548089027405e-02,-3.045928291976451874e-02,-2.461569458246231079e-01,-3.666926547884941101e-02,1.679090969264507294e-02,4.001943394541740417e-02,1.380870118737220764e-02,1.838067322969436646e-01,-1.446733623743057251e-01,-2.244044393301010132e-01,2.466110736131668091e-01,1.586051136255264282e-01,1.356759667396545410e-02,2.839073538780212402e-01,6.962109357118606567e-02,1.096027344465255737e-01,2.123430520296096802e-01,3.125797212123870850e-01,1.021883562207221985e-01,2.077254056930541992e-01,-8.661328256130218506e-02,-2.790111303329467773e-02,3.673112392425537109e-02,-6.443518400192260742e-02,1.097264811396598816e-01,3.582745417952537537e-02,2.259018272161483765e-01,1.726474910974502563e-01,-9.670062363147735596e-02,-4.265386983752250671e-02,-9.651308506727218628e-02,1.367893163114786148e-02,9.459848701953887939e-02,-8.989256620407104492e-02,-5.912070348858833313e-02,-6.305768340826034546e-02,1.339817941188812256e-01,1.702051460742950439e-01,-1.402528434991836548e-01,2.847693562507629395e-01,3.731702268123626709e-01,4.492836296558380127e-01,2.432564944028854370e-01,-9.299256838858127594e-03,-1.357310414314270020e-01,3.470300137996673584e-01,4.094054102897644043e-01,-1.135085150599479675e-02,2.279587984085083008e-01,1.194744706153869629e-01,2.231917679309844971e-01,-6.337217241525650024e-02,1.045782566070556641e-01,2.353339493274688721e-01,-2.307046204805374146e-01,1.614009737968444824e-01,2.088132128119468689e-02,3.038276135921478271e-01,2.003648132085800171e-01,1.602453887462615967e-01,-2.510571107268333435e-02,1.750885993242263794e-01,2.571784555912017822e-01,6.957297772169113159e-02,2.051334083080291748e-01,4.584105685353279114e-03,-9.921318851411342621e-03,-1.241063028573989868e-01,1.654319167137145996e-01,-1.324791461229324341e-01,5.722383782267570496e-02,1.229360103607177734e-01,7.963234186172485352e-02,3.268608450889587402e-02,2.082322984933853149e-01,9.305299818515777588e-02,1.034926846623420715e-01,3.114556968212127686e-01,4.647380672395229340e-03,-1.845852583646774292e-01,-7.989380508661270142e-02,3.261313140392303467e-01,2.458748966455459595e-01,-6.781209260225296021e-02,3.247374594211578369e-01,1.404572278261184692e-01,3.128147423267364502e-01,-2.193447202444076538e-01,1.596720516681671143e-01,8.356645703315734863e-02,-8.330292999744415283e-02,8.618762344121932983e-02,-3.796354234218597412e-01,-3.848521038889884949e-02,1.758352667093276978e-01,2.514893375337123871e-02,-9.151138365268707275e-02,9.623640030622482300e-02,-4.063884913921356201e-02,3.429532647132873535e-01,9.885210543870925903e-03,6.958726048469543457e-02,9.231885895133018494e-03,2.764301002025604248e-01,-1.834641993045806885e-01,7.277446985244750977e-02,1.761045753955841064e-01,-2.539032995700836182e-01,-2.327772527933120728e-01,-4.513913393020629883e-01,-3.325185924768447876e-02,1.907260566949844360e-01,9.986961632966995239e-02,1.261661946773529053e-02,-4.582736194133758545e-01,-2.426344007253646851e-01,3.675056248903274536e-02,-1.263865679502487183e-01,-2.938515692949295044e-02,-7.934381812810897827e-02,9.552165865898132324e-02,3.891496062278747559e-01,-2.681363224983215332e-01,4.014959558844566345e-02,-1.357544511556625366e-01,4.223659336566925049e-01,4.273630380630493164e-01,-1.356354504823684692e-01,1.830699294805526733e-01,-6.381298415362834930e-03,2.483405917882919312e-01,1.381056010723114014e-01,1.536655128002166748e-01,-2.941072285175323486e-01,1.784304678440093994e-01,2.343637198209762573e-01,-4.155496060848236084e-01,-1.931508630514144897e-02,-1.101455762982368469e-01,-1.143965721130371094e-01,-1.091867610812187195e-01,-8.700686693191528320e-02,4.326557517051696777e-01,-6.817276030778884888e-02,-2.565822601318359375e-01,8.273472636938095093e-02,-1.956281661987304688e-01,-2.383697926998138428e-01,1.412015706300735474e-01,-3.810156881809234619e-01,-6.683918088674545288e-02,-3.065124750137329102e-01,-1.598283499479293823e-01,-2.210346907377243042e-01,2.398690581321716309e-01,1.508469581604003906e-01,2.070293873548507690e-01,2.585031092166900635e-01,2.512633502483367920e-01,-1.702210903167724609e-01,-2.656223773956298828e-01,-1.858511418104171753e-01,2.540268935263156891e-02,-2.326112985610961914e-01,-1.954667866230010986e-01,-2.852274775505065918e-01,3.142152428627014160e-01,-1.964135915040969849e-01,6.169766560196876526e-02,-1.790422350168228149e-01,-2.130632754415273666e-03,-3.073459565639495850e-01,-1.689310818910598755e-01,3.355586901307106018e-02,-2.138185799121856689e-01,-2.233190834522247314e-01,-2.217145264148712158e-01,-1.701888293027877808e-01,-2.701072096824645996e-01,-3.381183743476867676e-01,-5.419926717877388000e-02,-1.521064490079879761e-01,4.452463984489440918e-02,-1.142882928252220154e-01,-3.757281899452209473e-01,-7.607928663492202759e-02,-7.098497450351715088e-02,-1.476178970187902451e-02,-2.861177921295166016e-01,-3.153588250279426575e-02,-3.995338380336761475e-01,-2.085234820842742920e-01,-2.374988496303558350e-01,3.207370340824127197e-01,-2.360479980707168579e-01,-2.379778772592544556e-01,-6.738846749067306519e-02,-1.550797522068023682e-01,-5.305280908942222595e-03,-2.227595150470733643e-01,-1.075791195034980774e-01,-2.129360437393188477e-01,-1.866740137338638306e-01,8.654718101024627686e-02,-2.589056491851806641e-01,-2.419910877943038940e-01,1.657719463109970093e-01,6.280378997325897217e-02,-1.511178165674209595e-02,2.787835150957107544e-02,-1.252900958061218262e-01,-2.013874500989913940e-01,-3.699030876159667969e-01,-8.496827632188796997e-02,2.189014405012130737e-01,-2.213645428419113159e-01,-4.852193593978881836e-02,-3.113914728164672852e-01,-3.043804084882140160e-03,9.158861637115478516e-02,-5.824198946356773376e-02,-1.673696488142013550e-01,1.098344996571540833e-01,-1.490372568368911743e-01,-5.035832524299621582e-01,3.151956945657730103e-02,-2.575330138206481934e-01,9.406598657369613647e-02,-3.810065612196922302e-02,-2.081913799047470093e-01,-8.867539465427398682e-02,-2.904261648654937744e-01,-1.923277229070663452e-01,-2.268706411123275757e-01,-8.536473847925662994e-03,-3.208036348223686218e-02,1.547515275888144970e-03,-1.736208349466323853e-01,-2.234528958797454834e-01,5.929433181881904602e-02,-1.467496156692504883e-01,3.223740160465240479e-01,-1.034106686711311340e-01,2.273317426443099976e-01,1.476805061101913452e-01,2.038199454545974731e-01,1.204383671283721924e-01,-7.417722791433334351e-02,-1.157123893499374390e-01,2.699575722217559814e-01,-9.923858940601348877e-02,-6.483334302902221680e-02,-9.441698342561721802e-02,-9.353386610746383667e-02,-4.113131165504455566e-01,1.351117193698883057e-01,-2.186799794435501099e-01,-6.223772093653678894e-02,-1.046177670359611511e-01,-3.912864327430725098e-01,1.443551108241081238e-02,-1.430895924568176270e-01,2.735871970653533936e-01,2.530125528573989868e-02,4.158175550401210785e-03,-3.760739788413047791e-02,1.344297528266906738e-01,-5.228704214096069336e-02,-5.984389409422874451e-02,2.024031989276409149e-02,-1.383986175060272217e-01,-5.175665952265262604e-03,-8.286272175610065460e-03,-2.165827155113220215e-01,-3.351164162158966064e-01,2.159828245639801025e-01,-2.220264077186584473e-02,2.341848611831665039e-01,4.125534743070602417e-02,-3.007077574729919434e-01,-1.966250091791152954e-01,-9.372448176145553589e-02,2.862113416194915771e-01,2.602247893810272217e-01,-1.498985439538955688e-01,-2.852243371307849884e-02,2.675299942493438721e-01,-1.940501332283020020e-01,-1.067086607217788696e-01,-1.725177764892578125e-01,-8.897084742784500122e-02,-3.209285140037536621e-01,4.523828625679016113e-01,-1.404227614402770996e-01,-2.114580422639846802e-01,-1.087114289402961731e-01,-2.252638339996337891e-01,-2.525189518928527832e-01,-1.904671788215637207e-01,-2.673621475696563721e-01,-3.508922085165977478e-02,1.805021464824676514e-01,2.706610560417175293e-01,-2.673819959163665771e-01,1.577863395214080811e-01,1.789688766002655029e-01,-1.220775768160820007e-01,-2.781008183956146240e-01,1.268170028924942017e-01,2.669509649276733398e-01,-1.227058321237564087e-01,1.848562955856323242e-01,-2.347056753933429718e-02,-9.395114332437515259e-02,-3.712092638015747070e-01,4.768016636371612549e-01,-2.383060008287429810e-01,1.117063388228416443e-01,4.610773921012878418e-01,-2.189458012580871582e-01,-3.112725168466567993e-02,1.791057288646697998e-01,-9.701476246118545532e-02,-3.641036897897720337e-02,1.084794253110885620e-01,-3.323324620723724365e-01,-4.606156051158905029e-02,1.159359067678451538e-01,4.194043874740600586e-01,1.297081168740987778e-02,-4.131512343883514404e-01,-5.040387064218521118e-02,-1.915511041879653931e-01,4.447035193443298340e-01,1.833788007497787476e-01,-1.799963116645812988e-01,1.468803882598876953e-01,1.863125860691070557e-01,4.077810049057006836e-02,-1.426458060741424561e-01,-3.517040610313415527e-01,-1.090536713600158691e-01,6.174599006772041321e-02,1.423058062791824341e-01,-3.799659609794616699e-01,2.109575867652893066e-01,3.493649512529373169e-02,2.794487774372100830e-01,-1.252634227275848389e-01,-1.866120845079421997e-01,-1.250417828559875488e-01,1.692859679460525513e-01,-1.218372508883476257e-01,1.693707257509231567e-01,-1.290305703878402710e-02,-1.929561942815780640e-01,-3.552343845367431641e-01,2.785975039005279541e-01,2.168155759572982788e-01,-6.828062981367111206e-02,-2.453523874282836914e-01,-1.600646674633026123e-01,5.581815540790557861e-02,6.836806982755661011e-02,3.288005888462066650e-01,1.128963287919759750e-02,-2.397467643022537231e-01,-1.629028469324111938e-01,7.181535661220550537e-02,-9.237828105688095093e-02,-2.424305081367492676e-01,9.480966627597808838e-02,3.263828754425048828e-01,3.443454504013061523e-01,-1.862734109163284302e-01,2.923344373703002930e-01,-3.715104982256889343e-02,3.148546814918518066e-01,4.268736839294433594e-01,-1.350749433040618896e-01,3.839161694049835205e-01,-3.586727753281593323e-02,-1.376212537288665771e-01,3.476085066795349121e-01,-7.956590503454208374e-02,9.296809136867523193e-02,1.747164875268936157e-01,-1.950708925724029541e-01,-1.992635875940322876e-01,1.380083858966827393e-01,-1.124273389577865601e-01,-3.858709931373596191e-01,1.361567080020904541e-01,-1.381589751690626144e-02,1.150949671864509583e-01,-2.296687066555023193e-01,-3.148814141750335693e-01,2.348036468029022217e-01,-5.639258623123168945e-01,1.156263127923011780e-01,4.826368764042854309e-02,-2.013093680143356323e-01,2.786256372928619385e-01,2.274554409086704254e-02,-2.815378308296203613e-01,-1.642994135618209839e-01,6.015503779053688049e-02,2.428623437881469727e-01,2.337167710065841675e-01,-4.294878616929054260e-02,2.825626730918884277e-01,-1.444770544767379761e-01,-5.312779452651739120e-03,-1.949171721935272217e-01,-1.196043491363525391e-01,-3.369715213775634766e-01,-2.464268207550048828e-01,-1.043637692928314209e-01,8.296795934438705444e-02,-2.720835246145725250e-02,5.622651427984237671e-02,2.406993657350540161e-01,2.369959354400634766e-01,-3.026510179042816162e-01,1.862324327230453491e-01,-1.108102798461914062e-01,-4.138975441455841064e-01,-4.848336055874824524e-02,-3.661858439445495605e-01,-1.995687335729598999e-01,-4.004592597484588623e-01,-1.094814911484718323e-01,7.400976121425628662e-02,-1.466881483793258667e-01,5.275301337242126465e-01,2.876618206501007080e-01,6.376140285283327103e-03,-1.460613310337066650e-01,-1.882826238870620728e-01,-1.395007222890853882e-01,-1.142491251230239868e-01,-2.408315055072307587e-02,-1.276562809944152832e-01,1.362235546112060547e-01,7.546757161617279053e-02,1.350679099559783936e-01,-4.214022192172706127e-04,4.344332590699195862e-02,-3.895004391670227051e-01,-2.974729537963867188e-01,-1.988191753625869751e-01,-1.398186385631561279e-01,-5.577628687024116516e-02,-2.178859710693359375e-01,-3.647606074810028076e-01,3.165288269519805908e-01,-2.348889410495758057e-01,-2.477248571813106537e-02,4.424820467829704285e-02,3.675518333911895752e-01,8.913184702396392822e-02,-2.933189086616039276e-02,-1.360544264316558838e-01,-8.677317947149276733e-02,-9.047197550535202026e-02,-5.563551932573318481e-02,-7.013901323080062866e-02,-1.949372291564941406e-01,2.649682946503162384e-02,-3.417300060391426086e-02,-2.007657848298549652e-02,-1.930273771286010742e-01,-6.080729886889457703e-02,-1.658573597669601440e-01,-3.860893249511718750e-01,-1.951364874839782715e-01,-1.199173554778099060e-01,7.047801464796066284e-02,-3.237343728542327881e-01,-1.996820122003555298e-01,-2.933761775493621826e-01,-2.306416630744934082e-01,5.213323608040809631e-02,-1.071319207549095154e-01,-5.144607424736022949e-01,-1.102100238204002380e-01,-1.646671295166015625e-01,9.109707921743392944e-02,-1.674111038446426392e-01,-2.296955883502960205e-01,-1.050592064857482910e-01,1.029662117362022400e-01,-3.020035326480865479e-01,3.325969576835632324e-01,1.489772945642471313e-01,1.340902149677276611e-01,-5.297340080142021179e-02,-5.335531011223793030e-02,-6.940984632819890976e-03,-2.228082865476608276e-01,-2.693164348602294922e-01,3.647456169128417969e-01,-4.333652853965759277e-01,-2.632864713668823242e-01,-5.586692690849304199e-02,3.579533696174621582e-01,-1.200419440865516663e-01,-1.764750033617019653e-01,-1.298907548189163208e-01,2.670448422431945801e-01,2.237287908792495728e-02,1.217694878578186035e-01,2.898679673671722412e-01,3.143585920333862305e-01,1.503438353538513184e-01,1.367921829223632812e-01,2.366923540830612183e-01,-2.131440043449401855e-01,2.641986310482025146e-01,2.229234129190444946e-01,-1.205398887395858765e-01,3.063262104988098145e-01,-2.814820110797882080e-01,1.627504378557205200e-01,1.883515715599060059e-01,1.286552548408508301e-01,3.480805456638336182e-01,1.365314275026321411e-01,3.619990050792694092e-01,2.943169474601745605e-01,5.578737705945968628e-02,3.688006997108459473e-01,-1.550086587667465210e-01,3.302794396877288818e-01,-2.644284069538116455e-01,2.906578779220581055e-01,1.948215514421463013e-01,1.546398736536502838e-02,1.951340287923812866e-01,1.098791956901550293e-01,-1.309772431850433350e-01,5.341303721070289612e-02,2.145174145698547363e-01,-4.252492636442184448e-02,-4.488570988178253174e-01,1.271440833806991577e-01,1.620009243488311768e-01,-2.273089252412319183e-02,9.515038877725601196e-02,-2.694787085056304932e-02,2.096697539091110229e-01,-6.335447728633880615e-02,1.302455216646194458e-01,3.525149822235107422e-01,7.937811315059661865e-02,2.502126432955265045e-02,9.677290916442871094e-02,8.158565312623977661e-02,-1.043790429830551147e-01,-1.043908763676881790e-03,3.103690445423126221e-01,-3.968754783272743225e-02,-3.597651794552803040e-02,5.604150146245956421e-02,2.009796053171157837e-01,-1.280735582113265991e-01,1.954509615898132324e-01,1.024739444255828857e-01,-2.060042917728424072e-01,8.357502520084381104e-02,2.030636668205261230e-01,5.658466741442680359e-02,1.958415955305099487e-01,-2.241003364324569702e-01,-3.152479529380798340e-01,1.773738861083984375e-01,1.475864201784133911e-01,6.039361655712127686e-02,1.984495222568511963e-01,-1.686902344226837158e-02,1.655959039926528931e-01,2.437552660703659058e-01,2.318423539400100708e-01,3.510559797286987305e-01,-2.103140950202941895e-01,7.208716869354248047e-02,-3.510464727878570557e-01,1.884065568447113037e-01,6.408197432756423950e-02,1.309428364038467407e-01,1.572528630495071411e-01,1.478839013725519180e-02,2.934599816799163818e-01,5.853469297289848328e-02,-6.038421764969825745e-02,-9.425889700651168823e-02,-3.093116879463195801e-01,-1.026048511266708374e-02,-1.259744614362716675e-01,3.416967391967773438e-02,-7.385313510894775391e-02,1.986629329621791840e-02,-5.164323374629020691e-02,-2.853626012802124023e-01,-1.036882326006889343e-01,-9.844245016574859619e-02,2.943008840084075928e-01,-2.503072842955589294e-02,-2.273490838706493378e-02,-2.572198808193206787e-01,-2.712639570236206055e-01,-2.591021955013275146e-01,-4.050888866186141968e-02,4.767309874296188354e-02,-2.679255045950412750e-02,-1.883488446474075317e-01,-1.012313738465309143e-01,-7.624279707670211792e-02,1.079659834504127502e-01,-2.505848705768585205e-01,-3.536640405654907227e-01,-1.423719376325607300e-01,8.525636047124862671e-02,-2.718077600002288818e-01,-1.420436892658472061e-02,9.803528338670730591e-02,-1.579275280237197876e-01,-4.093620926141738892e-02,3.127061426639556885e-01,9.607064537703990936e-03,7.287769019603729248e-02,5.425051599740982056e-02,-3.098555803298950195e-01,2.446833066642284393e-02,-5.749561265110969543e-02,4.116699844598770142e-02,-3.023346960544586182e-01,-2.496269047260284424e-01,-5.426790937781333923e-02,-8.160057663917541504e-02,-1.291461735963821411e-01,8.153115957975387573e-02,-2.237759977579116821e-01,-2.687042355537414551e-01,-2.379878312349319458e-01,4.553780332207679749e-02,-1.593992561101913452e-01,5.392476543784141541e-02,-1.764718443155288696e-01,-1.061113625764846802e-01,-1.449096947908401489e-01,-2.444048821926116943e-01,9.888734668493270874e-02,-9.575241059064865112e-02,-2.181782871484756470e-01,-4.125891625881195068e-02,-2.639053761959075928e-01,2.503246068954467773e-01,6.298480182886123657e-02,3.397808596491813660e-02,-1.905149966478347778e-01,-1.424086242914199829e-01,-2.532027661800384521e-01,5.332467705011367798e-02,-4.726347327232360840e-02,-1.210521608591079712e-01,-3.173654377460479736e-01,-3.711773157119750977e-01,6.994153838604688644e-03,-1.815157681703567505e-01,1.603458523750305176e-01,-1.853698939085006714e-01,4.293151572346687317e-02,1.065616682171821594e-02,5.364535376429557800e-02,4.633469972759485245e-03,-3.322246670722961426e-01,1.209899783134460449e-01,1.734762191772460938e-01,3.108595311641693115e-01,2.269867956638336182e-01,7.728286087512969971e-02,1.311614364385604858e-01,1.258042454719543457e-01,3.544557094573974609e-01,-1.784051358699798584e-01,2.647976875305175781e-01,8.885503560304641724e-02,2.395974993705749512e-01,7.384266704320907593e-02,1.588634960353374481e-02,-1.230396032333374023e-01,1.250723451375961304e-01,-8.742220699787139893e-03,5.950541421771049500e-02,2.064208500087261200e-02,2.043737173080444336e-01,1.393844336271286011e-01,-3.847033157944679260e-02,2.871283292770385742e-01,-4.175077006220817566e-02,3.077754378318786621e-01,-1.637485772371292114e-01,-8.651910722255706787e-02,2.997695207595825195e-01,5.827251356095075607e-03,9.665489196777343750e-02,-1.151927337050437927e-01,9.662684053182601929e-02,3.052914738655090332e-01,-2.602870389819145203e-02,1.553489714860916138e-01,-4.746108353137969971e-01,1.636326611042022705e-01,2.147492766380310059e-01,1.824214458465576172e-01,1.532308310270309448e-01,-2.237726598978042603e-01,2.520100176334381104e-01,1.098447591066360474e-01,1.776302456855773926e-01,1.136372908949851990e-01,3.586769104003906250e-01,8.879400044679641724e-02,1.287833303213119507e-01,1.998263150453567505e-01,2.736013829708099365e-01,-3.787582367658615112e-02,3.397870361804962158e-01,2.920237779617309570e-01,2.737671732902526855e-01,2.410122007131576538e-01,6.891562789678573608e-02,1.896982342004776001e-01,2.890377342700958252e-01,1.458014249801635742e-01,2.586077526211738586e-02,3.276922404766082764e-01,-8.001732826232910156e-02,1.781137287616729736e-02,1.980379372835159302e-01,-2.000659406185150146e-01,-3.037334680557250977e-01,3.547274321317672729e-02,3.068861365318298340e-01,-1.932869851589202881e-02,9.540086239576339722e-02,2.429933398962020874e-01,3.134696185588836670e-01,1.509120613336563110e-01,2.595080733299255371e-01,2.395730167627334595e-01,8.774284273386001587e-02,1.553278714418411255e-01,-2.797164022922515869e-01,2.439436018466949463e-01,2.759818434715270996e-01,2.539397776126861572e-01,5.196598917245864868e-02,1.789003983139991760e-02,3.143127560615539551e-01,-1.219342276453971863e-01,4.246746897697448730e-01,6.396666914224624634e-02,1.688012927770614624e-01,-3.994372859597206116e-02,-1.243653446435928345e-01,-1.897792071104049683e-01,1.413198411464691162e-01,-2.930870950222015381e-01,-1.331269741058349609e-01,-1.389755904674530029e-01,-4.517125189304351807e-01,-8.297938853502273560e-02,-2.095062136650085449e-01,1.697885841131210327e-01,4.458082616329193115e-01,-1.589836180210113525e-01,1.800743304193019867e-02,-4.366427659988403320e-01,-1.626269072294235229e-01,-1.834752969443798065e-02,-3.573750257492065430e-01,-2.899416089057922363e-01,9.765352308750152588e-02,1.262685656547546387e-01,2.575625479221343994e-01,-3.096006251871585846e-02,-1.637622863054275513e-01,-1.745413541793823242e-01,-1.589453965425491333e-01,-4.617637991905212402e-01,-1.182711049914360046e-01,-2.351453602313995361e-01,-1.164907366037368774e-01,-4.566092193126678467e-01,2.368257939815521240e-01,3.471768647432327271e-02,-2.977375639602541924e-03,-8.943941444158554077e-02,-2.140777409076690674e-01,1.384585052728652954e-01,1.996432431042194366e-02,1.689095795154571533e-01,-1.142213940620422363e-01,-1.096977442502975464e-01,-2.114526629447937012e-01,1.608372479677200317e-01,-9.103102982044219971e-02,-3.840891122817993164e-01,-1.441804468631744385e-01,4.847639799118041992e-01,-1.154854521155357361e-01,-3.718239665031433105e-01,-2.440191507339477539e-01,-2.832472324371337891e-01,3.936074078083038330e-01,-3.347119390964508057e-01,2.292267382144927979e-01,-3.504663705825805664e-01,3.081651031970977783e-01,-4.248415306210517883e-02,-2.937194108963012695e-01,-1.616631150245666504e-01,-1.118720248341560364e-01,-3.103567659854888916e-01,-1.568841636180877686e-01,-2.784406542778015137e-01,4.499713331460952759e-02,-3.277753591537475586e-01,-5.217066407203674316e-01,-1.797931939363479614e-01,1.177013069391250610e-01,1.148302331566810608e-01,-2.600290179252624512e-01,2.983316481113433838e-01,1.586131304502487183e-01,-2.964735031127929688e-01,-2.553746104240417480e-01,1.750416308641433716e-01,-1.800318807363510132e-01,3.077238798141479492e-02,1.592938904650509357e-03,2.852645516395568848e-01,3.460652530193328857e-01,-2.108759135007858276e-01,6.617103517055511475e-02,-1.518939733505249023e-01,-6.782864779233932495e-02,8.318432606756687164e-03,-2.181838303804397583e-01,-8.273872733116149902e-02,-2.254833877086639404e-01,-1.875972151756286621e-01,-1.917755007743835449e-01,-9.833635389804840088e-02,-3.134928345680236816e-01,-2.998285889625549316e-01,-1.260568201541900635e-01,-7.280704379081726074e-02,-1.705891788005828857e-01,-1.840446330606937408e-02,-2.523106932640075684e-01,-2.325783967971801758e-01,-1.624216884374618530e-01,-1.946804523468017578e-01,-5.901525542140007019e-02,-2.558873891830444336e-01,1.092801149934530258e-02,6.067831069231033325e-02,-2.775142788887023926e-01,-7.558005303144454956e-02,-2.079948037862777710e-01,-6.696966290473937988e-02,-2.071875780820846558e-01,-1.206781789660453796e-01,-3.431660309433937073e-02,-4.501743614673614502e-02,-2.473670393228530884e-01,-5.146006122231483459e-02,1.734078824520111084e-01,-2.872361540794372559e-01,-2.754786238074302673e-02,-1.844730228185653687e-02,-1.696109771728515625e-01,3.965261578559875488e-02,-2.313085645437240601e-01,-1.347772479057312012e-01,-2.405524551868438721e-01,-2.573876678943634033e-01,-8.066718280315399170e-02,-2.975758016109466553e-01,-4.879136756062507629e-02,-8.887296542525291443e-03,-9.538213163614273071e-02,-1.728655025362968445e-02,-2.170906215906143188e-01,-5.535406991839408875e-02,-4.525794833898544312e-02,-9.634254872798919678e-02,-2.675531804561614990e-01,-9.991242736577987671e-02,3.412880748510360718e-02,-1.151225063949823380e-02,-3.838365152478218079e-02,-1.023293808102607727e-01,1.571718417108058929e-02,-2.331282794475555420e-01,-1.395204514265060425e-01,-1.729822754859924316e-01,-9.586170315742492676e-02,1.633314974606037140e-02,2.181323431432247162e-02,-8.429141342639923096e-02,-1.946799010038375854e-01,-9.307387471199035645e-02,-2.587880194187164307e-01,-1.179794743657112122e-01,-2.641698420047760010e-01,-1.779058426618576050e-01,1.463845185935497284e-02,1.140773519873619080e-01,-1.057161483913660049e-02,-2.298903316259384155e-01,-1.792523413896560669e-01,-5.841030180454254150e-02,7.986161112785339355e-02,-9.202146902680397034e-03,4.393123090267181396e-02,9.827280044555664062e-02,-2.056253105401992798e-01,-3.627632185816764832e-02,-2.916674017906188965e-01,-1.000190973281860352e-01,-1.576872467994689941e-01,2.978673279285430908e-01,-2.353994399309158325e-01,1.219981685280799866e-01,-1.745712608098983765e-01,1.350643187761306763e-01,-1.325844787061214447e-03,-2.200516015291213989e-01,7.330992817878723145e-02,-1.780530363321304321e-01,-2.431054264307022095e-01,3.117324784398078918e-03,1.684605777263641357e-01,-5.775510147213935852e-02,-3.440067172050476074e-01,-2.899287045001983643e-01,-2.102194428443908691e-01,1.156971827149391174e-01,2.900293767452239990e-01,-3.242246210575103760e-01,1.323210299015045166e-01,-2.813301384449005127e-01,-3.338199555873870850e-01,2.008088231086730957e-01,-1.266337484121322632e-01,-1.804860234260559082e-01,4.142561852931976318e-01,-1.718496531248092651e-01,2.717238962650299072e-01,-1.568353772163391113e-01,4.554403200745582581e-02,1.510869860649108887e-01,6.234854832291603088e-02,3.570765256881713867e-02,1.605495363473892212e-01,-1.132471933960914612e-01,-2.405482381582260132e-01,3.540344834327697754e-01,-2.834645509719848633e-01,-1.964028775691986084e-01,1.816696114838123322e-02,3.256063163280487061e-01,1.233083102852106094e-02,-2.292408943176269531e-01,5.238487124443054199e-01,-2.420015865936875343e-03,-3.233492374420166016e-01,-1.435657441616058350e-01,-1.930196420289576054e-03,-1.246569007635116577e-01,-8.901900053024291992e-02,9.973479807376861572e-02,8.147738128900527954e-02,-3.462854400277137756e-02,2.237781435251235962e-01,7.141686975955963135e-02,-2.342226356267929077e-01,4.088499844074249268e-01,-7.358370721340179443e-02,2.553745508193969727e-01,3.445219397544860840e-01,-2.768948376178741455e-01,-3.259511888027191162e-01,-7.519389688968658447e-02,-2.318105250597000122e-01,1.784219294786453247e-01,-2.656593918800354004e-01,-1.900128424167633057e-01,3.714966773986816406e-01,-2.079210579395294189e-01,2.756009995937347412e-01,-1.970076560974121094e-01,1.406402438879013062e-01,-2.320611476898193359e-01,-1.363843828439712524e-01,-1.827446520328521729e-01,-1.126476600766181946e-01,2.147125080227851868e-02,-1.293456256389617920e-01,-1.037881523370742798e-01,-1.825056970119476318e-01,-5.521683022379875183e-02,-1.364844739437103271e-01,-1.771250516176223755e-01,1.627584546804428101e-01,2.374811023473739624e-01,-2.235358804464340210e-01,-1.256274525076150894e-02,-7.880140095949172974e-02,-3.919837251305580139e-02,1.751305907964706421e-01,-2.753139436244964600e-01,-1.983940452337265015e-01,-1.108874306082725525e-01,-5.324663966894149780e-02,-2.049275338649749756e-01,-2.612650692462921143e-01,-5.867816507816314697e-02,-2.186539322137832642e-01,-8.345227688550949097e-02,-6.353443115949630737e-02,-2.225970178842544556e-01,1.116557940840721130e-01,1.987320370972156525e-02,1.226726397871971130e-01,-1.780689954757690430e-01,-2.579257488250732422e-01,-7.265446335077285767e-02,-1.749872416257858276e-01,8.996068686246871948e-02,1.960501261055469513e-02,-6.917060166597366333e-02,4.531011730432510376e-02,-3.370275497436523438e-01,3.306303918361663818e-01,-2.448252141475677490e-01,-1.806417480111122131e-02,-6.987164169549942017e-02,7.926587760448455811e-02,1.257530450820922852e-01,-2.897437214851379395e-01,-1.076337546110153198e-01,-9.167384356260299683e-02,1.494321525096893311e-01,-9.869815409183502197e-02,-1.260797381401062012e-01,5.242606624960899353e-02,1.520562022924423218e-01,4.219336435198783875e-02,2.258048579096794128e-02,-1.972448974847793579e-01,4.261430725455284119e-02,-7.298121601343154907e-02,-1.282805651426315308e-01,-2.133520394563674927e-01,-6.459973007440567017e-02,-4.862810671329498291e-01,1.078909635543823242e-01,-6.773287057876586914e-02,-2.463915944099426270e-02,-7.690389454364776611e-02,1.094323471188545227e-01,1.045564264059066772e-01,-2.534782700240612030e-02,1.680330336093902588e-01,-3.072628080844879150e-01,-3.421688079833984375e-02,-1.428617686033248901e-01,-1.676879227161407471e-01,-1.490365862846374512e-01,2.682291530072689056e-02,-2.285966128110885620e-01,-1.718767285346984863e-01,-3.553944826126098633e-01,-1.859896779060363770e-01,-5.640904977917671204e-02,1.940761655569076538e-01,1.135368570685386658e-01,2.343138493597507477e-02,-2.228280454874038696e-01,4.709037952125072479e-03,-4.280560836195945740e-02,-3.076347410678863525e-01,3.362186951562762260e-03,-3.318693637847900391e-01,-2.313105463981628418e-01,7.021559774875640869e-02,-2.320534884929656982e-01,-1.025481075048446655e-01,1.278837472200393677e-01,-3.287189900875091553e-01,1.639031469821929932e-01,-1.203985512256622314e-01,-1.029242053627967834e-01,-7.599008083343505859e-02,-2.867537736892700195e-01,3.250359296798706055e-01,-2.156236022710800171e-01,6.427738070487976074e-02,-3.373174071311950684e-01,-3.425250202417373657e-02,5.827533081173896790e-02,-7.046619057655334473e-02,-1.562978774309158325e-01,-2.020446509122848511e-01,-1.579985916614532471e-01,1.564218401908874512e-01,1.430211961269378662e-02,1.252212822437286377e-01,-2.278199046850204468e-01,-1.345106512308120728e-01,6.519427895545959473e-02,-1.488778293132781982e-01,-1.460066586732864380e-01,-1.775151193141937256e-01,-3.626804947853088379e-01,-1.361907869577407837e-01,-3.096669614315032959e-01,-3.090881975367665291e-03,-1.033209413290023804e-01,-3.511502742767333984e-01,9.622819721698760986e-02,6.127816066145896912e-02,-9.689264744520187378e-02,-5.122483894228935242e-02,7.352679967880249023e-02,-8.254858106374740601e-02,-7.563656568527221680e-02,3.406606614589691162e-03,-7.078571245074272156e-03,-1.905770003795623779e-01,3.082209080457687378e-02,-2.020253986120223999e-01,-2.013331800699234009e-01,-3.151300251483917236e-01,-2.338723391294479370e-01,-2.499345242977142334e-01,-3.717982172966003418e-01,-3.397929966449737549e-01,-1.824592500925064087e-01,-1.173573508858680725e-01,-6.550824642181396484e-02,-1.503362804651260376e-01,-1.748449653387069702e-01,-9.638027846813201904e-02,-2.045325785875320435e-01,2.765684202313423157e-02,9.556370228528976440e-02,-4.748279228806495667e-03,-3.296024501323699951e-01,5.787798762321472168e-02,-2.705052122473716736e-02,1.422788947820663452e-02,-2.116289287805557251e-01,-2.575222551822662354e-01,-1.265782564878463745e-01,-3.287366926670074463e-01,-6.573756784200668335e-02,-1.630873419344425201e-02,-2.836947739124298096e-01,1.637621596455574036e-02,-7.253777980804443359e-02,-1.930058300495147705e-01,-3.395252227783203125e-01,-2.077737599611282349e-01,-6.999724358320236206e-02,-8.795788884162902832e-02,2.902810871601104736e-01,2.523863315582275391e-01,-2.586076557636260986e-01,1.471921503543853760e-01,-2.221636027097702026e-01,2.201557457447052002e-01,-2.277507632970809937e-02,4.335317015647888184e-01,-6.512728054076433182e-03,-2.301780283451080322e-01,-3.052010834217071533e-01,-2.398366034030914307e-01,2.477509528398513794e-01,1.974392086267471313e-01,4.167342558503150940e-02,3.567515313625335693e-01,6.505369395017623901e-02,-4.662720561027526855e-01,-5.426534414291381836e-01,-9.904356300830841064e-02,-3.478461503982543945e-02,-4.851750433444976807e-01,-1.532135754823684692e-01,7.513865083456039429e-02,-3.668266534805297852e-01,-2.928911708295345306e-02,6.338161230087280273e-02,3.280421495437622070e-01,-5.623725708574056625e-03,-3.571857810020446777e-01,-2.614718973636627197e-01,2.725885994732379913e-02,-4.632893949747085571e-02,-3.473060727119445801e-01,-4.033258855342864990e-01,3.945322632789611816e-01,-3.649615496397018433e-02,-1.310334205627441406e-01,-3.896756768226623535e-01,-4.312034288886934519e-04,3.064486086368560791e-01,-1.679787337779998779e-01,2.390703260898590088e-01,-2.519795894622802734e-01,2.182114869356155396e-01,-1.769975721836090088e-01,1.597143411636352539e-01,1.833970993757247925e-01,-3.564476966857910156e-01,-1.336940228939056396e-01,3.562897145748138428e-01,-2.826890349388122559e-01,-2.933846712112426758e-01,4.064347222447395325e-02,-1.380841732025146484e-01,4.761843383312225342e-02,-2.388824336230754852e-02,1.360384076833724976e-01,-2.749819122254848480e-02,2.914926223456859589e-02,9.113643318414688110e-02,-1.205754354596138000e-01,-1.860583573579788208e-02,3.664519190788269043e-01,-1.332774162292480469e-01,-5.154353380203247070e-02,-2.159366756677627563e-01,-4.807596281170845032e-02,-1.313935965299606323e-01,-5.500072836875915527e-01,2.338790446519851685e-01,5.189361572265625000e-01,-2.219558879733085632e-02,-2.308738976716995239e-01,-5.359540227800607681e-03,-1.121496856212615967e-01,-1.769441068172454834e-01,1.581296026706695557e-01,-1.199807375669479370e-01,8.408337086439132690e-02,2.096024006605148315e-01,1.523127257823944092e-01,-1.156525388360023499e-01,-3.629824146628379822e-02,4.611669480800628662e-02,1.935805082321166992e-01,4.668732639402151108e-03,1.858045905828475952e-01,1.939404159784317017e-01,1.383908092975616455e-01,2.210854589939117432e-01,-1.527013182640075684e-01,2.072388082742691040e-01,5.606111604720354080e-03,3.061664998531341553e-01,-5.398751795291900635e-02,1.794123649597167969e-02,8.059376478195190430e-02,2.993552088737487793e-01,2.695134282112121582e-01,-6.299205124378204346e-02,3.144644200801849365e-01,-3.385109901428222656e-01,2.626690864562988281e-01,-3.155696094036102295e-01,-2.280921936035156250e-01,1.328273415565490723e-01,5.995890125632286072e-02,2.242949157953262329e-01,5.599190667271614075e-02,1.255137193948030472e-02,-1.691537350416183472e-02,2.850500345230102539e-01,-1.892613619565963745e-01,1.267407387495040894e-01,6.034363806247711182e-02,3.465115427970886230e-01,-2.327193506062030792e-02,-1.402915269136428833e-01,1.623008400201797485e-01,-1.213101670145988464e-01,7.625716924667358398e-02,-3.254186734557151794e-02,1.790367215871810913e-01,2.869574725627899170e-01,-5.907942540943622589e-03,-7.340980321168899536e-02,-1.459081023931503296e-01,1.918062269687652588e-01,-2.662239372730255127e-01,2.240844219923019409e-01,1.746932268142700195e-01,1.448006331920623779e-01,2.416497468948364258e-01,3.429287672042846680e-01,6.998110562562942505e-03,-2.880967557430267334e-01,3.441256284713745117e-02,-2.060279995203018188e-01,1.305789127945899963e-02,-1.391754150390625000e-01,-7.365585118532180786e-02,-1.452944874763488770e-01,1.828788518905639648e-01,2.298670858144760132e-01,-2.653484940528869629e-01,7.501696050167083740e-02,-1.954055204987525940e-02,-1.601990461349487305e-01,2.123561352491378784e-01,-1.832530945539474487e-01,2.543927542865276337e-02,6.911598145961761475e-02,3.503387421369552612e-02,-3.288029730319976807e-01,7.754953205585479736e-02,-2.360882610082626343e-01,2.627610266208648682e-01,3.593952655792236328e-01,2.933109700679779053e-01,-2.109183967113494873e-01,2.567882835865020752e-01,4.717553500086069107e-03,-3.841118887066841125e-02,-3.691957592964172363e-01,2.530405223369598389e-01,1.733878701925277710e-01,7.386870682239532471e-03,5.632207542657852173e-02,1.027611196041107178e-01,1.614469587802886963e-01,-8.284056186676025391e-02,2.067113965749740601e-01,-4.836978763341903687e-02,2.989456057548522949e-01,1.441919654607772827e-01,-8.784872293472290039e-02,-4.901284351944923401e-02,1.778565794229507446e-01,3.429030478000640869e-01,1.314887702465057373e-01,-3.405100479722023010e-02,3.413811028003692627e-01,1.655614823102951050e-01,9.674007445573806763e-02,-1.159958839416503906e-01,3.211304247379302979e-01,-1.624583899974822998e-01,7.347147166728973389e-02,3.206245601177215576e-01,1.111917868256568909e-01,7.130075991153717041e-02,-1.247678324580192566e-01,-2.918842062354087830e-02,1.919574886560440063e-01,2.461869269609451294e-01,1.236360073089599609e-01,-5.921193957328796387e-02,7.142174243927001953e-02,5.715243518352508545e-02,2.246610224246978760e-01,2.611064612865447998e-01,2.632417976856231689e-01,4.224839806556701660e-01,1.189819769933819771e-03,2.097830772399902344e-01,2.877064049243927002e-02,9.810939431190490723e-02,1.898300647735595703e-01,8.996524661779403687e-02,2.334036529064178467e-01,8.353926241397857666e-02,-5.589700117707252502e-02,-6.455057114362716675e-02,1.910813599824905396e-01,1.208918094635009766e-01,3.281986713409423828e-01,1.340149194002151489e-01,1.544231474399566650e-01,3.893731907010078430e-02,2.617788314819335938e-01,2.622760646045207977e-02,-3.945140168070793152e-02,2.273391187191009521e-01,9.850936383008956909e-02,1.002886965870857239e-01,2.665770649909973145e-01,1.547435224056243896e-01,-6.229517981410026550e-02,2.349900752305984497e-01,-1.731350123882293701e-01,1.953095644712448120e-01,-4.085385799407958984e-02,1.373681873083114624e-01,-4.100366681814193726e-02,1.932510584592819214e-01,-1.222795918583869934e-01,1.563640981912612915e-01,2.014865875244140625e-01,2.906850874423980713e-01,2.227314710617065430e-01,2.118903249502182007e-01,-9.051274508237838745e-02,1.282203495502471924e-01,1.737927645444869995e-01,4.464002326130867004e-02,1.758393645286560059e-01,3.978344053030014038e-02,-1.064308136701583862e-01,2.175270915031433105e-01,1.666121184825897217e-01,1.538541764020919800e-01,-3.530362844467163086e-01,-1.949694305658340454e-01,-7.763975858688354492e-02,1.417120546102523804e-01,9.619521349668502808e-02,-2.491873055696487427e-01,-3.024284839630126953e-01,-2.010220140218734741e-01,-1.226545944809913635e-01,-9.243721514940261841e-02,1.484890282154083252e-01,3.518013358116149902e-01,1.631328612565994263e-01,-1.076910570263862610e-01,8.997680991888046265e-02,-1.897404044866561890e-01,-2.864787280559539795e-01,-9.364314377307891846e-02,-7.887931168079376221e-02,9.588413685560226440e-02,1.073080077767372131e-01,-1.200305949896574020e-02,-1.900168657302856445e-01,-2.882007658481597900e-01,-7.879649847745895386e-02,4.158467948436737061e-01,-2.338884864002466202e-03,-1.294488459825515747e-01,-1.339362263679504395e-01,7.801741361618041992e-02,-1.310101449489593506e-01,-2.133570760488510132e-01,-2.624981105327606201e-01,2.553067207336425781e-01,-3.250743821263313293e-02,3.415444791316986084e-01,-1.328157335519790649e-01,-1.497366726398468018e-01,1.148028373718261719e-01,-2.408051490783691406e-01,-6.040178611874580383e-02,-2.823778986930847168e-01,-8.400680869817733765e-02,2.606299519538879395e-01,-1.368230395019054413e-02,1.939398348331451416e-01,6.177839264273643494e-02,4.132673442363739014e-01,1.503441333770751953e-01,-1.520097702741622925e-01,-3.773098066449165344e-02,2.939141914248466492e-02,5.087476968765258789e-02,-2.263855785131454468e-01,9.157712757587432861e-02,7.349114865064620972e-02,-2.740512490272521973e-01,-2.367790639400482178e-01,-2.498554289340972900e-01,-1.951584219932556152e-01,2.583731412887573242e-01,3.173523545265197754e-01,8.673971146345138550e-02,-1.154417917132377625e-01,1.785470098257064819e-01,-2.519747316837310791e-01,-2.585325241088867188e-01,5.496562719345092773e-01,-5.076605826616287231e-02,1.637210845947265625e-01,-2.470977157354354858e-01,-1.690676510334014893e-01,-2.711292207241058350e-01,3.948456421494483948e-02,-1.240133941173553467e-01,-2.751600444316864014e-01,-1.396452933549880981e-01,7.021056115627288818e-02,-1.549534201622009277e-01,4.661627113819122314e-03,-1.365569531917572021e-01,2.135405987501144409e-01,1.401473581790924072e-01,1.216274425387382507e-01,1.558061540126800537e-01,-4.384020268917083740e-01,-3.656723797321319580e-01,-3.085073456168174744e-02,-4.856921434402465820e-01,-3.138306438922882080e-01,8.510478585958480835e-02,-2.464254200458526611e-01,2.373259216547012329e-01,-2.161157429218292236e-01,-1.083466187119483948e-01,1.035445779561996460e-01,8.016150444746017456e-02,5.819475054740905762e-01,-2.880631089210510254e-01,-2.715334892272949219e-01,6.666567176580429077e-03,-1.920395642518997192e-01,-2.301457077264785767e-01,6.455574184656143188e-02,-2.728091478347778320e-01,-8.194504305720329285e-03,-3.573373854160308838e-01,1.750496476888656616e-01,-6.329706311225891113e-01,1.550789028406143188e-01,-1.089381426572799683e-01,1.350297480821609497e-01,4.849042370915412903e-02,-6.875162571668624878e-02,1.731294691562652588e-01,-2.908266484737396240e-01,2.981540001928806305e-02,-2.008205354213714600e-01,-7.495713979005813599e-02,1.038472950458526611e-01,-1.418541278690099716e-02,-4.248120784759521484e-01,-2.085963822901248932e-02,-3.372256755828857422e-01,-4.589079618453979492e-01,-1.782562434673309326e-01,-7.796522695571184158e-03,1.554136257618665695e-02,1.797194927930831909e-01,5.910596996545791626e-02,-4.977819044142961502e-03,-1.568104326725006104e-01,-1.078725978732109070e-01,-3.434602618217468262e-01,4.581599310040473938e-02,-3.981380462646484375e-01,-2.777132987976074219e-01,1.052195951342582703e-01,-6.807185709476470947e-02,-3.975531756877899170e-01,1.165239959955215454e-01,-2.114990353584289551e-01,-2.161894440650939941e-01,-1.317850053310394287e-01,-4.290474578738212585e-02,-1.401013731956481934e-01,5.051755812019109726e-03,-2.022358626127243042e-01,2.487688064575195312e-01,4.121504127979278564e-01,-3.479349613189697266e-02,8.039385080337524414e-02,9.120940417051315308e-02,4.178600385785102844e-02,-1.847459375858306885e-01,1.283629089593887329e-01,-2.632809877395629883e-01,-3.345845937728881836e-01,-4.771408811211585999e-02,-9.728025645017623901e-02,-1.068205982446670532e-01,-3.111330978572368622e-02,-5.891788005828857422e-01,-8.174289762973785400e-02,-8.532768487930297852e-02,-6.888689100742340088e-02,-3.088735342025756836e-01,-5.203089118003845215e-01,-2.324343323707580566e-01,-1.220706924796104431e-01,1.168798208236694336e-01,1.883568614721298218e-01,9.046607464551925659e-02,1.777430176734924316e-01,2.606810033321380615e-01,-2.724017500877380371e-01,6.556399166584014893e-02,3.446014970541000366e-02,6.397170573472976685e-02,2.542251348495483398e-02,-5.422442033886909485e-02,-2.326546423137187958e-02,-3.325441852211952209e-02,-6.927646696567535400e-02,-1.438250299543142319e-03,-3.269507363438606262e-02,3.478455841541290283e-01,-3.932457044720649719e-02,-1.800283640623092651e-01,2.459174394607543945e-01,1.348775327205657959e-01,-7.750994525849819183e-03,1.844281554222106934e-01,-9.801876731216907501e-04,1.441831141710281372e-01,1.901668459177017212e-01,2.144713401794433594e-01,2.978397309780120850e-01,-9.172458946704864502e-02,3.574211616069078445e-03,3.152065351605415344e-02,-8.556047827005386353e-02,1.998669952154159546e-01,-3.427950441837310791e-01,1.081055682152509689e-02,2.018363475799560547e-01,4.784143343567848206e-02,4.553775489330291748e-01,-1.474118828773498535e-01,-2.760074436664581299e-01,2.676686644554138184e-01,2.485771328210830688e-01,2.634202241897583008e-01,3.017586767673492432e-01,-9.104242175817489624e-02,2.903261967003345490e-02,3.079109191894531250e-01,2.439454793930053711e-01,-3.203302025794982910e-01,4.501917064189910889e-01,2.739035189151763916e-01,5.478354543447494507e-02,-1.445998698472976685e-01,1.469890121370553970e-02,1.419001445174217224e-02,-4.129146039485931396e-01,4.394676536321640015e-03,3.100155591964721680e-01,1.489974260330200195e-01,3.785441815853118896e-01,7.097607851028442383e-02,1.024224385619163513e-01,-1.204491704702377319e-01,-4.340825253166258335e-04,-1.114045903086662292e-01,3.326320052146911621e-01,-6.829115748405456543e-02,2.055005729198455811e-01,1.516866534948348999e-01,-2.384356260299682617e-01,-4.987628161907196045e-01,-7.374218106269836426e-02,-1.984385550022125244e-01,-1.478484179824590683e-02,3.085371255874633789e-01,-1.922508329153060913e-02,3.502783477306365967e-01,2.988269925117492676e-02,-1.306084245443344116e-01,5.001156926155090332e-01,1.065092906355857849e-01,3.012289404869079590e-01,3.832397162914276123e-01,1.367928683757781982e-01,1.712982952594757080e-01,3.566711246967315674e-01,-1.167245209217071533e-02,2.108974605798721313e-01,-2.162085771560668945e-01,3.943628072738647461e-01,-2.451708763837814331e-01,2.271368205547332764e-01,1.150298491120338440e-01,9.324494749307632446e-02,1.687909662723541260e-01,1.031486317515373230e-01,-1.037773415446281433e-01,3.278223872184753418e-01,-1.431038677692413330e-01,1.454778015613555908e-01,1.978512853384017944e-01,-2.922047302126884460e-02,2.428411245346069336e-01,-4.047186672687530518e-02,-2.418577224016189575e-01,-4.541254639625549316e-01,1.942192576825618744e-02,3.484476506710052490e-01,1.703540235757827759e-01,5.899304151535034180e-02,1.086873859167098999e-01,-4.576111584901809692e-02,-2.681711316108703613e-01,3.082262277603149414e-01,-4.481838345527648926e-01,1.253482997417449951e-01,-2.716256082057952881e-01,-1.709119416773319244e-02,-1.362810283899307251e-01,-2.382474094629287720e-01,1.968073844909667969e-02,-2.437579073011875153e-02,-5.452134646475315094e-04,1.851402074098587036e-01,9.878908842802047729e-02,1.274627000093460083e-01,1.456242948770523071e-01,4.344503954052925110e-02,-2.355247363448143005e-02,8.553710579872131348e-02,2.210220694541931152e-02,5.195660889148712158e-02,4.741618931293487549e-01,6.360606104135513306e-02,2.493901103734970093e-01,-1.711608618497848511e-01,7.967257499694824219e-02,-1.810665428638458252e-01,2.933962643146514893e-01,4.530791938304901123e-01,3.672441095113754272e-02,2.578130066394805908e-01,2.973128259181976318e-01,7.480030506849288940e-02,1.316971927881240845e-01,3.525604605674743652e-01,2.578455023467540741e-02,-4.827097356319427490e-01,-1.030788272619247437e-01,7.087546982802450657e-04,-3.344564139842987061e-01,9.020490944385528564e-02,3.852977603673934937e-02,5.385971069335937500e-02,2.261204719543457031e-01,-8.776023983955383301e-02,3.685581088066101074e-01,-2.196849323809146881e-02,9.897341951727867126e-03,-3.237855136394500732e-01,-1.582495272159576416e-01,2.732351422309875488e-01,8.283262699842453003e-02,9.200433641672134399e-02,-6.318379193544387817e-02,1.452295631170272827e-01,-3.511626720428466797e-01,2.982969284057617188e-01,2.818214939907193184e-03,-2.595812082290649414e-01,9.877430647611618042e-02,-1.410582810640335083e-01,-8.188226073980331421e-02,-8.651132881641387939e-02,-1.113082095980644226e-01,-3.556139767169952393e-01,-1.883575469255447388e-01,-9.379240125417709351e-02,-1.963881552219390869e-01,6.968396902084350586e-02,1.508621685206890106e-02,1.226581186056137085e-01,4.982037469744682312e-02,-6.943322718143463135e-02,-1.220774054527282715e-01,1.478596124798059464e-02,-3.285759389400482178e-01,-7.486756891012191772e-02,3.221722692251205444e-02,5.527665615081787109e-01,3.784751892089843750e-01,-1.647580228745937347e-02,-2.962582111358642578e-01,-2.997363209724426270e-01,4.635146632790565491e-02,-2.460220009088516235e-01,-8.716812357306480408e-03,4.136982262134552002e-01,-3.501809015870094299e-02,-6.703283637762069702e-02,-3.484876453876495361e-01,-3.342641294002532959e-01,-2.570561468601226807e-01,3.753094375133514404e-01,-1.735906451940536499e-01,2.911555767059326172e-01,-1.403382420539855957e-01,-9.179268777370452881e-02,2.808212302625179291e-02,-3.423716127872467041e-01,-2.986415326595306396e-01,-1.534597426652908325e-01,-8.869227953255176544e-03,1.367226392030715942e-01,-2.614931762218475342e-01,4.155458509922027588e-01,-3.270246982574462891e-01,-2.354853600263595581e-02,-2.588991224765777588e-01,-1.958655864000320435e-01,-3.580307960510253906e-01,-3.376495465636253357e-02,-4.117240607738494873e-01,-1.901201158761978149e-01,-1.334213018417358398e-01,-1.683335006237030029e-01,-4.382927343249320984e-02,-2.724852859973907471e-01,4.898533821105957031e-01,-2.211391627788543701e-01,-7.363934069871902466e-02,1.968827694654464722e-01,-3.192935585975646973e-01,-2.764560580253601074e-01,-3.568689227104187012e-01,-2.403632551431655884e-01,-1.802041828632354736e-01,-4.104515910148620605e-01,-2.293955385684967041e-01,2.723731398582458496e-01,-3.114557266235351562e-01,3.586108982563018799e-01,-2.132900506258010864e-01,1.559661626815795898e-01,2.381582856178283691e-01,-3.122359216213226318e-01,-3.143500387668609619e-01,-2.658260464668273926e-01,6.302075982093811035e-01,1.587618291378021240e-01,-3.344549834728240967e-01,-3.196749836206436157e-02,-3.140225410461425781e-01,-4.896574914455413818e-01,-9.506738930940628052e-02,-2.272890359163284302e-01,9.189579635858535767e-02,4.139690194278955460e-03,1.902533136308193207e-02,-4.206141456961631775e-02,3.342486917972564697e-01,4.142104387283325195e-01,5.085278749465942383e-01,1.765527129173278809e-01,1.696435362100601196e-01,-3.569605648517608643e-01,2.299327105283737183e-01,7.006920129060745239e-02,-1.367451548576354980e-01,-5.794997513294219971e-02,1.803480386734008789e-01,1.932675987482070923e-01,1.048098132014274597e-02,-8.549909293651580811e-02,-3.090882599353790283e-01,5.419520661234855652e-03,-8.988139033317565918e-02,2.143268436193466187e-01,4.354479908943176270e-02,-2.076620608568191528e-01,5.066694617271423340e-01,1.495897769927978516e-01,2.046839743852615356e-01,2.938229441642761230e-01,3.195042610168457031e-01,-5.208360031247138977e-02,3.584307134151458740e-01,-2.465637028217315674e-01,1.795047819614410400e-01,-5.799799785017967224e-02,1.334998756647109985e-01,1.970227621495723724e-02,6.985662132501602173e-02,3.597773015499114990e-01,-1.007160618901252747e-01,-2.582681598141789436e-03,3.161960840225219727e-01,2.192974835634231567e-01,-1.628746539354324341e-01,1.302583664655685425e-01,-1.397112756967544556e-01,3.377862274646759033e-02,-1.463998109102249146e-01,4.541621208190917969e-01,2.729219496250152588e-01,-5.353457927703857422e-01,4.923120886087417603e-02,-4.997844249010086060e-02,-2.177710533142089844e-01,3.423467874526977539e-01,-3.653689026832580566e-01,2.354704290628433228e-01,-1.106528341770172119e-01,1.037586852908134460e-01,2.876479737460613251e-02,1.371197551488876343e-01,3.941024839878082275e-01,1.875163465738296509e-01,1.432051509618759155e-01,2.845679819583892822e-01,-2.248242050409317017e-01,-3.227144479751586914e-01,-1.318140178918838501e-01,-2.239522337913513184e-01,-3.044843673706054688e-01,-2.941217459738254547e-02,-1.029128879308700562e-01,-9.458102285861968994e-02,-4.423823654651641846e-01,1.337478756904602051e-01,2.818199098110198975e-01,-2.690828442573547363e-01,-2.754801213741302490e-01,-1.762220561504364014e-01,1.573034971952438354e-01,-2.502333819866180420e-01,-6.771391723304986954e-03,-2.090530470013618469e-02,-2.090202718973159790e-01,2.064308375120162964e-01,3.310112953186035156e-01,3.584210872650146484e-01,2.805053591728210449e-01,5.542269721627235413e-02,2.038992196321487427e-01,5.080997571349143982e-02,-3.504649177193641663e-02,4.128333032131195068e-01,-2.715236246585845947e-01,1.902131438255310059e-01,1.650654971599578857e-01,1.020412147045135498e-01,1.873234957456588745e-01,-5.970803275704383850e-02,-6.168370135128498077e-03,2.654089033603668213e-02,2.493954449892044067e-02,2.827222347259521484e-01,-1.090757623314857483e-01,-8.680637925863265991e-02,2.420196235179901123e-01,3.624026477336883545e-01,-2.382100075483322144e-01,-4.182621091604232788e-02,3.461629748344421387e-01,2.363795600831508636e-02,2.847763001918792725e-01,-1.362082809209823608e-01,-1.414301097393035889e-01,-2.077016234397888184e-01,2.965999245643615723e-01,-5.932112783193588257e-02,-1.191703602671623230e-01,2.265583276748657227e-01,-1.390455365180969238e-01,2.638785541057586670e-01,3.540711700916290283e-01,-2.208264768123626709e-01,-2.436141483485698700e-02,2.796454131603240967e-01,1.827919334173202515e-01,-3.804565966129302979e-01,1.883400827646255493e-01,2.348482608795166016e-01,7.474030554294586182e-02,-1.536013633012771606e-01,3.124001324176788330e-01,6.812198460102081299e-02,-9.522430598735809326e-02,-4.513037502765655518e-01,2.472120672464370728e-01,-1.747799664735794067e-02,9.541399776935577393e-03,2.635476291179656982e-01,8.299234323203563690e-03,-1.760317534208297729e-01,-1.247191280126571655e-01,2.983378469944000244e-01,-2.446303069591522217e-01,1.372818946838378906e-01,2.404999285936355591e-01,-2.268793135881423950e-01,2.658849358558654785e-01,-2.288914024829864502e-01,1.219140216708183289e-01,2.488159537315368652e-01,1.193986460566520691e-01,-8.022208511829376221e-02,1.144793853163719177e-01,2.830716222524642944e-02,4.751286804676055908e-01,1.151133701205253601e-01,-3.606515824794769287e-01,4.380287528038024902e-01,1.190114840865135193e-01,2.068507950752973557e-03,-2.347190380096435547e-01,-2.812866270542144775e-01,2.118894271552562714e-02,2.838231921195983887e-01,1.378985047340393066e-01,2.040993869304656982e-01,-7.090283930301666260e-02,1.828374862670898438e-01,-1.014060154557228088e-01,3.912459313869476318e-01,-7.068261504173278809e-02,1.586116999387741089e-01,-2.688815630972385406e-02,-3.577511310577392578e-01,1.830878257751464844e-01,-1.609832793474197388e-01,1.201861128211021423e-01,3.224054118618369102e-03,2.679334580898284912e-01,-5.619534850120544434e-02,8.103309082798659801e-04,1.777302920818328857e-01,7.406028360128402710e-02,-2.495632171630859375e-01,-5.636740475893020630e-02,2.657501772046089172e-02,1.283091586083173752e-02,9.662961214780807495e-02,1.267263293266296387e-01,3.474355041980743408e-01,-1.975593119859695435e-01,-1.124733611941337585e-01,3.086361289024353027e-01,-9.943447262048721313e-02,1.552490741014480591e-01,-3.350112736225128174e-01,9.340714663267135620e-02,-3.228728771209716797e-01,-1.893399097025394440e-02,1.476286165416240692e-02,-3.427124619483947754e-01,6.809255480766296387e-02,1.135454699397087097e-01,1.204919591546058655e-01,2.781324982643127441e-01,-2.076853215694427490e-01,-6.114129442721605301e-03,1.980005502700805664e-01,1.495723575353622437e-01,-9.117028117179870605e-02,-2.557346820831298828e-01,-1.894890964031219482e-01,1.289484500885009766e-01,-1.703811138868331909e-01,4.187659546732902527e-02,2.515390217304229736e-01,-1.311447918415069580e-01,-2.085907608270645142e-01,1.957712471485137939e-01,2.681216299533843994e-01,2.756503820419311523e-01,1.513004004955291748e-01,1.403001695871353149e-01,-1.134234853088855743e-02,1.156614124774932861e-01,4.175579547882080078e-01,-5.036635994911193848e-01,1.253876537084579468e-01,1.532818675041198730e-01,-2.463412731885910034e-01,-6.823684275150299072e-02,-8.042964339256286621e-02,3.861350566148757935e-02,2.186935842037200928e-01,1.674966514110565186e-01,1.372689753770828247e-01,2.200378626585006714e-01,-1.328179240226745605e-01,2.065924108028411865e-01,-2.155317738652229309e-02,-9.613989852368831635e-03,2.779383063316345215e-01,3.863307833671569824e-01,-3.742029890418052673e-02,-1.925531029701232910e-01,-1.552032977342605591e-01,-8.158958703279495239e-02,1.244679279625415802e-02,-1.677062362432479858e-01,3.020911514759063721e-01,-1.362718790769577026e-01,2.182879298925399780e-01,-1.518068611621856689e-01,8.171499520540237427e-02,-2.118238806724548340e-01,-1.451740711927413940e-01,-2.938498556613922119e-01,3.088582120835781097e-02,-3.319449126720428467e-01,-2.546756295487284660e-03,-1.981562227010726929e-01,1.142995432019233704e-01,-3.410372436046600342e-01,-5.944929271936416626e-02,-1.666615754365921021e-01,2.111721932888031006e-01,4.342455416917800903e-02,-1.360888630151748657e-01,-1.589339524507522583e-01,1.067783460021018982e-01,1.986452564597129822e-02,-6.648270785808563232e-02,2.067893594503402710e-01,1.543875485658645630e-01,-3.005969524383544922e-01,1.196944937109947205e-01,-2.968230545520782471e-01,-2.311665564775466919e-01,1.761848181486129761e-01,-3.336248993873596191e-01,-8.807769976556301117e-03,2.668671011924743652e-01,-3.254263103008270264e-01,-5.512745678424835205e-02,-2.216253727674484253e-01,-2.162555754184722900e-01,2.280421853065490723e-01,-1.062193792313337326e-02,1.937344670295715332e-02,-1.261763423681259155e-01,2.000591009855270386e-01,-2.389573007822036743e-01,1.838737539947032928e-02,-3.131697773933410645e-01,-1.186935156583786011e-01,-3.356339037418365479e-01,4.607484638690948486e-01,-2.130905538797378540e-01,-5.039287731051445007e-02,-3.529085814952850342e-01,-3.576914072036743164e-01,-5.963659286499023438e-02,-2.345889359712600708e-01,9.296068549156188965e-02,-3.504465892910957336e-02,-6.583210080862045288e-02,3.883558213710784912e-01,-2.541830837726593018e-01,-2.811174094676971436e-01,-1.583642065525054932e-01,-3.681239187717437744e-01,-3.227276727557182312e-02,-1.699245870113372803e-01,-1.581460982561111450e-01,-6.006680801510810852e-02,-3.930534124374389648e-01,-1.424535214900970459e-01,1.583305299282073975e-01,4.221783578395843506e-02,-2.946258485317230225e-01,-1.619037799537181854e-02,-3.375144302845001221e-02,2.814638018608093262e-01,-2.044574916362762451e-01,-6.267998367547988892e-02,1.792906671762466431e-01,-6.369847804307937622e-02,3.903076648712158203e-01,-1.551475226879119873e-01,1.503356695175170898e-01,4.142921417951583862e-02,2.661712467670440674e-01,2.043929249048233032e-01,-7.476143538951873779e-02,-4.494068771600723267e-02,3.474720120429992676e-01,1.133031621575355530e-01,1.234906613826751709e-01,-8.033360540866851807e-02,7.258187234401702881e-02,5.063281208276748657e-02,8.810603618621826172e-02,1.236141026020050049e-01,-2.797676026821136475e-01,2.634665966033935547e-01,-2.842459641396999359e-02,-2.713408768177032471e-01,9.088379330933094025e-03,3.942028880119323730e-01,1.749152690172195435e-02,1.844704337418079376e-02,2.419695109128952026e-01,4.840692132711410522e-02,-3.077779114246368408e-01,1.810999661684036255e-01,1.847687512636184692e-01,3.840479850769042969e-01,-2.234672382473945618e-02,1.670403629541397095e-01,2.571274340152740479e-01,-1.970105767250061035e-01,-2.939997017383575439e-01,-1.522576361894607544e-01,1.271145343780517578e-01,3.735843300819396973e-02,1.796215325593948364e-01,-7.445273548364639282e-02,-1.677771210670471191e-01,2.485602200031280518e-01,2.734357714653015137e-01,1.779827624559402466e-01,-9.628240764141082764e-02,-7.901473343372344971e-02,2.945141494274139404e-01,-6.193746626377105713e-02,1.835749447345733643e-01,-1.114390492439270020e-01,2.080464214086532593e-01,4.766601920127868652e-01,-3.174885809421539307e-01,-1.690108627080917358e-01,1.169182881712913513e-01,3.266012668609619141e-01,-2.244083285331726074e-01,-1.839261353015899658e-01,-7.276017963886260986e-02,6.507419515401124954e-03,-1.745738685131072998e-01,3.387406170368194580e-01,-9.067602455615997314e-02,2.941209375858306885e-01,1.523616760969161987e-01,1.356177031993865967e-01,2.066697925329208374e-01,6.401035189628601074e-02,-2.348485141992568970e-01,2.813551127910614014e-01,1.187281161546707153e-01,3.937914967536926270e-02,2.466700673103332520e-01,3.086313419044017792e-02,4.132807552814483643e-01,1.307846903800964355e-01,-1.813717484474182129e-01,1.217883750796318054e-01,1.448843181133270264e-01,2.184429019689559937e-01,8.827955275774002075e-02,-7.872202247381210327e-02,2.755055725574493408e-01,9.636715054512023926e-02,6.432139873504638672e-02,-6.743554025888442993e-02,-1.623111218214035034e-01,2.251072376966476440e-01,1.653113365173339844e-01,-2.130653560161590576e-01,-2.606430649757385254e-01,-1.184410154819488525e-01,5.734596401453018188e-02,3.710057139396667480e-01,2.894445881247520447e-02,1.527389883995056152e-01,-5.516479536890983582e-02,-1.629845350980758667e-01,-2.181284874677658081e-01,1.717870086431503296e-01,2.216796129941940308e-01,-5.032894760370254517e-02,1.151535566896200180e-02,2.494300603866577148e-01,-3.116700351238250732e-01,3.365099430084228516e-02,-3.312231004238128662e-01,6.140185147523880005e-02,2.209639102220535278e-01,-2.714508585631847382e-02,-1.644751727581024170e-01,-1.920645236968994141e-01,-2.596207857131958008e-01,2.004785696044564247e-03,8.444764651358127594e-03,-6.049104407429695129e-02,1.509157270193099976e-01,-3.689457476139068604e-02,2.511592209339141846e-01,7.370041310787200928e-02,-2.138524204492568970e-01,-1.389181017875671387e-01,-3.251482546329498291e-02,2.398647665977478027e-01,1.555778682231903076e-01,-1.193471476435661316e-01,3.254426643252372742e-02,-3.329396247863769531e-01,-4.023174941539764404e-02,5.548357218503952026e-02,-1.635135561227798462e-01,1.011876016855239868e-01,3.188132345676422119e-01,-1.822037100791931152e-01,-1.834830828011035919e-02,-3.136495128273963928e-02,-4.903195798397064209e-02,-1.842115372419357300e-01,-6.362954527139663696e-02,5.252898484468460083e-02,5.947886407375335693e-02,-9.290632605552673340e-02,2.254885248839855194e-02,1.009482219815254211e-01,1.181110665202140808e-01,1.404628455638885498e-01,-1.005097180604934692e-01,-1.578814834356307983e-01,3.337743505835533142e-02,-2.151880413293838501e-01,-3.932860493659973145e-02,1.947070471942424774e-02,3.705343231558799744e-02,-4.445047676563262939e-02,1.799705787561833858e-03,1.952796280384063721e-01,1.366267204284667969e-01,2.481580674648284912e-01,1.049552634358406067e-01,-9.640230238437652588e-02,-1.092910617589950562e-01,-1.841967739164829254e-02,-1.516742855310440063e-01,2.168000787496566772e-01,-3.042436838150024414e-01,3.777477145195007324e-02,-2.383088469505310059e-01,-1.176945120096206665e-01,-1.169910132884979248e-01,-9.802587330341339111e-02,-2.743713855743408203e-01,1.975246220827102661e-01,5.212061479687690735e-02,-6.131117232143878937e-03,1.026675552129745483e-01,-2.889680303633213043e-02,-3.161804974079132080e-01,2.225707471370697021e-01,-4.889681041240692139e-01,3.305497765541076660e-01,-1.392778754234313965e-01,-2.374805323779582977e-02,3.270297497510910034e-02,1.617474555969238281e-01,3.417432308197021484e-01,-2.846916019916534424e-01,-3.385177850723266602e-01,1.084390208125114441e-01,-2.020814120769500732e-01,1.165858954191207886e-01,-1.742943525314331055e-01,-3.763053417205810547e-01,-1.909979134798049927e-01,1.177434101700782776e-01,-3.511982969939708710e-03,-1.892268955707550049e-01,-4.136980697512626648e-02,-1.010748669505119324e-01,-1.755165904760360718e-01,-2.270807921886444092e-01,-1.140572428703308105e-01,2.291194200515747070e-01,4.736205935478210449e-02,-1.576892435550689697e-01,-6.929188966751098633e-02,5.120556801557540894e-02,-3.922426328063011169e-02,-2.715579271316528320e-01,-1.718630194664001465e-01,-3.338974118232727051e-01,1.259059906005859375e-01,-2.250846847891807556e-02,-3.763021230697631836e-01,-2.537069618701934814e-01,-1.069107577204704285e-01,-2.767173051834106445e-01,-1.925534158945083618e-01,2.029316686093807220e-02,2.547602653503417969e-01,9.235323220491409302e-02,6.083768233656883240e-02,-3.031914532184600830e-01,7.436680793762207031e-02,-4.415084719657897949e-01,-1.430286169052124023e-01,-1.918104737997055054e-01,2.841235101222991943e-01,-3.167659044265747070e-01,-1.633059978485107422e-01,-2.213520854711532593e-01,-3.871187865734100342e-01,-2.703567147254943848e-01,-2.451524436473846436e-01,1.524410992860794067e-01,-1.378789693117141724e-01,5.689803138375282288e-02,1.126201897859573364e-01,1.128600686788558960e-01,-3.557897508144378662e-01,1.587987132370471954e-02,-3.421846777200698853e-02,8.241122215986251831e-02,-1.236698552966117859e-01,-2.589801251888275146e-01,2.142901420593261719e-01,-2.764130234718322754e-01,1.711057871580123901e-02,-9.840736538171768188e-02,2.496859282255172729e-01,1.515234708786010742e-01,-3.603420853614807129e-01,-1.872649639844894409e-01,-3.068132996559143066e-01,1.188341602683067322e-01,-1.541568785905838013e-01,8.021643757820129395e-02,-2.605873160064220428e-02,1.163939014077186584e-01,4.986765682697296143e-01,1.120053883641958237e-02,-9.879817068576812744e-02,-1.008636970072984695e-02,1.018209457397460938e-01,-5.585793778300285339e-02,-2.980431541800498962e-02,-1.751946508884429932e-01,2.784540653228759766e-01,-2.810068726539611816e-01,1.050567328929901123e-01,-1.768513321876525879e-01,1.966878771781921387e-01,-4.703511297702789307e-01,1.022070422768592834e-01,1.582492142915725708e-02,3.609940111637115479e-01,3.599580377340316772e-02,2.365884631872177124e-01,-2.550611197948455811e-01,-8.328098058700561523e-02,-4.661346226930618286e-02,3.044327795505523682e-01,2.624174058437347412e-01,-1.327519565820693970e-01,8.467186242341995239e-02,3.446151316165924072e-01,9.163425117731094360e-02,1.560307294130325317e-01,-1.220655813813209534e-01,-6.744179129600524902e-02,-6.509614735841751099e-02,2.210225313901901245e-01,-4.871712028980255127e-01,-2.648588418960571289e-01,4.294775798916816711e-02,-1.788037270307540894e-01,-1.163114383816719055e-01,-9.910413622856140137e-02,-1.126320138573646545e-01,1.370951533317565918e-01,1.115157827734947205e-01,-2.929273992776870728e-02,1.029840931296348572e-01,1.886581629514694214e-01,2.180151641368865967e-01,-3.497982630506157875e-03,2.547882497310638428e-01,1.253648698329925537e-01,-4.189412295818328857e-02,-1.939494907855987549e-01,-3.285702466964721680e-01,1.183975636959075928e-01,-5.735584720969200134e-02,-6.465526670217514038e-02,2.732051610946655273e-01,7.978698611259460449e-02,4.632426500320434570e-01,-2.030956931412220001e-02,9.982699155807495117e-02,1.880441457033157349e-01,1.475611329078674316e-01,5.806925147771835327e-02,-1.012167781591415405e-01,-2.074752002954483032e-01,-3.000359833240509033e-01,-2.260502427816390991e-01,-2.958001755177974701e-02,1.558503359556198120e-01,-2.678046934306621552e-02,-2.416475266218185425e-01,-5.504553392529487610e-02,-1.138675361871719360e-01,3.151540756225585938e-01,1.289252787828445435e-01,2.495878189802169800e-02,1.844792859628796577e-03,-7.008390873670578003e-02,1.018949747085571289e-01,3.557856380939483643e-01,-1.072309091687202454e-01,2.818286232650279999e-02,1.546759307384490967e-01,5.973967313766479492e-01,-2.028211578726768494e-02,2.157226949930191040e-02,-2.315892279148101807e-01,-6.396139413118362427e-02,9.785020351409912109e-02,7.740680873394012451e-02,4.044008553028106689e-01,9.280902147293090820e-02,-2.081901580095291138e-01,5.047473683953285217e-02,-1.316549926996231079e-01,-1.247860789299011230e-01,1.987619698047637939e-01,1.524190008640289307e-01,5.212534666061401367e-01,3.005195558071136475e-01,1.744505316019058228e-01,-9.638325124979019165e-02,-1.719555258750915527e-01,2.671893239021301270e-01,-3.240951336920261383e-04,1.280477941036224365e-01,-3.133719265460968018e-01,-6.372215598821640015e-02,1.889159679412841797e-01,-8.947875350713729858e-02,-3.712137043476104736e-01,-5.873773992061614990e-02,1.959451586008071899e-01,3.141377568244934082e-01,-2.407257705926895142e-01,2.728303372859954834e-01,-2.409804761409759521e-01,1.315790861845016479e-01,2.188954800367355347e-01,-1.394119411706924438e-01,6.087638065218925476e-02,2.884233295917510986e-01,4.157864153385162354e-01,-1.061787549406290054e-02,-1.913771331310272217e-01,6.793254613876342773e-02,-2.536128461360931396e-01,1.319696307182312012e-01,-2.487022131681442261e-01,2.170803695917129517e-01,7.226608693599700928e-02,8.203448355197906494e-02,6.905377656221389771e-02,5.293351132422685623e-03,5.121787637472152710e-02,-2.119307070970535278e-01,1.267786324024200439e-01,-3.289090692996978760e-01,3.468462824821472168e-01,-7.512038946151733398e-02,4.584742337465286255e-02,1.246561333537101746e-01,-4.570182263851165771e-01,3.577322363853454590e-01,1.750366538763046265e-01,-2.781862020492553711e-01,2.171292752027511597e-01,2.509962916374206543e-01,-3.625412285327911377e-01,3.326545655727386475e-01,9.661080688238143921e-02,7.593871653079986572e-02,6.523653864860534668e-02,3.973335325717926025e-01,4.148655533790588379e-01,3.180358111858367920e-01,2.195004820823669434e-01,1.195096895098686218e-01,1.583565473556518555e-01,1.302882432937622070e-01,3.197737038135528564e-01,9.491527080535888672e-02,-3.240218460559844971e-01,1.951247900724411011e-01,2.298994660377502441e-01,4.656839966773986816e-01,1.938637942075729370e-01,-7.477211952209472656e-02,-2.231583297252655029e-01,-2.966381311416625977e-01,1.621945947408676147e-01,2.598310112953186035e-01,3.004373311996459961e-01,1.127286478877067566e-01,-2.326937951147556305e-02,-3.260628283023834229e-01,-2.310240417718887329e-01,1.352606266736984253e-01,-2.435723990201950073e-01,-8.519929647445678711e-02,-9.014263004064559937e-02,2.315651923418045044e-01,-5.324277654290199280e-02,1.804142147302627563e-01,-3.888407722115516663e-02,-4.729758575558662415e-02,-7.554921507835388184e-02,1.313122510910034180e-01,2.798412553966045380e-02,-4.323358647525310516e-03,-3.521945774555206299e-01,-1.953463107347488403e-01,1.400917619466781616e-01,-1.208122968673706055e-01,-2.028186470270156860e-01,-2.009555101394653320e-01,3.881379961967468262e-01,-3.878595679998397827e-02,-7.488186657428741455e-02,1.076727826148271561e-02,-1.390793919563293457e-01,2.116468250751495361e-01,3.073809668421745300e-02,-4.390902221202850342e-01,-7.865393161773681641e-02,-3.478662669658660889e-01,2.530564963817596436e-01,2.840071916580200195e-01,-1.539483517408370972e-01,-4.828136041760444641e-02,1.647597998380661011e-01,2.045828551054000854e-01,-9.703788161277770996e-02,5.684854090213775635e-02,3.916374966502189636e-02,-8.396170288324356079e-02,-3.827231824398040771e-01,-4.734838753938674927e-02,2.149423360824584961e-01,2.568986713886260986e-01,1.620838344097137451e-01,9.110928326845169067e-02,1.528276652097702026e-01,1.264733374118804932e-01,-3.613930344581604004e-01,-2.301527261734008789e-01,-6.553874909877777100e-02,-1.581674367189407349e-01,2.584171593189239502e-01,2.207748219370841980e-02,-2.016490995883941650e-01,-1.078081689774990082e-02,-5.672346949577331543e-01,7.835675030946731567e-02,-2.927746772766113281e-01,5.452290773391723633e-01,5.182588472962379456e-02,4.735437631607055664e-01,1.781651377677917480e-01,1.297390609979629517e-01,-7.380875200033187866e-02,2.739366590976715088e-01,-1.780860722064971924e-01,-1.511241644620895386e-01,1.267227977514266968e-01,1.979082971811294556e-01,-4.384931325912475586e-01,-2.022296041250228882e-01,1.703188568353652954e-02,-2.576300501823425293e-01,-1.266862452030181885e-01,2.889850139617919922e-01,-2.761596739292144775e-01,-2.166123986244201660e-01,-2.143245562911033630e-02,2.915541529655456543e-01,-1.578819900751113892e-01,6.364888697862625122e-02,-1.334638614207506180e-02,3.638842403888702393e-01,8.307580649852752686e-02,1.930657178163528442e-01,4.694993048906326294e-02,-1.582988649606704712e-01,-1.935361325740814209e-01,2.794351577758789062e-01,2.918023467063903809e-01,-2.470960095524787903e-02,-2.525039017200469971e-01,-3.953855335712432861e-01,-1.942721456289291382e-01,1.261689513921737671e-01,3.474380671977996826e-01,2.638727426528930664e-01,-2.491013556718826294e-01,3.043694049119949341e-02,2.296232432126998901e-01,1.899145543575286865e-01,-2.219982743263244629e-01,1.704758405685424805e-01,1.585370302200317383e-01,4.949490129947662354e-01,-4.461325705051422119e-01,1.559711992740631104e-01,-1.119863018393516541e-01,-1.157221570611000061e-01,3.448112010955810547e-01,-2.030478715896606445e-01,-3.797240555286407471e-03,2.440047264099121094e-01,3.368037194013595581e-02,-3.532907366752624512e-02,1.149510219693183899e-01,-2.771635949611663818e-01,-2.676980793476104736e-01,-3.558623045682907104e-02,-1.629386991262435913e-01,1.142730936408042908e-01,-1.733851879835128784e-01,-6.235553324222564697e-02,-8.381007611751556396e-02,3.114666789770126343e-02,2.016828358173370361e-01,-4.567644000053405762e-01,-2.416702732443809509e-02,-1.476724166423082352e-02,-4.975319504737854004e-01,5.947860330343246460e-02,2.198797464370727539e-01,-2.177442014217376709e-01,-2.658352255821228027e-01,8.426032215356826782e-02,-7.287084311246871948e-02,-1.281440556049346924e-01,1.287080049514770508e-01,9.725084155797958374e-02,-1.352900415658950806e-01,2.024589180946350098e-01,1.072169467806816101e-02,-1.955368667840957642e-01,-8.245932310819625854e-02,-2.820431590080261230e-01,6.286498159170150757e-02,-3.218761384487152100e-01,3.748587146401405334e-02,-7.373446226119995117e-02,4.684138894081115723e-01,1.209879815578460693e-01,-1.253647953271865845e-01,-2.426104545593261719e-01,2.815726399421691895e-01,-2.997005879878997803e-01,-1.807069927453994751e-01,-2.473345398902893066e-01,-2.293392717838287354e-01,1.068376526236534119e-01,-8.630837500095367432e-02,-2.591147720813751221e-01,-1.301711201667785645e-01,3.005609512329101562e-01,-5.073530077934265137e-01,4.564655423164367676e-01,-6.539677083492279053e-02,-8.014815859496593475e-03,-2.212697416543960571e-01,-2.341317683458328247e-01,2.903582155704498291e-01,2.436440438032150269e-02,5.423529446125030518e-02,-1.366371661424636841e-01,1.355804502964019775e-01,-7.694710791110992432e-02,-8.097174763679504395e-02,-2.353323996067047119e-01,-2.964357137680053711e-01,-1.475688070058822632e-01,3.802628517150878906e-01,1.477100551128387451e-01,-1.171243027783930302e-03,-2.269325554370880127e-01,-1.302546858787536621e-01,-2.709788382053375244e-01,-9.513325244188308716e-02,2.099577933549880981e-01,1.173153170384466648e-03,3.228242993354797363e-01,-3.055155277252197266e-01,1.301525980234146118e-01,2.939690351486206055e-01,2.420090138912200928e-02,9.807158261537551880e-02,-1.768148839473724365e-01,5.389614030718803406e-03,-6.911861896514892578e-02,-1.277284175157546997e-01,-2.037394940853118896e-01,-6.372993439435958862e-02,-2.153296768665313721e-01,-3.838072344660758972e-02,-1.802189052104949951e-01,-2.390984147787094116e-01,1.544860750436782837e-01,4.690636321902275085e-02,-2.421414703130722046e-01,1.381558775901794434e-01,-3.455961048603057861e-01,5.997074767947196960e-02,-2.536862492561340332e-01,1.846030168235301971e-02,-4.012467265129089355e-01,-2.348239719867706299e-01,-7.660473883152008057e-02,-8.280077576637268066e-02,7.999068126082420349e-03,-2.844892069697380066e-02,4.105627164244651794e-02,-3.935514092445373535e-01,1.549478471279144287e-01,1.476708948612213135e-01,1.997028440237045288e-01,-9.333462268114089966e-02,1.413558274507522583e-01,-3.703657165169715881e-02,-2.723837494850158691e-01,7.585575804114341736e-03,-3.158415853977203369e-01,-1.093589812517166138e-01,-3.027981221675872803e-01,-9.878242854028940201e-04,-1.502319872379302979e-01,2.821290194988250732e-01,2.820939421653747559e-01,-3.377389311790466309e-01,-1.547118127346038818e-01,-1.534951478242874146e-01,1.093435436487197876e-01,-1.070056483149528503e-01,-4.828859120607376099e-02,-3.112578392028808594e-02,6.553634069859981537e-03,2.196419835090637207e-01,1.955889165401458740e-01,1.455261465162038803e-02,-1.549788564443588257e-01,-2.042581513524055481e-02,-9.445964545011520386e-02,-2.335681170225143433e-01,1.361258774995803833e-01,7.201730459928512573e-02,2.684800922870635986e-01,1.562443226575851440e-01,-7.619534432888031006e-02,2.710051275789737701e-02,2.856927923858165741e-02,-4.128620773553848267e-02,-5.665930509567260742e-01,1.716142520308494568e-02,-2.004125155508518219e-02,-3.546410202980041504e-01,7.586708664894104004e-02,3.717579543590545654e-01,-2.622688710689544678e-01,1.819671392440795898e-01,-3.138549923896789551e-01,-2.674950361251831055e-01,2.463159561157226562e-01,-9.863021224737167358e-02,-4.685451462864875793e-02,1.026018857955932617e-01,1.349368840456008911e-01,2.923935651779174805e-01,5.763307213783264160e-02,-1.499949395656585693e-01,3.118144869804382324e-01,-1.309550106525421143e-01,-1.428764313459396362e-01,7.067681290209293365e-03,-7.188364863395690918e-02,-2.932653427124023438e-01,1.449129730463027954e-01,2.596828937530517578e-01,-2.656364738941192627e-01,-3.717985451221466064e-01,4.250542819499969482e-01,4.167365431785583496e-01,-5.595596432685852051e-01,2.159223109483718872e-01,-8.943797647953033447e-02,-2.445593774318695068e-01,-3.155947625637054443e-01,8.716922253370285034e-02,1.028681248426437378e-01,1.633172780275344849e-01,-5.218126345425844193e-03,1.373176723718643188e-01,-3.993147313594818115e-01,3.925381898880004883e-01,-1.807098388671875000e-01,-1.582774519920349121e-01,3.477819859981536865e-01,-8.427792042493820190e-02,-3.735221326351165771e-01,5.845871195197105408e-02,2.057159543037414551e-01,8.154711127281188965e-02,-1.323026269674301147e-01,-4.472650289535522461e-01,-4.397560060024261475e-01,-6.288965791463851929e-02,-3.910330533981323242e-01,2.008058279752731323e-01,9.117132425308227539e-02,3.702875375747680664e-01,-4.390145540237426758e-01,3.018622696399688721e-01,-1.412989795207977295e-01,-4.616048932075500488e-01,-2.180371247231960297e-02,1.007174476981163025e-01,1.367396116256713867e-01,2.164039164781570435e-01,-1.497380435466766357e-01,-4.598088562488555908e-01,2.102095484733581543e-01,1.666771024465560913e-01,-1.398216336965560913e-01,-2.654076218605041504e-01,-2.698381543159484863e-01,-3.064821660518646240e-01,5.088255740702152252e-03,5.199362635612487793e-01,4.092523455619812012e-01,3.768860101699829102e-01,-4.104000031948089600e-01,7.413719594478607178e-02,-1.997559368610382080e-01,-2.991771996021270752e-01,-3.262305855751037598e-01,1.681797504425048828e-01,5.314724445343017578e-01,1.238358318805694580e-01,5.642737448215484619e-02,6.673953533172607422e-01,1.791451722383499146e-01,-2.251534909009933472e-01,-4.200922790914773941e-03,-4.615332186222076416e-01,-2.466564327478408813e-01,-1.816931515932083130e-01,-7.085574325174093246e-04,5.482163652777671814e-02,4.249728843569755554e-02,-3.396159410476684570e-01,5.628452822566032410e-02,3.077034652233123779e-01,4.963713288307189941e-01,-1.620869040489196777e-01,-3.228459879755973816e-02,-3.586508333683013916e-01,4.751368761062622070e-01,4.181177541613578796e-02,-1.591538824141025543e-02,3.690344989299774170e-01,-3.087396323680877686e-01,5.617431998252868652e-01,-3.237568959593772888e-02,-1.843388974666595459e-01,-2.320931851863861084e-01,-3.704795241355895996e-01,4.481013715267181396e-01,1.074638217687606812e-01,6.690168380737304688e-02,1.645277589559555054e-01,3.613167107105255127e-01,-2.852553725242614746e-01,7.483765482902526855e-02,-1.396638751029968262e-01,1.281921863555908203e-01,-1.923357993364334106e-01,8.514539338648319244e-03,-2.497178316116333008e-01,1.590833663940429688e-01,2.922955155372619629e-01,-2.523148953914642334e-01,-1.601478755474090576e-01,1.676457524299621582e-01,-1.922946125268936157e-01,3.395160734653472900e-01,2.795412838459014893e-01,3.904311954975128174e-01,3.865748941898345947e-01,-2.621461153030395508e-01,-2.727492153644561768e-01,-2.551328763365745544e-02,-1.528367050923407078e-03,-1.930065751075744629e-01,-4.232358336448669434e-01,2.547233104705810547e-01,-5.763460323214530945e-02,6.196010112762451172e-02,6.473846733570098877e-02,3.695233166217803955e-02,3.232281804084777832e-01,-1.812150776386260986e-01,-1.710801422595977783e-01,-2.000368945300579071e-02,-2.077838927507400513e-01,1.128680631518363953e-01,-1.219617351889610291e-01,-6.713995337486267090e-02,-4.038713872432708740e-01,-3.916838467121124268e-01,-1.869005262851715088e-01,2.243550308048725128e-02,5.338321328163146973e-01,1.929448693990707397e-01,-2.148766815662384033e-01,1.810368001461029053e-01,-8.068808913230895996e-02,9.548298083245754242e-03,-2.921523451805114746e-01,-1.333623975515365601e-01,-1.688370667397975922e-02,-9.351464360952377319e-02,-2.092676609754562378e-01,2.625189423561096191e-01,8.127386122941970825e-02,7.374327629804611206e-02,-3.455543518066406250e-01,1.296109557151794434e-01,-2.876808941364288330e-01,-2.228500694036483765e-01,-4.304491728544235229e-02,-2.112208455801010132e-01,-2.672995626926422119e-01,2.678494155406951904e-01,-4.578237235546112061e-01,6.562205404043197632e-02,6.966351717710494995e-02,1.847485154867172241e-01,-7.680147886276245117e-02,5.802070349454879761e-02,-2.580722272396087646e-01,1.626309379935264587e-02,-3.816276192665100098e-01,-1.322955824434757233e-02,8.996029943227767944e-02,-4.179457724094390869e-01,-7.431185245513916016e-02,-3.660766184329986572e-01,-2.017954885959625244e-01,-2.802445888519287109e-01,-2.261061370372772217e-01,1.409728974103927612e-01,-4.338585734367370605e-01,-9.278701990842819214e-02,-2.259170562028884888e-01,-2.504539787769317627e-01,-3.552929461002349854e-01,-2.983484882861375809e-03,3.501730039715766907e-02,-3.859300911426544189e-01,-4.070968553423881531e-02,-1.557973027229309082e-01,-3.472977876663208008e-01,-1.839421391487121582e-01,-6.422862061299383640e-04,-2.561429142951965332e-01,5.841625854372978210e-02,-9.424963593482971191e-02,3.701034560799598694e-02,4.824572503566741943e-01,-1.978110224008560181e-01,2.572211027145385742e-01,3.616527095437049866e-02,-7.212985306978225708e-03,-7.187653332948684692e-02,1.878273785114288330e-01,-2.884717844426631927e-02,3.318994538858532906e-03,-2.124754786491394043e-01,-1.844378188252449036e-02,-2.645876705646514893e-01,3.267079964280128479e-02,1.118010282516479492e-01,2.773959934711456299e-01,-4.452956616878509521e-01,-1.343684792518615723e-01,8.167734742164611816e-02,2.622739374637603760e-01,-7.912207394838333130e-02,-2.181572765111923218e-01,-1.135485693812370300e-01,-8.466059714555740356e-02,-1.817705929279327393e-01,-5.944171920418739319e-02,-1.094105318188667297e-01,-1.700752228498458862e-01,-1.720236539840698242e-01,-4.364898800849914551e-01,-5.720536410808563232e-02,-2.319235354661941528e-01,-7.512683421373367310e-02,-2.078127712011337280e-01,-1.020296886563301086e-01,8.093469589948654175e-02,-3.440187871456146240e-02,1.771062910556793213e-01,1.861909478902816772e-01,1.076757721602916718e-02,1.837194859981536865e-01,-1.826846748590469360e-01,-4.911565408110618591e-02,-4.073257371783256531e-02,-1.969825029373168945e-01,-1.889758408069610596e-01,-1.211792603135108948e-01,-2.462067157030105591e-01,2.950928509235382080e-01,-2.144361734390258789e-01,-1.263785362243652344e-01,-6.659658998250961304e-02,-2.029011398553848267e-01,-3.779378533363342285e-01,1.006568372249603271e-01,-2.126990854740142822e-01,-3.014259040355682373e-01,-1.543217003345489502e-01,-1.209038868546485901e-01,-2.816827595233917236e-01,-4.188369214534759521e-01,3.779659420251846313e-02,-8.787197619676589966e-02,-1.587073057889938354e-01,1.191887408494949341e-01,-2.833686470985412598e-01,-1.244930624961853027e-01,-7.615738082677125931e-03,8.072675019502639771e-02,-3.021698594093322754e-01,-1.823447644710540771e-01,-1.268416643142700195e-01,-1.755273342132568359e-01,-2.040966413915157318e-02,-1.384067237377166748e-01,1.132859066128730774e-01,-1.479409337043762207e-01,-1.233113631606101990e-01,-5.240879058837890625e-01,-3.389849364757537842e-01,6.112589687108993530e-02,-1.574256271123886108e-01,-1.152390465140342712e-01,4.251685440540313721e-01,9.161368012428283691e-03,-4.728528559207916260e-01,-4.260055422782897949e-01,-1.831700205802917480e-01,2.563306316733360291e-02,1.337251961231231689e-01,-2.807475030422210693e-01,-2.050449401140213013e-01,7.626848667860031128e-02,2.937522903084754944e-02,-1.204840540885925293e-01,6.551852822303771973e-02,1.344668716192245483e-01,2.233474701642990112e-01,-9.541820734739303589e-02,-1.312833130359649658e-01,-3.217048645019531250e-01,1.190130487084388733e-01,-3.149121105670928955e-01,-5.300600528717041016e-01,-1.068876311182975769e-01,4.639610350131988525e-01,1.540874987840652466e-01,3.042490184307098389e-01,1.471970081329345703e-01,9.255256503820419312e-02,-2.014317512512207031e-01,8.928598463535308838e-02,9.912189841270446777e-02,2.525637447834014893e-01,4.200285375118255615e-01,-3.192724585533142090e-01,-7.350349187618121505e-05,-2.704558335244655609e-02,3.194134831428527832e-01,-1.220912560820579529e-01,6.323180794715881348e-01,-1.334815174341201782e-01,1.469305008649826050e-01,-3.678188621997833252e-01,1.112738847732543945e-01,3.320843577384948730e-01,6.940088421106338501e-02,4.330382943153381348e-01,1.705317199230194092e-01,-1.904428899288177490e-01,-3.485362827777862549e-01,3.642501831054687500e-01,3.971283137798309326e-01,6.428486108779907227e-02,-2.253840118646621704e-02,2.722664177417755127e-02,-3.795080259442329407e-02,-9.108988195657730103e-02,-3.550498187541961670e-01,-1.751470565795898438e-01,-1.316746473312377930e-01,5.365874767303466797e-01,1.913523077964782715e-01,2.190993726253509521e-01,-2.780861258506774902e-01,9.609087556600570679e-02,4.717148542404174805e-01,8.234257996082305908e-02,-3.710958063602447510e-01,-7.712496072053909302e-02,1.164985373616218567e-01,-1.608546636998653412e-02,4.046959280967712402e-01,1.911675631999969482e-01,4.363410174846649170e-01,-1.102811917662620544e-01,-2.311259359121322632e-01,-2.875379920005798340e-01,2.231602370738983154e-02,-4.166535735130310059e-01,-2.756305634975433350e-01,-1.094967648386955261e-01,2.825394272804260254e-01,4.130133688449859619e-01,-1.793073862791061401e-01,9.978614747524261475e-02,-7.132416963577270508e-02,3.671881854534149170e-01,7.199651747941970825e-02,8.014956116676330566e-02,8.634111285209655762e-02,-9.196380525827407837e-02,9.421818703413009644e-02,-5.445672869682312012e-01,-3.545327484607696533e-01,-1.555752307176589966e-01,3.455927073955535889e-01,2.242300212383270264e-01,2.025904208421707153e-01,-2.077368795871734619e-01,1.990550570189952850e-02,5.084037780761718750e-01,-2.851483523845672607e-01,-4.551531076431274414e-01,3.672321736812591553e-01,1.692082285881042480e-01,4.062126576900482178e-01,5.682088807225227356e-02,-1.301562637090682983e-01,-1.193165257573127747e-01,1.276128739118576050e-01,-1.473430246114730835e-01,4.710117354989051819e-02,-3.400441408157348633e-01,1.360575556755065918e-01,-3.007595539093017578e-01,9.166244417428970337e-02,7.733169011771678925e-03,8.790852129459381104e-02,-1.311986297369003296e-01,-3.839826676994562149e-03,7.888919115066528320e-02,-1.109431833028793335e-01,-3.100900948047637939e-01,2.090093046426773071e-01,3.980992138385772705e-01,3.616022765636444092e-01,4.223686158657073975e-01,1.121178492903709412e-01,-1.877276748418807983e-01,-6.791431456804275513e-02,-6.546464562416076660e-02,-1.732390187680721283e-02,2.935212478041648865e-02,6.379042565822601318e-02,-1.110236048698425293e-01,3.436511754989624023e-01,-5.739375948905944824e-02,-1.860950887203216553e-01,2.377934055402874947e-03,3.569938540458679199e-01,1.558043807744979858e-01,1.607000827789306641e-01,9.151971340179443359e-02,-4.310232102870941162e-01,4.379651546478271484e-01,-1.038643568754196167e-01,-2.115546613931655884e-01,-4.225644469261169434e-02,-3.183571398258209229e-01,3.231588006019592285e-01,6.113561615347862244e-02,-8.341254293918609619e-02,-2.482853531837463379e-01,-1.570243537425994873e-01,2.052073553204536438e-02,-1.368762105703353882e-01,1.520559191703796387e-01,-3.324566781520843506e-02,2.763899862766265869e-01,-2.423409186303615570e-02,-1.168758347630500793e-01,-2.405632734298706055e-01,-8.039372973144054413e-03,2.218010723590850830e-01,2.794385850429534912e-01,2.750623412430286407e-02,4.231397509574890137e-01,1.783445924520492554e-01,7.203222811222076416e-02,2.413152307271957397e-01,2.440064251422882080e-01,-1.358455717563629150e-01,4.566618055105209351e-02,2.598263025283813477e-01,2.480381913483142853e-02,2.730668783187866211e-01,-5.012454837560653687e-02,2.244243025779724121e-01,6.568086147308349609e-02,-6.774085015058517456e-02,-3.543344512581825256e-02,-2.942701280117034912e-01,7.534180581569671631e-02,-3.116537630558013916e-01,1.249469295144081116e-01,1.247971877455711365e-02,2.881055772304534912e-01,3.776764869689941406e-01,-1.073074266314506531e-01,-3.998066484928131104e-02,-2.767092585563659668e-01,-2.311913520097732544e-01,-2.072902768850326538e-01,9.444215893745422363e-02,-1.849523559212684631e-02,-1.879996657371520996e-01,-3.390815556049346924e-01,8.088830113410949707e-02,-2.006069570779800415e-02,1.145597547292709351e-01,-2.438379824161529541e-01,1.249409615993499756e-01,2.067291177809238434e-02,-2.008199095726013184e-01,4.571719618979841471e-04,-1.366125792264938354e-01,-2.492956817150115967e-01,2.972375042736530304e-02,1.824074387550354004e-01,2.382644414901733398e-01,6.492132544517517090e-01,1.088362410664558411e-01,-1.488230526447296143e-01,-2.617770135402679443e-01,1.158246994018554688e-01,-4.643976688385009766e-02,1.241629347205162048e-01,-1.355846077203750610e-01,1.297398209571838379e-01,3.582620918750762939e-01,5.887925997376441956e-02,-1.568093746900558472e-01,-6.540007889270782471e-02,2.923241257667541504e-01,9.042518585920333862e-02,1.119833886623382568e-01,1.037949696183204651e-01,-2.575448453426361084e-01,-4.588090628385543823e-02,-5.078751444816589355e-01,-1.795399188995361328e-01,1.927284002304077148e-01,-4.055216312408447266e-01,7.020799815654754639e-02,6.770024448633193970e-02,-3.344649914652109146e-03,-2.261841148138046265e-01,1.253008544445037842e-01,-9.655328094959259033e-02,-8.156378567218780518e-02,-1.322589814662933350e-01,-1.861101984977722168e-01,3.230886459350585938e-01,-2.781904637813568115e-01,3.839029669761657715e-01,-1.750770062208175659e-01,-1.844924390316009521e-01,1.474909484386444092e-01,1.415305882692337036e-01,-1.303497850894927979e-01,1.501054465770721436e-01,-3.968496993184089661e-02,-3.565537929534912109e-01,1.795479096472263336e-02,-3.261886909604072571e-02,-1.493264436721801758e-01,-1.087692454457283020e-01,2.425436675548553467e-01,-1.036035120487213135e-01,1.106227263808250427e-01,2.507455833256244659e-02,4.349779337644577026e-02,1.375047713518142700e-01,-1.449084132909774780e-01,-7.755859196186065674e-02,4.078560695052146912e-02,-2.705156244337558746e-02,-3.867715224623680115e-02,8.056332170963287354e-02,-1.063271835446357727e-01,-9.235442429780960083e-02,6.057141721248626709e-02,-2.287837415933609009e-01,-7.823751121759414673e-02,1.369072049856185913e-01,2.261281758546829224e-01,5.916363000869750977e-02,2.480374574661254883e-01,3.297831863164901733e-02,2.363931983709335327e-01,1.626232266426086426e-01,5.292373150587081909e-02,7.964461296796798706e-02,2.151611894369125366e-01,2.968666329979896545e-02,-3.842863067984580994e-02,-1.080136597156524658e-01,2.719048596918582916e-02,6.324907299131155014e-04,-1.125282868742942810e-01,2.698757052421569824e-01,2.753703594207763672e-01,1.228029578924179077e-01,1.506140381097793579e-01,2.074193805456161499e-01,9.274365007877349854e-02,2.297284305095672607e-01,2.008110582828521729e-01,2.627230286598205566e-01,4.041318595409393311e-02,2.448890060186386108e-01,1.899632513523101807e-01,1.809908598661422729e-01,1.963455975055694580e-01,3.055170476436614990e-01,2.793085575103759766e-02,1.605229079723358154e-01,2.671795785427093506e-01,1.973305642604827881e-01,-2.004917114973068237e-01,1.094082295894622803e-01,2.084998637437820435e-01,1.284627765417098999e-01,2.398048937320709229e-01,-6.751019507646560669e-02,-4.301417246460914612e-02,2.402820587158203125e-01,-4.685234278440475464e-02,1.256654113531112671e-01,1.231830194592475891e-01,1.525896191596984863e-01,2.965673804283142090e-01,2.820367515087127686e-01,2.436458319425582886e-01,1.052044406533241272e-01,2.024190872907638550e-01,5.495903268456459045e-02,-8.523440361022949219e-02,1.866133660078048706e-01,3.594293892383575439e-01,2.221627086400985718e-01,6.782720237970352173e-02,1.304291784763336182e-01,-5.422303825616836548e-02,2.607951462268829346e-01,3.549256548285484314e-02,-4.886798560619354248e-02,1.430484354496002197e-01,-8.422274142503738403e-02,2.243768610060214996e-02,-8.813309483230113983e-03,1.892215013504028320e-02,2.016903907060623169e-01,1.834284216165542603e-01,1.406600773334503174e-01,1.853088885545730591e-01,-4.469584673643112183e-02,1.455288678407669067e-01,2.921448051929473877e-01,6.250133365392684937e-02,2.313906699419021606e-01,2.554678171873092651e-02,2.729450166225433350e-01,-9.774456731975078583e-03,3.101570606231689453e-01,6.697022169828414917e-02,9.211842715740203857e-02,-9.366345405578613281e-02,4.893178343772888184e-01,1.066171005368232727e-01,-1.351024806499481201e-01,-3.653785288333892822e-01,-3.326888382434844971e-01,1.639413833618164062e-01,1.244846358895301819e-01,2.610556185245513916e-01,1.646884381771087646e-01,2.639303207397460938e-01,-2.171710133552551270e-02,-4.589319527149200439e-01,-6.591144017875194550e-03,-2.231176756322383881e-02,-2.162958383560180664e-01,2.159570455551147461e-01,3.101726770401000977e-01,-6.809512525796890259e-02,-7.187046110630035400e-02,-1.344729214906692505e-01,-2.472706735134124756e-01,-1.055670380592346191e-01,-8.971139043569564819e-02,2.216576039791107178e-01,3.435654938220977783e-02,1.870097517967224121e-01,5.573169887065887451e-02,7.663592696189880371e-02,-1.397183388471603394e-01,7.096778135746717453e-03,2.962292730808258057e-01,1.465002596378326416e-01,1.662140935659408569e-01,-2.686381638050079346e-01,-1.771686971187591553e-01,2.892586588859558105e-01,2.314227521419525146e-01,8.307877928018569946e-02,-4.424364864826202393e-01,3.943596407771110535e-02,-1.306481659412384033e-01,-9.788145124912261963e-02,2.709229886531829834e-01,-5.596954226493835449e-01,-8.405261486768722534e-02,2.210837900638580322e-01,1.494498699903488159e-01,3.900261223316192627e-02,1.740083545446395874e-01,6.279596127569675446e-04,8.191196247935295105e-03,-1.196769624948501587e-01,-9.467011690139770508e-02,6.268918514251708984e-02,2.171419411897659302e-01,1.410221457481384277e-01,3.824870288372039795e-02,-1.870440244674682617e-01,1.146835088729858398e-01,-2.873886823654174805e-01,-2.075915038585662842e-01,-1.790534406900405884e-01,-3.890526667237281799e-02,6.151169538497924805e-02,-1.873123496770858765e-01,1.693208664655685425e-01,-1.325728092342615128e-02,-4.840251803398132324e-01,2.394632548093795776e-01,7.443225476890802383e-03,4.733419120311737061e-01,3.091689944267272949e-01,3.131901323795318604e-01,-7.810328155755996704e-02,9.446353465318679810e-02,2.583790421485900879e-01,2.988057136535644531e-01,1.684305518865585327e-01,6.203877180814743042e-02,3.551208078861236572e-01,2.022335231304168701e-01,-8.149248361587524414e-02,2.685745060443878174e-01,-2.666819393634796143e-01,2.711414732038974762e-02,2.288638502359390259e-01,1.731459237635135651e-02,-4.065478220582008362e-02,1.478314697742462158e-01,2.446700930595397949e-01,-2.316590100526809692e-01,3.142781555652618408e-01,-1.853440701961517334e-01,3.045185506343841553e-01,3.575187921524047852e-02,1.462619006633758545e-01,2.915933355689048767e-02,-6.315283179283142090e-01,3.185837864875793457e-01,1.821441948413848877e-01,-3.864746540784835815e-02,3.246344327926635742e-01,2.577616572380065918e-01,-8.880332112312316895e-02,-4.585216566920280457e-02,1.845699697732925415e-01,2.145792096853256226e-01,-2.088841050863265991e-01,3.070887923240661621e-01,-2.315025478601455688e-01,2.292242050170898438e-01,-9.442846290767192841e-03,6.246926262974739075e-02,1.777650117874145508e-01,-8.277776837348937988e-02,-1.627239137887954712e-01,-1.224070712924003601e-01,2.576457560062408447e-01,2.250435799360275269e-01,-2.133794724941253662e-01,1.144519597291946411e-01,-9.177397191524505615e-02,2.007025629281997681e-01,8.167030662298202515e-02,2.770576477050781250e-01,9.298170357942581177e-02,-2.886544540524482727e-02,2.695152163505554199e-01,-3.683876991271972656e-02,1.257515698671340942e-01,-1.122895032167434692e-01,6.563263386487960815e-02,3.948661088943481445e-01,5.471559613943099976e-02,2.264802455902099609e-01,1.268922686576843262e-01,5.356599763035774231e-02,1.721025258302688599e-01,3.363591134548187256e-01,-7.525878399610519409e-02,8.760406821966171265e-02,2.345760315656661987e-01,-1.314539834856987000e-02,-5.070887133479118347e-02,-1.372900754213333130e-01,2.075751870870590210e-01,-2.928789556026458740e-01,2.991963326930999756e-01,2.812219411134719849e-02,-5.041778087615966797e-01,4.863521829247474670e-02,2.243546396493911743e-01,-2.009009569883346558e-01,-8.697573095560073853e-02,9.679712355136871338e-02,3.333204984664916992e-01,3.641340434551239014e-01,2.029192075133323669e-02,7.894010096788406372e-02,-1.385306864976882935e-01,7.316874805837869644e-03,1.405562926083803177e-02,2.405968457460403442e-01,1.980213224887847900e-01,3.409213125705718994e-01,1.066332012414932251e-01,-7.139474153518676758e-02,1.066552549600601196e-01,5.475708749145269394e-03,-9.908584877848625183e-03,1.362765878438949585e-01,-1.309665590524673462e-01,2.604679167270660400e-01,2.913354933261871338e-01,1.767424643039703369e-01,-1.133769601583480835e-01,2.598309218883514404e-01,3.205915540456771851e-02,-5.394472181797027588e-02,1.243017837405204773e-01,1.344978809356689453e-01,1.873098313808441162e-01,1.897570937871932983e-01,2.520700395107269287e-01,1.809173524379730225e-01,1.321309059858322144e-01,1.644911170005798340e-01,-9.495430276729166508e-04,-4.115600585937500000e-01,3.057956397533416748e-01,2.983956634998321533e-01,1.535872183740139008e-02,2.783442735671997070e-01,-6.011294201016426086e-02,1.263198703527450562e-01,-8.301515132188796997e-02,2.529771253466606140e-02,3.028616495430469513e-02,-4.983656108379364014e-02,3.196976780891418457e-01,4.320420920848846436e-01,1.285515874624252319e-01,-2.755313180387020111e-02,2.303117513656616211e-01,2.887110114097595215e-01,4.597736001014709473e-01,1.493024826049804688e-01,4.338718652725219727e-01,7.391361892223358154e-02,1.656747907400131226e-01,7.142037153244018555e-02,-1.509241163730621338e-01,-8.365558460354804993e-03,3.587526381015777588e-01,4.611418023705482483e-02,-1.558038406074047089e-02,4.222881793975830078e-01,1.514393091201782227e-01,1.620507687330245972e-01,6.300561875104904175e-02,-1.548890024423599243e-01,3.593285381793975830e-02,-8.682119846343994141e-02,-2.607099339365959167e-02,1.601466387510299683e-01,-1.653376221656799316e-01,-9.924159198999404907e-02,1.025492772459983826e-01,3.339438885450363159e-02,2.501633167266845703e-01,3.101554512977600098e-01,1.458839774131774902e-01,-2.991567924618721008e-02,2.086157649755477905e-01,-5.086414050310850143e-03,-2.257651882246136665e-03,4.260521382093429565e-02,1.310235541313886642e-02,1.646565198898315430e-01,-1.406497061252593994e-01,-5.591244250535964966e-02,3.277218937873840332e-01,-1.050841733813285828e-01,5.844095349311828613e-02,-1.336957365274429321e-01,6.873931735754013062e-02,7.528795301914215088e-02,1.563030853867530823e-02,-3.000458888709545135e-02,9.493191540241241455e-02,1.176419034600257874e-01,6.283930689096450806e-02,-3.721712902188301086e-02,1.594101935625076294e-01,-1.683376729488372803e-01,1.253047436475753784e-01,-4.236420616507530212e-02,2.888597548007965088e-02,1.118364110589027405e-01,8.516744710505008698e-03,-1.869070380926132202e-01,-3.797636628150939941e-01,-1.680492013692855835e-01,-7.289674878120422363e-02,-3.830883279442787170e-02,1.578052155673503876e-02,2.561213076114654541e-01,8.415037766098976135e-03,-6.399217993021011353e-02,2.350492626428604126e-01,-1.743600517511367798e-01,5.915741249918937683e-02,-1.776068508625030518e-01,4.795723780989646912e-02,8.458825200796127319e-02,-2.800517976284027100e-01,7.619410008192062378e-02,-4.139442369341850281e-02,-1.524640917778015137e-01,3.620159626007080078e-02,-7.283288240432739258e-02,2.922110855579376221e-01,-2.329655140638351440e-01,1.596728265285491943e-01,9.730540961027145386e-02,-1.654396206140518188e-02,-3.934822380542755127e-01,2.099072039127349854e-01,-1.238377094268798828e-01,9.249427169561386108e-02,2.599983513355255127e-01,1.520139817148447037e-02,1.772185205481946468e-03,-7.538171857595443726e-02,1.701896935701370239e-01,4.411055147647857666e-02,-5.919598042964935303e-02,-1.130454689264297485e-01,1.995755285024642944e-01,1.229489147663116455e-01,-3.628594428300857544e-02,1.972077190876007080e-01,1.273968368768692017e-01,2.684922218322753906e-01,1.245525553822517395e-01,-7.326386868953704834e-02,-1.684350073337554932e-01,1.669920384883880615e-01,