8.100055158138275146e-02,1.372609585523605347e-01,1.398591324687004089e-02,5.306356027722358704e-02,3.723198547959327698e-02,-3.873873502016067505e-02,-5.740494281053543091e-02,-1.335050314664840698e-01,-4.579264670610427856e-02,-1.464939024299383163e-02,-2.728282287716865540e-02,-1.004224270582199097e-01,-6.584906578063964844e-02,-3.881349042057991028e-02,-6.495244801044464111e-02,3.465394023805856705e-03,-3.511323407292366028e-02,-5.948060378432273865e-02,6.153766065835952759e-02,6.261461228132247925e-02,-7.120619714260101318e-02,-4.442932829260826111e-02,-5.824833735823631287e-02,-4.443394765257835388e-02,-2.480676025152206421e-02,1.160439029335975647e-01,-7.178028672933578491e-02,-2.910520322620868683e-02,-7.063455134630203247e-02,1.485074317315593362e-04,-2.787824161350727081e-02,2.817771583795547485e-02,2.920417860150337219e-02,8.212004788219928741e-03,1.791418762877583504e-03,2.745657786726951599e-02,-1.382643124088644981e-03,-7.578237354755401611e-02,-1.119956448674201965e-01,5.554021801799535751e-03,-2.305690757930278778e-02,-8.453388512134552002e-02,-3.606658056378364563e-02,-6.367788650095462799e-03,1.711863465607166290e-02,-1.707010902464389801e-02,-1.100901234894990921e-02,1.015610098838806152e-01,2.265316061675548553e-02,-5.659392103552818298e-02,-6.467716395854949951e-02,-2.542622387409210205e-03,-1.744566857814788818e-02,7.147609442472457886e-02,-9.281644970178604126e-02,4.445146769285202026e-02,-2.650584653019905090e-02,2.331575006246566772e-02,4.278971254825592041e-02,-4.021437093615531921e-02,