3.975900635123252869e-02,-6.061227060854434967e-03,4.518122971057891846e-02,-4.783248156309127808e-02,1.067203208804130554e-01,-3.846694156527519226e-02,-5.714084208011627197e-02,1.390946358442306519e-01,-2.135198190808296204e-02,9.952114522457122803e-02,1.240473166108131409e-01,-6.426534801721572876e-02,-4.200999159365892410e-03,-1.822390034794807434e-02,-3.805531188845634460e-02,6.598575413227081299e-02,-3.450328111648559570e-02,6.601008027791976929e-02,9.058991819620132446e-02,3.788455948233604431e-02,-5.134442448616027832e-02,7.255725562572479248e-02,-9.430104494094848633e-02,5.324670672416687012e-02,-1.150086969137191772e-01,-2.039345167577266693e-02,-1.150402519851922989e-02,-4.809165373444557190e-02,2.219506055116653442e-01,-1.072194986045360565e-02,1.432384848594665527e-01,2.337972074747085571e-01,1.799274086952209473e-01,-1.359784044325351715e-02,-1.551284641027450562e-01,1.295847147703170776e-01,4.792455583810806274e-02,1.050652004778385162e-02,1.522008776664733887e-01,6.215627491474151611e-02,-2.230201847851276398e-02,6.294393539428710938e-02,3.020243532955646515e-02,4.199322313070297241e-02,1.299022138118743896e-01,8.999262750148773193e-02,9.688603132963180542e-02,-1.006540749222040176e-02,3.660798072814941406e-02,-3.784995153546333313e-02,2.436431497335433960e-02,2.917879633605480194e-02,1.155973598361015320e-01,9.889495372772216797e-02,-1.294360160827636719e-01,1.690196618437767029e-02,-1.635380983352661133e-01,-5.729768052697181702e-02,6.217114627361297607e-02,-1.365218032151460648e-02,-1.302175223827362061e-01,-2.107895761728286743e-01,-1.875945031642913818e-01,3.128986433148384094e-02,-3.901250287890434265e-02,3.104673698544502258e-02,-1.562779694795608521e-01,-2.533665485680103302e-02,-1.363991200923919678e-01,-2.018315941095352173e-01,-3.959862887859344482e-02,5.389126390218734741e-02,3.974945470690727234e-02,-1.807297170162200928e-01,-3.135117143392562866e-02,5.869969725608825684e-02,-1.276326365768909454e-02,7.590929418802261353e-02,-2.723747305572032928e-02,4.710246250033378601e-02,-1.675232052803039551e-01,-9.791021235287189484e-03,3.248067572712898254e-02,7.479961216449737549e-02,-3.851702064275741577e-02,-4.749440401792526245e-02,-1.274795234203338623e-01,1.856813952326774597e-02,2.457693044561892748e-04,4.809844773262739182e-03,-2.406428381800651550e-02,1.397704631090164185e-01,1.082320511341094971e-01,-8.719348907470703125e-02,3.996274620294570923e-02,1.278195437043905258e-02,-1.999022811651229858e-01,-2.723778784275054932e-02,1.398616284132003784e-01,1.384449899196624756e-01,-7.301425188779830933e-02,-1.193389371037483215e-01,-8.539854735136032104e-02,-9.001009911298751831e-02,-5.602602288126945496e-02,9.192728251218795776e-02,-1.924759298563003540e-01,-5.962802842259407043e-02,-1.604305207729339600e-01,-3.633858636021614075e-03,1.195616275072097778e-01,-1.147787794470787048e-01,5.670488253235816956e-02,-4.207985103130340576e-02,-8.314400166273117065e-02,-2.534033358097076416e-01,-4.239144176244735718e-02,3.684229403734207153e-02,-1.108773518353700638e-02,-7.942917756736278534e-03,-2.395211718976497650e-02,1.257446110248565674e-01,-9.423856437206268311e-02,-8.931739628314971924e-02,-3.876260668039321899e-02,-2.313793599605560303e-01,-3.549557551741600037e-02,1.501318067312240601e-02,-9.789961576461791992e-02,7.930838316679000854e-02,-1.589487195014953613e-01,-1.821274161338806152e-01,-6.425638496875762939e-02,1.999267190694808960e-01,-5.888721346855163574e-02,4.009338468313217163e-02,-1.324674487113952637e-01,1.218691989779472351e-01,-9.359048306941986084e-02,-2.459929697215557098e-02,-3.174259513616561890e-02,-1.784543395042419434e-01,-4.327462520450353622e-03,-8.294390887022018433e-02,6.312832981348037720e-02,-6.955417245626449585e-02,7.737523317337036133e-02,-1.847350448369979858e-01,-1.933210492134094238e-01,-5.638305470347404480e-02,2.806765399873256683e-02,-2.262936830520629883e-01,1.782958060503005981e-01,1.556397974491119385e-01,-1.219196710735559464e-02,-1.067835465073585510e-01,-7.556156069040298462e-02,1.185367628931999207e-01,-6.250694394111633301e-02,5.438257753849029541e-02,1.583144068717956543e-01,2.146420329809188843e-01,-4.927398636937141418e-02,1.713509857654571533e-01,-1.066180765628814697e-01,-1.048531159758567810e-01,-9.117912501096725464e-02,4.938956350088119507e-02,-1.076853424310684204e-01,4.004330560564994812e-02,-1.207993924617767334e-01,-3.855347260832786560e-02,-3.939204290509223938e-02,-1.648658812046051025e-01,-1.318537443876266479e-01,-1.560127884149551392e-01,1.148786954581737518e-02,2.298000454902648926e-02,-3.451050817966461182e-02,-1.078775897622108459e-01,4.468676447868347168e-02,-2.737582474946975708e-02,2.261041104793548584e-02,7.989118248224258423e-02,2.131457254290580750e-02,-1.032140329480171204e-01,4.701453074812889099e-02,1.333705801516771317e-02,-1.310757398605346680e-01,1.829810142517089844e-01,1.309740394353866577e-01,-2.560924887657165527e-01,6.203989312052726746e-02,-1.608579456806182861e-01,-1.514068990945816040e-02,7.075485587120056152e-02,4.463770426809787750e-03,-4.714337736368179321e-02,9.779918193817138672e-02,-4.593789950013160706e-02,1.119833812117576599e-01,-6.846915930509567261e-02,1.381159424781799316e-01,5.628252774477005005e-02,-2.819836698472499847e-02,1.031192690134048462e-01,2.452072128653526306e-02,2.285234481096267700e-01,-1.396049745380878448e-02,7.402287423610687256e-02,-2.299519181251525879e-01,1.166901886463165283e-01,1.092973276972770691e-01,-9.959252551198005676e-03,-1.354314982891082764e-01,4.953180998563766479e-02,-2.054146379232406616e-01,4.743371531367301941e-02,5.089347437024116516e-02,-2.785999514162540436e-02,-9.050581604242324829e-02,6.420785933732986450e-02,3.097384609282016754e-02,8.834484964609146118e-02,6.784830708056688309e-03,2.488058619201183319e-02,-6.130107492208480835e-02,-1.013137516565620899e-03,-5.042248405516147614e-03,-4.660758748650550842e-02,-1.659226119518280029e-01,-5.954292416572570801e-02,3.649890422821044922e-01,8.888336271047592163e-02,1.773539483547210693e-01,8.313036710023880005e-02,1.095171421766281128e-01,7.299491018056869507e-02,-1.131205856800079346e-01,-5.179451406002044678e-02,-3.747440502047538757e-02,8.212780952453613281e-02,-1.662237644195556641e-01,6.410997360944747925e-02,-8.290982246398925781e-02,-6.762523204088211060e-02,2.123012989759445190e-01,-1.663707345724105835e-01,1.158281490206718445e-01,7.258892059326171875e-02,-1.882325261831283569e-01,3.301293402910232544e-02,7.282835245132446289e-02,-2.464847862720489502e-01,5.552197247743606567e-02,-1.232589557766914368e-01,7.076048851013183594e-02,-1.035097315907478333e-01,1.668210700154304504e-02,-4.261862486600875854e-02,-1.409560628235340118e-02,-5.687274411320686340e-02,-3.971289470791816711e-02,-6.751958280801773071e-02,-7.290099561214447021e-02,-2.651474997401237488e-02,4.137915745377540588e-02,-1.279839426279067993e-01,-4.984091967344284058e-03,1.199792847037315369e-01,-2.162697911262512207e-01,1.208007484674453735e-01,-1.396692395210266113e-01,4.231803491711616516e-02,-1.543433684855699539e-02,-2.868339046835899353e-02,-8.738921582698822021e-02,-8.856899291276931763e-02,-2.435010857880115509e-02,-5.904150381684303284e-02,1.580966860055923462e-01,2.546705603599548340e-01,4.963764175772666931e-02,9.116144850850105286e-03,-7.114379853010177612e-02,-5.742919817566871643e-02,-2.122255414724349976e-01,-2.001565694808959961e-02,-1.348157078027725220e-01,4.488055780529975891e-02,-1.429653018712997437e-01,1.074487436562776566e-02,3.493159078061580658e-03,1.885868310928344727e-01,8.603531867265701294e-02,-2.162848599255084991e-02,-9.138118475675582886e-02,-2.025195024907588959e-02,1.245600059628486633e-01,2.226351015269756317e-02,4.330498725175857544e-02,-2.057345584034919739e-02,2.520994655787944794e-02,-1.242191120982170105e-01,1.272267103195190430e-01,5.983088538050651550e-02,3.723775222897529602e-02,-1.754763424396514893e-01,1.815699487924575806e-01,1.434026807546615601e-01,6.904614716768264771e-02,-1.995256841182708740e-01,1.825886368751525879e-01,-2.521181292831897736e-02,-1.359072700142860413e-02,2.586446106433868408e-01,-8.090930432081222534e-02,3.729071468114852905e-02,4.304028302431106567e-02,4.891187325119972229e-02,-5.899358540773391724e-02,-3.644744306802749634e-02,1.050226464867591858e-01,-8.591167628765106201e-02,1.154929995536804199e-01,-4.997719451785087585e-02,-1.668441146612167358e-01,6.857044249773025513e-02,-1.175646297633647919e-02,1.447997689247131348e-01,1.030886545777320862e-01,-3.515822812914848328e-02,-1.136867851018905640e-01,1.591975837945938110e-01,2.422610074281692505e-01,2.046746313571929932e-01,-1.421630382537841797e-01,-1.746833138167858124e-02,8.610034734010696411e-02,-1.080548390746116638e-01,2.386517822742462158e-03,8.675795979797840118e-03,1.839479207992553711e-01,1.434304863214492798e-01,-5.837095156311988831e-02,2.514124810695648193e-01,1.384075731039047241e-02,1.998355686664581299e-01,-1.910800039768218994e-01,1.069585420191287994e-02,-1.124788746237754822e-01,1.164972409605979919e-02,7.633035629987716675e-02,-9.952348656952381134e-03,-8.632337301969528198e-02,9.666180610656738281e-02,1.500273346900939941e-01,1.159337684512138367e-01,1.306981146335601807e-01,-3.953269496560096741e-02,-1.349007710814476013e-02,-1.146312355995178223e-01,-3.496898710727691650e-02,-8.955819159746170044e-02,-1.290394514799118042e-01,-7.150510698556900024e-02,6.736237555742263794e-02,9.402247518301010132e-02,-2.257966669276356697e-03,1.345128752291202545e-02,2.171265520155429840e-02,3.068951703608036041e-02,1.706192791461944580e-01,-1.315662115812301636e-01,1.321363449096679688e-01,-1.206242889165878296e-01,-4.950059950351715088e-02,-1.833162643015384674e-02,-5.633075907826423645e-02,-6.636179983615875244e-02,2.374566197395324707e-01,9.613499790430068970e-02,-8.155080676078796387e-02,9.941784292459487915e-02,2.308587431907653809e-01,-1.095373183488845825e-01,5.053202435374259949e-02,-8.661105483770370483e-02,6.929166615009307861e-02,-4.833792895078659058e-02,-2.240833453834056854e-02,7.257563620805740356e-02,8.571119606494903564e-02,8.140169084072113037e-02,-1.264345180243253708e-02,-6.700214743614196777e-02,-2.660008892416954041e-02,1.722466647624969482e-01,-9.582655876874923706e-02,2.322342433035373688e-02,3.609287738800048828e-02,-1.079445034265518188e-01,-6.320199370384216309e-02,-4.612908884882926941e-02,1.095004305243492126e-01,-6.416033953428268433e-02,1.094329133629798889e-01,8.646187931299209595e-02,-1.413004994392395020e-01,-1.190159916877746582e-01,-7.360760867595672607e-02,-3.401659056544303894e-02,4.222051426768302917e-02,-1.066741496324539185e-01,1.284021884202957153e-01,8.826686441898345947e-02,-7.487092912197113037e-02,-7.779596745967864990e-02,-6.288696825504302979e-02,5.768735334277153015e-02,1.089047417044639587e-01,1.039797812700271606e-02,-2.616683952510356903e-03,-2.697598934173583984e-02,-1.128106117248535156e-01,-1.500965008744969964e-04,6.016537081450223923e-03,-1.083764731884002686e-01,2.085827104747295380e-02,1.218339130282402039e-01,-1.264008581638336182e-01,1.970192641019821167e-01,6.840015947818756104e-02,-1.309873629361391068e-02,1.630242913961410522e-03,-1.536139845848083496e-01,6.187819689512252808e-02,1.895118621177971363e-03,-4.931970685720443726e-02,2.527557872235774994e-02,3.695238009095191956e-02,7.592590898275375366e-02,6.003677099943161011e-02,-1.143357157707214355e-02,-3.546182066202163696e-02,-6.983561813831329346e-02,1.545449048280715942e-01,-1.004724949598312378e-01,5.252971500158309937e-02,-1.338712275028228760e-01,-2.930068597197532654e-02,-5.815463885664939880e-02,-1.186678069643676281e-03,1.421871334314346313e-01,6.848872173577547073e-03,-2.170830219984054565e-02,-8.333416283130645752e-02,2.439331263303756714e-02,-2.093624696135520935e-02,-8.659140765666961670e-02,-4.598727449774742126e-02,1.689216345548629761e-01,-1.480965614318847656e-01,1.117348484694957733e-02,-1.111568436026573181e-01,-1.694820076227188110e-01,-2.672042138874530792e-02,1.415078900754451752e-02,6.875877827405929565e-02,-1.243046969175338745e-01,5.196137353777885437e-02,9.989855438470840454e-02,-1.838722527027130127e-01,1.868601702153682709e-02,-9.438951313495635986e-02,-8.708748966455459595e-02,1.261852681636810303e-01,8.712758868932723999e-02,1.564582288265228271e-01,-1.073272451758384705e-01,-4.751001670956611633e-02,-1.405549049377441406e-01,3.741966187953948975e-02,-1.149962767958641052e-01,-4.624627158045768738e-02,5.576186254620552063e-02,-7.414881885051727295e-02,6.432396918535232544e-02,-8.455116301774978638e-02,-1.495036184787750244e-01,3.377663716673851013e-02,-4.143337719142436981e-04,1.235465612262487411e-02,-1.205784827470779419e-01,5.135575681924819946e-02,-6.797268986701965332e-02,-1.349579542875289917e-01,-6.896025687456130981e-02,1.496590077877044678e-01,-8.736656606197357178e-02,-4.108311980962753296e-02,-6.518284976482391357e-02,-1.842137426137924194e-01,-1.476133316755294800e-01,-9.118168056011199951e-02,-1.821228265762329102e-01,5.119621753692626953e-02,7.303947582840919495e-03,-9.982575476169586182e-02,5.296340212225914001e-02,3.927483409643173218e-02,-2.088016085326671600e-02,7.632321864366531372e-02,-1.673318073153495789e-02,4.654601588845252991e-02,-9.893134236335754395e-02,-2.108456380665302277e-02,-4.421230778098106384e-02,-1.230784580111503601e-01,9.058722853660583496e-02,-7.135589420795440674e-02,-9.952337294816970825e-02,-1.065973788499832153e-01,8.835653215646743774e-02,1.158676072955131531e-01,-4.973648115992546082e-02,7.143735885620117188e-02,-1.222888007760047913e-01,-2.385231107473373413e-01,-7.972725667059421539e-03,4.485291615128517151e-02,-5.277004092931747437e-02,1.154694855213165283e-01,-1.385268941521644592e-02,-1.001845747232437134e-01,8.520579896867275238e-03,-7.573220133781433105e-02,-1.176656857132911682e-01,-5.998769029974937439e-02,4.059468209743499756e-02,-1.003545150160789490e-02,-2.664764821529388428e-01,-9.907962381839752197e-02,4.155416414141654968e-02,-9.035826474428176880e-02,6.944375485181808472e-02,-1.707599461078643799e-01,-1.281353086233139038e-01,-3.559361770749092102e-02,-8.748351782560348511e-02,-9.673265367746353149e-02,5.704096332192420959e-02,1.702710054814815521e-02,-8.103491365909576416e-02,5.719863838749006391e-05,7.691785693168640137e-02,-1.880470067262649536e-01,-5.192128941416740417e-02,-8.667910844087600708e-02,-1.341448165476322174e-03,1.030490919947624207e-01,1.938868612051010132e-01,-5.339074879884719849e-02,-1.425991300493478775e-03,-4.697990417480468750e-02,-1.439622491598129272e-01,-1.184916645288467407e-01,-4.216973483562469482e-02,3.519186377525329590e-02,-6.644964218139648438e-02,1.093619037419557571e-02,9.104591794312000275e-03,-7.402212917804718018e-02,6.354603171348571777e-02,4.281031712889671326e-02,-1.965686380863189697e-01,-2.315461933612823486e-01,-5.693612620234489441e-02,-4.449320584535598755e-02,-7.996948435902595520e-03,-1.715724617242813110e-01,1.284542530775070190e-01,-1.608540862798690796e-01,-1.529380828142166138e-01,-2.374825626611709595e-02,4.930571094155311584e-02,-4.427851736545562744e-02,2.138601988554000854e-02,-1.852551102638244629e-01,-1.012561023235321045e-01,-6.114074960350990295e-02,-2.716387808322906494e-02,-5.060255154967308044e-02,9.244802594184875488e-02,1.595393195748329163e-02,-8.752594143152236938e-02,3.761886432766914368e-02,-5.487786233425140381e-02,-1.641393601894378662e-01,1.097535248845815659e-02,-9.500899165868759155e-02,1.315397173166275024e-01,-1.164425238966941833e-01,2.551467716693878174e-01,-4.857913404703140259e-02,-3.170151636004447937e-02,7.814425230026245117e-02,4.501635953783988953e-02,-9.434007853269577026e-02,3.892326354980468750e-02,-1.716726869344711304e-01,1.799559444189071655e-01,2.299365587532520294e-04,8.777608722448348999e-02,1.095767021179199219e-01,-9.975854307413101196e-02,9.838707745075225830e-02,2.161757946014404297e-01,-1.145062297582626343e-01,2.006710320711135864e-01,1.947831511497497559e-01,-3.838673606514930725e-02,-7.019030861556529999e-03,5.315565690398216248e-02,-2.991511113941669464e-02,1.347384303808212280e-01,-2.026706375181674957e-02,-1.079695224761962891e-01,1.131416261196136475e-01,1.453766375780105591e-01,4.414771497249603271e-02,4.950817674398422241e-02,1.363851130008697510e-02,-1.458463631570339203e-02,-4.716086015105247498e-02,-6.198946759104728699e-02,3.330519422888755798e-02,-1.361473053693771362e-01,-1.317173056304454803e-02,1.121585965156555176e-01,4.305435717105865479e-02,-1.271789819002151489e-01,-8.475448936223983765e-02,1.184595674276351929e-01,1.590843051671981812e-01,1.988437026739120483e-01,-1.968665979802608490e-02,-1.659223735332489014e-01,-4.484510049223899841e-03,4.675779491662979126e-02,5.250490084290504456e-02,-4.247177764773368835e-02,1.822182685136795044e-01,-4.051554575562477112e-02,3.302499353885650635e-01,6.014702841639518738e-02,-3.855825588107109070e-02,-2.036586403846740723e-02,-2.403673231601715088e-01,1.257571429014205933e-01,-1.095243822783231735e-02,4.829684644937515259e-02,4.320089519023895264e-02,4.625742137432098389e-02,1.680962294340133667e-01,1.790157258510589600e-01,-7.194477319717407227e-02,-1.901096198707818985e-03,-6.716995686292648315e-02,-6.324841082096099854e-02,9.641581028699874878e-02,-1.097521483898162842e-01,1.162136625498533249e-02,8.206495642662048340e-02,-7.903147488832473755e-02,8.586340397596359253e-02,1.983171552419662476e-01,1.402825713157653809e-01,4.192599281668663025e-02,5.598513036966323853e-02,3.342336416244506836e-02,3.533906489610671997e-02,-1.076463758945465088e-01,6.556791812181472778e-02,7.273358851671218872e-02,-8.167828619480133057e-02,1.130067161284387112e-03,6.749793887138366699e-02,-6.621782202273607254e-03,1.379177570343017578e-01,1.521815806627273560e-01,1.430930104106664658e-02,1.019372344017028809e-01,-4.076609387993812561e-02,2.767460048198699951e-02,1.512784790247678757e-02,6.852418184280395508e-02,9.797803312540054321e-02,1.575130224227905273e-01,-7.481845468282699585e-02,2.838918380439281464e-02,1.269038319587707520e-01,1.114841029047966003e-01,1.498435437679290771e-01,-5.476800724864006042e-02,1.483798921108245850e-01,4.741798713803291321e-02,7.162098586559295654e-02,-7.196881622076034546e-02,6.220205128192901611e-02,2.407504990696907043e-02,-2.736013196408748627e-02,1.569191068410873413e-01,-1.009910851716995239e-01,1.387027353048324585e-01,-1.726757362484931946e-02,4.246378690004348755e-02,7.779960334300994873e-02,5.668717622756958008e-02,-7.877769321203231812e-02,-1.321384757757186890e-01,5.875169858336448669e-02,8.583609014749526978e-02,1.579323112964630127e-01,-1.353892870247364044e-02,-7.829588651657104492e-02,1.439712941646575928e-01,8.935832977294921875e-02,-1.345359086990356445e-01,-3.396166115999221802e-02,1.410400271415710449e-01,1.014681383967399597e-01,-1.386343538761138916e-01,2.383879721164703369e-01,-7.122809439897537231e-02,-1.014560163021087646e-01,2.744002044200897217e-01,4.232091009616851807e-01,-6.476153433322906494e-02,1.201027333736419678e-01,-5.001391470432281494e-02,2.030797302722930908e-01,-7.571092993021011353e-02,4.126275330781936646e-02,-3.742375969886779785e-02,7.344597578048706055e-02,-9.723714739084243774e-02,2.813316415995359421e-03,8.908358961343765259e-02,-1.923146098852157593e-01,-1.265803351998329163e-02,1.515760459005832672e-02,1.566787064075469971e-01,7.032628357410430908e-02,7.836560718715190887e-03,-5.937025696039199829e-02,-7.365259528160095215e-02,-5.722163245081901550e-02,1.659919619560241699e-01,4.857310652732849121e-02,-1.022058725357055664e-01,-4.199451208114624023e-02,-7.165517657995223999e-02,4.659622535109519958e-02,-8.347578346729278564e-02,1.875250935554504395e-01,8.400470949709415436e-03,1.155294924974441528e-01,-6.366120278835296631e-02,-1.816150248050689697e-01,-6.380524486303329468e-02,5.258698761463165283e-02,-1.350708887912333012e-03,1.359267160296440125e-02,9.123868495225906372e-02,-2.649133838713169098e-02,1.394102871417999268e-01,1.604131758213043213e-01,-5.890725180506706238e-02,2.763867750763893127e-02,-1.984426975250244141e-01,1.832205057144165039e-01,-1.117545738816261292e-01,1.154830306768417358e-01,8.466506004333496094e-02,5.563310906291007996e-02,-3.885797783732414246e-02,-1.259925812482833862e-01,-3.765618056058883667e-02,8.869842439889907837e-02,1.235435251146554947e-02,-3.556942194700241089e-02,-6.426543742418289185e-02,-4.055561125278472900e-02,2.134757302701473236e-02,1.790754310786724091e-02,1.009563952684402466e-01,-5.186420306563377380e-02,-6.875540316104888916e-02,1.401202380657196045e-01,-9.098815917968750000e-02,-6.663622800260782242e-03,-1.413221806287765503e-01,6.226062774658203125e-02,-3.343056887388229370e-02,-4.081329703330993652e-02,1.766589703038334846e-03,1.768860034644603729e-02,4.400157555937767029e-02,1.044198870658874512e-01,6.085576489567756653e-02,1.110804677009582520e-01,3.504739701747894287e-02,4.497998859733343124e-03,1.338639408349990845e-01,-1.308010816574096680e-01,-9.125647693872451782e-02,-7.209076732397079468e-02,7.609037309885025024e-02,-3.058125637471675873e-02,-8.602012693881988525e-02,-7.454562932252883911e-02,5.224688723683357239e-02,-1.569515168666839600e-01,5.581246223300695419e-04,1.082805693149566650e-01,-7.940328121185302734e-02,-3.744504600763320923e-02,-2.081529796123504639e-02,-3.819135949015617371e-02,-2.892736531794071198e-02,4.555014148354530334e-02,1.645315289497375488e-01,1.446213275194168091e-01,8.675384521484375000e-02,2.275309339165687561e-02,-1.895950287580490112e-01,-1.026136130094528198e-01,1.286668330430984497e-01,2.159175127744674683e-01,1.832026839256286621e-01,-7.599797099828720093e-02,6.365852057933807373e-02,5.948108807206153870e-02,-8.684387058019638062e-02,9.846486151218414307e-02,-1.258296612650156021e-02,2.620753087103366852e-02,-3.945989534258842468e-03,2.374824509024620056e-02,1.014580298215150833e-02,9.024750441312789917e-02,1.535213291645050049e-01,2.395268529653549194e-02,3.330309987068176270e-01,4.679793491959571838e-02,-4.856491461396217346e-02,-1.052678376436233521e-01,2.090096920728683472e-01,1.902250796556472778e-01,2.743197605013847351e-02,5.536396801471710205e-02,-1.594468764960765839e-02,4.073394462466239929e-02,1.150581687688827515e-01,-3.650857508182525635e-02,1.181489676237106323e-01,1.033283174037933350e-01,-8.864352852106094360e-02,5.139573290944099426e-02,9.438590705394744873e-02,1.541821099817752838e-02,4.003102891147136688e-03,-9.431878477334976196e-02,1.604184806346893311e-01,1.037758886814117432e-01,9.073854982852935791e-02,-5.668955855071544647e-03,9.390139579772949219e-02,1.137048974633216858e-01,-3.884666785597801208e-02,-5.583750084042549133e-02,7.557913661003112793e-02,-1.351771801710128784e-01,1.178411245346069336e-01,3.986370284110307693e-03,1.599281132221221924e-01,1.520862281322479248e-01,3.577721491456031799e-02,-5.179672315716743469e-02,-4.587561264634132385e-02,1.089122518897056580e-02,5.867678672075271606e-02,-8.329697698354721069e-02,-1.598116755485534668e-02,-9.284478425979614258e-02,7.120020687580108643e-02,-4.088302329182624817e-02,-8.860656619071960449e-02,-1.715496033430099487e-01,1.490859836339950562e-01,1.187110021710395813e-01,1.996277868747711182e-01,-4.950461164116859436e-02,-1.289245393127202988e-02,-1.738867610692977905e-01,-1.186413317918777466e-01,-8.579107373952865601e-02,-3.014194965362548828e-02,-9.104798734188079834e-02,-1.385257542133331299e-01,1.570580005645751953e-01,2.723566591739654541e-01,7.266286760568618774e-02,1.147554069757461548e-01,1.214447021484375000e-01,3.999133408069610596e-02,-1.124228239059448242e-01,3.317091986536979675e-02,-5.781270191073417664e-02,1.105692237615585327e-01,-8.421404659748077393e-02,5.655575077980756760e-03,-3.038601018488407135e-03,-1.901849508285522461e-01,-9.268941730260848999e-02,3.619692102074623108e-02,-5.437523499131202698e-02,-1.098406910896301270e-01,3.216071426868438721e-02,3.591583669185638428e-02,-2.845323085784912109e-02,1.615601927042007446e-01,1.339123398065567017e-01,-9.073744714260101318e-02,-1.979445517063140869e-01,-1.478489637374877930e-01,9.967428445816040039e-02,-2.226167023181915283e-01,-1.253768950700759888e-01,-1.611333154141902924e-02,1.091242581605911255e-01,1.444564908742904663e-01,-1.605696827173233032e-01,-7.737354934215545654e-02,-1.775766909122467041e-01,-2.253322489559650421e-02,-8.192044496536254883e-02,2.320680171251296997e-01,1.418886333703994751e-01,-1.524598002433776855e-01,6.537211686372756958e-02,8.747043460607528687e-02,-4.405374452471733093e-02,4.509508609771728516e-02,1.455408781766891479e-01,-9.810569137334823608e-02,3.784641623497009277e-02,9.588378667831420898e-02,-2.077086269855499268e-02,3.829299658536911011e-02,1.238724067807197571e-01,-2.946549355983734131e-01,1.025120690464973450e-01,-1.528101116418838501e-01,-9.835838340222835541e-03,8.854832500219345093e-02,1.488119959831237793e-01,-4.955248162150382996e-02,-3.219609335064888000e-02,8.842283487319946289e-02,3.568851947784423828e-02,1.449408233165740967e-01,1.927181184291839600e-01,-7.249491661787033081e-02,6.462154537439346313e-02,-9.841843694448471069e-02,2.592825293540954590e-01,1.206040382385253906e-01,7.351581007242202759e-02,1.597625911235809326e-01,1.547352522611618042e-01,-1.604778915643692017e-01,-1.464634388685226440e-01,7.119649648666381836e-02,1.327442675828933716e-01,9.499931335449218750e-02,-8.405354619026184082e-02,2.060174196958541870e-02,-4.226182028651237488e-02,-2.812311425805091858e-02,1.288059204816818237e-01,-6.810278445482254028e-02,-1.062213256955146790e-01,1.376368254423141479e-01,-1.710450090467929840e-02,-2.201823703944683075e-02,9.680046141147613525e-02,3.338928148150444031e-02,1.199567317962646484e-01,-4.401737824082374573e-02,-1.477819234132766724e-01,1.107500679790973663e-02,1.365253329277038574e-01,1.627000272274017334e-01,9.781040996313095093e-02,-5.202500522136688232e-02,9.129286743700504303e-03,1.020395830273628235e-01,-4.343319311738014221e-02,-1.230309680104255676e-01,-7.258841395378112793e-02,3.973856940865516663e-02,-1.669587045907974243e-01,-8.106409013271331787e-02,3.572167828679084778e-02,2.591906189918518066e-01,3.824321180582046509e-02,1.968111395835876465e-01,-1.306213438510894775e-01,-1.942742988467216492e-02,1.929486840963363647e-01,9.246089495718479156e-03,-1.751676350831985474e-01,-1.141010448336601257e-01,-9.789953380823135376e-02,9.000808000564575195e-03,-4.408481344580650330e-02,2.155296057462692261e-01,-3.861586749553680420e-02,6.019041687250137329e-02,-1.829122565686702728e-02,1.837387830018997192e-01,1.560963690280914307e-01,1.716944724321365356e-01,2.298906259238719940e-02,-5.208324175328016281e-03,-6.186844035983085632e-02,3.789487481117248535e-01,1.677645593881607056e-01,2.244667708873748779e-01,-1.753182150423526764e-02,-1.129705924540758133e-02,2.277201861143112183e-01,1.736489236354827881e-01,6.178895011544227600e-02,-9.174869209527969360e-02,2.525504305958747864e-02,2.406728267669677734e-02,-7.852605730295181274e-02,2.670116424560546875e-01,2.310761809349060059e-02,-2.076133936643600464e-01,9.609173983335494995e-02,-3.353114426136016846e-02,6.499368697404861450e-02,-3.502770066261291504e-01,1.528048794716596603e-02,-2.371620573103427887e-02,-9.325661510229110718e-02,1.173540577292442322e-01,7.705193758010864258e-02,7.991303689777851105e-03,6.589391082525253296e-02,3.907052427530288696e-02,2.815469400957226753e-03,-1.450712680816650391e-01,9.273193031549453735e-02,2.811498045921325684e-01,-1.143931299448013306e-01,3.911156952381134033e-02,1.177764981985092163e-01,1.978765279054641724e-01,2.465832382440567017e-01,-1.474283337593078613e-01,-8.874882757663726807e-02,-1.173316538333892822e-01,4.756392911076545715e-02,4.921846091747283936e-02,1.476549059152603149e-01,-9.565502405166625977e-02,-1.151148900389671326e-01,-8.574312180280685425e-02,5.141900107264518738e-02,-1.702835597097873688e-02,-1.106824502348899841e-01,-9.454442560672760010e-02,1.725471317768096924e-01,-6.230572611093521118e-02,-1.125439852476119995e-01,5.851356685161590576e-02,1.023990586400032043e-01,-4.131968319416046143e-02,1.628511250019073486e-01,1.003738045692443848e-01,6.997700314968824387e-03,7.510384172201156616e-02,1.845762878656387329e-01,1.039494052529335022e-01,-1.186535879969596863e-01,4.641434922814369202e-02,7.348694652318954468e-02,-1.225542370229959488e-02,4.751655459403991699e-02,-3.669068217277526855e-02,-1.354186534881591797e-01,-1.744534373283386230e-01,1.219649910926818848e-01,4.865094646811485291e-02,-2.555045485496520996e-02,-3.594895824790000916e-02,1.227470561861991882e-01,8.086670935153961182e-02,-2.128188870847225189e-02,-7.702812552452087402e-02,1.457936763763427734e-01,-1.007371023297309875e-01,-1.583132594823837280e-01,6.647419929504394531e-02,-9.532764554023742676e-02,-1.445289254188537598e-01,4.985060915350914001e-02,4.851524904370307922e-02,2.415823377668857574e-02,-6.529536098241806030e-02,5.788942053914070129e-02,7.611471414566040039e-02,-4.239858314394950867e-02,4.013521596789360046e-02,-1.458318680524826050e-01,7.804926019161939621e-03,7.207477465271949768e-03,-2.976060658693313599e-02,-2.734010852873325348e-02,-9.504851698875427246e-02,-1.945314230397343636e-03,-8.642621338367462158e-02,-5.280311033129692078e-02,5.116129294037818909e-02,-2.215634845197200775e-02,-6.013037264347076416e-02,8.435890078544616699e-02,-6.847129762172698975e-02,-2.960351109504699707e-02,-2.031454350799322128e-03,2.446676231920719147e-02,7.127457857131958008e-02,9.543479979038238525e-02,-1.418779939413070679e-01,-3.941598162055015564e-02,1.066018082201480865e-02,-3.746506758034229279e-03,5.212249606847763062e-02,-1.011816635727882385e-01,9.762671589851379395e-02,-5.097781866788864136e-02,-1.474519609473645687e-03,-4.780635237693786621e-03,2.063442580401897430e-02,-1.005803048610687256e-01,-1.179577186703681946e-01,-4.063391592353582382e-03,-1.136594861745834351e-01,-5.365009233355522156e-02,1.267305314540863037e-01,1.334291249513626099e-01,-4.255060479044914246e-02,6.398189067840576172e-02,-8.357545733451843262e-02,-1.599871204234659672e-03,1.487745344638824463e-01,1.430585831403732300e-01,1.846114173531532288e-02,-2.744910866022109985e-02,9.509932994842529297e-02,-5.869276821613311768e-03,-1.312864013016223907e-02,9.187600575387477875e-03,2.082051634788513184e-01,1.214082464575767517e-01,-2.631719410419464111e-01,6.767430156469345093e-02,4.689320921897888184e-02,-8.662207424640655518e-02,1.824801713228225708e-01,-1.091935932636260986e-01,-4.848342761397361755e-02,-1.543854326009750366e-01,1.113076731562614441e-01,-1.102550886571407318e-02,-2.591853961348533630e-02,4.583501443266868591e-02,1.480299234390258789e-02,-2.234589159488677979e-01,-6.802821904420852661e-02,-1.016420871019363403e-01,-1.938601434230804443e-01,2.546915784478187561e-04,-2.778534404933452606e-02,2.295374423265457153e-01,1.040695384144783020e-01,-1.151911616325378418e-01,-1.051534619182348251e-02,1.733662486076354980e-01,-1.394051462411880493e-01,-4.593806341290473938e-02,-3.199607878923416138e-02,3.063268028199672699e-02,-5.046210438013076782e-02,2.027653455734252930e-01,-7.508406788110733032e-02,2.671737037599086761e-02,3.628066927194595337e-02,1.993966288864612579e-02,5.139520019292831421e-02,-1.037664934992790222e-01,6.724288314580917358e-02,4.854826722294092178e-03,-3.348591923713684082e-02,-1.646606028079986572e-01,-7.581386715173721313e-02,4.188419878482818604e-02,1.058774292469024658e-01,1.507353484630584717e-01,-6.077950820326805115e-02,-7.970780134201049805e-02,1.155412793159484863e-01,4.475657362490892410e-03,1.371028870344161987e-01,-9.514062106609344482e-02,-1.562738232314586639e-02,-3.185079433023929596e-03,6.072719395160675049e-02,1.172375380992889404e-01,-1.291307061910629272e-01,3.849206119775772095e-02,-2.238731645047664642e-02,-7.187812775373458862e-02,-8.601043373346328735e-02,1.168737635016441345e-01,1.505866181105375290e-02,-3.372085466980934143e-02,-3.933525085449218750e-02,-1.131726577877998352e-01,-1.213649869896471500e-03,-2.032967098057270050e-02,3.275934606790542603e-02,1.237083896994590759e-01,-1.807759255170822144e-01,7.955985143780708313e-03,-3.981765359640121460e-02,-1.077532023191452026e-01,3.289585933089256287e-02,-8.123231679201126099e-02,1.017653122544288635e-01,8.839079737663269043e-02,-1.758634299039840698e-01,3.487315401434898376e-02,1.973898522555828094e-02,7.232844829559326172e-02,-7.141786813735961914e-02,-4.611302167177200317e-02,-9.121458232402801514e-02,-1.017673686146736145e-01,1.501339524984359741e-01,4.289757460355758667e-02,1.229112967848777771e-02,-1.244376748800277710e-01,-1.574022769927978516e-01,1.498267287388443947e-03,4.746465012431144714e-02,-1.543786376714706421e-01,-1.521214097738265991e-01,-7.897871732711791992e-02,-2.021699398756027222e-01,-2.013345509767532349e-01,2.989934873767197132e-04,6.098375469446182251e-02,-3.728946298360824585e-02,-1.780398637056350708e-01,4.960948228836059570e-02,2.964105457067489624e-02,9.371334314346313477e-02,8.104574680328369141e-02,1.029422730207443237e-01,1.271447539329528809e-01,1.657875254750251770e-02,-7.087934017181396484e-02,1.270555108785629272e-01,-3.845307976007461548e-02,-3.616745769977569580e-02,4.717509448528289795e-02,7.094491273164749146e-02,-7.429962512105703354e-03,-1.436766982078552246e-02,-9.098171442747116089e-02,-5.897492915391921997e-02,-8.453900367021560669e-02,-3.816146403551101685e-02,4.913620278239250183e-02,-7.865465432405471802e-02,-1.180804893374443054e-01,-9.500161558389663696e-02,-1.376034133136272430e-02,-7.223264779895544052e-03,9.731683880090713501e-03,-1.692198589444160461e-02,-2.361921668052673340e-01,-1.936532855033874512e-01,-4.254311695694923401e-02,5.024781450629234314e-02,1.390881370753049850e-02,-6.017616391181945801e-02,-9.306826442480087280e-02,-1.397255957126617432e-01,-7.438270747661590576e-02,1.705099940299987793e-01,-4.344825446605682373e-02,-1.059183254837989807e-01,1.532360613346099854e-01,2.692918479442596436e-02,-5.703403800725936890e-02,-1.677971333265304565e-01,-5.305010080337524414e-02,1.433231383562088013e-01,-1.072407886385917664e-01,-3.139641508460044861e-02,-1.686527580022811890e-01,-1.006937697529792786e-01,-1.860171109437942505e-01,7.072358578443527222e-02,-9.870778024196624756e-02,7.092662155628204346e-02,-2.822594903409481049e-02,-8.798244595527648926e-02,2.017008960247039795e-01,-2.104473300278186798e-03,8.445480465888977051e-02,-2.615488693118095398e-02,5.197535827755928040e-02,9.602584876120090485e-03,1.449879258871078491e-01,1.352736353874206543e-01,4.317178577184677124e-02,-2.666843682527542114e-02,4.433677718043327332e-02,-1.301260143518447876e-01,-2.172845602035522461e-01,-1.457404196262359619e-01,1.570868045091629028e-01,8.554552495479583740e-02,1.048675626516342163e-01,7.610072940587997437e-02,-1.629290133714675903e-01,-1.002883389592170715e-01,-1.212835162878036499e-01,8.347450941801071167e-02,-2.973257601261138916e-01,1.786061972379684448e-01,-5.722432583570480347e-02,-2.253949828445911407e-02,1.266366541385650635e-01,1.076317429542541504e-01,-3.066952899098396301e-02,4.210630804300308228e-02,-8.525349944829940796e-02,9.542948007583618164e-02,4.851442947983741760e-02,4.352930933237075806e-02,-1.509686410427093506e-01,-5.145520344376564026e-02,-1.488834023475646973e-01,-1.459205895662307739e-01,-8.248917013406753540e-02,-2.588481605052947998e-01,7.341502606868743896e-02,7.415336370468139648e-02,-1.369277089834213257e-01,-8.465279825031757355e-03,1.701984852552413940e-01,-5.446867272257804871e-02,-3.559463471174240112e-02,5.414348468184471130e-02,1.784943416714668274e-02,1.617839187383651733e-01,8.892885409295558929e-03,-4.368865862488746643e-02,1.468117535114288330e-01,-6.746323406696319580e-02,-2.012237757444381714e-01,-7.248861342668533325e-02,9.957364201545715332e-02,1.130394171923398972e-03,-6.726221740245819092e-02,1.123693957924842834e-02,1.291135251522064209e-01,4.965467378497123718e-02,1.598482392728328705e-02,2.105078846216201782e-02,1.321435272693634033e-01,5.774562433362007141e-02,1.328516453504562378e-01,-3.667873516678810120e-02,-8.483327925205230713e-02,1.075763069093227386e-02,2.021693438291549683e-01,4.417482018470764160e-02,-1.681853085756301880e-01,3.169646486639976501e-03,7.541836798191070557e-02,5.813871324062347412e-02,1.060032472014427185e-02,-8.981874212622642517e-03,-4.818055406212806702e-02,-4.882475733757019043e-02,1.068435702472925186e-02,-7.717661559581756592e-02,-1.431527920067310333e-02,-1.132561042904853821e-01,8.329188823699951172e-02,-2.059777975082397461e-01,-8.520209044218063354e-02,2.367759309709072113e-02,1.441172063350677490e-01,7.026868313550949097e-02,8.521614968776702881e-02,2.561467699706554413e-02,3.921096771955490112e-02,1.053525018505752087e-03,1.056402996182441711e-01,3.321612253785133362e-02,-1.212004944682121277e-01,-1.026297137141227722e-01,-3.181272372603416443e-02,-1.714769899845123291e-01,7.510589063167572021e-02,2.101347409188747406e-02,1.860930621623992920e-01,-8.427006751298904419e-02,1.466986387968063354e-01,7.753211259841918945e-02,1.713047325611114502e-01,-4.461180418729782104e-02,-9.258667007088661194e-03,4.605346918106079102e-02,-1.417234987020492554e-01,4.971257969737052917e-02,1.815752685070037842e-02,1.156285330653190613e-01,-4.818032309412956238e-02,7.552971690893173218e-02,-3.918280825018882751e-02,2.518636882305145264e-01,1.363139301538467407e-01,-1.613952219486236572e-01,-7.811817526817321777e-02,-2.136784493923187256e-01,6.603384763002395630e-02,1.682070940732955933e-01,-2.261546812951564789e-02,3.571832180023193359e-02,1.022165566682815552e-01,-1.830720752477645874e-01,-1.330315470695495605e-01,-6.655012816190719604e-02,1.596472561359405518e-01,-3.433489054441452026e-02,-1.220460087060928345e-01,8.731067180633544922e-03,6.922621279954910278e-02,-1.061706990003585815e-01,-7.898333482444286346e-03,6.195550039410591125e-02,3.761585056781768799e-02,-5.613750219345092773e-02,9.935555607080459595e-02,2.183436602354049683e-01,2.364671677350997925e-01,1.784587949514389038e-01,6.104130297899246216e-03,2.446136996150016785e-02,2.533228695392608643e-02,-5.062750354409217834e-02,2.385445171967148781e-03,-9.789900481700897217e-02,1.409867405891418457e-01,1.245257444679737091e-02,2.345956414937973022e-01,3.031045757234096527e-02,9.957686066627502441e-02,-9.218531101942062378e-02,-1.145673990249633789e-01,1.297753900289535522e-01,-2.851207256317138672e-01,-1.261601895093917847e-01,-9.711240418255329132e-04,5.691564083099365234e-02,-2.351573668420314789e-02,-2.207596972584724426e-02,1.419670730829238892e-01,2.531589753925800323e-02,-3.418686613440513611e-02,2.624983191490173340e-01,8.797129616141319275e-03,1.801078021526336670e-01,-1.108000334352254868e-02,1.623244136571884155e-01,-1.287606507539749146e-01,-6.012959033250808716e-02,-6.088255718350410461e-02,-3.534650430083274841e-02,-4.673053324222564697e-02,1.068791449069976807e-01,1.743026223266497254e-04,-2.113568782806396484e-01,-6.229940429329872131e-02,8.072387427091598511e-02,-2.408683449029922485e-01,4.484983906149864197e-02,1.513107120990753174e-01,4.995306953787803650e-02,1.177320349961519241e-02,6.402116268873214722e-02,-4.674471914768218994e-02,2.599048987030982971e-02,8.047653734683990479e-02,1.493647396564483643e-01,1.547714620828628540e-01,-9.727784246206283569e-02,7.047113031148910522e-02,-6.498376280069351196e-02,-4.263475537300109863e-02,2.784708142280578613e-01,2.702236771583557129e-01,-2.699293754994869232e-02,2.574872374534606934e-01,-2.327461987733840942e-01,2.212210446596145630e-01,1.926931552588939667e-02,1.078848317265510559e-01,2.780429273843765259e-02,9.249963611364364624e-02,3.600090742111206055e-02,1.690457314252853394e-01,-4.809848591685295105e-02,-2.478593215346336365e-02,-7.078065723180770874e-02,-1.618862301111221313e-01,3.399478793144226074e-01,-4.618369787931442261e-02,-5.087691545486450195e-02,8.828863501548767090e-02,2.555502653121948242e-01,4.367504641413688660e-02,1.302867680788040161e-01,1.253000497817993164e-01,3.831461444497108459e-02,4.425603151321411133e-02,1.455057132989168167e-02,2.163067162036895752e-01,6.459090113639831543e-02,5.791291967034339905e-02,2.055762894451618195e-02,-1.878445409238338470e-02,-3.284345567226409912e-02,-1.186234876513481140e-01,1.084212586283683777e-02,2.408897131681442261e-02,7.615872472524642944e-02,-6.867890805006027222e-02,-1.597916334867477417e-02,7.679814845323562622e-02,8.367415517568588257e-03,-1.045302078127861023e-01,1.720450632274150848e-02,-1.060209870338439941e-01,4.983409866690635681e-02,-1.253396458923816681e-02,1.099523231387138367e-01,-1.115084718912839890e-02,3.976455703377723694e-02,1.516908556222915649e-01,-1.019051671028137207e-01,-7.152683287858963013e-02,-1.963880844414234161e-02,1.322629004716873169e-01,2.557704783976078033e-02,1.360253691673278809e-01,8.876239508390426636e-02,8.101496100425720215e-02,1.437147730030119419e-03,1.643578559160232544e-01,-2.137859314680099487e-01,1.037321705371141434e-02,1.438182592391967773e-01,6.289117783308029175e-02,4.266350716352462769e-02,1.168903335928916931e-01,-9.706515818834304810e-02,1.500590592622756958e-01,-9.721753746271133423e-02,7.898502051830291748e-03,-1.193880010396242142e-02,1.705314368009567261e-01,2.292178571224212646e-02,-8.432207256555557251e-02,8.400239050388336182e-02,8.993273973464965820e-02,-1.776763945817947388e-01,5.714707449078559875e-02,-5.680377781391143799e-02,-1.547508966177701950e-02,5.436488240957260132e-02,1.242328658699989319e-01,1.048342585563659668e-01,-1.537663582712411880e-02,1.925887614488601685e-01,-8.440393954515457153e-02,-1.110394746065139771e-01,1.083967983722686768e-01,1.120234429836273193e-01,6.363089382648468018e-02,1.415676772594451904e-01,-5.386982485651969910e-02,1.427356600761413574e-01,-2.010562270879745483e-02,2.281654998660087585e-02,-4.680815711617469788e-02,9.489206224679946899e-02,1.605374813079833984e-01,-8.764906227588653564e-02,-4.911969881504774094e-03,-2.239922247827053070e-02,-5.046474188566207886e-02,7.186756283044815063e-02,-1.454134136438369751e-01,-2.703848481178283691e-02,-1.403257250785827637e-01,2.931658178567886353e-02,3.729361668229103088e-02,2.606381177902221680e-01,6.451569497585296631e-02,3.935109823942184448e-02,4.088141024112701416e-02,6.750211119651794434e-02,1.525949984788894653e-01,1.288014501333236694e-01,4.332160949707031250e-02,-4.121652245521545410e-02,-2.769616618752479553e-02,2.535873092710971832e-02,1.191369816660881042e-01,1.734827011823654175e-01,-1.118642911314964294e-01,1.685831397771835327e-01,1.022143065929412842e-01,-1.183247789740562439e-01,-1.264453977346420288e-01,5.246915668249130249e-02,-2.569245547056198120e-02,1.770849339663982391e-02,1.938726156949996948e-01,6.317787617444992065e-02,1.651887781918048859e-02,-1.329481750726699829e-01,-8.956142514944076538e-02,1.142893955111503601e-01,9.653818607330322266e-02,5.394561216235160828e-02,-5.274472385644912720e-02,1.700724959373474121e-01,1.057092696428298950e-01,1.178996916860342026e-02,2.150964438915252686e-01,-8.584786951541900635e-02,1.003003399819135666e-02,2.695912122726440430e-01,-2.337470278143882751e-02,1.681920588016510010e-01,8.521540462970733643e-02,-4.500242322683334351e-02,-1.694034487009048462e-01,6.919354200363159180e-02,1.420585066080093384e-01,1.778864674270153046e-02,-1.029122471809387207e-01,-4.048582911491394043e-02,-5.623020231723785400e-03,-2.113974392414093018e-01,-7.678111642599105835e-02,1.671672053635120392e-02,-1.839368976652622223e-02,-7.264193147420883179e-02,7.679147180169820786e-03,6.459254026412963867e-02,-5.711155012249946594e-03,3.094513900578022003e-02,7.809120416641235352e-02,1.520117819309234619e-01,-1.086578816175460815e-01,-2.390428818762302399e-02,9.047897160053253174e-02,-6.405256688594818115e-02,1.102240756154060364e-01,-1.631954908370971680e-01,-5.313246324658393860e-02,-2.461720556020736694e-01,5.943863093852996826e-02,-1.717067807912826538e-01,-7.261978089809417725e-02,-1.447334885597229004e-01,1.000416874885559082e-01,1.739362031221389771e-01,-9.725531190633773804e-02,1.352710649371147156e-03,4.294888302683830261e-02,1.580664366483688354e-01,-1.085543036460876465e-01,1.119440793991088867e-01,-1.885543465614318848e-01,-1.926241368055343628e-01,-6.075816974043846130e-02,-2.722933888435363770e-02,1.886951774358749390e-01,-7.222945988178253174e-02,5.141495913267135620e-02,-1.025985106825828552e-01,5.647493526339530945e-02,1.417619436979293823e-01,2.429864183068275452e-02,-4.766682535409927368e-02,-7.582608610391616821e-02,4.192790016531944275e-02,-2.671074271202087402e-01,-5.261633917689323425e-02,1.434312164783477783e-01,-2.842241153120994568e-02,-1.129783168435096741e-01,2.381701720878481865e-03,-5.143835023045539856e-02,-7.566977292299270630e-02,-2.309205941855907440e-02,-1.436655223369598389e-01,8.621131628751754761e-02,1.285370588302612305e-01,5.527554079890251160e-02,6.704154610633850098e-02,1.780695654451847076e-02,8.378017693758010864e-02,-4.184966906905174255e-02,-1.653660461306571960e-02,-1.947195082902908325e-01,1.304674595594406128e-01,-2.045096829533576965e-02,-1.591779589653015137e-01,-2.184330672025680542e-02,5.339274555444717407e-02,2.898363173007965088e-01,-1.571713685989379883e-01,7.034739106893539429e-02,-1.501357555389404297e-01,-1.195952203124761581e-02,-1.397498846054077148e-01,2.115954458713531494e-02,1.266890019178390503e-01,-2.661626413464546204e-02,-2.515746653079986572e-01,-4.544858634471893311e-02,7.324019819498062134e-02,2.400285005569458008e-02,5.650181695818901062e-02,7.038486655801534653e-03,5.125484615564346313e-02,1.153267323970794678e-01,1.118849515914916992e-01,1.377595067024230957e-01,2.553238999098539352e-03,-1.018109768629074097e-01,-1.758039928972721100e-02,1.590092927217483521e-01,-2.142467722296714783e-02,-1.036161407828330994e-01,7.559204008430242538e-03,-5.581095442175865173e-02,1.098748520016670227e-01,3.295497894287109375e-01,-5.160225555300712585e-02,-1.233842447400093079e-01,-1.010016798973083496e-01,1.576231867074966431e-01,1.722938269376754761e-01,-9.830053895711898804e-02,-3.529238700866699219e-02,-4.072562977671623230e-02,1.400465369224548340e-01,-1.066478267312049866e-01,2.760745957493782043e-02,1.290268450975418091e-01,7.870774716138839722e-02,-1.217583715915679932e-01,7.797060161828994751e-02,5.189510062336921692e-02,1.329699009656906128e-01,-5.942763015627861023e-02,-4.784034937620162964e-02,1.231261156499385834e-02,-2.199183553457260132e-01,-1.876422553323209286e-03,1.185965985059738159e-01,-1.260645687580108643e-02,-1.481789052486419678e-01,-1.874707937240600586e-01,-9.646711498498916626e-02,1.316208243370056152e-01,-7.467728108167648315e-02,2.679730057716369629e-01,7.921174913644790649e-02,9.038284420967102051e-02,1.365304440259933472e-01,8.950333297252655029e-02,1.483024656772613525e-01,-1.874227076768875122e-01,-4.546095058321952820e-02,-1.207222267985343933e-01,-2.448139153420925140e-02,-2.344465106725692749e-01,5.171920638531446457e-03,-1.153749376535415649e-01,1.734742373228073120e-01,-6.861167401075363159e-02,-1.419531404972076416e-01,-8.725335448980331421e-02,1.223121583461761475e-02,-3.580768778920173645e-02,6.101627275347709656e-02,1.607428044080734253e-01,3.900716453790664673e-02,-7.030409574508666992e-02,1.693368256092071533e-01,6.160827819257974625e-03,-3.985834121704101562e-02,-1.939360201358795166e-01,9.045759588479995728e-02,-5.524827539920806885e-02,1.593385487794876099e-01,1.931905746459960938e-01,-1.097823157906532288e-01,-1.289214044809341431e-01,-1.278213411569595337e-01,1.715213060379028320e-01,-6.531947851181030273e-02,-1.109495162963867188e-01,2.343041002750396729e-01,-1.296523213386535645e-01,-8.496637456119060516e-03,4.973215609788894653e-02,-5.634175986051559448e-02,-5.360943078994750977e-02,5.163417011499404907e-02,8.156459778547286987e-03,1.643802225589752197e-01,-6.677336245775222778e-02,3.957729414105415344e-02,-2.371062897145748138e-02,-2.242802381515502930e-01,2.232284843921661377e-02,-6.409863382577896118e-02,-1.108978986740112305e-01,1.999501325190067291e-02,-1.645026952028274536e-01,-5.153993889689445496e-02,-5.676568485796451569e-03,1.918587088584899902e-01,-1.409872472286224365e-01,-2.451657503843307495e-01,1.300139576196670532e-01,1.398834437131881714e-01,-1.500745862722396851e-01,4.102338477969169617e-02,-5.312836170196533203e-02,1.317148357629776001e-01,-2.084367871284484863e-01,-1.422235667705535889e-01,-2.757935225963592529e-02,1.479113996028900146e-01,1.532605662941932678e-02,-1.552314125001430511e-02,-2.181558124721050262e-02,-7.921126484870910645e-02,-1.271803975105285645e-01,-1.365584731101989746e-01,-5.137706175446510315e-03,9.097570925951004028e-02,1.253506541252136230e-01,-1.582704186439514160e-01,5.353515595197677612e-02,-1.119769439101219177e-01,-6.333815306425094604e-02,-5.104831978678703308e-02,-1.076563727110624313e-02,-1.110933125019073486e-01,-4.313031211495399475e-02,-6.152037158608436584e-02,6.511453539133071899e-02,5.806354805827140808e-02,6.582103669643402100e-02,1.995236724615097046e-01,1.247573494911193848e-01,8.941582590341567993e-02,-1.396145224571228027e-01,-2.803735621273517609e-02,3.188651800155639648e-02,1.820326037704944611e-02,1.416835095733404160e-02,-8.369325101375579834e-02,-1.166841834783554077e-01,-1.921585053205490112e-01,-7.939296215772628784e-02,-1.999517530202865601e-02,1.536653190851211548e-01,-6.258662790060043335e-02,-1.128934994339942932e-01,2.871502004563808441e-02,-1.266906559467315674e-01,9.482468664646148682e-02,-1.903009042143821716e-02,1.105586588382720947e-01,9.455474466085433960e-02,5.438525229692459106e-02,1.212050467729568481e-01,-2.142866514623165131e-02,-9.035683423280715942e-02,-6.578428298234939575e-02,-1.083316430449485779e-01,1.357770264148712158e-01,-7.225136458873748779e-02,1.128504332154989243e-02,3.559882193803787231e-02,1.549443006515502930e-01,1.337284874171018600e-02,7.763832062482833862e-02,-8.913413435220718384e-02,-6.980603188276290894e-02,-1.301449984312057495e-01,8.960900455713272095e-02,1.440705079585313797e-02,7.507466524839401245e-02,8.707822114229202271e-02,-1.542855203151702881e-01,-2.337922807782888412e-03,-4.340042546391487122e-02,-3.821876272559165955e-02,-4.303024336695671082e-02,1.314275115728378296e-01,-1.268853843212127686e-01,-1.074706092476844788e-01,-6.529331207275390625e-02,-4.667936265468597412e-02,7.866708934307098389e-02,1.074475347995758057e-01,-5.883115530014038086e-02,1.787387579679489136e-02,-7.719722390174865723e-02,-2.426611632108688354e-02,-2.756992354989051819e-02,-8.237858861684799194e-02,1.091235056519508362e-01,4.139330610632896423e-02,-1.451992802321910858e-02,-8.933671633712947369e-04,-1.330022066831588745e-01,-4.177439212799072266e-02,9.300009906291961670e-02,8.339470624923706055e-02,4.063282907009124756e-02,7.402139902114868164e-02,8.293424546718597412e-02,8.536808192729949951e-02,-3.459702013060450554e-03,6.243131682276725769e-02,6.515426188707351685e-02,-8.060892671346664429e-02,2.461386099457740784e-02,-1.900455802679061890e-01,6.716585159301757812e-02,-6.031836569309234619e-02,-1.282802671194076538e-01,-1.644787937402725220e-01,-4.751739278435707092e-02,1.476147174835205078e-01,-1.161664817482233047e-02,1.164740920066833496e-01,2.298533450812101364e-03,-5.669641122221946716e-02,4.821923747658729553e-02,5.983513221144676208e-02,-1.020262911915779114e-01,9.890574961900711060e-02,1.413246523588895798e-02,-1.040195077657699585e-01,8.337306231260299683e-02,-1.523673813790082932e-02,1.280877888202667236e-01,-6.510665267705917358e-02,9.434977173805236816e-02,4.856475163251161575e-03,1.488139014691114426e-02,-4.884736612439155579e-02,-3.259942680597305298e-02,-3.311556950211524963e-02,8.947703056037425995e-03,-1.250265836715698242e-01,-1.016099229454994202e-01,-1.718163043260574341e-01,1.759582385420799255e-02,-1.829839199781417847e-01,3.851673379540443420e-02,-5.228687077760696411e-02,-5.950524285435676575e-02,6.200500763952732086e-03,-5.746072623878717422e-03,1.826187595725059509e-02,6.221244856715202332e-02,-1.742729693651199341e-01,3.207957372069358826e-02,-1.293431669473648071e-01,3.637840971350669861e-02,-2.708145976066589355e-02,-1.447280645370483398e-01,9.510658681392669678e-02,-5.733715370297431946e-02,-1.209753528237342834e-01,-7.549047470092773438e-02,4.511301964521408081e-02,1.330062299966812134e-01,-1.658441871404647827e-01,1.043949797749519348e-01,6.517953425645828247e-02,-4.124588891863822937e-02,-9.653670340776443481e-02,7.503648102283477783e-02,5.699017271399497986e-02,1.042504236102104187e-01,-7.447370886802673340e-02,1.211257725954055786e-01,5.354887247085571289e-02,-8.589693158864974976e-02,9.233484417200088501e-02,1.144822314381599426e-01,-6.341899279505014420e-04,8.069062978029251099e-02,1.564577221870422363e-01,1.236516758799552917e-01,1.883220374584197998e-01,3.934298828244209290e-02,-1.736263483762741089e-01,1.481522023677825928e-01,-1.022088900208473206e-02,-2.080132961273193359e-01,9.742856025695800781e-02,2.272272668778896332e-02,1.123234163969755173e-02,1.125218644738197327e-01,1.625608652830123901e-01,-1.991828531026840210e-01,-4.959540069103240967e-02,1.098063066601753235e-01,2.495208531618118286e-01,-1.360643208026885986e-01,1.449291557073593140e-01,1.467574480921030045e-02,3.110062703490257263e-02,1.747027486562728882e-01,4.556999355554580688e-02,-2.491416782140731812e-02,8.455651253461837769e-02,1.287519633769989014e-01,-1.873180419206619263e-01,1.461142301559448242e-01,-1.641409844160079956e-01,3.595468401908874512e-02,1.953496336936950684e-01,1.142090111970901489e-01,1.221545785665512085e-01,-2.400957047939300537e-01,-1.436193436384201050e-01,7.127229124307632446e-02,1.341362297534942627e-01,-2.017105966806411743e-01,-2.075413763523101807e-01,6.123194098472595215e-02,-3.649117425084114075e-02,-1.366712599992752075e-01,-1.652335971593856812e-01,-5.527823790907859802e-02,-4.508524015545845032e-02,-3.082859516143798828e-02,5.041801556944847107e-02,-1.355362236499786377e-01,6.508348137140274048e-02,-7.128224521875381470e-02,5.546575039625167847e-02,-5.153561383485794067e-02,2.454394400119781494e-01,2.078490890562534332e-02,-1.168202683329582214e-01,-3.725101053714752197e-02,-1.758358441293239594e-02,-1.017272397875785828e-01,1.331652998924255371e-01,1.479829996824264526e-01,2.278044819831848145e-02,1.081699430942535400e-01,-1.065791249275207520e-01,-1.735830903053283691e-01,-2.113974466919898987e-02,-7.063122838735580444e-02,5.724059417843818665e-02,-2.493853447958827019e-03,-3.797519207000732422e-02,-1.616983860731124878e-01,-8.213756978511810303e-02,-2.268357127904891968e-01,-8.077034354209899902e-02,4.631850123405456543e-02,-1.614999026060104370e-03,4.186289757490158081e-02,-1.164433211088180542e-01,4.567945376038551331e-02,1.885775029659271240e-01,-5.788690224289894104e-02,1.338943000882863998e-02,1.181423068046569824e-01,-2.503582239151000977e-01,1.853076368570327759e-01,9.659976512193679810e-02,-8.307933807373046875e-02,1.466703712940216064e-01,-3.589650616049766541e-02,2.462324872612953186e-02,-1.045208945870399475e-01,1.240460425615310669e-01,6.129564344882965088e-02,9.482188150286674500e-03,7.443324476480484009e-02,1.149811297655105591e-01,1.481551793403923512e-03,-1.501407474279403687e-01,7.252544164657592773e-02,7.158666849136352539e-02,-1.323770135641098022e-01,-2.249534241855144501e-02,3.130111098289489746e-01,-2.351090908050537109e-01,-1.646181344985961914e-01,9.964029490947723389e-02,-1.196765452623367310e-01,6.154565140604972839e-02,4.668322205543518066e-02,5.529176816344261169e-02,5.971265211701393127e-02,4.902405664324760437e-02,4.856019094586372375e-02,1.158010512590408325e-01,-6.097687035799026489e-02,1.145255416631698608e-01,4.159262776374816895e-02,-1.960046291351318359e-01,5.105938389897346497e-02,-1.211618632078170776e-02,-1.238871514797210693e-01,-1.247933320701122284e-02,-6.977903097867965698e-02,1.773962937295436859e-02,-1.042890995740890503e-01,-4.776405170559883118e-02,1.251179128885269165e-01,1.031432971358299255e-01,-2.444201558828353882e-01,-1.288757324218750000e-01,6.265959143638610840e-02,3.411167487502098083e-02,4.389710724353790283e-02,4.111540690064430237e-02,-1.582273840904235840e-01,1.205809116363525391e-01,-6.333028525114059448e-02,-1.063933521509170532e-01,-2.627868577837944031e-02,-1.080863922834396362e-01,-2.160346210002899170e-01,2.183577045798301697e-02,6.325035542249679565e-02,1.327472552657127380e-02,4.952346906065940857e-02,1.134506314992904663e-01,-2.112756669521331787e-02,-9.210733324289321899e-02,1.321296691894531250e-01,-1.217552199959754944e-01,7.464595139026641846e-02,8.735153079032897949e-02,-1.038406938314437866e-01,-5.204212665557861328e-02,-4.345789551734924316e-02,-1.663182079792022705e-01,-5.984685942530632019e-02,-7.551146298646926880e-02,-1.611934304237365723e-01,-3.309563547372817993e-02,2.334508895874023438e-01,-2.740287594497203827e-02,1.425636112689971924e-01,-1.120708361268043518e-01,8.076619356870651245e-02,3.095748275518417358e-02,-1.331463307142257690e-01,4.515730589628219604e-02,-3.896950930356979370e-02,8.161246776580810547e-02,1.104639396071434021e-01,2.879249863326549530e-02,-1.622758358716964722e-01,9.931082278490066528e-02,-1.323328316211700439e-01,-4.620910435914993286e-02,-5.975934863090515137e-02,-1.464861910790205002e-02,3.233256936073303223e-02,2.311069751158356667e-03,-7.721687853336334229e-02,-1.735502481460571289e-01,-2.958804368972778320e-02,-1.581446677446365356e-01,-5.011864379048347473e-02,-1.926286965608596802e-01,-5.195095017552375793e-02,7.838584482669830322e-02,8.750438690185546875e-02,-6.588222831487655640e-02,5.694554001092910767e-02,-2.299019694328308105e-02,7.201009243726730347e-02,1.199368387460708618e-03,-9.017255902290344238e-02,-1.873505562543869019e-01,2.834748849272727966e-02,-9.936927258968353271e-02,5.301738157868385315e-02,2.306402474641799927e-01,-1.581969261169433594e-01,-8.108568936586380005e-02,6.643924117088317871e-02,2.055515348911285400e-02,1.070332825183868408e-01,9.279397130012512207e-02,-2.053277790546417236e-01,-2.116959989070892334e-01,1.719192415475845337e-01,-1.597710400819778442e-01,-1.825264245271682739e-01,-1.639570891857147217e-01,7.614457607269287109e-02,-4.348794743418693542e-02,1.231936439871788025e-01,3.450870141386985779e-02,4.698239266872406006e-02,-1.705194115638732910e-01,3.256338834762573242e-02,7.953060418367385864e-02,9.214545041322708130e-02,-7.933146506547927856e-02,1.094096675515174866e-01,-1.064834296703338623e-01,-1.141113713383674622e-01,4.651920124888420105e-02,6.802225112915039062e-02,1.123750675469636917e-02,9.764458239078521729e-02,-4.435711726546287537e-02,-2.470219694077968597e-02,9.224114567041397095e-02,2.913725748658180237e-02,4.542726650834083557e-02,7.875477522611618042e-02,-1.221190541982650757e-01,1.351183056831359863e-01,1.175446435809135437e-01,-1.013593077659606934e-01,7.419642060995101929e-02,8.573543280363082886e-02,-9.006261825561523438e-02,-4.606971889734268188e-02,-7.541452348232269287e-02,1.370261907577514648e-01,-7.351452857255935669e-02,1.775621250271797180e-02,-1.148506626486778259e-01,1.872162707149982452e-02,3.167495131492614746e-02,2.357856184244155884e-01,-1.204379275441169739e-02,1.644594371318817139e-01,1.090178117156028748e-01,9.026437997817993164e-02,-6.066326797008514404e-02,1.955766975879669189e-01,-1.700586229562759399e-01,-1.714862436056137085e-01,6.683064252138137817e-02,-6.518369913101196289e-02,-1.850862801074981689e-01,-2.289356291294097900e-02,8.056560903787612915e-02,3.645521029829978943e-02,1.106360182166099548e-01,9.742928296327590942e-02,1.990902870893478394e-01,-2.819208241999149323e-02,-1.751998811960220337e-02,2.994014881551265717e-02,7.828260213136672974e-02,-9.133481234312057495e-02,-2.157162316143512726e-02,-1.073482111096382141e-01,1.247561769559979439e-03,1.405446231365203857e-01,-8.609589189291000366e-03,2.321956865489482880e-02,-2.839349769055843353e-02,-5.255183950066566467e-02,5.783576145768165588e-02,2.095258086919784546e-01,1.606813073158264160e-01,1.464853435754776001e-01,-1.036511808633804321e-01,2.404555864632129669e-02,1.012887656688690186e-01,-4.336950182914733887e-02,-8.623655140399932861e-02,-5.692108720541000366e-02,-1.608979701995849609e-01,1.339828222990036011e-01,-1.268204450607299805e-01,7.948291301727294922e-02,-2.945260517299175262e-02,-1.648214906454086304e-01,-6.672184914350509644e-02,-1.193228811025619507e-01,1.653182208538055420e-01,-9.241209924221038818e-02,8.762740343809127808e-02,-6.629955768585205078e-02,1.208536513149738312e-02,1.139492914080619812e-02,-4.299456626176834106e-02,-9.350180625915527344e-02,-1.689513400197029114e-02,7.282879948616027832e-02,-7.430039346218109131e-02,3.786734864115715027e-02,7.636682689189910889e-02,1.620860695838928223e-01,-1.320403367280960083e-01,2.984079532325267792e-02,-1.447597593069076538e-01,4.598131403326988220e-03,-4.667824134230613708e-02,-3.088629990816116333e-02,-7.359503954648971558e-02,-8.538535237312316895e-02,-7.152808457612991333e-02,-1.153496503829956055e-01,1.213202700018882751e-01,3.729381412267684937e-02,1.120042987167835236e-02,1.733589544892311096e-02,5.853468552231788635e-03,-9.661705046892166138e-02,3.073749132454395294e-02,-9.093065746128559113e-03,-7.079815864562988281e-02,5.160899087786674500e-02,1.234907377511262894e-02,5.648842826485633850e-02,-5.047709494829177856e-02,6.929184496402740479e-02,-3.457685187458992004e-02,7.808360736817121506e-03,-4.094631224870681763e-02,5.027937237173318863e-03,1.003916412591934204e-01,6.702607125043869019e-02,9.232091903686523438e-02,-3.542552143335342407e-02,-2.345992177724838257e-01,-1.691461913287639618e-02,-7.786811888217926025e-02,-1.093379706144332886e-01,-1.225049942731857300e-01,-1.735309138894081116e-02,4.124190658330917358e-03,2.034827619791030884e-01,1.125640347599983215e-01,1.575823724269866943e-01,-4.488615319132804871e-03,2.263623774051666260e-01,-1.509532704949378967e-02,-1.598979234695434570e-01,-1.978450417518615723e-01,2.234254591166973114e-02,1.689195185899734497e-01,4.487682133913040161e-02,5.183187127113342285e-02,-9.424783289432525635e-02,-9.340610355138778687e-02,-4.493999108672142029e-02,-1.219613030552864075e-01,-6.959505379199981689e-02,5.541731044650077820e-02,8.545307815074920654e-02,1.960974931716918945e-02,-1.160173714160919189e-01,-9.315478801727294922e-02,-1.239547878503799438e-01,1.487673074007034302e-01,2.698720805346965790e-02,8.808921091258525848e-03,2.840674817562103271e-01,-7.167317718267440796e-02,2.768014967441558838e-01,4.739479720592498779e-02,-1.116377785801887512e-01,3.855291381478309631e-02,-1.522876918315887451e-01,9.658746421337127686e-02,1.061234064400196075e-02,1.122966781258583069e-01,9.628696739673614502e-02,9.807794541120529175e-02,1.122925728559494019e-01,4.561557620763778687e-02,4.661345854401588440e-02,-1.218180209398269653e-01,9.378338605165481567e-02,-1.847113221883773804e-01,4.172548651695251465e-02,-5.365153774619102478e-02,-3.355684503912925720e-02,8.052450418472290039e-02,1.236865147948265076e-01,-2.854561805725097656e-02,-1.755725294351577759e-01,2.349342256784439087e-01,-5.960625410079956055e-02,-1.982651203870773315e-01,-1.292943656444549561e-01,-2.124219238758087158e-01,-1.035654470324516296e-01,2.684464864432811737e-02,-2.235141955316066742e-02,4.124047234654426575e-02,2.047344893217086792e-01,-1.933092251420021057e-02,7.545910030603408813e-02,-3.762148693203926086e-02,1.297201514244079590e-01,6.580759584903717041e-02,-1.339688897132873535e-01,-1.533613950014114380e-01,5.342602729797363281e-02,1.289465427398681641e-01,4.701531305909156799e-02,-6.642957031726837158e-02,1.364173442125320435e-01,1.026449277997016907e-01,1.658905297517776489e-01,-4.932740330696105957e-02,1.050972715020179749e-01,6.410788279026746750e-03,-9.371810406446456909e-02,3.051455877721309662e-02,-1.216374784708023071e-01,-1.170906201004981995e-01,-1.974535733461380005e-01,2.858203649520874023e-02,-1.342909336090087891e-01,-6.363222748041152954e-02,6.883567571640014648e-02,1.931766569614410400e-01,-9.950936585664749146e-02,1.492330431938171387e-01,3.015575557947158813e-02,1.108916699886322021e-01,2.010775543749332428e-02,1.778869181871414185e-01,7.210804522037506104e-02,-6.651240587234497070e-02,1.866102777421474457e-02,4.004579503089189529e-03,1.068442240357398987e-01,1.638557612895965576e-01,4.229655861854553223e-02,2.985652685165405273e-01,-4.094398394227027893e-02,1.707511544227600098e-01,5.173385888338088989e-02,-3.252280503511428833e-02,-6.570027768611907959e-02,-1.322317123413085938e-01,3.716204687952995300e-02,1.248025894165039062e-01,4.858700186014175415e-02,3.472964838147163391e-02,4.454821720719337463e-02,1.758349835872650146e-01,2.757882885634899139e-02,-5.591423436999320984e-02,1.035827398300170898e-02,1.946444213390350342e-01,5.267695710062980652e-02,1.010440140962600708e-01,-1.513320207595825195e-01,1.200009584426879883e-01,1.075070723891258240e-01,1.303782314062118530e-01,-5.230860412120819092e-02,-1.360999643802642822e-01,-1.577448397874832153e-01,-5.049319565296173096e-02,-1.695306748151779175e-01,2.514939010143280029e-01,3.039072453975677490e-02,-1.654045307077467442e-03,3.470815345644950867e-02,-4.774827393703162670e-04,7.545938342809677124e-02,9.999933093786239624e-02,4.173830896615982056e-02,1.055321693420410156e-01,-4.328488186001777649e-02,3.163854032754898071e-02,-7.236526906490325928e-02,9.697873145341873169e-02,1.431418359279632568e-01,4.463552683591842651e-02,4.020721837878227234e-02,1.219964399933815002e-01,1.346638519316911697e-02,-8.481284230947494507e-02,-1.193232461810112000e-01,4.795199632644653320e-02,-3.938719630241394043e-02,-1.537685096263885498e-01,-4.702636599540710449e-02,2.046953439712524414e-01,9.452395141124725342e-02,3.041093796491622925e-02,-1.140924543142318726e-01,8.051163516938686371e-03,-1.015249416232109070e-01,6.287652254104614258e-02,-9.284892678260803223e-02,-8.486081659793853760e-02,2.662175893783569336e-01,-1.029082164168357849e-01,1.768200248479843140e-01,8.453888446092605591e-02,-2.296815998852252960e-02,4.039968922734260559e-02,-7.085761753842234612e-04,1.796661689877510071e-02,-1.706963926553726196e-01,1.045830622315406799e-01,5.739151313900947571e-02,-2.229603826999664307e-01,4.992988426238298416e-03,-7.979532331228256226e-02,-1.069312095642089844e-01,-3.023937344551086426e-02,1.726018786430358887e-01,1.477560102939605713e-01,-4.050922766327857971e-02,1.282603591680526733e-01,7.411340624094009399e-02,1.295060515403747559e-01,-1.002798900008201599e-01,-2.679283544421195984e-02,-2.028930000960826874e-02,1.024357154965400696e-01,-1.446398533880710602e-02,7.167687267065048218e-02,2.862686291337013245e-02,-3.103999048471450806e-02,7.791721075773239136e-02,7.877414114773273468e-03,1.823179125785827637e-01,-5.759239569306373596e-02,1.482225358486175537e-01,-1.218259483575820923e-01,1.389256715774536133e-01,-1.434976793825626373e-02,6.688442081212997437e-02,1.472877484047785401e-04,-2.404202520847320557e-02,5.182187631726264954e-02,-7.780721411108970642e-03,-7.743544876575469971e-02,-5.695535987615585327e-02,-2.397045865654945374e-02,1.285731047391891479e-01,-1.056886464357376099e-01,-1.259912401437759399e-01,1.525073945522308350e-01,-3.876479715108871460e-02,-3.926324844360351562e-02,1.374715417623519897e-01,9.647622704505920410e-02,-1.909148395061492920e-01,-7.244583219289779663e-02,8.770751208066940308e-02,-1.356515735387802124e-01,8.542367815971374512e-02,-4.349894076585769653e-02,-9.463676810264587402e-02,-2.634389325976371765e-02,3.507492691278457642e-02,1.340645104646682739e-01,-6.112933624535799026e-03,2.037457078695297241e-01,-2.894168719649314880e-02,8.835317194461822510e-02,4.678229987621307373e-02,4.735280945897102356e-02,5.738806352019309998e-02,5.308411642909049988e-02,-1.903008110821247101e-02,5.664183944463729858e-02,-7.218778878450393677e-02,3.480214625597000122e-02,-6.028664112091064453e-02,2.227796241641044617e-02,1.836437284946441650e-01,1.298072636127471924e-01,1.680011162534356117e-03,4.198523983359336853e-02,-9.404409793205559254e-04,-1.175614967942237854e-01,7.980451732873916626e-02,1.919355392456054688e-01,-9.456761181354522705e-02,7.212261855602264404e-02,9.472823143005371094e-02,-5.111318081617355347e-02,-4.073646664619445801e-02,-1.207134500145912170e-01,-1.807210035622119904e-02,-3.258422762155532837e-02,-9.541182965040206909e-02,8.127517998218536377e-02,-2.057591080665588379e-01,1.563282124698162079e-02,-9.809923171997070312e-02,5.841265246272087097e-02,3.445787355303764343e-02,9.204643778502941132e-03,-6.282133609056472778e-02,-2.063480578362941742e-02,1.746567897498607635e-02,-8.273506164550781250e-02,-8.001063019037246704e-02,-8.518674969673156738e-02,5.082209035754203796e-02,9.316983819007873535e-02,-1.384471636265516281e-02,1.308037806302309036e-02,8.971352130174636841e-02,-5.472439900040626526e-02,3.151499107480049133e-02,5.650866776704788208e-02,-9.492363035678863525e-02,1.617187559604644775e-01,9.395997971296310425e-02,-1.818445026874542236e-01,8.163283765316009521e-02,-1.536546647548675537e-01,-2.824539318680763245e-03,-1.145104691386222839e-01,3.203587234020233154e-02,2.139096707105636597e-01,-1.047363504767417908e-01,-1.363060623407363892e-01,-1.081663817167282104e-01,4.651466757059097290e-02,7.883200794458389282e-02,-9.527587145566940308e-02,7.665125280618667603e-02,-2.569698914885520935e-02,-1.074195429682731628e-01,2.399121643975377083e-03,-7.643302530050277710e-02,1.912869364023208618e-01,-9.694056957960128784e-02,4.847165942192077637e-02,1.583166420459747314e-01,-1.200436875224113464e-01,-5.449072644114494324e-02,2.168786944821476936e-03,-1.618895381689071655e-01,-2.033973038196563721e-01,-6.254158169031143188e-02,1.106947511434555054e-01,1.058825626969337463e-01,9.954632818698883057e-02,-1.244442835450172424e-01,1.627846807241439819e-01,-2.940378487110137939e-01,6.024157162755727768e-03,-1.042604446411132812e-01,1.128742620348930359e-01,5.682491138577461243e-02,-1.384245604276657104e-01,2.719869464635848999e-02,-8.942142128944396973e-02,-1.516877859830856323e-01,-6.367070227861404419e-02,-3.515733405947685242e-02,1.040622033178806305e-02,7.156643271446228027e-02,1.950900852680206299e-01,-2.265111654996871948e-01,-2.567956745624542236e-01,3.855627775192260742e-02,7.262539118528366089e-02,-2.595672151073813438e-03,-6.527983397245407104e-02,-1.755962148308753967e-03,-5.136708915233612061e-02,4.145761579275131226e-02,-1.119475066661834717e-01,2.796789072453975677e-02,-4.414587467908859253e-02,1.284348666667938232e-01,-1.325331330299377441e-01,-8.833637088537216187e-02,-6.108243390917778015e-02,-1.323528438806533813e-01,5.917667597532272339e-02,2.749731764197349548e-02,3.899514675140380859e-02,1.102680936455726624e-01,-3.010674379765987396e-02,-1.058659330010414124e-01,2.473201751708984375e-01,-7.343114167451858521e-02,2.175942249596118927e-02,6.665536016225814819e-02,-7.401113957166671753e-02,5.228159576654434204e-02,7.430769503116607666e-02,-8.530721813440322876e-02,8.777365088462829590e-02,-9.223783016204833984e-02,2.797419670969247818e-03,-9.224893152713775635e-02,1.095948088914155960e-02,4.976128041744232178e-02,-1.227289065718650818e-01,-1.279163062572479248e-01,-1.052528619766235352e-01,-8.244731277227401733e-02,1.521535813808441162e-01,-9.618746489286422729e-02,5.216456204652786255e-02,-1.099070999771356583e-02,-3.894601762294769287e-02,1.268614921718835831e-02,-5.960112065076828003e-02,3.317779675126075745e-02,4.172905907034873962e-02,1.856286823749542236e-01,-2.839902415871620178e-03,-3.767908201552927494e-04,1.850107125937938690e-02,-1.738793589174747467e-02,-1.124757714569568634e-02,-1.384248286485671997e-01,1.787533424794673920e-02,1.653164811432361603e-02,8.804432116448879242e-03,1.486205905675888062e-01,1.762447506189346313e-01,-1.058094650506973267e-01,1.046828851103782654e-01,3.414816781878471375e-02,1.761689484119415283e-01,-1.051839962601661682e-01,1.018297299742698669e-02,1.490482091903686523e-01,1.878121495246887207e-01,9.810546040534973145e-02,-5.044677108526229858e-02,1.547001004219055176e-01,1.528684198856353760e-01,1.768945157527923584e-01,-4.116493836045265198e-02,1.081865355372428894e-01,-7.918249815702438354e-02,1.759481802582740784e-02,1.160020306706428528e-01,-4.092508926987648010e-02,9.875089675188064575e-02,-5.257233232259750366e-02,6.077582016587257385e-02,-8.699665963649749756e-02,-6.267169117927551270e-02,5.569182336330413818e-02,-6.597037613391876221e-02,-7.635125517845153809e-02,-6.307253614068031311e-03,2.731727808713912964e-02,6.525628268718719482e-02,-5.701679363846778870e-02,1.402819305658340454e-01,1.196917146444320679e-01,4.319483414292335510e-02,5.846459046006202698e-02,1.089215930551290512e-02,1.106685474514961243e-01,-4.749631136655807495e-02,-2.078875154256820679e-02,-1.017964854836463928e-01,1.688287258148193359e-01,-3.582167904824018478e-03,-1.011547818779945374e-01,-4.923925921320915222e-02,8.948896080255508423e-02,7.558467239141464233e-02,1.247422397136688232e-01,-1.037587299942970276e-01,5.179713945835828781e-03,2.582357823848724365e-01,-5.549049749970436096e-02,-6.223007105290889740e-03,9.446287155151367188e-02,1.957549899816513062e-02,-1.081392690539360046e-01,-3.638256166595965624e-04,-5.031531676650047302e-02,2.282359153032302856e-01,1.984571069478988647e-01,3.213445842266082764e-02,2.744314447045326233e-02,-1.305945962667465210e-01,1.719279289245605469e-01,2.032827734947204590e-01,-3.234842792153358459e-02,1.965992152690887451e-01,-3.695452585816383362e-02,1.193006262183189392e-01,1.142164971679449081e-02,3.770159929990768433e-02,-2.328969724476337433e-02,2.287493646144866943e-01,6.404795497655868530e-02,1.349975615739822388e-01,1.231987923383712769e-01,1.805085316300392151e-02,6.532917171716690063e-02,9.147846698760986328e-02,-8.840212970972061157e-02,-1.466353237628936768e-01,3.446275293827056885e-01,-1.431252509355545044e-01,6.990633904933929443e-02,-5.392033979296684265e-02,1.465861350297927856e-01,-7.943338900804519653e-02,1.707893610000610352e-01,1.632724553346633911e-01,-7.493180781602859497e-02,1.192700862884521484e-01,1.816941797733306885e-02,1.764832437038421631e-01,-4.727402701973915100e-02,2.812392115592956543e-01,-1.481947004795074463e-01,5.156391486525535583e-02,-1.551365405321121216e-01,-4.483052995055913925e-03,-7.696198672056198120e-02,1.412992030382156372e-01,-1.462004631757736206e-01,8.305031061172485352e-02,7.740543037652969360e-02,-6.563492119312286377e-02,7.863964885473251343e-02,3.245272040367126465e-01,5.376766622066497803e-02,-3.176441416144371033e-02,5.939806997776031494e-02,-5.165163055062294006e-02,-9.917822666466236115e-03,-4.449802916496992111e-03,-1.021297276020050049e-02,-4.212364181876182556e-02,9.088543057441711426e-02,7.657111436128616333e-02,8.511213958263397217e-02,2.324507012963294983e-02,5.322512611746788025e-02,2.105689048767089844e-01,-1.101083233952522278e-01,9.648732841014862061e-02,-4.753840714693069458e-02,-1.168674007058143616e-01,1.162705495953559875e-01,-5.978797003626823425e-02,-9.583631902933120728e-02,1.341758575290441513e-02,-1.260501891374588013e-01,7.174669206142425537e-02,-1.840749531984329224e-01,-3.374639898538589478e-02,2.292451821267604828e-02,2.795355021953582764e-01,-1.215108633041381836e-01,-1.335736513137817383e-01,-3.474323824048042297e-02,1.035256870090961456e-02,-4.736842960119247437e-02,-4.103003069758415222e-02,7.825750112533569336e-02,-6.717132031917572021e-02,1.934595555067062378e-01,-1.350400000810623169e-01,1.113983094692230225e-01,8.615440130233764648e-02,-1.763865798711776733e-01,2.572956727817654610e-03,-6.700915843248367310e-02,-1.095625571906566620e-02,1.018237173557281494e-01,3.726705536246299744e-02,9.687041491270065308e-02,3.055000677704811096e-03,3.068253211677074432e-02,-7.239239662885665894e-02,1.151279807090759277e-01,3.297506645321846008e-02,4.910729080438613892e-02,1.435212641954421997e-01,-7.406757771968841553e-02,6.018598750233650208e-02,-4.871803522109985352e-02,-2.757688984274864197e-02,2.628489434719085693e-01,-9.132630378007888794e-02,7.170258462429046631e-02,-7.099251449108123779e-02,3.970541805028915405e-02,7.461153715848922729e-02,1.732038855552673340e-01,-4.988802596926689148e-02,2.070878595113754272e-01,-9.298386424779891968e-02,5.035713687539100647e-02,-5.544102191925048828e-02,1.274135112762451172e-01,8.522131294012069702e-02,1.117418780922889709e-01,9.336831048130989075e-03,-2.483528852462768555e-02,-6.760486960411071777e-02,5.387844145298004150e-02,-2.740870462730526924e-03,7.532160729169845581e-02,4.051337763667106628e-02,-5.741609260439872742e-02,6.722679734230041504e-02,7.807914912700653076e-02,1.752434298396110535e-03,1.777154356241226196e-01,-5.153910443186759949e-02,9.641215205192565918e-02,6.741326302289962769e-02,-2.557493001222610474e-02,-3.549797460436820984e-02,5.112037435173988342e-02,-1.624951697885990143e-02,-2.607863955199718475e-02,1.006853766739368439e-02,2.875974029302597046e-02,5.793840438127517700e-02,1.648110002279281616e-01,5.896995961666107178e-02,4.259139299392700195e-02,1.342871971428394318e-02,4.461953043937683105e-02,3.126708418130874634e-02,1.067150756716728210e-01,-8.976881206035614014e-02,1.801850646734237671e-02,7.917150855064392090e-02,-1.144954040646553040e-01,4.187020286917686462e-02,-6.805546581745147705e-02,6.772758811712265015e-02,-2.034742571413516998e-02,-4.633758962154388428e-02,1.498738676309585571e-01,-8.045234531164169312e-02,-1.543101519346237183e-01,5.058256164193153381e-02,-2.022767812013626099e-01,-2.142916768789291382e-01,-6.310746818780899048e-02,5.899598449468612671e-02,-8.593400567770004272e-02,-1.102289482951164246e-01,-4.588276520371437073e-02,1.012103855609893799e-01,2.733468078076839447e-03,-1.588664948940277100e-01,6.789138913154602051e-02,-4.459620267152786255e-02,-5.594609677791595459e-02,-1.126120239496231079e-01,9.139927476644515991e-02,1.292169690132141113e-01,-7.535876333713531494e-02,-5.674652289599180222e-03,-1.085422933101654053e-01,-1.058272793889045715e-01,-8.545273542404174805e-02,3.565292060375213623e-02,-7.638099603354930878e-03,-2.747452817857265472e-02,-3.633140400052070618e-02,-4.303221032023429871e-02,1.102902665734291077e-01,9.469396620988845825e-02,-1.587182581424713135e-01,4.583900421857833862e-02,1.792423725128173828e-01,-8.063920587301254272e-02,-7.012696564197540283e-02,-4.804383963346481323e-03,-7.815486937761306763e-02,7.815998047590255737e-02,-1.259718239307403564e-01,-1.235153079032897949e-01,1.655682176351547241e-02,1.924144029617309570e-01,-6.749044358730316162e-02,1.301348675042390823e-02,-1.356597244739532471e-01,1.030978783965110779e-01,-3.481732681393623352e-02,-5.117017775774002075e-02,-7.372348755598068237e-02,5.916064232587814331e-02,2.527728676795959473e-03,6.978476792573928833e-02,-3.313507139682769775e-02,1.576146483421325684e-01,3.254072368144989014e-01,6.954899989068508148e-03,1.515799611806869507e-01,5.287386011332273483e-03,1.425987929105758667e-01,8.851978182792663574e-02,4.849970713257789612e-02,-5.185616388916969299e-02,6.231269612908363342e-02,-6.785487383604049683e-02,7.626851648092269897e-02,1.638291329145431519e-01,-2.430593073368072510e-01,-8.946847170591354370e-02,-1.364783756434917450e-02,-5.572839826345443726e-02,-1.780987381935119629e-01,1.066303104162216187e-01,2.082233130931854248e-01,1.438497006893157959e-01,-4.606581851840019226e-02,-7.465272396802902222e-02,-3.462295234203338623e-02,4.155459627509117126e-02,2.314607501029968262e-01,5.651332437992095947e-02,5.743402615189552307e-02,-1.857434213161468506e-01,-5.472685396671295166e-02,-7.012496143579483032e-02,1.527295261621475220e-01,-4.697490856051445007e-02,1.047306060791015625e-01,-4.199625551700592041e-02,-1.273750662803649902e-01,7.788626849651336670e-02,-1.433132309466600418e-02,1.354479342699050903e-01,1.695591211318969727e-01,2.765541337430477142e-02,1.082152500748634338e-01,-6.982075516134500504e-03,-2.331363558769226074e-01,7.991026341915130615e-02,-1.280108839273452759e-02,-1.369714736938476562e-01,2.787075191736221313e-02,-6.844765692949295044e-02,-1.180999130010604858e-01,1.243030745536088943e-02,4.863008484244346619e-02,6.219528615474700928e-02,-2.888768725097179413e-02,2.988957762718200684e-01,-3.766940534114837646e-02,9.963444434106349945e-03,-1.693671643733978271e-01,-9.114269912242889404e-02,-3.131234273314476013e-02,2.618158981204032898e-02,-6.858474574983119965e-03,1.129103377461433411e-01,-4.309944342821836472e-03,-1.253894418478012085e-01,-9.893830865621566772e-02,-4.727222397923469543e-02,1.504346877336502075e-01,-4.747919738292694092e-02,1.267338730394840240e-02,-1.834645122289657593e-02,-8.145067095756530762e-02,1.634456366300582886e-01,9.624719619750976562e-02,-9.882646799087524414e-02,2.477043494582176208e-02,1.180456131696701050e-01,2.928607910871505737e-02,1.684198528528213501e-01,1.279437243938446045e-01,5.454265512526035309e-03,1.343601942062377930e-01,-3.846664726734161377e-02,-3.250410407781600952e-02,-4.533503577113151550e-02,-1.082895547151565552e-01,1.282052416354417801e-02,7.419469207525253296e-02,-1.851351708173751831e-01,-3.405375406146049500e-02,-6.320561468601226807e-02,2.214399874210357666e-01,-8.803202956914901733e-02,5.586148425936698914e-02,2.067639492452144623e-02,-9.612120687961578369e-02,-4.735796898603439331e-02,-7.348782569169998169e-02,5.006592255085706711e-03,1.483445465564727783e-01,1.255182316526770592e-03,1.313199661672115326e-02,8.641070872545242310e-02,-2.023749239742755890e-02,-1.030812337994575500e-01,-6.924397498369216919e-02,-1.462727319449186325e-02,-1.852379739284515381e-02,4.990274086594581604e-02,-1.278087776154279709e-02,1.043249107897281647e-02,4.696591943502426147e-02,1.379347313195466995e-02,-1.762930601835250854e-01,-1.043684780597686768e-01,-4.143602028489112854e-02,6.636286526918411255e-02,1.235459521412849426e-01,-1.129588484764099121e-01,-6.195827573537826538e-02,-4.049888625741004944e-02,5.768352653831243515e-03,-1.091658044606447220e-02,-7.408322393894195557e-02,-8.464541286230087280e-02,-4.577922448515892029e-02,9.476229315623641014e-04,-2.033095955848693848e-01,6.841169297695159912e-02,-1.033476144075393677e-01,1.242228895425796509e-01,-2.027802318334579468e-01,2.738145738840103149e-02,-1.992141902446746826e-01,-2.267497405409812927e-02,5.561751499772071838e-02,-7.251153141260147095e-02,-1.369017064571380615e-01,-4.642904177308082581e-02,-1.613021246157586575e-03,-4.672089591622352600e-02,1.012236028909683228e-01,-1.214034035801887512e-01,-9.957712888717651367e-02,9.113001823425292969e-02,7.484458386898040771e-02,5.472290888428688049e-02,6.884062290191650391e-02,-7.642662525177001953e-02,-2.166242301464080811e-01,-3.902783617377281189e-02,8.217918127775192261e-02,-9.230653196573257446e-02,-4.181166179478168488e-03,9.226317517459392548e-03,-1.138692051172256470e-01,-9.883029013872146606e-02,3.238296136260032654e-02,-2.219250649213790894e-01,-3.621022551669739187e-05,-1.169446259737014771e-01,-1.684102602303028107e-02,-1.012595277279615402e-02,-1.576761305332183838e-01,-1.249037086963653564e-01,3.442132472991943359e-02,-9.275537729263305664e-02,-1.113952100276947021e-01,2.580533921718597412e-02,7.564080506563186646e-02,1.211184188723564148e-01,2.166767045855522156e-02,1.839678287506103516e-01,-1.455696821212768555e-01,6.499692797660827637e-02,-2.192617952823638916e-02,-1.005547195672988892e-01,-8.915105136111378670e-04,-8.301294595003128052e-02,8.501497656106948853e-02,-1.323388665914535522e-01,1.010323241353034973e-01,-8.007725700736045837e-03,-1.368552744388580322e-01,-2.299302630126476288e-02,1.990944594144821167e-01,-4.087598994374275208e-02,-2.065498614683747292e-03,-5.312895774841308594e-02,9.807521104812622070e-02,3.691012412309646606e-02,3.752436488866806030e-02,9.653867781162261963e-02,6.263732165098190308e-02,5.123494565486907959e-02,1.020810455083847046e-01,4.755474627017974854e-03,1.083072796463966370e-01,8.592710644006729126e-02,3.904990106821060181e-02,1.307894438505172729e-01,-1.183553636074066162e-01,-1.115973293781280518e-02,-1.415716707706451416e-01,-6.162486039102077484e-03,-7.567035406827926636e-02,8.511767722666263580e-03,-9.628866612911224365e-02,-8.967599272727966309e-02,-9.455784410238265991e-02,5.200210586190223694e-02,1.941491514444351196e-01,8.562901616096496582e-02,-1.806097626686096191e-01,1.589710265398025513e-01,2.022430486977100372e-02,1.241290941834449768e-02,-5.821610987186431885e-02,1.495554577559232712e-02,1.431034952402114868e-01,-4.674540460109710693e-02,6.842574477195739746e-02,-2.054374963045120239e-01,-1.155054196715354919e-01,-1.252014469355344772e-02,8.554393053054809570e-02,-1.214498430490493774e-01,3.246264159679412842e-02,1.395143717527389526e-01,1.361664943397045135e-02,-2.307434938848018646e-02,-7.440735399723052979e-02,-1.034298241138458252e-01,1.301397234201431274e-01,1.636685281991958618e-01,-2.937664836645126343e-02,6.229139864444732666e-03,-1.243878528475761414e-01,-3.999829292297363281e-03,-2.719983085989952087e-02,3.339843824505805969e-02,-4.668598249554634094e-02,-1.703175529837608337e-02,3.678919374942779541e-02,-2.067914605140686035e-02,-1.155479997396469116e-02,1.668782681226730347e-01,6.389867514371871948e-02,-4.531768336892127991e-02,4.728178307414054871e-02,-1.246064901351928711e-02,5.210606753826141357e-02,6.489897519350051880e-02,-2.066715247929096222e-02,-3.950536623597145081e-02,1.866024136543273926e-01,6.113269180059432983e-02,-7.907099276781082153e-02,-4.312812164425849915e-02,2.920291386544704437e-02,-6.099857017397880554e-02,2.030075900256633759e-02,-1.171810477972030640e-01,1.300830114632844925e-02,-1.329478919506072998e-01,2.006051875650882721e-02,-8.073139190673828125e-02,-1.011202931404113770e-01,1.410010904073715210e-01,-7.452590763568878174e-02,-1.844295859336853027e-01,-1.182548403739929199e-01,-1.880072802305221558e-01,-1.762127727270126343e-01,-8.596528321504592896e-02,-5.827643722295761108e-02,2.279743850231170654e-01,-1.489052027463912964e-01,2.770841307938098907e-02,-1.532800644636154175e-01,-3.995762392878532410e-02,1.991671323776245117e-02,1.009457781910896301e-01,7.833468914031982422e-02,2.549482323229312897e-02,4.613146558403968811e-02,-1.397016793489456177e-01,-7.189644873142242432e-02,-1.126184538006782532e-01,-1.570386886596679688e-01,-2.659023180603981018e-02,-1.988579519093036652e-02,1.121557652950286865e-01,-1.428801938891410828e-02,1.644051223993301392e-01,1.526468098163604736e-01,-9.805251657962799072e-02,1.041827872395515442e-01,3.307000920176506042e-02,9.261302649974822998e-03,-4.836373403668403625e-02,1.527845710515975952e-01,-1.129160150885581970e-01,-1.721291616559028625e-02,-4.307277034968137741e-03,-1.523243486881256104e-01,-8.343166112899780273e-02,-1.668311208486557007e-01,1.235790848731994629e-01,-5.627269670367240906e-02,-6.435511261224746704e-02,4.886190220713615417e-02,1.250890642404556274e-01,2.653517760336399078e-02,-1.787693202495574951e-01,-1.266648713499307632e-02,2.425009310245513916e-01,1.323320567607879639e-01,2.940331101417541504e-01,-1.898854970932006836e-01,2.997851232066750526e-03,1.137905493378639221e-01,-7.472185790538787842e-02,2.616350911557674408e-02,-9.234349429607391357e-02,-7.446456700563430786e-02,1.797184906899929047e-02,2.376732826232910156e-01,2.058718949556350708e-01,9.246601909399032593e-02,-5.459556728601455688e-02,2.191780060529708862e-01,-1.676289364695549011e-02,1.919788569211959839e-01,-1.213102266192436218e-01,-7.901264727115631104e-02,6.130380928516387939e-02,4.548606276512145996e-02,4.112348333001136780e-02,-9.163423627614974976e-02,-1.618873924016952515e-01,-7.492697983980178833e-02,2.226044237613677979e-02,1.291971653699874878e-01,2.591463923454284668e-01,1.637138724327087402e-01,-6.079468131065368652e-02,-1.413292437791824341e-01,-1.155223026871681213e-01,-9.664937853813171387e-02,1.038796156644821167e-01,-8.211687207221984863e-03,-6.730841845273971558e-02,-5.397357419133186340e-02,1.310235112905502319e-01,5.225190892815589905e-02,-1.477444469928741455e-01,-8.847276121377944946e-02,2.391841858625411987e-01,3.247634693980216980e-02,-2.691007032990455627e-02,-2.897711284458637238e-02,-1.547975987195968628e-01,-4.167425632476806641e-02,-5.299359560012817383e-02,-8.793275058269500732e-02,7.134271413087844849e-02,-2.263162136077880859e-01,-5.471644178032875061e-02,2.488578483462333679e-02,-2.502069994807243347e-02,6.155129894614219666e-02,-8.517215400934219360e-02,-1.599176824092864990e-01,-9.103170037269592285e-02,3.187485784292221069e-02,1.169619522988796234e-02,1.806974858045578003e-01,-1.533675789833068848e-01,-1.801375001668930054e-01,-2.046844214200973511e-01,2.553205750882625580e-02,-1.105333343148231506e-01,6.546972692012786865e-02,8.480670303106307983e-02,-1.895143091678619385e-01,5.068695917725563049e-02,3.149750456213951111e-02,-1.857842803001403809e-01,2.001787535846233368e-02,-4.794785752892494202e-02,-1.311942655593156815e-02,-2.514800988137722015e-02,-2.463690750300884247e-02,-2.365052327513694763e-02,7.874278351664543152e-03,-2.089868187904357910e-01,-7.894080132246017456e-02,8.184401318430900574e-03,-1.190438400954008102e-03,1.002927720546722412e-01,9.741445630788803101e-02,-3.128896951675415039e-01,-2.975869774818420410e-01,2.548527158796787262e-02,2.249056845903396606e-02,-1.496077775955200195e-01,-1.621167291887104511e-03,-2.517182826995849609e-01,9.479650110006332397e-02,1.087692566215991974e-02,-1.706754565238952637e-01,6.822489202022552490e-02,3.157854825258255005e-02,7.844070345163345337e-02,-1.492796242237091064e-01,-2.294845283031463623e-01,-6.367237307131290436e-03,-1.016014516353607178e-01,4.977991431951522827e-02,-2.024913951754570007e-02,-1.759766042232513428e-01,-4.208134114742279053e-02,-1.024500504136085510e-01,-1.033288687467575073e-01,1.246502920985221863e-01,-1.934763193130493164e-01,8.965591341257095337e-02,2.627903362736105919e-03,-2.445364594459533691e-01,2.818259969353675842e-02,1.432558745145797729e-01,-2.626582980155944824e-02,7.472556829452514648e-02,-5.537056177854537964e-02,-9.882831573486328125e-02,1.080312132835388184e-01,5.379718542098999023e-02,-6.747999787330627441e-02,1.058384403586387634e-02,-1.316825151443481445e-01,3.998483717441558838e-02,8.845178782939910889e-02,1.851307004690170288e-01,1.642597764730453491e-01,-9.953762590885162354e-02,-5.246222019195556641e-02,-4.226978495717048645e-02,-1.522700488567352295e-01,-6.541109085083007812e-02,-3.449326381087303162e-02,3.886134177446365356e-02,6.302588433027267456e-02,8.959117531776428223e-02,-3.309368714690208435e-02,3.170042335987091064e-01,-1.433807760477066040e-01,1.358439913019537926e-04,1.180386766791343689e-01,1.556929387152194977e-02,-1.402385532855987549e-01,4.027839004993438721e-02,8.296311646699905396e-02,-1.389859169721603394e-01,1.045396178960800171e-02,6.497500091791152954e-02,-1.191335842013359070e-01,-2.246323414146900177e-02,2.868413180112838745e-02,-2.729750573635101318e-01,9.564593434333801270e-02,6.992353498935699463e-02,-1.071535423398017883e-01,-3.655391186475753784e-02,2.579845301806926727e-02,6.318066269159317017e-03,1.634238958358764648e-01,-1.799383200705051422e-02,1.288043707609176636e-01,-3.286454826593399048e-02,-2.619053423404693604e-01,-4.775203019380569458e-02,4.919336736202239990e-02,6.127194687724113464e-02,2.575229406356811523e-01,1.032033687806688249e-04,-4.101968184113502502e-02,5.429816991090774536e-02,-3.011107444763183594e-02,-1.409782022237777710e-01,4.284970089793205261e-02,1.256127357482910156e-01,2.496184594929218292e-02,-2.151798922568559647e-03,-7.314359396696090698e-02,-1.143909841775894165e-01,2.363152951002120972e-01,-9.402067959308624268e-02,-1.261925548315048218e-01,-2.249848097562789917e-02,-2.502195350825786591e-02,1.118808463215827942e-01,3.417598009109497070e-01,-3.268497809767723083e-02,-1.387924794107675552e-02,-8.625493943691253662e-02,1.318083554506301880e-01,1.440000236034393311e-01,-8.174307644367218018e-02,-1.229345500469207764e-01,-1.753804832696914673e-01,-4.366701468825340271e-02,3.602800145745277405e-02,-6.814563274383544922e-02,1.558008342981338501e-01,3.015255331993103027e-01,2.105001509189605713e-01,1.392013728618621826e-01,4.612151533365249634e-02,7.889414578676223755e-02,2.230501919984817505e-02,5.500060692429542542e-02,-1.549461185932159424e-01,1.793689094483852386e-02,3.626383468508720398e-02,-4.392803460359573364e-02,-6.729569286108016968e-02,1.426578611135482788e-01,5.262346193194389343e-02,9.138815850019454956e-02,4.819412529468536377e-02,2.747745811939239502e-02,1.214326452463865280e-02,2.128254249691963196e-02,7.174830138683319092e-02,-1.550812739878892899e-03,1.645130366086959839e-01,1.592431515455245972e-01,-1.266142427921295166e-01,5.670830607414245605e-02,-1.202616468071937561e-01,3.420627117156982422e-02,-8.281715959310531616e-02,3.746150434017181396e-02,4.783924669027328491e-02,1.001895144581794739e-01,-2.135028503835201263e-02,-1.385174840688705444e-01,2.121671885251998901e-01,-1.329258829355239868e-01,-6.686528772115707397e-02,6.708773784339427948e-03,9.187115728855133057e-02,-8.635110408067703247e-02,-6.239675730466842651e-02,-2.012350596487522125e-02,8.114283531904220581e-02,5.312487110495567322e-02,3.456294164061546326e-02,-9.575201570987701416e-02,-3.390926122665405273e-02,1.099999323487281799e-01,2.097069052979350090e-03,7.543918490409851074e-02,1.267361640930175781e-01,-1.758445650339126587e-01,2.214536368846893311e-01,-8.613228797912597656e-02,1.502768602222204208e-02,-8.377959579229354858e-02,2.731402218341827393e-01,-1.210588589310646057e-01,-1.036030426621437073e-01,-1.387556642293930054e-01,-9.653267264366149902e-02,-1.143496632575988770e-01,1.396864950656890869e-01,4.755832999944686890e-02,2.185778915882110596e-01,-9.682240337133407593e-02,-1.745525747537612915e-01,-1.252376437187194824e-01,-1.026219036430120468e-02,-6.931294500827789307e-02,-1.192430630326271057e-01,1.261223386973142624e-02,2.799797803163528442e-02,1.164974924176931381e-02,1.028580665588378906e-01,-7.418242841958999634e-02,4.811995662748813629e-03,-2.357485443353652954e-01,-1.123165246099233627e-02,5.354963243007659912e-02,-5.735185742378234863e-02,-1.294519007205963135e-01,2.463406138122081757e-02,-1.013540551066398621e-01,2.120016366243362427e-01,-4.041065275669097900e-02,-1.407764554023742676e-01,-5.973536148667335510e-02,-7.327423989772796631e-02,6.302209198474884033e-02,-3.300946205854415894e-02,-8.943523466587066650e-02,-1.372980624437332153e-01,3.684192523360252380e-02,-2.660496532917022705e-01,2.548270858824253082e-02,-2.664409205317497253e-02,1.033412665128707886e-01,9.162166714668273926e-02,1.405476629734039307e-01,-1.690997305558994412e-04,-3.436976075172424316e-01,-1.078125610947608948e-01,5.639924108982086182e-02,-3.307428210973739624e-02,8.536242693662643433e-02,8.988486230373382568e-02,-3.065956756472587585e-02,-7.144804298877716064e-02,-2.768012695014476776e-02,3.478187024593353271e-01,2.191941253840923309e-02,1.429867297410964966e-01,1.380907446146011353e-01,8.323159813880920410e-02,3.549558669328689575e-02,4.085647687315940857e-02,-2.192529290914535522e-01,-7.401420921087265015e-02,1.232766062021255493e-01,-2.900214865803718567e-02,-1.191381663084030151e-01,-5.169721320271492004e-02,8.074719458818435669e-02,1.405987441539764404e-01,-7.173320651054382324e-02,2.194709032773971558e-01,-3.871307009831070900e-03,7.936976104974746704e-02,2.302193343639373779e-01,-1.856102794408798218e-01,-3.344452939927577972e-03,-6.904569268226623535e-02,3.629844263195991516e-02,1.313388198614120483e-01,-3.388435840606689453e-01,-8.476094156503677368e-02,5.435034632682800293e-02,-1.223249547183513641e-02,-9.932748973369598389e-02,-1.184569112956523895e-02,3.972024843096733093e-02,1.191882714629173279e-01,2.829745225608348846e-02,-4.235040768980979919e-02,1.614378839731216431e-01,-1.070034578442573547e-01,-1.235103681683540344e-01,7.111423462629318237e-02,-5.832603946328163147e-02,2.477380912750959396e-03,1.082403883337974548e-01,-7.323803380131721497e-03,1.616719961166381836e-01,-5.908015370368957520e-02,1.317137032747268677e-01,1.279241889715194702e-01,9.423968731425702572e-04,-6.805880367755889893e-02,1.978658437728881836e-01,-6.230767071247100830e-02,7.323846220970153809e-02,9.133605659008026123e-02,-3.849317505955696106e-02,-1.936859041452407837e-01,5.469154939055442810e-02,-9.739506244659423828e-02,2.310064993798732758e-02,3.842503204941749573e-02,3.323769196867942810e-02,-9.404946863651275635e-02,6.724846363067626953e-02,7.473199814558029175e-02,-8.932789415121078491e-02,-1.963270604610443115e-01,2.870780183002352715e-03,1.720310188829898834e-02,-5.573812127113342285e-02,9.532842785120010376e-02,1.080822199583053589e-01,-8.480981737375259399e-02,-2.390764188021421432e-03,-6.021278351545333862e-02,3.331281617283821106e-02,-4.748894274234771729e-02,1.622020006179809570e-01,-8.904083631932735443e-03,-1.281137764453887939e-01,-3.366796672344207764e-02,-1.522591263055801392e-01,-3.787126392126083374e-02,-1.090570017695426941e-01,2.113235928118228912e-02,2.914075972512364388e-03,-1.671433448791503906e-01,-4.605726152658462524e-02,-1.383381336927413940e-01,-8.976306021213531494e-02,-7.639646530151367188e-02,2.958073839545249939e-02,-3.416236862540245056e-02,-1.008484363555908203e-01,-1.170306056737899780e-01,-1.293078996241092682e-02,-1.585886925458908081e-01,-5.179180949926376343e-02,1.103102862834930420e-01,-2.084473520517349243e-02,-2.297372072935104370e-01,1.578566431999206543e-02,-6.570204347372055054e-02,-6.906837970018386841e-02,3.879578784108161926e-02,1.311855465173721313e-01,1.925198137760162354e-01,-2.219581045210361481e-02,-1.925578527152538300e-02,-1.903356760740280151e-01,-8.594795316457748413e-02,5.455612018704414368e-02,9.790777415037155151e-02,-1.116813495755195618e-01,-3.202387690544128418e-02,-6.654687970876693726e-02,1.440646499395370483e-02,-4.950160533189773560e-02,-4.431981220841407776e-02,1.412480790168046951e-02,-2.551651932299137115e-02,9.167367964982986450e-02,9.777848422527313232e-02,-4.589581862092018127e-02,-5.881366878747940063e-02,2.080054581165313721e-02,4.351327195763587952e-03,-8.104763180017471313e-02,-1.370837688446044922e-01,-1.709911227226257324e-01,1.373084038496017456e-01,-4.223683476448059082e-02,5.067908391356468201e-02,9.086493402719497681e-02,-9.032687544822692871e-02,-1.631009578704833984e-01,3.188173845410346985e-02,1.084374487400054932e-01,-1.261835172772407532e-02,-1.630540192127227783e-01,1.134574040770530701e-01,-4.952522367238998413e-02,1.959320604801177979e-01,-8.949749916791915894e-02,-8.367986232042312622e-02,-9.955817461013793945e-02,-6.238608621060848236e-04,1.021350771188735962e-01,-6.602649390697479248e-02,-1.842208504676818848e-01,-6.409873813390731812e-02,9.916147589683532715e-02,-1.440267637372016907e-02,1.868918687105178833e-01,9.636865556240081787e-02,-7.261043041944503784e-02,1.032261028885841370e-01,2.665712870657444000e-02,-4.219885915517807007e-02,2.762866392731666565e-02,2.939584106206893921e-02,-1.490778289735317230e-02,-3.476743027567863464e-02,-1.547005772590637207e-01,-1.131561212241649628e-02,1.013789102435112000e-01,1.870399266481399536e-01,-3.993716463446617126e-02,6.715892255306243896e-02,-1.411416679620742798e-01,2.694930136203765869e-01,-2.203036099672317505e-02,1.259482055902481079e-01,7.473730295896530151e-02,-1.853427290916442871e-01,-1.127848625183105469e-01,-5.044246837496757507e-02,1.144182011485099792e-01,1.243408024311065674e-02,-1.284100580960512161e-02,-2.299012690782546997e-01,1.551128085702657700e-02,-4.063686728477478027e-02,7.587009109556674957e-03,2.855425002053380013e-03,-1.404358595609664917e-01,-9.932316094636917114e-02,1.687448471784591675e-01,9.919025748968124390e-02,8.848803117871284485e-03,2.992824185639619827e-03,1.012541204690933228e-01,-6.832445412874221802e-02,-1.225173100829124451e-01,9.898928552865982056e-02,-1.250385344028472900e-01,6.087429821491241455e-02,1.411687284708023071e-01,2.555313408374786377e-01,9.835466742515563965e-02,-1.581500768661499023e-01,8.027100563049316406e-02,6.379099935293197632e-02,1.358608063310384750e-02,4.164162650704383850e-02,2.310305833816528320e-01,-1.410154253244400024e-01,1.728420108556747437e-01,-8.102208375930786133e-03,1.493945121765136719e-01,1.053120419383049011e-01,5.009476467967033386e-02,-3.410675562918186188e-03,3.420223668217658997e-02,-1.596095710992813110e-01,1.855274438858032227e-01,7.850941270589828491e-02,9.530925005674362183e-02,-8.175326138734817505e-02,-2.878820896148681641e-02,-5.445666983723640442e-02,-1.150301024317741394e-01,6.111330911517143250e-02,-2.289209701120853424e-02,-1.319171767681837082e-02,-7.802680879831314087e-02,-4.889649339020252228e-03,2.085017710924148560e-01,1.372736990451812744e-01,8.232302963733673096e-02,-5.511133000254631042e-02,8.100891113281250000e-02,-4.553926363587379456e-02,7.723350077867507935e-02,-1.894493214786052704e-02,