3.767542168498039246e-02,4.242739081382751465e-02,1.473953276872634888e-01,-4.770317301154136658e-02,1.762119494378566742e-02,7.763497531414031982e-02,1.309101842343807220e-02,-1.114598512649536133e-01,6.951870024204254150e-02,3.961672261357307434e-02,-1.622305810451507568e-01,3.060826100409030914e-02,-1.040498316287994385e-01,6.478417199105024338e-03,-2.043799869716167450e-02,-8.466956019401550293e-02,-5.962675437331199646e-02,8.863341063261032104e-02,1.030624285340309143e-01,-2.186569198966026306e-02,-6.620474904775619507e-02,-1.024625375866889954e-01,6.803293526172637939e-02,-9.721962362527847290e-02,-1.167957931756973267e-01,-1.062400117516517639e-01,6.748209148645401001e-02,6.393352895975112915e-02,5.227904021739959717e-02,1.092011556029319763e-01,1.170423030853271484e-01,1.676924228668212891e-01,9.660055488348007202e-02,-2.698450163006782532e-02,-1.820955984294414520e-02,3.981213644146919250e-02,6.885980814695358276e-02,-8.861713856458663940e-02,-5.356356501579284668e-02,3.442919626832008362e-02,-2.721962053328752518e-03,-1.223058775067329407e-01,-7.677909731864929199e-02,-4.446775466203689575e-02,5.082570761442184448e-02,-1.127609834074974060e-01,5.345228314399719238e-02,-9.984750300645828247e-02,1.272148359566926956e-02,-3.047415055334568024e-02,2.584524452686309814e-02,4.186404868960380554e-02,3.804792091250419617e-02,7.155331969261169434e-02,-1.619077026844024658e-01,6.766621768474578857e-02,-7.027689367532730103e-02,-8.771944791078567505e-02,1.125437170267105103e-01,9.801983088254928589e-02,8.411312103271484375e-02,7.806129753589630127e-02,-1.175407096743583679e-01,8.403702080249786377e-02,-3.518014773726463318e-02,-5.961279198527336121e-02,2.267685346305370331e-02,-9.508719295263290405e-02,-3.764878213405609131e-02,3.491459041833877563e-02,1.475402861833572388e-01,4.864869115408509970e-04,1.422922313213348389e-01,-9.747429937124252319e-02,4.490567743778228760e-02,7.823502272367477417e-02,-4.382449761033058167e-02,-1.165017634630203247e-01,3.288214653730392456e-02,-8.118626475334167480e-02,-2.420309558510780334e-02,-3.773174062371253967e-02,6.448648869991302490e-02,-9.466875344514846802e-02,-1.573754288256168365e-02,3.146395087242126465e-02,-1.117389872670173645e-01,2.319438010454177856e-02,-1.089909598231315613e-01,1.127633154392242432e-01,1.195576973259449005e-02,-7.525235414505004883e-02,8.108850568532943726e-02,5.798778682947158813e-02,4.651453346014022827e-02,8.108666539192199707e-02,8.375079184770584106e-02,-1.654185168445110321e-02,3.199783386662602425e-03,-5.331528931856155396e-02,9.602769464254379272e-02,-1.388755440711975098e-01,-3.045786544680595398e-02,-2.862212713807821274e-04,3.791169822216033936e-02,-1.169385910034179688e-01,7.600578665733337402e-02,-9.578125923871994019e-02,-4.014091193675994873e-02,2.000687271356582642e-02,-6.110744923353195190e-02,1.784246042370796204e-02,7.439917325973510742e-02,3.436774713918566704e-03,-2.385519817471504211e-02,6.916449218988418579e-02,-2.128605544567108154e-01,7.613478600978851318e-02,-8.894997090101242065e-02,-9.865070879459381104e-02,-9.120673686265945435e-02,1.231932938098907471e-01,2.205909341573715210e-01,6.179352849721908569e-02,-1.545850094407796860e-02,4.460221901535987854e-02,7.180547714233398438e-02,-8.984682708978652954e-02,-4.380057007074356079e-02,7.386287208646535873e-03,-9.827219694852828979e-02,-3.638197481632232666e-02,4.624267667531967163e-02,-7.726336270570755005e-02,1.621194183826446533e-01,-7.104990072548389435e-03,1.537381708621978760e-01,8.682299405336380005e-03,1.324976384639739990e-01,8.338057249784469604e-02,1.060637757182121277e-01,-7.906787842512130737e-02,-2.181131839752197266e-01,7.484309375286102295e-02,6.993865221738815308e-02,-1.579614914953708649e-02,2.280459925532341003e-02,6.221131980419158936e-02,-5.450793728232383728e-02,-8.299254626035690308e-02,1.329409424215555191e-02,5.158556159585714340e-04,1.367790624499320984e-02,2.025660127401351929e-02,2.815202169585973024e-04,9.174762666225433350e-02,-2.089382149279117584e-02,4.795463383197784424e-02,5.445245280861854553e-02,-5.218233168125152588e-02,-7.219670712947845459e-02,4.315528273582458496e-02,-8.008820563554763794e-02,-7.874919474124908447e-02,9.191753715276718140e-02,1.365262866020202637e-01,-1.725345663726329803e-02,1.101466789841651917e-01,6.090924888849258423e-02,-1.163256615400314331e-01,-1.218780800700187683e-01,8.284818381071090698e-02,1.006689444184303284e-01,-1.557980664074420929e-02,-1.681287884712219238e-01,7.392898947000503540e-02,8.913561701774597168e-02,1.376454830169677734e-01,-6.647720932960510254e-02,-8.330768346786499023e-02,-1.355324834585189819e-01,6.456065922975540161e-02,6.474286317825317383e-02,4.525649920105934143e-02,-4.134525358676910400e-02,1.523319631814956665e-01,-1.454646289348602295e-01,1.238742396235466003e-01,1.093493625521659851e-01,1.216632500290870667e-01,9.398423135280609131e-02,4.893964901566505432e-02,1.614357084035873413e-01,3.132978081703186035e-02,8.412602543830871582e-02,6.873125582933425903e-02,1.462528761476278305e-02,2.070800513029098511e-01,-1.050806716084480286e-01,6.606906652450561523e-02,7.630882412195205688e-02,1.107051372528076172e-01,1.144523471593856812e-01,-4.381291195750236511e-02,-7.064674049615859985e-02,9.545693546533584595e-02,6.921914219856262207e-02,-2.213466726243495941e-02,-3.015739843249320984e-02,6.844080239534378052e-02,-7.448855042457580566e-02,-3.221724033355712891e-01,-7.853081077337265015e-02,-8.632098883390426636e-02,-1.483153402805328369e-01,6.225865706801414490e-02,1.339354664087295532e-01,-4.907914623618125916e-02,2.102330476045608521e-01,-1.089759021997451782e-01,-8.622009307146072388e-02,-6.101775541901588440e-02,9.481652826070785522e-02,2.966325283050537109e-01,-1.034972071647644043e-01,-3.829120099544525146e-02,-9.494456648826599121e-02,6.694715470075607300e-02,5.471886694431304932e-02,6.982949376106262207e-02,9.685294330120086670e-02,1.374681890010833740e-01,5.331086367368698120e-02,5.566982924938201904e-02,1.437098234891891479e-01,-4.694243893027305603e-02,1.689911633729934692e-01,-3.782312199473381042e-02,-1.057988703250885010e-01,9.030461311340332031e-02,-5.234004557132720947e-02,7.561956346035003662e-02,2.695991657674312592e-02,-9.379355609416961670e-02,-8.898466080427169800e-02,-3.448489680886268616e-02,1.227876916527748108e-01,5.345807969570159912e-02,7.097428292036056519e-02,-2.404119446873664856e-02,4.145528003573417664e-02,-7.274033967405557632e-03,6.136377155780792236e-02,7.983284443616867065e-02,-5.623191595077514648e-02,-2.411123923957347870e-02,1.556214760057628155e-03,-1.531381998211145401e-02,-6.446371227502822876e-02,1.715386807918548584e-01,1.188037693500518799e-01,1.612885147333145142e-01,-8.658029884099960327e-02,-1.917816251516342163e-01,-1.115449145436286926e-02,-4.655024968087673187e-03,1.399887651205062866e-01,-8.990787714719772339e-02,-1.219675019383430481e-01,-1.169751510024070740e-01,-1.135071739554405212e-01,3.396348655223846436e-02,3.251088038086891174e-02,-4.124242439866065979e-02,6.143404170870780945e-02,1.318806665949523449e-03,-8.627206087112426758e-02,-7.289285957813262939e-02,7.610377389937639236e-03,-4.495337605476379395e-02,-1.933966879732906818e-03,-8.882619440555572510e-02,3.840825520455837250e-04,-5.624148994684219360e-02,-1.140491943806409836e-02,-3.844125196337699890e-02,8.782251179218292236e-02,1.096139103174209595e-01,1.036604270339012146e-01,6.268069613724946976e-03,2.520493976771831512e-02,1.249347552657127380e-01,-2.422463335096836090e-02,1.072675138711929321e-01,3.167023882269859314e-02,-2.538662217557430267e-02,4.943348094820976257e-02,-9.314753860235214233e-02,6.157407909631729126e-02,-4.409985989332199097e-02,-2.352354675531387329e-02,7.685421407222747803e-02,-5.630045011639595032e-02,4.488655179738998413e-02,-4.170155618339776993e-03,-4.835902247577905655e-03,9.238872677087783813e-02,-1.387533843517303467e-01,-1.639659255743026733e-01,1.005056947469711304e-01,1.258438229560852051e-01,7.582397758960723877e-02,1.795499771833419800e-02,-9.877031296491622925e-02,1.228484511375427246e-01,-8.714446425437927246e-02,-1.574847102165222168e-01,4.506012052297592163e-02,-2.777948044240474701e-02,-1.063462197780609131e-01,-1.393726766109466553e-01,-3.156805643811821938e-03,-1.456834226846694946e-01,1.110108867287635803e-01,-4.470333084464073181e-02,1.027526482939720154e-01,-1.730700768530368805e-02,-1.036454439163208008e-01,-4.915228113532066345e-02,7.556390762329101562e-02,-4.177712649106979370e-02,3.628985956311225891e-02,7.104191184043884277e-02,5.877289548516273499e-02,-2.743803337216377258e-02,1.080434583127498627e-02,8.447188138961791992e-02,-6.140631809830665588e-02,4.014474526047706604e-02,-5.085990950465202332e-02,-1.378203835338354111e-02,7.599333673715591431e-02,8.610403537750244141e-02,4.739597439765930176e-02,8.798585832118988037e-02,-8.022196590900421143e-02,5.225552618503570557e-02,-6.182733178138732910e-02,-7.911299914121627808e-02,-1.064556837081909180e-01,1.132967397570610046e-01,1.794800758361816406e-01,-9.260545670986175537e-02,-9.104355424642562866e-02,-5.364306736737489700e-03,8.292110264301300049e-02,-5.186551436781883240e-02,6.477151811122894287e-02,9.243239462375640869e-02,-1.479462683200836182e-01,1.521480977535247803e-01,1.391904503107070923e-01,1.526396870613098145e-01,-3.697779029607772827e-02,-7.883947342634201050e-02,3.390107303857803345e-02,-2.517424756661057472e-03,-4.061796888709068298e-02,2.579967491328716278e-02,-9.013766795396804810e-02,5.722492001950740814e-03,-5.167168751358985901e-02,-1.637682467699050903e-01,-2.476025838404893875e-03,-2.838024869561195374e-02,7.024720311164855957e-02,1.104892492294311523e-01,-1.031761392951011658e-01,5.548278614878654480e-02,-2.478141523897647858e-02,5.490141734480857849e-02,-1.327762007713317871e-01,7.889935374259948730e-02,1.303105801343917847e-01,-9.840321540832519531e-02,5.597691610455513000e-02,2.352253720164299011e-02,3.970421478152275085e-02,-1.017434224486351013e-01,2.949232235550880432e-02,7.966458052396774292e-02,-4.454167932271957397e-02,-1.289823185652494431e-02,-2.143640443682670593e-02,2.309242822229862213e-02,-1.172253582626581192e-02,-3.500512614846229553e-02,3.586444631218910217e-02,3.034136258065700531e-02,5.831426754593849182e-02,-1.565765589475631714e-02,-3.146935487166047096e-03,-3.991068154573440552e-02,6.784405559301376343e-02,1.369275990873575211e-02,-8.768205344676971436e-02,1.535427272319793701e-01,4.575174674391746521e-02,-9.606062620878219604e-02,7.630997151136398315e-02,6.614152342081069946e-02,4.510205611586570740e-02,1.044054180383682251e-01,-4.968006629496812820e-03,-4.642128571867942810e-02,7.914531230926513672e-02,-1.718570291996002197e-01,1.701990887522697449e-02,-4.714370518922805786e-02,1.061933189630508423e-01,8.515769615769386292e-03,-1.853129863739013672e-01,-9.837523847818374634e-02,-1.571170240640640259e-01,1.137239113450050354e-01,9.097482077777385712e-03,-2.183539271354675293e-01,8.367063105106353760e-02,-5.249918252229690552e-02,-1.087093725800514221e-01,-5.558927543461322784e-03,-1.356396079063415527e-01,-8.938007801771163940e-02,-7.859227061271667480e-02,1.520971022546291351e-02,8.602563291788101196e-02,-8.179772645235061646e-02,6.765846163034439087e-02,-1.346480697393417358e-01,7.712002098560333252e-02,-1.917926222085952759e-02,-1.041696593165397644e-01,4.632889479398727417e-02,2.157328277826309204e-02,-6.700964272022247314e-02,3.893274813890457153e-02,7.208486646413803101e-02,5.416943877935409546e-02,-3.261429071426391602e-02,7.357245683670043945e-02,4.032017663121223450e-02,-1.601474732160568237e-01,1.216335147619247437e-01,1.837167888879776001e-01,-2.574724890291690826e-02,5.964735988527536392e-03,1.669847220182418823e-01,2.113025449216365814e-02,2.712892591953277588e-01,1.593681424856185913e-01,-1.215157285332679749e-02,4.016489163041114807e-02,8.433272689580917358e-02,-6.728528533130884171e-03,-4.455412179231643677e-02,8.904709666967391968e-02,1.900001242756843567e-02,-2.003302238881587982e-02,-1.363659352064132690e-01,1.025748923420906067e-01,-1.037359088659286499e-01,6.322485394775867462e-03,1.092407386749982834e-02,2.348329275846481323e-01,1.023172438144683838e-01,1.318556442856788635e-02,-1.470298320055007935e-01,3.077719733119010925e-02,-6.017314270138740540e-02,2.736916951835155487e-02,1.735531389713287354e-01,-1.743916720151901245e-01,7.356271147727966309e-02,1.006526723504066467e-01,1.157873049378395081e-01,-1.186244413256645203e-01,-1.054294332861900330e-01,1.863072812557220459e-01,1.428277790546417236e-01,1.965597644448280334e-02,1.118232682347297668e-02,1.868639141321182251e-01,-1.365025192499160767e-01,1.208362951874732971e-01,6.285308301448822021e-02,6.689730286598205566e-02,-8.331540226936340332e-02,-1.445350199937820435e-01,-3.266815096139907837e-02,-1.424019187688827515e-01,5.290345475077629089e-02,5.134121980518102646e-03,1.046695709228515625e-01,8.663831278681755066e-03,-1.013263091444969177e-01,1.813865303993225098e-01,8.446989208459854126e-02,8.988004922866821289e-02,-1.537643224000930786e-01,2.411765903234481812e-01,-1.689080297946929932e-01,-9.124612808227539062e-02,-5.888377875089645386e-02,-3.812123090028762817e-02,-5.920820310711860657e-02,1.763223260641098022e-01,3.623314946889877319e-02,1.822576969861984253e-01,3.089700043201446533e-01,1.145702600479125977e-01,-1.287980228662490845e-01,-1.141637861728668213e-01,1.056925654411315918e-01,1.087300702929496765e-01,-8.975561708211898804e-02,6.059602275490760803e-02,1.771766543388366699e-01,-1.562529802322387695e-01,-2.551683224737644196e-02,-1.952220872044563293e-02,1.373579204082489014e-01,8.131428062915802002e-02,3.016797825694084167e-02,6.867440883070230484e-03,-8.815508335828781128e-02,2.347879111766815186e-02,1.093207150697708130e-01,-1.329574175179004669e-02,6.340969121083617210e-04,5.746984109282493591e-02,-6.057953834533691406e-02,7.331117987632751465e-02,1.406986359506845474e-02,-2.103227525949478149e-01,5.731686204671859741e-02,4.522849246859550476e-02,7.876767218112945557e-02,-4.019821807742118835e-02,-1.514064371585845947e-01,-8.236369490623474121e-02,-1.179795116186141968e-01,1.161820366978645325e-01,3.673541918396949768e-02,-1.489433646202087402e-01,-1.127924248576164246e-01,-1.149528473615646362e-02,-1.173169016838073730e-01,7.032393664121627808e-02,-1.270489543676376343e-01,6.734033674001693726e-02,-6.870552897453308105e-02,7.364970445632934570e-02,6.958793103694915771e-02,1.252566576004028320e-01,-1.303953975439071655e-01,-1.063021570444107056e-01,2.270360291004180908e-02,-7.650656998157501221e-02,5.593601986765861511e-02,6.242091208696365356e-02,2.038919329643249512e-01,8.532170206308364868e-02,2.132926434278488159e-01,-4.411735758185386658e-02,-1.437634378671646118e-01,1.049565970897674561e-01,-4.352588206529617310e-02,-5.108195170760154724e-02,1.575825214385986328e-01,1.182424575090408325e-01,5.135725066065788269e-02,-1.865366101264953613e-02,1.907420717179775238e-02,-5.552880838513374329e-02,1.108775734901428223e-01,1.321216374635696411e-01,2.212855964899063110e-01,-3.784189224243164062e-01,2.106411904096603394e-01,3.738449886441230774e-02,2.216391563415527344e-01,1.077502220869064331e-01,-4.146412760019302368e-02,-1.917611360549926758e-01,8.264975994825363159e-02,-9.440404921770095825e-02,-4.262226447463035583e-02,9.896205365657806396e-02,1.111008003354072571e-01,-3.320735692977905273e-02,-1.664968207478523254e-02,-1.455727368593215942e-01,-1.010349094867706299e-01,-1.980561316013336182e-01,-1.545569300651550293e-01,2.964556403458118439e-02,1.735909581184387207e-01,-1.652297228574752808e-01,8.836556226015090942e-02,-1.173839718103408813e-01,3.452167287468910217e-02,-5.211358517408370972e-02,-5.355727672576904297e-02,6.712849438190460205e-02,-7.636074721813201904e-02,-2.137870527803897858e-02,-6.552749872207641602e-02,-5.618234351277351379e-02,1.580318436026573181e-02,1.256799399852752686e-01,-7.772889733314514160e-02,3.654941543936729431e-02,-8.714719675481319427e-03,1.257062256336212158e-01,1.043201684951782227e-01,-2.736995220184326172e-01,-1.503124684095382690e-01,7.004864513874053955e-02,-6.199829280376434326e-02,1.408389955759048462e-01,9.632173180580139160e-02,1.617494076490402222e-01,-3.068193607032299042e-02,-4.771094769239425659e-02,4.362659063190221786e-03,2.325149923563003540e-01,3.802432119846343994e-02,3.463629633188247681e-02,-1.428662091493606567e-01,-5.236849561333656311e-02,-8.380909450352191925e-03,1.200117543339729309e-01,1.457835435867309570e-01,-5.893139168620109558e-02,1.105668097734451294e-01,6.711667031049728394e-02,-1.101832650601863861e-02,4.752486199140548706e-02,9.114865958690643311e-02,1.637568473815917969e-01,1.632046997547149658e-01,-1.315128803253173828e-01,2.002841047942638397e-02,4.970014467835426331e-02,7.804286200553178787e-03,9.608641266822814941e-02,-1.239421777427196503e-02,-1.052438765764236450e-01,-6.753361225128173828e-02,1.288165152072906494e-01,-1.412977837026119232e-02,1.643392294645309448e-01,7.117675989866256714e-02,-3.167855367064476013e-02,5.243109911680221558e-02,5.257034674286842346e-02,4.855189099907875061e-02,-5.986960977315902710e-02,-2.783866412937641144e-02,-1.493176631629467010e-02,-9.286481887102127075e-02,1.121835187077522278e-01,1.159755792468786240e-02,-1.150156110525131226e-01,-3.752981871366500854e-02,-1.218771710991859436e-01,3.023809008300304413e-02,-1.108470652252435684e-02,-2.399030514061450958e-02,5.509913712739944458e-02,4.719363152980804443e-02,6.175971403717994690e-02,-1.124623268842697144e-01,5.866067484021186829e-02,-1.143085435032844543e-01,7.584913820028305054e-02,2.435092581436038017e-03,-4.279250651597976685e-02,2.162173576653003693e-02,-2.709503844380378723e-02,-1.870373263955116272e-02,1.956729684025049210e-03,-2.285387367010116577e-03,1.533125936985015869e-01,-7.737458497285842896e-02,5.330096930265426636e-02,-1.180212479084730148e-02,4.058311134576797485e-02,-1.442356705665588379e-01,-7.961232960224151611e-02,4.840888455510139465e-02,9.671259671449661255e-02,-1.703899540007114410e-02,2.806003950536251068e-02,3.334233909845352173e-02,-1.080235391855239868e-01,4.358208552002906799e-02,-1.344496607780456543e-01,2.341002225875854492e-02,2.679772907868027687e-03,-1.260894387960433960e-01,9.271701797842979431e-03,1.033257991075515747e-01,-1.568618416786193848e-02,3.768211975693702698e-02,-6.165180355310440063e-03,-8.825442194938659668e-02,9.486613422632217407e-02,5.215360969305038452e-02,2.180958911776542664e-02,2.444020472466945648e-02,1.130881682038307190e-01,-1.268644034862518311e-01,1.207700222730636597e-01,-1.550183445215225220e-01,-1.167795658111572266e-01,-2.708113752305507660e-02,4.041504487395286560e-02,-6.080025807023048401e-02,1.158682331442832947e-01,1.207288727164268494e-01,-1.801526546478271484e-02,-7.036698516458272934e-03,3.366113454103469849e-02,2.007024884223937988e-01,-6.515179574489593506e-02,-1.355473846197128296e-01,-1.289316266775131226e-01,9.902719408273696899e-02,-3.065017424523830414e-02,-1.118667945265769958e-01,1.649567484855651855e-02,-4.188481345772743225e-02,-4.985244013369083405e-03,8.583053946495056152e-02,1.370147913694381714e-01,-9.134249389171600342e-02,3.576780855655670166e-02,1.146289706230163574e-01,-8.927295356988906860e-02,-2.029239833354949951e-01,-8.170471340417861938e-02,4.037495702505111694e-02,2.006555497646331787e-01,1.369118690490722656e-01,1.336840689182281494e-01,1.251245290040969849e-01,5.798279494047164917e-02,1.744558289647102356e-02,5.768046248704195023e-04,-7.923975586891174316e-02,-1.294380128383636475e-01,-4.972952418029308319e-03,1.322345137596130371e-01,3.782808408141136169e-02,9.837979823350906372e-02,-1.311448663473129272e-01,-3.711203485727310181e-02,-6.143195554614067078e-02,-1.451949030160903931e-01,1.375277489423751831e-01,1.324745118618011475e-01,-1.444528698921203613e-01,-1.995355784893035889e-01,1.563286185264587402e-01,2.503419527783989906e-03,-8.988904207944869995e-02,-7.009723782539367676e-02,1.387818157672882080e-01,-1.077900156378746033e-01,-3.870700672268867493e-02,-5.480192601680755615e-03,-2.462333813309669495e-02,-5.494625773280858994e-03,-8.352541923522949219e-02,1.473817508667707443e-02,-1.826534122228622437e-01,-5.939664319157600403e-02,-4.541986435651779175e-02,7.400596886873245239e-02,3.640177100896835327e-02,4.119437932968139648e-02,1.630469411611557007e-01,-2.217237949371337891e-01,6.884614005684852600e-03,8.742074668407440186e-02,-1.183132454752922058e-01,1.328322738409042358e-01,-9.838309139013290405e-02,9.565535932779312134e-02,2.098680585622787476e-01,1.453634947538375854e-01,3.122450783848762512e-02,-1.668691039085388184e-01,-2.004839479923248291e-01,-2.074155583977699280e-02,-9.930252283811569214e-02,1.662922352552413940e-01,7.134640216827392578e-02,-7.259225845336914062e-02,-2.433089911937713623e-01,-2.336008697748184204e-01,-2.644660770893096924e-01,-5.278904736042022705e-02,-1.244865241460502148e-03,1.035771071910858154e-01,2.514819204807281494e-01,1.425421386957168579e-01,2.697266936302185059e-01,1.032478511333465576e-01,-1.750282756984233856e-02,3.242184221744537354e-02,4.542445391416549683e-02,5.724070966243743896e-02,-7.091664522886276245e-02,2.634252607822418213e-01,-1.190113127231597900e-01,-1.550415344536304474e-02,9.429827332496643066e-02,-8.631718158721923828e-02,-7.595541328191757202e-02,4.365484043955802917e-02,-1.909458450973033905e-02,2.016313187777996063e-02,-1.216454431414604187e-01,1.149651855230331421e-01,1.451817005872726440e-01,-4.323973506689071655e-02,-5.688221007585525513e-02,1.802528798580169678e-01,1.186175867915153503e-01,1.208522394299507141e-01,9.817898273468017578e-02,-3.145575150847434998e-02,1.134258657693862915e-01,8.939207345247268677e-02,1.093672588467597961e-01,-7.053534686565399170e-02,6.493825465440750122e-02,6.901418417692184448e-02,-1.086290478706359863e-01,9.468019753694534302e-02,1.286427676677703857e-01,-5.566830746829509735e-03,-1.159891262650489807e-01,-9.022787213325500488e-02,1.852029748260974884e-02,-2.152310125529766083e-02,5.594542622566223145e-02,6.213016808032989502e-02,-6.723266839981079102e-02,-2.513108588755130768e-02,-3.015082515776157379e-02,5.155592039227485657e-02,9.800628572702407837e-02,1.867924630641937256e-01,1.119005680084228516e-01,3.941733017563819885e-02,-1.093386090360581875e-03,-9.219872206449508667e-02,8.497856557369232178e-03,-1.792591623961925507e-02,3.818894550204277039e-02,-3.830501064658164978e-02,8.488635718822479248e-02,8.566502481698989868e-02,-6.217526271939277649e-02,-1.250213086605072021e-01,1.978941708803176880e-01,1.716466806828975677e-02,-2.288918383419513702e-02,-1.330284625291824341e-01,-4.971833899617195129e-02,5.323075130581855774e-02,8.694426715373992920e-02,-1.056364327669143677e-01,2.395822480320930481e-02,-3.336292877793312073e-02,-1.120714247226715088e-01,-4.676236957311630249e-02,-2.615983597934246063e-02,-4.305465519428253174e-02,-7.351101934909820557e-02,-4.489593952894210815e-02,-2.188431285321712494e-02,1.648942679166793823e-01,-1.205628290772438049e-01,1.694971323013305664e-01,5.470057204365730286e-02,2.900729514658451080e-02,2.017978429794311523e-01,7.045219838619232178e-02,8.605286478996276855e-02,1.011397689580917358e-01,-1.524859964847564697e-01,-3.911321610212326050e-02,5.331815779209136963e-02,2.426749840378761292e-02,-1.404268741607666016e-01,9.691760689020156860e-02,-1.200703531503677368e-01,-4.038944467902183533e-02,-1.120791360735893250e-01,2.537751793861389160e-01,4.424213618040084839e-02,-5.623590946197509766e-02,1.231451407074928284e-01,3.425861522555351257e-02,6.484503298997879028e-02,1.011214479804039001e-01,-1.289931386709213257e-01,-7.031527906656265259e-02,9.496142156422138214e-03,-1.627460122108459473e-01,6.168096885085105896e-02,-1.195297911763191223e-01,-1.227417774498462677e-02,5.052315816283226013e-02,1.391941588371992111e-02,9.901424497365951538e-02,-1.383852958679199219e-01,1.459891498088836670e-01,1.203385517001152039e-01,5.849760770797729492e-02,-1.031631827354431152e-01,1.793465018272399902e-01,-1.718370020389556885e-01,4.116221889853477478e-02,7.685775309801101685e-02,6.443066988140344620e-03,-2.586066722869873047e-02,-3.815574571490287781e-02,1.372597366571426392e-01,-4.375537857413291931e-02,-1.158197522163391113e-01,-1.628610193729400635e-01,-6.592278182506561279e-02,-6.315963715314865112e-02,7.145846635103225708e-02,-1.884646713733673096e-02,-1.788672804832458496e-01,1.477881968021392822e-01,8.904208987951278687e-02,-9.990476816892623901e-02,9.913140535354614258e-02,-4.997332394123077393e-02,-7.375710457563400269e-02,-2.763247350230813026e-03,-1.806986145675182343e-02,6.192965805530548096e-02,-2.280064672231674194e-01,1.776196062564849854e-02,-6.378959864377975464e-02,-2.668343670666217804e-02,-5.170006304979324341e-02,1.990550383925437927e-02,1.072184666991233826e-01,1.132721155881881714e-01,5.101373046636581421e-02,2.732325159013271332e-02,1.639658957719802856e-01,-6.548888236284255981e-02,7.206087466329336166e-03,1.155819091945886612e-02,7.523984182626008987e-03,-5.794597789645195007e-02,7.192851603031158447e-02,-7.651960849761962891e-02,-4.442760348320007324e-02,9.645760059356689453e-02,9.703331440687179565e-02,-9.026835858821868896e-02,-1.414896100759506226e-01,5.414839833974838257e-02,2.794838696718215942e-02,-1.592146605253219604e-01,3.625968098640441895e-02,-5.014405399560928345e-02,3.579104691743850708e-02,4.864300042390823364e-02,4.241256043314933777e-02,-9.145043045282363892e-02,-9.670259431004524231e-03,-5.276421085000038147e-02,5.555850919336080551e-03,4.827638342976570129e-02,-1.727885752916336060e-01,2.975619770586490631e-02,1.663175076246261597e-01,-5.732718389481306076e-03,5.452099069952964783e-02,6.937355548143386841e-02,8.124483376741409302e-02,1.679093241691589355e-01,-8.794145658612251282e-03,9.534628689289093018e-02,4.521536827087402344e-02,-1.119495779275894165e-01,4.753766953945159912e-02,2.019750773906707764e-01,1.114500835537910461e-01,-1.209421977400779724e-01,-7.590978592634201050e-02,1.046390384435653687e-01,6.033344939351081848e-02,-7.490367442369461060e-02,6.265851855278015137e-02,-2.877634763717651367e-02,-4.072231799364089966e-02,-6.791526824235916138e-02,-6.921320408582687378e-02,-6.556100398302078247e-02,-2.482981421053409576e-02,1.384500414133071899e-02,1.228545606136322021e-01,-8.860433846712112427e-02,-1.123092174530029297e-01,-6.112330779433250427e-02,1.173939481377601624e-01,-9.683489054441452026e-02,4.295125231146812439e-02,7.772216200828552246e-02,-2.407814860343933105e-01,8.505717664957046509e-02,1.465854197740554810e-01,3.097944147884845734e-02,-2.899928390979766846e-02,3.460452705621719360e-02,-1.433911770582199097e-01,-1.588153280317783356e-02,-1.062675118446350098e-01,-6.616876274347305298e-02,9.082997590303421021e-02,-1.278775185346603394e-01,1.651865243911743164e-02,7.375268638134002686e-02,-3.999141603708267212e-02,-1.403774023056030273e-01,8.898547291755676270e-02,8.313927799463272095e-02,1.477492898702621460e-01,-2.868610993027687073e-02,4.933697357773780823e-02,1.187210604548454285e-01,3.394999504089355469e-01,3.453634306788444519e-02,1.249322518706321716e-01,-1.391467265784740448e-02,5.890277773141860962e-02,-8.832700550556182861e-02,2.237234264612197876e-03,-5.552571266889572144e-03,1.361004635691642761e-02,-6.292892992496490479e-02,4.577052965760231018e-02,3.803133219480514526e-02,1.384440660476684570e-01,-1.152744218707084656e-01,-6.989698857069015503e-03,-3.512186929583549500e-02,1.050401404500007629e-01,-5.037049204111099243e-02,4.592892155051231384e-02,4.779094457626342773e-02,9.475541114807128906e-02,-8.875413984060287476e-02,-2.199654877185821533e-01,6.537002325057983398e-02,-3.997983038425445557e-02,5.345633998513221741e-02,1.200668290257453918e-01,-9.591598063707351685e-02,-1.277585476636886597e-01,1.122800707817077637e-01,-1.940717734396457672e-02,-1.074914410710334778e-01,1.629045605659484863e-01,-8.492550253868103027e-02,1.023896113038063049e-01,1.730066537857055664e-02,1.086683645844459534e-01,7.171566784381866455e-02,-1.099327486008405685e-02,-1.052704676985740662e-01,-1.540307849645614624e-01,1.318220421671867371e-02,-1.602354347705841064e-01,-1.712108552455902100e-01,-1.320982128381729126e-01,-8.131308108568191528e-02,-8.473981916904449463e-02,-1.125857084989547729e-01,1.349043250083923340e-01,8.092604577541351318e-02,-3.151694834232330322e-01,1.831183582544326782e-02,-1.122688502073287964e-01,-4.693994298577308655e-02,1.417911201715469360e-01,3.920503705739974976e-02,8.917950093746185303e-02,9.544221684336662292e-03,4.906943440437316895e-02,-3.777956357225775719e-03,-1.183336526155471802e-01,4.004477709531784058e-02,9.475850313901901245e-02,-9.299590252339839935e-03,-1.838676780462265015e-01,-9.524529427289962769e-02,-4.984551668167114258e-02,8.456742763519287109e-02,-7.186115533113479614e-02,-2.201342210173606873e-02,6.114208325743675232e-02,-2.631843462586402893e-02,1.187184974551200867e-01,-1.618997603654861450e-01,6.100579351186752319e-02,-2.907052263617515564e-02,1.148188188672065735e-01,-4.386916756629943848e-02,-1.176572889089584351e-01,-6.809268891811370850e-02,1.478083878755569458e-01,5.384999141097068787e-02,-1.189753785729408264e-01,-5.987774208188056946e-02,-8.000708371400833130e-02,1.361782401800155640e-01,1.086086258292198181e-01,-2.761367149651050568e-02,-2.627081423997879028e-02,-2.098243497312068939e-02,-4.243651404976844788e-02,4.851581156253814697e-02,-1.267389953136444092e-01,-9.069858491420745850e-02,-2.327940799295902252e-02,-1.266541481018066406e-01,-3.843272849917411804e-02,4.895538836717605591e-02,-6.317197531461715698e-02,-1.132653877139091492e-01,-3.525114804506301880e-02,9.906354546546936035e-02,1.037477925419807434e-01,1.215667724609375000e-01,7.593370974063873291e-02,1.804981380701065063e-01,1.096984744071960449e-01,6.730782240629196167e-02,-4.081920906901359558e-02,5.775803700089454651e-02,4.903155192732810974e-02,6.545981019735336304e-02,8.816105127334594727e-02,5.601723119616508484e-02,-6.560795009136199951e-02,8.068586140871047974e-02,4.591463133692741394e-02,-7.175787538290023804e-02,-8.967685699462890625e-02,-3.685284405946731567e-02,-8.202243596315383911e-02,1.270235050469636917e-02,-7.475631684064865112e-02,-4.158237576484680176e-02,6.985029671341180801e-03,1.140527054667472839e-01,-1.270838826894760132e-01,-7.552927732467651367e-02,3.095803409814834595e-02,9.041500836610794067e-02,-1.712107658386230469e-01,1.444001346826553345e-01,-1.671449095010757446e-02,-7.419625669717788696e-02,-1.122737452387809753e-01,8.918272703886032104e-02,1.345484554767608643e-01,-2.360493689775466919e-02,1.319623552262783051e-02,1.345653533935546875e-01,1.764557883143424988e-02,5.352428182959556580e-02,1.134776324033737183e-01,-4.029019922018051147e-02,-5.966547504067420959e-02,2.541953139007091522e-02,7.042399793863296509e-02,1.663432717323303223e-01,1.081927046179771423e-01,1.317279785871505737e-01,-1.706392914056777954e-01,-8.847234770655632019e-03,-8.891665935516357422e-02,-2.326450496912002563e-02,-7.371453940868377686e-02,3.091441467404365540e-02,-2.786642871797084808e-02,-4.274073988199234009e-02,-8.706296794116497040e-03,8.506300300359725952e-02,1.823268383741378784e-01,-9.063356369733810425e-02,-7.934111356735229492e-02,-7.691532373428344727e-02,-7.399998605251312256e-02,5.255126208066940308e-02,-8.829113095998764038e-02,1.096220761537551880e-01,-6.318108737468719482e-02,-1.161557808518409729e-02,1.576428562402725220e-01,8.475772105157375336e-03,-2.577396854758262634e-02,1.222558878362178802e-02,-6.164365261793136597e-02,1.234976691193878651e-03,1.042650640010833740e-01,-1.081527490168809891e-02,3.029529377818107605e-02,9.608951956033706665e-02,-9.986240416765213013e-02,-1.125951390713453293e-02,1.866907477378845215e-01,4.201966151595115662e-02,-1.150302030146121979e-02,7.089900225400924683e-02,7.649847120046615601e-02,-5.763320624828338623e-02,-1.885849684476852417e-01,4.681146517395973206e-02,-5.293899215757846832e-03,1.287740468978881836e-01,-1.066316589713096619e-01,1.181249395012855530e-01,-1.330401166342198849e-03,6.704562902450561523e-02,-8.664830774068832397e-02,3.167239949107170105e-02,-7.357947994023561478e-03,-3.063935413956642151e-02,9.869123995304107666e-02,-2.577800303697586060e-02,7.538811769336462021e-03,-9.443946182727813721e-02,-3.754612430930137634e-02,1.160672977566719055e-01,-1.033501997590065002e-01,-8.899305760860443115e-02,-1.091915741562843323e-01,-1.382769346237182617e-01,-6.797429919242858887e-02,-7.321212440729141235e-02,-2.232736162841320038e-02,1.224224418401718140e-01,1.003626659512519836e-01,-9.854234009981155396e-02,1.475161910057067871e-01,-1.144931316375732422e-01,-3.081295639276504517e-02,-4.437273368239402771e-02,9.840294718742370605e-02,-6.478904932737350464e-02,-7.215294986963272095e-02,-4.853490274399518967e-03,7.760636508464813232e-02,3.080234676599502563e-02,1.274686902761459351e-01,-1.283072382211685181e-01,7.080812007188796997e-02,-1.012164577841758728e-01,5.111779645085334778e-02,4.504480957984924316e-02,1.430509686470031738e-01,-2.566956169903278351e-02,-9.287991374731063843e-02,7.770371623337268829e-03,-1.133612915873527527e-01,-8.450093120336532593e-02,-9.637894481420516968e-02,-3.465949743986129761e-02,-6.371347606182098389e-02,-3.498666733503341675e-02,-4.190403968095779419e-03,-8.098079264163970947e-02,2.458407878875732422e-01,6.330528296530246735e-03,-3.626727685332298279e-02,-1.213047876954078674e-01,-1.019048914313316345e-01,1.388004273176193237e-01,8.870276063680648804e-02,1.483348608016967773e-01,-1.204407885670661926e-01,9.396515041589736938e-02,-9.701285511255264282e-02,7.851917296648025513e-02,-1.146253570914268494e-01,3.225998580455780029e-02,1.098276376724243164e-01,2.583972737193107605e-02,-4.231586679816246033e-02,1.677817255258560181e-01,1.896927058696746826e-01,-2.986606396734714508e-02,-3.236738219857215881e-02,6.776307523250579834e-02,-1.233814433217048645e-01,-4.212060943245887756e-02,-6.476015597581863403e-02,6.849588453769683838e-02,1.381690949201583862e-01,8.228770457208156586e-03,6.329500675201416016e-02,6.233393028378486633e-02,1.034969985485076904e-01,9.826739132404327393e-02,-5.104427039623260498e-02,7.223228365182876587e-02,-5.946603789925575256e-02,-1.668105833232402802e-02,1.230554282665252686e-01,-9.173092246055603027e-02,-1.567138582468032837e-01,1.142506077885627747e-01,9.171794354915618896e-02,6.894088000990450382e-04,-5.885291099548339844e-02,-9.086426347494125366e-02,-1.505136489868164062e-01,2.225011849077418447e-04,-4.410965368151664734e-03,-1.689267531037330627e-02,-1.038976479321718216e-02,-9.443186968564987183e-02,-4.717864468693733215e-02,3.378933668136596680e-02,7.949464023113250732e-02,-8.035374432802200317e-02,6.846940517425537109e-02,3.269939497113227844e-02,1.357186287641525269e-01,8.927176147699356079e-02,-3.064406104385852814e-02,1.691267266869544983e-02,-2.823774889111518860e-02,-1.010578721761703491e-01,5.182035639882087708e-02,-4.827755317091941833e-02,1.416014432907104492e-01,-7.397247105836868286e-02,9.511302411556243896e-02,-8.909863978624343872e-02,1.023386511951684952e-02,-1.425106078386306763e-01,-1.549304346553981304e-03,7.684380561113357544e-02,-1.154093071818351746e-01,9.291222691535949707e-02,-9.158978611230850220e-02,4.003991559147834778e-02,5.348464846611022949e-02,4.886814579367637634e-02,1.052591204643249512e-01,8.436033129692077637e-02,1.821103692054748535e-02,5.227207392454147339e-02,8.592630177736282349e-02,1.879537999629974365e-01,6.133839488029479980e-03,1.234596893191337585e-01,-1.101589575409889221e-01,1.461148113012313843e-01,-1.128716692328453064e-01,8.243840187788009644e-03,-1.762486547231674194e-01,-1.220053359866142273e-01,4.628550633788108826e-02,1.783281750977039337e-02,-1.675689779222011566e-02,6.870130449533462524e-02,3.978262096643447876e-02,-1.311502903699874878e-01,-6.304706912487745285e-03,6.180537864565849304e-02,-1.525739133358001709e-01,-3.579531610012054443e-02,-6.221992895007133484e-02,-2.411181107163429260e-02,-3.484269836917519569e-03,-3.636771067976951599e-02,-8.909765630960464478e-02,-7.473928481340408325e-02,-8.223429322242736816e-02,1.427337154746055603e-02,1.203643344342708588e-02,7.690214365720748901e-02,-4.468966275453567505e-02,-7.048571854829788208e-02,1.076911315321922302e-01,7.724517583847045898e-02,-1.277492344379425049e-01,-8.909218013286590576e-02,2.624520659446716309e-01,-8.015675842761993408e-02,-1.610839068889617920e-01,1.897760666906833649e-02,3.740873932838439941e-02,5.485042929649353027e-02,-1.510877758264541626e-01,-4.043076932430267334e-02,8.573330938816070557e-02,1.038121953606605530e-01,-1.093582808971405029e-01,7.056005299091339111e-02,-2.466328069567680359e-02,5.460604652762413025e-02,7.383899390697479248e-02,-7.087050378322601318e-02,-2.201583608984947205e-02,-2.672537416219711304e-02,1.357292477041482925e-02,-3.121856972575187683e-02,-8.615556871518492699e-04,1.064286753535270691e-01,-5.019189417362213135e-02,6.826718151569366455e-02,1.571704447269439697e-01,5.713097006082534790e-02,-9.619887918233871460e-02,5.305882915854454041e-02,-6.790391355752944946e-02,-7.839921116828918457e-02,4.651556909084320068e-02,-6.727226823568344116e-02,-1.029526907950639725e-02,1.503155678510665894e-01,-2.639651112258434296e-02,-6.333099305629730225e-02,-1.411495953798294067e-01,4.765623435378074646e-02,-4.518347233533859253e-02,4.257992282509803772e-02,5.991027876734733582e-02,8.823303878307342529e-02,9.329298138618469238e-02,6.933462340384721756e-03,6.544683873653411865e-02,-5.759065970778465271e-02,-6.181613728404045105e-02,-2.045854367315769196e-02,6.609961390495300293e-02,5.714868381619453430e-02,-3.964550048112869263e-02,2.225310169160366058e-02,2.515109814703464508e-02,1.017652545124292374e-02,5.819444358348846436e-02,1.016471982002258301e-01,-2.324767038226127625e-02,8.877005428075790405e-02,-8.847091346979141235e-02,-1.059974282979965210e-01,8.138626813888549805e-02,2.517019771039485931e-02,-1.835476793348789215e-02,1.033301502466201782e-01,-7.055088132619857788e-02,-1.302311755716800690e-02,2.906734496355056763e-02,3.478288277983665466e-02,9.993861429393291473e-03,-2.155516296625137329e-02,-1.303211003541946411e-01,-3.303488716483116150e-02,1.240082010626792908e-01,9.922913461923599243e-02,-7.544416189193725586e-02,7.645768672227859497e-02,7.788401097059249878e-02,-4.817526787519454956e-02,7.271376252174377441e-02,1.125511825084686279e-01,-6.565965712070465088e-02,3.467675670981407166e-02,4.493264947086572647e-03,4.212627559900283813e-02,9.226979315280914307e-02,-8.423772454261779785e-02,4.844087362289428711e-02,-1.701020151376724243e-01,-2.124549001455307007e-01,1.100913658738136292e-01,1.335572302341461182e-01,-1.646861433982849121e-01,4.473137855529785156e-02,-3.186860308051109314e-02,-2.294416911900043488e-02,1.156475171446800232e-01,1.753381639719009399e-01,-1.459850072860717773e-01,-4.864127188920974731e-02,-1.511928439140319824e-01,7.777699083089828491e-02,-1.164056267589330673e-02,9.695973247289657593e-02,9.804343804717063904e-03,-1.875963211059570312e-01,5.350812524557113647e-02,2.775775268673896790e-02,-3.293740376830101013e-02,-3.420909494161605835e-02,-1.590342521667480469e-01,-3.210706263780593872e-02,-2.568071894347667694e-02,8.242734521627426147e-02,7.547424640506505966e-03,-9.438393265008926392e-02,-5.705292522907257080e-02,-1.813080012798309326e-01,-3.409948199987411499e-02,9.052255004644393921e-02,6.763224489986896515e-03,-2.079971320927143097e-02,-1.623578220605850220e-01,1.183811053633689880e-01,5.718385335057973862e-03,-7.216185331344604492e-02,-1.013724599033594131e-02,-7.838268578052520752e-02,-1.981750596314668655e-03,-3.118378482758998871e-02,7.821933180093765259e-02,-1.921692676842212677e-02,6.489992141723632812e-02,1.166887860745191574e-02,-1.479608714580535889e-01,1.098495274782180786e-01,3.428294882178306580e-02,-1.144694238901138306e-01,9.886011481285095215e-02,-5.935110524296760559e-02,-1.532064750790596008e-02,2.779929526150226593e-02,-9.407491981983184814e-02,5.948651954531669617e-02,3.532138466835021973e-02,-2.500952919945120811e-03,1.413060575723648071e-01,1.210909523069858551e-02,-1.091347113251686096e-01,-1.081286277621984482e-02,9.962056577205657959e-02,-1.054357364773750305e-02,4.081517457962036133e-02,-3.754916787147521973e-02,-9.404250234365463257e-02,-6.363754719495773315e-02,5.076183471828699112e-03,-4.481826722621917725e-02,5.097936838865280151e-03,-6.551541388034820557e-02,1.026579737663269043e-01,1.262617707252502441e-01,3.640126809477806091e-02,2.464009076356887817e-02,1.807292997837066650e-01,-6.344687193632125854e-02,8.112214505672454834e-03,6.229898706078529358e-02,-7.980962283909320831e-03,4.283123463392257690e-02,-1.258754581212997437e-01,7.454217877238988876e-03,-1.533583104610443115e-01,1.233784779906272888e-01,3.700184170156717300e-03,-9.207211434841156006e-03,1.122765392065048218e-01,-2.936346828937530518e-02,1.732990331947803497e-02,-8.798615634441375732e-02,-1.259575225412845612e-02,-1.322440505027770996e-01,-1.709936857223510742e-01,1.765150129795074463e-01,-6.287778168916702271e-02,-9.215685725212097168e-02,-3.009654209017753601e-02,-1.168075054883956909e-01,1.109046041965484619e-01,-1.649611443281173706e-01,-4.143149778246879578e-02,4.355922713875770569e-02,-1.310597956180572510e-01,1.969159580767154694e-02,3.925953805446624756e-02,-5.965185537934303284e-02,-5.988065153360366821e-02,1.093744784593582153e-01,1.423388253897428513e-02,-7.181604951620101929e-02,-1.916954293847084045e-02,1.228034272789955139e-01,8.476126939058303833e-02,7.444398105144500732e-02,2.471579425036907196e-02,-1.640985906124114990e-01,-1.611842066049575806e-01,-1.000504493713378906e-01,1.746259815990924835e-02,-3.019898664206266403e-03,9.720502048730850220e-02,-4.515532404184341431e-02,2.048049569129943848e-01,5.742980167269706726e-02,4.910286515951156616e-02,5.261919647455215454e-02,2.038302868604660034e-01,1.346561312675476074e-01,-2.556499466300010681e-02,1.972559690475463867e-01,9.447921067476272583e-03,3.536454588174819946e-02,-1.653129234910011292e-02,-1.198579277843236923e-02,1.470065563917160034e-01,2.310219109058380127e-01,-9.741726517677307129e-02,1.752790957689285278e-01,-1.927520632743835449e-01,-1.220619753003120422e-01,-9.806443750858306885e-02,8.339197933673858643e-02,7.348492741584777832e-02,1.256772503256797791e-02,-3.235974535346031189e-02,-2.072247415781021118e-01,-1.435343027114868164e-01,-1.172156780958175659e-01,-8.881879597902297974e-02,7.304885238409042358e-02,-9.956944733858108521e-02,1.686758734285831451e-02,1.067459955811500549e-01,1.401489675045013428e-01,7.382741570472717285e-02,8.192861080169677734e-02,1.877017319202423096e-01,-1.374696493148803711e-01,1.910653561353683472e-01,1.076908316463232040e-02,3.239483013749122620e-02,4.028843250125646591e-03,-6.402498483657836914e-02,9.763408452272415161e-02,-4.880499094724655151e-02,-2.666149288415908813e-03,-1.499075256288051605e-02,3.041508235037326813e-02,5.046932399272918701e-02,6.028588861227035522e-03,-6.842574477195739746e-02,2.167555540800094604e-01,-3.402904793620109558e-02,1.532746106386184692e-01,-5.059365928173065186e-02,-7.051829993724822998e-02,1.188367884606122971e-02,5.930670350790023804e-02,-1.056203991174697876e-01,1.113509908318519592e-01,-1.227666139602661133e-01,1.653990149497985840e-01,1.007080078125000000e-01,1.541827768087387085e-01,2.506254240870475769e-03,1.432064734399318695e-02,1.721201390027999878e-01,-2.311371117830276489e-01,-3.456596285104751587e-02,4.162392392754554749e-02,-2.072479575872421265e-02,-9.969128668308258057e-02,-1.601710319519042969e-01,-2.758464775979518890e-02,-1.451551765203475952e-01,-7.751485705375671387e-02,-2.605243772268295288e-02,1.269455105066299438e-01,9.675316512584686279e-02,-1.008071303367614746e-01,-4.805192351341247559e-02,1.257344931364059448e-01,1.574452966451644897e-02,7.504121959209442139e-02,1.425565499812364578e-02,-6.834222376346588135e-02,1.400958597660064697e-01,2.035856097936630249e-01,-6.144246831536293030e-02,1.331250667572021484e-01,3.723392784595489502e-01,-6.967346370220184326e-02,-3.802904114127159119e-02,-5.334058776497840881e-03,5.489996075630187988e-02,1.455722004175186157e-01,-2.437512204051017761e-02,2.141494601964950562e-01,4.696569219231605530e-02,7.130115479230880737e-02,-1.085268333554267883e-02,8.819530904293060303e-02,-1.613266766071319580e-01,-3.978261724114418030e-03,-1.194407194852828979e-01,1.210760399699211121e-01,-1.475151777267456055e-01,-4.284821823239326477e-02,-2.548640072345733643e-01,6.889663636684417725e-02,-2.724485471844673157e-02,-4.028925672173500061e-02,4.755046218633651733e-02,-6.371326744556427002e-02,-7.010809332132339478e-02,6.259479373693466187e-02,9.645147621631622314e-02,-2.121674716472625732e-01,1.242753341794013977e-01,-6.247533485293388367e-02,7.519569247961044312e-02,-1.180880516767501831e-01,8.711016923189163208e-02,-2.410010248422622681e-01,-7.984554395079612732e-03,1.014296710491180420e-02,1.078985854983329773e-01,3.339563682675361633e-02,-1.759329289197921753e-01,-3.319946303963661194e-02,-7.895661890506744385e-02,1.708639785647392273e-02,-9.431189298629760742e-02,-1.189240515232086182e-01,-1.416076323948800564e-03,-2.631599642336368561e-02,9.477611631155014038e-02,-1.081090718507766724e-01,1.472094208002090454e-01,5.817087832838296890e-03,3.717583045363426208e-02,-5.986776202917098999e-02,-1.515469700098037720e-01,1.288078278303146362e-01,6.249005720019340515e-02,-8.203095197677612305e-02,8.242662996053695679e-02,4.787563905119895935e-02,2.318570576608181000e-02,2.763712964951992035e-02,5.753612890839576721e-02,7.520711421966552734e-02,2.050849609076976776e-02,3.825701773166656494e-02,-4.939777776598930359e-02,1.152884587645530701e-01,3.007092699408531189e-02,-4.690985381603240967e-02,1.257211416959762573e-01,8.565137535333633423e-02,-5.713013559579849243e-02,4.400803521275520325e-02,3.765264526009559631e-02,4.638790711760520935e-02,-3.452297300100326538e-02,6.369590759277343750e-02,2.548279166221618652e-01,5.310111446306109428e-04,-4.083936661481857300e-02,6.058941036462783813e-02,-3.115514293313026428e-02,-1.399734430015087128e-02,-5.667238030582666397e-03,-3.766928240656852722e-02,1.546738594770431519e-01,-3.143155248835682869e-03,-9.812775999307632446e-03,1.094101592898368835e-01,1.239322405308485031e-02,-1.312296092510223389e-01,-3.950486332178115845e-02,-3.730680048465728760e-02,1.323512345552444458e-01,-4.587049409747123718e-02,-1.034414023160934448e-01,1.319167166948318481e-01,-5.629477277398109436e-02,-1.593206673860549927e-01,1.800286471843719482e-01,-2.236609160900115967e-02,1.585574075579643250e-02,3.109836019575595856e-02,-7.550950348377227783e-02,2.888698503375053406e-02,-5.469215288758277893e-02,-9.395522624254226685e-02,5.625462159514427185e-03,-9.104902297258377075e-02,1.238021627068519592e-02,6.053867284208536148e-03,-1.907368004322052002e-02,1.663293242454528809e-01,-1.737763173878192902e-02,6.368771195411682129e-02,-9.882303327322006226e-02,-5.584330484271049500e-02,1.006466969847679138e-01,9.599141776561737061e-02,1.216970384120941162e-03,9.666522592306137085e-02,1.659787446260452271e-02,-5.607238039374351501e-02,-4.143108054995536804e-02,-4.187027364969253540e-02,2.730455435812473297e-02,7.499744649976491928e-03,-1.409518867731094360e-01,-2.741794846951961517e-02,9.474171698093414307e-02,1.596278324723243713e-02,-4.197385907173156738e-02,-1.527915298938751221e-01,-1.140005514025688171e-01,2.239438891410827637e-01,8.736183494329452515e-02,1.254751253873109818e-02,4.749564453959465027e-02,-1.090986356139183044e-01,2.875674515962600708e-02,-1.277041286230087280e-01,1.053710132837295532e-01,-9.635973721742630005e-03,7.120913267135620117e-02,4.662570729851722717e-02,1.895026303827762604e-02,3.913838416337966919e-02,2.892800793051719666e-02,-5.569240078330039978e-02,-1.674881204962730408e-02,9.780467487871646881e-03,1.729682646691799164e-02,4.415800794959068298e-02,3.758870065212249756e-02,2.881931513547897339e-02,-5.464707687497138977e-02,6.098198518157005310e-02,2.867334708571434021e-02,-9.017917513847351074e-02,-6.653869152069091797e-02,-4.505652934312820435e-03,-3.927836939692497253e-02,-1.337096244096755981e-01,-4.664975218474864960e-03,9.687206894159317017e-02,6.720360368490219116e-02,7.209672033786773682e-02,-3.751679882407188416e-02,1.444421987980604172e-02,-1.012417301535606384e-01,3.595660999417304993e-02,1.174269691109657288e-01,-1.312392950057983398e-01,3.360665217041969299e-02,1.658242754638195038e-02,8.204521238803863525e-02,1.098300982266664505e-02,-4.663717467337846756e-03,1.193811837583780289e-02,-1.277573872357606888e-03,-1.786325573921203613e-01,1.620603203773498535e-01,7.212464511394500732e-02,2.308274246752262115e-02,6.099049746990203857e-02,1.082605794072151184e-01,-2.146847359836101532e-02,1.254306286573410034e-01,3.617378696799278259e-02,-6.504413485527038574e-02,-5.548044294118881226e-02,-9.337797760963439941e-02,1.264196783304214478e-01,-1.188238859176635742e-01,1.027238145470619202e-01,-6.828502565622329712e-02,4.982566088438034058e-02,5.432674288749694824e-02,-1.993553712964057922e-02,-1.200072690844535828e-01,4.104461148381233215e-02,4.739831760525703430e-02,1.056697778403759003e-02,1.483242362737655640e-01,1.232218667864799500e-01,-1.248577833175659180e-01,9.269164502620697021e-02,-3.278692811727523804e-02,-1.307262927293777466e-01,4.349075630307197571e-02,-6.543136388063430786e-02,-1.619492769241333008e-01,-4.313053190708160400e-02,-1.569452323019504547e-02,-1.143474038690328598e-02,8.870841562747955322e-02,-6.114648655056953430e-02,-8.594649285078048706e-02,-6.128682941198348999e-02,5.690728500485420227e-02,1.955340057611465454e-02,-8.898039348423480988e-03,4.093209747225046158e-03,5.667340755462646484e-02,6.687147170305252075e-02,-1.252372562885284424e-01,2.898477204144001007e-02,-1.979645192623138428e-01,-8.725997805595397949e-02,-1.296961456537246704e-01,-5.248907953500747681e-02,-3.872535750269889832e-02,9.667350351810455322e-02,-4.259543493390083313e-02,-9.243107587099075317e-02,-6.964129954576492310e-02,5.154573544859886169e-02,-1.193196624517440796e-01,-1.106726191937923431e-02,-6.686174869537353516e-02,-1.564728468656539917e-02,-1.371268630027770996e-01,5.065330490469932556e-02,-1.233184412121772766e-01,-2.952143317088484764e-03,3.606295585632324219e-02,1.065590754151344299e-01,4.486672952771186829e-02,8.955669403076171875e-02,7.196212559938430786e-02,-1.438420359045267105e-02,-1.301396489143371582e-01,9.474541246891021729e-02,1.078835129737854004e-01,1.199429780244827271e-01,-1.149286404252052307e-01,8.866093121469020844e-03,7.431364059448242188e-02,-9.065480530261993408e-02,-3.203510865569114685e-02,-9.002377837896347046e-02,-4.479035362601280212e-02,-4.443903639912605286e-02,-6.868529319763183594e-02,-1.206281632184982300e-01,2.269518561661243439e-02,2.858348004519939423e-02,9.108535945415496826e-02,-1.325663179159164429e-02,-2.597757242619991302e-02,-1.967437863349914551e-01,2.275165915489196777e-02,-3.734225779771804810e-02,-4.531302303075790405e-02,-4.502556473016738892e-02,-1.871032454073429108e-02,-2.589304931461811066e-02,8.023551106452941895e-02,-5.799464881420135498e-03,-1.337383389472961426e-01,-1.331569403409957886e-01,-1.494156420230865479e-01,9.236835874617099762e-03,2.688753604888916016e-02,4.313791543245315552e-02,6.134478747844696045e-02,3.762219846248626709e-02,-2.246309220790863037e-01,-1.311554312705993652e-01,-7.269942760467529297e-02,-5.769214406609535217e-02,2.985145151615142822e-02,4.723689053207635880e-03,-1.551392078399658203e-01,2.861353941261768341e-02,-6.586894392967224121e-02,8.467771857976913452e-02,1.794839464128017426e-02,-2.393154799938201904e-02,5.354714021086692810e-02,3.621853888034820557e-02,1.385873090475797653e-02,-2.314282348379492760e-03,-1.787097603082656860e-01,4.413950070738792419e-02,9.826363995671272278e-03,-2.708152867853641510e-02,-2.583217248320579529e-02,-9.103889018297195435e-02,-4.130626097321510315e-03,6.420761346817016602e-03,5.646013468503952026e-02,-1.067591533064842224e-01,1.487075258046388626e-02,-1.163775399327278137e-01,-4.168889950960874557e-03,2.598658576607704163e-02,-4.661612585186958313e-02,4.302964359521865845e-02,1.995622180402278900e-02,8.109857887029647827e-02,7.012397795915603638e-02,-1.082721725106239319e-01,-3.081802045926451683e-03,-8.599164336919784546e-02,8.192317932844161987e-02,-1.583641022443771362e-01,-1.895886063575744629e-01,-9.386385977268218994e-02,-1.177480742335319519e-01,8.916784077882766724e-02,1.171066462993621826e-01,7.286050915718078613e-02,6.508418917655944824e-02,-9.027489274740219116e-02,-6.645635515451431274e-02,1.581361331045627594e-02,1.526883840560913086e-01,-5.168532207608222961e-02,9.309054166078567505e-02,-9.894087910652160645e-02,-1.808234453201293945e-01,9.861585497856140137e-02,-3.745904890820384026e-03,-7.123985793441534042e-03,-4.660675767809152603e-03,1.482778694480657578e-02,1.000900566577911377e-01,1.279026642441749573e-02,-8.164277533069252968e-04,-2.066689133644104004e-01,-1.126341000199317932e-01,-8.475569635629653931e-02,-5.353265628218650818e-02,2.056735754013061523e-01,-2.081298530101776123e-01,1.329776793718338013e-01,1.776719689369201660e-01,1.247247532010078430e-01,1.396887749433517456e-01,1.446730196475982666e-01,1.915188133716583252e-01,3.878149017691612244e-02,8.094340562820434570e-02,5.635170638561248779e-02,1.352445334196090698e-01,-2.375062368810176849e-02,6.156455725431442261e-02,1.570449322462081909e-01,-1.520767062902450562e-01,3.617505729198455811e-02,-2.726791799068450928e-02,1.598259210586547852e-01,-2.056298255920410156e-01,2.566581666469573975e-01,8.241801708936691284e-02,3.601352870464324951e-02,-8.497290313243865967e-02,6.637895852327346802e-02,-1.580342054367065430e-01,1.243341714143753052e-01,3.916446864604949951e-02,-1.876818686723709106e-01,1.698718778789043427e-02,-7.862085103988647461e-02,3.545970097184181213e-02,5.755975469946861267e-02,5.783319007605314255e-03,3.741369023919105530e-02,1.997939683496952057e-02,-1.092514395713806152e-01,8.302725106477737427e-02,8.810070902109146118e-02,4.814143478870391846e-02,-1.335080862045288086e-01,-5.974254384636878967e-02,-9.983460605144500732e-02,-1.038280874490737915e-01,-1.520685553550720215e-01,1.205058246850967407e-01,1.951741240918636322e-02,-2.923713065683841705e-02,4.037284478545188904e-02,1.189532410353422165e-02,-4.393409192562103271e-02,-1.000913605093955994e-01,-1.372254546731710434e-02,1.515460666269063950e-02,-1.130117699503898621e-01,6.752393394708633423e-02,-7.478032261133193970e-02,1.274106651544570923e-01,-1.261582411825656891e-02,6.345376372337341309e-02,1.012670099735260010e-01,-1.483486294746398926e-01,3.835830092430114746e-02,8.167076110839843750e-02,1.126100048422813416e-01,7.998569309711456299e-02,-3.536232933402061462e-02,1.776352077722549438e-01,-4.305717069655656815e-03,6.363075971603393555e-02,2.349047549068927765e-02,8.923874236643314362e-03,-8.625625073909759521e-02,1.374318301677703857e-01,9.376091882586479187e-03,-5.271911155432462692e-03,4.382402822375297546e-02,2.526254765689373016e-02,1.148892007768154144e-02,-9.693070501089096069e-02,8.965560793876647949e-02,1.594538986682891846e-01,6.085738167166709900e-02,-4.611760750412940979e-02,-1.434699296951293945e-01,-1.203929111361503601e-01,4.420011118054389954e-02,-1.368282735347747803e-01,-1.396793574094772339e-01,-2.159819565713405609e-02,-5.036847665905952454e-02,-9.885642677545547485e-03,3.117957711219787598e-02,-1.799953356385231018e-02,8.134929835796356201e-02,1.340189874172210693e-01,8.085445314645767212e-02,-1.185513585805892944e-01,-5.369995534420013428e-02,4.071436822414398193e-02,1.505843400955200195e-01,9.480293095111846924e-02,-5.406246334314346313e-02,-9.875916689634323120e-02,-1.066304221749305725e-01,1.821611821651458740e-01,-3.725549206137657166e-02,-1.073340475559234619e-01,1.738536655902862549e-01,-4.148579388856887817e-02,-1.581946015357971191e-01,-3.981380537152290344e-02,8.111688494682312012e-02,5.318067967891693115e-02,9.285612404346466064e-02,-1.650212556123733521e-01,-8.854676038026809692e-02,-6.983122974634170532e-02,-7.859779149293899536e-02,3.943647444248199463e-02,2.106149196624755859e-01,-2.385206371545791626e-01,8.356606960296630859e-02,2.913317456841468811e-02,4.813423380255699158e-02,-1.324850786477327347e-02,-3.734470158815383911e-02,2.375028133392333984e-01,-7.202266901731491089e-02,1.137466207146644592e-01,-3.141799569129943848e-02,3.966812416911125183e-02,8.013004437088966370e-03,9.939392656087875366e-02,1.240991503000259399e-01,-4.295726865530014038e-02,-9.593439288437366486e-03,8.490046113729476929e-02,-3.972193971276283264e-02,-1.275935471057891846e-01,5.005480349063873291e-02,5.313478410243988037e-02,-6.363078951835632324e-03,-3.264083061367273331e-04,8.918496221303939819e-02,-7.718119770288467407e-02,-4.958590492606163025e-02,-1.116506233811378479e-01,-1.123311072587966919e-01,4.646248370409011841e-02,-6.800682842731475830e-02,9.004389494657516479e-02,-1.046206578612327576e-01,-8.015646785497665405e-02,-1.278859227895736694e-01,7.467572391033172607e-02,-1.177485659718513489e-01,5.478687956929206848e-02,-8.031102269887924194e-02,8.047537505626678467e-02,-2.711772918701171875e-02,1.621391028165817261e-01,-3.166472911834716797e-02,7.316549122333526611e-02,1.038825809955596924e-01,5.399833247065544128e-02,1.022572591900825500e-01,-5.884962528944015503e-02,-4.038782045245170593e-02,7.954365015029907227e-02,3.100490756332874298e-02,8.702526986598968506e-02,7.251866906881332397e-02,-4.688769578933715820e-02,2.903412282466888428e-02,-6.929868459701538086e-02,-1.084706839174032211e-02,1.252987980842590332e-01,-8.832529187202453613e-02,1.824494004249572754e-01,-1.281531602144241333e-01,4.811960458755493164e-02,8.103124052286148071e-02,-6.816874444484710693e-02,5.334701761603355408e-02,-3.718227893114089966e-02,6.940174102783203125e-02,-7.527322508394718170e-03,-2.514234930276870728e-02,-5.726431682705879211e-02,8.946128934621810913e-02,-3.386623784899711609e-02,-1.234372779726982117e-01,1.378823164850473404e-02,-1.264393422752618790e-02,8.466435968875885010e-02,-6.461414974182844162e-03,7.285282760858535767e-02,-9.371770173311233521e-02,-1.387857459485530853e-02,1.242559924721717834e-01,-2.282268181443214417e-02,-8.644302189350128174e-02,1.984005421400070190e-01,9.255739301443099976e-02,1.619237065315246582e-01,2.523201110307127237e-04,-2.570668235421180725e-02,-8.220806717872619629e-02,-1.332560032606124878e-01,9.044361859560012817e-02,-3.677165880799293518e-02,-1.579826176166534424e-01,-4.889235273003578186e-02,-1.068854406476020813e-01,-6.507333833724260330e-03,1.400198601186275482e-02,3.882705233991146088e-03,-7.281509786844253540e-02,-8.972150832414627075e-02,6.185477972030639648e-02,-5.695168673992156982e-02,-1.115105971693992615e-01,3.877877071499824524e-02,-2.923158183693885803e-02,-1.357040703296661377e-01,-2.977744676172733307e-02,-1.085745543241500854e-01,1.131282150745391846e-01,2.223853254690766335e-03,6.808084994554519653e-02,9.026186168193817139e-02,-9.823467582464218140e-02,-8.612962067127227783e-02,-6.882888078689575195e-02,-1.555147618055343628e-01,1.367569565773010254e-01,1.714567840099334717e-01,2.621238492429256439e-02,9.102366119623184204e-02,-4.233813285827636719e-02,-7.950487732887268066e-02,2.404282055795192719e-02,2.301189117133617401e-02,-6.694490462541580200e-02,1.797673553228378296e-01,-8.057311922311782837e-02,-1.476690769195556641e-01,1.902127452194690704e-02,-1.410301961004734039e-02,1.475601196289062500e-01,-9.841874241828918457e-03,-2.272580284625291824e-03,-3.649324178695678711e-02,-2.789909951388835907e-02,1.153540387749671936e-01,-1.387425959110260010e-01,8.120105415582656860e-02,-2.130410261452198029e-02,3.558928892016410828e-02,-8.993891067802906036e-03,-1.912391558289527893e-02,5.874847993254661560e-03,-6.626081466674804688e-02,-8.148735389113426208e-03,-1.513833645731210709e-02,2.379961544647812843e-03,5.041443556547164917e-02,1.124165486544370651e-02,-3.617919608950614929e-02,2.221459522843360901e-03,-2.437286637723445892e-02,-8.453086763620376587e-02,1.760561019182205200e-01,-2.217500358819961548e-01,4.162370413541793823e-02,-1.510101556777954102e-01,2.529621683061122894e-02,5.492693185806274414e-02,3.004232235252857208e-02,-1.393150836229324341e-01,-5.162660405039787292e-02,-2.135477215051651001e-02,-4.540963098406791687e-02,-1.438952167518436909e-04,7.112068124115467072e-04,-2.717354148626327515e-02,2.317996323108673096e-02,-1.398682445287704468e-01,-3.200465813279151917e-02,2.802130952477455139e-02,1.245701909065246582e-01,-2.795703150331974030e-02,8.488801866769790649e-02,1.017854586243629456e-01,-2.055519260466098785e-02,-2.104087471961975098e-01,7.921306043863296509e-02,-1.207886263728141785e-01,-1.403202712535858154e-01,8.609882742166519165e-02,1.142205148935317993e-01,-5.407111346721649170e-02,-1.320700049400329590e-01,1.225369125604629517e-01,-8.732610195875167847e-02,1.187695264816284180e-01,4.021752253174781799e-02,6.716366112232208252e-02,-7.658261060714721680e-02,1.039340868592262268e-01,8.165588974952697754e-02,-2.280827425420284271e-02,2.899972908198833466e-02,-1.288323998451232910e-01,5.009501799941062927e-02,3.611909598112106323e-02,1.773895323276519775e-01,-4.271391779184341431e-02,-1.108168214559555054e-01,1.177930831909179688e-01,3.535463660955429077e-02,1.320195347070693970e-01,6.498851627111434937e-02,7.338445633649826050e-02,-5.361548438668251038e-02,4.260636493563652039e-02,-9.844527393579483032e-02,-1.029011383652687073e-01,3.556184098124504089e-02,-3.135215863585472107e-02,5.907116457819938660e-03,3.952654544264078140e-03,-1.241257637739181519e-01,2.767089940607547760e-02,3.373302519321441650e-02,8.616026490926742554e-03,-7.719710469245910645e-02,1.075509861111640930e-01,-1.237645298242568970e-01,1.826802045106887817e-01,-1.340518593788146973e-01,1.378342956304550171e-01,1.524367928504943848e-01,-4.566967114806175232e-02,-1.109462697058916092e-02,-2.266605757176876068e-02,-1.784080564975738525e-01,-5.439291521906852722e-02,5.421151872724294662e-03,-7.230830378830432892e-03,-8.620158582925796509e-02,-1.198873817920684814e-01,1.869850605726242065e-01,-3.965191915631294250e-02,3.155110607622191310e-05,3.255368769168853760e-02,-3.803433477878570557e-02,1.014153361320495605e-01,1.532180458307266235e-01,-1.563666015863418579e-02,6.395215541124343872e-02,-1.177427619695663452e-01,1.195196956396102905e-01,-4.180504009127616882e-02,-6.724774837493896484e-02,-3.337191790342330933e-02,2.094565778970718384e-01,-1.200149729847908020e-01,1.265817731618881226e-01,-4.406049102544784546e-02,-3.281046077609062195e-02,-1.284993253648281097e-02,1.419913470745086670e-01,-3.838632628321647644e-02,-2.230159193277359009e-02,2.901192195713520050e-02,-1.607533544301986694e-01,-1.002811715006828308e-01,-8.914511650800704956e-02,5.128693580627441406e-02,8.835948258638381958e-02,-2.816474251449108124e-02,-1.299405395984649658e-01,2.838043868541717529e-02,-2.652306854724884033e-01,-3.858868032693862915e-02,-1.173650473356246948e-01,-2.274003773927688599e-01,1.260145157575607300e-01,-1.153051014989614487e-02,1.246864646673202515e-01,-6.949900835752487183e-02,-3.109169006347656250e-02,-5.759936198592185974e-02,-1.058101356029510498e-01,-5.698940157890319824e-02,7.681452482938766479e-02,9.596605598926544189e-02,9.864431805908679962e-03,4.844335466623306274e-02,1.145745366811752319e-01,6.241573137231171131e-04,4.359819740056991577e-02,-4.335555806756019592e-02,-9.230493754148483276e-02,7.002804428339004517e-03,4.667784646153450012e-02,4.512372985482215881e-02,-6.746412813663482666e-02,2.563537098467350006e-02,5.509601440280675888e-03,-7.287806272506713867e-02,3.109058924019336700e-02,7.949560880661010742e-02,1.144321411848068237e-01,7.755793631076812744e-02,-1.300257146358489990e-01,-1.269137021154165268e-02,-3.859541192650794983e-02,-9.585317224264144897e-02,1.479042917490005493e-01,3.639575093984603882e-02,-3.560812678188085556e-03,2.820894122123718262e-02,-3.775047510862350464e-02,-1.619955897331237793e-01,6.732013076543807983e-03,-8.828015625476837158e-02,2.057739906013011932e-02,-8.106960356235504150e-02,3.058973327279090881e-02,-2.046807855367660522e-02,8.084623515605926514e-02,1.313390582799911499e-01,-2.545163594186306000e-02,-1.056782528758049011e-01,-1.468998491764068604e-01,-8.635591715574264526e-02,7.030080258846282959e-02,-2.182373777031898499e-02,1.670395582914352417e-01,1.215595155954360962e-01,-9.481417387723922729e-02,-1.293079853057861328e-01,1.374253779649734497e-01,8.469279855489730835e-02,-1.641622185707092285e-01,-6.186402216553688049e-02,7.097505778074264526e-02,8.934289216995239258e-02,2.178386226296424866e-02,-3.777376189827919006e-02,-2.113611251115798950e-01,-1.481101196259260178e-02,-1.786867231130599976e-01,-5.625628866255283356e-03,3.847591578960418701e-02,-3.722571954131126404e-02,4.580109193921089172e-02,1.331105381250381470e-01,-1.119819283485412598e-01,-3.611969575285911560e-02,-5.785058438777923584e-02,2.433042824268341064e-01,-2.987923659384250641e-02,8.463980257511138916e-02,3.032069653272628784e-03,-1.165961623191833496e-01,1.107780784368515015e-01,-1.397654861211776733e-01,5.227060243487358093e-02,-6.839297711849212646e-02,1.648367643356323242e-01,-1.527234464883804321e-01,-4.176088422536849976e-02,-2.070921808481216431e-01,-1.380982846021652222e-01,3.190889209508895874e-02,7.715618610382080078e-02,-5.768575891852378845e-02,1.628875285387039185e-01,1.469568535685539246e-02,-2.232082560658454895e-02,-1.914346516132354736e-01,-1.107910126447677612e-01,-4.080561548471450806e-02,1.988467127084732056e-01,8.582336455583572388e-02,1.921781711280345917e-02,-8.228669315576553345e-02,-2.089295350015163422e-02,-1.285579502582550049e-01,1.718478202819824219e-01,2.292337827384471893e-02,-2.216445356607437134e-01,-5.044625326991081238e-02,9.739939868450164795e-02,5.703701078891754150e-02,-1.806152015924453735e-01,2.518131732940673828e-01,8.129324764013290405e-03,-6.639262288808822632e-02,-7.941990345716476440e-02,9.784044325351715088e-02,-1.682305783033370972e-01,5.815312266349792480e-02,1.082805320620536804e-01,-2.723897993564605713e-02,-5.221319198608398438e-02,-2.542596869170665741e-02,1.173525080084800720e-01,4.424557834863662720e-02,-6.652851402759552002e-02,-1.798842567950487137e-03,7.927514612674713135e-02,-1.163383573293685913e-01,1.148263737559318542e-01,-1.194007918238639832e-01,1.088051125407218933e-01,8.270017802715301514e-02,7.955025881528854370e-02,6.131205335259437561e-02,3.734768927097320557e-02,-1.058606505393981934e-01,-1.467652171850204468e-01,1.103470623493194580e-01,1.498918682336807251e-01,-1.198698580265045166e-02,-2.424322627484798431e-02,-1.143116727471351624e-01,8.414550870656967163e-02,1.006771549582481384e-01,8.663003891706466675e-02,-5.545996595174074173e-03,3.702822374179959297e-03,-1.095961257815361023e-01,-2.482961490750312805e-02,-2.455205284059047699e-02,-2.476064721122384071e-03,9.387578815221786499e-02,-4.841586947441101074e-02,-2.834445051848888397e-02,-1.376746296882629395e-01,-9.297738224267959595e-02,1.305003166198730469e-01,-2.111258506774902344e-01,5.214787647128105164e-02,3.311238810420036316e-02,5.705821141600608826e-02,-1.719307503663003445e-03,5.118891131132841110e-03,-8.903250098228454590e-02,1.008242517709732056e-01,-1.106166541576385498e-01,3.097012080252170563e-02,-2.578071504831314087e-02,2.298221141099929810e-01,-4.025915265083312988e-02,2.498547732830047607e-02,7.106041163206100464e-02,8.814522624015808105e-02,-1.605298719368875027e-03,-4.375414550304412842e-02,-7.607799023389816284e-02,-1.045026630163192749e-02,-1.382882595062255859e-01,2.121921628713607788e-02,1.675106287002563477e-01,8.403283357620239258e-02,1.019226014614105225e-01,-1.683207973837852478e-02,1.049370989203453064e-01,1.434066891670227051e-01,-1.346231848001480103e-01,-9.521101415157318115e-02,-1.868978440761566162e-01,8.859472721815109253e-02,-4.206470772624015808e-02,-1.814858615398406982e-02,-1.656696051359176636e-01,2.747252881526947021e-01,-6.457269657403230667e-03,-2.808484993875026703e-02,4.180538281798362732e-02,6.166388839483261108e-02,-4.297159984707832336e-02,-9.547402709722518921e-02,5.597196891903877258e-02,-2.195664308965206146e-02,-9.050857275724411011e-03,4.891421645879745483e-03,-4.814246669411659241e-02,1.297837197780609131e-01,-3.173215687274932861e-02,-1.293453574180603027e-01,-7.697516679763793945e-02,-4.169827327132225037e-02,-5.460808053612709045e-02,1.209413036704063416e-01,-2.418313547968864441e-02,-7.753921672701835632e-03,2.689843624830245972e-02,-1.099443212151527405e-01,-5.006020143628120422e-02,7.729905098676681519e-02,1.130716875195503235e-01,4.564117640256881714e-02,1.748906224966049194e-01,-5.306788533926010132e-02,-3.794706240296363831e-02,-2.632009238004684448e-02,9.736200422048568726e-02,1.000162661075592041e-01,4.178237169981002808e-02,1.236875262111425400e-02,-1.457470655441284180e-01,-7.007817178964614868e-02,-1.641579866409301758e-01,1.283189356327056885e-01,4.365263879299163818e-02,-1.047353595495223999e-01,-9.296792559325695038e-03,1.227191537618637085e-01,-7.030769437551498413e-02,1.768100634217262268e-02,1.176190003752708435e-02,2.010908350348472595e-02,3.480090573430061340e-02,5.572256445884704590e-02,1.423024386167526245e-01,9.167243540287017822e-02,1.092403680086135864e-01,-4.211204126477241516e-02,9.875943651422858238e-04,-1.266613304615020752e-01,1.283987462520599365e-01,-1.204054057598114014e-01,1.099406033754348755e-01,-1.089986972510814667e-02,-3.226864710450172424e-02,1.612324267625808716e-01,1.317915469408035278e-01,-4.163038358092308044e-02,-7.697793841361999512e-02,2.470513433218002319e-02,1.735697984695434570e-01,-9.373758919537067413e-03,4.839086532592773438e-02,1.163350194692611694e-01,1.304280459880828857e-01,-9.017243236303329468e-02,-1.830267310142517090e-01,-1.040385141968727112e-01,-1.758267730474472046e-01,-6.310099363327026367e-02,9.397473931312561035e-02,7.909489795565605164e-03,4.288579523563385010e-02,-6.077725067734718323e-02,5.456970632076263428e-02,-9.748084843158721924e-02,3.424127027392387390e-02,7.352011650800704956e-02,-1.152958348393440247e-01,3.611839935183525085e-02,1.048982515931129456e-01,-1.064932197332382202e-01,1.500769704580307007e-01,9.335693717002868652e-02,8.818576484918594360e-02,-1.199315041303634644e-01,2.831220254302024841e-02,8.655113168060779572e-03,1.434341371059417725e-01,9.922286123037338257e-02,-4.677994549274444580e-02,-6.443040817975997925e-02,-8.453579246997833252e-02,7.583896070718765259e-02,-5.266704037785530090e-02,-3.598091378808021545e-02,-1.970703899860382080e-01,2.764001488685607910e-02,5.158843472599983215e-02,-5.319570004940032959e-02,3.533991426229476929e-02,-9.939662367105484009e-02,-1.871744729578495026e-02,6.272174417972564697e-02,-1.425375938415527344e-01,-9.628096967935562134e-02,1.447426676750183105e-01,9.280731528997421265e-02,-9.876888245344161987e-03,5.364556238055229187e-02,-4.072010144591331482e-02,5.426858738064765930e-02,6.302520632743835449e-02,6.448831409215927124e-02,-4.793868586421012878e-02,-3.324002027511596680e-03,1.289372593164443970e-01,6.150418147444725037e-02,2.891231141984462738e-02,-1.441526263952255249e-01,7.944163680076599121e-02,-6.418657302856445312e-02,-1.347148567438125610e-01,-1.085963994264602661e-01,-1.605918407440185547e-01,-1.107060015201568604e-01,-9.193872101604938507e-03,1.778303831815719604e-02,-1.788532547652721405e-02,-6.469561904668807983e-02,-8.437164127826690674e-02,8.033406734466552734e-02,-5.477710440754890442e-02,8.206800371408462524e-02,-8.246260136365890503e-02,-2.835761569440364838e-02,2.304422110319137573e-02,2.870172634720802307e-02,1.710581034421920776e-02,-1.310274749994277954e-01,-1.945743896067142487e-02,-4.437360540032386780e-02,-4.455766174942255020e-03,-9.094349294900894165e-02,4.810037463903427124e-02,-5.427453294396400452e-02,7.602778822183609009e-02,-1.023806631565093994e-01,9.342859685420989990e-02,-1.276496201753616333e-01,-1.149083897471427917e-01,-9.061062335968017578e-02,-1.796445548534393311e-01,-3.521916270256042480e-02,1.296199113130569458e-01,-2.309376373887062073e-02,-1.236863508820533752e-01,1.377151012420654297e-01,7.165199518203735352e-02,-1.887785270810127258e-02,-1.843654066324234009e-01,1.046359390020370483e-01,9.389887005090713501e-02,1.201441884040832520e-01,1.297244876623153687e-01,6.117129698395729065e-02,5.184033140540122986e-02,9.801186621189117432e-02,-6.099802255630493164e-02,1.461493782699108124e-03,1.435911655426025391e-01,-9.659781306982040405e-02,-2.730620093643665314e-02,6.909099221229553223e-02,1.382547467947006226e-01,-2.311286702752113342e-02,2.378118038177490234e-02,-7.996801286935806274e-02,-1.583613455295562744e-01,2.706997394561767578e-01,1.945706270635128021e-02,4.809464141726493835e-02,-4.374713823199272156e-02,7.759864628314971924e-02,-1.125955060124397278e-01,-1.004882231354713440e-01,-7.531832903623580933e-02,1.237563788890838623e-01,-4.716688767075538635e-02,-1.690735369920730591e-01,-1.974629797041416168e-02,8.160041272640228271e-02,1.190560907125473022e-01,1.109751462936401367e-01,4.571634531021118164e-02,1.267535537481307983e-01,8.906138688325881958e-02,1.128082275390625000e-01,1.339676082134246826e-01,1.252878457307815552e-01,8.963944017887115479e-02,1.893987804651260376e-01,9.063425660133361816e-02,4.565935954451560974e-02,-9.698143228888511658e-03,1.846192404627799988e-02,1.935711503028869629e-02,-5.253589525818824768e-02,6.360346823930740356e-02,-3.272881731390953064e-02,-4.348866268992424011e-02,6.630314141511917114e-02,-1.363032907247543335e-01,4.387360438704490662e-02,-8.554001152515411377e-02,8.393089473247528076e-02,9.969072788953781128e-02,3.353725746273994446e-02,-2.486077100038528442e-01,1.877030879259109497e-01,-1.209759190678596497e-01,2.318088896572589874e-02,1.052438467741012573e-01,-4.461930692195892334e-02,-1.727360039949417114e-01,-7.598117738962173462e-02,-1.268994659185409546e-01,8.832695335149765015e-02,2.088007777929306030e-01,-1.639471352100372314e-01,-3.393211215734481812e-02,-4.242615029215812683e-02,-6.130615621805191040e-02,1.509154886007308960e-01,5.376368388533592224e-02,7.344222813844680786e-02,-2.162417583167552948e-02,-3.038845397531986237e-02,2.029041945934295654e-01,7.786371558904647827e-02,3.926851600408554077e-02,-1.786698997020721436e-01,9.540607035160064697e-02,2.164812386035919189e-02,-4.583005234599113464e-02,-8.883636444807052612e-02,-1.254632174968719482e-01,-6.187214702367782593e-02,-6.474711000919342041e-02,1.593777686357498169e-01,1.388967335224151611e-01,1.244631689041852951e-02,-3.074327949434518814e-03,-1.129045896232128143e-02,5.988635867834091187e-02,-2.270832806825637817e-01,1.300374865531921387e-01,-7.222818583250045776e-02,1.356530040502548218e-01,-8.734370023012161255e-02,-8.177795261144638062e-02,1.030814498662948608e-01,-1.269513964653015137e-01,-1.539788693189620972e-01,9.848961234092712402e-02,1.291534453630447388e-01,9.001414477825164795e-02,1.204148381948471069e-01,-3.090492682531476021e-03,-2.267794124782085419e-02,-2.620433643460273743e-02,-1.547092050313949585e-01,-5.608711391687393188e-02,-2.299727946519851685e-01,8.355340361595153809e-02,-1.105838716030120850e-01,-1.929315924644470215e-01,1.518536210060119629e-01,1.718055605888366699e-01,-1.107051670551300049e-01,9.896796196699142456e-02,-3.491729125380516052e-02,1.943422853946685791e-02,-6.796995550394058228e-02,-1.910843886435031891e-02,1.648485511541366577e-01,-1.191277056932449341e-01,-8.541482500731945038e-03,-5.932036787271499634e-02,4.768602177500724792e-02,-6.524983048439025879e-02,-5.252134054899215698e-02,5.870106443762779236e-02,-8.317654579877853394e-02,-6.099632382392883301e-02,2.449516905471682549e-03,-4.130577668547630310e-02,2.111600935459136963e-01,1.281793266534805298e-01,7.984442636370658875e-03,-6.789049506187438965e-02,4.589855670928955078e-02,-3.504257276654243469e-02,-7.781282067298889160e-02,-6.432016193866729736e-02,3.474998846650123596e-02,7.698062062263488770e-02,7.977905869483947754e-02,-6.289006024599075317e-02,2.129447013139724731e-01,8.748988062143325806e-02,-1.736329346895217896e-01,-7.406869903206825256e-03,-5.433240905404090881e-02,-8.953230828046798706e-02,6.522265821695327759e-02,-1.570989638566970825e-01,1.294750571250915527e-01,2.532945945858955383e-02,-1.440354287624359131e-01,5.509795664693228900e-05,2.015458233654499054e-02,8.599060773849487305e-02,9.214275330305099487e-02,8.159832656383514404e-02,-2.094518952071666718e-02,-8.036868274211883545e-02,9.837474208325147629e-04,-3.439373522996902466e-02,1.757316291332244873e-02,-2.153464034199714661e-02,7.488888502120971680e-02,7.395233213901519775e-02,6.562039256095886230e-02,-1.660300977528095245e-02,1.791308373212814331e-01,1.246542930603027344e-01,1.568247936666011810e-02,8.620890229940414429e-02,1.065428107976913452e-01,-1.768125891685485840e-01,-5.043343082070350647e-02,1.799049824476242065e-01,-1.378947310149669647e-02,3.458224982023239136e-02,-9.554257988929748535e-02,-8.830300718545913696e-02,-5.060191452503204346e-02,-2.850505150854587555e-02,-1.934009641408920288e-01,-1.298162341117858887e-01,1.252535879611968994e-01,1.142839938402175903e-01,4.383848607540130615e-02,6.630257517099380493e-02,-1.415896415710449219e-01,5.763689801096916199e-02,-4.146039951592683792e-03,1.154830828309059143e-01,3.986951895058155060e-03,1.498633921146392822e-01,1.429532468318939209e-01,6.651734467595815659e-03,1.634903103113174438e-01,7.904355973005294800e-02,8.951143920421600342e-02,1.446921005845069885e-02,-2.616694569587707520e-01,-2.218706905841827393e-01,-6.640467047691345215e-02,-8.869573473930358887e-02,-2.325870245695114136e-01,8.417844027280807495e-02,-8.842322230339050293e-02,-1.447114199399948120e-01,1.110712811350822449e-01,-2.869300544261932373e-02,-1.531957834959030151e-02,8.061797916889190674e-02,-1.163321137428283691e-01,-1.717590540647506714e-01,-2.605654299259185791e-02,-4.467898234724998474e-02,-9.530755132436752319e-02,6.110347341746091843e-03,-4.491039738059043884e-02,-2.120798081159591675e-01,1.217740103602409363e-01,2.146837711334228516e-01,-1.673998311161994934e-03,3.896570205688476562e-02,-9.168480522930622101e-03,1.715039163827896118e-01,2.551987394690513611e-02,2.455805614590644836e-02,-4.069381393492221832e-03,-1.179862245917320251e-01,-7.816858589649200439e-02,9.775573015213012695e-02,-5.798615515232086182e-02,-9.980954229831695557e-02,3.680173680186271667e-02,1.778876334428787231e-01,2.762577496469020844e-02,-1.137782633304595947e-01,-1.462161093950271606e-01,-9.463586658239364624e-02,-1.340752094984054565e-01,2.167616933584213257e-01,1.353306919336318970e-01,1.112325564026832581e-01,-1.131939813494682312e-01,1.770101487636566162e-01,2.760670781135559082e-01,-1.714976429939270020e-01,-3.380554914474487305e-02,-1.597356647253036499e-01,-7.051505893468856812e-02,1.337778270244598389e-01,2.321325838565826416e-01,1.431062519550323486e-01,4.107515269424766302e-04,1.844084411859512329e-01,1.579052805900573730e-01,-1.155085861682891846e-01,3.042333200573921204e-02,6.996618956327438354e-02,-1.274099498987197876e-01,-5.126763600856065750e-03,5.450871586799621582e-02,2.188429087400436401e-01,7.696375250816345215e-02,1.802593022584915161e-01,3.319742530584335327e-02,-1.035190895199775696e-01,2.587284706532955170e-02,-2.229249328374862671e-01,6.622527539730072021e-02,8.901140093803405762e-02,1.351835113018751144e-02,1.797133535146713257e-01,2.472186982631683350e-01,-5.741938203573226929e-02,1.185901388525962830e-01,7.086408324539661407e-03,-2.558787912130355835e-02,2.289900630712509155e-01,-5.665327236056327820e-02,6.193754822015762329e-02,-1.981881260871887207e-02,-1.114648208022117615e-01,1.229464188218116760e-01,-2.221893966197967529e-01,1.277543157339096069e-01,6.197335198521614075e-02,1.735773235559463501e-01,-6.561646610498428345e-02,3.984346985816955566e-02,2.471466548740863800e-02,1.116414293646812439e-01,1.771858632564544678e-01,-7.981642335653305054e-02,2.893040478229522705e-01,-8.023286610841751099e-02,-1.787118613719940186e-01,-2.144360169768333435e-02,-1.268720626831054688e-01,1.173601448535919189e-01,8.586641401052474976e-02,-9.498447179794311523e-02,1.628902703523635864e-01,2.728913165628910065e-02,6.748599559068679810e-02,6.036517769098281860e-02,-9.205703437328338623e-02,1.369749289005994797e-02,-1.421535462141036987e-01,-1.306811571121215820e-01,2.842742204666137695e-02,-1.075870841741561890e-01,-1.236524200066924095e-03,-1.388987004756927490e-01,-1.089475378394126892e-01,7.452137302607297897e-03,1.367635130882263184e-01,-5.240437388420104980e-02,6.437601894140243530e-02,-2.981668512802571058e-04,-1.827645897865295410e-01,5.939354747533798218e-02,-1.296412646770477295e-01,6.168726459145545959e-02,3.198265135288238525e-01,-4.476062022149562836e-03,-4.114649072289466858e-02,-1.296779960393905640e-01,1.138823330402374268e-01,-2.081725932657718658e-02,3.731305524706840515e-02,-1.317473873496055603e-02,2.190895378589630127e-01,-2.151757106184959412e-02,-4.575505387037992477e-03,-4.798203334212303162e-02,-2.905382029712200165e-02,1.660437285900115967e-01,1.594390571117401123e-01,6.692929565906524658e-02,9.352719783782958984e-02,-2.763356268405914307e-02,-8.128592371940612793e-02,1.327260583639144897e-01,6.670004129409790039e-02,1.604252159595489502e-01,7.686547935009002686e-02,-1.581166535615921021e-01,6.539634894579648972e-03,4.779994487762451172e-03,-5.824347212910652161e-02,3.521309047937393188e-02,3.567293286323547363e-02,1.320860534906387329e-01,-3.665424883365631104e-02,-7.232732325792312622e-02,-7.718472182750701904e-02,1.691975295543670654e-01,7.478985190391540527e-02,-7.480104267597198486e-02,-1.041723787784576416e-02,1.162352561950683594e-01,-8.040516823530197144e-02,1.207933574914932251e-02,-1.512773782014846802e-01,-5.069183558225631714e-02,1.162770017981529236e-02,-6.830995529890060425e-02,-4.124485701322555542e-02,2.176966704428195953e-02,8.938527107238769531e-02,-1.936776489019393921e-01,1.337471455335617065e-01,1.950125694274902344e-01,-1.348685026168823242e-01,8.588939905166625977e-02,-7.852990925312042236e-02,-7.311991602182388306e-02,-1.055305823683738708e-01,-1.282082945108413696e-01,-3.477286174893379211e-02,-1.094087734818458557e-01,1.117445677518844604e-01,6.141809746623039246e-03,-1.029220074415206909e-01,-1.059721633791923523e-01,-1.116579398512840271e-01,3.884546458721160889e-02,-4.448840767145156860e-02,-7.773511111736297607e-02,1.312736719846725464e-01,-6.334222108125686646e-02,2.551758475601673126e-02,1.062649413943290710e-01,-4.220033064484596252e-02,3.927143290638923645e-02,1.069535166025161743e-01,-2.591039240360260010e-02,-7.720363885164260864e-02,-5.379228666424751282e-02,-1.200767233967781067e-01,-2.683942019939422607e-02,-3.988298401236534119e-02,-7.683312892913818359e-02,1.247973442077636719e-01,9.455700963735580444e-02,-1.092907264828681946e-01,1.548519283533096313e-01,1.766729205846786499e-01,-4.345075041055679321e-02,-1.254667788743972778e-01,4.019816964864730835e-02,-1.648188531398773193e-01,-1.271122694015502930e-01,-9.723361581563949585e-02,-1.888815015554428101e-01,-1.096767708659172058e-01,-3.633394604548811913e-03,-1.142724379897117615e-01,-1.242740303277969360e-01,-8.214043080806732178e-02,-9.658131003379821777e-02,-5.671261344105005264e-03,2.777427621185779572e-02,-1.324116587638854980e-01,-1.232457309961318970e-01,-1.852848380804061890e-01,-6.058027967810630798e-02,7.061892747879028320e-02,6.362715363502502441e-02,1.799365729093551636e-01,-4.943355545401573181e-02,-1.864082515239715576e-01,-1.680196523666381836e-01,-1.463278662413358688e-02,-2.594384364783763885e-02,2.616544254124164581e-02,1.293159574270248413e-01,8.368889987468719482e-02,1.676777005195617676e-01,4.270545393228530884e-02,3.818557783961296082e-02,1.180534139275550842e-01,-6.481846421957015991e-02,-2.994956672191619873e-01,7.805335521697998047e-02,5.086950026452541351e-03,4.913187772035598755e-02,-1.026748307049274445e-02,-8.314811438322067261e-02,1.287054866552352905e-01,8.795607089996337891e-02,7.134579867124557495e-02,8.697415143251419067e-02,-7.343736290931701660e-02,-1.212085783481597900e-01,7.189975678920745850e-02,-7.618191093206405640e-02,6.297727674245834351e-02,-8.025608956813812256e-02,-4.953427985310554504e-02,2.273229062557220459e-01,-1.839218586683273315e-01,3.308636695146560669e-02,-4.779675230383872986e-02,1.382096409797668457e-01,3.208964318037033081e-02,2.763574570417404175e-02,-9.674935787916183472e-02,3.380591422319412231e-02,2.162961475551128387e-02,-3.628071397542953491e-02,-4.045480117201805115e-02,-1.677238941192626953e-01,1.208115667104721069e-01,-4.229560866951942444e-02,5.890597030520439148e-02,3.582675382494926453e-02,-1.802024096250534058e-01,1.096142306923866272e-01,-3.824772313237190247e-02,1.074939817190170288e-01,8.851701021194458008e-02,1.497452557086944580e-01,6.484842300415039062e-02,3.955738153308629990e-03,-1.965734660625457764e-01,5.759273841977119446e-02,9.628479182720184326e-02,-1.396114528179168701e-01,-1.003170534968376160e-01,1.160618066787719727e-01,-1.138833388686180115e-01,5.305540934205055237e-02,6.320098787546157837e-02,5.582110956311225891e-02,4.706766456365585327e-03,-1.172903105616569519e-01,1.331084370613098145e-01,1.053591072559356689e-02,2.047029733657836914e-01,-1.692665815353393555e-01,-5.157818552106618881e-03,-1.255375705659389496e-02,8.226939290761947632e-02,-1.208889633417129517e-01,9.619971364736557007e-02,1.926153302192687988e-01,-5.190103501081466675e-02,1.566867902874946594e-02,4.563280194997787476e-02,5.888374056667089462e-03,2.789852581918239594e-02,-6.262435764074325562e-02,6.986129283905029297e-02,-1.223336681723594666e-01,1.153875216841697693e-01,1.272103749215602875e-02,1.891623251140117645e-02,-1.937606558203697205e-02,4.929919168353080750e-02,1.690956801176071167e-01,1.045126561075448990e-02,-1.676171571016311646e-01,-3.930487204343080521e-03,1.817849278450012207e-01,5.550849065184593201e-02,1.975604332983493805e-02,-6.567507982254028320e-02,1.379107385873794556e-01,-5.397479608654975891e-02,-4.717448353767395020e-02,-1.500723510980606079e-02,1.292972173541784286e-02,-1.407682448625564575e-01,2.187669128179550171e-01,1.239477470517158508e-02,6.047673523426055908e-02,1.849106550216674805e-01,1.072177737951278687e-01,2.138384431600570679e-02,-1.128790602087974548e-01,1.169173493981361389e-01,-1.345874816179275513e-01,2.658889396116137505e-03,1.199651956558227539e-01,-1.319810450077056885e-01,1.518697142601013184e-01,-1.234345212578773499e-01,-3.650993853807449341e-02,-1.674358695745468140e-01,-1.359502971172332764e-02,7.304409146308898926e-02,-8.538150787353515625e-02,9.488315880298614502e-02,8.639232814311981201e-02,-7.950946688652038574e-02,1.018862351775169373e-01,2.440840564668178558e-02,6.927308440208435059e-02,9.693444520235061646e-02,6.751577835530042648e-03,-5.413063988089561462e-02,1.464603096246719360e-01,-2.658846415579319000e-02,-1.025068759918212891e-01,7.671657204627990723e-02,4.137359093874692917e-03,1.365504264831542969e-01,-9.395290166139602661e-02,-7.419377565383911133e-02,1.161009147763252258e-01,7.594561576843261719e-02,-1.703310408629477024e-03,8.756532520055770874e-02,2.533549666404724121e-01,2.017364278435707092e-02,-1.363668888807296753e-01,4.122614488005638123e-02,-2.096143364906311035e-02,-8.220671862363815308e-02,1.568331271409988403e-01,-2.339235544204711914e-01,-8.314157277345657349e-02,-1.677659302949905396e-01,5.892459675669670105e-02,-1.330469399690628052e-01,8.249416947364807129e-02,-8.844468742609024048e-02,-3.251561522483825684e-02,-2.521499246358871460e-02,-1.679310947656631470e-01,4.589700698852539062e-02,-1.646890304982662201e-02,-9.913954138755798340e-02,5.688166990876197815e-02,4.375654086470603943e-02,1.209988594055175781e-01,-1.994593292474746704e-01,-3.010124526917934418e-02,1.202439963817596436e-01,-5.614313762634992599e-03,-1.824222877621650696e-02,7.822691462934017181e-03,2.431458532810211182e-01,2.736597359180450439e-01,-2.565763890743255615e-01,-1.771994121372699738e-02,-1.212026849389076233e-01,-2.055846154689788818e-01,1.475123167037963867e-01,5.275708064436912537e-02,-2.544545382261276245e-02,1.645329743623733521e-01,9.718005359172821045e-02,-1.401468664407730103e-01,-2.235241979360580444e-01,-1.550589501857757568e-01,1.291890889406204224e-01,8.018691837787628174e-02,2.772272229194641113e-01,5.465301871299743652e-02,-1.557674407958984375e-01,-1.438126564025878906e-01,-1.566284745931625366e-01,-1.045807749032974243e-01,-1.758220419287681580e-02,-2.568032741546630859e-01,-8.818876743316650391e-02,-2.816122584044933319e-02,1.737528890371322632e-01,-7.044009119272232056e-02,1.973400823771953583e-02,1.639158725738525391e-01,1.628862321376800537e-01,1.979852467775344849e-01,-1.624863147735595703e-01,1.461334824562072754e-01,-6.695414334535598755e-02,-1.080053113400936127e-02,-7.887375354766845703e-02,1.409146487712860107e-01,-3.233801573514938354e-02,-4.123041033744812012e-02,-6.270563602447509766e-02,9.512086398899555206e-03,-4.303403571248054504e-02,-8.208271116018295288e-02,9.284810721874237061e-02,1.263303607702255249e-01,-3.209017217159271240e-02,-1.620251983404159546e-01,1.927012205123901367e-01,1.083673760294914246e-01,9.653209708631038666e-03,1.588064134120941162e-01,-9.146118164062500000e-02,1.881057620048522949e-01,1.377953141927719116e-01,2.876729471608996391e-03,7.581183314323425293e-02,1.045547332614660263e-02,6.433130800724029541e-02,-1.446428596973419189e-01,-9.007849544286727905e-02,2.119176462292671204e-02,-1.306239515542984009e-01,-6.280957162380218506e-02,6.984608620405197144e-02,1.612741351127624512e-01,2.643357729539275169e-03,-5.899316817522048950e-02,1.558174490928649902e-01,-5.450323969125747681e-02,-8.958403952419757843e-03,9.274748712778091431e-02,-2.617280557751655579e-02,1.325365155935287476e-01,-1.314768474549055099e-02,-1.651926487684249878e-01,-1.955883763730525970e-02,9.400924667716026306e-03,8.504198491573333740e-02,-6.690841168165206909e-02,2.199551090598106384e-02,-1.253096461296081543e-01,-2.296453565359115601e-01,-1.616010963916778564e-01,-1.624237746000289917e-01,3.651471063494682312e-02,8.836367167532444000e-03,-1.267702877521514893e-01,-1.250542402267456055e-01,-1.265736967325210571e-01,-6.695762276649475098e-02,-1.615634262561798096e-01,8.823295682668685913e-02,2.097591757774353027e-02,-7.062172889709472656e-02,5.138241872191429138e-02,3.092732280492782593e-02,1.281720306724309921e-02,6.490011513233184814e-02,-1.234066672623157501e-02,-5.296344310045242310e-02,1.405868679285049438e-01,5.667801946401596069e-02,-9.414404630661010742e-02,1.404377967119216919e-01,-2.359205335378646851e-01,4.318733233958482742e-03,1.669857352972030640e-01,1.153631955385208130e-01,4.074135795235633850e-02,2.049143016338348389e-01,-6.979767978191375732e-02,-9.213656187057495117e-02,2.039888948202133179e-01,-7.719403505325317383e-02,4.964568838477134705e-02,-2.239777892827987671e-01,1.606988757848739624e-01,1.925638411194086075e-03,-3.668669611215591431e-02,-3.477486222982406616e-02,-7.059296220541000366e-02,6.807888299226760864e-02,-1.300751864910125732e-01,2.162902206182479858e-01,2.920486964285373688e-02,-6.006544455885887146e-02,-1.794785559177398682e-01,-9.279891848564147949e-03,1.319312397390604019e-02,-6.476583331823348999e-02,-1.531070917844772339e-01,-2.038577385246753693e-02,6.969307363033294678e-02,-1.238690875470638275e-02,-1.173706278204917908e-01,1.178366392850875854e-01,-9.036356955766677856e-02,-9.835448116064071655e-02,1.171341910958290100e-01,-1.055387035012245178e-01,-1.577727496623992920e-02,-6.027265265583992004e-02,-4.542069043964147568e-03,7.008862495422363281e-02,5.187499523162841797e-02,1.625010627321898937e-03,1.091633141040802002e-01,1.115340813994407654e-01,-1.142208948731422424e-01,-6.744521204382181168e-03,2.161954902112483978e-02,-1.010116562247276306e-02,1.603732258081436157e-01,2.575765177607536316e-02,-7.688953075557947159e-03,-1.538157314062118530e-01,-9.929216653108596802e-02,1.497866362333297729e-01,-1.789733953773975372e-02,6.173821166157722473e-02,3.735638037323951721e-02,8.849170058965682983e-02,-2.204098701477050781e-01,-8.086474239826202393e-02,5.762255191802978516e-02,-1.404937505722045898e-01,4.624804109334945679e-02,-4.016714543104171753e-02,-5.955969914793968201e-02,-1.217960268259048462e-01,9.045192599296569824e-02,8.138176985085010529e-03,2.582534914836287498e-03,-1.957517303526401520e-02,-1.179926842451095581e-01,1.241930797696113586e-01,1.031879037618637085e-01,-2.324255369603633881e-02,-1.331783086061477661e-01,-1.706359982490539551e-01,-6.400595605373382568e-02,-7.269722846103832126e-05,1.364165395498275757e-01,-5.263849347829818726e-02,-6.140759796835482121e-05,-7.564789801836013794e-02,1.681710630655288696e-01,7.739708572626113892e-02,-9.785505384206771851e-02,-1.804421246051788330e-01,-4.041934385895729065e-02,1.484875530004501343e-01,4.290935024619102478e-02,6.193643808364868164e-02,1.496938318014144897e-01,1.133223921060562134e-01,8.869522809982299805e-02,-3.512455895543098450e-02,9.308575093746185303e-02,5.593129619956016541e-02,7.564002275466918945e-02,-1.413078606128692627e-01,1.333426088094711304e-01,-1.136643886566162109e-01,8.827279321849346161e-03,4.791731014847755432e-03,-7.482288777828216553e-02,1.262905746698379517e-01,4.672798886895179749e-02,2.415085397660732269e-02,1.907304376363754272e-01,1.824373751878738403e-01,-3.119142539799213409e-02,1.581095457077026367e-01,2.852955646812915802e-02,-6.922107189893722534e-03,-5.114580038934946060e-03,-9.428112208843231201e-02,-1.351388394832611084e-01,-1.158175691962242126e-01,1.467964202165603638e-01,-1.604770421981811523e-01,6.720900535583496094e-02,-2.231580764055252075e-01,4.029174149036407471e-02,7.753794640302658081e-02,-1.249294355511665344e-01,-1.655657403171062469e-02,4.224501922726631165e-02,2.540004439651966095e-02,-4.821377247571945190e-02,-1.416679322719573975e-01,-8.197177201509475708e-02,1.296711415052413940e-01,-5.940825119614601135e-02,9.938259422779083252e-02,-2.249101363122463226e-02,4.816269874572753906e-02,4.561078548431396484e-02,4.726679250597953796e-02,-2.601864002645015717e-02,1.341214478015899658e-01,-2.182588540017604828e-02,6.981758773326873779e-02,-1.038177087903022766e-01,1.311639100313186646e-01,1.247500330209732056e-01,-1.728143729269504547e-02,-1.040110364556312561e-01,1.846314072608947754e-01,5.988675355911254883e-02,-2.325159311294555664e-02,-1.274252831935882568e-01,2.571170404553413391e-02,7.436658442020416260e-02,1.163681149482727051e-01,-1.581811904907226562e-01,7.441013306379318237e-02,1.228256300091743469e-01,1.556167006492614746e-01,4.409990459680557251e-02,1.322793513536453247e-01,1.430125162005424500e-02,5.131662264466285706e-02,-8.319085091352462769e-02,5.648604407906532288e-02,5.306810885667800903e-02,1.655391417443752289e-02,-9.135905653238296509e-03,-1.642966568470001221e-01,6.601157132536172867e-03,6.764875352382659912e-02,-5.243680905550718307e-03,1.903395503759384155e-01,1.353079080581665039e-01,-6.328446418046951294e-02,1.960904709994792938e-02,9.150106459856033325e-03,6.143274158239364624e-02,7.052388507872819901e-03,-1.010966300964355469e-01,-1.471209675073623657e-01,-8.727700263261795044e-02,-1.513716578483581543e-01,2.565690688788890839e-02,4.194152727723121643e-02,-1.427965704351663589e-02,-8.292512595653533936e-02,-4.070688039064407349e-02,7.089937478303909302e-02,-1.310400068759918213e-01,-1.985211968421936035e-01,9.034906327724456787e-02,7.757874578237533569e-02,6.282392144203186035e-02,7.229762524366378784e-02,-8.164879679679870605e-02,-1.841839402914047241e-01,3.463418921455740929e-03,-5.428113415837287903e-02,-1.586546003818511963e-02,3.052869811654090881e-02,5.575016140937805176e-02,2.138699777424335480e-02,6.869644671678543091e-02,1.168373972177505493e-02,-1.181432455778121948e-01,-8.940194547176361084e-02,-1.284212023019790649e-01,4.101658239960670471e-02,-1.505387425422668457e-01,-1.193633675575256348e-01,-1.013783738017082214e-02,-9.366155415773391724e-02,8.737134933471679688e-02,1.315018832683563232e-01,-1.465501077473163605e-02,1.074250042438507080e-01,1.823249310255050659e-01,1.215931773185729980e-01,8.086444437503814697e-02,-5.732358992099761963e-02,8.427294902503490448e-03,2.388549298048019409e-01,-6.826396286487579346e-02,4.298765957355499268e-02,-7.200300693511962891e-03,-8.811321854591369629e-02,1.789262145757675171e-02,-3.830963373184204102e-02,-6.785275414586067200e-03,-7.865581661462783813e-02,3.069845438003540039e-01,-4.663971252739429474e-03,1.340018771588802338e-02,-4.316152632236480713e-02,-3.437290340662002563e-02,8.332046866416931152e-02,-2.878629043698310852e-02,9.735445491969585419e-03,1.649668440222740173e-02,-1.248875632882118225e-01,2.509620599448680878e-02,-1.651541590690612793e-01,1.319628059864044189e-01,-1.896291598677635193e-02,1.850676350295543671e-02,1.427373141050338745e-01,1.016088202595710754e-02,-1.527517288923263550e-01,1.164291501045227051e-01,2.266461960971355438e-02,1.837726086378097534e-01,1.010334193706512451e-01,9.950301051139831543e-02,2.403797954320907593e-01,8.255155384540557861e-02,-6.633500754833221436e-02,7.860136032104492188e-02,-1.099006831645965576e-01,7.209508866071701050e-02,-2.379319369792938232e-01,-2.772487886250019073e-02,-1.439495831727981567e-01,1.216818094253540039e-01,1.371903866529464722e-01,1.989522725343704224e-01,-2.012413367629051208e-02,-5.730195343494415283e-02,9.853698313236236572e-02,1.941604726016521454e-02,9.526330232620239258e-02,-2.294937521219253540e-02,-1.266453266143798828e-01,5.361779406666755676e-02,2.811344107612967491e-03,-4.063642770051956177e-02,-5.572688207030296326e-02,-1.564510911703109741e-01,7.153122127056121826e-02,2.266074158251285553e-02,1.137705296277999878e-01,-1.318604499101638794e-01,5.313612520694732666e-02,7.966651767492294312e-02,8.440316468477249146e-02,-1.390621811151504517e-01,4.198892787098884583e-02,-9.527022950351238251e-03,1.266268044710159302e-01,4.451388120651245117e-02,-4.876246210187673569e-03,6.531164050102233887e-02,5.667068809270858765e-02,1.444962769746780396e-01,-1.289116293191909790e-01,-1.666325628757476807e-01,3.221540153026580811e-02,-1.691782325506210327e-01,1.153808534145355225e-01,-7.325933873653411865e-02,-8.453520946204662323e-03,5.692847818136215210e-02,-1.105510070919990540e-02,1.628811657428741455e-02,6.426311284303665161e-02,-2.025757730007171631e-02,-8.914260566234588623e-02,7.488624006509780884e-02,-7.149568200111389160e-02,5.309076234698295593e-02,1.011646166443824768e-02,6.095410510897636414e-02,-9.144226089119911194e-03,-1.292628198862075806e-01,5.158771947026252747e-02,-1.500828713178634644e-01,7.316730916500091553e-02,-7.943628728389739990e-02,6.905216723680496216e-02,1.122917085886001587e-01,-1.481681168079376221e-01,-6.570944190025329590e-02,-5.658973380923271179e-02,1.862770318984985352e-01,-7.337069511413574219e-02,2.089512348175048828e-01,5.249387398362159729e-02,3.388476371765136719e-02,1.227124184370040894e-01,-1.470626294612884521e-01,-1.714446097612380981e-01,3.903073072433471680e-02,1.553173661231994629e-01,9.871547110378742218e-03,-9.157287329435348511e-02,-1.029946804046630859e-01,1.394258886575698853e-01,8.039528876543045044e-02,1.898009702563285828e-02,-1.760531663894653320e-01,-1.055585741996765137e-01,1.025073006749153137e-01,-1.844403594732284546e-01,-6.871952116489410400e-02,-4.417866095900535583e-02,6.041780114173889160e-02,-4.181863740086555481e-02,7.951817661523818970e-02,-2.873513288795948029e-02,-9.703560173511505127e-02,1.179765686392784119e-01,2.263789474964141846e-01,7.797767221927642822e-02,-5.888174101710319519e-02,9.773832559585571289e-02,7.436867058277130127e-02,-1.851662248373031616e-02,7.042710483074188232e-02,1.495379507541656494e-01,1.200795918703079224e-01,3.786863386631011963e-02,2.440159022808074951e-02,1.177991703152656555e-01,-1.669167727231979370e-01,2.226056605577468872e-01,-5.051732063293457031e-02,-2.886941842734813690e-02,6.966081447899341583e-03,2.574429102241992950e-02,-3.386322781443595886e-02,-4.393361508846282959e-02,8.842859417200088501e-02,-8.421169221401214600e-02,-1.015428006649017334e-01,-2.329301834106445312e-01,1.278952658176422119e-01,-1.285413503646850586e-01,-4.177277162671089172e-02,-2.945488505065441132e-02,-3.707214817404747009e-02,1.386256963014602661e-01,1.224412843585014343e-01,1.123101189732551575e-01,1.711580455303192139e-01,-9.891202300786972046e-02,4.663521889597177505e-03,1.261439770460128784e-01,1.531587988138198853e-01,-7.334528863430023193e-02,-2.818038873374462128e-02,-9.474075585603713989e-02,9.087885916233062744e-02,1.040961593389511108e-01,-1.242550835013389587e-01,6.674203276634216309e-02,