2.167935669422149658e-01,-1.877893805503845215e-01,2.183899283409118652e-01,1.138497143983840942e-01,-1.508625745773315430e-01,-2.251631617546081543e-01,2.016207724809646606e-01,7.957000285387039185e-02,6.646058987826108932e-03,1.756598651409149170e-01,4.869321733713150024e-02,5.977486446499824524e-02,-3.912721946835517883e-02,1.011621430516242981e-01,1.225589066743850708e-01,5.576030164957046509e-02,-1.344298720359802246e-01,2.413305826485157013e-02,-2.532765083014965057e-02,1.745613366365432739e-01,-2.073206305503845215e-01,5.253147706389427185e-02,-1.376065909862518311e-01,-6.185927987098693848e-02,-1.086203232407569885e-01,6.163568049669265747e-02,1.540292501449584961e-01,8.475691825151443481e-02,8.171026408672332764e-02,7.288660109043121338e-02,-1.509913802146911621e-01,-6.276023387908935547e-02,-1.353502925485372543e-02,1.143806502223014832e-01,-1.346314102411270142e-01,-1.489250063896179199e-01,3.697064891457557678e-02,3.550806641578674316e-02,-1.050550490617752075e-01,1.964724808931350708e-01,9.666344523429870605e-02,1.188143938779830933e-01,1.289805024862289429e-02,1.713686138391494751e-01,1.193873137235641479e-01,1.827942728996276855e-01,2.015376091003417969e-01,-9.924449026584625244e-02,4.653841257095336914e-02,4.490934312343597412e-02,-9.352658689022064209e-02,-3.073433600366115570e-02,1.915221959352493286e-01,1.420608609914779663e-01,1.236839815974235535e-01,5.063475668430328369e-02,2.488134652376174927e-01,2.947695553302764893e-02,-2.709062770009040833e-02,-6.855013221502304077e-02,1.010767221450805664e-01,-9.699937701225280762e-02,5.368665978312492371e-02,6.466815620660781860e-02,2.571968138217926025e-01,2.226417511701583862e-01,1.222056671977043152e-01,1.445846408605575562e-01,1.582814604043960571e-01,-1.862424910068511963e-01,3.869106173515319824e-01,2.220100611448287964e-01,-8.281414210796356201e-02,-3.024676442146301270e-02,3.090833723545074463e-01,1.755861006677150726e-02,1.163805127143859863e-01,1.826522946357727051e-01,3.068434596061706543e-01,1.109400317072868347e-01,1.876735091209411621e-01,1.880396455526351929e-01,3.313193321228027344e-01,6.528153270483016968e-02,1.506220698356628418e-01,-1.023394390940666199e-01,2.864093780517578125e-01,-5.955031141638755798e-02,1.433884203433990479e-01,6.181160360574722290e-02,-3.086631000041961670e-02,4.478842765092849731e-02,3.727332949638366699e-01,2.504292130470275879e-01,3.297683894634246826e-01,4.028872251510620117e-01,-1.676210910081863403e-01,2.476550936698913574e-01,9.654347598552703857e-02,2.137008458375930786e-01,2.569813132286071777e-01,3.145000338554382324e-01,-1.710674613714218140e-01,9.894651919603347778e-02,1.835007816553115845e-01,7.589312642812728882e-02,1.947460472583770752e-01,2.021346986293792725e-02,5.501290559768676758e-01,2.542681097984313965e-01,4.452383220195770264e-01,5.874648690223693848e-01,1.639670878648757935e-01,8.920554816722869873e-02,2.462763488292694092e-01,3.722698986530303955e-01,-1.034545153379440308e-01,6.035689637064933777e-02,1.939192712306976318e-01,1.787232458591461182e-01,-1.765157729387283325e-01,-3.815722651779651642e-03,-5.902734771370887756e-02,6.496667861938476562e-02,-1.133061200380325317e-01,9.474764764308929443e-02,-9.163545072078704834e-02,-5.701677501201629639e-02,-5.843818932771682739e-02,4.779293015599250793e-02,1.246391311287879944e-01,4.114180058240890503e-02,-1.749452650547027588e-01,-1.525426954030990601e-01,1.207078844308853149e-01,-4.045897722244262695e-02,-8.258203975856304169e-03,1.308346241712570190e-01,6.200842931866645813e-02,-6.748738698661327362e-03,7.498680055141448975e-02,7.760776579380035400e-02,3.059983020648360252e-03,-9.985399246215820312e-02,-1.425202339887619019e-01,-1.419689357280731201e-01,-8.674225956201553345e-02,1.879763305187225342e-01,6.421285867691040039e-02,-1.117331832647323608e-01,-3.873942792415618896e-02,-1.258520931005477905e-01,1.987395808100700378e-02,-9.628808498382568359e-02,1.072506308555603027e-01,-1.003869622945785522e-01,-6.913669407367706299e-02,1.176505386829376221e-01,-6.990762799978256226e-02,-1.472524702548980713e-01,-1.552931368350982666e-01,1.159588471055030823e-01,-2.129079401493072510e-01,-5.168259143829345703e-02,2.401103824377059937e-01,-7.970200479030609131e-02,-5.325780808925628662e-02,1.406124830245971680e-01,-8.039693348109722137e-03,6.627999991178512573e-02,-3.421609848737716675e-02,-8.147101849317550659e-02,8.475714921951293945e-02,1.082100570201873779e-01,2.199841290712356567e-01,1.542055308818817139e-01,-1.449275165796279907e-01,8.011701703071594238e-02,1.689823120832443237e-01,-2.963233552873134613e-02,1.985090970993041992e-01,-4.866500198841094971e-02,-2.577131614089012146e-02,1.556298788636922836e-02,9.237047284841537476e-02,6.028513982892036438e-02,1.962031573057174683e-01,2.775351703166961670e-02,1.553070545196533203e-01,-9.858908504247665405e-02,7.785789668560028076e-02,-1.675672829151153564e-01,2.870918214321136475e-01,1.352585852146148682e-01,-1.136248782277107239e-01,2.848485298454761505e-02,8.688823133707046509e-02,1.673022285103797913e-02,1.955443173646926880e-01,3.113729655742645264e-01,-1.009869296103715897e-02,-3.463411331176757812e-02,2.043884620070457458e-02,6.521391123533248901e-02,2.816875874996185303e-01,-5.734468996524810791e-02,4.548599943518638611e-02,1.474166810512542725e-01,9.771653451025485992e-03,-1.843458786606788635e-02,6.140756607055664062e-02,3.087130486965179443e-01,1.331178098917007446e-01,3.174934685230255127e-01,1.556100249290466309e-01,2.340468764305114746e-01,3.233294486999511719e-01,8.448303490877151489e-02,3.097115084528923035e-02,2.407576292753219604e-01,-4.068710654973983765e-02,8.181516826152801514e-02,2.449408620595932007e-01,-3.008116781711578369e-02,-2.182964049279689789e-02,-1.047476679086685181e-01,2.481209486722946167e-01,5.513943266123533249e-03,1.654268503189086914e-01,3.109193444252014160e-01,2.089082151651382446e-01,2.609339058399200439e-01,-5.218014586716890335e-03,2.360571920871734619e-01,1.978350132703781128e-01,-2.672141417860984802e-02,1.104221343994140625e-01,2.541708350181579590e-01,2.018523216247558594e-01,3.079431354999542236e-01,8.780401945114135742e-02,2.890104241669178009e-02,-3.459078371524810791e-01,1.113568097352981567e-01,-2.027648240327835083e-01,4.762220755219459534e-02,4.684891551733016968e-02,-1.326316744089126587e-01,-1.418727934360504150e-01,-2.479879371821880341e-02,-1.993011124432086945e-02,3.173919022083282471e-02,1.905126869678497314e-01,7.246893644332885742e-02,-7.537107914686203003e-02,1.493791192770004272e-01,-3.946974501013755798e-02,-3.285377025604248047e-01,-5.538186430931091309e-02,4.886687919497489929e-02,1.623696088790893555e-01,-4.158758372068405151e-02,-2.119810432195663452e-01,1.278066933155059814e-01,1.571323722600936890e-01,5.359438946470618248e-04,8.039667457342147827e-02,-1.220908463001251221e-01,2.010639011859893799e-01,1.727491058409214020e-02,1.484346836805343628e-01,4.110889136791229248e-02,5.984970554709434509e-02,2.160206884145736694e-01,-1.395954657346010208e-02,2.886375878006219864e-03,2.041861712932586670e-01,9.114582836627960205e-02,1.605147719383239746e-01,1.417082250118255615e-01,-1.165165007114410400e-01,-1.107803266495466232e-02,2.536743879318237305e-01,-1.531008630990982056e-01,-5.214598774909973145e-02,-3.850430846214294434e-01,4.985124617815017700e-02,-1.879726946353912354e-01,-9.869584441184997559e-02,9.182874113321304321e-02,-1.227503642439842224e-01,8.364181220531463623e-02,-8.795544505119323730e-02,-1.269527524709701538e-01,-3.731184601783752441e-01,-2.378681153059005737e-01,3.434138745069503784e-02,-2.317618727684020996e-01,-2.160758711397647858e-02,9.070859849452972412e-02,-1.625998020172119141e-01,-2.717825174331665039e-01,-1.448354870080947876e-02,2.398248016834259033e-01,1.564067974686622620e-02,-9.242186695337295532e-02,-1.622582376003265381e-01,-1.470430195331573486e-01,-6.576183438301086426e-02,-1.546527445316314697e-01,-2.497818879783153534e-02,-3.737530410289764404e-01,2.254475466907024384e-02,-1.480934023857116699e-01,-3.663987815380096436e-01,1.101093888282775879e-01,2.150899320840835571e-01,-4.077585414052009583e-03,1.091811209917068481e-01,-3.177500069141387939e-01,-2.075221538543701172e-01,-2.850120961666107178e-01,-1.130689010024070740e-01,-1.937585473060607910e-01,-1.096858754754066467e-01,1.271402984857559204e-01,-1.766287982463836670e-01,-1.346607804298400879e-01,1.524650305509567261e-01,-2.011876255273818970e-01,2.285033762454986572e-01,-4.092467948794364929e-02,7.456044107675552368e-02,-3.960050046443939209e-01,-1.574005484580993652e-01,-7.881747186183929443e-02,-2.231980860233306885e-01,-7.101783063262701035e-03,1.011230051517486572e-01,-2.246101051568984985e-01,-6.118247285485267639e-02,-2.221793681383132935e-01,-8.300089836120605469e-02,-4.058228433132171631e-01,-3.720443248748779297e-01,-1.813570857048034668e-01,5.657237395644187927e-02,9.376535564661026001e-02,1.293485751375555992e-03,2.006743401288986206e-01,-2.804068624973297119e-01,-6.453896313905715942e-02,5.507171736098825932e-04,-3.418935090303421021e-02,1.016894262284040451e-02,5.903549958020448685e-03,-1.813671290874481201e-01,9.902063757181167603e-02,3.513998584821820259e-03,-7.908838987350463867e-02,1.679780781269073486e-01,-9.523622691631317139e-02,-2.488096356391906738e-01,1.776574403047561646e-01,7.664380967617034912e-02,1.012101843953132629e-01,2.525039017200469971e-01,-7.706205546855926514e-02,1.186385601758956909e-01,-1.329257041215896606e-01,9.406083822250366211e-02,-1.660214364528656006e-01,-1.594663262367248535e-01,-2.015467584133148193e-01,1.627760827541351318e-01,-1.515955626964569092e-01,1.464472860097885132e-01,7.402014732360839844e-02,-1.284127533435821533e-01,4.417859390377998352e-02,1.193345710635185242e-01,1.999225467443466187e-02,1.815587729215621948e-01,1.520501673221588135e-01,-9.847289323806762695e-02,-9.734297543764114380e-02,-1.159884333610534668e-01,1.540447622537612915e-01,5.003887414932250977e-02,-2.974212169647216797e-01,-3.730854019522666931e-02,1.254291087388992310e-01,-1.703301072120666504e-01,2.044112682342529297e-01,-1.095498576760292053e-01,2.618627846240997314e-01,5.508640035986900330e-02,8.157164603471755981e-02,-1.735931336879730225e-01,-1.053119227290153503e-01,-1.359076350927352905e-01,-8.120835572481155396e-02,8.057276904582977295e-02,-6.083855405449867249e-02,1.509760469198226929e-01,-3.415705868974328041e-03,-8.923234790563583374e-02,-7.951450347900390625e-02,7.432227581739425659e-02,-2.142627984285354614e-01,-3.550215810537338257e-02,1.222859099507331848e-01,1.083086803555488586e-01,-6.416636705398559570e-02,3.649310395121574402e-02,2.381725609302520752e-01,6.274353247135877609e-03,1.137708965688943863e-02,-1.610459089279174805e-01,2.994114160537719727e-02,1.045816466212272644e-01,-2.197935283184051514e-01,2.230281233787536621e-01,1.429945975542068481e-01,2.397090010344982147e-02,2.265080064535140991e-02,1.893961578607559204e-01,1.376492679119110107e-01,1.627193391323089600e-01,3.368987515568733215e-02,-9.949232637882232666e-02,2.935141324996948242e-02,1.585387289524078369e-01,-9.780383855104446411e-02,1.886928081512451172e-01,1.812989860773086548e-01,-6.276289373636245728e-02,1.040167286992073059e-01,1.428473144769668579e-01,7.439186424016952515e-02,-5.904634669423103333e-02,-2.405596151947975159e-02,3.180235028266906738e-01,-1.027345508337020874e-01,-2.427564188838005066e-02,1.042861044406890869e-01,-2.713738977909088135e-01,2.866655588150024414e-02,-9.027232974767684937e-02,-1.473219692707061768e-02,1.332597434520721436e-01,1.539627015590667725e-01,9.218748658895492554e-02,3.111786842346191406e-01,1.998009979724884033e-01,2.199702262878417969e-01,1.533328145742416382e-01,1.463053822517395020e-01,1.035206317901611328e-01,-3.107799775898456573e-02,1.401532888412475586e-01,1.887299716472625732e-01,1.218773275613784790e-01,-5.629315227270126343e-02,2.259025275707244873e-01,-3.550779446959495544e-02,2.384640276432037354e-01,1.934179514646530151e-01,-2.681234776973724365e-01,-1.441750228404998779e-01,-4.652132093906402588e-02,1.727419160306453705e-02,5.480695888400077820e-02,2.074111253023147583e-01,-5.688372254371643066e-02,-2.730706520378589630e-02,-7.372622936964035034e-02,-4.300272837281227112e-02,1.676550060510635376e-01,-1.744649745523929596e-02,3.519879281520843506e-02,1.258379686623811722e-02,2.688081562519073486e-02,6.650291848927736282e-03,-5.137833952903747559e-02,9.171439707279205322e-02,5.196667090058326721e-02,4.059833660721778870e-02,-8.202217519283294678e-02,8.013616502285003662e-02,1.764177978038787842e-01,-1.084134057164192200e-01,6.651170551776885986e-02,-9.859984368085861206e-02,-1.219434738159179688e-01,-1.774114072322845459e-01,7.006457448005676270e-02,-7.413690537214279175e-02,2.174234241247177124e-01,1.155143380165100098e-01,4.790357127785682678e-02,-7.347005605697631836e-02,-1.524777710437774658e-01,1.197850853204727173e-01,-2.182677574455738068e-02,-4.814861714839935303e-02,-7.714459300041198730e-02,8.876373618841171265e-02,1.410645991563796997e-02,-1.388538777828216553e-01,1.254568248987197876e-01,-1.564514189958572388e-01,1.474819332361221313e-01,-1.346714943647384644e-01,-1.638882458209991455e-01,-3.293772041797637939e-02,5.837067961692810059e-02,-4.888848587870597839e-02,2.210641838610172272e-02,-1.075528264045715332e-01,1.200204789638519287e-01,-1.128725707530975342e-01,-1.872477680444717407e-02,-8.347307331860065460e-03,1.506192237138748169e-02,2.499758452177047729e-01,8.603232912719249725e-03,-6.170651316642761230e-02,-3.079003840684890747e-02,-2.153361737728118896e-01,-2.067363858222961426e-01,-1.096835173666477203e-02,-1.262129694223403931e-01,-8.949963748455047607e-02,-6.139457970857620239e-02,-8.867232128977775574e-03,1.529927104711532593e-01,2.975214459002017975e-02,5.909870192408561707e-02,-4.011734575033187866e-02,-6.723321229219436646e-02,-3.633665293455123901e-02,-7.595510780811309814e-02,-6.118842214345932007e-02,5.230976641178131104e-02,1.217715740203857422e-01,2.033857703208923340e-01,1.687576919794082642e-01,-1.016304120421409607e-01,-7.438954710960388184e-02,-2.898615412414073944e-02,1.731692850589752197e-01,-1.123467311263084412e-01,-2.983113527297973633e-01,2.115246802568435669e-01,-1.579910218715667725e-01,4.852573201060295105e-02,-1.153186634182929993e-01,-5.648147314786911011e-03,-1.981643438339233398e-01,-3.554361686110496521e-02,2.461995333433151245e-01,-5.774600431323051453e-02,2.562669664621353149e-02,-7.467716932296752930e-02,6.001232564449310303e-02,-4.111111164093017578e-02,3.437874317169189453e-01,-9.671469777822494507e-02,-1.054399274289608002e-02,1.625545769929885864e-01,8.569200336933135986e-02,-1.636951812542974949e-03,1.513552069664001465e-01,-6.666609644889831543e-02,-1.464490685611963272e-02,8.436272852122783661e-03,3.461661562323570251e-02,-1.814613938331604004e-01,8.075201511383056641e-02,1.300486624240875244e-01,3.551961481571197510e-02,-9.181639552116394043e-02,1.190866082906723022e-01,1.281677335500717163e-01,6.195503845810890198e-02,4.173114150762557983e-02,-1.631573438644409180e-01,6.573175080120563507e-03,1.576249748468399048e-01,1.194048598408699036e-01,1.604100316762924194e-01,4.326600953936576843e-02,-9.268005192279815674e-02,1.620445549488067627e-01,-8.251639455556869507e-02,8.716143667697906494e-03,1.022330522537231445e-01,2.241214662790298462e-01,1.765128807164728642e-03,8.356279879808425903e-02,-1.235321760177612305e-01,-8.103435486555099487e-02,-1.340728700160980225e-01,7.826471328735351562e-02,1.988657265901565552e-01,-1.592378914356231689e-01,-7.694030553102493286e-02,-4.083985835313796997e-02,-5.616704002022743225e-02,-1.806446909904479980e-01,-1.296850144863128662e-01,-7.546926289796829224e-02,9.625507891178131104e-02,-5.372599884867668152e-02,2.302305698394775391e-01,-1.113549396395683289e-01,7.141283899545669556e-02,9.754852391779422760e-03,-8.791966736316680908e-02,2.740216553211212158e-01,-9.266204386949539185e-02,-8.638695627450942993e-02,-1.152850762009620667e-01,1.554136276245117188e-01,5.234154313802719116e-02,8.560867607593536377e-02,1.710232347249984741e-01,-1.033589765429496765e-01,-5.529835447669029236e-02,-1.529385447502136230e-01,8.607626706361770630e-02,-2.583320736885070801e-01,3.049963116645812988e-01,-1.009528711438179016e-01,8.432225883007049561e-02,3.014865890145301819e-02,1.818997412919998169e-02,-5.365340784192085266e-02,1.057766303420066833e-01,-2.126794755458831787e-01,2.078355550765991211e-01,1.628386676311492920e-01,7.109296321868896484e-02,2.764291688799858093e-02,-4.978299513459205627e-02,-1.384193892590701580e-03,-3.630438074469566345e-02,-7.812797278165817261e-02,9.618110209703445435e-02,1.703862994909286499e-01,-3.384062275290489197e-02,-1.101204380393028259e-01,-8.624775707721710205e-02,1.157564371824264526e-01,1.652272976934909821e-02,-3.362558484077453613e-01,5.713061615824699402e-02,-1.357303410768508911e-01,2.421794980764389038e-01,-9.143204987049102783e-02,-1.603481471538543701e-01,-2.150799632072448730e-01,2.147910296916961670e-01,-4.599167499691247940e-03,1.286635994911193848e-01,-6.232534069567918777e-03,-1.361119300127029419e-01,1.514597237110137939e-01,3.221953287720680237e-02,-2.493961304426193237e-01,-1.115147247910499573e-01,2.130156848579645157e-03,2.006374597549438477e-01,-1.572799533605575562e-01,-1.095470860600471497e-01,-2.235743403434753418e-01,3.921937569975852966e-02,-3.785786032676696777e-02,-2.690769433975219727e-01,7.601735740900039673e-02,1.429239511489868164e-01,-1.161287166178226471e-02,3.103248216211795807e-02,1.068878397345542908e-01,-2.666527926921844482e-01,-4.333595335483551025e-01,-2.245608484372496605e-03,1.722567714750766754e-02,-1.579510122537612915e-01,-2.223157733678817749e-01,-1.307589188218116760e-02,-3.418951928615570068e-01,7.687990088015794754e-03,-3.911910653114318848e-01,-1.583887338638305664e-01,-1.320701092481613159e-02,-1.297388374805450439e-01,3.280175924301147461e-01,-3.022974431514739990e-01,1.702259331941604614e-01,1.037209704518318176e-01,-7.370425760746002197e-02,-2.961057722568511963e-01,-3.159243762493133545e-01,1.613404974341392517e-02,-1.537488102912902832e-01,1.138889268040657043e-01,-3.026986420154571533e-01,-4.040302336215972900e-01,-1.795736700296401978e-01,-1.873642355203628540e-01,-2.713521420955657959e-01,-2.505507692694664001e-02,-7.236750423908233643e-02,-2.327304929494857788e-01,-3.629771471023559570e-01,2.120258808135986328e-01,-3.950013816356658936e-01,-1.067719385027885437e-01,-1.329250447452068329e-02,1.182131394743919373e-01,-2.728103399276733398e-01,-5.805536359548568726e-02,-3.185321018099784851e-02,-1.649249941110610962e-01,8.951579034328460693e-02,-1.895524859428405762e-01,-1.314616054296493530e-01,1.313704401254653931e-01,-1.760671436786651611e-01,1.515403389930725098e-02,-2.176498994231224060e-02,-2.972784638404846191e-01,-1.121384948492050171e-01,-1.230227574706077576e-01,-1.200720574706792831e-02,7.015603780746459961e-02,-2.838699892163276672e-02,-1.812306605279445648e-02,2.214256376028060913e-01,5.856473371386528015e-02,-1.226845160126686096e-01,1.046869158744812012e-01,-3.128960132598876953e-01,-4.920391738414764404e-02,5.317038297653198242e-02,-3.044920265674591064e-01,1.266269683837890625e-01,3.681546077132225037e-02,-1.678322404623031616e-01,4.550411552190780640e-02,-1.441079080104827881e-01,-1.502862125635147095e-01,-1.778677999973297119e-01,1.800545006990432739e-01,-1.152151525020599365e-01,5.616156011819839478e-02,5.486110597848892212e-02,7.058747112751007080e-02,-1.101636048406362534e-02,-1.136374250054359436e-01,3.121629357337951660e-01,7.545609027147293091e-02,-9.400145709514617920e-02,-1.414609402418136597e-01,-2.722744643688201904e-01,-2.216065526008605957e-01,-2.973103821277618408e-01,-3.801204636693000793e-02,-3.143597766757011414e-02,1.082336995750665665e-02,-3.519459366798400879e-01,-3.437958359718322754e-01,2.642188593745231628e-02,1.901164799928665161e-01,-2.126331329345703125e-01,-2.480533570051193237e-01,5.109943449497222900e-02,5.230138078331947327e-02,-2.970018982887268066e-01,3.101379843428730965e-04,-2.491706311702728271e-01,-1.610033959150314331e-02,-1.903544068336486816e-01,-2.576257884502410889e-01,-3.425610363483428955e-01,3.656147047877311707e-02,-1.105996072292327881e-01,3.928752988576889038e-02,-2.111284136772155762e-01,-3.614638745784759521e-02,-1.192830950021743774e-01,-4.321965388953685760e-03,5.974332243204116821e-02,-4.947991967201232910e-01,9.919343888759613037e-02,-4.364860951900482178e-01,5.732710659503936768e-02,3.381262719631195068e-02,-2.306124567985534668e-01,-1.805886179208755493e-01,1.512032654136419296e-02,-3.311840891838073730e-01,-7.438370585441589355e-02,-3.602065891027450562e-02,-1.454773843288421631e-01,5.529615283012390137e-02,5.330980196595191956e-02,8.199536800384521484e-02,4.233217239379882812e-02,-2.010371237993240356e-01,-3.185122609138488770e-01,-2.247341722249984741e-01,-7.850009948015213013e-02,-2.277550399303436279e-01,-5.702343583106994629e-01,-1.869336813688278198e-01,2.679619239643216133e-03,-2.236605584621429443e-01,6.017354130744934082e-02,-2.151785343885421753e-01,-1.707008332014083862e-01,-1.177323609590530396e-01,1.479922384023666382e-01,-1.742614358663558960e-01,-7.863464951515197754e-02,9.105741977691650391e-02,-5.723741054534912109e-01,5.045704916119575500e-02,-3.852063715457916260e-01,-1.142204254865646362e-01,-5.684141069650650024e-03,-1.084676906466484070e-01,-1.441440433263778687e-01,-1.299578398466110229e-01,-1.206972822546958923e-01,-3.349171876907348633e-01,-2.778068184852600098e-01,-3.071855008602142334e-01,-1.075668931007385254e-01,-4.201874509453773499e-02,-1.563140004873275757e-01,-1.411913335323333740e-01,-1.499800849705934525e-02,-1.662727743387222290e-01,-1.945949904620647430e-02,7.635770738124847412e-02,-8.146258443593978882e-02,-7.478453963994979858e-02,8.418016135692596436e-02,1.413169037550687790e-02,-4.827525932341814041e-03,-2.330608107149600983e-02,5.201235413551330566e-02,1.526659280061721802e-01,3.527894383296370506e-03,-1.872404068708419800e-01,1.037758141756057739e-01,8.412515744566917419e-04,7.630144804716110229e-02,1.492692530155181885e-01,-9.417755901813507080e-02,3.172630444169044495e-02,1.098145246505737305e-01,1.561746001243591309e-01,2.202952355146408081e-01,3.506904467940330505e-02,1.286347061395645142e-01,1.168497558683156967e-02,-6.250227242708206177e-02,1.056754514575004578e-01,1.129540950059890747e-01,8.575437963008880615e-02,5.230566952377557755e-03,6.757128983736038208e-02,5.136362160556018353e-04,1.283364277333021164e-02,-1.973892003297805786e-01,-1.777560114860534668e-01,1.188294142484664917e-01,-4.747271165251731873e-02,1.266828775405883789e-01,2.306360006332397461e-02,-1.303539872169494629e-01,-3.980676829814910889e-02,1.358206197619438171e-02,5.156385526061058044e-02,1.092175394296646118e-01,-1.274526268243789673e-01,2.040591239929199219e-01,-4.864083975553512573e-02,5.880300328135490417e-02,-9.979269653558731079e-02,-2.355820313096046448e-02,-2.270155400037765503e-01,1.277361437678337097e-02,-1.250380724668502808e-01,1.607332378625869751e-01,1.241588518023490906e-01,-1.565578281879425049e-01,-2.177716344594955444e-01,5.434532649815082550e-03,-6.016370654106140137e-02,-7.446997612714767456e-02,-2.057001292705535889e-01,-1.376394927501678467e-01,-7.795182615518569946e-02,-1.694613695144653320e-01,-2.580447494983673096e-02,-5.821763724088668823e-02,3.841331601142883301e-02,-1.188811585307121277e-01,1.419003605842590332e-01,-2.434484362602233887e-01,1.456612646579742432e-01,-1.188584044575691223e-02,-6.478881090879440308e-02,-3.923892676830291748e-01,-1.845278888940811157e-01,6.276137381792068481e-02,-2.826456427574157715e-01,-2.638103365898132324e-01,-2.463968694210052490e-01,4.781649913638830185e-03,6.577597558498382568e-02,-3.978039324283599854e-02,-4.475234076380729675e-02,-1.168988421559333801e-01,-7.697969209402799606e-03,-4.219028353691101074e-02,-1.931923776865005493e-01,-1.004136651754379272e-01,-1.201293766498565674e-01,-1.365146189928054810e-01,-8.798264712095260620e-02,3.511224174872040749e-03,-1.805101707577705383e-02,-1.987332701683044434e-01,-2.991058230400085449e-01,-1.541743613779544830e-02,-3.383715450763702393e-01,9.578248113393783569e-02,-8.603382855653762817e-02,-2.765497863292694092e-01,-2.831370756030082703e-02,-7.344111055135726929e-02,3.504435718059539795e-02,-1.512582004070281982e-01,-1.862150579690933228e-01,-2.501478195190429688e-01,-1.428422033786773682e-01,4.280570521950721741e-02,-6.144851818680763245e-02,-1.176708415150642395e-01,-2.764046788215637207e-01,-1.611736565828323364e-01,-6.528867036104202271e-02,-1.214964389801025391e-01,-1.705868095159530640e-01,2.269402444362640381e-01,1.269522607326507568e-01,1.048487350344657898e-01,-3.165540844202041626e-02,3.914631530642509460e-02,-2.312359213829040527e-01,4.647201299667358398e-02,1.785640046000480652e-02,-2.267867624759674072e-01,-6.360036134719848633e-02,8.501861989498138428e-02,-6.928445398807525635e-02,-8.039212226867675781e-02,8.582982420921325684e-02,-7.061747834086418152e-03,-2.597699165344238281e-01,3.087285161018371582e-01,3.181195119395852089e-03,-1.181209310889244080e-01,4.350154846906661987e-02,-1.284974813461303711e-01,4.054349362850189209e-01,1.143791750073432922e-01,1.930587589740753174e-01,2.200543731451034546e-01,-1.768221259117126465e-01,-9.213218837976455688e-02,1.922842264175415039e-01,5.717716179788112640e-03,2.039798200130462646e-01,1.411186903715133667e-01,-5.394870415329933167e-02,1.527216732501983643e-01,-1.602428108453750610e-01,-2.606058418750762939e-01,-1.115327328443527222e-01,-1.713785678148269653e-01,2.031295746564865112e-02,5.252401530742645264e-02,1.259879618883132935e-01,2.474708408117294312e-01,1.816351413726806641e-01,-1.371011286973953247e-01,-5.191860347986221313e-02,1.921395584940910339e-02,3.521222174167633057e-01,6.277967244386672974e-02,2.662853300571441650e-01,1.067700609564781189e-01,9.407432377338409424e-02,8.485113084316253662e-02,-8.885896950960159302e-02,-1.387758832424879074e-02,4.534170776605606079e-02,1.396347284317016602e-01,5.384698137640953064e-02,-1.118217129260301590e-02,1.904098689556121826e-01,-1.284751445055007935e-01,-2.293009869754314423e-02,2.839455567300319672e-02,-1.225228235125541687e-02,2.222368679940700531e-02,-3.671421110630035400e-01,-1.633569151163101196e-01,-7.802972197532653809e-02,-6.170853041112422943e-03,3.176892921328544617e-02,4.058687016367912292e-02,-9.113023057579994202e-03,-4.843542352318763733e-02,3.655646741390228271e-01,-7.129828631877899170e-02,1.266713589429855347e-01,-1.372736245393753052e-01,6.585787236690521240e-02,-1.638497710227966309e-01,-6.747172772884368896e-02,-1.224551275372505188e-01,-1.678147763013839722e-01,5.164132639765739441e-02,-1.667824387550354004e-01,2.611814066767692566e-02,-1.887248605489730835e-01,-6.120122224092483521e-02,-1.655543446540832520e-01,-1.363822668790817261e-01,-2.564873993396759033e-01,-3.293293714523315430e-01,-1.085939332842826843e-01,-1.966568827629089355e-01,1.453543901443481445e-01,-3.875749185681343079e-02,-8.947521448135375977e-02,-1.281090229749679565e-01,-9.155779331922531128e-02,1.400440484285354614e-01,-4.550041258335113525e-01,6.047896668314933777e-02,-1.645812392234802246e-01,-1.045557260513305664e-01,-4.278124123811721802e-02,1.299387891776859760e-03,-3.931228537112474442e-03,-2.622794508934020996e-01,4.961439594626426697e-02,-3.001472651958465576e-01,-1.929166167974472046e-01,-3.489885330200195312e-01,-1.937796622514724731e-01,-1.269541401416063309e-02,-1.230643466114997864e-01,-4.339189454913139343e-02,-1.464044898748397827e-01,7.236991822719573975e-02,1.147987991571426392e-01,2.253423780202865601e-01,-4.037978649139404297e-01,1.961199194192886353e-01,-1.817791610956192017e-01,1.855747848749160767e-01,1.009871214628219604e-01,2.031107544898986816e-01,-8.771979808807373047e-02,-1.302213221788406372e-01,4.368498176336288452e-02,-2.335500121116638184e-01,1.771500520408153534e-02,-4.864278435707092285e-02,1.059961840510368347e-01,-3.039656579494476318e-01,1.730936318635940552e-01,-1.108899861574172974e-01,-2.051458954811096191e-01,2.329571247100830078e-01,8.398444950580596924e-02,-1.640476733446121216e-01,1.343905180692672729e-02,1.157800201326608658e-02,-5.373395606875419617e-02,3.680091723799705505e-02,-3.496793285012245178e-02,9.487310424447059631e-03,-2.855651080608367920e-01,-1.344381272792816162e-01,8.042017370462417603e-02,-1.320716440677642822e-01,1.529351528733968735e-02,-7.726989686489105225e-02,1.829735934734344482e-02,6.759475916624069214e-02,-3.107725270092487335e-02,1.267777085304260254e-01,9.986639954149723053e-03,-1.284414529800415039e-01,2.459264732897281647e-02,-9.100212156772613525e-02,1.889534145593643188e-01,-4.907447472214698792e-02,-5.951134487986564636e-02,-8.168965578079223633e-02,9.769924730062484741e-02,1.591752469539642334e-01,-7.345378398895263672e-02,-6.564348936080932617e-03,-9.306794404983520508e-02,-1.780449412763118744e-02,3.924251720309257507e-02,-1.113443151116371155e-01,-2.049218490719795227e-02,1.310297995805740356e-01,1.863239705562591553e-01,-2.244095318019390106e-02,2.686413526535034180e-01,-8.252573758363723755e-02,-1.190773677080869675e-02,-2.960056625306606293e-02,-1.270213127136230469e-01,9.565578401088714600e-02,-9.772933553904294968e-04,-3.036444261670112610e-02,2.113744616508483887e-01,-5.596674233675003052e-02,-4.813662916421890259e-02,-1.017513945698738098e-01,1.073846369981765747e-01,1.825462132692337036e-01,4.481893032789230347e-02,1.189286485314369202e-01,7.087154686450958252e-02,8.731785416603088379e-02,-2.269055135548114777e-02,1.998899579048156738e-01,1.176716759800910950e-01,-4.001229628920555115e-02,-1.171618402004241943e-01,4.392473027110099792e-02,-1.683436185121536255e-01,8.284956216812133789e-02,1.555347591638565063e-01,2.708931453526020050e-02,-3.937476780265569687e-03,1.077844053506851196e-01,8.305130898952484131e-02,1.613446921110153198e-01,-6.787758320569992065e-02,-1.969195455312728882e-01,3.566269949078559875e-02,1.628692299127578735e-01,2.497041374444961548e-01,-1.034155935049057007e-01,7.059441879391670227e-03,-3.240775316953659058e-02,2.215904593467712402e-01,3.801141977310180664e-01,1.555422693490982056e-01,8.296778053045272827e-02,-6.890683621168136597e-02,4.310845956206321716e-02,-1.784516498446464539e-02,-8.400682359933853149e-02,5.040885135531425476e-02,8.837283402681350708e-02,-1.753759384155273438e-01,3.376503884792327881e-01,-2.358369156718254089e-02,-9.264035522937774658e-02,9.655714780092239380e-02,4.658845067024230957e-02,-2.443017438054084778e-03,1.800427436828613281e-01,5.305804312229156494e-03,3.498048707842826843e-02,1.836802512407302856e-01,-1.095683053135871887e-01,-1.082969158887863159e-01,6.547605246305465698e-02,-3.169528543949127197e-01,-1.758950799703598022e-01,1.888455636799335480e-02,8.685921877622604370e-02,-1.078553944826126099e-01,2.389670610427856445e-01,-1.033153682947158813e-01,1.678469479084014893e-01,3.462996482849121094e-01,6.129910703748464584e-03,-2.414778620004653931e-02,4.380948841571807861e-03,4.457813501358032227e-02,-1.245686113834381104e-01,1.638846546411514282e-01,-6.003713980317115784e-02,2.655857801437377930e-01,-4.947157949209213257e-02,-1.114174500107765198e-01,-1.500349938869476318e-01,-1.370829194784164429e-01,4.258021339774131775e-02,1.946287304162979126e-01,1.522760838270187378e-03,-2.039250433444976807e-01,5.905928090214729309e-02,1.256867349147796631e-01,-5.831155925989151001e-02,-1.980447024106979370e-02,-9.778370708227157593e-02,-2.144970744848251343e-01,-2.915197052061557770e-02,1.676445752382278442e-01,2.179472446441650391e-01,6.104087084531784058e-02,-4.212369024753570557e-02,8.006185293197631836e-02,-1.530421078205108643e-01,2.956851013004779816e-02,7.003840804100036621e-02,7.620757818222045898e-02,-1.644627153873443604e-01,-2.487047612667083740e-01,3.324940800666809082e-02,2.564495801925659180e-02,-9.949431568384170532e-02,2.394935581833124161e-03,1.660131290555000305e-02,2.291082441806793213e-01,-3.579245880246162415e-02,-2.987110987305641174e-02,-6.705036014318466187e-02,1.904179602861404419e-01,-1.352846026420593262e-01,-5.318848788738250732e-02,3.806596249341964722e-02,6.565145403146743774e-02,-9.095402806997299194e-02,-1.411310434341430664e-01,1.291878637857735157e-03,-6.594095379114151001e-02,-1.315468847751617432e-01,1.269363015890121460e-01,1.041607335209846497e-01,5.631530284881591797e-02,7.850194722414016724e-02,-1.455227434635162354e-01,-1.491083055734634399e-01,1.989592984318733215e-02,-1.009437665343284607e-01,-3.265934064984321594e-02,-3.724551796913146973e-01,-6.828489899635314941e-02,-9.920963644981384277e-02,2.755522429943084717e-01,-1.196708083152770996e-01,8.060487359762191772e-02,-1.560374796390533447e-01,-4.981167986989021301e-02,1.509272903203964233e-01,1.643246263265609741e-01,1.251988708972930908e-01,-1.004334762692451477e-01,1.712832748889923096e-01,2.582375407218933105e-01,-1.255355477333068848e-01,1.172111853957176208e-01,-1.129864975810050964e-01,3.494898229837417603e-02,-1.222703140228986740e-02,1.628588885068893433e-01,1.850174665451049805e-01,-5.008862540125846863e-02,-3.314370289444923401e-03,2.552001178264617920e-01,-1.050498895347118378e-02,2.096145451068878174e-01,7.448059320449829102e-02,-3.024348914623260498e-01,1.073534041643142700e-01,6.260457634925842285e-02,-7.305907458066940308e-02,-2.306223362684249878e-01,-5.503303930163383484e-02,-1.282051857560873032e-02,-1.832938492298126221e-01,-6.697435677051544189e-02,4.213370755314826965e-02,1.511184405535459518e-02,9.144409745931625366e-02,-7.974549382925033569e-02,-4.602872207760810852e-02,-7.103814929723739624e-02,5.837043374776840210e-02,-9.001205861568450928e-02,-9.435660205781459808e-03,-6.172176916152238846e-03,1.933952569961547852e-01,1.005891636013984680e-01,6.262351572513580322e-02,3.141050040721893311e-01,3.982656821608543396e-02,-2.156520932912826538e-01,-6.320289522409439087e-02,-1.177700757980346680e-01,2.107869833707809448e-01,1.269792765378952026e-01,1.752222478389739990e-01,2.183519303798675537e-01,-1.751513034105300903e-01,-2.016957104206085205e-01,-5.119329318404197693e-02,1.212374418973922729e-01,3.742531873285770416e-03,1.288568079471588135e-01,1.327855587005615234e-01,7.872297614812850952e-02,-5.218182504177093506e-02,9.326635301113128662e-02,-1.023907121270895004e-02,-1.454851329326629639e-01,5.795958265662193298e-02,2.232026308774948120e-01,-1.130927279591560364e-01,-5.236000940203666687e-02,6.339109688997268677e-02,-2.234763652086257935e-02,2.460701018571853638e-01,1.439717262983322144e-01,2.603095956146717072e-03,1.919368505477905273e-01,6.964872591197490692e-03,-1.116094291210174561e-01,-7.024060934782028198e-02,-1.726101785898208618e-01,-4.628709331154823303e-02,3.075333125889301300e-02,-3.418913483619689941e-02,-7.944348454475402832e-02,-1.880338639020919800e-01,-3.398012369871139526e-02,9.804292581975460052e-03,2.049644142389297485e-01,7.543811947107315063e-02,7.689541578292846680e-02,5.037060007452964783e-02,5.706453695893287659e-02,-9.476286172866821289e-02,-1.300837397575378418e-01,2.012923061847686768e-01,2.410452067852020264e-01,1.300695687532424927e-01,2.693208158016204834e-01,-1.021054908633232117e-01,2.952767610549926758e-01,3.814692795276641846e-02,-9.049247950315475464e-02,4.042241349816322327e-02,6.598683446645736694e-02,6.748338788747787476e-02,8.475513756275177002e-02,-6.779559701681137085e-02,3.523721396923065186e-01,-1.357904374599456787e-01,-9.623716771602630615e-02,5.551348440349102020e-04,1.342756301164627075e-01,-1.273081600666046143e-01,-1.416107714176177979e-01,-3.255403041839599609e-01,-1.906163692474365234e-01,-3.323264420032501221e-02,-2.425259649753570557e-01,-1.935076564550399780e-01,-4.958904162049293518e-02,2.776539884507656097e-03,-1.520286947488784790e-01,8.058248460292816162e-02,-1.666627824306488037e-01,-2.141391485929489136e-01,-1.991396099328994751e-01,-2.142739295959472656e-01,-2.056946903467178345e-01,-1.960040330886840820e-01,1.476734876632690430e-01,6.976245436817407608e-03,-2.653774917125701904e-01,-7.126267999410629272e-02,9.993363171815872192e-02,-2.380190975964069366e-02,-2.673020064830780029e-01,-1.035038456320762634e-01,-8.128765225410461426e-02,-1.349117457866668701e-01,-2.251598984003067017e-02,-5.310508608818054199e-01,-2.886267602443695068e-01,-7.924089580774307251e-02,-1.367356479167938232e-01,-2.601382732391357422e-01,4.832130298018455505e-02,4.609478265047073364e-02,1.023810356855392456e-01,-2.491515427827835083e-01,-2.823076248168945312e-01,-2.470927089452743530e-01,-1.255189031362533569e-01,-3.191286921501159668e-01,1.531293243169784546e-01,-1.293488293886184692e-01,6.137295439839363098e-02,-1.466707736253738403e-01,3.707268834114074707e-02,-1.981883943080902100e-01,-9.913116693496704102e-02,-3.266132771968841553e-01,-2.027440220117568970e-01,-2.433777973055839539e-02,1.077522635459899902e-01,1.056338846683502197e-01,-5.693769827485084534e-02,-3.419235944747924805e-01,-1.830393075942993164e-01,1.061562597751617432e-01,-9.897289425134658813e-02,1.528995484113693237e-01,1.325963884592056274e-01,2.517688572406768799e-01,-9.509303420782089233e-02,-2.339363656938076019e-02,3.964577987790107727e-02,2.209320664405822754e-01,-1.147019192576408386e-01,-8.315070718526840210e-02,-2.378241121768951416e-01,-8.712743222713470459e-02,1.324677020311355591e-01,8.017248660326004028e-02,-2.978273667395114899e-02,1.692879498004913330e-01,-4.001774489879608154e-01,-2.342217564582824707e-01,4.568723496049642563e-03,-1.134810894727706909e-01,-9.905925253406167030e-04,5.052281543612480164e-02,1.690964102745056152e-01,1.908987388014793396e-02,-8.377248793840408325e-02,9.145734831690788269e-03,-3.032240457832813263e-02,5.486353486776351929e-02,-4.662492126226425171e-02,-4.462210834026336670e-02,2.687964737415313721e-01,1.213407367467880249e-01,2.149802148342132568e-01,8.133766055107116699e-02,3.221431002020835876e-02,1.659044064581394196e-02,-6.701469421386718750e-02,-1.081619188189506531e-01,9.165126085281372070e-02,1.314591523259878159e-02,2.039156854152679443e-01,-1.775028854608535767e-01,7.915470749139785767e-02,-3.552218899130821228e-02,-8.675568550825119019e-02,1.884514242410659790e-01,-1.767062395811080933e-01,1.800246089696884155e-01,2.349813282489776611e-01,-4.117794334888458252e-02,-2.662902176380157471e-01,6.022307276725769043e-02,-1.215325519442558289e-01,7.353812456130981445e-02,-8.227823674678802490e-02,-2.381903305649757385e-02,-3.047808408737182617e-01,1.711961030960083008e-01,-2.676982618868350983e-02,-3.281244263052940369e-02,4.590774886310100555e-03,-1.099457219243049622e-01,1.961222141981124878e-01,8.507844060659408569e-02,8.575875312089920044e-02,-1.123961210250854492e-01,1.664009392261505127e-01,1.407981663942337036e-01,-1.556365340948104858e-01,-2.860487103462219238e-01,-5.616040155291557312e-02,-7.676323875784873962e-03,1.489549428224563599e-01,-1.889323443174362183e-01,9.287659823894500732e-02,-1.392496824264526367e-01,6.769770383834838867e-02,-8.219007402658462524e-02,-1.454086005687713623e-01,-5.396283045411109924e-02,1.586283296346664429e-01,-6.191570311784744263e-02,2.831211686134338379e-02,-2.721047401428222656e-02,-2.358190268278121948e-01,-1.362954974174499512e-01,-1.188156604766845703e-01,5.533016473054885864e-02,-9.248563647270202637e-02,-4.296364728361368179e-03,-1.705960482358932495e-01,-9.619206190109252930e-02,3.951442614197731018e-02,-2.351595908403396606e-01,-3.335612714290618896e-01,-5.166211724281311035e-02,-1.626057773828506470e-01,7.990382611751556396e-02,-1.706259548664093018e-01,-1.584649682044982910e-01,9.568666666746139526e-02,1.608794741332530975e-02,1.395842060446739197e-02,-2.059434801340103149e-01,6.561154127120971680e-02,-1.111589297652244568e-01,2.708142697811126709e-01,-1.887087970972061157e-01,-2.917597293853759766e-01,7.895460724830627441e-02,-1.942359805107116699e-01,-2.558910250663757324e-01,-1.997267305850982666e-01,-3.382587730884552002e-01,3.775887563824653625e-02,-1.833169758319854736e-01,-5.006500333547592163e-02,-1.536472141742706299e-01,-6.814912706613540649e-02,-9.507387876510620117e-02,8.847416192293167114e-02,1.780998148024082184e-02,-1.868111789226531982e-01,-2.571596577763557434e-02,-1.461489945650100708e-01,1.070863306522369385e-01,5.668803304433822632e-02,-3.064953982830047607e-01,-6.874228268861770630e-02,2.941335141658782959e-01,1.619949489831924438e-01,9.916877374053001404e-03,-1.260831803083419800e-01,3.377821296453475952e-02,-1.289694011211395264e-01,-7.039641588926315308e-02,-1.867307871580123901e-01,-4.171521067619323730e-01,-2.882377244532108307e-02,2.589400708675384521e-01,2.722826413810253143e-02,-2.319207936525344849e-01,-1.099588931538164616e-03,-6.553457677364349365e-02,-7.066877931356430054e-02,-2.987045794725418091e-02,6.630545854568481445e-02,4.202786833047866821e-02,-8.933943510055541992e-02,2.396311610937118530e-02,-9.290979802608489990e-02,-1.703062802553176880e-01,-1.299983114004135132e-01,-6.482007354497909546e-02,-5.707807838916778564e-02,7.365805655717849731e-02,-1.700144708156585693e-01,9.289241582155227661e-02,-2.107253819704055786e-01,1.026158109307289124e-01,-1.013183370232582092e-01,4.639238119125366211e-02,-1.589814573526382446e-02,-3.560222685337066650e-02,2.371482998132705688e-01,8.237369358539581299e-02,6.236457079648971558e-02,-1.156373172998428345e-01,-1.196257844567298889e-01,4.972546547651290894e-02,-1.023202091455459595e-01,-1.694424450397491455e-01,4.518599435687065125e-02,2.515684068202972412e-02,-1.603227807208895683e-03,9.662511944770812988e-02,-1.397865414619445801e-01,7.059537805616855621e-03,-1.780903935432434082e-01,-1.505520343780517578e-01,-2.713817954063415527e-01,-2.382366061210632324e-01,3.791259834542870522e-03,-2.923055887222290039e-01,-1.158799976110458374e-01,-1.198357865214347839e-01,-1.487500071525573730e-01,2.965089306235313416e-02,-3.614664450287818909e-02,-3.442705795168876648e-02,1.549715250730514526e-01,-1.646082252264022827e-01,-3.034391999244689941e-01,1.270597726106643677e-01,-1.358701735734939575e-01,-2.486067265272140503e-01,-4.316770285367965698e-02,2.900523832067847252e-03,-1.387055963277816772e-01,5.518681835383176804e-03,-4.148864150047302246e-01,-1.824685931205749512e-01,-1.798641085624694824e-01,-1.487305313348770142e-01,-1.178231239318847656e-01,-3.129256367683410645e-01,-2.708872556686401367e-01,-5.272569134831428528e-02,-3.124622106552124023e-01,-3.929366469383239746e-01,-7.465656381100416183e-03,-1.591996401548385620e-01,3.031533956527709961e-02,-1.504981517791748047e-02,-9.390579164028167725e-02,-1.994800567626953125e-01,2.885138802230358124e-02,-1.673843264579772949e-01,3.075383789837360382e-02,-3.293227031826972961e-02,-5.380376800894737244e-02,-1.163484454154968262e-01,-8.965983986854553223e-02,-1.202098000794649124e-02,-7.994365692138671875e-02,1.209016516804695129e-01,-3.193137347698211670e-01,-1.214951127767562866e-01,-2.230692058801651001e-01,-1.935155093669891357e-01,1.496144086122512817e-01,-1.201911345124244690e-01,-3.226971924304962158e-01,-1.489938050508499146e-01,-6.683618575334548950e-02,-3.873154819011688232e-01,-1.534243524074554443e-01,-1.315881013870239258e-01,-2.864132821559906006e-01,-4.261752963066101074e-02,-9.279904514551162720e-02,3.168233036994934082e-01,2.628021240234375000e-01,-7.400950044393539429e-02,-5.054920166730880737e-02,-7.042840123176574707e-02,9.984976053237915039e-02,9.806504100561141968e-02,-1.138638779520988464e-01,-2.586367726325988770e-02,1.474822312593460083e-02,1.016426607966423035e-01,9.208356961607933044e-03,-1.624292135238647461e-02,7.809488475322723389e-02,-2.985891513526439667e-02,1.039220914244651794e-01,-2.015539854764938354e-01,1.054063215851783752e-01,-8.440595865249633789e-02,8.542303927242755890e-03,-7.713871449232101440e-02,1.735033541917800903e-01,2.829292975366115570e-02,2.887635529041290283e-01,-1.173932626843452454e-01,9.314417839050292969e-02,2.545447051525115967e-01,9.500002115964889526e-02,8.472691476345062256e-02,-1.355578452348709106e-01,1.541787087917327881e-01,4.618836939334869385e-02,-1.079449877142906189e-01,4.380450770258903503e-02,-1.153496056795120239e-01,2.386318892240524292e-01,-1.299829483032226562e-01,-1.931051909923553467e-02,-8.269060403108596802e-02,1.670245081186294556e-01,7.111617177724838257e-02,1.321281790733337402e-01,1.059822272509336472e-02,-1.835728138685226440e-01,5.874877795577049255e-02,6.299965083599090576e-02,-1.370880454778671265e-01,1.264924108982086182e-01,1.014941278845071793e-02,-4.028577357530593872e-02,-3.728068992495536804e-02,1.273597478866577148e-01,-9.348072344437241554e-04,9.155994653701782227e-02,-8.359882235527038574e-02,5.249452218413352966e-02,2.685592509806156158e-02,1.891400814056396484e-01,5.115589499473571777e-02,-1.532229334115982056e-01,9.500742703676223755e-02,1.336765736341476440e-01,2.275270521640777588e-01,1.573604643344879150e-01,-1.327669527381658554e-02,-2.241982966661453247e-01,1.037813276052474976e-01,5.163653939962387085e-02,1.588532775640487671e-01,-2.393278628587722778e-01,2.107409946620464325e-02,-4.750050604343414307e-02,-1.752015352249145508e-01,-1.747317463159561157e-01,1.267645806074142456e-01,3.534024581313133240e-02,5.950348451733589172e-02,-2.679055929183959961e-01,-6.044236570596694946e-02,7.755568623542785645e-02,3.076310828328132629e-02,-6.693559139966964722e-02,3.125000977888703346e-03,2.649002335965633392e-02,-2.365590073168277740e-02,6.180157884955406189e-02,-9.782125242054462433e-03,-1.014431715011596680e-01,-1.461150795221328735e-01,-8.978436887264251709e-02,-1.264937669038772583e-01,3.809537366032600403e-02,-1.688266992568969727e-01,-1.810069680213928223e-01,-1.005466729402542114e-01,-6.740729510784149170e-02,-5.141423270106315613e-02,1.630274057388305664e-01,3.211478143930435181e-02,-6.565071642398834229e-02,9.964026510715484619e-02,3.365333005785942078e-02,-9.396223723888397217e-02,-9.815581887960433960e-02,-1.259166300296783447e-01,1.167309284210205078e-01,2.827457152307033539e-02,-5.797258391976356506e-02,-1.501081585884094238e-01,-1.318078041076660156e-01,1.007119640707969666e-01,-1.875458210706710815e-01,-9.096767753362655640e-02,8.411119133234024048e-02,-1.682244837284088135e-01,2.206626236438751221e-01,-4.472490772604942322e-02,-1.868428289890289307e-01,1.810230165719985962e-01,-1.094123795628547668e-01,6.281775981187820435e-02,6.714535504579544067e-02,1.962117254734039307e-01,-6.518114358186721802e-02,-1.687502562999725342e-01,-7.355028390884399414e-02,1.976483762264251709e-01,-1.360467821359634399e-02,-2.921006083488464355e-02,1.715812385082244873e-01,8.102431893348693848e-02,8.510589599609375000e-02,1.544566303491592407e-01,-2.537520229816436768e-01,8.334350772202014923e-03,-2.711652591824531555e-02,2.845380306243896484e-01,8.614256978034973145e-02,-4.264025017619132996e-02,-1.369477715343236923e-02,-7.641806267201900482e-03,1.189459562301635742e-01,8.225790224969387054e-03,-1.612465381622314453e-01,3.894506022334098816e-02,1.502242088317871094e-01,1.525114029645919800e-01,-3.342885524034500122e-02,1.102222353219985962e-01,-1.348198042251169682e-03,3.368633985519409180e-01,-1.068394482135772705e-01,-7.039784640073776245e-02,-1.314390003681182861e-01,6.364960968494415283e-02,5.315697938203811646e-02,-1.222495138645172119e-01,1.012246608734130859e-01,-1.765586622059345245e-02,-5.382949113845825195e-02,-7.912405635579489172e-06,-1.443437933921813965e-01,-1.703778980299830437e-04,-7.663061842322349548e-03,1.717691272497177124e-01,2.832468748092651367e-01,8.408737927675247192e-02,1.253432929515838623e-01,4.533934220671653748e-02,-8.596745133399963379e-02,2.718221247196197510e-01,-1.988390833139419556e-01,1.736182123422622681e-01,-7.143256813287734985e-02,-7.184375077486038208e-02,2.031733989715576172e-01,-1.398649513721466064e-01,7.967258244752883911e-02,-1.172806248068809509e-01,5.474371835589408875e-02,6.337854266166687012e-02,8.716806769371032715e-02,1.088793948292732239e-01,-7.941045798361301422e-03,-7.806527614593505859e-02,-9.960865974426269531e-02,5.394780263304710388e-02,-1.064651012420654297e-01,-6.693315505981445312e-02,4.869629442691802979e-02,1.003414243459701538e-01,1.106675416231155396e-01,-1.100022867321968079e-01,-6.602261960506439209e-02,-1.862285584211349487e-01,1.180474907159805298e-01,9.379626251757144928e-03,3.286544233560562134e-02,1.126432344317436218e-01,7.033862918615341187e-02,-5.899531301110982895e-03,-3.197081759572029114e-02,-9.137696586549282074e-03,-2.341843582689762115e-02,2.796878516674041748e-01,9.316191077232360840e-02,-4.711214825510978699e-02,2.296143472194671631e-01,2.355010062456130981e-02,-5.941782891750335693e-02,-4.813724383711814880e-02,1.426450461149215698e-01,-5.151072517037391663e-02,-1.047466136515140533e-02,2.577386796474456787e-01,-7.076486945152282715e-02,-7.909319549798965454e-02,-5.387916043400764465e-02,4.061345010995864868e-02,-1.978793591260910034e-01,8.336890488862991333e-03,2.034517973661422729e-01,-9.151697158813476562e-02,4.279432818293571472e-02,-6.553042214363813400e-03,1.490032970905303955e-01,-1.804701611399650574e-02,-2.941753715276718140e-02,1.367839425802230835e-01,1.005009282380342484e-02,4.128934815526008606e-02,-1.076120976358652115e-02,6.376243382692337036e-02,-1.035732701420783997e-01,2.905268967151641846e-01,1.765858829021453857e-01,3.166461735963821411e-02,-1.417089551687240601e-01,-4.120358452200889587e-02,2.071909457445144653e-01,-1.477065775543451309e-02,5.465171486139297485e-02,6.401029229164123535e-02,-7.922388613224029541e-02,1.208929643034934998e-01,7.121440768241882324e-02,-5.260332301259040833e-02,2.119664996862411499e-01,-3.794012665748596191e-01,-1.880059838294982910e-01,-9.269085526466369629e-02,3.026742339134216309e-01,-1.085197851061820984e-01,-8.752501755952835083e-02,-4.995591193437576294e-02,-5.139457806944847107e-02,-1.986001059412956238e-02,-1.111933141946792603e-01,2.221665084362030029e-01,-1.300178188830614090e-02,1.005563605576753616e-02,-5.827527027577161789e-03,-9.671709686517715454e-02,-1.027261763811111450e-01,1.466614305973052979e-01,-3.024928867816925049e-01,-1.710974127054214478e-01,2.364272922277450562e-01,1.561717092990875244e-01,-1.576420962810516357e-01,-2.979577481746673584e-01,-1.362178102135658264e-02,6.343238055706024170e-02,2.287073135375976562e-01,-4.146013408899307251e-02,3.598536550998687744e-02,2.980765700340270996e-01,-4.849981144070625305e-02,-5.430851131677627563e-02,5.307882092893123627e-03,-5.301724001765251160e-02,4.231920093297958374e-02,8.450059592723846436e-02,2.619302570819854736e-01,4.309067875146865845e-02,-2.089254558086395264e-01,2.839410901069641113e-01,5.261556804180145264e-02,1.905999518930912018e-02,8.893273770809173584e-02,-2.277460247278213501e-01,1.259018331766128540e-01,1.157899349927902222e-01,-3.063446879386901855e-01,1.586510986089706421e-01,-6.966362241655588150e-03,-1.094505786895751953e-01,5.594751238822937012e-02,-1.441230177879333496e-01,-1.357936859130859375e-01,-2.083833217620849609e-01,-2.970647513866424561e-01,-2.380959987640380859e-01,-2.092217057943344116e-01,-1.851193420588970184e-02,-1.460581570863723755e-01,-3.060972094535827637e-01,-2.302022874355316162e-01,-1.290920078754425049e-01,-1.369801349937915802e-02,-1.651918739080429077e-01,-1.378282308578491211e-01,-4.740296304225921631e-02,1.947751492261886597e-01,-7.959163933992385864e-02,-8.349478989839553833e-02,-2.646237611770629883e-01,-1.152731478214263916e-01,5.660628154873847961e-02,-2.749817259609699249e-02,-2.485839575529098511e-01,-2.690654247999191284e-02,-2.392148971557617188e-01,-1.680545061826705933e-01,-1.440013945102691650e-01,-2.567585110664367676e-01,1.390236616134643555e-01,-2.039962857961654663e-01,2.094507962465286255e-01,-1.420243084430694580e-01,-2.280692160129547119e-01,-5.362997204065322876e-02,-2.654047012329101562e-01,-3.661160767078399658e-01,-4.262259304523468018e-01,-1.855957061052322388e-01,-7.202848792076110840e-02,-2.697511613368988037e-01,-2.077093869447708130e-01,-2.920300066471099854e-01,1.823034733533859253e-01,-1.461461335420608521e-01,1.468112021684646606e-01,-2.584037482738494873e-01,-5.369302257895469666e-02,-4.208712875843048096e-01,-2.382478564977645874e-01,-1.512742787599563599e-01,-1.626824401319026947e-02,-3.363221287727355957e-01,-2.014128416776657104e-01,-6.045506149530410767e-02,-1.954072117805480957e-01,-1.087907552719116211e-01,-5.260781571269035339e-02,-2.973907589912414551e-01,-2.415086776018142700e-01,4.319927468895912170e-02,1.459715366363525391e-01,6.243735551834106445e-02,2.420735806226730347e-01,2.568359114229679108e-02,1.216724961996078491e-01,2.596382796764373779e-02,1.254495829343795776e-01,6.113153323531150818e-02,2.093243896961212158e-01,1.817926168441772461e-01,7.166355103254318237e-02,-4.237077757716178894e-02,1.646334305405616760e-02,-1.920547522604465485e-02,5.907552689313888550e-02,2.228131750598549843e-03,2.034827172756195068e-01,2.041351050138473511e-01,-3.609365597367286682e-02,-1.047909911721944809e-02,-6.148003414273262024e-02,1.210960969328880310e-01,5.768683925271034241e-02,-1.781280897557735443e-02,7.930374145507812500e-02,2.122613042593002319e-02,1.689748317003250122e-01,1.271693408489227295e-01,-1.566852927207946777e-01,7.623019814491271973e-02,-5.868840590119361877e-02,1.578238755464553833e-01,-1.795664131641387939e-01,-8.960396982729434967e-03,-3.117181593552231789e-03,8.571286499500274658e-02,-5.455160513520240784e-02,-6.094195321202278137e-02,-2.009619027376174927e-02,-7.125120144337415695e-03,-7.403844594955444336e-02,2.731355838477611542e-02,6.702233105897903442e-02,2.261313199996948242e-01,1.170981116592884064e-02,1.347525119781494141e-01,1.977687329053878784e-01,2.954742312431335449e-01,-1.670911163091659546e-01,-1.210389733314514160e-01,-3.948756679892539978e-02,-9.277710318565368652e-02,6.036509945988655090e-02,5.492081493139266968e-02,-8.389937132596969604e-02,3.219499718397855759e-03,-9.930164366960525513e-02,-7.730825990438461304e-02,-1.189457848668098450e-01,-3.242971375584602356e-02,7.072005420923233032e-02,-2.031137347221374512e-01,1.897875219583511353e-01,9.823568165302276611e-02,1.102997809648513794e-01,-5.187544599175453186e-02,2.487294934689998627e-02,1.884617954492568970e-01,1.104205660521984100e-02,4.329850897192955017e-03,-1.101671531796455383e-01,-1.769504509866237640e-02,-6.927827838808298111e-03,1.129153147339820862e-01,1.498020952567458153e-03,9.864646196365356445e-02,-1.191814318299293518e-01,-3.862066939473152161e-02,-6.627077609300613403e-02,-1.753820925951004028e-01,-1.646737754344940186e-01,-1.258768737316131592e-01,-6.986710429191589355e-02,-1.737172454595565796e-01,-4.762095957994461060e-02,-9.178563207387924194e-02,7.803571969270706177e-02,1.663859337568283081e-01,1.431829184293746948e-01,-3.359017968177795410e-01,3.239340707659721375e-02,4.119179211556911469e-03,-8.713060617446899414e-02,-2.908800244331359863e-01,-2.464561723172664642e-02,-1.634918600320816040e-01,1.049739494919776917e-01,5.336447153240442276e-03,6.901233643293380737e-02,-2.858037501573562622e-02,4.757867380976676941e-02,5.823817849159240723e-02,-1.848375499248504639e-01,-1.969936639070510864e-01,-6.581436842679977417e-02,2.325072884559631348e-02,-6.887666136026382446e-02,4.407135769724845886e-02,8.411673456430435181e-02,-5.317912623286247253e-02,-9.396043419837951660e-02,3.801859915256500244e-02,3.247451409697532654e-02,-1.189686357975006104e-01,-2.754565887153148651e-02,-1.317893713712692261e-01,1.420505642890930176e-01,1.719299852848052979e-01,-9.008437395095825195e-02,-2.107437998056411743e-01,-9.364954382181167603e-02,-9.616242721676826477e-03,2.109452784061431885e-01,-4.863663017749786377e-02,6.256052106618881226e-02,1.246184557676315308e-01,2.583534922450780869e-03,6.978801637887954712e-02,-1.239453107118606567e-01,1.146422699093818665e-01,-5.359634757041931152e-02,-1.191793382167816162e-02,1.227978765964508057e-01,-3.244931250810623169e-02,1.629659831523895264e-01,-5.121076852083206177e-02,-1.501789689064025879e-01,1.578969955444335938e-01,3.656640648841857910e-02,-4.420131444931030273e-02,-1.039001345634460449e-01,2.727732956409454346e-01,8.812402188777923584e-02,-2.123827189207077026e-01,6.993455812335014343e-03,-1.740204691886901855e-01,-4.412387311458587646e-02,1.356572508811950684e-01,-2.942636609077453613e-01,7.906366139650344849e-02,-1.312448456883430481e-02,-2.100562117993831635e-02,1.680013537406921387e-01,-1.169500276446342468e-01,-8.457993157207965851e-03,1.575616002082824707e-02,-1.316847186535596848e-02,1.381506770849227905e-01,1.389588043093681335e-02,-1.608113497495651245e-01,4.042064025998115540e-02,-8.183640986680984497e-02,-7.772663235664367676e-02,-6.912122014909982681e-03,1.212408617138862610e-01,2.664085477590560913e-02,-1.945823431015014648e-01,-1.616857349872589111e-01,2.417284250259399414e-01,6.108751520514488220e-02,-1.768112182617187500e-01,-1.156999468803405762e-01,-7.320439442992210388e-03,-2.786216326057910919e-02,1.973837614059448242e-01,1.434401422739028931e-01,1.711122840642929077e-01,4.555359855294227600e-02,1.395340859889984131e-01,1.484284251928329468e-01,8.766525238752365112e-02,-1.881251782178878784e-01,-1.897968500852584839e-01,-1.556873768568038940e-01,2.079842090606689453e-01,2.235534787178039551e-01,-2.061436623334884644e-01,-6.450819224119186401e-02,1.261020600795745850e-01,-6.858457624912261963e-02,1.042265966534614563e-01,1.862885951995849609e-01,-8.933359384536743164e-02,2.639825642108917236e-01,-6.309739500284194946e-02,-1.750782728195190430e-01,-1.616277359426021576e-02,2.972440123558044434e-01,7.486368995159864426e-03,-5.396622419357299805e-02,2.278676480054855347e-01,-2.543325424194335938e-01,1.260125339031219482e-01,2.280884832143783569e-01,-5.895282700657844543e-02,1.037234887480735779e-01,-3.302833735942840576e-01,7.267829775810241699e-02,-4.040120914578437805e-02,-2.025065571069717407e-01,-7.871322333812713623e-02,2.889466583728790283e-01,9.162604808807373047e-02,-1.475924402475357056e-01,2.277327439514920115e-04,1.064663156867027283e-01,8.579639345407485962e-02,2.574140578508377075e-02,1.325610429048538208e-01,-9.068682789802551270e-03,1.283385157585144043e-01,1.523061841726303101e-01,1.284272670745849609e-01,7.600385695695877075e-02,-2.531797066330909729e-02,-2.183634340763092041e-01,-5.896965786814689636e-02,-1.277115941047668457e-01,1.859280765056610107e-01,3.277168869972229004e-01,1.444869637489318848e-01,1.724007576704025269e-01,3.320376574993133545e-02,-1.767756491899490356e-01,-3.955549374222755432e-02,-8.050305186770856380e-04,-1.136961858719587326e-03,-2.228540629148483276e-01,2.442519217729568481e-01,1.036615371704101562e-01,-4.429726675152778625e-02,-9.453716874122619629e-02,-5.901175551116466522e-03,1.279508322477340698e-01,-6.283039599657058716e-02,3.425915166735649109e-02,3.649770617485046387e-01,-1.432784199714660645e-01,-2.339998483657836914e-01,-2.170204967260360718e-01,2.670827507972717285e-01,-1.312879472970962524e-01,-1.263010501861572266e-01,-1.026195138692855835e-01,-1.402926295995712280e-01,-3.989083319902420044e-02,7.022854685783386230e-02,1.678751595318317413e-02,2.639772891998291016e-01,2.065136656165122986e-02,1.753397434949874878e-01,3.406307995319366455e-01,-4.254820197820663452e-02,1.839557737112045288e-01,1.897899061441421509e-01,-1.065812259912490845e-02,-1.707498282194137573e-01,-2.605108916759490967e-01,-5.378541722893714905e-02,7.318697869777679443e-02,2.563565969467163086e-01,6.262183934450149536e-02,6.715825200080871582e-02,7.923381775617599487e-02,-9.509155154228210449e-02,1.122496798634529114e-01,1.600647419691085815e-01,-3.099000453948974609e-01,5.215042829513549805e-02,1.881249248981475830e-01,1.348454654216766357e-01,2.504928112030029297e-01,-1.392370462417602539e-02,-1.203415449708700180e-02,4.092509858310222626e-03,7.998324930667877197e-02,4.807301238179206848e-02,3.213390009477734566e-03,1.045397818088531494e-01,2.320128865540027618e-02,1.966722309589385986e-02,6.236584484577178955e-02,-9.106732159852981567e-02,1.668134480714797974e-01,-4.858081042766571045e-02,-1.930932402610778809e-01,-9.266740828752517700e-02,1.913249939680099487e-01,1.510765310376882553e-02,3.490660712122917175e-02,-1.379958838224411011e-01,7.488656789064407349e-02,1.755804196000099182e-02,1.240759417414665222e-01,1.890242844820022583e-01,2.678894400596618652e-01,1.899059712886810303e-01,1.782593280076980591e-01,8.428034931421279907e-02,-6.747838109731674194e-02,1.472252793610095978e-02,1.480405479669570923e-01,-6.409266591072082520e-02,1.236845739185810089e-02,-6.752404570579528809e-02,8.387500420212745667e-03,9.675952792167663574e-02,1.385573446750640869e-01,1.414337195456027985e-02,-1.679595559835433960e-02,1.589397341012954712e-01,9.155867993831634521e-02,6.390826404094696045e-02,2.003812193870544434e-01,6.989724468439817429e-03,-5.573708564043045044e-02,-1.462190151214599609e-01,9.696890413761138916e-02,-8.161246776580810547e-02,2.926990762352943420e-02,-1.392799019813537598e-01,1.994564011693000793e-02,2.097083032131195068e-01,-2.970970422029495239e-02,5.958148464560508728e-02,1.494317054748535156e-01,1.344540715217590332e-01,-5.979711189866065979e-02,1.869200356304645538e-02,3.062054812908172607e-01,1.003487780690193176e-01,1.371345520019531250e-01,2.294413745403289795e-01,3.084065616130828857e-01,-1.300950646400451660e-01,1.883229315280914307e-01,8.234176784753799438e-02,1.260882765054702759e-01,2.209811508655548096e-01,1.099833771586418152e-01,1.143972873687744141e-01,9.674555063247680664e-02,-1.296136435121297836e-02,-8.306093513965606689e-02,2.108203023672103882e-01,7.150537520647048950e-02,7.352571189403533936e-02,-4.205002263188362122e-02,1.839387267827987671e-01,-5.417638644576072693e-02,1.199877113103866577e-01,1.057702228426933289e-01,9.709642268717288971e-03,-6.666537956334650517e-04,8.415267616510391235e-02,-5.960333347320556641e-02,9.158692508935928345e-02,-2.221744954586029053e-01,-6.559424847364425659e-02,-1.885863691568374634e-01,-1.589347869157791138e-01,-5.475898459553718567e-02,-8.231437951326370239e-02,-1.172838509082794189e-01,-9.261917322874069214e-02,-1.205222383141517639e-01,1.638542115688323975e-01,-3.263445338234305382e-03,2.699973620474338531e-02,1.010107435286045074e-02,2.498993128538131714e-01,6.265193806029856205e-04,6.834138929843902588e-02,-1.593787968158721924e-01,1.100776791572570801e-01,-8.455608040094375610e-02,-1.490292847156524658e-01,-1.207176074385643005e-01,-1.230419427156448364e-01,-3.409592509269714355e-01,-1.836384683847427368e-01,1.267812252044677734e-01,-1.237875595688819885e-01,3.662456944584846497e-02,-5.662722140550613403e-02,4.143222421407699585e-02,1.211563199758529663e-01,-1.421163827180862427e-01,-4.526714980602264404e-02,-2.864755503833293915e-02,-1.578654497861862183e-01,1.059407442808151245e-01,-3.545455262064933777e-02,6.485765334218740463e-03,-3.052687942981719971e-01,-6.155078113079071045e-02,-2.351353317499160767e-02,-9.438678622245788574e-02,-2.146901935338973999e-01,-1.518036276102066040e-01,4.843894764780998230e-02,-6.616903841495513916e-02,-6.762938201427459717e-02,-1.763795912265777588e-01,3.094949759542942047e-02,1.504771113395690918e-01,1.868485361337661743e-01,5.495591089129447937e-03,-3.905112855136394501e-03,5.616555735468864441e-02,-1.314472965896129608e-02,-2.148327231407165527e-01,-2.324891835451126099e-02,-2.057472318410873413e-01,-7.647615671157836914e-02,-3.495056331157684326e-01,1.914692819118499756e-01,-1.144702360033988953e-01,-5.706477165222167969e-02,3.931131362915039062e-01,-1.806716620922088623e-01,-9.274799376726150513e-02,-1.412465274333953857e-01,1.560150235891342163e-01,4.044803231954574585e-02,-7.755101472139358521e-02,-1.972724124789237976e-02,7.089558243751525879e-02,-2.263851696625351906e-03,-4.039134383201599121e-01,-2.207314521074295044e-01,-2.026816159486770630e-01,-3.997856006026268005e-02,-1.703266203403472900e-01,-3.773534297943115234e-01,9.981392882764339447e-03,3.298049420118331909e-02,1.410916596651077271e-01,-1.654798686504364014e-01,1.954722553491592407e-01,-1.611002236604690552e-01,-2.803004384040832520e-01,-3.367314636707305908e-01,-3.459482789039611816e-01,-6.565038114786148071e-02,-2.892530262470245361e-01,-6.731875985860824585e-02,-7.282677292823791504e-02,1.896127127110958099e-02,-2.059851586818695068e-01,6.095103174448013306e-02,-3.210586309432983398e-01,4.060712456703186035e-01,-7.049793004989624023e-02,-1.322130858898162842e-01,-6.361909210681915283e-02,-9.266532957553863525e-02,-2.277066931128501892e-02,-4.698497951030731201e-01,-4.129251539707183838e-01,-2.806036472320556641e-01,-1.291544586420059204e-01,-2.013100832700729370e-01,-1.745040565729141235e-01,-1.960312128067016602e-01,-3.595742881298065186e-01,-2.284169569611549377e-02,-1.932400017976760864e-01,1.249922364950180054e-01,-1.656412929296493530e-01,-2.090372145175933838e-01,6.816849112510681152e-02,-1.990476697683334351e-01,-1.408258080482482910e-01,1.985553503036499023e-01,1.755465120077133179e-01,-1.433864682912826538e-01,-1.466181129217147827e-02,3.703443408012390137e-01,-1.287055760622024536e-01,1.361905224621295929e-02,-1.019123420119285583e-01,-1.467496249824762344e-02,5.725215654820203781e-03,-1.198981553316116333e-01,1.179346144199371338e-01,6.752389669418334961e-02,-6.161045283079147339e-02,1.486473083496093750e-01,-1.620839536190032959e-01,2.616688311100006104e-01,-6.998283416032791138e-02,1.923830211162567139e-01,2.829035930335521698e-02,2.332019656896591187e-01,8.096118271350860596e-02,1.121290028095245361e-01,-1.073592752218246460e-01,1.176035311073064804e-02,-1.620101481676101685e-01,9.225289337337017059e-03,3.032622933387756348e-01,7.453805208206176758e-02,1.133028790354728699e-01,3.897807002067565918e-02,2.853554487228393555e-01,-1.101534217596054077e-01,1.951594501733779907e-01,-7.934716343879699707e-02,1.828099638223648071e-01,2.335222065448760986e-01,2.322508841753005981e-01,2.985330820083618164e-01,1.185813453048467636e-02,-1.631437540054321289e-01,-1.182497292757034302e-01,3.661752445623278618e-03,-2.468410879373550415e-02,-1.108936965465545654e-01,-1.642711609601974487e-01,-4.792964085936546326e-02,3.606565296649932861e-01,2.136981114745140076e-02,5.199825391173362732e-02,1.059506088495254517e-02,1.334971040487289429e-01,-6.492892652750015259e-02,-3.363595157861709595e-02,1.515620201826095581e-01,2.505584955215454102e-01,-1.984690278768539429e-01,1.729653477668762207e-01,-1.305065862834453583e-02,4.780759513378143311e-01,8.727014064788818359e-02,-1.053346693515777588e-01,-1.278962045907974243e-01,3.606104850769042969e-01,2.117144018411636353e-01,-2.344519793987274170e-01,9.697359800338745117e-02,-1.168897226452827454e-01,-1.455058753490447998e-01,1.089066499844193459e-03,-2.223003506660461426e-01,3.236471489071846008e-02,1.893586516380310059e-01,-1.836974290199577808e-03,1.381732523441314697e-01,4.544379480648785830e-04,-3.050075173377990723e-01,-6.606566905975341797e-02,-1.478447616100311279e-01,8.912069350481033325e-02,-1.160416379570960999e-02,6.708433479070663452e-02,1.207165513187646866e-02,-8.500894904136657715e-02,-1.215007677674293518e-01,2.001897394657135010e-01,-3.694378584623336792e-02,-2.006316483020782471e-01,-5.619083344936370850e-02,-1.452060192823410034e-01,3.272271156311035156e-01,1.635773330926895142e-01,-9.678758680820465088e-02,2.962905466556549072e-01,1.122621744871139526e-01,1.366380304098129272e-01,-1.262796670198440552e-01,1.124617457389831543e-01,-8.554714918136596680e-02,1.574645005166530609e-02,3.537553548812866211e-01,-1.779737472534179688e-01,1.052285283803939819e-01,5.527986586093902588e-02,1.077975556254386902e-01,-1.408715844154357910e-01,-1.364164501428604126e-01,1.640745997428894043e-01,-8.746997267007827759e-02,3.290725946426391602e-01,-9.297911077737808228e-02,2.191442102193832397e-01,-1.297729313373565674e-01,-1.199131980538368225e-01,-1.573969125747680664e-01,3.034592978656291962e-02,-1.775059700012207031e-01,-1.027185395359992981e-01,2.662103474140167236e-01,1.456676423549652100e-01,5.698839575052261353e-02,-1.783935129642486572e-01,-1.326947361230850220e-01,2.494145184755325317e-03,-3.210559189319610596e-01,-3.251208961009979248e-01,-2.417032420635223389e-02,-7.672758400440216064e-02,4.864387586712837219e-02,-2.313384413719177246e-01,-4.980110563337802887e-03,1.721500903367996216e-01,-2.639674954116344452e-02,5.138175934553146362e-02,-7.486657053232192993e-02,-5.099680740386247635e-03,-6.412020325660705566e-02,2.599299699068069458e-02,5.520576983690261841e-02,1.848424971103668213e-01,6.775586307048797607e-02,-3.247684566304087639e-03,-7.640213519334793091e-02,8.220130950212478638e-02,-2.838645363226532936e-03,-1.197735816240310669e-01,1.291503459215164185e-01,2.753602266311645508e-01,8.408634364604949951e-02,5.823177099227905273e-02,8.681116998195648193e-02,1.626059412956237793e-01,-1.840896755456924438e-01,1.110973283648490906e-01,1.704024896025657654e-02,-5.720425862818956375e-03,1.398331373929977417e-01,7.440550625324249268e-02,5.145251005887985229e-02,-1.301033515483140945e-02,-1.817240267992019653e-01,-9.586800821125507355e-03,-1.888773590326309204e-02,-2.465230971574783325e-01,1.635406315326690674e-01,9.890545904636383057e-02,8.447723090648651123e-02,3.071735240519046783e-02,9.220553934574127197e-02,9.927821159362792969e-02,-2.296312898397445679e-01,-5.747919902205467224e-02,-6.878433376550674438e-02,-5.470082536339759827e-02,-8.097007125616073608e-02,-2.757507003843784332e-02,-7.535014301538467407e-03,-2.995011508464813232e-01,-1.835549175739288330e-01,-9.703081101179122925e-02,-9.791319072246551514e-02,2.727859281003475189e-02,-2.244732975959777832e-01,1.152420192956924438e-01,1.312733441591262817e-01,-2.334492057561874390e-01,1.172726079821586609e-01,-2.041364908218383789e-01,-1.367298606783151627e-02,-2.038905173540115356e-01,-1.326833218336105347e-01,-1.115721613168716431e-01,1.292908489704132080e-01,-3.520206734538078308e-02,-1.523320078849792480e-01,-8.978521078824996948e-02,-1.174421012401580811e-01,-4.121876135468482971e-02,-1.573904044926166534e-02,-2.262141853570938110e-01,5.154377594590187073e-02,-3.128724396228790283e-01,7.067961990833282471e-02,-1.483750194311141968e-01,-5.665501207113265991e-02,-1.405792832374572754e-01,7.226616144180297852e-02,-8.493900299072265625e-02,5.459051951766014099e-02,-1.612586900591850281e-02,-1.421060115098953247e-01,7.824393361806869507e-02,-1.716020330786705017e-02,-2.399323284626007080e-01,2.171389609575271606e-01,-1.552478224039077759e-01,-2.916185930371284485e-02,1.080550551414489746e-01,-1.180357709527015686e-01,-1.650083661079406738e-01,-2.935973703861236572e-01,5.654426664113998413e-02,1.956433802843093872e-02,1.952217072248458862e-01,1.193059328943490982e-02,2.596522308886051178e-02,-6.322012841701507568e-02,-9.621854126453399658e-02,-1.621874868869781494e-01,1.046076938509941101e-01,4.906285926699638367e-02,-1.417870540171861649e-02,6.174668669700622559e-02,-7.554320245981216431e-02,1.686643064022064209e-01,4.438303038477897644e-02,5.158763006329536438e-02,9.936933219432830811e-02,-2.712788432836532593e-02,4.371943697333335876e-02,-3.618795424699783325e-02,-3.292074427008628845e-02,-1.152977123856544495e-01,-1.520084291696548462e-01,1.187354922294616699e-01,-2.350843995809555054e-01,3.106648288667201996e-02,7.405748218297958374e-02,2.357156276702880859e-01,1.440271139144897461e-01,-8.183541893959045410e-02,1.584852337837219238e-01,5.142222717404365540e-02,1.171323284506797791e-01,-5.460650473833084106e-02,-1.992093473672866821e-01,-2.465725094079971313e-01,-1.885372549295425415e-01,1.471748948097229004e-02,7.083523273468017578e-02,3.054068610072135925e-02,-1.193787995725870132e-02,-1.373374313116073608e-01,-7.990144938230514526e-02,1.272043138742446899e-01,9.822504222393035889e-02,-2.593109011650085449e-01,-1.379833519458770752e-01,1.575138568878173828e-01,-8.963847905397415161e-02,1.024869382381439209e-01,-2.905962616205215454e-02,-4.482800886034965515e-02,-4.932867735624313354e-02,1.468812823295593262e-01,2.730760872364044189e-01,2.919426001608371735e-02,3.797881538048386574e-03,1.538639217615127563e-01,-6.101204454898834229e-02,-2.569061517715454102e-01,-6.042755767703056335e-02,1.496174782514572144e-01,8.065728098154067993e-02,-1.307790577411651611e-01,9.393825195729732513e-03,5.692657548934221268e-03,2.880836836993694305e-02,3.727770969271659851e-02,-2.146344035863876343e-01,-8.137695491313934326e-02,-6.823647022247314453e-02,4.993644729256629944e-02,-2.160551100969314575e-01,9.209673851728439331e-02,-2.190698496997356415e-02,-1.409666240215301514e-02,2.818370163440704346e-01,-2.584450244903564453e-01,1.930145621299743652e-01,-4.812404513359069824e-02,-2.635951936244964600e-01,-2.624984979629516602e-01,-2.570909559726715088e-01,8.794745802879333496e-02,-6.613530963659286499e-02,-1.991412341594696045e-01,-1.547323614358901978e-01,5.145360901951789856e-02,-2.282304912805557251e-01,8.258143812417984009e-02,-2.228827476501464844e-01,-2.102952152490615845e-01,-9.839705377817153931e-02,-2.013469301164150238e-02,-2.518254220485687256e-01,1.044404972344636917e-02,-1.022864654660224915e-01,-2.850504815578460693e-01,-3.423750996589660645e-01,2.225357852876186371e-02,-2.836575731635093689e-02,1.757866702973842621e-02,-1.252924501895904541e-01,-1.017728969454765320e-01,1.143577769398689270e-01,-2.885576523840427399e-02,-1.372015178203582764e-01,-4.798292368650436401e-02,-3.627417683601379395e-01,-1.409082561731338501e-01,-2.229644358158111572e-01,-2.363041639328002930e-01,-2.542600594460964203e-02,-1.982660293579101562e-01,-3.150617778301239014e-01,-2.232453823089599609e-01,-1.622820198535919189e-01,-2.986803352832794189e-01,-1.923449188470840454e-01,-3.271248638629913330e-01,-7.439626008272171021e-02,-2.551251649856567383e-01,-4.874190315604209900e-02,-3.041330277919769287e-01,-2.186403572559356689e-01,-2.791220545768737793e-01,-3.936400637030601501e-02,2.179900705814361572e-01,-4.679039120674133301e-02,-4.153172299265861511e-02,-5.845605954527854919e-02,-1.009484473615884781e-02,-9.174143522977828979e-02,4.742759838700294495e-02,-1.384063959121704102e-01,-5.353222787380218506e-02,5.763773620128631592e-02,2.675603032112121582e-01,2.910879254341125488e-01,3.362169563770294189e-01,9.541145525872707367e-03,2.624492943286895752e-01,-3.810289129614830017e-02,3.309749811887741089e-02,1.573386639356613159e-01,-1.050094217061996460e-01,-2.815817892551422119e-01,-8.182259649038314819e-02,2.513503134250640869e-01,-1.403637882322072983e-02,1.672530323266983032e-01,1.153261959552764893e-01,2.771434374153614044e-02,1.094884127378463745e-01,-6.341578811407089233e-02,7.228317111730575562e-02,1.620701700448989868e-01,2.274674475193023682e-01,-2.723629176616668701e-01,1.237968355417251587e-02,1.660058498382568359e-01,5.352482944726943970e-02,-3.561464697122573853e-02,-2.963480353355407715e-01,7.412904500961303711e-02,-5.163075029850006104e-02,9.621322154998779297e-03,-2.404956966638565063e-01,1.363625749945640564e-02,1.488167494535446167e-01,-1.026585884392261505e-02,1.210013031959533691e-01,-1.541395336389541626e-01,-3.119971044361591339e-02,1.731051951646804810e-01,1.025048345327377319e-01,-4.427546262741088867e-02,-3.274617716670036316e-02,-5.000365525484085083e-02,-4.100199043750762939e-02,1.991802304983139038e-01,-1.552329659461975098e-01,3.045691736042499542e-02,-9.085837751626968384e-02,-4.844263195991516113e-02,1.633062213659286499e-01,-1.221227347850799561e-01,-3.046211600303649902e-02,1.257731765508651733e-01,1.634016931056976318e-01,2.763070911169052124e-02,2.481886297464370728e-01,1.327676922082901001e-01,-5.989825353026390076e-02,-7.099863141775131226e-02,-2.139114215970039368e-02,3.067799657583236694e-02,-3.817475959658622742e-02,-1.064253374934196472e-01,4.113979637622833252e-02,-8.640762418508529663e-02,2.832146920263767242e-02,1.402402669191360474e-01,-1.102783158421516418e-02,9.247873723506927490e-02,-7.959441840648651123e-02,-1.153123527765274048e-01,-2.701563835144042969e-01,-2.197504043579101562e-01,9.852248430252075195e-02,6.700486410409212112e-03,-8.843202888965606689e-02,9.428924322128295898e-02,1.797415763139724731e-01,-1.373657211661338806e-02,-1.183198019862174988e-01,-2.109085321426391602e-01,-3.041399717330932617e-01,8.614458888769149780e-02,-1.806836724281311035e-01,-2.973275491967797279e-03,2.025363147258758545e-01,-1.096190884709358215e-01,3.725367039442062378e-02,-7.710533589124679565e-02,-4.437178000807762146e-02,-1.924559623003005981e-01,3.386904299259185791e-02,-1.512925475835800171e-01,-9.162214398384094238e-02,3.157904371619224548e-02,-2.713969647884368896e-01,-1.035615280270576477e-01,-8.496057242155075073e-02,-3.101277351379394531e-02,3.007832169532775879e-01,-3.398644924163818359e-01,2.002232894301414490e-02,-2.138870358467102051e-01,9.096849709749221802e-02,-2.307158522307872772e-02,-1.004550904035568237e-01,-2.875114083290100098e-01,-5.636240541934967041e-02,-2.104153335094451904e-01,-1.174230873584747314e-01,1.156927347183227539e-01,-2.341978549957275391e-01,1.718345582485198975e-01,-2.283525764942169189e-01,-2.873524427413940430e-01,1.016962900757789612e-01,-1.036478206515312195e-01,6.533385813236236572e-02,-5.600851401686668396e-02,-1.904932968318462372e-02,2.069048956036567688e-02,2.245960682630538940e-01,-8.320014923810958862e-02,4.263116046786308289e-02,2.914373995736241341e-03,1.118439286947250366e-01,2.820741236209869385e-01,1.379200071096420288e-01,2.937836945056915283e-02,8.717145770788192749e-02,1.155823022127151489e-01,3.519550710916519165e-02,-7.970526814460754395e-02,-7.985209673643112183e-02,1.502981036901473999e-01,-1.067898422479629517e-01,-6.973463296890258789e-02,2.032400518655776978e-01,2.275616861879825592e-02,-2.144162207841873169e-01,-1.259799599647521973e-01,-9.910538792610168457e-02,7.562604546546936035e-02,-1.935439067892730236e-03,5.079102888703346252e-02,9.302324801683425903e-02,1.532737612724304199e-01,-3.619298804551362991e-03,-1.170076355338096619e-01,1.139637827873229980e-01,2.195435464382171631e-01,1.766191236674785614e-02,3.185801953077316284e-02,2.400774881243705750e-02,1.461840122938156128e-01,3.894077986478805542e-02,1.432706415653228760e-01,2.331713587045669556e-01,-2.374023385345935822e-02,-2.839805781841278076e-01,5.848550051450729370e-02,2.133663371205329895e-02,-2.124336361885070801e-02,1.755739748477935791e-01,-1.044551581144332886e-01,-1.114847660064697266e-01,5.437066406011581421e-02,6.623039394617080688e-02,2.446835041046142578e-01,-1.231489479541778564e-01,2.419595122337341309e-01,-3.597752377390861511e-02,7.382584363222122192e-02,-1.811720617115497589e-02,6.243748217821121216e-02,1.849462464451789856e-02,-1.553330123424530029e-01,9.759515523910522461e-02,2.894587218761444092e-01,1.855988949537277222e-01,3.908087313175201416e-02,3.692046701908111572e-01,-1.996357552707195282e-02,1.524286121129989624e-01,1.543265432119369507e-01,1.473335921764373779e-01,1.901289820671081543e-01,-9.526025503873825073e-03,-1.214263513684272766e-01,3.240699470043182373e-01,-8.014205098152160645e-02,4.025738239288330078e-01,-1.031378433108329773e-01,5.053332820534706116e-02,2.523377723991870880e-02,-8.030489832162857056e-02,1.759301722049713135e-01,6.256761401891708374e-02,6.154824420809745789e-02,4.733853936195373535e-01,1.577611267566680908e-01,2.325569689273834229e-01,3.726023733615875244e-01,2.099722027778625488e-01,3.258800208568572998e-01,2.234108000993728638e-01,1.785641163587570190e-02,-1.286605149507522583e-01,4.238851368427276611e-02,1.226322799921035767e-01,1.562112867832183838e-01,2.510373592376708984e-01,2.424758970737457275e-01,2.507664859294891357e-01,2.537625730037689209e-01,3.217126131057739258e-01,2.806448340415954590e-01,2.139011919498443604e-01,4.932602643966674805e-01,8.957983553409576416e-02,2.280186861753463745e-01,-1.183522865176200867e-02,2.001539319753646851e-01,1.392327100038528442e-01,-2.569231577217578888e-02,-2.056557685136795044e-01,-8.392846584320068359e-02,3.193154633045196533e-01,3.134019374847412109e-01,-1.111198496073484421e-02,6.033575907349586487e-02,2.016752772033214569e-02,2.688882350921630859e-01,-1.050485111773014069e-02,9.498420357704162598e-02,1.637492328882217407e-01,5.806212127208709717e-02,4.354998841881752014e-02,1.683368235826492310e-01,-2.339474856853485107e-01,-3.647324442863464355e-02,6.218710914254188538e-02,-2.283373028039932251e-01,-1.747487485408782959e-01,9.534383565187454224e-02,1.491245925426483154e-01,-4.902121424674987793e-02,-3.271911442279815674e-01,9.403100609779357910e-02,5.605173762887716293e-03,2.294979840517044067e-01,3.043946325778961182e-01,1.186765283346176147e-01,1.260480284690856934e-01,1.733738332986831665e-01,2.247542329132556915e-02,1.267113834619522095e-01,-2.071228772401809692e-01,-2.607594430446624756e-02,1.341533064842224121e-01,-1.185316517949104309e-01,-1.085570007562637329e-01,1.150172352790832520e-01,-3.391735954210162163e-03,8.309084922075271606e-02,-6.590269505977630615e-02,-6.188444420695304871e-02,-1.051609888672828674e-01,9.014613926410675049e-02,-9.792185574769973755e-02,1.399114280939102173e-01,-1.559633612632751465e-01,-9.997097402811050415e-02,-3.568312525749206543e-02,1.165761500597000122e-01,6.974218040704727173e-02,1.923211365938186646e-01,-5.034715682268142700e-02,2.429619282484054565e-01,-1.047697104513645172e-02,6.769594550132751465e-02,2.305287122726440430e-02,1.176768913865089417e-01,-1.356175541877746582e-01,-7.650924474000930786e-02,-1.464885473251342773e-01,3.906210362911224365e-01,1.836394518613815308e-01,-5.110185965895652771e-02,8.221308887004852295e-02,1.807311177253723145e-01,2.503838539123535156e-01,-9.972152113914489746e-02,-2.302328795194625854e-01,-5.388803314417600632e-03,2.050829082727432251e-01,1.891856938600540161e-01,-6.688556820154190063e-02,1.710145175457000732e-02,-3.396721184253692627e-02,-2.517848014831542969e-01,-2.391082942485809326e-01,-1.450254302471876144e-02,-1.345851123332977295e-01,-9.952025115489959717e-02,-9.396313130855560303e-02,1.314207352697849274e-02,7.832119613885879517e-02,-1.130010634660720825e-01,-7.333212345838546753e-02,7.274896651506423950e-02,3.027913346886634827e-02,-2.052414864301681519e-01,-7.764879614114761353e-02,-1.745485812425613403e-01,-2.364765405654907227e-01,-6.437233649194240570e-03,-8.822515606880187988e-03,4.387249425053596497e-02,1.973658502101898193e-01,-1.547228395938873291e-01,1.143310815095901489e-01,6.241476163268089294e-02,-2.036556452512741089e-01,5.253520235419273376e-02,-2.049827426671981812e-01,-3.643529117107391357e-02,4.585634544491767883e-02,-1.462245732545852661e-01,-1.197217106819152832e-01,-1.621714234352111816e-01,-1.611370295286178589e-01,-2.393178492784500122e-01,5.476632341742515564e-02,-1.701464951038360596e-01,-4.170402511954307556e-02,2.811218239367008209e-02,-7.060044258832931519e-02,-2.289972156286239624e-01,-1.113451048731803894e-01,-8.295673877000808716e-02,-1.284520775079727173e-01,-1.552609503269195557e-01,5.406348779797554016e-02,4.017053637653589249e-03,-6.522265076637268066e-02,-1.384156048297882080e-01,-5.498922243714332581e-02,1.473143249750137329e-01,1.780006848275661469e-02,-2.050254791975021362e-01,2.659138478338718414e-02,-7.703814655542373657e-02,-2.194327116012573242e-01,-1.853845268487930298e-01,-1.465981751680374146e-01,-1.781654357910156250e-01,1.471730321645736694e-02,-5.154657363891601562e-02,-1.231296360492706299e-01,8.146646618843078613e-02,1.300324648618698120e-01,-7.589387893676757812e-02,3.440079838037490845e-02,8.189455419778823853e-02,1.447836011648178101e-01,-2.244919091463088989e-01,1.484531909227371216e-01,-1.917303353548049927e-01,-1.831108331680297852e-01,-2.511643767356872559e-01,1.329280287027359009e-01,2.758022584021091461e-02,1.636321395635604858e-01,-6.214030086994171143e-02,1.354195922613143921e-01,1.094204634428024292e-01,3.105922937393188477e-01,-3.894556686282157898e-02,4.717802107334136963e-01,-1.777825802564620972e-01,1.935826241970062256e-02,3.262664675712585449e-01,-1.388455089181661606e-02,9.530545026063919067e-02,5.686545372009277344e-02,-3.068393655121326447e-02,1.419779509305953979e-01,2.213409543037414551e-02,1.773969233036041260e-01,4.533187299966812134e-02,1.607717573642730713e-01,5.302849784493446350e-02,4.941485077142715454e-02,2.265975475311279297e-01,-1.926298439502716064e-01,-1.303348573856055737e-03,-1.572491675615310669e-01,2.698024213314056396e-01,-1.319006383419036865e-01,1.620342880487442017e-01,6.366167962551116943e-02,-7.284388691186904907e-02,1.363511979579925537e-01,-7.436013221740722656e-02,1.369127929210662842e-01,-6.243727728724479675e-02,-2.650943212211132050e-02,-1.223184689879417419e-01,-1.137654110789299011e-01,7.929930090904235840e-02,2.166301757097244263e-02,-8.157600462436676025e-02,-1.759264320135116577e-01,5.034302920103073120e-02,1.931561231613159180e-01,9.510996751487255096e-03,-6.653752923011779785e-02,-3.541344404220581055e-02,-1.079480629414319992e-02,6.270173471421003342e-03,1.158565580844879150e-01,3.478001654148101807e-01,-2.366744540631771088e-02,-3.861789777874946594e-02,-2.086297720670700073e-01,1.142269372940063477e-01,-1.332545280456542969e-01,1.644670814275741577e-01,-6.325349956750869751e-02,1.108783856034278870e-01,3.644524142146110535e-02,-6.322301924228668213e-02,-2.228728681802749634e-01,1.864566653966903687e-01,-5.487313121557235718e-02,1.235430985689163208e-01,-9.356013685464859009e-02,-1.366597265005111694e-01,2.716155722737312317e-02,-2.210635244846343994e-01,1.092496588826179504e-01,1.984093338251113892e-01,-1.369992494583129883e-01,9.674940258264541626e-02,-4.620556160807609558e-02,-2.032974511384963989e-01,-6.970090419054031372e-02,3.184602260589599609e-01,2.276960760354995728e-01,1.196767855435609818e-02,1.617374829947948456e-03,-2.492472529411315918e-01,1.115096136927604675e-01,-3.445328772068023682e-02,-3.313399851322174072e-02,3.842457383871078491e-02,2.450244501233100891e-02,9.882592409849166870e-02,-1.250883042812347412e-01,1.269165873527526855e-01,1.308663189411163330e-01,-7.117345929145812988e-02,-1.444920804351568222e-02,1.076576411724090576e-01,4.238668456673622131e-02,7.562051713466644287e-02,-1.673578023910522461e-01,-1.116169318556785583e-01,-1.240629926323890686e-01,1.046823263168334961e-01,-5.951086804270744324e-02,1.470885276794433594e-01,-1.074283719062805176e-01,-5.388625711202621460e-02,2.378007024526596069e-01,-1.863313019275665283e-01,3.357191681861877441e-01,3.548964858055114746e-02,1.898571476340293884e-02,3.385507464408874512e-01,-1.252760179340839386e-02,-1.472139209508895874e-01,1.647423394024372101e-02,1.198799759149551392e-01,-4.372744262218475342e-02,-1.932412087917327881e-01,9.686242043972015381e-02,1.990502923727035522e-01,-6.623636931180953979e-02,-6.931070983409881592e-02,1.341364234685897827e-01,-2.091778218746185303e-01,1.051526963710784912e-01,1.366685926914215088e-01,-6.192343682050704956e-02,-2.186878584325313568e-02,2.376648038625717163e-01,-1.339951902627944946e-01,1.528568416833877563e-01,-2.320458739995956421e-01,1.093717366456985474e-01,1.387272030115127563e-01,-2.642530389130115509e-02,-4.780418425798416138e-02,2.187660336494445801e-01,-4.833013564348220825e-02,-1.661533564329147339e-01,1.316094696521759033e-01,-1.099145114421844482e-01,-2.852781303226947784e-02,2.688611624762415886e-03,9.308698773384094238e-02,-1.744274497032165527e-01,2.874201536178588867e-01,9.046792984008789062e-02,1.454719752073287964e-01,3.048271127045154572e-02,8.064598590135574341e-02,1.430855542421340942e-01,1.593130454421043396e-02,2.258160337805747986e-02,1.700668483972549438e-01,1.970005333423614502e-01,1.240731850266456604e-01,-1.390492916107177734e-01,-1.145674586296081543e-01,2.615753114223480225e-01,3.357362747192382812e-02,-9.516704082489013672e-02,-1.102713495492935181e-01,1.454467922449111938e-01,1.304137259721755981e-01,-2.642289735376834869e-02,1.896835565567016602e-01,-7.578093092888593674e-03,1.855156719684600830e-01,-8.417554199695587158e-02,8.102556318044662476e-02,4.473544657230377197e-03,-8.092296123504638672e-02,-4.090258479118347168e-02,-3.054257109761238098e-02,-1.732312440872192383e-01,-4.001688957214355469e-02,-3.166967630386352539e-02,2.649795450270175934e-02,1.330571770668029785e-01,-2.959196269512176514e-01,-1.728499233722686768e-01,-1.843399703502655029e-01,8.588559925556182861e-02,-9.173109382390975952e-02,3.947085700929164886e-03,-7.423382997512817383e-02,1.113228946924209595e-01,-9.537829458713531494e-02,-2.517449557781219482e-01,3.384261205792427063e-02,-1.872309893369674683e-01,-5.063325166702270508e-02,-7.489021122455596924e-02,8.254228159785270691e-03,6.935567408800125122e-02,-8.638283610343933105e-02,-1.031827479600906372e-01,1.347030550241470337e-01,-2.654416486620903015e-02,3.933978453278541565e-02,-1.637732833623886108e-01,-1.061705946922302246e-01,-2.723045460879802704e-02,-1.836373805999755859e-01,-4.730309173464775085e-02,-3.114340640604496002e-02,1.316437125205993652e-01,1.740525364875793457e-01,1.057804673910140991e-01,7.495443522930145264e-02,-1.081712841987609863e-01,1.499475091695785522e-01,-3.061666786670684814e-01,1.222458388656377792e-02,8.021426200866699219e-02,-2.460720390081405640e-01,-8.111263811588287354e-02,-1.737049967050552368e-01,-4.049859195947647095e-02,-2.913730442523956299e-01,-1.607369929552078247e-01,-5.519948154687881470e-02,5.325832962989807129e-02,-9.048330038785934448e-02,2.294215746223926544e-02,-3.031314611434936523e-01,1.345943193882703781e-02,-4.000814515165984631e-04,-1.650350838899612427e-01,7.563220709562301636e-02,5.592709779739379883e-02,7.788427919149398804e-02,-2.085699141025543213e-01,-1.661352664232254028e-01,-5.497944727540016174e-02,-2.225018292665481567e-02,-1.096009612083435059e-01,-1.632874310016632080e-01,-1.513984519988298416e-02,-3.871857421472668648e-03,-1.864381581544876099e-01,1.534844785928726196e-01,2.169504314661026001e-01,-9.369982406497001648e-03,1.775936633348464966e-01,-1.526763290166854858e-01,-1.448236219584941864e-02,-8.177356421947479248e-02,-1.397652328014373779e-01,1.341904699802398682e-01,1.004385296255350113e-03,-3.500206768512725830e-02,1.389691978693008423e-01,3.238254413008689880e-02,1.317445188760757446e-01,2.523304894566535950e-02,-1.452432870864868164e-01,-3.027196042239665985e-02,-8.132933080196380615e-02,-2.333819717168807983e-01,-8.166074007749557495e-02,-2.698266208171844482e-01,3.203746676445007324e-02,-5.625244230031967163e-02,-3.140858411788940430e-01,1.642169058322906494e-01,-2.272171340882778168e-02,1.836503148078918457e-01,-3.562758862972259521e-01,-1.796386837959289551e-01,-2.570090629160404205e-02,-2.008576318621635437e-02,-1.910489946603775024e-01,4.069903492927551270e-02,-5.984096229076385498e-02,-1.116370111703872681e-01,-2.718391120433807373e-01,2.201279848814010620e-01,-2.270077355206012726e-02,1.060392484068870544e-01,-9.605062752962112427e-02,-9.071677178144454956e-02,-2.084874063730239868e-01,5.330314487218856812e-02,1.332460343837738037e-01,1.212043166160583496e-01,1.276108026504516602e-01,1.297200322151184082e-01,-2.149048596620559692e-01,-5.533435568213462830e-02,4.599501937627792358e-02,7.281841337680816650e-02,1.357736885547637939e-01,-1.290955841541290283e-01,6.889390200376510620e-02,1.118089631199836731e-01,-4.013333916664123535e-01,1.465346515178680420e-01,1.606604903936386108e-01,2.093005739152431488e-02,1.496621221303939819e-01,-1.557456105947494507e-01,-9.224330633878707886e-02,4.300207644701004028e-02,-1.176068186759948730e-01,2.007272839546203613e-02,2.386277541518211365e-02,1.068609580397605896e-01,7.689790427684783936e-02,-2.776324003934860229e-02,1.622108817100524902e-01,-1.301823649555444717e-02,-3.099581599235534668e-01,1.290073245763778687e-01,1.083071753382682800e-01,1.798798292875289917e-01,-8.754469454288482666e-02,-8.703514188528060913e-02,-6.860600411891937256e-02,8.444003015756607056e-02,6.918424367904663086e-02,1.068511158227920532e-01,-5.653172358870506287e-02,-9.668757021427154541e-02,3.051720261573791504e-01,-3.488064557313919067e-02,1.776717305183410645e-01,2.648971080780029297e-01,1.071802526712417603e-01,-9.847600013017654419e-02,-3.372503817081451416e-02,-1.627497225999832153e-01,5.136296898126602173e-02,-7.027248293161392212e-02,-1.682795435190200806e-01,2.164047211408615112e-01,2.517226040363311768e-01,-2.351701557636260986e-01,1.051390469074249268e-01,-1.622551381587982178e-01,2.283736318349838257e-02,7.475545257329940796e-02,-1.173181459307670593e-01,9.070283849723637104e-04,-2.069053053855895996e-02,-2.017045766115188599e-02,6.794975697994232178e-02,-1.086955666542053223e-01,-2.854010276496410370e-02,-6.151311099529266357e-02,1.002942323684692383e-01,1.554160714149475098e-01,4.754158854484558105e-02,1.450114697217941284e-01,-2.154090702533721924e-01,1.665757000446319580e-01,-2.793086171150207520e-01,-9.933397173881530762e-02,1.064088270068168640e-01,2.658907175064086914e-01,-1.893139630556106567e-01,-9.003195911645889282e-02,1.145295128226280212e-01,-3.807296603918075562e-02,6.092069204896688461e-03,3.951075673103332520e-02,5.139550194144248962e-02,-1.292990520596504211e-02,-1.270446777343750000e-01,-1.513333916664123535e-01,-7.629918307065963745e-02,1.797560006380081177e-01,1.094473525881767273e-02,-2.061878144741058350e-01,-2.200282812118530273e-01,5.591971427202224731e-02,1.965062879025936127e-02,1.893054246902465820e-01,-3.711652159690856934e-01,2.482014596462249756e-01,-2.378398776054382324e-01,-9.504756331443786621e-02,-1.250747591257095337e-01,4.444879665970802307e-02,-3.274585902690887451e-01,-5.443018302321434021e-02,-9.684116393327713013e-02,9.086797945201396942e-03,1.204666942358016968e-01,-3.109476864337921143e-01,1.401943862438201904e-01,-7.530816644430160522e-02,4.234241694211959839e-02,-3.956114873290061951e-02,-5.035284440964460373e-03,2.021662294864654541e-01,-3.954306989908218384e-02,1.847548037767410278e-01,5.295654758810997009e-02,-4.578763246536254883e-02,-1.499621868133544922e-01,1.767014339566230774e-02,1.442323923110961914e-01,-2.142647951841354370e-01,2.207140624523162842e-01,1.063375100493431091e-01,-2.548278123140335083e-02,-4.332694038748741150e-02,6.469716876745223999e-02,2.273962795734405518e-01,7.975360751152038574e-02,9.162703901529312134e-02,-8.689286559820175171e-02,-5.211104825139045715e-02,-2.750593721866607666e-01,-4.718475509434938431e-03,-2.343594282865524292e-01,7.581954449415206909e-02,1.207580119371414185e-01,1.068703979253768921e-01,5.362805724143981934e-02,9.196770936250686646e-02,5.035916343331336975e-02,1.403147280216217041e-01,7.700418680906295776e-02,-3.204636974260210991e-03,-1.667182520031929016e-02,-9.605330415070056915e-03,-6.746639311313629150e-02,2.002376317977905273e-01,-2.693708240985870361e-01,-6.077412515878677368e-02,-2.610055208206176758e-01,-4.543044790625572205e-02,-6.508793681859970093e-02,-1.963468641042709351e-01,2.668738365173339844e-02,-2.407196462154388428e-01,3.905010968446731567e-02,7.913228124380111694e-02,-1.150198653340339661e-01,8.202528953552246094e-02,-1.925625205039978027e-01,-3.197829052805900574e-02,1.424620300531387329e-01,5.158474668860435486e-02,-2.436688244342803955e-01,-1.273838728666305542e-01,-2.079913169145584106e-01,-5.744223296642303467e-02,-6.089989468455314636e-02,2.280938178300857544e-01,-7.317495346069335938e-02,-2.134020477533340454e-01,6.320929969660937786e-04,2.087488919496536255e-01,-7.625917345285415649e-02,-1.043306216597557068e-01,1.797706261277198792e-02,-1.445238739252090454e-01,6.265728920698165894e-02,3.686170652508735657e-02,2.087321504950523376e-02,-2.083983123302459717e-01,-1.472364366054534912e-01,1.477355659008026123e-01,-3.100308179855346680e-01,-1.688338518142700195e-01,-5.848360061645507812e-01,-1.733311414718627930e-01,-1.910411939024925232e-02,1.310045719146728516e-01,-7.802069187164306641e-02,-3.430770710110664368e-02,-8.452317863702774048e-02,7.376298308372497559e-02,1.672194451093673706e-01,6.406229455024003983e-03,1.451436709612607956e-02,-7.629661262035369873e-02,-3.976758569478988647e-02,-8.593929558992385864e-02,1.441100239753723145e-01,-1.335515268146991730e-02,-3.062235377728939056e-02,-5.570474267005920410e-02,-3.051573038101196289e-02,2.326136268675327301e-02,-1.256258934736251831e-01,-9.788241982460021973e-02,4.924344271421432495e-02,-8.832234889268875122e-02,3.121025487780570984e-02,-1.492072194814682007e-01,-2.741705775260925293e-01,-1.238504275679588318e-01,1.262730825692415237e-02,-3.053197078406810760e-02,4.892300814390182495e-02,8.607611805200576782e-02,-1.853193342685699463e-01,6.649894267320632935e-02,-7.594317197799682617e-02,-1.974684298038482666e-01,-7.441208511590957642e-02,4.602091759443283081e-02,-8.776047080755233765e-02,4.996537044644355774e-02,-1.054088547825813293e-01,1.023450568318367004e-01,2.452329918742179871e-02,-7.415985316038131714e-02,-6.173292547464370728e-02,-1.569120883941650391e-01,-7.270313799381256104e-02,-2.778111025691032410e-02,-2.127364426851272583e-01,-1.749839782714843750e-01,-4.753083363175392151e-02,-1.981598138809204102e-01,3.155837533995509148e-03,-5.875371769070625305e-02,-8.345635235309600830e-02,9.345469623804092407e-02,-1.181112378835678101e-01,1.174729764461517334e-01,1.117816492915153503e-01,3.646723181009292603e-02,2.203860087320208549e-03,-3.238883987069129944e-02,-1.678775697946548462e-01,-7.550541311502456665e-02,5.100267380475997925e-02,7.269503921270370483e-02,8.491957932710647583e-02,5.679070949554443359e-02,7.621746510267257690e-02,-1.004436910152435303e-01,1.372268944978713989e-01,4.673117026686668396e-02,1.026316955685615540e-01,-1.246474236249923706e-01,-1.434949934482574463e-01,-2.293771952390670776e-01,-6.714937835931777954e-02,7.924880832433700562e-02,4.020337387919425964e-02,-2.261045388877391815e-03,-1.860305108129978180e-02,6.050146371126174927e-02,-3.851491212844848633e-02,3.572917729616165161e-02,5.322087556123733521e-02,-1.788845211267471313e-01,1.520619690418243408e-01,-1.489066034555435181e-01,-1.025565788149833679e-01,1.440716236829757690e-01,9.533240646123886108e-02,-2.962304465472698212e-02,-2.821001596748828888e-02,-1.717621982097625732e-01,1.683757267892360687e-02,-4.902941640466451645e-03,1.428610831499099731e-01,-5.942021496593952179e-03,-1.075649186968803406e-01,-7.580840587615966797e-02,1.260644942522048950e-01,2.774103730916976929e-02,1.208588108420372009e-02,-1.260762363672256470e-01,-1.863663047552108765e-01,6.202453374862670898e-02,5.701421946287155151e-02,-9.040942043066024780e-02,-1.217788010835647583e-01,-2.238698750734329224e-01,7.691440731287002563e-02,-4.207339137792587280e-02,-1.037266403436660767e-01,6.801924854516983032e-02,1.163855288177728653e-02,-8.132547885179519653e-02,-1.471713837236166000e-02,5.691318586468696594e-02,-5.666567943990230560e-03,6.558310985565185547e-02,1.135253831744194031e-01,-3.697191923856735229e-02,-2.967412024736404419e-02,1.289327144622802734e-01,-8.906410634517669678e-02,1.347768455743789673e-01,-3.159323930740356445e-01,-6.157113239169120789e-02,3.948549926280975342e-02,-1.408469229936599731e-01,-2.107415199279785156e-01,1.950136125087738037e-01,3.718727733939886093e-03,-2.538487315177917480e-02,3.053064458072185516e-02,4.392822831869125366e-02,-1.559506505727767944e-01,-9.842213988304138184e-02,-3.972993791103363037e-01,2.816353924572467804e-02,1.518740057945251465e-01,-1.247432529926300049e-01,1.845134943723678589e-01,9.277246892452239990e-03,-2.241627573966979980e-01,-1.671787053346633911e-01,-2.318748533725738525e-01,-3.188448771834373474e-02,-2.853668527677655220e-03,-3.435366451740264893e-01,2.147769555449485779e-02,-1.875139027833938599e-01,-2.351839244365692139e-01,-1.343896239995956421e-01,-5.645104050636291504e-01,-2.770752012729644775e-01,1.400787830352783203e-01,-2.256074249744415283e-01,-1.112970784306526184e-01,-1.538240537047386169e-02,1.381260901689529419e-01,5.294761806726455688e-02,2.345863580703735352e-01,-1.030717696994543076e-02,1.883044838905334473e-01,5.387327820062637329e-02,4.227001219987869263e-02,4.758386313915252686e-02,-3.913049399852752686e-01,-2.853838503360748291e-01,-1.222612932324409485e-01,-4.274457395076751709e-01,8.168196678161621094e-02,-1.132901236414909363e-01,-4.760828241705894470e-02,1.676044613122940063e-02,-3.267966508865356445e-01,2.754702046513557434e-02,5.184770002961158752e-02,-2.416552156209945679e-01,-7.178042083978652954e-02,-2.454147338867187500e-01,-2.448667734861373901e-01,5.263226851820945740e-02,-9.100723266601562500e-02,2.364899590611457825e-02,-1.212055385112762451e-01,-2.300267517566680908e-01,-1.442830711603164673e-01,-9.671556949615478516e-02,-1.065604481846094131e-02,1.633730083703994751e-01,3.156491816043853760e-01,-1.222779825329780579e-01,-2.325375974178314209e-01,-2.276087254285812378e-01,4.439488053321838379e-02,-3.870760798454284668e-01,-2.250390499830245972e-01,