-2.305182628333568573e-02,-3.175743222236633301e-01,-3.372452035546302795e-02,1.844802349805831909e-01,-1.294697225093841553e-01,1.150032356381416321e-01,4.726444371044635773e-03,-5.461442098021507263e-02,1.476268917322158813e-01,-3.293873369693756104e-02,-1.773001700639724731e-01,2.000855058431625366e-01,1.733777672052383423e-01,6.442029774188995361e-02,1.946887969970703125e-01,4.451948031783103943e-02,1.870064139366149902e-01,-4.453576635569334030e-03,1.521106157451868057e-02,-5.647432059049606323e-02,-1.908101737499237061e-01,-1.435217559337615967e-01,1.052519679069519043e-01,2.241488397121429443e-01,-2.519026696681976318e-01,2.205515280365943909e-02,-7.470652461051940918e-02,-9.934824705123901367e-02,-2.016980946063995361e-01,1.183843836188316345e-01,-6.515355408191680908e-02,1.753479093313217163e-01,-2.213181462138891220e-03,6.812337785959243774e-02,-6.026703864336013794e-02,-3.503251820802688599e-02,-8.364883810281753540e-02,6.095219403505325317e-02,2.159303724765777588e-01,5.094536393880844116e-02,-1.374107003211975098e-01,3.211643919348716736e-02,1.678293012082576752e-02,-1.687929183244705200e-01,-1.248747482895851135e-02,-4.199478402733802795e-02,-1.122701019048690796e-01,1.565056145191192627e-01,4.583179019391536713e-03,1.892841905355453491e-01,-1.393696367740631104e-01,5.371350795030593872e-02,-1.868542283773422241e-01,-1.856650710105895996e-01,1.573599278926849365e-01,-5.454231426119804382e-02,1.005779951810836792e-01,5.841740965843200684e-02,1.864353939890861511e-02,8.966895937919616699e-02,-6.147814542055130005e-02,-2.073891758918762207e-01,-1.492356359958648682e-01,-3.640806674957275391e-02,1.361575275659561157e-01,-1.434641033411026001e-01,9.673371165990829468e-02,-5.181675776839256287e-02,2.429990321397781372e-01,-1.155273839831352234e-01,1.340953409671783447e-01,1.238196417689323425e-01,-5.153016652911901474e-03,2.563449740409851074e-01,2.637370526790618896e-01,7.221654057502746582e-02,-4.777672514319419861e-02,7.822697609663009644e-02,1.961827874183654785e-01,2.260927259922027588e-01,-1.111778151243925095e-02,7.937271147966384888e-02,-1.181778982281684875e-01,1.178476735949516296e-01,-6.600628048181533813e-02,-1.670469529926776886e-02,8.951656054705381393e-04,-1.066630706191062927e-01,7.667326927185058594e-02,1.631994359195232391e-02,1.461908519268035889e-01,-1.837307214736938477e-01,1.222632378339767456e-01,9.739654511213302612e-02,-9.452164918184280396e-02,1.725935339927673340e-01,-1.598522812128067017e-01,-2.607195638120174408e-02,3.153574839234352112e-02,-1.309688836336135864e-01,8.768781274557113647e-02,1.375850588083267212e-01,-1.275702845305204391e-02,-2.228188663721084595e-01,-1.605038344860076904e-01,-7.192873954772949219e-02,-1.007075756788253784e-01,7.262365520000457764e-02,1.388193964958190918e-01,-1.102547720074653625e-01,-2.528965845704078674e-02,1.876391023397445679e-01,-1.569040715694427490e-01,-1.980573236942291260e-01,-1.213580593466758728e-01,-4.053361713886260986e-02,-2.194461077451705933e-01,7.673295587301254272e-02,-1.640037000179290771e-01,1.422185003757476807e-01,-8.660558611154556274e-02,7.366233319044113159e-02,6.732045859098434448e-02,-1.833509653806686401e-01,9.440421126782894135e-03,-1.207001954317092896e-01,-1.048219054937362671e-01,-5.457901582121849060e-02,1.626454591751098633e-01,-1.293621957302093506e-01,-1.820892840623855591e-02,-1.456441432237625122e-01,-1.216206252574920654e-01,7.281684875488281250e-02,1.236509010195732117e-01,-3.874281421303749084e-02,1.926412880420684814e-01,2.622142434120178223e-01,-1.300197392702102661e-01,5.188779160380363464e-02,4.843869805335998535e-02,-6.523424386978149414e-02,-1.444826424121856689e-01,4.268373548984527588e-02,5.847118794918060303e-02,-3.232210292480885983e-04,1.765097379684448242e-01,9.948234260082244873e-02,4.541306570172309875e-02,5.414642021059989929e-02,6.815998256206512451e-02,7.991037517786026001e-02,-2.390493750572204590e-01,-7.649818062782287598e-02,-5.479137599468231201e-02,-7.159020751714706421e-02,9.447599947452545166e-02,8.945760130882263184e-02,1.858336292207241058e-02,1.132818013429641724e-01,1.929809749126434326e-01,2.278230041265487671e-01,-7.033381611108779907e-02,-2.046781182289123535e-01,-1.172193661332130432e-01,7.111513614654541016e-02,4.717946425080299377e-02,6.916440278291702271e-02,-1.254313439130783081e-01,6.340827047824859619e-02,6.997856497764587402e-02,9.987289458513259888e-02,8.452166616916656494e-02,1.995413303375244141e-01,2.375648543238639832e-02,6.643301248550415039e-02,-6.872752308845520020e-02,-5.718100443482398987e-02,-1.969327181577682495e-01,7.968763262033462524e-02,-1.473119016736745834e-02,-1.495589613914489746e-01,-1.342403143644332886e-01,-5.597712472081184387e-02,-1.363059412688016891e-02,-1.245533749461174011e-01,1.181636750698089600e-01,-6.512881815433502197e-02,-1.732180714607238770e-01,-8.835276216268539429e-02,2.773053348064422607e-01,1.307278871536254883e-01,-1.704740226268768311e-01,-1.850894987583160400e-01,-1.006831005215644836e-01,1.659136265516281128e-01,1.621619760990142822e-01,-4.351216182112693787e-02,9.651853889226913452e-02,7.142948359251022339e-02,8.312607556581497192e-02,8.906221389770507812e-02,2.649767100811004639e-01,-1.742490082979202271e-01,-2.788074612617492676e-01,1.544564515352249146e-01,-3.948311135172843933e-02,1.233074069023132324e-01,-2.959716022014617920e-01,-2.296628952026367188e-01,-1.118850037455558777e-01,-3.199457749724388123e-02,2.085868269205093384e-02,-1.386462450027465820e-01,2.061221934854984283e-02,1.306748241186141968e-01,-7.583276182413101196e-02,-1.045341510325670242e-02,1.441597789525985718e-01,-9.993019700050354004e-02,3.037573955953121185e-02,-1.721114516258239746e-01,-7.455346733331680298e-02,2.991709299385547638e-02,8.918194472789764404e-02,3.349327249452471733e-03,1.174068450927734375e-01,1.623784005641937256e-01,2.126136422157287598e-01,2.667745761573314667e-02,-1.130149886012077332e-01,-1.558253169059753418e-01,7.214121520519256592e-02,-3.534345328807830811e-02,-1.272572576999664307e-01,-5.927575007081031799e-02,-1.465076766908168793e-02,9.611916542053222656e-02,-1.523282006382942200e-02,-1.102040149271488190e-02,2.205318771302700043e-02,-1.557275950908660889e-01,-1.451012045145034790e-01,5.189993232488632202e-02,-5.061896145343780518e-02,2.409250736236572266e-01,-1.701183021068572998e-01,-2.740298025310039520e-02,2.044078111648559570e-01,2.928780205547809601e-02,9.772624075412750244e-02,-9.017637372016906738e-02,-9.184403717517852783e-02,1.412467956542968750e-01,2.196639627218246460e-01,6.843633204698562622e-02,-1.174804419279098511e-01,-1.631870418787002563e-01,1.593262404203414917e-01,1.221013665199279785e-01,-3.089854866266250610e-02,8.987496793270111084e-02,1.778923273086547852e-01,7.190727442502975464e-02,1.277431249618530273e-01,-1.781153529882431030e-01,1.520247906446456909e-01,6.024566292762756348e-02,4.632085561752319336e-02,3.911172449588775635e-01,5.314317345619201660e-02,-2.602451853454113007e-02,1.314617693424224854e-01,1.887084692716598511e-01,2.455801703035831451e-02,9.517899900674819946e-02,-8.469473570585250854e-02,-1.486889719963073730e-01,-1.534432321786880493e-01,1.500684469938278198e-01,-1.771651208400726318e-01,6.113805249333381653e-02,-1.897911727428436279e-01,1.232064664363861084e-01,-1.681594252586364746e-01,-9.695585817098617554e-02,1.201700717210769653e-01,1.865749806165695190e-01,-2.191491611301898956e-02,-5.506180599331855774e-02,1.453366316854953766e-02,-1.063556782901287079e-02,1.030944138765335083e-01,-6.567262858152389526e-02,9.105223417282104492e-02,-2.039578557014465332e-02,1.305979192256927490e-01,2.106366492807865143e-02,5.238856375217437744e-02,2.614749968051910400e-01,2.503550052642822266e-01,4.364232346415519714e-02,-2.015838772058486938e-01,1.144936680793762207e-01,1.093620359897613525e-01,-2.063582390546798706e-01,-7.344352453947067261e-02,-8.626175671815872192e-02,-1.855208724737167358e-01,1.256553828716278076e-01,6.564632058143615723e-02,-2.590802311897277832e-02,3.824764862656593323e-02,-1.699086427688598633e-01,-2.702252268791198730e-01,8.988177031278610229e-02,2.320514991879463196e-02,2.703284025192260742e-01,-7.092506438493728638e-02,2.295667231082916260e-01,-1.172115281224250793e-01,9.638445824384689331e-02,-1.590691804885864258e-01,-4.853078350424766541e-02,1.428938284516334534e-02,-7.602706551551818848e-02,-9.264458715915679932e-02,1.358588784933090210e-01,3.999291360378265381e-02,1.510127931833267212e-01,6.904663890600204468e-02,-5.898225307464599609e-02,1.767277866601943970e-01,-2.280702441930770874e-01,-1.100859567523002625e-01,-6.407582759857177734e-02,-2.574209868907928467e-01,2.053112089633941650e-01,-2.061174064874649048e-02,-1.302006393671035767e-01,-4.415602236986160278e-02,9.270834922790527344e-02,-9.803350269794464111e-02,2.040938735008239746e-01,3.048994950950145721e-02,-2.601206004619598389e-01,1.254758089780807495e-01,-1.406849622726440430e-01,-2.138013541698455811e-01,1.061360631138086319e-02,8.203960210084915161e-02,-1.628197729587554932e-01,8.937970548868179321e-02,-1.091794148087501526e-01,1.598674803972244263e-02,-2.936001420021057129e-01,-1.114306002855300903e-01,-4.861965402960777283e-02,1.308115571737289429e-01,-8.002734929323196411e-02,-6.706224381923675537e-02,-3.140141069889068604e-02,-1.963805556297302246e-01,-4.663443192839622498e-02,-1.502625942230224609e-01,9.852545708417892456e-02,2.242980748414993286e-01,3.824830055236816406e-01,-2.167711555957794189e-01,9.148113429546356201e-02,-3.477356210350990295e-02,-1.840145587921142578e-01,-3.047711253166198730e-01,3.251436352729797363e-02,-9.181436151266098022e-02,-4.277072101831436157e-02,1.596679687500000000e-01,1.910096108913421631e-01,-5.414679180830717087e-03,-2.358871698379516602e-01,-1.802457273006439209e-01,-7.640150189399719238e-02,-1.855983771383762360e-02,-1.375152617692947388e-01,-1.158000379800796509e-01,2.615059316158294678e-01,4.204326122999191284e-02,1.870117336511611938e-01,-9.924297779798507690e-02,1.726745069026947021e-01,-1.004452481865882874e-01,1.095451321452856064e-02,-2.651771306991577148e-01,8.690510690212249756e-02,-1.547794193029403687e-01,-6.703329086303710938e-02,1.180659681558609009e-01,-8.344736695289611816e-02,1.375034004449844360e-01,2.116760611534118652e-01,1.970234066247940063e-01,-9.948073327541351318e-02,-1.134798377752304077e-01,-8.091533929109573364e-02,2.715354859828948975e-01,1.593964919447898865e-02,3.560183644294738770e-01,-1.151158008724451065e-02,4.315054416656494141e-02,-2.766870558261871338e-01,4.641507565975189209e-02,-1.338342279195785522e-01,6.094602867960929871e-02,-7.018391042947769165e-02,1.175345852971076965e-01,2.859932370483875275e-02,4.620876535773277283e-02,-1.468297392129898071e-01,2.195252776145935059e-01,9.588135778903961182e-02,-6.553111225366592407e-02,-3.024448454380035400e-02,4.401098191738128662e-02,1.260491311550140381e-01,-1.113736629486083984e-01,2.448321282863616943e-01,-2.995189651846885681e-02,8.816510438919067383e-02,-2.745781242847442627e-01,3.501912355422973633e-01,1.089848652482032776e-01,-1.392952501773834229e-01,8.375023491680622101e-03,4.247752577066421509e-02,-2.098997235298156738e-01,-1.930878609418869019e-01,1.126985624432563782e-01,1.785825341939926147e-01,-1.615566611289978027e-01,-1.937801837921142578e-01,8.593726903200149536e-02,1.327734440565109253e-01,-3.412710502743721008e-02,1.776493489742279053e-01,2.160247713327407837e-01,2.892630919814109802e-02,1.467615813016891479e-01,-1.422838717699050903e-01,2.277400195598602295e-01,-4.438452422618865967e-02,-1.762302964925765991e-01,9.093679487705230713e-02,-7.799363136291503906e-02,-1.067680642008781433e-01,-1.999792456626892090e-01,9.229490906000137329e-02,5.383945629000663757e-02,-8.651780337095260620e-02,-1.815558969974517822e-01,6.615673750638961792e-02,1.301627606153488159e-01,1.731707006692886353e-01,1.847310662269592285e-01,7.210948318243026733e-02,1.714372038841247559e-01,9.173122048377990723e-02,1.101323217153549194e-01,-1.372364610433578491e-01,6.211373209953308105e-02,-2.924325130879878998e-02,1.239704266190528870e-01,1.824883371591567993e-01,1.830853074789047241e-01,4.150249809026718140e-02,-4.226510971784591675e-02,5.576175078749656677e-02,-3.084244765341281891e-02,-5.827700719237327576e-02,1.715891994535923004e-02,1.563670635223388672e-01,1.318836361169815063e-01,-6.873678416013717651e-02,1.839638873934745789e-02,5.871018394827842712e-02,-1.449921727180480957e-01,1.234174445271492004e-01,-8.612591773271560669e-02,-6.727482378482818604e-02,-7.492930442094802856e-02,-7.141544669866561890e-02,1.287595629692077637e-01,-2.306251786649227142e-03,2.528853416442871094e-01,-2.561586797237396240e-01,-1.363171357661485672e-02,-1.229226514697074890e-01,-9.244792163372039795e-02,-9.827629476785659790e-02,-1.698976010084152222e-01,2.041819840669631958e-01,9.124354273080825806e-02,-1.553094666451215744e-02,1.079098433256149292e-01,-1.377515196800231934e-01,1.227482967078685760e-02,1.382647603750228882e-01,-3.967864066362380981e-02,-1.792148500680923462e-01,4.249754548072814941e-02,-1.858366429805755615e-01,-1.768810451030731201e-01,1.873837709426879883e-01,3.161097466945648193e-01,1.087080836296081543e-01,2.705394523218274117e-03,8.020859095267951488e-04,-9.330852329730987549e-02,1.876109391450881958e-01,-1.668709367513656616e-01,-2.268756031990051270e-01,-2.212993353605270386e-01,-7.166799157857894897e-02,1.148440912365913391e-01,8.579211309552192688e-03,-1.763351559638977051e-01,7.585242856293916702e-03,-1.428533047437667847e-01,1.722576469182968140e-01,6.042337045073509216e-02,-1.525231897830963135e-01,-7.683662325143814087e-02,-2.360925823450088501e-01,2.266382575035095215e-01,-1.463558226823806763e-01,-1.828483343124389648e-01,-9.634314477443695068e-02,5.081925541162490845e-02,2.638984471559524536e-03,3.769997507333755493e-02,-1.849388033151626587e-01,-2.243586778640747070e-01,1.150621995329856873e-01,-2.401515841484069824e-01,2.277084812521934509e-02,4.200226161628961563e-03,-3.428607434034347534e-02,-1.601417064666748047e-01,-4.349780827760696411e-02,-2.108929455280303955e-01,7.582820951938629150e-02,8.154135197401046753e-02,-1.437344495207071304e-02,6.373517215251922607e-02,-5.376286059617996216e-02,-4.545457661151885986e-02,-9.017118066549301147e-02,6.800673156976699829e-02,-1.821491122245788574e-01,-1.565747261047363281e-01,-1.846203207969665527e-01,1.574194617569446564e-02,-1.747105270624160767e-02,-9.779359400272369385e-02,-3.846636787056922913e-02,-1.086520180106163025e-01,1.607543230056762695e-01,-3.848130628466606140e-02,-1.150553748011589050e-01,3.436237946152687073e-02,3.462595120072364807e-02,5.686647444963455200e-02,-1.013225689530372620e-01,1.844684332609176636e-01,-1.744739264249801636e-01,-1.991438567638397217e-01,8.916687220335006714e-02,1.269154995679855347e-02,-1.826682090759277344e-01,7.551568746566772461e-02,-1.908459817059338093e-04,-2.037136256694793701e-01,5.801688507199287415e-02,1.123603805899620056e-01,-8.753154426813125610e-02,8.623380213975906372e-02,6.660534441471099854e-02,5.589892715215682983e-02,-1.342544108629226685e-01,2.053455412387847900e-01,1.690849363803863525e-01,2.103092670440673828e-01,-7.614728063344955444e-02,1.503794789314270020e-01,-6.658805161714553833e-02,-7.054329663515090942e-02,6.661890447139739990e-02,-1.131253466010093689e-01,7.788893580436706543e-02,-1.860826909542083740e-01,1.307053714990615845e-01,1.614642292261123657e-01,1.876111142337322235e-02,5.433431360870599747e-03,1.262647062540054321e-01,-1.166317835450172424e-01,1.121575087308883667e-01,-5.613311380147933960e-02,1.574340015649795532e-01,-2.274847477674484253e-01,2.361305952072143555e-01,2.024634033441543579e-01,1.553517132997512817e-01,1.123571246862411499e-01,-2.633414864540100098e-01,-2.145258933305740356e-01,1.293758153915405273e-01,-6.540174782276153564e-02,-5.286007001996040344e-02,-1.650787591934204102e-01,-5.064644501544535160e-04,1.620392650365829468e-01,-8.634673804044723511e-02,-2.125291377305984497e-01,-2.610754668712615967e-01,1.177063137292861938e-01,2.202047109603881836e-01,1.085740178823471069e-01,1.056167259812355042e-01,-3.437860682606697083e-02,-5.850370600819587708e-02,-2.761557698249816895e-02,6.014155223965644836e-02,1.172609478235244751e-01,5.939131230115890503e-02,2.003162354230880737e-01,9.304285794496536255e-02,1.103864461183547974e-01,-1.552815586328506470e-01,-2.257489413022994995e-02,-1.315687969326972961e-02,-8.595817536115646362e-02,-2.238159775733947754e-01,-3.707855194807052612e-02,1.263742595911026001e-01,-9.548179805278778076e-02,-1.109103336930274963e-01,1.900767683982849121e-01,-3.749711066484451294e-02,9.086342155933380127e-02,-1.418260931968688965e-01,-2.075589001178741455e-01,1.253830343484878540e-01,1.527356654405593872e-01,1.512651145458221436e-01,8.286435157060623169e-02,-1.064409781247377396e-02,2.964246273040771484e-01,-1.649479269981384277e-01,1.961590796709060669e-01,9.695746749639511108e-02,-5.822641402482986450e-02,-6.392773706465959549e-03,1.350736469030380249e-01,-1.765044927597045898e-01,7.057280838489532471e-02,1.602783054113388062e-01,-5.795244127511978149e-02,-9.458911605179309845e-03,1.984619498252868652e-01,1.840757429599761963e-01,1.900530010461807251e-01,3.416182845830917358e-02,-5.724856629967689514e-02,1.562685221433639526e-01,-2.292544394731521606e-02,-1.645636707544326782e-01,2.106681466102600098e-01,2.055131793022155762e-01,3.599422797560691833e-02,-2.138502299785614014e-01,-1.887717545032501221e-01,1.997351795434951782e-01,-1.891895979642868042e-01,-5.761079117655754089e-02,-9.888900071382522583e-02,4.778322763741016388e-03,-2.461839318275451660e-01,1.035360023379325867e-01,6.186712533235549927e-02,-1.805361956357955933e-01,5.765992403030395508e-02,-1.827020794153213501e-01,-1.514998525381088257e-01,4.143773578107357025e-03,1.362319141626358032e-01,6.011376529932022095e-02,-1.184593066573143005e-01,-2.179873585700988770e-01,-5.356964096426963806e-02,-1.633908748626708984e-01,2.264410555362701416e-01,-1.191920787096023560e-01,2.165639549493789673e-01,1.815761476755142212e-01,1.932547613978385925e-02,1.093752086162567139e-01,8.985163271427154541e-02,-2.667446434497833252e-02,-1.193413212895393372e-01,1.273990869522094727e-01,2.109952718019485474e-01,2.807543277740478516e-01,1.351092159748077393e-01,-4.100657254457473755e-02,-7.396590709686279297e-02,9.502368420362472534e-02,-1.360939145088195801e-01,-8.655044250190258026e-03,3.910421952605247498e-02,1.711641997098922729e-01,9.212109446525573730e-02,6.884518265724182129e-02,5.138986185193061829e-02,1.015825718641281128e-01,-2.149251252412796021e-01,-5.452785640954971313e-02,-2.019018307328224182e-02,-1.818316280841827393e-01,2.449988760054111481e-02,-1.056865975260734558e-01,-7.392558455467224121e-02,2.266606092453002930e-01,5.832258984446525574e-02,1.688684374094009399e-01,1.564984023571014404e-01,-1.201152056455612183e-02,4.948294535279273987e-02,-1.201057210564613342e-01,2.085434794425964355e-01,4.817980155348777771e-02,1.880594789981842041e-01,1.227393895387649536e-01,-3.109760582447052002e-03,-1.518953889608383179e-01,-3.853628039360046387e-02,-1.626904159784317017e-01,-1.291378140449523926e-01,-1.012047939002513885e-02,-1.387889236211776733e-01,-1.036564931273460388e-01,9.967992454767227173e-02,-1.846523880958557129e-01,-2.625012993812561035e-01,8.771452307701110840e-02,2.888969611376523972e-03,2.537202835083007812e-01,7.762901484966278076e-02,-8.243433386087417603e-02,-1.035524159669876099e-01,2.119882106781005859e-01,-7.818308472633361816e-02,1.940446048974990845e-01,-1.938603520393371582e-01,7.423304952681064606e-03,-2.337159216403961182e-01,1.823120005428791046e-02,-5.273571237921714783e-02,1.160868853330612183e-01,1.939124315977096558e-01,1.566613018512725830e-01,-1.292338520288467407e-01,9.527590125799179077e-02,1.427926421165466309e-01,8.259317278861999512e-02,-2.336331643164157867e-02,-7.672289013862609863e-02,1.831891201436519623e-02,-2.692536115646362305e-01,-1.725285798311233521e-01,-1.516084820032119751e-01,1.051549240946769714e-01,5.637521389871835709e-03,8.527951687574386597e-02,-9.609298408031463623e-02,-1.303154528141021729e-01,-7.916764169931411743e-02,1.340217441320419312e-01,-6.028871983289718628e-02,8.746235631406307220e-03,2.339462488889694214e-01,3.921337425708770752e-03,7.399554550647735596e-02,1.914548277854919434e-01,-1.748398095369338989e-01,-1.040040329098701477e-01,5.362858250737190247e-02,-4.962689802050590515e-02,-4.854364320635795593e-02,-2.632597088813781738e-01,-5.135644972324371338e-02,-1.847222447395324707e-01,4.857471957802772522e-02,-2.095823548734188080e-02,-5.087518692016601562e-02,-2.263962291181087494e-02,2.514074146747589111e-01,1.820751279592514038e-02,-2.970494329929351807e-01,-1.322414278984069824e-01,1.278847362846136093e-02,8.627376705408096313e-02,-6.144810933619737625e-03,2.834621667861938477e-01,-1.017559170722961426e-01,-2.017242908477783203e-01,7.156002521514892578e-02,-3.166589513421058655e-02,-6.090944632887840271e-02,-1.471904665231704712e-02,-7.597348093986511230e-02,1.146912947297096252e-01,3.103407472372055054e-02,9.490295499563217163e-02,9.095299988985061646e-02,-1.842298917472362518e-02,1.365947127342224121e-01,-9.634895622730255127e-02,2.428588271141052246e-01,-5.322755128145217896e-02,3.627059981226921082e-02,6.243313848972320557e-02,-2.753067016601562500e-02,-2.140052057802677155e-02,1.539434399455785751e-02,7.407284528017044067e-02,-1.250163018703460693e-01,-2.528150333091616631e-03,-1.564168334007263184e-01,-6.098327785730361938e-02,-7.284570485353469849e-03,-1.542165577411651611e-01,-1.665610820055007935e-01,8.741762489080429077e-02,-1.403166204690933228e-01,1.698878705501556396e-01,-1.528950929641723633e-01,2.144520170986652374e-02,1.997657865285873413e-01,-1.426265239715576172e-01,1.464623361825942993e-01,-6.371354311704635620e-02,-1.985836625099182129e-01,-1.990901827812194824e-01,-9.884910285472869873e-02,2.577661164104938507e-02,-4.545418545603752136e-02,1.846433728933334351e-01,1.893406957387924194e-01,-2.310773357748985291e-02,2.221021614968776703e-02,7.485064864158630371e-02,6.998113542795181274e-02,-8.792208135128021240e-02,-1.017148941755294800e-01,1.760032325983047485e-01,2.318271808326244354e-02,-2.394417822360992432e-01,4.223734885454177856e-02,2.137073874473571777e-01,-2.328466475009918213e-01,-7.977905869483947754e-02,-1.100789830088615417e-01,9.162933379411697388e-02,-2.174657136201858521e-01,-6.880853325128555298e-02,-7.639314979314804077e-02,-4.260907880961894989e-03,-3.156510740518569946e-02,7.217003405094146729e-02,3.911144658923149109e-02,7.065520039759576321e-04,2.446349114179611206e-01,-1.316016614437103271e-01,1.746975034475326538e-01,-5.760386213660240173e-02,3.269606083631515503e-02,1.162830889225006104e-01,-2.400785218924283981e-03,1.551356315612792969e-01,-5.468486249446868896e-02,-1.339632570743560791e-01,-8.164943009614944458e-02,-2.091265171766281128e-01,9.399661421775817871e-02,2.217701170593500137e-03,4.856136511079967022e-04,3.105839788913726807e-01,-8.642204105854034424e-02,-2.497441768646240234e-01,1.706000417470932007e-01,-2.373260408639907837e-01,-3.279528766870498657e-02,-6.785451620817184448e-02,-3.781957179307937622e-02,2.456545270979404449e-02,-2.047953754663467407e-01,-1.135663464665412903e-01,-2.794416248798370361e-02,2.248165607452392578e-01,1.826390251517295837e-02,1.798286885023117065e-01,1.845731586217880249e-01,-9.416143596172332764e-02,7.046719640493392944e-02,-1.499022543430328369e-01,-8.082274347543716431e-02,1.395444967783987522e-03,1.005480810999870300e-01,-1.337997019290924072e-01,8.495227247476577759e-02,-2.098083794116973877e-01,4.507353901863098145e-02,2.313231229782104492e-01,-2.425124309957027435e-02,8.937416225671768188e-02,-2.264342904090881348e-01,-1.395610272884368896e-01,-8.167888969182968140e-02,-3.800236806273460388e-02,-1.861035525798797607e-01,2.337326407432556152e-01,5.429634079337120056e-02,8.188179135322570801e-02,-1.797579824924468994e-01,1.806921791285276413e-03,1.054242253303527832e-01,-2.770806252956390381e-01,4.947840049862861633e-02,9.704249352216720581e-02,1.735730916261672974e-01,-1.799735873937606812e-01,8.732442557811737061e-02,-1.735541075468063354e-01,-5.474692210555076599e-02,-2.054263353347778320e-01,1.505038440227508545e-01,-1.175922378897666931e-01,-2.829462848603725433e-02,6.568339467048645020e-02,1.082484703510999680e-02,5.266063287854194641e-02,-2.504349686205387115e-02,-3.258203342556953430e-02,1.004117131233215332e-01,-5.042796209454536438e-02,-2.858479917049407959e-01,1.066605299711227417e-01,1.827313452959060669e-01,1.853674203157424927e-01,7.346387207508087158e-02,1.482794135808944702e-01,7.116588950157165527e-02,4.596114531159400940e-02,2.000874839723110199e-02,1.631822437047958374e-01,2.010735869407653809e-01,4.998707771301269531e-02,1.046595200896263123e-01,-2.466211318969726562e-01,-5.520116537809371948e-02,1.299448758363723755e-01,-1.851032227277755737e-01,-1.643374562263488770e-01,3.332731500267982483e-02,-2.111689001321792603e-01,-1.419187337160110474e-01,-1.700030863285064697e-01,-4.932565614581108093e-03,-3.362340033054351807e-01,-2.455958276987075806e-01,-1.649965941905975342e-01,-4.852534085512161255e-02,-1.243809014558792114e-01,9.352698177099227905e-02,1.357816904783248901e-01,1.909717172384262085e-01,-3.048046305775642395e-02,-2.712831199169158936e-01,-2.330990135669708252e-01,3.670187667012214661e-02,1.654506660997867584e-02,1.671728342771530151e-01,1.381539851427078247e-01,-1.062227487564086914e-01,-1.542490627616643906e-02,2.541933208703994751e-02,3.184605017304420471e-02,5.374050885438919067e-02,1.002669706940650940e-01,-1.025485470890998840e-01,-2.018880844116210938e-01,1.490722745656967163e-01,-1.267646700143814087e-01,1.968076080083847046e-02,2.827459573745727539e-01,1.237040236592292786e-01,-2.124931290745735168e-02,-9.728633612394332886e-02,-2.142539024353027344e-01,-1.751122772693634033e-01,3.539296565577387810e-03,-2.768287993967533112e-02,3.730817437171936035e-01,1.993275731801986694e-01,2.403671592473983765e-01,2.086307853460311890e-01,-8.021058514714241028e-03,-1.511278748512268066e-01,-1.112998276948928833e-01,3.552312403917312622e-02,-1.249224692583084106e-01,1.158354952931404114e-01,1.271991580724716187e-01,5.673398450016975403e-02,9.433209151029586792e-02,-1.254888921976089478e-01,-2.327182143926620483e-02,9.780082851648330688e-02,-2.198478430509567261e-01,-6.146822497248649597e-02,-4.732319340109825134e-02,-1.603021025657653809e-01,-2.152548879384994507e-01,4.140505939722061157e-02,-1.141298487782478333e-01,-1.124746575951576233e-01,-1.122667714953422546e-01,-5.916754901409149170e-02,-1.141692744567990303e-03,-1.263300478458404541e-01,1.238648444414138794e-01,4.867566376924514771e-02,1.300816684961318970e-01,1.088533364236354828e-02,-1.666292101144790649e-01,1.461234539747238159e-01,-5.692806839942932129e-02,2.602268010377883911e-02,2.915292382240295410e-01,-8.492229133844375610e-02,-7.185663282871246338e-02,-6.915242224931716919e-02,-2.879925370216369629e-01,-2.151407860219478607e-02,-9.953210502862930298e-02,8.136342465877532959e-02,-1.265766024589538574e-01,-5.668146163225173950e-02,-2.501101493835449219e-01,2.571245431900024414e-01,5.056427791714668274e-02,9.305781871080398560e-02,1.395318806171417236e-01,-1.007638499140739441e-01,-9.145615994930267334e-02,-3.507759794592857361e-02,1.388088166713714600e-01,-9.747394360601902008e-03,-2.546487748622894287e-02,-9.830078482627868652e-02,5.454415827989578247e-02,-8.941321074962615967e-02,-9.883463382720947266e-02,-2.783915027976036072e-02,1.394651830196380615e-01,8.276210725307464600e-02,2.437217384576797485e-01,1.708214432001113892e-01,-1.622790694236755371e-01,-4.992222413420677185e-02,-1.663531512022018433e-01,-1.919646859169006348e-01,1.388603299856185913e-01,6.091160699725151062e-02,9.256930649280548096e-02,-5.706017464399337769e-02,1.326067149639129639e-01,-2.607335746288299561e-01,4.840910062193870544e-02,-1.655593961477279663e-01,2.097679078578948975e-01,2.080098539590835571e-01,1.122468784451484680e-01,2.987596765160560608e-02,2.174766063690185547e-01,2.383608669042587280e-01,-1.528514772653579712e-01,2.221937850117683411e-02,-1.151362359523773193e-01,1.004391536116600037e-01,8.409799635410308838e-02,4.853879509028047323e-04,-1.500481665134429932e-01,5.472422018647193909e-02,6.722509860992431641e-02,-1.911981105804443359e-01,-4.646021872758865356e-02,4.177026078104972839e-02,-1.191910281777381897e-01,-1.924997866153717041e-01,6.192349642515182495e-02,-8.656196296215057373e-02,-1.048255711793899536e-01,-6.690847873687744141e-02,3.113581798970699310e-02,-1.151597276329994202e-01,-5.713386088609695435e-02,-1.254621148109436035e-01,-2.958791516721248627e-02,-2.040730863809585571e-01,1.546463370323181152e-01,1.933753192424774170e-01,-2.598473727703094482e-01,-3.053302690386772156e-02,-1.208273321390151978e-01,7.208558917045593262e-02,1.955446749925613403e-01,2.053650021553039551e-01,-4.703291691839694977e-03,-1.735694557428359985e-01,1.294458210468292236e-01,9.427527338266372681e-02,1.643032282590866089e-01,-2.295941412448883057e-01,-2.874644286930561066e-02,-1.172843948006629944e-01,-8.748867362737655640e-02,-4.969444125890731812e-02,2.387978285551071167e-01,1.287522912025451660e-01,1.941914260387420654e-01,-2.173434644937515259e-01,7.328342646360397339e-02,1.595220714807510376e-01,-4.566791281104087830e-02,-2.128013595938682556e-02,6.209949031472206116e-02,6.986875087022781372e-02,-9.377642534673213959e-03,-1.295996084809303284e-02,-4.279708862304687500e-02,8.202008903026580811e-02,-2.069047391414642334e-01,-1.415359228849411011e-01,-2.245181649923324585e-01,-3.387232497334480286e-02,1.653662621974945068e-01,-3.929372504353523254e-02,-1.070108860731124878e-01,-1.068547070026397705e-01,1.857394427061080933e-01,-4.544745981693267822e-01,1.254048496484756470e-01,-7.489623874425888062e-02,-2.514967322349548340e-01,1.429154425859451294e-01,2.123394757509231567e-01,-2.432318031787872314e-01,3.235386312007904053e-02,6.688606739044189453e-02,7.053745910525321960e-03,-3.233411908149719238e-02,1.760170012712478638e-01,3.990031033754348755e-02,2.656069397926330566e-01,2.606046795845031738e-01,-6.276629865169525146e-02,2.191881835460662842e-01,-3.249192982912063599e-02,-1.730883568525314331e-01,-8.940637856721878052e-02,1.246265843510627747e-01,-1.049688756465911865e-01,3.546723350882530212e-02,-1.822627782821655273e-01,-2.623844146728515625e-01,-9.904227405786514282e-02,8.454069495201110840e-02,-2.470224536955356598e-02,-1.884770393371582031e-01,-1.859227865934371948e-01,-2.045523934066295624e-02,-1.635993123054504395e-01,4.567993804812431335e-02,5.164786800742149353e-02,-4.048013687133789062e-02,-4.008710756897926331e-02,-5.460877344012260437e-02,-7.754882425069808960e-02,3.904077783226966858e-02,-2.046031355857849121e-01,7.798337936401367188e-02,-3.791739046573638916e-02,1.853141933679580688e-01,4.184804856777191162e-02,1.483042240142822266e-01,2.389393299818038940e-01,1.101654618978500366e-01,1.198168098926544189e-01,-1.522762328386306763e-01,1.053952723741531372e-01,-8.250570856034755707e-03,-5.725053697824478149e-02,-7.042975164949893951e-03,-6.069620605558156967e-03,-1.370886862277984619e-01,-4.439264163374900818e-02,-1.778981089591979980e-01,-1.488808393478393555e-01,3.684096038341522217e-02,1.174955442547798157e-01,-6.650395691394805908e-02,3.016231348738074303e-03,1.015572249889373779e-02,8.229029178619384766e-02,-1.356771737337112427e-01,4.642962664365768433e-02,2.774099409580230713e-01,1.518458276987075806e-01,1.190758273005485535e-01,-1.098452657461166382e-01,6.422788649797439575e-02,-3.009668290615081787e-01,-1.877284795045852661e-01,-1.756735332310199738e-02,4.692384228110313416e-02,1.576072871685028076e-01,5.202977359294891357e-02,-6.468670070171356201e-02,-1.386937452480196953e-03,-4.610113054513931274e-02,1.472189426422119141e-01,-3.193360939621925354e-02,-4.342497885227203369e-02,9.947945177555084229e-02,1.211475804448127747e-01,1.952848881483078003e-01,-1.077007204294204712e-01,-1.675219386816024780e-01,-1.722754240036010742e-01,-4.576723277568817139e-02,-2.947490476071834564e-02,-7.395464926958084106e-02,1.176690608263015747e-01,4.234400019049644470e-02,2.463332563638687134e-02,-3.479596599936485291e-02,-8.708731085062026978e-02,1.576252877712249756e-01,3.572180494666099548e-02,-3.518867865204811096e-02,-9.517809003591537476e-02,-1.436940580606460571e-01,-2.139757573604583740e-01,2.211717516183853149e-01,1.431187689304351807e-01,-2.630041837692260742e-01,-2.203382924199104309e-02,-1.365803927183151245e-01,2.327027320861816406e-01,4.464239627122879028e-02,2.431215159595012665e-02,-7.723215036094188690e-03,1.463508605957031250e-01,-2.708094716072082520e-01,-1.484542060643434525e-02,-9.336524643003940582e-03,1.584327220916748047e-01,1.569837331771850586e-01,-2.557303607463836670e-01,-3.526883944869041443e-02,-2.108017802238464355e-01,1.131338998675346375e-01,-1.719097793102264404e-01,-9.394585341215133667e-02,-6.616855412721633911e-02,1.228405535221099854e-01,1.698094457387924194e-01,-1.449823230504989624e-01,4.788172617554664612e-02,5.335044488310813904e-02,-1.503526568412780762e-01,-1.552297454327344894e-02,1.240809038281440735e-01,1.248376537114381790e-02,-1.438587158918380737e-01,-1.270345598459243774e-01,3.439953923225402832e-02,9.818560630083084106e-02,5.704667791724205017e-02,-6.596857309341430664e-02,1.616823673248291016e-02,1.767960637807846069e-01,1.873447000980377197e-01,2.474262006580829620e-02,3.141402900218963623e-01,1.694758608937263489e-02,-4.846930876374244690e-02,-5.397304892539978027e-02,-1.349057406187057495e-01,-1.747188344597816467e-02,2.199999541044235229e-01,1.759268343448638916e-01,2.103271484375000000e-01,-1.169094443321228027e-01,2.556873671710491180e-02,-2.175677567720413208e-01,-2.143812738358974457e-02,3.795498311519622803e-01,4.769959673285484314e-02,-1.552238762378692627e-01,-7.493262737989425659e-02,-5.125023797154426575e-02,-1.377536449581384659e-02,1.690075993537902832e-01,1.121141985058784485e-01,-1.685981899499893188e-01,-8.705314248800277710e-02,-1.856698989868164062e-01,1.857986859977245331e-02,1.091251298785209656e-01,-3.198844939470291138e-02,-1.724950820207595825e-01,1.302601844072341919e-01,-1.378653496503829956e-01,-2.084359973669052124e-01,-2.903232872486114502e-01,-1.632293909788131714e-01,3.037915825843811035e-01,-4.469209164381027222e-02,-7.734916359186172485e-02,-1.102109849452972412e-01,-2.376311272382736206e-02,1.266336590051651001e-01,-3.180727735161781311e-02,-8.178967982530593872e-03,-1.276064068078994751e-01,1.246179267764091492e-02,1.032188236713409424e-01,-2.358843982219696045e-01,-1.319427788257598877e-01,-1.864046752452850342e-01,-1.451567858457565308e-01,-2.140389978885650635e-01,7.090126723051071167e-02,-1.069492474198341370e-01,2.637125253677368164e-01,-3.879901394248008728e-02,2.357035279273986816e-01,8.066777139902114868e-02,1.266760285943746567e-02,3.137473762035369873e-01,-8.712580800056457520e-02,-2.662940919399261475e-01,-2.995772473514080048e-02,-3.931586444377899170e-02,-1.198534294962882996e-01,-1.716823279857635498e-01,-5.110986158251762390e-02,-1.660041064023971558e-01,1.163555383682250977e-01,1.692049503326416016e-01,-6.205368414521217346e-02,-1.246830448508262634e-02,-2.114589363336563110e-01,-1.879974156618118286e-01,-1.998771578073501587e-01,-2.814887464046478271e-01,1.520851850509643555e-01,-1.228563115000724792e-01,-1.952997446060180664e-01,1.244136020541191101e-01,-2.605753242969512939e-01,-1.251861155033111572e-01,-3.917638957500457764e-02,-1.497157812118530273e-01,1.758867949247360229e-01,1.278343498706817627e-01,6.870643701404333115e-03,1.491651833057403564e-01,1.733585894107818604e-01,5.031363666057586670e-02,-8.391592651605606079e-02,-9.467468410730361938e-02,-8.616110682487487793e-02,-7.995051890611648560e-02,-3.570132330060005188e-02,-1.546096503734588623e-01,9.504034370183944702e-02,1.489642858505249023e-01,-1.611769050359725952e-01,1.523014754056930542e-01,-4.583045374602079391e-03,-1.192658767104148865e-01,-1.019938290119171143e-01,2.248101681470870972e-01,8.839708566665649414e-02,-4.897850379347801208e-02,1.264988183975219727e-01,-4.616897553205490112e-02,4.685460031032562256e-02,1.492434926331043243e-02,-9.171574562788009644e-02,-1.164707913994789124e-01,-1.558756362646818161e-02,2.341118752956390381e-01,1.086932420730590820e-01,-5.146445473656058311e-04,-6.052169948816299438e-02,2.192911356687545776e-01,2.197428196668624878e-01,-1.900325156748294830e-02,-1.351678967475891113e-01,-1.144662946462631226e-01,8.792683482170104980e-02,-1.740557700395584106e-02,9.754337370395660400e-02,1.991955041885375977e-01,1.792241781949996948e-01,-1.498878300189971924e-01,1.794597655534744263e-01,-1.186944991350173950e-01,-1.509331166744232178e-01,7.964768260717391968e-02,3.473619464784860611e-03,-4.070428013801574707e-01,1.167484596371650696e-01,-6.815594434738159180e-02,2.483495920896530151e-01,-1.744198948144912720e-01,-2.147006541490554810e-01,5.963850393891334534e-02,5.090977251529693604e-02,1.380909085273742676e-01,-5.252226814627647400e-02,2.151060700416564941e-01,2.160030752420425415e-01,2.025979105383157730e-03,-8.069997280836105347e-02,7.505463808774948120e-02,-1.461625546216964722e-01,-1.036878079175949097e-01,-2.512386739253997803e-01,1.524915695190429688e-01,-9.801402688026428223e-02,-1.480596363544464111e-01,-9.411554038524627686e-02,2.241256088018417358e-02,2.400018088519573212e-02,-2.344528287649154663e-01,8.656511455774307251e-02,1.588218212127685547e-01,-6.788963824510574341e-02,1.191011741757392883e-01,8.808416873216629028e-02,-1.464991867542266846e-01,-7.236399501562118530e-02,2.451222389936447144e-01,-1.262885034084320068e-01,3.247452154755592346e-02,4.754039645195007324e-02,2.464824467897415161e-01,-7.163033634424209595e-02,1.748815625905990601e-01,-9.980099648237228394e-02,-1.322747468948364258e-01,2.620909214019775391e-01,9.090890735387802124e-02,-1.505317240953445435e-01,-2.731850743293762207e-02,3.094477392733097076e-02,1.605915129184722900e-01,-5.391687527298927307e-02,-6.391107104718685150e-03,-9.395883977413177490e-02,1.525430530309677124e-01,-5.042772740125656128e-02,-8.389852941036224365e-02,-1.759137511253356934e-01,-2.585085630416870117e-01,-4.006374999880790710e-02,-2.193761467933654785e-01,1.485209763050079346e-01,1.654953956604003906e-01,5.951587483286857605e-02,1.212181616574525833e-02,-7.363358885049819946e-02,-5.789760500192642212e-02,2.363006817176938057e-03,-5.825217440724372864e-02,-1.529343575239181519e-01,-4.270899295806884766e-02,-1.597663462162017822e-01,4.858735203742980957e-02,2.218790799379348755e-01,-7.886330783367156982e-02,-7.848265767097473145e-02,-5.653769895434379578e-02,-1.657790318131446838e-02,-1.539970785379409790e-01,2.569738961756229401e-02,1.442960649728775024e-01,-9.778283536434173584e-02,6.185582280158996582e-02,-7.480905205011367798e-02,1.399847269058227539e-01,1.337658017873764038e-01,2.835185229778289795e-01,1.185679249465465546e-02,1.168540492653846741e-01,2.848592400550842285e-02,-1.574238389730453491e-02,-1.832048147916793823e-01,4.818098992109298706e-02,-2.123126387596130371e-01,-3.573883697390556335e-02,-1.747443377971649170e-01,-6.649985909461975098e-02,1.347054690122604370e-01,1.082155704498291016e-01,-4.185793921351432800e-02,-9.852241724729537964e-03,1.531693041324615479e-01,1.116473078727722168e-01,2.089066654443740845e-01,7.149869203567504883e-02,1.591219156980514526e-01,-6.190080940723419189e-02,-1.719548553228378296e-01,-1.280942000448703766e-02,-8.824343979358673096e-02,-1.090292260050773621e-01,-8.522655814886093140e-02,-9.350576251745223999e-02,-1.888991892337799072e-01,6.692317128181457520e-02,1.277505885809659958e-02,-9.167306870222091675e-02,6.647486984729766846e-02,-2.437981218099594116e-02,-1.216699108481407166e-01,-8.675489574670791626e-02,4.420648887753486633e-02,-2.548780106008052826e-02,3.143511712551116943e-02,2.603116929531097412e-01,1.606330126523971558e-01,5.720043182373046875e-02,-1.595935076475143433e-01,-1.046905294060707092e-01,-9.855391085147857666e-02,7.323235273361206055e-02,-1.086516007781028748e-01,5.520632490515708923e-02,-5.872425809502601624e-02,-1.523552238941192627e-01,-9.131050109863281250e-02,8.930864185094833374e-02,-2.017962187528610229e-02,-1.015556827187538147e-01,-7.570772897452116013e-03,1.825052872300148010e-02,3.874067962169647217e-02,3.409526869654655457e-02,4.366398230195045471e-02,1.938188374042510986e-01,-5.068295821547508240e-02,-8.006455749273300171e-02,6.672050803899765015e-02,-1.784776896238327026e-01,-6.724023818969726562e-02,3.025250434875488281e-01,-8.178472518920898438e-02,-1.452724933624267578e-01,9.626565128564834595e-02,1.426152884960174561e-01,-1.146543771028518677e-01,-6.189383566379547119e-02,-9.377814829349517822e-02,-5.240243673324584961e-02,-1.788844317197799683e-01,1.129338983446359634e-02,3.031505346298217773e-01,-2.535160779953002930e-01,-9.380843490362167358e-02,5.769358947873115540e-02,-2.053910791873931885e-01,1.044158637523651123e-01,4.207411408424377441e-02,8.586554229259490967e-02,1.478811949491500854e-01,-6.287925690412521362e-02,6.888069212436676025e-02,-3.200325667858123779e-01,1.180713064968585968e-03,-7.282136380672454834e-02,1.287657469511032104e-01,4.084973409771919250e-02,-1.639284379780292511e-02,-1.423086076974868774e-01,1.360189914703369141e-01,-7.935037463903427124e-02,6.444101780652999878e-02,1.582946814596652985e-02,2.518867254257202148e-01,-1.560045480728149414e-01,3.705288097262382507e-02,1.059745997190475464e-01,-2.069534808397293091e-01,-1.246638298034667969e-01,1.133542507886886597e-01,-3.642959753051400185e-03,9.076180309057235718e-02,-1.154090985655784607e-01,4.019350931048393250e-02,-1.021140813827514648e-01,-1.738998591899871826e-01,1.652393639087677002e-01,-2.691980898380279541e-01,4.599715396761894226e-02,2.114289402961730957e-01,6.967126578092575073e-02,1.283443272113800049e-01,-1.537707895040512085e-01,5.422230064868927002e-02,-6.923875212669372559e-02,-4.381611570715904236e-02,2.913545370101928711e-01,-7.980229333043098450e-03,-3.534523248672485352e-01,1.412318050861358643e-01,1.156536340713500977e-01,2.436883747577667236e-02,-7.582595199346542358e-02,-1.294137686491012573e-01,-1.142343729734420776e-01,-2.730246074497699738e-02,-9.137208014726638794e-02,-4.523967951536178589e-02,-1.044134050607681274e-01,-1.593660861253738403e-01,1.681755036115646362e-01,1.080784425139427185e-01,-1.285700052976608276e-01,8.557613182347267866e-05,2.294866368174552917e-02,-1.305664032697677612e-01,-1.638517826795578003e-01,1.084183994680643082e-02,1.806696951389312744e-01,-1.907330751419067383e-01,-1.603977084159851074e-01,-4.522973299026489258e-02,-1.225728318095207214e-01,1.288809776306152344e-01,9.865532815456390381e-02,-5.466035008430480957e-02,2.507867850363254547e-02,1.772753745317459106e-01,-1.390948593616485596e-01,1.937701106071472168e-01,-4.147856310009956360e-02,-1.215026602149009705e-01,9.579405188560485840e-02,4.972251132130622864e-02,-1.129123270511627197e-01,-1.015941575169563293e-01,2.093180269002914429e-01,-1.590139567852020264e-01,-9.182351827621459961e-02,-1.356915663927793503e-02,9.353820979595184326e-02,2.345291525125503540e-02,-1.681227833032608032e-01,1.189912781119346619e-01,-1.525307353585958481e-02,7.899541407823562622e-02,1.575111895799636841e-01,3.782476484775543213e-02,2.856591045856475830e-01,-1.193363685160875320e-02,-2.121842801570892334e-01,1.223367005586624146e-01,1.914230287075042725e-01,-2.092806845903396606e-01,2.017416656017303467e-01,8.944646455347537994e-03,4.325982555747032166e-02,6.463390588760375977e-02,-2.359362393617630005e-01,3.804687783122062683e-02,-3.954722359776496887e-02,2.688669972121715546e-02,-1.091938912868499756e-01,-3.938265517354011536e-02,1.387524008750915527e-01,2.954510040581226349e-02,2.574402093887329102e-01,-7.296122610569000244e-02,-1.641299575567245483e-01,-8.478302508592605591e-02,-1.498495489358901978e-01,-3.437544777989387512e-02,-1.301636733114719391e-02,-1.347222924232482910e-01,-5.424743518233299255e-02,4.606569558382034302e-02,-3.318871557712554932e-02,1.089043319225311279e-01,3.355692327022552490e-02,4.258508328348398209e-03,-1.849009245634078979e-01,7.947709411382675171e-02,7.451522350311279297e-02,1.172843202948570251e-01,3.679691851139068604e-01,1.059464737772941589e-01,-1.685231477022171021e-01,-4.388884641230106354e-03,-9.785307943820953369e-02,-1.008568182587623596e-01,2.212542742490768433e-01,1.570289283990859985e-01,1.094431281089782715e-01,-8.612642064690589905e-03,2.113785035908222198e-02,1.960231736302375793e-02,2.023016661405563354e-01,3.788728415966033936e-01,3.390088677406311035e-01,-1.810178011655807495e-01,-5.088463798165321350e-02,1.227267272770404816e-02,-5.570363625884056091e-02,9.277310222387313843e-03,1.344820559024810791e-01,-1.978512853384017944e-01,-1.755380481481552124e-01,6.853202823549509048e-03,1.274373680353164673e-01,7.659260928630828857e-02,-1.514213681221008301e-01,1.148069873452186584e-01,-9.950945526361465454e-02,-1.799042820930480957e-01,3.085571825504302979e-01,1.654221862554550171e-01,-1.616077274084091187e-01,-1.406212002038955688e-01,-7.716237753629684448e-02,-1.227344721555709839e-01,1.335941851139068604e-01,1.661162525415420532e-01,1.868230290710926056e-02,-1.548179984092712402e-01,3.182181715965270996e-01,1.349576562643051147e-01,-1.732027381658554077e-01,-5.808668211102485657e-02,-4.397732118377462029e-05,1.556111574172973633e-01,1.181729510426521301e-01,7.910761982202529907e-02,5.446050688624382019e-02,-1.592415273189544678e-01,7.756900787353515625e-02,-2.966895997524261475e-01,-3.593023419380187988e-01,-2.409004867076873779e-01,5.405995994806289673e-03,1.446573734283447266e-01,-2.841526567935943604e-01,-3.402934223413467407e-02,2.101037949323654175e-01,1.868747025728225708e-01,-7.336303591728210449e-02,-8.609520643949508667e-02,1.912983506917953491e-01,4.023383557796478271e-02,3.058938682079315186e-01,7.778461277484893799e-02,1.184470355510711670e-01,1.734270006418228149e-01,2.072996497154235840e-01,1.332515329122543335e-01,1.064237728714942932e-01,1.354024112224578857e-01,-2.835182100534439087e-02,-2.678280137479305267e-02,2.628979086875915527e-01,5.842309072613716125e-02,-1.952351331710815430e-01,1.348343491554260254e-02,-3.167064785957336426e-01,-1.677629053592681885e-01,9.469940513372421265e-02,-1.503863334655761719e-01,2.145635932683944702e-01,9.347838908433914185e-02,-6.162448972463607788e-02,-1.352965738624334335e-02,-1.240639910101890564e-01,8.512824773788452148e-02,1.138863340020179749e-01,-1.438849568367004395e-01,-2.550217323005199432e-02,9.853499382734298706e-02,1.922389119863510132e-01,-2.941316664218902588e-01,-6.935695558786392212e-02,-1.528423745185136795e-02,4.686582833528518677e-02,1.945479661226272583e-01,-2.476657480001449585e-01,7.611157745122909546e-02,1.626835614442825317e-01,-6.365323066711425781e-02,4.380477219820022583e-02,2.077351659536361694e-01,1.946123093366622925e-01,-9.548030793666839600e-03,2.266601622104644775e-01,2.678231894969940186e-01,-3.035729937255382538e-02,-2.329618036746978760e-01,-3.353293538093566895e-01,1.788652241230010986e-01,-1.104821860790252686e-01,2.293994426727294922e-01,-1.113444268703460693e-01,-1.231768578290939331e-01,1.872817575931549072e-01,1.756485104560852051e-01,4.022732749581336975e-02,2.373987436294555664e-02,9.112412482500076294e-02,2.543864250183105469e-01,1.375802159309387207e-01,-2.377007901668548584e-01,1.283906549215316772e-01,-7.854307442903518677e-02,-1.355217993259429932e-01,2.124927788972854614e-01,-9.873648732900619507e-02,1.339753121137619019e-01,-2.951172292232513428e-01,-1.096923053264617920e-01,4.128095507621765137e-02,1.997121050953865051e-02,3.132843971252441406e-01,1.426199637353420258e-02,-7.532072067260742188e-02,-1.594734489917755127e-01,8.068934828042984009e-02,1.064822077751159668e-01,-1.339956372976303101e-01,-3.415573388338088989e-02,-1.193447262048721313e-01,-1.413104385137557983e-01,-8.138232678174972534e-02,-8.421483635902404785e-02,1.743386238813400269e-01,1.373849213123321533e-01,1.478619873523712158e-01,2.876046858727931976e-02,-1.721701025962829590e-01,1.668815314769744873e-01,-2.011522501707077026e-01,5.690435320138931274e-02,-1.257161647081375122e-01,-2.639960646629333496e-01,3.294337540864944458e-02,7.060165703296661377e-02,-6.027201563119888306e-02,-1.213534027338027954e-01,5.375568941235542297e-02,1.671228557825088501e-01,-1.202714294195175171e-01,-1.130087077617645264e-01,-1.513224095106124878e-01,-8.082718402147293091e-02,-1.469357013702392578e-01,1.560171321034431458e-02,-1.761678159236907959e-01,1.778326183557510376e-01,1.200157031416893005e-01,1.190419793128967285e-01,3.544379025697708130e-02,-5.119296163320541382e-02,1.377242952585220337e-01,-5.748037248849868774e-02,6.777889281511306763e-02,-2.602328360080718994e-01,-1.904743760824203491e-01,-3.591997548937797546e-02,3.950228169560432434e-02,-5.983283743262290955e-02,1.192210242152214050e-01,1.128313839435577393e-01,-6.982216984033584595e-02,1.087228395044803619e-02,-1.133142411708831787e-01,-8.841508068144321442e-03,-1.571404039859771729e-01,1.397978663444519043e-01,-1.927336305379867554e-01,-3.735919669270515442e-02,-5.342905968427658081e-02,1.235045418143272400e-01,5.428008362650871277e-02,1.941173821687698364e-01,-2.029169052839279175e-01,-2.972740866243839264e-02,8.729891851544380188e-03,1.001056507229804993e-01,-5.360510572791099548e-02,2.519656419754028320e-01,-9.043802320957183838e-02,5.685213580727577209e-02,8.145701885223388672e-02,-1.443162709474563599e-01,1.267300695180892944e-01,-1.927574574947357178e-01,1.862702816724777222e-01,1.475309133529663086e-01,-2.078684717416763306e-01,-1.422653794288635254e-01,-7.887646555900573730e-02,2.734246104955673218e-02,1.905951648950576782e-01,-5.182505771517753601e-02,-1.571926623582839966e-01,-1.727983802556991577e-01,-2.183002978563308716e-02,-7.904697209596633911e-02,1.421450674533843994e-01,-8.778501302003860474e-02,3.336396440863609314e-02,1.246009469032287598e-01,4.376888647675514221e-02,-2.466289699077606201e-01,1.027446687221527100e-01,-1.321292668581008911e-01,4.850050061941146851e-02,7.565912604331970215e-02,-1.975147873163223267e-01,8.596102148294448853e-02,3.170070648193359375e-01,1.904194653034210205e-01,8.352950960397720337e-02,-4.562575370073318481e-02,-5.048169195652008057e-02,-1.696427166461944580e-01,4.568853229284286499e-02,-6.508528441190719604e-02,8.602388203144073486e-02,2.486539781093597412e-01,8.074507862329483032e-02,-3.182932138442993164e-01,7.393322419375181198e-03,-1.047508940100669861e-01,-2.734194137156009674e-02,-9.958454966545104980e-02,-3.358930945396423340e-01,5.666429549455642700e-02,2.701841294765472412e-01,-1.235741227865219116e-01,-2.320761978626251221e-01,-1.978776901960372925e-01,7.645842432975769043e-02,2.222815603017807007e-01,3.816409781575202942e-02,-2.335565239191055298e-01,-5.310120433568954468e-02,2.518147826194763184e-01,-2.232690006494522095e-01,3.211518377065658569e-02,1.210692003369331360e-01,-1.274757459759712219e-02,-1.290849894285202026e-01,3.155118599534034729e-02,3.752350434660911560e-02,-1.258737742900848389e-01,1.393560469150543213e-01,-7.196834683418273926e-02,9.543647617101669312e-02,-2.777177467942237854e-02,1.794645190238952637e-01,-3.535464033484458923e-02,2.050576210021972656e-01,1.240337863564491272e-01,1.586991995573043823e-01,7.584764808416366577e-02,-1.717858761548995972e-01,-1.913048475980758667e-01,6.109204888343811035e-02,1.969504207372665405e-01,7.280185818672180176e-02,-1.919044703245162964e-01,4.081960022449493408e-02,2.032312452793121338e-01,1.249490529298782349e-01,-1.660727262496948242e-01,-1.643448919057846069e-01,1.412146836519241333e-01,-7.568341493606567383e-02,-1.620750576257705688e-01,-8.215320855379104614e-02,1.244730651378631592e-01,2.115222066640853882e-01,1.674627512693405151e-01,6.659737229347229004e-02,1.106697469949722290e-01,-1.920306682586669922e-01,-1.987291127443313599e-01,-8.995472639799118042e-02,-1.239745616912841797e-01,4.914613813161849976e-02,-1.612052917480468750e-01,5.100298672914505005e-02,5.764563754200935364e-02,-2.321724742650985718e-01,-2.094990760087966919e-01,-1.880835145711898804e-01,-2.257414162158966064e-02,-1.549826413393020630e-01,3.573691472411155701e-02,-3.574730083346366882e-02,2.098652124404907227e-01,-1.333037763833999634e-01,-8.060897886753082275e-02,1.389315426349639893e-01,-2.145792394876480103e-01,1.683893352746963501e-01,-2.763628959655761719e-01,1.205975636839866638e-01,2.219981998205184937e-01,1.141010224819183350e-01,-5.193527042865753174e-02,-1.308979094028472900e-01,1.456845700740814209e-01,-1.995553523302078247e-01,9.161504358053207397e-02,-1.449947655200958252e-01,-2.944546937942504883e-02,8.878388255834579468e-02,2.935670614242553711e-01,-8.488520234823226929e-02,-9.026676416397094727e-03,-1.339730471372604370e-01,-2.189265936613082886e-01,-5.011769756674766541e-02,2.180428244173526764e-02,2.228184789419174194e-01,-1.572096198797225952e-01,4.262755066156387329e-02,-2.362842857837677002e-01,1.556869596242904663e-01,5.882204975932836533e-03,1.473129689693450928e-01,-1.156911030411720276e-01,3.001858890056610107e-01,-2.675188779830932617e-01,6.612744927406311035e-02,1.197139322757720947e-01,2.191814780235290527e-01,-2.480614483356475830e-01,8.437667042016983032e-02,-4.025300145149230957e-01,3.920736536383628845e-02,2.345709055662155151e-01,-2.742319926619529724e-02,-6.993303447961807251e-02,2.039274424314498901e-01,-1.519384086132049561e-01,-1.086636111140251160e-01,-1.548597663640975952e-01,1.304087340831756592e-01,8.712759613990783691e-02,-3.102107904851436615e-02,-4.491958022117614746e-02,6.210707500576972961e-02,-1.683304458856582642e-01,1.426536142826080322e-01,-5.843474343419075012e-02,7.190307229757308960e-02,3.079342544078826904e-01,2.218913584947586060e-01,-2.454598248004913330e-01,-2.703248560428619385e-01,-1.269370615482330322e-01,-1.529221534729003906e-01,-1.889717206358909607e-02,-3.293277323246002197e-01,-9.482070803642272949e-02,-1.927929930388927460e-02,-2.065476030111312866e-01,-1.147063667303882539e-04,1.064295321702957153e-01,-3.267482668161392212e-02,1.564063280820846558e-01,-1.327250003814697266e-01,2.443930208683013916e-01,7.597536593675613403e-02,-8.912657201290130615e-02,-6.143089756369590759e-02,1.177163943648338318e-01,1.339309215545654297e-01,-9.902191907167434692e-02,2.229009382426738739e-02,4.797399416565895081e-02,-3.461226588115096092e-03,1.926008798182010651e-02,1.288295686244964600e-01,-4.780018329620361328e-02,-1.323114037513732910e-01,-1.421603113412857056e-01,8.107442408800125122e-02,6.688229739665985107e-02,7.405489683151245117e-02,-4.111377056688070297e-03,-3.775876387953758240e-02,4.933240637183189392e-02,-1.029136031866073608e-01,-1.415731459856033325e-01,7.161486893892288208e-02,-4.969438165426254272e-02,-1.606518328189849854e-01,1.560423970222473145e-01,2.648849785327911377e-01,7.242053747177124023e-02,-1.123537123203277588e-01,-1.475970745086669922e-01,-3.260568901896476746e-02,1.379314512014389038e-01,1.444581747055053711e-01,1.719815433025360107e-01,2.470457702875137329e-01,2.311600744724273682e-01,2.016671448945999146e-01,1.795157939195632935e-01,1.955934911966323853e-01,-9.587326645851135254e-02,-1.405567675828933716e-01,-1.445831805467605591e-01,-8.691441267728805542e-02,1.643103361129760742e-01,1.711232066154479980e-01,-2.093733400106430054e-01,1.837758421897888184e-01,9.044039249420166016e-02,-1.680781692266464233e-01,-1.762131042778491974e-02,-8.091375976800918579e-02,-3.783807903528213501e-02,5.629038438200950623e-02,-1.082661077380180359e-01,1.241609454154968262e-02,-2.390448749065399170e-01,-2.090029418468475342e-02,1.108527630567550659e-01,-1.750697344541549683e-01,-1.698359996080398560e-01,4.421376064419746399e-02,-1.227121576666831970e-01,2.451699674129486084e-01,1.887415349483489990e-01,6.086917221546173096e-02,2.298381924629211426e-02,1.747565269470214844e-01,7.620149850845336914e-02,-2.034064084291458130e-01,2.652201615273952484e-02,1.600578278303146362e-01,-1.464397553354501724e-02,1.325778514146804810e-01,-8.299475163221359253e-02,-1.032644212245941162e-01,1.495128404349088669e-02,2.937334030866622925e-02,2.883220277726650238e-02,9.439723938703536987e-02,-1.948362588882446289e-01,2.237748503684997559e-01,1.651432663202285767e-01,1.887462474405765533e-02,1.411884278059005737e-01,1.169996634125709534e-01,1.141259148716926575e-01,-5.791297927498817444e-02,-2.611227706074714661e-02,6.040269508957862854e-02,-1.650760322809219360e-01,-3.789347782731056213e-02,-1.776072531938552856e-01,4.021100699901580811e-03,-2.262435108423233032e-01,9.487035870552062988e-02,1.397188454866409302e-01,-9.308590739965438843e-02,-2.252427190542221069e-01,1.359364092350006104e-01,-1.147373020648956299e-01,2.221199572086334229e-01,9.371755272150039673e-02,-3.839813545346260071e-02,1.142865568399429321e-01,1.986669450998306274e-01,-3.615727275609970093e-02,6.932746618986129761e-02,1.227970123291015625e-01,7.765298336744308472e-02,5.168866738677024841e-02,-7.416449952870607376e-03,1.140530928969383240e-01,-2.133711576461791992e-01,-5.422507598996162415e-02,1.915176361799240112e-01,3.579268977046012878e-02,1.436141431331634521e-01,-1.675447374582290649e-01,1.280321627855300903e-01,1.182310953736305237e-01,-3.047939240932464600e-01,1.174670383334159851e-01,-1.695066690444946289e-01,-1.293521821498870850e-01,1.139416843652725220e-01,-3.474095836281776428e-02,3.161611855030059814e-01,7.698708027601242065e-02,2.341169565916061401e-01,-5.812018737196922302e-02,-2.440484054386615753e-02,2.086600661277770996e-01,7.275844365358352661e-02,1.630142517387866974e-02,-3.352591767907142639e-02,-7.249128073453903198e-02,1.935583166778087616e-02,1.670067943632602692e-02,7.658775895833969116e-02,3.496201336383819580e-02,-2.633378207683563232e-01,7.912240177392959595e-02,-3.422147035598754883e-02,2.011117637157440186e-01,-1.500686258077621460e-01,2.646397426724433899e-02,-1.941917985677719116e-01,1.726803034543991089e-01,9.471865743398666382e-02,1.526330411434173584e-01,-7.145472615957260132e-02,-1.598953306674957275e-01,8.034183643758296967e-03,-8.556360006332397461e-02,-3.247139230370521545e-02,-6.453710049390792847e-02,8.695504814386367798e-02,1.483421325683593750e-01,-2.652681618928909302e-02,-1.120495572686195374e-01,-2.164976298809051514e-01,-1.207406893372535706e-01,-1.947393864393234253e-01,1.122058406472206116e-01,-2.473844736814498901e-01,6.810811907052993774e-02,-2.852362692356109619e-01,4.049158096313476562e-02,8.356235176324844360e-02,1.564192026853561401e-02,-1.562819816172122955e-02,-9.605197608470916748e-02,-1.489107906818389893e-01,2.922260761260986328e-02,3.472837507724761963e-01,-3.144895136356353760e-01,1.126124560832977295e-01,-4.733871668577194214e-02,-3.570546507835388184e-01,-1.059195399284362793e-01,7.833581417798995972e-02,-2.342970818281173706e-01,-1.656345129013061523e-01,1.220338791608810425e-01,-9.185633622109889984e-03,-6.727553904056549072e-02,-1.574713140726089478e-01,1.937658786773681641e-01,1.522630155086517334e-01,-5.224356893450021744e-03,1.551523059606552124e-01,-1.471327394247055054e-01,1.663075238466262817e-01,3.623518720269203186e-02,9.559035301208496094e-02,-1.093686372041702271e-01,2.395327016711235046e-02,-1.007629781961441040e-01,1.932514309883117676e-01,7.652904838323593140e-02,-4.500699043273925781e-02,-2.064239382743835449e-01,-1.848906874656677246e-01,-9.921444207429885864e-02,4.931535571813583374e-02,-2.017186954617500305e-02,-8.181121200323104858e-02,-1.189373210072517395e-01,-2.615286409854888916e-02,3.278018161654472351e-02,-8.679170161485671997e-03,1.890880316495895386e-01,1.119898557662963867e-01,-1.331467926502227783e-01,6.081017479300498962e-02,-6.803401745855808258e-03,-1.628209650516510010e-01,-9.448817372322082520e-02,-3.531774878501892090e-02,4.742904100567102432e-03,-6.707940995693206787e-02,9.809471666812896729e-02,-1.254950165748596191e-01,1.472163051366806030e-01,1.890163421630859375e-01,-1.706154197454452515e-01,-1.074558794498443604e-01,1.314295083284378052e-01,-9.701193124055862427e-02,1.023474335670471191e-01,-3.954339623451232910e-01,6.653965264558792114e-02,2.220315933227539062e-01,-1.225102394819259644e-01,6.562614440917968750e-02,1.450755745172500610e-01,1.409677416086196899e-01,-1.452667415142059326e-01,2.707559987902641296e-02,1.448437571525573730e-01,4.671165347099304199e-02,-1.067748069763183594e-01,-6.490301340818405151e-02,3.050895035266876221e-01,-5.066814273595809937e-02,1.499181538820266724e-01,-6.206127000041306019e-04,-1.205419525504112244e-01,-2.786683477461338043e-02,-1.778070330619812012e-01,8.620362728834152222e-03,4.155730828642845154e-02,7.238486781716346741e-03,4.636389203369617462e-03,1.527363806962966919e-01,9.673164784908294678e-02,-6.490217149257659912e-02,1.627940535545349121e-01,-8.610843122005462646e-02,-2.416862845420837402e-01,1.919657737016677856e-01,-5.114476010203361511e-02,7.601089309900999069e-03,5.514024198055267334e-02,-1.607949286699295044e-01,1.601076498627662659e-02,2.312894463539123535e-01,2.739565633237361908e-02,-1.198734194040298462e-01,1.975246071815490723e-01,-3.317233547568321228e-02,2.027171552181243896e-01,2.796480655670166016e-01,1.033740863204002380e-01,1.552857644855976105e-02,1.609184220433235168e-02,-7.118067890405654907e-02,-1.341363191604614258e-01,-6.054098904132843018e-02,-2.259299755096435547e-01,-5.444539338350296021e-02,-1.787429004907608032e-01,-2.150816768407821655e-01,-9.834658354520797729e-02,4.744080454111099243e-02,4.544983804225921631e-02,2.437202185392379761e-01,-1.978043168783187866e-01,9.754469990730285645e-02,1.697388291358947754e-01,2.446717321872711182e-01,2.165919095277786255e-01,-4.314919561147689819e-02,1.354320049285888672e-01,1.544078886508941650e-01,-2.059135884046554565e-01,6.641919910907745361e-02,1.056667715311050415e-01,-1.170514523983001709e-01,-9.952756017446517944e-02,-1.299538314342498779e-01,-1.587211042642593384e-01,1.661434918642044067e-01,-2.139611840248107910e-01,-2.983028888702392578e-01,-1.886348128318786621e-01,2.908177115023136139e-02,-1.738113462924957275e-01,1.654766350984573364e-01,-1.721970140933990479e-01,-1.376405805349349976e-01,-5.711406096816062927e-02,6.344548612833023071e-02,-4.490183293819427490e-02,-7.079195231199264526e-02,-1.568973958492279053e-01,-1.226579397916793823e-01,-2.280815988779067993e-01,-8.558519184589385986e-02,5.425905343145132065e-03,-2.366978861391544342e-02,-1.935232579708099365e-01,-1.247309446334838867e-01,-1.519877612590789795e-01,-5.993679165840148926e-02,2.387887686491012573e-01,-1.066452115774154663e-01,9.137721732258796692e-03,9.025176614522933960e-02,-8.298070728778839111e-02,2.961162626743316650e-01,5.612960457801818848e-02,8.831679821014404297e-02,4.028150439262390137e-02,5.422785505652427673e-02,-5.662314593791961670e-02,-1.747412234544754028e-01,2.189103513956069946e-01,8.403629064559936523e-02,4.765177890658378601e-02,2.017046213150024414e-01,7.349526882171630859e-02,-1.207338646054267883e-02,9.864144772291183472e-02,1.861775517463684082e-01,3.393892943859100342e-01,1.976909637451171875e-01,-1.629684418439865112e-01,1.202322393655776978e-01,1.801136285066604614e-01,-5.904972925782203674e-02,-5.296448245644569397e-02,2.326495945453643799e-01,6.916066259145736694e-02,8.750391006469726562e-02,-4.574504867196083069e-02,1.689105778932571411e-01,-2.270777970552444458e-01,-8.300997316837310791e-02,-1.470772828906774521e-02,-1.281965672969818115e-01,-9.600359201431274414e-02,-2.416938096284866333e-01,-8.623306453227996826e-02,-3.180666565895080566e-01,6.007174775004386902e-02,-1.180495321750640869e-01,-2.904420346021652222e-02,-1.406479179859161377e-01,-7.937895506620407104e-02,1.425206214189529419e-01,-1.982000470161437988e-01,-8.490045368671417236e-02,-5.034188628196716309e-01,7.031862437725067139e-02,1.180223152041435242e-01,-9.746509045362472534e-02,-3.758199512958526611e-02,-1.419346183538436890e-01,7.437477260828018188e-02,-7.303800433874130249e-02,-1.611810410395264626e-03,6.268677115440368652e-02,1.599641703069210052e-02,-1.858008950948715210e-01,4.648161679506301880e-02,1.362191587686538696e-01,-6.582747213542461395e-03,3.781794384121894836e-02,-3.897823160514235497e-03,1.737177371978759766e-02,2.097230255603790283e-01,2.048081755638122559e-01,-1.281871646642684937e-01,3.201622888445854187e-02,-7.892517745494842529e-02,3.271799162030220032e-02,-1.428545117378234863e-01,1.384914964437484741e-01,-1.460363417863845825e-01,1.577322632074356079e-01,6.946391891688108444e-03,2.735429108142852783e-01,-7.816640287637710571e-02,8.300957828760147095e-02,2.194427725044079125e-05,-1.322579830884933472e-01,1.002122834324836731e-01,1.727441400289535522e-01,1.965008378028869629e-01,3.620261326432228088e-02,1.363721340894699097e-01,5.696074292063713074e-02,-1.158167570829391479e-01,7.272631675004959106e-02,-4.292364045977592468e-02,-8.506251126527786255e-02,2.057148069143295288e-01,-4.343670979142189026e-02,-1.181743219494819641e-01,1.334113627672195435e-01,1.578831523656845093e-01,5.992645025253295898e-02,1.938921809196472168e-01,-2.211681157350540161e-01,-3.258957862854003906e-01,-2.990506030619144440e-02,3.920413181185722351e-02,7.787881046533584595e-02,9.868786484003067017e-02,4.886324331164360046e-02,1.784466952085494995e-01,2.445687651634216309e-01,2.861329615116119385e-01,-2.834738790988922119e-01,1.469916552305221558e-01,-7.355456799268722534e-02,-2.294735014438629150e-01,-1.308340281248092651e-01,1.676254272460937500e-01,1.707394868135452271e-01,7.225262373685836792e-02,-1.130872666835784912e-01,-6.049507111310958862e-02,-1.273993700742721558e-01,-9.775007516145706177e-02,-6.389535963535308838e-02,-1.207797080278396606e-01,-1.550722867250442505e-01,-1.173290833830833435e-01,-1.194397062063217163e-01,2.635013870894908905e-02,8.159387111663818359e-02,2.014601677656173706e-01,-4.991637915372848511e-02,5.958739295601844788e-02,-5.922296643257141113e-02,-7.929931581020355225e-02,-1.344611644744873047e-01,3.878282904624938965e-01,-1.113289743661880493e-01,2.482571750879287720e-01,-1.328338831663131714e-01,-3.543243929743766785e-02,-6.807739287614822388e-02,1.268279403448104858e-01,6.375635415315628052e-02,1.923290193080902100e-01,-5.251966416835784912e-03,-2.445023357868194580e-01,-1.726102828979492188e-01,-4.597748629748821259e-03,9.166251122951507568e-02,8.484436571598052979e-02,-8.355685323476791382e-02,-6.655873358249664307e-02,1.803994178771972656e-01,-1.655854135751724243e-01,-1.556336432695388794e-01,2.930566854774951935e-02,5.929718911647796631e-02,9.519788622856140137e-02,-6.232145428657531738e-02,1.701735556125640869e-01,-1.065067667514085770e-02,-6.566602736711502075e-02,5.429878830909729004e-02,2.198562026023864746e-01,-1.307480335235595703e-01,-1.398431062698364258e-01,1.472799330949783325e-01,1.897547096014022827e-01,1.244001761078834534e-01,-8.569219708442687988e-02,-8.853767812252044678e-02,7.429244369268417358e-02,2.210813611745834351e-01,6.976822018623352051e-02,-7.997836917638778687e-02,8.520160615444183350e-02,1.717763394117355347e-01,4.535893723368644714e-02,1.217681989073753357e-01,-7.023069262504577637e-02,-1.330263614654541016e-01,1.314995735883712769e-01,1.151309609413146973e-01,-4.568614438176155090e-02,-1.857367455959320068e-01,-3.373603895306587219e-02,-9.954806417226791382e-02,7.619273848831653595e-03,1.091376692056655884e-01,1.272781789302825928e-01,7.223102450370788574e-02,-2.447638213634490967e-01,-3.437371924519538879e-02,7.771205902099609375e-02,-1.756651252508163452e-01,-7.142496854066848755e-02,-1.720159500837326050e-01,1.381400674581527710e-01,-5.730460211634635925e-02,-6.390661001205444336e-02,-6.556457281112670898e-02,-5.595059692859649658e-02,4.997466132044792175e-02,1.580137610435485840e-01,1.552651822566986084e-01,1.151361465454101562e-01,9.284978359937667847e-02,1.852073706686496735e-02,-1.232215389609336853e-01,2.253233790397644043e-01,9.559757262468338013e-02,-1.719721406698226929e-02,8.295366168022155762e-02,-7.336185872554779053e-02,5.248975008726119995e-02,-5.673633515834808350e-02,-3.590070083737373352e-02,-5.182245001196861267e-02,-4.356503114104270935e-02,2.002866864204406738e-01,1.894526481628417969e-01,7.791273295879364014e-02,-9.598779678344726562e-02,2.601788379251956940e-02,7.969136536121368408e-02,8.132471144199371338e-02,-7.276237942278385162e-03,5.431456863880157471e-02,-1.192405223846435547e-01,-3.217850923538208008e-01,-7.099379599094390869e-02,-8.826081454753875732e-02,-6.118009611964225769e-02,-2.457760423421859741e-01,1.810941845178604126e-01,-7.123622577637434006e-03,-6.955369375646114349e-03,-1.914274543523788452e-01,1.340580731630325317e-01,-1.207314059138298035e-01,1.098286509513854980e-01,3.545175865292549133e-02,-1.599438935518264771e-01,-4.561268165707588196e-02,1.090957894921302795e-01,5.012744292616844177e-02,1.467053741216659546e-01,1.319567486643791199e-02,1.807735264301300049e-01,-7.855889946222305298e-02,1.688184142112731934e-01,2.274001538753509521e-01,2.048257291316986084e-01,1.249260008335113525e-01,-7.458302658051252365e-03,-6.822565197944641113e-02,3.312118723988533020e-02,-4.349688813090324402e-02,1.539187729358673096e-01,-7.658787816762924194e-02,-1.487285196781158447e-01,-1.266954541206359863e-01,-7.371290773153305054e-02,1.101280599832534790e-01,-1.272928863763809204e-01,-3.190423175692558289e-02,-2.158950716257095337e-01,-2.427859418094158173e-02,1.039053574204444885e-01,-1.201834753155708313e-01,-2.683815062046051025e-01,-1.906124353408813477e-01,2.174717634916305542e-01,2.135081142187118530e-01,-1.052499562501907349e-01,2.479102462530136108e-01,2.142683975398540497e-02,-1.537873446941375732e-01,3.244855701923370361e-01,-2.145119607448577881e-01,6.139773502945899963e-02,7.374124974012374878e-02,2.132680825889110565e-02,2.660296112298965454e-02,-1.840989440679550171e-01,1.589896678924560547e-01,-1.638548374176025391e-01,3.040735051035881042e-02,-2.500633895397186279e-01,2.190451323986053467e-01,-8.178556710481643677e-02,-1.476263105869293213e-01,-1.082252338528633118e-01,-6.570261437445878983e-03,-3.362955059856176376e-03,3.193651139736175537e-02,1.549536883831024170e-01,1.113812103867530823e-01,2.599913775920867920e-01,-1.999538838863372803e-01,-2.128735929727554321e-01,-2.499655336141586304e-01,6.607904285192489624e-02,-2.661163806915283203e-01,-2.691830098628997803e-01,-4.579399898648262024e-02,-1.584715247154235840e-01,-7.366128265857696533e-02,2.361899763345718384e-01,-3.788793087005615234e-02,-6.608276627957820892e-03,2.208889424800872803e-01,5.667516589164733887e-02,4.710092768073081970e-02,2.554753981530666351e-02,1.881495714187622070e-01,7.331184297800064087e-02,-1.490835994482040405e-01,7.282452285289764404e-02,3.814165890216827393e-01,-8.705317229032516479e-02,1.834282130002975464e-01,3.419680595397949219e-01,1.998139768838882446e-01,-1.026870533823966980e-01,-2.049377560615539551e-01,-1.840489953756332397e-01,-1.398164778947830200e-01,-4.260541871190071106e-02,9.397178143262863159e-02,5.209714174270629883e-02,-4.543009027838706970e-02,1.697850078344345093e-01,5.595786496996879578e-02,-1.568129360675811768e-01,2.544138580560684204e-02,8.963429182767868042e-02,-1.078689694404602051e-01,1.456727981567382812e-01,1.211658343672752380e-01,2.956305630505084991e-02,4.094210267066955566e-02,-1.195029839873313904e-01,-1.745055764913558960e-01,-1.069308817386627197e-01,2.409927546977996826e-01,1.144685223698616028e-01,-9.840449690818786621e-02,1.455260366201400757e-01,-2.693950831890106201e-01,-8.788498491048812866e-02,1.244234666228294373e-01,-2.754040807485580444e-02,-4.324910417199134827e-02,1.864124983549118042e-01,-1.181263551115989685e-01,-1.096985936164855957e-01,1.241897344589233398e-01,1.005131080746650696e-01,-1.244949102401733398e-01,8.859766274690628052e-02,5.199331045150756836e-02,1.286543309688568115e-01,-1.237704232335090637e-01,2.551819756627082825e-02,5.936301499605178833e-02,-1.246990635991096497e-01,1.744447201490402222e-01,7.048733532428741455e-02,1.495981216430664062e-01,6.286674737930297852e-02,2.100211679935455322e-01,1.225285828113555908e-01,1.345135867595672607e-01,5.601349845528602600e-02,-1.011111512780189514e-01,-9.630420058965682983e-02,-1.779492944478988647e-01,-1.453220993280410767e-01,-2.662857770919799805e-01,-1.035427004098892212e-01,-2.412034273147583008e-01,1.110402792692184448e-01,-4.838768020272254944e-02,-1.681741178035736084e-01,-5.079745501279830933e-02,5.858096107840538025e-02,4.280429705977439880e-02,9.849053621292114258e-02,1.516230171546339989e-03,8.981366455554962158e-02,-2.008584588766098022e-01,-1.254040449857711792e-01,1.984784901142120361e-01,4.783691465854644775e-02,-2.818540334701538086e-01,-6.322742253541946411e-02,1.595508903264999390e-01,-1.022382155060768127e-01,9.598401188850402832e-02,-8.914494514465332031e-02,-8.804005384445190430e-02,-2.392255887389183044e-02,2.617073059082031250e-01,-1.184554323554039001e-01,-1.800841689109802246e-01,1.161896064877510071e-02,-1.302085816860198975e-01,1.427157372236251831e-01,1.078067198395729065e-01,-7.096767425537109375e-02,-1.781982481479644775e-01,1.051646247506141663e-01,9.071057289838790894e-02,1.861902624368667603e-01,-1.228391006588935852e-01,1.121265068650245667e-01,-3.434778004884719849e-02,-2.507269382476806641e-01,1.664279997348785400e-01,1.208851262927055359e-01,-9.111148864030838013e-02,-6.489972025156021118e-02,4.603764042258262634e-02,2.039982825517654419e-01,-1.704367063939571381e-02,8.889172226190567017e-02,2.055161297321319580e-01,6.026101112365722656e-02,-1.667884439229965210e-01,-1.806570589542388916e-02,-2.091955393552780151e-01,-1.924898922443389893e-01,2.314843982458114624e-02,-1.409418880939483643e-01,7.178404927253723145e-02,-3.162627294659614563e-02,-6.341435015201568604e-02,-9.531686455011367798e-02,1.701798141002655029e-01,1.594086363911628723e-02,-1.597400605678558350e-01,-1.240618620067834854e-02,2.247930914163589478e-01,1.228555440902709961e-01,-1.930237263441085815e-01,-2.177168279886245728e-01,-7.999985665082931519e-02,-2.280827909708023071e-01,-2.117590419948101044e-02,1.510115861892700195e-01,-1.512811426073312759e-02,-6.604982912540435791e-02,9.198870509862899780e-02,1.419845968484878540e-01,-9.932000190019607544e-02,-1.385652422904968262e-01,7.762502878904342651e-02,-4.514177516102790833e-02,1.180652827024459839e-01,4.558337479829788208e-02,2.010712623596191406e-01,1.926785856485366821e-01,-1.277941316366195679e-01,6.209595873951911926e-02,8.073354512453079224e-02,-1.138199195265769958e-01,-2.311763614416122437e-01,-1.213684901595115662e-01,-1.333953738212585449e-01,4.336832836270332336e-02,-1.734541207551956177e-01,1.724750101566314697e-01,-1.355727165937423706e-01,4.534269496798515320e-02,-1.515083611011505127e-01,2.926780655980110168e-02,1.149778999388217926e-02,1.942169070243835449e-01,6.960462778806686401e-02,4.994308575987815857e-02,2.049245983362197876e-01,-2.008470520377159119e-02,-1.618424504995346069e-01,1.156654730439186096e-01,4.426752403378486633e-02,7.439520210027694702e-02,9.456390887498855591e-02,-2.735171914100646973e-01,1.096507236361503601e-01,1.895423382520675659e-01,2.232124060392379761e-01,8.909246325492858887e-02,-2.447222769260406494e-01,1.790148615837097168e-01,-2.310537248849868774e-01,-2.902958728373050690e-02,-1.318359971046447754e-01,-1.033832430839538574e-01,-1.907125413417816162e-01,-2.364085912704467773e-01,-3.110052645206451416e-01,-1.146320775151252747e-01,-1.526835560798645020e-01,1.313301324844360352e-01,2.633238956332206726e-02,2.219029515981674194e-02,1.835717260837554932e-01,-8.723783493041992188e-02,6.902194023132324219e-02,-5.088279768824577332e-02,1.425439268350601196e-01,1.183204650878906250e-01,-1.496248096227645874e-01,-6.365139968693256378e-03,-9.760467708110809326e-02,2.671411037445068359e-01,-4.829069599509239197e-02,-9.498628228902816772e-02,-5.568761751055717468e-02,1.386798452585935593e-02,5.203417688608169556e-02,-1.095380187034606934e-01,2.005190849304199219e-01,-1.176994740962982178e-01,3.184856101870536804e-02,-1.571833938360214233e-01,1.372772902250289917e-01,-1.128663215786218643e-02,-1.631830483675003052e-01,-6.435541063547134399e-02,1.126315146684646606e-01,-2.063491567969322205e-02,4.673887044191360474e-02,-1.894052475690841675e-01,-6.799064576625823975e-02,-9.721523523330688477e-02,-7.038167864084243774e-02,5.648678168654441833e-02,8.784691989421844482e-02,-2.162649333477020264e-01,1.323903203010559082e-01,-4.247130081057548523e-02,1.865924447774887085e-01,1.204521134495735168e-01,4.199917614459991455e-02,3.777557285502552986e-04,3.541420400142669678e-02,-8.343910425901412964e-02,1.932405382394790649e-01,-1.316540539264678955e-01,-1.781274378299713135e-01,-1.367201507091522217e-01,-3.028595633804798126e-02,1.947010606527328491e-01,-1.728764772415161133e-01,1.804980039596557617e-01,-1.095665395259857178e-01,7.788059115409851074e-02,6.582385301589965820e-02,1.510539203882217407e-01,2.141911536455154419e-01,2.033282071352005005e-01,6.890678778290748596e-03,1.780202984809875488e-01,-1.582895964384078979e-01,-5.366857722401618958e-02,1.225974187254905701e-01,-9.719165414571762085e-02,-4.213875904679298401e-02,-1.647501289844512939e-01,-7.361876312643289566e-03,-2.258438318967819214e-01,-2.015861123800277710e-01,-2.142501622438430786e-02,1.578555554151535034e-01,-9.601197391748428345e-02,2.455407679080963135e-01,1.706111282110214233e-01,9.236408770084381104e-02,1.320856660604476929e-01,1.661937534809112549e-01,1.760292425751686096e-02,-6.928630173206329346e-02,-6.221105158329010010e-02,-9.168865531682968140e-02,-1.201193500310182571e-02,1.921572983264923096e-01,-3.885860368609428406e-02,-1.329849241301417351e-03,1.559367328882217407e-01,-9.073160588741302490e-02,-7.387074828147888184e-02,2.307897955179214478e-01,1.652190685272216797e-01,4.049923643469810486e-02,1.631056815385818481e-01,3.997515887022018433e-02,-1.488932669162750244e-01,-1.161157432943582535e-02,-1.570338308811187744e-01,-2.266673743724822998e-02,9.638454020023345947e-02,1.172012928873300552e-02,-1.250010430812835693e-01,4.171552509069442749e-02,-5.920805409550666809e-02,5.709458142518997192e-02,-1.299807578325271606e-01,-7.264656573534011841e-02,2.447131723165512085e-01,5.989957228302955627e-02,6.672205030918121338e-02,-1.577334403991699219e-01,-8.594488352537155151e-02,1.577665507793426514e-01,-8.002301305532455444e-02,1.054193302989006042e-01,6.183216348290443420e-02,-9.094205498695373535e-02,-2.163334339857101440e-01,-2.299339324235916138e-01,-1.064447090029716492e-01,-1.801888644695281982e-01,1.399494707584381104e-01,-2.926496267318725586e-01,-1.871437132358551025e-01,1.953010857105255127e-01,-1.738674193620681763e-01,-2.218546122312545776e-01,-9.354288876056671143e-02,2.203323133289813995e-02,-2.863436751067638397e-02,-2.424786612391471863e-02,3.580267727375030518e-02,-5.679393187165260315e-02,-7.903996109962463379e-02,-2.756164595484733582e-02,8.690101653337478638e-02,-1.805311590433120728e-01,1.061691716313362122e-01,-9.522915631532669067e-02,3.208348900079727173e-02,-2.736649662256240845e-02,1.066968366503715515e-01,-1.575451642274856567e-01,2.058692276477813721e-01,8.537060022354125977e-02,-2.163255661725997925e-01,1.895881593227386475e-01,3.453898429870605469e-02,1.610338687896728516e-01,-2.791007161140441895e-01,-2.125213891267776489e-01,-6.622166838496923447e-03,-4.081844165921211243e-02,-2.169793695211410522e-01,-1.939204037189483643e-01,7.657737005501985550e-03,1.441058367490768433e-01,-1.045940220355987549e-01,-1.631366461515426636e-01,1.700448058545589447e-02,-5.233296751976013184e-02,1.564361304044723511e-01,8.756287395954132080e-02,9.679909795522689819e-03,7.170226424932479858e-02,-1.686224490404129028e-01,1.666755974292755127e-01,-2.354233339428901672e-02,-1.178957521915435791e-01,2.061724960803985596e-01,1.743176728487014771e-01,-2.140129953622817993e-01,-2.465534023940563202e-02,2.606145106256008148e-02,1.802781820297241211e-01,-3.090570308268070221e-02,-5.890938267111778259e-02,-4.592517390847206116e-02,-1.400776952505111694e-01,-4.420373123139142990e-03,1.698219329118728638e-01,-1.171052902936935425e-01,-1.769862771034240723e-01,-1.871573477983474731e-01,1.699342727661132812e-01,-2.102434039115905762e-01,7.516174763441085815e-02,1.464392989873886108e-01,-8.550467342138290405e-02,1.990020722150802612e-01,-1.921578347682952881e-01,-8.600143343210220337e-02,-1.510287225246429443e-01,5.444021895527839661e-02,-8.563667535781860352e-02,-1.254625171422958374e-01,-7.637232542037963867e-02,-6.789851933717727661e-02,-2.484151721000671387e-02,-6.757559627294540405e-02,-9.037759155035018921e-02,4.005248099565505981e-02,-7.801398634910583496e-02,-1.298416256904602051e-01,-1.231474219821393490e-03,-1.799577772617340088e-01,-1.436965763568878174e-01,2.684669494628906250e-01,-8.176062256097793579e-02,1.096055060625076294e-01,1.491383612155914307e-01,-1.615242362022399902e-01,3.349369019269943237e-02,-1.679993122816085815e-01,1.415413916110992432e-01,-2.561912536621093750e-01,2.130078077316284180e-01,2.649895846843719482e-01,-2.893388830125331879e-02,1.726857423782348633e-01,7.126685976982116699e-02,1.350408941507339478e-01,-6.817483901977539062e-02,1.066964641213417053e-01,6.429638247936964035e-03,5.729468539357185364e-02,-3.057154081761837006e-02,-2.037729471921920776e-01,-2.946002185344696045e-01,-2.624724805355072021e-01,-8.237347751855850220e-02,2.070979923009872437e-01,-1.505345255136489868e-01,6.121024116873741150e-02,2.497651847079396248e-03,-2.018541544675827026e-01,1.682407855987548828e-01,9.177037328481674194e-02,2.595594525337219238e-01,-6.814099848270416260e-02,-2.613570727407932281e-02,-1.352257728576660156e-01,-1.392430812120437622e-01,3.493068516254425049e-01,9.879329800605773926e-02,1.935624778270721436e-01,1.483598500490188599e-01,-1.039041504263877869e-01,-1.427107453346252441e-01,-1.022733449935913086e-01,-1.054678410291671753e-01,6.650684773921966553e-02,-4.030479863286018372e-02,-7.865615934133529663e-02,8.224857156164944172e-04,-1.941600115969777107e-03,-2.019118815660476685e-01,2.549457252025604248e-01,9.680436551570892334e-02,5.961306393146514893e-02,-4.168102517724037170e-03,-6.587855517864227295e-02,1.737690716981887817e-01,9.274944663047790527e-03,1.790699660778045654e-01,-2.267078525619581342e-04,1.081138849258422852e-01,1.349120885133743286e-01,1.328170597553253174e-01,-1.766067296266555786e-01,4.327924922108650208e-02,1.368918176740407944e-02,2.036930769681930542e-01,-1.495576649904251099e-01,2.057417035102844238e-01,-2.227143794298171997e-01,1.106682270765304565e-01,3.745209574699401855e-01,-9.300196915864944458e-02,-2.363899908959865570e-02,-7.864083349704742432e-02,7.401736825704574585e-02,-1.979265958070755005e-01,1.005430519580841064e-01,1.078925430774688721e-01,-7.295791804790496826e-02,-1.918096244335174561e-01,-3.644786402583122253e-02,-1.517000198364257812e-01,-1.824794113636016846e-01,-4.698256775736808777e-02,-2.740720212459564209e-01,1.164124459028244019e-01,-2.154706567525863647e-01,1.794246435165405273e-01,-9.185834974050521851e-02,-2.623447589576244354e-02,5.300103500485420227e-02,-3.203916922211647034e-02,-4.700432717800140381e-02,-1.287021040916442871e-01,-5.440519377589225769e-02,1.865797676146030426e-02,-5.147583037614822388e-02,-1.864169090986251831e-01,-2.007074058055877686e-01,3.453699126839637756e-02,2.407230436801910400e-01,-2.989303171634674072e-01,3.401619195938110352e-01,-7.120421156287193298e-03,-1.547911614179611206e-01,1.026913151144981384e-02,-1.312590241432189941e-01,-1.197411771863698959e-02,9.384501725435256958e-03,-1.515537202358245850e-01,1.099599301815032959e-01,1.321251243352890015e-01,-1.497168093919754028e-01,7.635370641946792603e-02,1.029341444373130798e-01,-9.895739704370498657e-02,2.265478111803531647e-02,-1.991335600614547729e-01,-2.477854024618864059e-03,-1.654867529869079590e-01,4.890967160463333130e-02,9.682504087686538696e-02,-8.522808551788330078e-02,-2.059774249792098999e-01,-1.040545552968978882e-01,1.754892431199550629e-02,1.954042911529541016e-02,-1.047763898968696594e-01,-1.193237304687500000e-01,5.028748884797096252e-02,-2.524618245661258698e-02,-8.456061780452728271e-02,2.282700501382350922e-02,1.292960345745086670e-01,1.070523262023925781e-01,-5.855733901262283325e-02,7.197113335132598877e-02,2.748298346996307373e-01,1.179866120219230652e-01,1.095229238271713257e-01,-6.798117607831954956e-02,-6.102259457111358643e-02,-3.038229048252105713e-02,1.487974375486373901e-01,-4.099638015031814575e-02,1.645757257938385010e-01,1.629959046840667725e-01,5.241182446479797363e-02,4.850216954946517944e-02,-3.955236449837684631e-02,-4.418984800577163696e-02,-4.211007803678512573e-02,1.700587421655654907e-01,-8.689318783581256866e-03,-2.774688303470611572e-01,-2.046651095151901245e-01,-6.075787916779518127e-02,2.159013897180557251e-01,-2.760275825858116150e-02,4.076391831040382385e-02,-4.765079170465469360e-02,-4.069358401466161013e-04,-1.533946245908737183e-01,-1.031794622540473938e-01,1.016732379794120789e-01,-3.208696469664573669e-02,-1.909323334693908691e-01,1.346163451671600342e-01,-3.732409328222274780e-02,-1.422024369239807129e-01,2.747228741645812988e-01,-1.290233135223388672e-01,-5.973755940794944763e-02,1.736614853143692017e-02,1.096631363034248352e-01,-4.623743891716003418e-02,-1.813336014747619629e-01,1.609115302562713623e-01,1.343305259943008423e-01,1.823715269565582275e-01,2.699702978134155273e-01,-9.334693849086761475e-02,-4.753379896283149719e-02,1.878552436828613281e-01,1.645041704177856445e-01,-4.570493474602699280e-02,-1.952374167740345001e-02,5.049033463001251221e-02,-8.610569685697555542e-02,-1.723502725362777710e-01,-6.468079239130020142e-02,-8.336255699396133423e-02,-1.649814844131469727e-01,-2.505504712462425232e-02,-6.602097302675247192e-02,-1.640128642320632935e-01,-1.388742327690124512e-01,4.763555526733398438e-02,1.735644638538360596e-01,1.117124855518341064e-01,6.438119336962699890e-03,1.365675032138824463e-01,-2.222187519073486328e-01,1.335772722959518433e-01,1.994007229804992676e-01,-1.246533542871475220e-01,-1.810248345136642456e-01,-6.123467162251472473e-02,-1.127687096595764160e-01,-1.297071278095245361e-01,1.554963290691375732e-01,9.386412799358367920e-02,2.743636071681976318e-01,-3.628027439117431641e-02,4.995150119066238403e-02,9.071758389472961426e-02,-2.769650518894195557e-02,-1.320814937353134155e-01,-1.470873951911926270e-01,1.490041464567184448e-01,-5.752458050847053528e-02,-1.601312756538391113e-01,-1.192002743482589722e-01,-8.875768631696701050e-02,-1.219157427549362183e-01,4.807613417506217957e-02,-2.412323951721191406e-01,1.991642452776432037e-02,-9.258781373500823975e-02,-2.451533377170562744e-01,1.329786479473114014e-01,-1.339754313230514526e-01,1.528124809265136719e-01,-9.304596483707427979e-02,1.051064655184745789e-01,-1.021090075373649597e-01,1.831261366605758667e-01,2.823581695556640625e-01,-2.397489845752716064e-01,2.119738049805164337e-02,-6.386563181877136230e-02,8.242498338222503662e-02,1.076033115386962891e-01,1.805801242589950562e-01,-1.903174668550491333e-01,-5.727731809020042419e-02,1.173022314906120300e-01,2.539242804050445557e-01,-8.670940995216369629e-02,1.772315800189971924e-01,3.027169704437255859e-01,-1.822695136070251465e-01,-1.479748785495758057e-01,-8.264837414026260376e-02,6.210667267441749573e-02,6.581803318113088608e-03,-3.368461132049560547e-02,-2.625669725239276886e-02,-2.968906462192535400e-01,3.772779554128646851e-02,1.007126644253730774e-01,-9.420945495367050171e-02,-1.211278662085533142e-01,1.276178508996963501e-01,-1.791955679655075073e-01,-9.903477877378463745e-02,-6.897684186697006226e-02,2.049767039716243744e-02,-1.786802262067794800e-01,1.944993063807487488e-02,-9.161292761564254761e-02,1.570565551519393921e-01,-2.915056347846984863e-01,9.672711044549942017e-02,-1.353984624147415161e-01,-1.700667291879653931e-01,1.812238097190856934e-01,4.882517457008361816e-02,4.123283550143241882e-02,-1.323662996292114258e-01,-1.713377535343170166e-01,1.638941019773483276e-01,-1.267442107200622559e-02,-6.917472928762435913e-02,-8.692228049039840698e-02,1.570068299770355225e-02,4.291742574423551559e-03,-2.079651355743408203e-01,-8.232060074806213379e-02,1.482621580362319946e-01,-4.201830178499221802e-02,-9.003147482872009277e-02,1.453163176774978638e-01,-4.332028329372406006e-02,-1.077212914824485779e-01,1.494352072477340698e-01,-1.404956728219985962e-01,1.082995161414146423e-01,9.473779797554016113e-02,1.544280499219894409e-01,1.564721912145614624e-01,-1.110221445560455322e-01,-1.365442294627428055e-02,2.320299446582794189e-01,2.769479751586914062e-01,-8.699793368577957153e-02,2.900892794132232666e-01,1.566350162029266357e-01,4.248962923884391785e-02,2.209056317806243896e-01,-8.057366311550140381e-02,1.217975094914436340e-01,1.480260193347930908e-01,6.453104317188262939e-02,-3.973982483148574829e-02,1.342259794473648071e-01,-9.937929362058639526e-02,4.452266916632652283e-02,4.168116953223943710e-03,-2.331345677375793457e-01,-1.131429970264434814e-01,-1.008582934737205505e-01,-8.870171755552291870e-02,-2.960081696510314941e-01,-7.507752627134323120e-02,8.139559626579284668e-02,-5.591756105422973633e-02,-1.051751822233200073e-01,1.080701202154159546e-01,2.603512108325958252e-01,-2.665497064590454102e-01,-1.714589819312095642e-02,-1.207995861768722534e-01,-7.817693799734115601e-02,-1.820974797010421753e-01,-1.727133840322494507e-01,1.092864051461219788e-01,-5.656338483095169067e-02,-2.135829627513885498e-02,4.897089302539825439e-02,-2.760204970836639404e-01,-1.035083830356597900e-01,-2.947894632816314697e-01,4.798266664147377014e-02,-1.139408815652132034e-02,1.103635281324386597e-01,3.711820542812347412e-01,-7.333569973707199097e-02,-1.660199761390686035e-01,-1.017616465687751770e-01,3.521454632282257080e-01,-6.616216152906417847e-02,-1.147152110934257507e-01,1.709222048521041870e-01,-1.328067332506179810e-01,4.576362073421478271e-01,1.422770619392395020e-01,-1.573545485734939575e-01,-1.508049070835113525e-01,-1.019859090447425842e-01,2.251715026795864105e-02,6.890524178743362427e-03,1.043616831302642822e-01,2.591634988784790039e-01,3.270055651664733887e-01,-1.334853023290634155e-01,-2.116900086402893066e-01,1.309820264577865601e-01,-8.289071917533874512e-02,-3.596174716949462891e-02,2.114331163465976715e-02,-1.572128534317016602e-01,2.670584619045257568e-01,-2.419492416083812714e-02,-1.841955780982971191e-01,-4.347639158368110657e-03,-1.722639054059982300e-01,-1.717809289693832397e-01,4.913829267024993896e-02,-7.193129044026136398e-03,2.156421095132827759e-01,-2.217405885457992554e-01,3.004615902900695801e-01,-1.872912496328353882e-01,-9.261732548475265503e-02,1.164882406592369080e-01,-6.491344422101974487e-02,-1.337035298347473145e-01,-4.517887532711029053e-02,1.137832850217819214e-01,1.153619438409805298e-01,-2.104282677173614502e-01,-2.241420745849609375e-01,2.178103029727935791e-01,6.020109355449676514e-02,7.226644456386566162e-02,-3.062392473220825195e-01,-4.530044272541999817e-02,-5.533399805426597595e-02,7.148314267396926880e-02,1.060668900609016418e-01,-1.236778646707534790e-01,-4.510983452200889587e-02,7.198342680931091309e-02,-1.337029784917831421e-01,-1.631227321922779083e-02,-1.107322648167610168e-01,2.992195263504981995e-02,-1.402031332254409790e-01,9.417908638715744019e-02,-5.463133379817008972e-02,-1.506193727254867554e-01,-6.139343231916427612e-02,1.665814220905303955e-01,-4.405885562300682068e-02,1.181181892752647400e-01,-1.152496114373207092e-01,-1.270817369222640991e-01,1.609882712364196777e-01,1.161051392555236816e-01,1.783445179462432861e-01,-2.576756291091442108e-02,2.051198296248912811e-02,9.687305986881256104e-02,5.826379731297492981e-02,-2.168692052364349365e-01,2.574348151683807373e-01,-8.077146857976913452e-02,-1.617326736450195312e-01,1.448303163051605225e-01,-5.160493031144142151e-02,-5.940064415335655212e-02,1.939788460731506348e-01,-1.611564122140407562e-02,-9.652738273143768311e-02,1.880841255187988281e-01,-5.466799810528755188e-02,-2.165581099689006805e-02,2.521160542964935303e-01,-6.103953719139099121e-02,4.674852266907691956e-02,-5.831710621714591980e-02,5.608083680272102356e-03,-1.526705175638198853e-01,-1.134741753339767456e-01,-1.950420439243316650e-01,-4.672311991453170776e-02,-1.216910481452941895e-01,-2.400041669607162476e-01,-1.927856057882308960e-01,-1.183193922042846680e-01,-1.007562354207038879e-01,5.816308036446571350e-02,9.643934667110443115e-02,1.059415340423583984e-01,1.568780541419982910e-01,-8.380403369665145874e-02,-1.136095672845840454e-01,8.154021948575973511e-02,9.635204076766967773e-02,-9.211582690477371216e-02,1.895845532417297363e-01,-2.401302568614482880e-02,-1.064917296171188354e-01,-1.937708258628845215e-02,9.645600221119821072e-04,-1.914439350366592407e-02,7.502126693725585938e-02,1.045443937182426453e-01,1.762477755546569824e-01,-1.026166975498199463e-01,1.960833221673965454e-01,-4.279955290257930756e-03,-1.636082828044891357e-01,-4.408330656588077545e-03,1.178733184933662415e-01,-2.443409860134124756e-01,-5.886882916092872620e-02,8.216339349746704102e-02,3.727744892239570618e-02,-1.104199588298797607e-01,-2.161120474338531494e-01,2.350343763828277588e-01,-1.162435486912727356e-01,-1.583890765905380249e-01,8.930390700697898865e-03,5.495563149452209473e-02,1.350081413984298706e-01,-1.573407202959060669e-01,-6.548486649990081787e-02,-5.961887538433074951e-02,-1.532475948333740234e-01,-1.068342700600624084e-01,1.070807203650474548e-01,-1.686489135026931763e-01,-4.732184484601020813e-02,1.372988969087600708e-01,1.524517592042684555e-02,1.567842215299606323e-01,9.495371580123901367e-02,3.053740784525871277e-02,1.012032851576805115e-01,2.829637192189693451e-02,3.278484567999839783e-02,8.339389413595199585e-02,6.172374263405799866e-02,6.067558377981185913e-02,7.351868599653244019e-02,1.534091681241989136e-01,5.824810266494750977e-02,-2.086817175149917603e-01,-2.364194691181182861e-01,1.324522793292999268e-01,-5.982756242156028748e-02,1.618626415729522705e-01,-1.542619168758392334e-01,1.598319858312606812e-01,1.588875502347946167e-01,9.470081329345703125e-02,-6.483111530542373657e-02,-7.339946925640106201e-02,-1.386790722608566284e-01,-1.313983052968978882e-01,1.913743615150451660e-01,-1.997067779302597046e-01,-1.140334159135818481e-01,-2.679330855607986450e-02,-1.519717555493116379e-02,1.439381837844848633e-01,1.477769762277603149e-01,1.085675060749053955e-01,-7.711882144212722778e-02,3.107412159442901611e-02,-3.518956154584884644e-02,5.545366555452346802e-02,-2.586157619953155518e-01,3.495685383677482605e-02,2.089195251464843750e-01,1.454828679561614990e-01,-9.720139205455780029e-02,2.035476267337799072e-01,8.918672800064086914e-02,-1.954372525215148926e-01,1.553265098482370377e-02,-1.507011801004409790e-02,2.586773037910461426e-02,-3.885086625814437866e-02,-3.178323805332183838e-02,1.638203859329223633e-01,-8.421462029218673706e-02,9.543659538030624390e-02,-2.734998241066932678e-02,-8.192646503448486328e-02,5.912247672677040100e-02,5.792650394141674042e-03,2.308330871164798737e-02,1.411103010177612305e-01,7.039456814527511597e-02,2.013775892555713654e-02,1.195016205310821533e-01,-1.440941542387008667e-01,-1.278183311223983765e-01,-1.529409438371658325e-01,2.069859951734542847e-01,-1.620986908674240112e-01,5.668090283870697021e-02,-1.791810095310211182e-01,4.407318681478500366e-02,-7.144883275032043457e-02,9.286490827798843384e-02,1.915523409843444824e-01,-1.033420339226722717e-01,7.673228532075881958e-02,1.696001440286636353e-01,1.622819304466247559e-01,3.186364471912384033e-01,-1.718909107148647308e-02,-8.876145631074905396e-02,5.861064046621322632e-02,-1.374812424182891846e-01,-7.283280044794082642e-02,5.471120029687881470e-02,-1.438290029764175415e-01,-1.394324600696563721e-01,-3.115470148622989655e-02,1.170731633901596069e-01,-2.745734155178070068e-01,3.897852823138237000e-02,8.105298131704330444e-02,2.622580528259277344e-01,1.773105561733245850e-01,-2.309929877519607544e-01,-1.005382016301155090e-01,1.201661899685859680e-01,6.682705134153366089e-02,-1.468671560287475586e-01,-3.562997654080390930e-02,1.321552544832229614e-01,2.727988548576831818e-02,-1.904742568731307983e-01,2.286121482029557228e-03,6.375624239444732666e-02,-2.149552553892135620e-01,-1.314644366502761841e-01,-6.394772790372371674e-03,5.177254602313041687e-02,4.061330482363700867e-02,1.177475303411483765e-01,-5.271271616220474243e-02,5.449367687106132507e-02,1.192289888858795166e-01,1.945537514984607697e-02,-1.408515125513076782e-02,-1.977388560771942139e-01,-4.468546807765960693e-02,9.854230284690856934e-02,1.627150923013687134e-01,1.045546531677246094e-01,1.264158338308334351e-01,-1.138112321496009827e-01,-2.744088172912597656e-01,1.365921050310134888e-01,1.673288047313690186e-01,1.921968013048171997e-01,1.598358601331710815e-01,1.502306014299392700e-01,-8.348149061203002930e-02,1.689524203538894653e-02,2.499952465295791626e-01,1.779710054397583008e-01,1.445490680634975433e-02,5.280673131346702576e-02,1.155801042914390564e-01,1.807518452405929565e-01,-1.189540326595306396e-01,-4.170529916882514954e-02,4.760634899139404297e-02,8.320141583681106567e-02,9.145686775445938110e-02,-9.844209998846054077e-02,-8.134535513818264008e-03,-1.173041835427284241e-01,-2.502333931624889374e-02,-4.023399669677019119e-04,1.804444789886474609e-01,1.692967712879180908e-01,-1.744391769170761108e-02,9.721918962895870209e-03,-8.967605233192443848e-02,-1.101760268211364746e-01,-1.206951886415481567e-01,-1.688275635242462158e-01,1.360390614718198776e-02,-1.797779053449630737e-01,1.406086087226867676e-01,1.158806607127189636e-01,1.272536665201187134e-01,-7.990195415914058685e-03,4.132729023694992065e-02,1.465017050504684448e-01,-1.026269197463989258e-01,9.869828820228576660e-02,2.243849012302234769e-04,-4.379611089825630188e-02,-1.398945450782775879e-01,2.654242515563964844e-01,-2.180820144712924957e-02,2.027561068534851074e-01,1.051340773701667786e-01,-3.166401013731956482e-02,1.021267697215080261e-01,-1.389229446649551392e-01,-1.860719621181488037e-01,-6.694660335779190063e-02,6.015928462147712708e-02,-1.717567071318626404e-02,-8.695677667856216431e-02,-1.154949739575386047e-01,-1.181853003799915314e-02,1.257330179214477539e-01,-7.382237166166305542e-02,-6.394372880458831787e-02,1.102959290146827698e-01,-2.503313496708869934e-02,-1.614477187395095825e-01,1.248075515031814575e-01,5.514173209667205811e-02,2.119713425636291504e-01,8.980140835046768188e-02,9.082418680191040039e-02,5.521899089217185974e-02,1.381308138370513916e-01,-1.122095957398414612e-01,1.198325976729393005e-01,1.450645178556442261e-01,-8.877316117286682129e-02,2.171955406665802002e-01,2.349558472633361816e-01,-8.081773668527603149e-02,-6.921205669641494751e-02,-1.729502826929092407e-01,5.582765489816665649e-02,3.516158089041709900e-02,-1.112185716629028320e-01,1.910428255796432495e-01,1.179370433092117310e-01,1.376982629299163818e-01,-1.152332723140716553e-01,1.339464336633682251e-01,-2.097310423851013184e-01,1.182370726019144058e-02,-3.760477155447006226e-02,1.355746388435363770e-01,8.731009066104888916e-02,7.574687153100967407e-02,-1.193053424358367920e-01,1.416727155447006226e-01,-2.855854853987693787e-02,-5.462792515754699707e-02,1.862626522779464722e-01,1.801801919937133789e-01,4.990714415907859802e-02,-1.603815704584121704e-01,-2.278683185577392578e-01,5.140057578682899475e-02,1.755345016717910767e-01,-1.646222025156021118e-01,-6.608528643846511841e-02,-2.734382450580596924e-01,-1.770099997520446777e-01,-1.374444216489791870e-01,3.680934011936187744e-02,-1.834825426340103149e-01,1.882551014423370361e-01,1.019650232046842575e-02,-1.003366708755493164e-01,3.097776174545288086e-01,6.352901458740234375e-02,1.458903402090072632e-01,-1.628789007663726807e-01,-2.792382054030895233e-02,-2.267594784498214722e-01,-1.233406141400337219e-01,1.577597409486770630e-01,1.409027376212179661e-03,1.910485625267028809e-01,9.429869055747985840e-02,-5.104932934045791626e-02,-1.136283427476882935e-01,-2.156615853309631348e-01,1.766918152570724487e-01,-2.841112436726689339e-03,1.681698858737945557e-02,6.109872460365295410e-02,-8.128090947866439819e-02,1.845695525407791138e-01,1.496400982141494751e-01,-1.835888810455799103e-02,2.757583558559417725e-01,3.078550798818469048e-03,5.651933327317237854e-02,-1.510999947786331177e-01,-9.717816114425659180e-02,-2.679382860660552979e-01,2.332676351070404053e-01,-8.088213205337524414e-02,1.755378246307373047e-01,-6.425976008176803589e-02,-1.759354174137115479e-01,2.711852081120014191e-02,-7.993593066930770874e-02,-1.133260056376457214e-01,