3.299638628959655762e-02,-7.886729203164577484e-03,-3.625686839222908020e-02,-4.949574172496795654e-02,3.335044533014297485e-02,-8.037363179028034210e-03,1.219961699098348618e-02,-3.492253273725509644e-02,2.648210898041725159e-02,-3.086397051811218262e-02,-4.823097959160804749e-02,1.807565684430301189e-03,3.500737249851226807e-02,1.153602078557014465e-02,5.358030274510383606e-02,5.768587067723274231e-02,1.054962049238383770e-03,4.975173994898796082e-02,6.448588520288467407e-02,3.431833907961845398e-02,1.441583130508661270e-02,-2.105913311243057251e-02,-1.057039108127355576e-02,2.666204981505870819e-02,-4.239983111619949341e-02,7.282550446689128876e-03,-4.110974818468093872e-02,2.320704981684684753e-02,-3.495121374726295471e-02,5.242604017257690430e-02,3.544843569397926331e-02,-9.463313966989517212e-03,-2.323637530207633972e-02,4.509910941123962402e-02,-2.245535701513290405e-02,-3.865793719887733459e-02,-2.932503446936607361e-02,-1.311696320772171021e-02,2.883015200495719910e-02,-2.810956723988056183e-02,1.892926171422004700e-03,-1.281673926860094070e-02,-4.020731523633003235e-02,3.363991528749465942e-02,-4.308215808123350143e-03,-4.658431280404329300e-03,4.359230026602745056e-02,2.338867262005805969e-02,1.889320439659059048e-03,1.271830219775438309e-02,-1.583115942776203156e-02,-1.946640573441982269e-02,-6.142207980155944824e-02,-6.845261901617050171e-02,-5.174592882394790649e-02,6.482732295989990234e-02,-1.116103120148181915e-02,6.903289351612329483e-03,-5.746587738394737244e-02,3.317993879318237305e-02,