-1.288245059549808502e-02,1.169271767139434814e-03,4.028956405818462372e-03,3.340417146682739258e-02,8.250080980360507965e-03,2.259328216314315796e-02,-3.710950957611203194e-03,2.687747217714786530e-02,-2.829545363783836365e-02,1.835405826568603516e-02,-2.116312086582183838e-02,-1.059948205947875977e-01,4.989949986338615417e-02,-2.909851074218750000e-02,-4.956855252385139465e-02,5.596072878688573837e-03,1.723717898130416870e-02,3.404401242733001709e-02,-6.885847449302673340e-02,-1.336157470941543579e-01,-2.579991891980171204e-02,-5.191574245691299438e-02,-9.075791388750076294e-02,-1.594712957739830017e-02,3.287410363554954529e-02,-4.674971103668212891e-02,-3.273836895823478699e-02,4.218434169888496399e-02,-1.538169756531715393e-02,-5.551256239414215088e-02,-2.332595549523830414e-02,1.182829439640045166e-01,-3.056402504444122314e-02,-9.807461872696876526e-03,-6.310651544481515884e-03,4.556801542639732361e-02,1.108095608651638031e-02,-9.724038839340209961e-02,-5.270551145076751709e-02,5.680223181843757629e-02,-7.969698868691921234e-03,-6.433890759944915771e-02,-6.868414580821990967e-02,1.098024025559425354e-01,-6.500871479511260986e-02,-4.134077951312065125e-02,3.807052969932556152e-02,1.252289563417434692e-01,1.628701575100421906e-02,7.068561762571334839e-02,9.030724316835403442e-02,7.470225542783737183e-02,-2.241258509457111359e-02,-4.499503597617149353e-02,-8.718830533325672150e-03,-2.812746725976467133e-02,-8.788084238767623901e-02,1.026655137538909912e-01,-5.365469306707382202e-02,-1.154460944235324860e-02,9.232192486524581909e-02,1.234294325113296509e-01,-3.585916385054588318e-02,-1.874016830697655678e-03,5.161335691809654236e-02,6.888535805046558380e-03,-7.924770005047321320e-03,1.048431172966957092e-02,-2.235818840563297272e-02,-1.311024744063615799e-02,-9.537346195429563522e-04,4.900784417986869812e-02,-6.887125968933105469e-02,-1.249602437019348145e-01,3.354392573237419128e-02,-2.343420870602130890e-03,-9.232534095644950867e-03,-3.084740310441702604e-04,-1.871318742632865906e-02,-1.499214209616184235e-02,7.759802788496017456e-02,-9.513597935438156128e-02,-1.233550608158111572e-01,3.072514757513999939e-02,5.343171209096908569e-02,3.472733497619628906e-02,3.996375948190689087e-02,1.119192391633987427e-01,7.394253462553024292e-02,4.693527147173881531e-02,3.538101911544799805e-02,-4.387286677956581116e-02,5.671043694019317627e-02,1.593844741582870483e-01,7.280473131686449051e-03,-1.481809169054031372e-01,-8.449175208806991577e-02,-5.293824896216392517e-02,-3.786461055278778076e-02,-4.340261965990066528e-02,7.976581901311874390e-02,1.784203341230750084e-03,-6.321095861494541168e-04,-8.357585221529006958e-02,6.397161632776260376e-02,-6.761326454579830170e-03,2.168839052319526672e-02,-6.451928615570068359e-02,-3.825007006525993347e-02,9.802468121051788330e-04,1.413308922201395035e-02,-5.148596316576004028e-02,-3.877734392881393433e-02,1.426980923861265182e-02,-1.274191681295633316e-02,-6.417293846607208252e-02,6.135078519582748413e-02,-2.419990673661231995e-02,-1.278300285339355469e-01,-6.354631483554840088e-02,1.338272541761398315e-01,1.061397120356559753e-01,5.591221526265144348e-02,3.226814791560173035e-02,1.863991096615791321e-02,-9.047324210405349731e-02,-7.749580254312604666e-05,1.918294839560985565e-02,-1.136690080165863037e-01,-2.509731985628604889e-02,2.863114699721336365e-02,-1.233659218996763229e-02,-1.213814481161534786e-03,9.109243750572204590e-02,-6.882983446121215820e-02,-2.862214110791683197e-02,-3.525255620479583740e-02,3.039194829761981964e-02,-4.114270210266113281e-02,-9.716966003179550171e-02,1.093808654695749283e-02,2.893068594858050346e-03,5.936354864388704300e-04,2.901345677673816681e-02,-7.674169540405273438e-02,-3.847290948033332825e-02,-4.720388725399971008e-02,4.881960526108741760e-02,2.831197343766689301e-02,2.902544289827346802e-02,-4.945600777864456177e-02,-7.238721847534179688e-02,2.465357445180416107e-02,2.399296686053276062e-02,5.586519371718168259e-03,-3.625497221946716309e-02,1.181210391223430634e-02,-5.478088930249214172e-02,-1.126762479543685913e-01,-5.783966556191444397e-02,-1.948206499218940735e-02,-1.693556755781173706e-01,-9.568938985466957092e-03,-8.701257407665252686e-02,1.190773211419582367e-02,1.463913638144731522e-02,2.322321198880672455e-02,-4.592893272638320923e-02,-7.061315327882766724e-02,-5.267207324504852295e-02,-1.393666490912437439e-02,-8.837754279375076294e-02,-8.134969323873519897e-02,-2.073362097144126892e-02,-6.840465962886810303e-02,-6.596695631742477417e-02,-1.129270438104867935e-02,5.827782675623893738e-02,-5.594566464424133301e-02,1.476911548525094986e-02,-7.943838834762573242e-02,-7.611401379108428955e-02,-1.607429236173629761e-02,-3.004769794642925262e-02,-5.537396669387817383e-02,-2.152142673730850220e-02,-6.711941212415695190e-02,-1.187087222933769226e-01,-7.107740640640258789e-02,-2.285896986722946167e-02,-7.188972830772399902e-02,-2.687565609812736511e-02,7.329451618716120720e-04,5.222731269896030426e-03,8.021734654903411865e-03,-1.077652722597122192e-02,-4.896664991974830627e-02,-2.615767717361450195e-02,-2.301707677543163300e-02,-3.177928552031517029e-02,5.362223461270332336e-02,-2.882789634168148041e-02,2.530824206769466400e-02,-1.556870434433221817e-02,-8.809007704257965088e-02,-2.661947160959243774e-02,3.147705923765897751e-03,-3.761933743953704834e-02,-7.480870187282562256e-02,5.086910910904407501e-03,5.303839594125747681e-02,-1.245424449443817139e-01,5.294393002986907959e-02,5.565131455659866333e-02,-3.047908656299114227e-02,-4.519342631101608276e-02,-1.023444160819053650e-01,-1.194344982504844666e-01,-1.811619400978088379e-01,-9.282676875591278076e-02,1.150646731257438660e-01,4.009576514363288879e-02,-1.211157254874706268e-02,-1.600207090377807617e-01,1.103682667016983032e-01,-1.183633599430322647e-02,7.096876949071884155e-02,-7.343460619449615479e-02,1.126787532120943069e-02,-8.059459924697875977e-02,-6.349907070398330688e-02,-2.003543078899383545e-02,-6.902829278260469437e-03,-6.202466785907745361e-02,-1.023481041193008423e-01,1.991982338950037956e-03,6.092857569456100464e-02,-3.601767867803573608e-02,4.572411626577377319e-02,-2.833316475152969360e-02,2.380342781543731689e-02,-1.617712154984474182e-02,-2.195895882323384285e-03,-6.689326465129852295e-02,-6.790513545274734497e-02,-3.689781576395034790e-02,-5.179446935653686523e-02,-1.185585409402847290e-01,2.538076788187026978e-02,-7.872977852821350098e-02,1.154281646013259888e-01,3.668490797281265259e-02,-6.797233968973159790e-02,-1.090329736471176147e-01,-7.591341156512498856e-03,-3.306770813651382923e-04,1.379721425473690033e-02,-2.874223329126834869e-02,-1.573785841464996338e-01,1.389575097709894180e-02,2.291590534150600433e-02,-3.566108061932027340e-04,9.742879867553710938e-02,-9.674062952399253845e-03,-8.374716341495513916e-02,7.892037928104400635e-02,-4.185047745704650879e-02,-3.223447501659393311e-02,4.009884968400001526e-02,5.184009298682212830e-02,7.408699393272399902e-02,-4.094781354069709778e-02,-1.023852303624153137e-01,3.699867427349090576e-02,-3.075822629034519196e-02,-4.346098378300666809e-02,3.499152837321162224e-03,4.271588101983070374e-02,-1.313316971063613892e-01,-2.244174666702747345e-02,-5.380484834313392639e-02,-1.078712344169616699e-01,2.414046600461006165e-02,-7.042017579078674316e-02,7.173249498009681702e-03,-4.823361523449420929e-04,3.087135590612888336e-02,-4.724456369876861572e-02,2.237864583730697632e-02,4.082956537604331970e-02,-2.062021568417549133e-02,-1.550732403993606567e-01,-7.185775041580200195e-02,3.292422369122505188e-02,2.505142241716384888e-02,-1.491827517747879028e-02,9.058570116758346558e-02,2.898940071463584900e-02,-2.749028429388999939e-02,-9.141909331083297729e-02,-9.431885927915573120e-02,-4.702619463205337524e-02,-8.554010838270187378e-02,-2.454194426536560059e-02,2.004907000809907913e-03,-2.123560942709445953e-02,-1.810700446367263794e-02,3.931089118123054504e-02,-6.087528541684150696e-02,-5.888258293271064758e-02,6.378078460693359375e-02,-1.528797745704650879e-01,-2.963390201330184937e-02,-2.149149477481842041e-01,1.615757681429386139e-02,-1.169257890433073044e-02,4.386997222900390625e-02,-2.615011036396026611e-01,-3.054765984416007996e-02,1.236762199550867081e-02,-3.478246927261352539e-02,-3.097293898463249207e-03,-4.370223730802536011e-02,-2.436655806377530098e-03,5.141906812787055969e-02,-1.368751972913742065e-01,6.122064217925071716e-02,-6.796970218420028687e-02,-4.420192167162895203e-02,-1.211727559566497803e-01,9.269641339778900146e-02,4.619529470801353455e-02,-2.463566372171044350e-03,1.329332869499921799e-02,2.102604135870933533e-02,-3.638968244194984436e-02,-1.704467646777629852e-02,-3.887355327606201172e-02,1.754574850201606750e-02,-5.134779587388038635e-02,-2.726437710225582123e-02,-1.148209348320960999e-02,-2.532303519546985626e-02,-6.822533439844846725e-03,-4.929883778095245361e-02,5.047252401709556580e-02,2.164168283343315125e-02,-2.346837427467107773e-03,-4.855538904666900635e-02,-4.458182305097579956e-02,3.506986424326896667e-02,-3.238265588879585266e-02,9.804692119359970093e-03,-8.806419558823108673e-03,-3.338460996747016907e-02,-5.013071745634078979e-02,-3.678655996918678284e-02,3.538544476032257080e-02,-7.266400009393692017e-02,-5.182134360074996948e-02,2.203352749347686768e-02,-6.883727759122848511e-02,1.762196980416774750e-02,-1.346512231975793839e-02,-5.714282765984535217e-02,-5.414324998855590820e-02,-8.100679516792297363e-02,-3.719713538885116577e-02,-9.094184264540672302e-03,3.219448029994964600e-02,1.446440815925598145e-02,4.619688913226127625e-02,-1.881666332483291626e-01,-1.229598969221115112e-01,4.431125521659851074e-02,-1.123087033629417419e-01,4.150762036442756653e-02,-1.491112112998962402e-01,-7.932822406291961670e-02,3.967650607228279114e-02,-6.269520148634910583e-03,4.489326477050781250e-02,-2.390443906188011169e-02,-5.527674034237861633e-02,-1.190330088138580322e-01,-2.392964623868465424e-02,-1.151714968727901578e-05,-2.951370179653167725e-02,-6.567914038896560669e-02,4.001659341156482697e-03,-5.746957659721374512e-02,-5.525997281074523926e-02,1.188392192125320435e-01,1.159272640943527222e-01,5.170537903904914856e-02,-8.806722611188888550e-02,-1.254330724477767944e-01,-1.110311225056648254e-01,-1.085156947374343872e-01,-1.546336151659488678e-02,9.477680921554565430e-02,5.309799313545227051e-02,6.939901411533355713e-02,-5.638908967375755310e-02,8.309980481863021851e-02,-1.071854010224342346e-01,5.410676822066307068e-02,-2.903422713279724121e-02,-6.954815238714218140e-02,-6.690932065248489380e-02,6.103496626019477844e-02,-1.701331138610839844e-02,-9.872005879878997803e-02,-1.700760126113891602e-01,6.341661512851715088e-02,-1.925465464591979980e-02,1.155653409659862518e-02,-5.895100533962249756e-03,-1.351484209299087524e-01,-1.504612527787685394e-02,-3.670233115553855896e-02,-5.015419423580169678e-02,-1.680555753409862518e-02,-1.449978500604629517e-01,-5.766478925943374634e-02,-2.775172516703605652e-02,2.156289992853999138e-03,-3.958356380462646484e-02,7.690906524658203125e-02,-2.087766490876674652e-02,-9.225969552062451839e-04,-1.081243678927421570e-01,-2.499593049287796021e-02,-2.436342649161815643e-02,-5.389120802283287048e-02,4.610084742307662964e-02,-2.299647219479084015e-02,1.410203520208597183e-03,-5.713662505149841309e-02,1.997567154467105865e-02,8.108247071504592896e-02,1.137953903526067734e-02,6.881611794233322144e-02,-4.258063435554504395e-02,-9.052008390426635742e-03,4.993903636932373047e-02,-7.189192809164524078e-03,1.102638151496648788e-02,-1.936127617955207825e-02,-2.814532816410064697e-02,2.447846904397010803e-02,4.847487434744834900e-02,-2.107272855937480927e-02,4.049149155616760254e-02,1.630112342536449432e-02,-7.964649051427841187e-02,-5.339326709508895874e-02,-1.930955052375793457e-02,8.988508582115173340e-02,3.802732005715370178e-02,2.667903527617454529e-02,-4.561371169984340668e-03,5.900860950350761414e-02,-1.633800752460956573e-02,-4.143909551203250885e-03,3.219028189778327942e-02,3.616465255618095398e-02,2.889185957610607147e-02,2.704060822725296021e-02,-4.161896184086799622e-02,-5.237364023923873901e-02,-1.058838889002799988e-01,-1.165117919445037842e-01,-3.177003189921379089e-02,3.491682466119527817e-03,8.175143599510192871e-02,4.486414417624473572e-02,9.082363545894622803e-02,-5.176841840147972107e-02,-1.849391497671604156e-02,-7.060326635837554932e-02,2.738463319838047028e-02,3.746677935123443604e-02,4.158647730946540833e-02,1.439220737665891647e-02,-2.204925194382667542e-02,-9.692927449941635132e-02,-2.127504907548427582e-02,-4.076811671257019043e-02,-3.703263029456138611e-02,4.341611266136169434e-02,1.063935384154319763e-01,-9.253552416339516640e-04,-3.582352399826049805e-02,1.190192438662052155e-02,-6.983070075511932373e-02,-5.093643814325332642e-02,-5.290343612432479858e-02,-6.509117037057876587e-02,-3.132019564509391785e-02,1.687903702259063721e-02,-1.175739765167236328e-01,-6.807051599025726318e-02,-5.561950057744979858e-02,-5.479351803660392761e-02,-6.914850324392318726e-02,-1.816438976675271988e-03,-3.877662122249603271e-02,-4.523111507296562195e-02,-1.066263858228921890e-02,-7.478015031665563583e-03,-1.677340641617774963e-02,1.669049821794033051e-02,-1.338955294340848923e-02,-6.536239525303244591e-04,-3.311542049050331116e-02,1.253544911742210388e-02,-9.129704907536506653e-03,7.540611084550619125e-03,2.191436477005481720e-03,-6.172008346766233444e-03,2.400206029415130615e-02,2.073406800627708435e-02,5.472352728247642517e-02,-1.084990873932838440e-01,-1.912257447838783264e-02,6.817505229264497757e-03,4.022260755300521851e-02,1.970830000936985016e-02,4.480281099677085876e-02,2.681459765881299973e-03,5.825966224074363708e-02,4.254613444209098816e-02,-2.753317914903163910e-02,2.987646125257015228e-02,2.440006099641323090e-02,-1.086320951581001282e-01,4.488816484808921814e-02,2.490016166120767593e-03,-7.202464155852794647e-03,-3.185714036226272583e-02,-4.924263432621955872e-02,-1.232222095131874084e-02,-3.062991239130496979e-02,-3.010082244873046875e-02,4.321231693029403687e-02,-2.110789157450199127e-02,1.525571756064891815e-02,-5.140693392604589462e-03,1.189325191080570221e-02,5.586949177086353302e-03,-6.454114615917205811e-02,7.835075259208679199e-03,-6.257726997137069702e-02,-3.871257416903972626e-03,4.914349690079689026e-02,2.405719272792339325e-02,-5.958107858896255493e-02,1.496966835111379623e-02,-3.211589157581329346e-02,-6.331268232315778732e-03,-1.724511384963989258e-02,2.815039828419685364e-02,-1.109379809349775314e-02,-1.143173314630985260e-02,7.550793699920177460e-03,-2.462334744632244110e-02,-3.994327411055564880e-02,1.962071470916271210e-02,-4.632085561752319336e-02,-5.074594169855117798e-02,-2.178998291492462158e-02,-2.989162132143974304e-02,-2.711219713091850281e-02,-4.080305621027946472e-02,-4.004988819360733032e-02,-1.925684628076851368e-03,-2.074763178825378418e-03,4.935057833790779114e-03,-1.758731156587600708e-02,-9.009720757603645325e-03,-9.552556276321411133e-02,-2.553623169660568237e-02,-2.966737374663352966e-02,-9.224227629601955414e-03,2.181775867938995361e-03,-2.595518529415130615e-02,-1.922277733683586121e-02,-3.470357879996299744e-02,-2.706481516361236572e-02,5.171314254403114319e-02,-5.109803378582000732e-02,1.165566383861005306e-03,-2.381068095564842224e-02,-3.172586113214492798e-02,2.410713024437427521e-02,-1.245495770126581192e-02,-2.315707504749298096e-02,-3.546619415283203125e-02,-3.528010845184326172e-02,-2.222277224063873291e-02,-3.203813359141349792e-02,1.007259339094161987e-01,4.172308743000030518e-02,-6.289306282997131348e-02,-1.446240246295928955e-01,-1.135145574808120728e-01,-8.859781920909881592e-02,-1.708436384797096252e-02,7.197248749434947968e-03,6.619751453399658203e-02,4.420734196901321411e-02,-1.048042029142379761e-01,-8.451874554157257080e-02,3.442161157727241516e-02,-4.160637035965919495e-02,6.291545182466506958e-02,-8.203392475843429565e-02,-6.255550682544708252e-02,-2.759551443159580231e-02,4.602148383855819702e-02,-3.953323699533939362e-03,-1.029253602027893066e-01,-6.227898597717285156e-02,2.015314996242523193e-02,3.561003133654594421e-02,-1.076937559992074966e-02,1.567842904478311539e-03,-8.468930423259735107e-02,-3.910118713974952698e-02,-3.725965693593025208e-02,4.753241315484046936e-02,-1.565794348716735840e-01,-4.741445183753967285e-02,-3.549731522798538208e-02,1.692643947899341583e-02,-6.097650900483131409e-02,-2.970912121236324310e-02,-6.892175972461700439e-02,-5.321971606463193893e-03,1.219952329993247986e-01,-6.302632391452789307e-02,-3.832679707556962967e-03,-1.750635914504528046e-02,-6.799172610044479370e-02,-3.675150126218795776e-02,4.910857975482940674e-02,-9.434381127357482910e-02,-2.234356291592121124e-02,1.165705546736717224e-02,1.264892891049385071e-02,-2.143536657094955444e-01,-4.225961118936538696e-02,-4.638769105076789856e-02,8.294928073883056641e-02,-6.581690162420272827e-02,6.828130781650543213e-02,-4.006549715995788574e-02,3.291809931397438049e-02,1.598275080323219299e-02,-7.398876547813415527e-02,-4.672816395759582520e-02,-1.604329049587249756e-02,1.400478836148977280e-02,-2.490082755684852600e-02,6.507784128189086914e-03,-3.558045998215675354e-02,8.023388683795928955e-03,3.918445482850074768e-02,-1.671193912625312805e-02,-6.357266753911972046e-02,1.746263727545738220e-02,-4.755003377795219421e-02,-8.583503216505050659e-02,2.537085302174091339e-02,-3.599551320075988770e-02,5.451242998242378235e-02,-5.798369273543357849e-02,7.687957957386970520e-03,-5.788847059011459351e-02,-1.164516583085060120e-01,-4.489620402455329895e-02,-2.395322546362876892e-02,3.230789303779602051e-02,-2.452694065868854523e-02,-2.843765169382095337e-02,-4.648257046937942505e-02,-6.205924227833747864e-02,4.799294751137495041e-03,-3.939004149287939072e-03,-2.868877723813056946e-02,2.512881346046924591e-02,-4.311636835336685181e-02,2.743232063949108124e-03,3.083872608840465546e-02,1.975444704294204712e-02,8.340902626514434814e-02,3.201206214725971222e-03,-1.295504122972488403e-01,2.207297459244728088e-02,-2.695541828870773315e-02,-7.821378856897354126e-02,1.149479672312736511e-02,-8.255062624812126160e-03,-1.162712946534156799e-01,-6.915739923715591431e-02,-3.867416828870773315e-02,4.237127676606178284e-02,2.995247766375541687e-02,-3.109131753444671631e-02,-2.193612512201070786e-03,2.500937320291996002e-02,-8.644720911979675293e-02,-1.318737398833036423e-02,9.223114699125289917e-02,1.414600946009159088e-02,-8.493763208389282227e-02,4.318659380078315735e-02,5.344457924365997314e-02,2.365248091518878937e-02,-4.484907910227775574e-02,-6.766571663320064545e-03,-7.643719762563705444e-02,-5.139015614986419678e-03,-1.012727618217468262e-02,2.648822776973247528e-02,7.186644524335861206e-02,3.156294673681259155e-02,3.811771422624588013e-02,2.995460666716098785e-02,-7.227313518524169922e-02,-5.702932178974151611e-02,3.691383451223373413e-02,4.760946705937385559e-02,-7.925384491682052612e-02,-4.022769629955291748e-02,6.037375330924987793e-02,4.010437428951263428e-02,3.544008731842041016e-02,-6.901534646749496460e-02,-2.353691756725311279e-01,3.915529325604438782e-02,1.702137663960456848e-02,1.601009629666805267e-02,2.392858825623989105e-02,-9.874778799712657928e-03,-9.185390919446945190e-02,7.000008225440979004e-02,2.405642345547676086e-02,1.309425756335258484e-02,2.550386125221848488e-03,-2.857648534700274467e-03,-5.142571404576301575e-02,-2.564956061542034149e-02,9.517696686089038849e-03,-2.988813631236553192e-02,6.462495308369398117e-03,-8.485480397939682007e-02,-3.708635270595550537e-02,-6.128803640604019165e-02,-9.052405506372451782e-02,-6.777052581310272217e-02,4.401676356792449951e-03,2.866486459970474243e-02,-6.233868747949600220e-02,7.458127103745937347e-03,-7.574216276407241821e-02,-4.027788527309894562e-03,1.786697097122669220e-02,-4.437426105141639709e-02,2.115238271653652191e-02,-7.641947362571954727e-03,-2.199514023959636688e-02,-2.346897684037685394e-02,7.201118394732475281e-03,-6.565941125154495239e-02,1.998914638534188271e-03,4.138188436627388000e-02,-1.967935264110565186e-02,-9.405141696333885193e-03,-7.410314865410327911e-03,5.712229292839765549e-03,-8.975144475698471069e-02,-3.455376997590065002e-02,3.905088175088167191e-03,3.288386762142181396e-02,6.725256145000457764e-02,1.616323366761207581e-02,-2.610330097377300262e-02,3.156390041112899780e-02,-4.467123001813888550e-02,-9.553294628858566284e-02,4.784275963902473450e-02,7.753963768482208252e-02,6.139007746241986752e-04,-3.652808372862637043e-04,-2.926124632358551025e-02,3.459623456001281738e-02,3.366127982735633850e-02,-5.237428471446037292e-03,2.990718185901641846e-02,4.147779941558837891e-02,-3.233908489346504211e-02,7.764492183923721313e-03,8.058290183544158936e-02,-9.889972209930419922e-02,3.485915064811706543e-02,3.547436371445655823e-02,1.438027620315551758e-02,4.510407522320747375e-02,6.491009145975112915e-02,-5.477615073323249817e-02,4.736603423953056335e-02,9.127840399742126465e-02,-5.515537783503532410e-02,-3.154953569173812866e-02,-1.379090249538421631e-01,3.818807005882263184e-02,4.133908450603485107e-02,-1.525022205896675587e-03,8.590558916330337524e-02,8.402824401855468750e-02,-2.237557247281074524e-02,-1.495025753974914551e-01,6.101083010435104370e-02,-1.718506682664155960e-03,8.373494260013103485e-03,-4.504686966538429260e-02,-9.370093047618865967e-02,-1.663262955844402313e-02,-3.794136643409729004e-02,2.733387611806392670e-02,1.719883456826210022e-02,-1.033908594399690628e-02,-8.834275603294372559e-02,-1.269585490226745605e-01,8.171585947275161743e-02,-3.775198012590408325e-02,-8.056676387786865234e-02,-3.543516620993614197e-02,5.038354545831680298e-02,4.701916500926017761e-02,7.725509256124496460e-02,-1.950630545616149902e-01,2.083375118672847748e-02,-6.623626500368118286e-02,9.203210473060607910e-02,2.342673391103744507e-02,1.341373473405838013e-02,2.011178527027368546e-03,7.496899366378784180e-02,6.096780300140380859e-02,-3.947921097278594971e-02,-3.847681730985641479e-02,-3.557444084435701370e-03,-3.716265410184860229e-02,-3.330220654606819153e-02,9.271352738142013550e-02,-5.538944527506828308e-02,-2.193785272538661957e-02,4.876840859651565552e-02,1.361199468374252319e-01,2.021599747240543365e-02,-5.362759530544281006e-02,9.726049005985260010e-02,1.126974169164896011e-02,-7.250877469778060913e-02,9.183910489082336426e-02,6.743529345840215683e-03,1.233799662441015244e-02,4.302976280450820923e-02,5.145781859755516052e-02,-2.571134595200419426e-03,-1.010444480925798416e-02,-1.940385624766349792e-02,-6.356303114444017410e-03,4.678842425346374512e-02,-5.885035172104835510e-02,1.328429430723190308e-01,2.659504301846027374e-02,3.433629870414733887e-02,-2.747611701488494873e-02,-1.502485759556293488e-02,7.324733585119247437e-02,-3.945604711771011353e-02,-7.770019117742776871e-03,2.118610963225364685e-02,8.847684413194656372e-02,1.013582274317741394e-01,4.050133749842643738e-02,6.673457473516464233e-02,1.016332209110260010e-01,-6.037029996514320374e-02,-7.217019330710172653e-03,8.564006537199020386e-02,1.239412557333707809e-02,-4.178263619542121887e-02,1.399423182010650635e-02,-1.330684404820203781e-02,-3.539283061400055885e-03,-6.807676702737808228e-02,-3.441858291625976562e-02,4.222459718585014343e-02,1.356146782636642456e-01,8.618028834462165833e-03,-7.519498001784086227e-03,-8.234997838735580444e-02,-9.895827621221542358e-02,5.436442419886589050e-02,4.143228754401206970e-02,2.460320666432380676e-02,-5.235618352890014648e-02,7.934930175542831421e-02,5.909102782607078552e-02,4.256171360611915588e-02,-1.228101402521133423e-01,1.468169130384922028e-02,1.001900583505630493e-01,2.029111795127391815e-02,-3.618805482983589172e-02,2.171103097498416901e-02,-7.073603570461273193e-03,3.506007045507431030e-02,-6.712978333234786987e-02,7.724948227405548096e-02,4.539139941334724426e-02,1.191949918866157532e-01,1.042993925511837006e-02,-4.047999531030654907e-02,1.708536036312580109e-02,-1.597929187119007111e-02,1.019115839153528214e-02,4.177635908126831055e-02,-5.124469846487045288e-02,-9.249073453247547150e-03,-6.841880083084106445e-02,2.539355680346488953e-02,5.156661197543144226e-02,2.609312534332275391e-02,-9.020444750785827637e-02,4.511848464608192444e-02,-1.861850358545780182e-02,6.359481066465377808e-02,4.457998648285865784e-02,3.328992426395416260e-02,-8.288941532373428345e-02,-3.599233925342559814e-02,-5.293366685509681702e-02,-4.010248184204101562e-02,6.638202350586652756e-03,8.575499802827835083e-02,3.833708167076110840e-02,2.976199798285961151e-02,-2.435198985040187836e-02,2.704134397208690643e-02,8.831688202917575836e-03,-1.424488052725791931e-02,6.393573433160781860e-02,-6.553937494754791260e-02,-1.007770001888275146e-01,-8.229703456163406372e-02,-7.831090688705444336e-02,-1.488947719335556030e-01,-4.514437541365623474e-02,-9.883892536163330078e-02,8.197980932891368866e-03,1.015970036387443542e-01,5.141180474311113358e-03,8.512373082339763641e-03,-9.103461354970932007e-02,6.649456918239593506e-02,-2.527939341962337494e-02,-1.388471275568008423e-01,3.365371003746986389e-02,-2.128374576568603516e-02,9.124148637056350708e-02,-3.660528361797332764e-02,1.318092271685600281e-02,7.780699431896209717e-02,5.731965228915214539e-02,1.511529982089996338e-01,-3.449916094541549683e-02,6.552071869373321533e-02,1.256929989904165268e-02,-3.907764796167612076e-03,3.301098942756652832e-02,6.048537418246269226e-02,7.899819314479827881e-02,-1.411467511206865311e-02,-1.408882206305861473e-03,-5.058348923921585083e-02,3.529968857765197754e-02,4.338824003934860229e-02,-1.263926178216934204e-01,-7.657134532928466797e-02,5.210714042186737061e-02,6.208538636565208435e-02,8.882790803909301758e-02,-5.218219012022018433e-03,-1.292786747217178345e-01,3.791355714201927185e-02,-2.060127258300781250e-01,-9.149784594774246216e-02,-9.914753586053848267e-02,-4.219812899827957153e-02,3.430140763521194458e-02,-4.980187863111495972e-02,-7.149137556552886963e-03,-3.566218167543411255e-02,4.733822122216224670e-02,2.493542060256004333e-02,3.054017014801502228e-02,3.110532090067863464e-02,1.044957041740417480e-01,-5.234071053564548492e-03,6.851560622453689575e-02,4.775909334421157837e-02,8.523703366518020630e-02,8.562006987631320953e-03,4.887639358639717102e-02,-1.656250804662704468e-01,-1.192358136177062988e-01,4.585608839988708496e-02,7.615178078413009644e-02,1.473678741604089737e-02,7.089436054229736328e-02,-1.639295816421508789e-01,9.987920522689819336e-02,4.659053683280944824e-02,4.658076912164688110e-02,7.379648834466934204e-02,-6.325855106115341187e-02,-4.861943796277046204e-02,1.397676300257444382e-02,-1.736765168607234955e-02,7.031339406967163086e-02,6.366629898548126221e-02,3.455851227045059204e-02,-8.239373564720153809e-02,8.804877847433090210e-02,9.433675557374954224e-02,2.830468490719795227e-02,7.323915511369705200e-02,1.129895374178886414e-01,-9.235246479511260986e-02,1.202346608042716980e-01,9.678365290164947510e-02,-1.187526956200599670e-01,-3.479042649269104004e-02,4.337612539529800415e-02,-1.158300787210464478e-01,-5.351622775197029114e-02,-1.470239832997322083e-02,-3.598783165216445923e-02,2.397459559142589569e-02,-5.818157643079757690e-02,-6.914926320314407349e-02,-9.470929950475692749e-02,-5.391434207558631897e-02,-2.461854368448257446e-02,4.329162463545799255e-02,-2.845078706741333008e-03,1.534165591001510620e-01,7.539005484431982040e-03,1.780775003135204315e-02,-7.282252609729766846e-02,1.415820121765136719e-01,-1.482769846916198730e-02,-7.490120828151702881e-02,-3.222500160336494446e-02,6.091452762484550476e-02,-2.495185844600200653e-02,-6.728166341781616211e-02,-1.504935771226882935e-01,1.179153844714164734e-01,-5.595018714666366577e-02,7.440526783466339111e-02,4.023521393537521362e-02,4.194601997733116150e-02,-9.124070405960083008e-02,-1.292513497173786163e-02,-4.978901520371437073e-02,3.126058727502822876e-02,1.312269121408462524e-01,-3.568796068429946899e-02,-6.613213103264570236e-03,-1.009174808859825134e-01,1.162918843328952789e-02,4.704311117529869080e-02,4.641707241535186768e-02,5.401175934821367264e-03,6.020841002464294434e-02,2.295300923287868500e-02,4.824760183691978455e-02,-6.611438933759927750e-03,-4.765943810343742371e-02,7.359987497329711914e-02,2.005792036652565002e-02,-4.103371873497962952e-03,3.509336337447166443e-02,4.902514070272445679e-02,9.199137240648269653e-02,3.185272589325904846e-02,-4.239118658006191254e-03,-4.740984737873077393e-02,-1.011665258556604385e-02,-3.135527484118938446e-03,-6.923672556877136230e-02,1.122991181910037994e-02,2.317369356751441956e-02,-5.758475884795188904e-02,-2.861676923930644989e-02,9.781043231487274170e-02,-4.961347952485084534e-02,-2.290150523185729980e-01,5.107321217656135559e-02,-2.120669372379779816e-02,1.108986586332321167e-01,-3.275436814874410629e-03,-1.922309845685958862e-01,-1.201326474547386169e-01,-1.170425638556480408e-01,-1.529311761260032654e-02,-7.814920507371425629e-03,8.255307376384735107e-02,-9.041115641593933105e-02,4.484607279300689697e-02,-1.394387483596801758e-01,2.579357288777828217e-02,-3.469441458582878113e-02,5.841127713210880756e-04,4.615213721990585327e-02,6.655785441398620605e-02,5.293268337845802307e-02,-1.249225717037916183e-02,6.467869132757186890e-02,2.357111312448978424e-02,-7.979491725564002991e-03,-6.647986173629760742e-02,6.195897236466407776e-02,1.258337311446666718e-02,2.097511477768421173e-02,-1.092586014419794083e-02,-8.000930398702621460e-02,-4.148583486676216125e-02,-1.130367070436477661e-02,2.846129797399044037e-02,1.168243834399618208e-04,-8.092596381902694702e-02,-1.116845756769180298e-01,4.499091580510139465e-02,-4.020330682396888733e-02,-6.933906115591526031e-03,7.144995778799057007e-02,4.387286305427551270e-02,-1.173495426774024963e-01,5.646288767457008362e-02,2.964322268962860107e-02,2.140908874571323395e-02,7.223154604434967041e-02,-7.718827575445175171e-02,1.084875836968421936e-01,4.657828807830810547e-02,5.300926789641380310e-02,2.166890166699886322e-02,1.625203490257263184e-01,-1.274253521114587784e-02,-1.432357281446456909e-01,3.071956336498260498e-02,-5.431472510099411011e-02,6.569830700755119324e-03,7.020924240350723267e-04,4.031955450773239136e-02,1.097070276737213135e-01,7.584917545318603516e-02,-1.796856969594955444e-01,-6.034348532557487488e-02,-4.285670816898345947e-02,9.912094473838806152e-02,-1.347134355455636978e-03,2.483205683529376984e-02,1.256374083459377289e-02,-1.460209488868713379e-02,4.244816303253173828e-02,4.081236198544502258e-02,6.291306018829345703e-02,4.009908065199851990e-02,7.236383110284805298e-02,2.914522960782051086e-02,9.557499736547470093e-02,1.113686412572860718e-01,8.491893112659454346e-02,1.415249258279800415e-01,8.513397537171840668e-03,-1.295055169612169266e-02,3.623337671160697937e-02,-4.769529029726982117e-02,4.717982187867164612e-02,-8.191457949578762054e-03,8.437691628932952881e-02,3.035352006554603577e-02,4.578351601958274841e-02,6.148176267743110657e-02,-1.146572753787040710e-01,1.787633821368217468e-02,2.714361250400543213e-02,1.874609291553497314e-02,3.478040546178817749e-02,3.224643319845199585e-02,-8.941715210676193237e-02,-1.303451694548130035e-02,-8.451762795448303223e-02,4.894249141216278076e-03,2.608022280037403107e-02,3.792413044720888138e-03,9.259970486164093018e-02,3.592996671795845032e-02,9.250123053789138794e-02,-1.220162812387570739e-05,2.870744280517101288e-02,7.367392536252737045e-03,6.840584427118301392e-02,8.238463848829269409e-02,1.056858003139495850e-01,-5.546404793858528137e-02,5.330742895603179932e-02,-6.646952033042907715e-02,5.420109629631042480e-02,-2.941408008337020874e-02,6.251644808799028397e-03,2.987653389573097229e-02,7.386554032564163208e-02,1.549302507191896439e-02,-1.544892340898513794e-01,6.259230431169271469e-03,-1.535594165325164795e-01,3.728814888745546341e-03,-6.600515544414520264e-02,4.190198332071304321e-02,-7.003779709339141846e-02,6.460156291723251343e-02,2.877700515091419220e-02,-1.912699826061725616e-02,7.248522341251373291e-02,2.310842834413051605e-02,-7.387405633926391602e-02,3.576396405696868896e-02,1.459919475018978119e-02,-8.601406589150428772e-03,4.539342597126960754e-02,8.589822798967361450e-03,7.781724631786346436e-02,-7.663634419441223145e-02,-6.128779798746109009e-02,-9.001997299492359161e-03,5.142588540911674500e-02,-5.323909968137741089e-02,3.537166118621826172e-02,-3.798393532633781433e-02,-5.008828639984130859e-02,7.206182926893234253e-02,-8.858323097229003906e-03,-1.326016038656234741e-01,1.475746091455221176e-02,-9.914845973253250122e-02,-9.301848709583282471e-02,-6.316781509667634964e-03,1.013512611389160156e-01,7.897872477769851685e-02,1.081979572772979736e-01,-7.600422203540802002e-02,3.302641585469245911e-02,-1.253967285156250000e-01,-3.833187371492385864e-02,7.325271517038345337e-02,3.215864673256874084e-02,1.866626888513565063e-01,-3.005079459398984909e-03,1.048778444528579712e-01,2.748608961701393127e-02,-1.148740798234939575e-01,9.771282970905303955e-02,-6.901656836271286011e-02,1.315818130970001221e-01,5.420562811195850372e-04,-1.749357394874095917e-02,1.445189304649829865e-02,-6.494233757257461548e-02,9.350562840700149536e-02,-1.978598907589912415e-02,5.155889317393302917e-03,3.334451839327812195e-02,8.935163728892803192e-03,-2.036124654114246368e-02,4.067340120673179626e-02,-9.691810607910156250e-02,4.681640490889549255e-02,-1.104935333132743835e-01,-2.670257911086082458e-02,1.115111857652664185e-01,1.487283259630203247e-01,1.555457711219787598e-01,1.009788829833269119e-02,-1.076633334159851074e-01,-2.038621902465820312e-02,5.804978683590888977e-02,7.387202233076095581e-02,1.250985860824584961e-01,-5.770048126578330994e-02,-7.969655096530914307e-02,8.672788739204406738e-02,2.194566186517477036e-03,-3.116248734295368195e-02,-2.323213666677474976e-01,7.110808044672012329e-02,1.316352281719446182e-02,-6.395294517278671265e-02,1.252609491348266602e-01,-8.501958101987838745e-02,3.061895631253719330e-02,1.401350949890911579e-03,4.401081427931785583e-02,-2.891400828957557678e-02,2.807332016527652740e-02,-4.019025247544050217e-03,3.609448671340942383e-02,-8.434934914112091064e-02,6.896798312664031982e-02,3.397060558199882507e-02,3.230480849742889404e-02,1.345016956329345703e-01,-1.319501996040344238e-01,4.837107658386230469e-02,1.753833331167697906e-02,7.140266150236129761e-02,7.293724268674850464e-02,-5.742402747273445129e-02,1.067279055714607239e-01,2.728017745539546013e-03,9.781171381473541260e-02,1.204545870423316956e-01,1.457577198743820190e-02,-5.360637232661247253e-02,4.918846487998962402e-02,-6.259834766387939453e-02,8.784139156341552734e-02,9.371037036180496216e-02,5.659855157136917114e-02,-8.312922902405261993e-03,-4.573046043515205383e-02,-8.725468814373016357e-02,6.804778240621089935e-03,-7.856007665395736694e-02,5.497461557388305664e-02,1.424704398959875107e-02,-3.457413986325263977e-02,1.181205920875072479e-02,1.489921566098928452e-02,2.849595062434673309e-02,3.941760212182998657e-02,-4.161753877997398376e-02,8.920165896415710449e-02,-7.773108780384063721e-02,-6.500921398401260376e-02,5.156049504876136780e-02,8.970386534929275513e-02,3.092562779784202576e-02,-4.201696813106536865e-02,2.758300863206386566e-02,3.638379042968153954e-03,1.381324697285890579e-02,-3.913246840238571167e-02,3.124292008578777313e-02,3.221655264496803284e-02,1.027384027838706970e-02,-1.394986547529697418e-02,7.075633853673934937e-02,2.110465615987777710e-02,9.570434689521789551e-02,1.625149138271808624e-02,6.236574146896600723e-03,-6.174669787287712097e-02,-4.984656348824501038e-02,7.607091963291168213e-02,8.931285142898559570e-02,3.596927598118782043e-02,-5.460569262504577637e-02,3.715844079852104187e-02,-2.016327716410160065e-02,-9.878085553646087646e-02,-4.065234214067459106e-02,3.681987524032592773e-02,-1.414516419172286987e-01,-7.099392265081405640e-02,-2.128773555159568787e-02,-8.065813034772872925e-02,4.489006847143173218e-02,-1.340540498495101929e-01,-8.007872104644775391e-02,-3.470631316304206848e-02,-1.441760919988155365e-02,-1.890528202056884766e-02,1.391415484249591827e-02,4.264513030648231506e-02,-5.838384479284286499e-02,5.454898346215486526e-03,2.280115708708763123e-02,-1.368596851825714111e-01,2.549349516630172729e-02,4.037548974156379700e-02,3.376780822873115540e-02,2.343795634806156158e-02,-5.534419044852256775e-02,1.640776358544826508e-02,-7.328584324568510056e-03,7.487096823751926422e-03,7.723494432866573334e-03,-6.843066960573196411e-02,1.626046448945999146e-01,-3.847464174032211304e-02,-1.896062791347503662e-01,-1.391911134123802185e-02,-3.282514587044715881e-02,-9.167462587356567383e-02,2.600153908133506775e-02,1.160531938076019287e-01,4.572518542408943176e-02,2.358993981033563614e-03,-3.188742324709892273e-02,-3.528100624680519104e-02,-6.263940781354904175e-02,-1.045926511287689209e-01,-5.798366665840148926e-02,4.706856608390808105e-02,-3.499331325292587280e-02,-5.807377770543098450e-02,3.819879144430160522e-02,-1.677108928561210632e-02,2.254883386194705963e-02,1.133011728525161743e-01,-8.523364551365375519e-03,4.840784892439842224e-02,-4.576166346669197083e-02,-1.737380474805831909e-01,3.374759107828140259e-02,-8.481370657682418823e-02,6.770949810743331909e-02,-7.414676994085311890e-02,5.538580473512411118e-03,-8.761195838451385498e-02,5.679624900221824646e-02,-6.033489108085632324e-02,3.496569395065307617e-02,1.690142787992954254e-02,-6.281343847513198853e-02,1.573159475810825825e-03,2.008272707462310791e-02,1.072613224387168884e-01,-1.069727260619401932e-02,1.001125052571296692e-01,1.262716948986053467e-01,8.297082036733627319e-02,1.205823943018913269e-01,-1.864694431424140930e-02,1.726420223712921143e-02,1.383428275585174561e-01,-3.543697297573089600e-02,9.055186063051223755e-02,-1.072085127234458923e-01,-6.900362670421600342e-02,1.446555703878402710e-01,1.472391337156295776e-01,-5.016149953007698059e-02,-1.296827644109725952e-01,-6.644696742296218872e-02,7.755755633115768433e-02,4.903934895992279053e-02,-3.551856800913810730e-02,-1.082208082079887390e-01,3.974701836705207825e-02,1.621925234794616699e-01,9.994609653949737549e-02,-2.612666785717010498e-02,8.124334737658500671e-03,2.443267591297626495e-02,-1.755219884216785431e-02,4.300330206751823425e-02,1.235748380422592163e-01,1.046683173626661301e-02,4.243844654411077499e-03,5.885079503059387207e-02,2.362513393163681030e-01,6.858560373075306416e-04,-6.095707044005393982e-02,-1.065356358885765076e-01,2.720569670200347900e-01,-1.343355327844619751e-01,1.669558733701705933e-01,-5.816326476633548737e-03,3.488488867878913879e-02,-4.041762650012969971e-02,-2.926173619925975800e-02,-3.934704139828681946e-02,1.014892384409904480e-01,8.667041361331939697e-02,4.375214502215385437e-02,-7.769316434860229492e-02,3.198548033833503723e-02,-6.303391605615615845e-02,-1.129746362566947937e-01,-1.909180171787738800e-02,-3.905556350946426392e-02,-6.146766245365142822e-02,-2.280899509787559509e-02,2.092361636459827423e-02,3.240153566002845764e-02,-9.969592094421386719e-03,-2.963662706315517426e-02,-5.096898600459098816e-02,-5.066507309675216675e-02,-1.501981448382139206e-02,-7.811419200152158737e-03,3.226496279239654541e-02,-4.598520323634147644e-02,-5.516900867223739624e-02,2.987649478018283844e-02,3.963577002286911011e-02,-1.012873500585556030e-01,3.038153797388076782e-02,3.974345698952674866e-02,-9.500973671674728394e-02,7.454989105463027954e-02,-2.651680447161197662e-02,2.435695007443428040e-02,2.615261077880859375e-02,2.848495170474052429e-02,-2.899559587240219116e-02,-8.839151263236999512e-02,5.473865941166877747e-02,2.964855730533599854e-02,1.512227207422256470e-02,-2.710130438208580017e-02,-2.481518685817718506e-02,-9.672132320702075958e-03,-1.860201731324195862e-02,-2.837343886494636536e-02,-8.804323524236679077e-02,-2.106332778930664062e-02,-4.363625496625900269e-02,-3.674457967281341553e-02,-2.665707841515541077e-02,-2.505579777061939240e-02,-1.091035604476928711e-01,-9.003332257270812988e-02,8.343653380870819092e-02,-4.417027533054351807e-02,1.058274582028388977e-01,-7.295715156942605972e-03,1.949121430516242981e-02,-2.198107168078422546e-02,2.665514126420021057e-02,8.932153880596160889e-02,-4.691033437848091125e-02,-2.633955329656600952e-02,3.448742255568504333e-02,1.305255666375160217e-02,1.681507937610149384e-02,9.308843291364610195e-04,-3.874859586358070374e-02,-2.662000246345996857e-02,-4.514952749013900757e-02,3.968515992164611816e-02,-1.444679498672485352e-01,-1.502797305583953857e-01,-8.298713713884353638e-03,1.208187267184257507e-02,-5.022546276450157166e-02,1.481872890144586563e-02,-1.926818862557411194e-02,-3.873301902785897255e-04,-3.076784685254096985e-02,-5.248516425490379333e-02,-1.209613978862762451e-01,-1.776906545273959637e-03,3.392574936151504517e-02,-7.811883091926574707e-02,2.040924876928329468e-02,2.836921066045761108e-02,1.323702335357666016e-01,5.122028663754463196e-02,9.703888744115829468e-02,4.511924088001251221e-02,8.168302476406097412e-02,4.818229749798774719e-02,6.293010711669921875e-02,-1.958112418651580811e-02,-8.722402155399322510e-02,-2.412460185587406158e-02,5.851755291223526001e-02,-9.093271940946578979e-02,3.097818233072757721e-02,-3.244370967149734497e-02,-4.199604317545890808e-02,-4.092581197619438171e-02,5.350819602608680725e-02,-2.860724180936813354e-02,2.036655880510807037e-02,1.309780180454254150e-01,-4.895107820630073547e-02,-2.414252050220966339e-02,6.564377248287200928e-02,-4.383525997400283813e-02,2.860610838979482651e-03,-5.505083501338958740e-02,7.060692459344863892e-02,-6.025098636746406555e-02,-8.384119719266891479e-02,7.605631835758686066e-03,4.054672643542289734e-02,-3.925947748939506710e-05,-2.314445748925209045e-02,1.891861297190189362e-02,3.267509862780570984e-03,-8.392153680324554443e-02,3.145486488938331604e-02,-5.068075284361839294e-02,6.963515654206275940e-03,2.141832374036312103e-02,-6.098468974232673645e-02,-5.399345234036445618e-02,1.275154668837785721e-02,-2.570973150432109833e-02,-1.014566123485565186e-01,5.157786980271339417e-02,2.509931661188602448e-02,-2.244159393012523651e-02,-3.696699067950248718e-02,-1.068778894841670990e-02,-4.987594112753868103e-02,1.419635210186243057e-02,3.164930641651153564e-02,-1.742628961801528931e-02,-5.222016200423240662e-02,6.825006008148193359e-02,6.738052517175674438e-02,2.483167685568332672e-03,-8.464111946523189545e-03,-4.992432659491896629e-04,6.230492144823074341e-02,-3.527050092816352844e-02,-2.391421794891357422e-02,3.255896642804145813e-02,2.598778717219829559e-02,-9.304814785718917847e-02,3.079452784731984138e-03,4.711964353919029236e-02,-9.063735604286193848e-02,3.706720471382141113e-02,-4.394172690808773041e-03,-2.119905129075050354e-02,-3.686734661459922791e-02,-5.094160884618759155e-02,2.927578799426555634e-02,6.882008165121078491e-03,2.324790135025978088e-02,-6.603390723466873169e-02,5.220182705670595169e-03,2.108544111251831055e-02,-5.228779464960098267e-02,6.642486155033111572e-02,6.042991206049919128e-02,-4.025933891534805298e-02,4.303192347288131714e-02,-2.946211025118827820e-02,-3.922997042536735535e-02,-8.502888493239879608e-03,-8.347511291503906250e-02,-1.126572862267494202e-02,-5.843973904848098755e-02,-5.187444388866424561e-02,2.898238040506839752e-02,-7.813440635800361633e-03,-1.104811951518058777e-01,7.310736924409866333e-03,-1.842959225177764893e-01,8.909680880606174469e-03,-5.734565854072570801e-02,-5.993841961026191711e-02,-7.721231668256223202e-04,-2.432222012430429459e-03,-5.233834031969308853e-03,-1.216303464025259018e-02,-5.901188775897026062e-02,-3.733519837260246277e-02,5.996997654438018799e-02,-4.530312120914459229e-02,-3.799566067755222321e-03,-7.767797447741031647e-03,-1.049968786537647247e-02,5.493067577481269836e-02,-1.540833264589309692e-01,1.199688576161861420e-02,-5.709940940141677856e-02,7.040209323167800903e-02,-5.475949123501777649e-02,6.589767523109912872e-03,1.076605692505836487e-01,-5.393833294510841370e-02,4.739161208271980286e-02,-5.614349618554115295e-02,2.305248565971851349e-02,7.982665300369262695e-02,6.085228174924850464e-02,-6.189922802150249481e-03,-5.355894565582275391e-02,3.807703778147697449e-02,-1.543927844613790512e-02,-2.365075610578060150e-02,1.386299915611743927e-02,5.159384384751319885e-02,-3.117620013654232025e-02,1.850938051939010620e-01,3.782268241047859192e-02,-7.937924237921833992e-04,-4.343286529183387756e-02,-7.703349739313125610e-02,-2.987578697502613068e-02,-8.485329337418079376e-03,3.319984301924705505e-02,-7.677926123142242432e-02,-6.787870824337005615e-02,-2.996342256665229797e-02,1.000754721462726593e-02,2.714275382459163666e-02,1.966714113950729370e-02,8.780639618635177612e-02,2.925227396190166473e-02,2.925828844308853149e-02,-1.400451269000768661e-02,4.183937236666679382e-02,-1.190822222270071507e-03,5.385449039749801159e-04,-7.668470591306686401e-02,-5.932495743036270142e-02,-6.531464168801903725e-05,-7.256671041250228882e-02,5.781536921858787537e-02,-1.440665218979120255e-02,1.316607743501663208e-01,-2.348836511373519897e-02,7.228131592273712158e-02,5.921526625752449036e-02,4.966596513986587524e-02,2.170924283564090729e-02,4.128397256135940552e-02,-7.555928826332092285e-02,-8.381364168599247932e-04,2.007499523460865021e-02,3.380392864346504211e-02,-4.624643921852111816e-02,-8.648000657558441162e-02,-6.811648607254028320e-02,-5.245745554566383362e-02,-1.684744283556938171e-02,7.889731973409652710e-02,-3.618961200118064880e-02,3.048342466354370117e-02,-5.502874031662940979e-03,-6.493516848422586918e-04,4.914446175098419189e-02,2.547243423759937286e-02,7.948691397905349731e-02,-8.527385443449020386e-02,1.770309731364250183e-02,-1.726773567497730255e-02,-2.459651231765747070e-02,5.018488690257072449e-02,-3.601611126214265823e-03,-1.586039178073406219e-02,6.449934840202331543e-02,7.035809755325317383e-02,-5.572636798024177551e-02,-1.059154942631721497e-01,2.863994240760803223e-02,-4.688415676355361938e-02,1.263546850532293320e-02,-5.250411108136177063e-02,5.609521269798278809e-02,1.287880726158618927e-02,5.469535663723945618e-02,1.613804325461387634e-02,1.295565813779830933e-01,1.105215866118669510e-02,7.760978490114212036e-02,3.927057236433029175e-02,1.251043565571308136e-02,-8.703817427158355713e-02,-1.148854475468397141e-02,-7.694542407989501953e-02,-4.635975696146488190e-03,-3.856240538880228996e-03,-4.195481166243553162e-02,-6.416236609220504761e-02,-5.348702892661094666e-02,-5.281525105237960815e-02,5.336168780922889709e-02,-1.406394690275192261e-01,-4.326352104544639587e-02,1.591002941131591797e-01,-4.238604381680488586e-02,5.395479500293731689e-02,1.729657202959060669e-01,2.577338740229606628e-02,6.592182070016860962e-02,-9.958614408969879150e-02,2.836026996374130249e-02,-5.070070922374725342e-02,1.090165041387081146e-02,9.009779989719390869e-02,1.239451020956039429e-02,-4.825510550290346146e-03,-7.207588106393814087e-02,-2.053395509719848633e-01,-5.265844985842704773e-02,7.204239815473556519e-02,4.914359375834465027e-02,-6.431650370359420776e-02,-1.281573772430419922e-01,3.343138843774795532e-02,7.153905928134918213e-02,5.885687191039323807e-03,4.172643274068832397e-02,-4.139817133545875549e-02,1.423517335206270218e-02,-9.914251416921615601e-02,-6.105457991361618042e-02,9.298340231180191040e-02,6.733176857233047485e-02,9.181793034076690674e-02,-1.696461695246398449e-03,1.022708788514137268e-01,-8.912315219640731812e-02,2.396603487432003021e-02,4.092665761709213257e-02,-4.213876277208328247e-02,-1.885872334241867065e-01,4.444268345832824707e-02,3.527407348155975342e-02,2.025016210973262787e-02,4.073111712932586670e-02,7.187070697546005249e-02,8.796829730272293091e-02,5.071810632944107056e-02,5.416507273912429810e-02,3.954281285405158997e-02,-1.695428602397441864e-02,1.903890520334243774e-01,-1.343668401241302490e-01,-2.775966562330722809e-02,-2.092232182621955872e-02,-1.655654399655759335e-03,1.183941587805747986e-02,-1.332412753254175186e-02,4.508439078927040100e-02,1.940078474581241608e-02,-4.688365384936332703e-02,5.655048042535781860e-02,-3.551532328128814697e-02,-3.714937344193458557e-02,-8.605802804231643677e-02,-7.823912054300308228e-02,-5.637827888131141663e-02,-1.308243442326784134e-02,-1.160866171121597290e-01,2.032831870019435883e-02,-5.199275910854339600e-02,-2.551235631108283997e-02,1.432067342102527618e-02,-7.071790099143981934e-02,9.545630216598510742e-02,1.154619380831718445e-01,-8.438074961304664612e-03,-3.725231811404228210e-02,1.245194226503372192e-01,-8.075034618377685547e-02,-5.649133399128913879e-02,6.374300271272659302e-02,-4.486793279647827148e-02,8.342553675174713135e-02,-2.554388903081417084e-02,-4.230755567550659180e-02,-1.967476867139339447e-02,-1.377571970224380493e-01,-1.366577446460723877e-01,-2.744947746396064758e-02,-4.524058476090431213e-02,6.299426406621932983e-02,-1.533129215240478516e-01,2.089080214500427246e-02,8.418692648410797119e-02,-6.766623258590698242e-02,1.060821190476417542e-01,5.292392522096633911e-02,7.139626890420913696e-02,-5.864456179551780224e-04,5.126988887786865234e-02,1.092505902051925659e-01,-3.846830874681472778e-02,-1.096648052334785461e-01,-3.926351666450500488e-02,-9.829101711511611938e-02,2.414877340197563171e-02,-9.281440824270248413e-02,3.357379138469696045e-02,-4.577339068055152893e-02,1.472815778106451035e-02,1.228213608264923096e-01,3.618222102522850037e-02,-6.849129218608140945e-03,-4.427405074238777161e-03,-1.028519421815872192e-01,-1.797255687415599823e-02,-9.570712596178054810e-02,-4.857661202549934387e-02,-6.112596392631530762e-02,-5.288570746779441833e-02,2.885281853377819061e-02,3.695433959364891052e-02,-1.464974042028188705e-02,1.869988627731800079e-02,2.847354672849178314e-02,-1.163973938673734665e-02,-7.742027752101421356e-03,3.147675842046737671e-02,1.180593948811292648e-02,-2.916443161666393280e-02,3.559641307219862938e-03,4.544086009263992310e-02,2.877981588244438171e-02,5.696808546781539917e-02,1.335586160421371460e-01,5.064186081290245056e-02,-5.612724926322698593e-03,5.797151848673820496e-02,-4.955859854817390442e-02,6.452160328626632690e-02,2.545013092458248138e-02,1.956947520375251770e-02,5.588721018284559250e-03,2.863213419914245605e-02,6.064884364604949951e-02,-1.618502847850322723e-02,-1.488762348890304565e-02,-9.585575759410858154e-02,-2.867215126752853394e-02,-6.913634389638900757e-02,1.908882260322570801e-01,9.130206704139709473e-02,-3.143149986863136292e-02,-6.838378496468067169e-03,3.986659273505210876e-02,-1.500449478626251221e-01,-8.146604895591735840e-02,-4.408770054578781128e-02,-6.726565957069396973e-02,-1.663627326488494873e-01,1.766990497708320618e-02,-9.138093143701553345e-02,2.046618014574050903e-01,7.735789753496646881e-03,-8.097437769174575806e-02,-1.066413149237632751e-01,-1.240064278244972229e-01,8.943675458431243896e-02,-4.573700577020645142e-02,-4.118265584111213684e-02,8.606970310211181641e-02,-2.587125822901725769e-02,3.922965377569198608e-03,1.469212621450424194e-01,-4.210573155432939529e-03,-2.980103902518749237e-02,-8.938857167959213257e-02,-1.225868612527847290e-01,-1.133626326918601990e-01,-1.462395302951335907e-03,1.134127750992774963e-01,-4.540894925594329834e-02,-8.179841935634613037e-02,-6.918452680110931396e-02,3.252865374088287354e-02,8.713954128324985504e-03,-4.333528876304626465e-02,4.415727034211158752e-02,2.005380019545555115e-02,-7.002275437116622925e-02,1.019089519977569580e-01,-1.857339292764663696e-01,1.288606673479080200e-01,4.316340386867523193e-02,-3.871727362275123596e-02,6.047981232404708862e-02,2.728372626006603241e-02,2.423264272511005402e-02,2.538057975471019745e-02,8.267036080360412598e-02,-4.890504479408264160e-02,-1.110387742519378662e-01,5.766274407505989075e-02,-3.214758634567260742e-02,-4.213712736964225769e-02,-2.226615138351917267e-02,1.371444575488567352e-02,-1.260018050670623779e-01,-4.789113253355026245e-02,-9.706459194421768188e-02,-8.887003362178802490e-02,4.527931567281484604e-03,1.330441683530807495e-01,2.579669095575809479e-02,-1.095559522509574890e-01,1.743384753353893757e-03,-1.980537734925746918e-02,1.759903728961944580e-01,8.387668989598751068e-03,2.155003696680068970e-02,8.536422997713088989e-02,-2.065801434218883514e-02,9.965807199478149414e-03,3.963235393166542053e-02,-1.161129586398601532e-02,8.283523842692375183e-03,-1.136901378631591797e-01,4.717595130205154419e-02,4.274131730198860168e-02,-5.815472826361656189e-02,-1.607355475425720215e-01,-2.579106390476226807e-02,-4.469745606184005737e-02,2.173596248030662537e-02,8.991567045450210571e-02,3.718033805489540100e-02,8.765634894371032715e-02,-1.365546602755784988e-02,1.106237061321735382e-02,-1.082135364413261414e-01,1.713307760655879974e-02,1.386047452688217163e-01,1.836876571178436279e-02,-5.581125244498252869e-02,-7.540746778249740601e-02,-7.548937201499938965e-02,-2.087044343352317810e-02,1.034890767186880112e-02,-1.172928437590599060e-01,-2.283787168562412262e-02,2.759831771254539490e-02,-5.145099759101867676e-02,6.910877767950296402e-03,7.111994177103042603e-02,-3.589575737714767456e-02,7.679326087236404419e-02,3.485145280137658119e-04,9.546789526939392090e-02,1.553936954587697983e-02,-8.626124262809753418e-02,-4.396530985832214355e-02,-1.446709595620632172e-02,-7.378089707344770432e-03,-2.171569503843784332e-02,1.004329696297645569e-01,4.575894773006439209e-02,-7.066601514816284180e-02,4.980980977416038513e-02,-5.037806555628776550e-02,-2.534148842096328735e-02,3.374576335772871971e-03,-8.944331854581832886e-02,-7.059283554553985596e-02,1.707457453012466431e-01,-9.853886067867279053e-02,-4.582392051815986633e-03,-8.177289366722106934e-02,-1.492098346352577209e-02,1.169615760445594788e-01,2.600489184260368347e-02,1.691113859415054321e-01,3.070652671158313751e-02,-2.369464188814163208e-02,-1.258760690689086914e-01,-5.633914843201637268e-02,1.625211983919143677e-01,4.878533259034156799e-02,2.955247275531291962e-02,-7.528088241815567017e-02,-1.707452833652496338e-01,-7.512103300541639328e-03,-8.168185129761695862e-03,-7.809609919786453247e-02,-3.310951963067054749e-02,-1.284874416887760162e-02,-7.894655317068099976e-02,-2.893486060202121735e-02,9.061416238546371460e-02,-8.394705504179000854e-02,-8.498617261648178101e-02,7.924438267946243286e-02,-1.184226125478744507e-01,-7.371778786182403564e-02,-3.800066187977790833e-02,1.997142331674695015e-03,5.023045465350151062e-02,-1.661994960159063339e-03,-8.284540474414825439e-02,1.437886431813240051e-02,-7.411721348762512207e-02,6.829267740249633789e-02,-6.955079734325408936e-02,4.479529708623886108e-02,-7.404435425996780396e-02,6.267192959785461426e-02,1.310238093137741089e-01,1.392693817615509033e-01,-1.116518490016460419e-02,2.179964073002338409e-02,2.090713707730174065e-03,1.466232389211654663e-01,-2.126951143145561218e-02,-2.945363521575927734e-03,6.735672056674957275e-02,-4.331205412745475769e-02,1.048831492662429810e-01,-7.156422725529409945e-07,-2.574327774345874786e-02,5.766905471682548523e-02,-3.829459473490715027e-02,2.114772610366344452e-02,-1.184149533510208130e-01,1.082895509898662567e-02,-2.600594237446784973e-02,-5.771422013640403748e-02,4.682251811027526855e-02,-1.246689483523368835e-01,1.566115766763687134e-01,2.922280505299568176e-02,1.698164083063602448e-02,7.470010221004486084e-02,-2.255984395742416382e-02,-3.735068440437316895e-02,2.551311999559402466e-02,-4.089204594492912292e-03,-3.879518806934356689e-02,-1.658228486776351929e-01,3.674966469407081604e-02,-4.105223808437585831e-03,5.432901158928871155e-02,-5.609995219856500626e-03,8.743108808994293213e-02,-9.348460286855697632e-02,-4.443189874291419983e-02,4.865737259387969971e-02,-5.845413357019424438e-02,5.010031163692474365e-03,-2.007990889251232147e-02,-9.205237030982971191e-02,-2.679649554193019867e-02,-8.018856495618820190e-02,-7.513857632875442505e-02,1.086363494396209717e-01,-6.013358011841773987e-03,6.704423576593399048e-02,9.316584095358848572e-03,-3.819969296455383301e-02,-5.632797256112098694e-02,-7.987635582685470581e-02,2.839274331927299500e-02,5.751946195960044861e-02,2.510562539100646973e-02,-2.437080815434455872e-02,-3.103572176769375801e-03,5.893873423337936401e-02,-1.868682168424129486e-02,-2.808128111064434052e-02,-1.092528849840164185e-01,5.583970621228218079e-02,-1.377936899662017822e-01,-9.710335731506347656e-02,-1.380263268947601318e-02,-5.089892446994781494e-02,4.783529043197631836e-02,-7.048679143190383911e-02,-1.649460792541503906e-01,7.649780809879302979e-02,1.595190316438674927e-01,-9.905081987380981445e-02,-7.263184990733861923e-03,-5.113669112324714661e-02,-1.384493261575698853e-01,6.191216036677360535e-02,-1.713556423783302307e-02,3.941820189356803894e-02,6.133472174406051636e-02,1.111041754484176636e-02,-3.244223445653915405e-02,2.360127866268157959e-03,-4.338565096259117126e-02,-6.786281242966651917e-03,-4.930002987384796143e-02,-4.581505432724952698e-02,-3.155697777401655912e-04,1.009698659181594849e-01,9.105094522237777710e-02,7.560212165117263794e-02,-6.950134783983230591e-02,3.426692262291908264e-02,1.571308635175228119e-02,9.004224836826324463e-02,-7.847686111927032471e-02,-3.113619983196258545e-02,5.381784588098526001e-02,-4.165900126099586487e-02,-1.269316077232360840e-01,-8.940579742193222046e-02,-8.038592524826526642e-03,1.081541329622268677e-01,-4.249720275402069092e-02,1.642977073788642883e-02,4.678956791758537292e-02,-4.092108085751533508e-02,-3.058126755058765411e-02,4.046189412474632263e-02,-9.289678186178207397e-03,6.391656398773193359e-02,3.698703832924365997e-03,7.677938789129257202e-02,1.671397686004638672e-02,-1.047607418149709702e-02,-7.922419905662536621e-02,7.285866886377334595e-03,-1.318897753953933716e-01,5.874400958418846130e-02,-6.772002205252647400e-03,1.659100875258445740e-02,3.382508084177970886e-02,8.803904056549072266e-02,2.031555585563182831e-02,1.296032369136810303e-01,-1.222110614180564880e-01,-1.474521774798631668e-02,-4.941787198185920715e-02,-6.195792183279991150e-02,-1.048560719937086105e-02,6.368846166878938675e-03,-2.276909537613391876e-02,7.729858905076980591e-02,1.218663714826107025e-02,-1.042743958532810211e-02,-5.968752875924110413e-02,-1.125211715698242188e-01,-1.372742000967264175e-02,-6.425181776285171509e-02,1.023254022002220154e-01,1.950252614915370941e-02,4.697795584797859192e-02,4.690514504909515381e-02,5.137633532285690308e-02,2.247982285916805267e-02,-1.790502518415451050e-01,-2.637537010014057159e-02,5.753798037767410278e-02,-7.274650968611240387e-03,5.341047421097755432e-02,-3.648985549807548523e-02,-2.369670197367668152e-02,-6.927820853888988495e-03,-6.002924218773841858e-02,-9.290761314332485199e-03,4.077947884798049927e-02,-8.849121630191802979e-03,1.440131366252899170e-01,6.693018227815628052e-02,3.998012468218803406e-02,1.359639875590801239e-02,-6.249142438173294067e-02,-6.638810783624649048e-02,-8.940418809652328491e-02,-4.241332039237022400e-02,7.177495956420898438e-02,5.815980955958366394e-02,1.398210320621728897e-02,-1.332178711891174316e-01,-2.710871398448944092e-02,-6.768208742141723633e-02,1.572249643504619598e-02,-1.444108188152313232e-01,2.883085422217845917e-02,5.417326465249061584e-02,-7.782165706157684326e-02,1.166081503033638000e-01,7.950737327337265015e-02,-3.795838728547096252e-02,7.817038148641586304e-02,-1.132528260350227356e-01,9.652284532785415649e-02,1.405885070562362671e-02,-8.432013913989067078e-03,-3.746522963047027588e-02,2.687849104404449463e-02,-9.481120109558105469e-02,-9.443370252847671509e-02,2.414485253393650055e-02,7.701358944177627563e-02,-1.812939792871475220e-01,-2.552788890898227692e-02,-6.393823772668838501e-02,2.852221764624118805e-02,1.466388553380966187e-01,-6.052238494157791138e-02,-6.356205791234970093e-02,7.210987806320190430e-02,4.112954810261726379e-02,6.161769852042198181e-02,-1.224602088332176208e-01,2.979685179889202118e-02,7.874189876019954681e-03,5.019195377826690674e-02,1.450823098421096802e-01,5.706683546304702759e-02,7.638528943061828613e-02,-9.471744298934936523e-02,4.412377625703811646e-02,4.214028641581535339e-02,-3.740558028221130371e-02,1.034393627196550369e-02,1.617461070418357849e-02,-5.170001648366451263e-03,-1.439554989337921143e-01,1.338019520044326782e-01,3.062487952411174774e-02,3.797471150755882263e-02,-9.580463171005249023e-02,-1.573721021413803101e-01,8.394920267164707184e-03,3.769268095493316650e-02,2.667440474033355713e-02,6.404759734869003296e-02,-6.238283589482307434e-02,-3.965837822761386633e-04,-1.241527497768402100e-02,-6.108435243368148804e-02,-1.970197446644306183e-02,9.338282980024814606e-03,3.588388487696647644e-02,-2.216340228915214539e-02,1.066066026687622070e-01,1.170962955802679062e-02,-3.872433153446763754e-04,-1.064241677522659302e-01,-4.985256493091583252e-02,-1.125355586409568787e-01,2.905082330107688904e-02,-6.076479330658912659e-02,5.480463802814483643e-02,-7.675814442336559296e-03,4.825776070356369019e-02,-8.886979520320892334e-02,1.221657148562371731e-03,-5.623589456081390381e-02,5.915935616940259933e-03,-1.597681641578674316e-02,4.496692121028900146e-02,2.581187523901462555e-02,-7.362263649702072144e-02,1.055188924074172974e-01,3.287090361118316650e-02,-4.373961314558982849e-02,8.097345381975173950e-02,-3.811037912964820862e-02,6.407862901687622070e-02,7.316040247678756714e-02,9.107277542352676392e-02,1.014312915503978729e-02,8.293662965297698975e-02,2.959306817501783371e-03,3.595456480979919434e-02,-3.946582227945327759e-02,-1.410094499588012695e-01,2.873927168548107147e-02,2.439409121870994568e-02,3.517891094088554382e-02,-1.814380101859569550e-02,-8.651094138622283936e-02,2.601571753621101379e-02,-4.547670856118202209e-02,9.613046050071716309e-02,5.563455447554588318e-02,5.384957417845726013e-02,6.503527611494064331e-02,8.193492144346237183e-02,5.038286745548248291e-02,-1.791788451373577118e-02,-7.445967197418212891e-02,5.232882499694824219e-02,8.360110223293304443e-02,6.718038022518157959e-02,4.966102540493011475e-02,-1.769341528415679932e-01,2.368378266692161560e-02,-2.388156205415725708e-02,-1.896059699356555939e-02,9.855052083730697632e-02,8.053386583924293518e-03,1.593406200408935547e-01,1.534053310751914978e-02,1.144158374518156052e-02,-5.427014827728271484e-02,-5.766937043517827988e-03,7.740967720746994019e-02,-5.035809706896543503e-03,-1.581856980919837952e-02,6.049032881855964661e-02,-2.006229944527149200e-03,1.031647026538848877e-01,-8.366404473781585693e-02,1.839592307806015015e-02,2.199349366128444672e-02,1.406414359807968140e-01,-7.997816801071166992e-02,5.179027095437049866e-02,1.581505499780178070e-02,-1.509209424257278442e-01,-1.429902762174606323e-01,8.694693446159362793e-03,1.570105366408824921e-02,1.041652560234069824e-01,8.416385948657989502e-02,-3.310408443212509155e-02,-4.800308088306337595e-04,5.001292377710342407e-02,3.396365046501159668e-02,3.902892023324966431e-02,2.573594637215137482e-02,-3.974059224128723145e-02,5.210848152637481689e-02,9.702687710523605347e-02,-5.239025875926017761e-02,-2.927683666348457336e-02,-2.655317261815071106e-02,-5.049586668610572815e-02,-7.002566941082477570e-03,-3.299834951758384705e-02,5.238060373812913895e-03,-5.514088552445173264e-03,-3.809225454460829496e-04,-3.763638809323310852e-02,-1.748576015233993530e-02,3.868170827627182007e-02,1.732512190937995911e-02,-2.242505084723234177e-03,-3.219718858599662781e-02,8.650683448649942875e-04,-5.678161978721618652e-03,-9.526214748620986938e-02,1.018907502293586731e-02,8.991353958845138550e-02,2.344750799238681793e-02,-2.397986315190792084e-02,7.477496983483433723e-04,3.946737572550773621e-02,9.906630218029022217e-02,4.108208231627941132e-03,-9.380307048559188843e-02,6.483057141304016113e-02,1.061417907476425171e-01,-4.605346173048019409e-02,-3.679220378398895264e-02,3.163728490471839905e-02,6.900716107338666916e-03,-6.087012588977813721e-02,1.590058580040931702e-02,-1.145377196371555328e-02,4.223175346851348877e-02,9.338388592004776001e-02,1.095006316900253296e-01,-9.118288010358810425e-02,1.408259421586990356e-01,3.633043915033340454e-02,-2.197841927409172058e-02,1.282174838706851006e-03,3.124143183231353760e-02,-7.652970403432846069e-02,-2.255039103329181671e-02,-2.972450852394104004e-02,-5.115117877721786499e-02,-4.373367503285408020e-02,-5.726030096411705017e-02,5.377759411931037903e-02,1.933932676911354065e-02,3.032906912267208099e-02,-3.163200244307518005e-02,-2.450049109756946564e-02,-9.475892037153244019e-02,7.523592095822095871e-03,-4.891121760010719299e-02,-2.450306201353669167e-03,-2.013425156474113464e-02,-6.167271733283996582e-02,-6.342483218759298325e-03,-1.942949369549751282e-02,2.188929170370101929e-02,-5.254279356449842453e-03,4.753356799483299255e-02,3.479447914287447929e-03,2.475463785231113434e-02,1.590612903237342834e-02,-7.586621493101119995e-02,-2.549536153674125671e-02,3.610024927183985710e-03,4.003513976931571960e-02,-3.916101157665252686e-02,1.213198527693748474e-01,-5.663439258933067322e-02,-4.012803733348846436e-02,9.602580219507217407e-02,-2.328577637672424316e-02,-5.229688063263893127e-02,2.108463458716869354e-02,-1.115527078509330750e-01,-1.186923906207084656e-01,-4.500490427017211914e-02,4.799210280179977417e-02,-8.440226316452026367e-02,5.059649422764778137e-02,-3.578670695424079895e-02,2.517024576663970947e-01,-4.597808048129081726e-02,7.449585199356079102e-02,-1.060481648892164230e-02,-4.779788479208946228e-02,-4.248283803462982178e-03,5.178889259696006775e-02,7.582288980484008789e-02,1.368621140718460083e-01,9.413620084524154663e-02,3.662477806210517883e-02,7.156261708587408066e-03,-1.730567216873168945e-02,-1.103907302021980286e-01,1.817299239337444305e-02,-3.426792472600936890e-02,7.602995634078979492e-02,1.695424132049083710e-02,-4.871854558587074280e-02,6.686960160732269287e-02,7.462808489799499512e-02,-9.105779230594635010e-02,1.420310437679290771e-01,4.785275459289550781e-02,7.531704008579254150e-02,-2.403759397566318512e-02,1.252066791057586670e-01,-9.863907471299171448e-03,2.645937353372573853e-02,5.141601338982582092e-02,-1.362971067428588867e-01,-1.445418596267700195e-01,-2.295297756791114807e-02,8.026026934385299683e-02,-6.577872484922409058e-02,-3.074017167091369629e-02,2.374953124672174454e-03,-8.116955310106277466e-02,3.306604176759719849e-02,3.483931720256805420e-02,5.413286015391349792e-02,-2.145042270421981812e-02,5.729681998491287231e-02,8.705593645572662354e-02,5.078287795186042786e-02,6.290918588638305664e-02,1.173617988824844360e-01,3.837450221180915833e-02,-4.025190323591232300e-02,6.664025038480758667e-02,-5.245143081992864609e-03,-1.120555847883224487e-01,1.062140837311744690e-01,-4.696794785559177399e-03,7.791230920702219009e-03,1.553214043378829956e-01,8.191275596618652344e-02,1.074641942977905273e-01,2.163467928767204285e-02,-7.771127391606569290e-03,1.119098141789436340e-01,1.199296908453106880e-03,9.499727934598922729e-02,-5.526992492377758026e-03,3.629183024168014526e-02,-8.072225004434585571e-02,-2.070410177111625671e-02,-7.159499078989028931e-02,1.396155543625354767e-02,-2.997951395809650421e-02,1.349860988557338715e-02,4.182608332484960556e-03,2.715807221829891205e-02,6.619509309530258179e-02,7.767286896705627441e-02,9.126101434230804443e-02,-1.617367751896381378e-02,3.457454964518547058e-02,4.273986816406250000e-02,7.025144249200820923e-02,4.443242400884628296e-02,-5.206083506345748901e-02,-3.588647395372390747e-02,7.124041765928268433e-02,5.762140452861785889e-02,6.033138372004032135e-03,4.235240444540977478e-02,-7.835264503955841064e-02,-2.761596068739891052e-02,-1.558081526309251785e-02,2.180197741836309433e-03,2.972719259560108185e-02,1.881876960396766663e-02,-5.702720209956169128e-02,8.533885329961776733e-02,-4.218242689967155457e-02,2.443454973399639130e-02,-4.402611032128334045e-02,-7.167300581932067871e-02,-1.065680831670761108e-01,-1.347024273127317429e-02,-4.627694562077522278e-02,-1.186767709441483021e-03,1.131037324666976929e-01,-8.594064414501190186e-02,2.949413657188415527e-02,-7.279457151889801025e-02,-2.175131067633628845e-02,5.298121273517608643e-02,-9.035166352987289429e-02,-2.553514763712882996e-02,3.904773329850286245e-04,-2.238912284374237061e-01,-6.975378841161727905e-02,-9.586902707815170288e-02,-6.668249517679214478e-02,-3.206558153033256531e-02,9.674562513828277588e-02,2.294459939002990723e-02,1.025355160236358643e-01,-5.684233456850051880e-02,-7.422918081283569336e-02,-6.733843684196472168e-02,-1.502921581268310547e-01,3.781194612383842468e-02,-9.897096082568168640e-03,1.169162150472402573e-02,-1.427844017744064331e-01,-1.098576709628105164e-01,5.040022730827331543e-02,1.284827105700969696e-02,-2.294176630675792694e-02,2.071169950067996979e-02,2.588807977735996246e-02,6.222903728485107422e-02,2.706765383481979370e-02,7.802682369947433472e-02,8.004333078861236572e-02,8.529576659202575684e-02,-1.674558967351913452e-01,-1.227684617042541504e-01,-1.080159656703472137e-02,8.556801825761795044e-02,5.107111483812332153e-02,-1.135116741061210632e-01,3.328838199377059937e-02,3.542270883917808533e-02,-4.309631884098052979e-02,-4.702056571841239929e-02,-2.737660892307758331e-02,-6.913810968399047852e-02,2.976052276790142059e-02,5.017664656043052673e-02,-1.570514738559722900e-01,-3.254170715808868408e-02,3.853406291455030441e-03,-6.444685906171798706e-02,2.016775496304035187e-02,-5.253426730632781982e-02,2.464385516941547394e-02,1.256364434957504272e-01,9.928292036056518555e-02,1.314389258623123169e-01,-9.478069841861724854e-02,6.759200245141983032e-03,3.572923690080642700e-02,-6.527953781187534332e-03,2.572865970432758331e-02,1.776823028922080994e-02,6.449091434478759766e-02,-4.889333248138427734e-02,-1.037674844264984131e-01,2.854160591959953308e-02,-3.288888558745384216e-02,-1.156873777508735657e-01,-1.064949855208396912e-01,-4.815678671002388000e-02,-6.049976870417594910e-02,-1.217978354543447495e-02,3.146272897720336914e-02,-6.062197312712669373e-02,-7.714875973761081696e-03,7.645700871944427490e-02,2.161134034395217896e-02,6.319662183523178101e-02,6.505276262760162354e-02,5.625052750110626221e-02,-5.249180644750595093e-02,-8.730888366699218750e-03,1.422512978315353394e-01,3.081203252077102661e-02,1.006335020065307617e-01,3.519252687692642212e-02,-3.868103027343750000e-02,-1.458363793790340424e-02,9.531076997518539429e-03,-5.085214041173458099e-03,-6.561148911714553833e-02,-5.385267361998558044e-02,-3.138322010636329651e-02,-2.400012500584125519e-02,-6.898572319187223911e-04,7.798030227422714233e-02,-1.151972562074661255e-01,-2.543281018733978271e-02,6.849428266286849976e-02,-1.212138608098030090e-01,6.747217476367950439e-02,-5.742179974913597107e-02,-9.630545973777770996e-03,3.034772910177707672e-02,-5.325027182698249817e-02,1.139638666063547134e-02,-8.440975844860076904e-02,-6.879881024360656738e-02,-3.419192135334014893e-02,1.878561824560165405e-01,1.103717908263206482e-01,-6.972732953727245331e-04,-8.175078779458999634e-02,4.230776056647300720e-02,-1.207976564764976501e-01,8.108720928430557251e-02,-1.325700245797634125e-02,2.183298394083976746e-02,-2.237235195934772491e-02,-4.244219511747360229e-02,1.237367317080497742e-01,5.292198061943054199e-02,8.303042501211166382e-03,-3.900408372282981873e-02,-1.556711271405220032e-02,3.377490863204002380e-02,-2.441107481718063354e-02,-3.087287535890936852e-03,4.360574483871459961e-02,5.320015922188758850e-02,1.422931905835866928e-02,-5.410891026258468628e-02,6.355124711990356445e-02,-4.574059695005416870e-02,2.746419236063957214e-02,-8.709658868610858917e-03,-1.581561937928199768e-02,1.071424409747123718e-02,6.280079483985900879e-02,8.177601546049118042e-02,-9.880071878433227539e-02,3.519029123708605766e-03,-2.708744443953037262e-02,2.976090461015701294e-02,4.811410233378410339e-02,-3.375244513154029846e-02,8.777258917689323425e-03,1.084613725543022156e-01,2.880207262933254242e-02,1.066381558775901794e-01,3.455002605915069580e-02,1.226654276251792908e-02,-1.295115351676940918e-01,-6.515811197459697723e-03,-3.708742558956146240e-02,1.304446458816528320e-01,9.983258694410324097e-02,2.263138070702552795e-02,6.340105086565017700e-02,8.444495499134063721e-02,-5.443344358354806900e-03,8.669617027044296265e-02,-2.969452552497386932e-02,9.546234458684921265e-02,-1.707624495029449463e-01,7.795199751853942871e-02,6.778716109693050385e-03,4.207947105169296265e-02,3.013532422482967377e-02,3.672790899872779846e-02,-4.939764738082885742e-02,2.691145054996013641e-02,-5.137206614017486572e-02,5.980687960982322693e-02,-4.390437155961990356e-02,1.980362832546234131e-01,9.006551653146743774e-02,1.084037274122238159e-01,1.858496293425559998e-02,9.412228316068649292e-02,-4.167083650827407837e-02,-6.453897058963775635e-02,-4.059433564543724060e-02,-7.787064462900161743e-02,4.024996422231197357e-03,1.869711279869079590e-02,-3.497271239757537842e-02,-8.674176037311553955e-02,-1.817196905612945557e-01,5.715841054916381836e-02,2.671202644705772400e-02,-4.610389471054077148e-02,-4.019955545663833618e-02,1.363977603614330292e-02,1.409417763352394104e-02,9.302587807178497314e-02,-9.559036046266555786e-02,6.283971667289733887e-02,-1.067760735750198364e-01,3.332606703042984009e-02,5.232128873467445374e-02,5.375413596630096436e-02,-6.494829803705215454e-02,-8.358985185623168945e-02,1.327809989452362061e-01,-6.916446983814239502e-02,-3.310577943921089172e-02,-4.814729467034339905e-02,3.409545868635177612e-03,4.360401630401611328e-02,-8.431722223758697510e-02,-2.066562883555889130e-02,-1.112087741494178772e-01,-7.244823127985000610e-02,-1.149484049528837204e-02,3.939326107501983643e-02,-1.754585281014442444e-02,-4.847959207836538553e-04,-7.084197551012039185e-02,-9.804140776395797729e-02,-7.945068925619125366e-02,7.909227162599563599e-03,4.352862387895584106e-02,1.841334253549575806e-01,1.778561249375343323e-02,3.310606256127357483e-02,1.441356539726257324e-01,4.009560216218233109e-03,1.690828241407871246e-02,-5.319397896528244019e-03,3.470810502767562866e-02,9.934768080711364746e-02,9.156701713800430298e-02,4.408247396349906921e-02,-3.285559266805648804e-02,-3.886672109365463257e-02,2.612600661814212799e-02,8.417397737503051758e-02,-2.983800508081912994e-02,-4.125556722283363342e-02,7.829928398132324219e-02,1.122557148337364197e-01,-2.034733444452285767e-02,1.032075360417366028e-01,3.061705268919467926e-02,1.117860004305839539e-01,5.711021646857261658e-02,-1.492932736873626709e-01,2.235837839543819427e-02,-5.139852408319711685e-03,-4.311272501945495605e-02,-3.077074512839317322e-02,1.561745554208755493e-01,-2.019408345222473145e-01,-1.226748451590538025e-01,5.003203824162483215e-02,-8.682439103722572327e-03,-8.288785815238952637e-02,5.218172445893287659e-02,8.670368790626525879e-02,5.990374460816383362e-02,-8.010747283697128296e-02,7.278408855199813843e-02,-1.064127683639526367e-02,8.939406275749206543e-02,2.481836266815662384e-02,-1.976022720336914062e-01,1.273130178451538086e-01,-6.613416131585836411e-03,1.911151595413684845e-02,7.297274470329284668e-02,4.412205144762992859e-02,6.019125506281852722e-02,-2.404685690999031067e-02,-8.474558591842651367e-02,-1.549078822135925293e-01,-8.559198677539825439e-02,6.906330585479736328e-02,6.344832479953765869e-02,-4.744333028793334961e-02,4.432522226125001907e-03,-6.059607118368148804e-02,-5.873025581240653992e-02,1.262584235519170761e-02,-1.831232011318206787e-01,3.890937566757202148e-02,-2.957320027053356171e-02,2.523748576641082764e-02,-1.484742015600204468e-01,1.230308189988136292e-01,8.071464486420154572e-03,1.128180101513862610e-01,-1.179794296622276306e-01,1.378647983074188232e-01,-7.415495067834854126e-02,1.524824053049087524e-01,1.015091016888618469e-01,-1.931289732456207275e-01,2.808118797838687897e-02,3.018895536661148071e-02,8.794485591351985931e-03,-8.330636657774448395e-03,1.147070433944463730e-02,1.984227262437343597e-02,-1.599264889955520630e-01,4.636355489492416382e-02,-1.123471483588218689e-01,1.365094482898712158e-01,9.553116559982299805e-02,7.674141973257064819e-02,2.080118805170059204e-01,-1.780986413359642029e-02,8.550292253494262695e-02,-1.754579842090606689e-01,-1.020027548074722290e-01,6.877701729536056519e-02,4.586740955710411072e-02,-1.381858140230178833e-01,-1.222503185272216797e-01,-1.006240118294954300e-02,1.184040307998657227e-02,7.238896936178207397e-02,-4.742230102419853210e-02,1.296352446079254150e-01,-7.784548401832580566e-02,-5.632638186216354370e-02,3.042135201394557953e-02,2.468203939497470856e-02,6.295274198055267334e-02,1.517053097486495972e-01,-1.801144331693649292e-02,4.064059467054903507e-04,-1.057514026761054993e-01,-2.663003653287887573e-02,-1.543376743793487549e-01,-8.390024304389953613e-02,-9.639831632375717163e-02,-6.375013291835784912e-02,-1.335043646395206451e-02,-3.527391701936721802e-02,-4.690695926547050476e-02,-3.732898086309432983e-02,4.857816174626350403e-02,1.220749169588088989e-01,-1.797104999423027039e-02,8.583739399909973145e-02,1.366260796785354614e-01,-6.699551641941070557e-02,-2.101103067398071289e-01,7.318849861621856689e-02,1.210441514849662781e-01,1.050777509808540344e-01,-2.797946333885192871e-02,-1.467141415923833847e-02,-9.159772098064422607e-02,6.763295829296112061e-02,7.880324125289916992e-02,2.523940522223711014e-03,-1.009927541017532349e-01,-1.897000335156917572e-02,2.601858600974082947e-02,-4.786487296223640442e-02,-3.046266920864582062e-02,2.577805519104003906e-02,-2.032887563109397888e-02,-7.963590323925018311e-02,-4.451204463839530945e-02,-7.229422032833099365e-02,6.280939280986785889e-02,-5.667466670274734497e-02,1.727104038000106812e-01,-7.090501487255096436e-02,5.147425830364227295e-02,-4.309277981519699097e-02,2.321339212357997894e-02,2.308422140777111053e-02,-2.741108462214469910e-02,-4.028101917356252670e-03,-7.440065499395132065e-03,-2.720457874238491058e-02,7.778533548116683960e-02,-3.944397903978824615e-03,3.138542815577238798e-04,-4.708401858806610107e-02,1.174587905406951904e-01,-1.272859573364257812e-01,1.695653647184371948e-01,-1.070354506373405457e-01,1.238825991749763489e-01,-6.028657034039497375e-02,-1.034895256161689758e-01,-1.140996739268302917e-01,-1.095233187079429626e-01,-8.156398683786392212e-02,-8.287403732538223267e-02,-9.174033068120479584e-03,-1.800016611814498901e-01,1.998549886047840118e-02,-9.344032406806945801e-02,-2.348766475915908813e-02,7.378014177083969116e-02,-7.610984891653060913e-02,1.441851854324340820e-01,-3.986673057079315186e-02,-6.160320341587066650e-02,2.232679538428783417e-02,4.783185664564371109e-03,-7.712637633085250854e-02,-2.902915701270103455e-02,1.860877722501754761e-01,9.859073162078857422e-02,3.356193774379789829e-04,3.668470308184623718e-02,5.812983587384223938e-02,1.362794358283281326e-02,-2.463787607848644257e-02,5.769827961921691895e-02,-5.493012815713882446e-02,1.881935074925422668e-02,-5.179683864116668701e-02,4.124951735138893127e-02,7.788510620594024658e-02,3.467040136456489563e-02,-5.355393514037132263e-03,9.285119362175464630e-03,-1.334401518106460571e-01,1.161298081278800964e-01,6.773936748504638672e-02,6.122665852308273315e-02,2.369042113423347473e-02,3.325866907835006714e-02,2.709337742999196053e-03,-4.596906900405883789e-02,7.423720508813858032e-02,8.797389268875122070e-02,-6.672126799821853638e-02,-1.189487278461456299e-01,-2.301579341292381287e-02,2.717030234634876251e-02,4.839234799146652222e-02,-8.284633606672286987e-02,-3.232775628566741943e-02,-2.589520625770092010e-02,6.288663297891616821e-02,-1.520364778116345406e-03,4.046007245779037476e-02,-9.975137561559677124e-02,4.631906002759933472e-02,8.473992347717285156e-03,5.193564668297767639e-02,9.980339556932449341e-02,1.995829492807388306e-02,3.955123946070671082e-02,5.525378137826919556e-02,-1.089284103363752365e-02,-5.114211142063140869e-02,-6.556938402354717255e-03,1.209970787167549133e-01,-6.663289666175842285e-02,-4.413515329360961914e-02,1.133761852979660034e-01,2.099017985165119171e-02,1.097348779439926147e-01,-1.061005983501672745e-02,-1.471304334700107574e-02,6.161147728562355042e-02,-3.967644646763801575e-02,-3.796429559588432312e-02,1.867001526989042759e-03,-1.116071194410324097e-01,-7.870425283908843994e-02,1.317482162266969681e-02,7.842752337455749512e-02,9.712088108062744141e-02,2.912293747067451477e-02,-1.057352051138877869e-01,-1.091842632740736008e-02,6.173161044716835022e-02,-5.824309960007667542e-02,-6.734593957662582397e-02,-8.149357140064239502e-02,-1.031440794467926025e-01,-2.137451083399355412e-04,-5.222191661596298218e-02,-6.004288047552108765e-02,4.221238940954208374e-02,-6.603974848985671997e-02,3.559689223766326904e-02,-1.580176651477813721e-01,9.082978218793869019e-02,-2.084132051095366478e-03,1.149982586503028870e-01,6.488304585218429565e-02,1.363786775618791580e-02,-5.292273312807083130e-02,-2.850596234202384949e-02,1.149187535047531128e-01,3.049699962139129639e-02,-3.898017480969429016e-02,1.053784862160682678e-01,5.811325833201408386e-02,1.712654381990432739e-01,-1.604325324296951294e-02,4.963408783078193665e-02,1.029269471764564514e-01,9.740182198584079742e-03,3.263139724731445312e-02,-5.693417787551879883e-02,-3.150548413395881653e-02,1.280669420957565308e-01,1.116494685411453247e-01,-1.667824983596801758e-01,-7.115979492664337158e-02,2.210183255374431610e-02,-6.720498204231262207e-02,-1.311461925506591797e-01,1.072051748633384705e-02,-1.214954908937215805e-02,-1.286687143146991730e-02,1.768371313810348511e-01,1.103902980685234070e-01,-2.038148976862430573e-02,-7.991976104676723480e-03,-2.319593727588653564e-02,5.054624285548925400e-03,7.824228703975677490e-02,1.007588952779769897e-01,4.200523719191551208e-02,-8.166848123073577881e-02,7.360215485095977783e-02,-6.951965857297182083e-03,-3.789407387375831604e-02,-1.112441495060920715e-01,9.476858191192150116e-03,2.435959316790103912e-02,-5.899020284414291382e-02,1.236425936222076416e-01,-4.841251671314239502e-02,1.128197461366653442e-01,-1.213887184858322144e-01,2.346569299697875977e-02,-3.520318493247032166e-02,7.939527928829193115e-02,5.834944918751716614e-02,-5.500829219818115234e-02,-8.686819672584533691e-02,3.432299941778182983e-02,4.831053782254457474e-03,1.943302713334560394e-02,1.498307287693023682e-02,9.925314784049987793e-02,4.530434310436248779e-02,-5.843682214617729187e-02,6.090795621275901794e-02,-3.238864708691835403e-03,-1.753726042807102203e-02,-1.119900569319725037e-01,-6.832097657024860382e-03,-5.280116200447082520e-02,2.447405271232128143e-02,-4.909412935376167297e-02,-3.814936056733131409e-02,-6.537918001413345337e-02,-3.226471692323684692e-02,-2.592790871858596802e-02,-1.162163726985454559e-02,-7.083807885646820068e-02,-7.106573879718780518e-02,8.660528063774108887e-02,3.430989757180213928e-02,-2.412345074117183685e-02,7.565431296825408936e-02,7.593999803066253662e-02,3.453814610838890076e-02,1.879397034645080566e-02,1.074598133563995361e-01,-3.349472954869270325e-02,1.337417680770158768e-02,1.343360543251037598e-01,4.679529741406440735e-02,8.897715061902999878e-02,-6.961662322282791138e-03,6.853727251291275024e-02,6.026002764701843262e-02,-4.936536401510238647e-02,-7.517885416746139526e-02,-1.122100464999675751e-02,6.897366046905517578e-02,6.947029381990432739e-02,9.582063555717468262e-02,-6.786782294511795044e-02,-9.124527126550674438e-02,-3.125165402889251709e-02,1.319957673549652100e-01,-9.618106484413146973e-02,-7.676835358142852783e-02,-1.080177258700132370e-02,4.527045413851737976e-02,2.400279790163040161e-02,-7.796406000852584839e-02,4.908183589577674866e-02,7.905280217528343201e-04,-2.016909234225749969e-02,-2.670951560139656067e-02,8.868546038866043091e-02,-9.359419345855712891e-02,2.531449869275093079e-02,5.772183835506439209e-02,1.948956586420536041e-02,-2.522800676524639130e-02,-2.189942449331283569e-02,-7.180522661656141281e-03,-1.270337998867034912e-01,2.590895630419254303e-03,1.926908153109252453e-03,2.008988289162516594e-03,-2.856860682368278503e-02,-3.002670034766197205e-02,2.869833260774612427e-02,-1.440605819225311279e-01,-1.415301412343978882e-01,-8.702916651964187622e-02,-1.187057793140411377e-02,-1.229991167783737183e-01,-4.713422060012817383e-02,1.103249005973339081e-02,-4.144620895385742188e-02,-1.149102225899696350e-01,4.625393077731132507e-02,2.757907845079898834e-02,6.961629539728164673e-02,8.389298804104328156e-03,1.766669452190399170e-01,1.860213279724121094e-01,2.981864474713802338e-02,6.630582734942436218e-03,9.892698377370834351e-02,-2.727507054805755615e-02,-1.027832925319671631e-02,6.311021000146865845e-02,9.697137773036956787e-02,-1.341002341359853745e-02,-5.669564381241798401e-02,1.397298723459243774e-01,1.849655061960220337e-02,-1.975936070084571838e-02,-1.780607998371124268e-01,-3.656829148530960083e-02,-1.043884083628654480e-02,1.750669255852699280e-02,2.527554146945476532e-02,-5.165260285139083862e-02,-6.157221272587776184e-02,6.516582518815994263e-02,-1.499137142673134804e-04,-9.678633511066436768e-02,-7.528002560138702393e-02,3.885137289762496948e-02,2.062109485268592834e-02,1.257161051034927368e-01,-9.486507624387741089e-04,6.849411129951477051e-02,1.373129636049270630e-01,1.303918776102364063e-03,5.745786428451538086e-02,5.585786700248718262e-02,-1.219246983528137207e-01,9.093539789319038391e-03,-5.963747203350067139e-02,-4.819784313440322876e-02,6.375281512737274170e-02,1.616020104847848415e-03,2.807804942131042480e-02,9.051343426108360291e-03,-4.682989791035652161e-03,-7.478889077901840210e-02,-7.079650461673736572e-02,-2.322464995086193085e-02,3.246608376502990723e-02,8.959782868623733521e-02,4.779658466577529907e-02,-2.083836868405342102e-02,6.301433779299259186e-03,1.165772452950477600e-01,-3.452930971980094910e-02,7.610387634485960007e-03,4.577173292636871338e-02,9.495817869901657104e-02,-8.305787295103073120e-02,-5.673651397228240967e-02,5.047759041190147400e-03,5.972700193524360657e-02,7.509340345859527588e-02,-1.083032935857772827e-01,-1.818186976015567780e-02,8.838977664709091187e-02,-3.380838036537170410e-02,-2.623036131262779236e-02,-4.567276686429977417e-02,1.886578463017940521e-02,-7.636300474405288696e-02,3.757363557815551758e-02,-4.555487632751464844e-02,-3.627433627843856812e-02,5.924673378467559814e-02,-1.945423521101474762e-02,-1.304522436112165451e-02,1.139287091791629791e-02,2.161099575459957123e-02,2.609346807003021240e-02,-3.094755113124847412e-02,-3.075421042740345001e-02,-4.697150364518165588e-02,-6.762179080396890640e-03,5.193015187978744507e-02,4.086830094456672668e-02,-8.522986620664596558e-02,3.396732732653617859e-02,-3.444864973425865173e-02,-8.144259452819824219e-03,1.950562186539173126e-02,1.099767629057168961e-02,2.807916328310966492e-02,-1.984851621091365814e-02,3.369167074561119080e-02,-2.060809638351202011e-03,5.188204720616340637e-02,7.745943497866392136e-03,1.917317882180213928e-02,-3.927716240286827087e-02,-8.054347336292266846e-02,1.782359555363655090e-02,-1.329122576862573624e-02,-7.525052130222320557e-02,4.021150246262550354e-02,-5.771506112068891525e-03,1.890728995203971863e-02,-3.988811373710632324e-02,-8.412735164165496826e-02,-1.468714140355587006e-02,-2.253378368914127350e-02,-7.272478193044662476e-02,-1.980626769363880157e-02,1.958052441477775574e-02,-5.648292973637580872e-02,-3.674914687871932983e-02,1.304028369486331940e-02,-3.863819641992449760e-03,-2.392817661166191101e-02,-4.749252926558256149e-03,7.347398251295089722e-02,-3.630538284778594971e-02,4.030530340969562531e-03,3.384497016668319702e-02,8.172552287578582764e-02,1.935859583318233490e-02,-1.133127883076667786e-02,-6.664833426475524902e-02,2.324183657765388489e-02,9.303170256316661835e-03,-1.484329532831907272e-02,4.498989321291446686e-03,7.400620728731155396e-02,-4.035482555627822876e-02,-2.904978767037391663e-02,6.419435609132051468e-03,1.198204979300498962e-01,-6.374862976372241974e-03,2.511635236442089081e-02,5.715071037411689758e-02,2.675942145287990570e-02,-2.355247922241687775e-02,-5.726252123713493347e-02,-2.589066140353679657e-02,-1.692129485309123993e-02,-4.374634101986885071e-02,5.011957138776779175e-02,-1.042962167412042618e-02,3.012583358213305473e-03,7.592761516571044922e-02,7.623021304607391357e-02,1.223471388220787048e-02,-2.957731671631336212e-02,4.234523326158523560e-02,9.361654520034790039e-03,1.111169159412384033e-02,4.567446652799844742e-03,-1.865808665752410889e-02,2.802617102861404419e-02,-3.627990186214447021e-02,2.931832708418369293e-02,-5.341255664825439453e-02,-4.868813976645469666e-02,9.177394211292266846e-03,1.405384112149477005e-02,-1.468601450324058533e-02,6.353903096169233322e-03,1.456379424780607224e-02,1.055517466738820076e-03,5.657829344272613525e-02,-3.084808960556983948e-02,-3.782592341303825378e-02,1.766076870262622833e-02,4.863850399851799011e-02,1.273717731237411499e-02,2.838906645774841309e-02,6.572301685810089111e-02,4.786807671189308167e-02,4.674547910690307617e-02,5.009273532778024673e-03,8.649481460452079773e-03,9.711264818906784058e-02,1.196695715188980103e-01,1.717026904225349426e-02,-1.164211854338645935e-01,-9.851560741662979126e-02,-2.616720832884311676e-02,-1.619020709767937660e-03,-3.988127224147319794e-03,4.028850421309471130e-02,2.898989431560039520e-02,-2.742020785808563232e-02,2.358392067253589630e-02,2.927536703646183014e-02,4.808310884982347488e-03,6.726785749197006226e-02,-5.163081362843513489e-02,-3.224915591999888420e-03,-1.674377592280507088e-03,-1.624593697488307953e-02,-1.333323493599891663e-02,-8.475769311189651489e-03,4.393171146512031555e-02,-2.252119965851306915e-02,-2.401662617921829224e-02,5.617952719330787659e-02,2.521218266338109970e-03,-4.764999821782112122e-02,-1.076570479199290276e-03,6.844219565391540527e-02,3.465846180915832520e-02,2.236849814653396606e-02,2.346025034785270691e-02,2.636984921991825104e-02,-5.508030205965042114e-02,-8.281580358743667603e-02,8.314949460327625275e-03,-1.181833744049072266e-01,-1.869740546680986881e-03,2.329082414507865906e-02,-4.681311175227165222e-02,-4.833363462239503860e-03,3.748948499560356140e-02,-5.236790701746940613e-02,-5.097636021673679352e-04,-4.183274507522583008e-02,6.131093949079513550e-02,-3.088767640292644501e-02,-1.049465760588645935e-01,1.988852955400943756e-02,-2.877315878868103027e-02,-3.814937081187963486e-03,4.156873375177383423e-02,-2.233123779296875000e-02,-2.372837439179420471e-02,-2.594096958637237549e-02,4.887853190302848816e-02,4.027282074093818665e-02,5.153600871562957764e-02,-6.208720803260803223e-02,-7.815591245889663696e-02,1.464062184095382690e-02,1.278529409319162369e-03,8.499409072101116180e-03,-8.491085842251777649e-03,2.773109264671802521e-02,3.553202748298645020e-02,-2.694772928953170776e-02,2.059404924511909485e-02,-2.170563861727714539e-02,-1.229958832263946533e-01,1.136737037450075150e-02,-1.311951223760843277e-02,-2.477188222110271454e-02,2.429264038801193237e-02,1.021406799554824829e-02,-3.243642300367355347e-02,1.123797614127397537e-02,-5.564995110034942627e-02,-3.083238750696182251e-02,-6.338135153055191040e-02,-6.790272891521453857e-02,5.127241834998130798e-03,-1.423328742384910583e-02,-1.867768913507461548e-02,-2.406029030680656433e-02,1.455445215106010437e-02,-7.635254878550767899e-04,3.891745954751968384e-02,-5.432200804352760315e-02,-4.557746648788452148e-02,-4.362045787274837494e-03,-7.627264596521854401e-03,-3.603399172425270081e-02,-1.061479002237319946e-02,-7.293786108493804932e-02,-8.170491456985473633e-02,-3.885374590754508972e-02,2.886511618271470070e-03,-7.546383887529373169e-02,-1.204798184335231781e-02,1.208803430199623108e-02,2.822421304881572723e-02,-6.217134650796651840e-04,-5.409576464444398880e-03,-3.442260622978210449e-02,-2.931724116206169128e-02,-8.219940937124192715e-04,-3.412936627864837646e-02,3.271123394370079041e-02,-2.995704673230648041e-02,9.546786546707153320e-03,2.330536581575870514e-02,-5.145219713449478149e-02,-2.646101452410221100e-02,-2.503393217921257019e-02,-3.187169507145881653e-02,-5.211065337061882019e-02,2.551794797182083130e-02,8.012384921312332153e-02,-8.377031236886978149e-02,5.788755789399147034e-02,3.185407072305679321e-02,-4.584339261054992676e-02,-2.907785400748252869e-02,-9.298077970743179321e-02,-1.102052330970764160e-01,-1.311401724815368652e-01,-8.572298288345336914e-02,7.355754077434539795e-02,3.592080250382423401e-02,-3.005999140441417694e-02,-3.731200471520423889e-02,4.669835418462753296e-02,2.900377474725246429e-02,5.978968366980552673e-02,-4.030951112508773804e-02,2.476266585290431976e-02,-2.499643154442310333e-02,-7.481895387172698975e-02,2.471130900084972382e-02,-3.199486434459686279e-02,-3.448670729994773865e-02,-7.656700909137725830e-02,-2.340981364250183105e-02,2.993725426495075226e-02,-6.272677332162857056e-02,1.425246708095073700e-02,-6.738346070051193237e-03,1.817308925092220306e-02,-2.932827919721603394e-02,4.049063473939895630e-02,-4.039418697357177734e-02,-7.279880344867706299e-02,2.966471249237656593e-03,-5.318895727396011353e-02,-5.015457794070243835e-02,4.579453915357589722e-02,-9.732413291931152344e-02,7.334210723638534546e-02,4.503213241696357727e-02,-3.329996019601821899e-02,-6.280636787414550781e-02,3.686513751745223999e-03,2.203173562884330750e-02,1.161883585155010223e-02,1.583383977413177490e-02,-1.478008478879928589e-01,2.676726877689361572e-02,-7.365600671619176865e-03,1.877392083406448364e-02,6.537912040948867798e-02,2.094204537570476532e-02,-5.741142481565475464e-02,5.489715561270713806e-02,-4.233838990330696106e-02,-5.383685231208801270e-02,2.139664627611637115e-02,2.942658402025699615e-02,5.154255032539367676e-02,-1.019153296947479248e-01,-8.211476355791091919e-02,4.698676615953445435e-02,-2.758985757827758789e-02,-2.877171337604522705e-02,3.740618005394935608e-02,3.171293437480926514e-02,-7.344426959753036499e-02,-1.219571568071842194e-02,-6.141574680805206299e-02,-5.269775167107582092e-02,-3.424408845603466034e-03,-4.271982982754707336e-02,4.881612211465835571e-02,1.059460360556840897e-02,1.995093189179897308e-02,-3.690003231167793274e-02,1.215732842683792114e-02,-3.491201251745223999e-02,1.332309469580650330e-02,-1.017519310116767883e-01,-2.393305860459804535e-02,2.224151790142059326e-02,3.382306918501853943e-02,2.334634214639663696e-02,6.965050846338272095e-02,5.814103782176971436e-02,3.434714453760534525e-04,-8.064392209053039551e-02,-6.591995060443878174e-02,-8.258953690528869629e-02,-8.056902140378952026e-02,-4.081260785460472107e-02,-3.325613588094711304e-02,-2.291757613420486450e-02,2.125418372452259064e-02,3.868534043431282043e-02,-3.961226344108581543e-02,1.069691279553808272e-04,-1.177745638415217400e-03,-1.087784096598625183e-01,-7.724065333604812622e-02,-1.275349557399749756e-01,-7.255928940139710903e-04,3.557628765702247620e-02,6.610110402107238770e-02,-1.770944446325302124e-01,2.530362270772457123e-02,-8.957758545875549316e-03,-1.333167124539613724e-02,2.886885218322277069e-02,-2.161931246519088745e-03,2.979678474366664886e-02,8.280882239341735840e-02,-3.477043285965919495e-02,1.040832418948411942e-02,-4.470696672797203064e-02,-2.356678619980812073e-02,-3.777393698692321777e-02,4.885435104370117188e-02,3.259443491697311401e-02,-6.253524683415889740e-03,8.074712008237838745e-03,1.218651421368122101e-02,-1.040548644959926605e-02,-1.219816785305738449e-02,-2.276761829853057861e-02,2.447344921529293060e-02,-4.818782210350036621e-02,-5.212888494133949280e-02,-1.094921585172414780e-02,-3.082465380430221558e-02,8.228890597820281982e-03,-5.692688003182411194e-02,4.145577177405357361e-02,-1.488232752308249474e-03,1.696036756038665771e-02,-7.809411617927253246e-04,-3.117108717560768127e-02,3.277947008609771729e-02,-4.882561042904853821e-03,1.784652820788323879e-03,-1.627314463257789612e-02,-3.342518582940101624e-02,-4.396156594157218933e-02,-4.085993766784667969e-02,-1.387719064950942993e-03,-5.556438863277435303e-02,6.289265002124011517e-04,1.335401646792888641e-02,-2.302845753729343414e-02,3.493385761976242065e-02,1.568257063627243042e-02,-2.375106327235698700e-02,-6.687381118535995483e-02,-1.244395598769187927e-01,-1.792962290346622467e-02,1.561067905277013779e-02,4.562734812498092651e-02,1.278491318225860596e-02,2.359427697956562042e-02,-1.389941573143005371e-01,-4.304014146327972412e-02,-1.916840113699436188e-02,-9.056664258241653442e-02,3.374017030000686646e-02,-8.971541374921798706e-02,-5.508714169263839722e-02,2.771882340312004089e-02,3.003429155796766281e-03,3.893959522247314453e-02,-1.180373132228851318e-02,-3.511377051472663879e-02,-1.019967123866081238e-01,-1.157829910516738892e-02,-6.132741458714008331e-03,-7.086648046970367432e-02,-4.578345268964767456e-02,1.747957617044448853e-02,-3.730651736259460449e-02,1.539762783795595169e-02,1.037613227963447571e-01,8.679733425378799438e-02,1.320541836321353912e-02,-2.629498392343521118e-02,-1.269394904375076294e-01,-5.918285995721817017e-02,-6.899869441986083984e-02,8.197379298508167267e-03,6.893630325794219971e-02,3.726057335734367371e-02,-3.065833635628223419e-02,1.970438845455646515e-02,3.096440620720386505e-02,-7.780014723539352417e-02,3.744720667600631714e-02,-4.439807962626218796e-03,3.073241794481873512e-03,-3.745762258768081665e-02,2.903075329959392548e-02,5.502037703990936279e-03,-8.441995084285736084e-02,-5.654207989573478699e-02,3.473818674683570862e-02,5.503171589225530624e-03,1.109149772673845291e-02,1.943098194897174835e-02,-6.875477731227874756e-02,-1.066260226070880890e-02,1.744491979479789734e-02,-1.113879960030317307e-02,-1.687024533748626709e-02,-1.066658645868301392e-01,2.712860004976391792e-04,-3.148713335394859314e-02,-4.806051030755043030e-03,-4.291242361068725586e-02,6.671261042356491089e-02,6.575440522283315659e-03,-2.072385139763355255e-02,-4.588111862540245056e-02,-5.028050392866134644e-02,-2.368013747036457062e-02,-5.409543216228485107e-02,4.519118741154670715e-02,-3.971178457140922546e-02,-1.531392615288496017e-02,-4.047338292002677917e-02,2.015136368572711945e-02,8.428026735782623291e-02,-3.351144492626190186e-03,3.343991562724113464e-02,-2.518866444006562233e-03,-3.566437959671020508e-02,4.640123248100280762e-02,3.849197924137115479e-02,7.194890175014734268e-03,2.487434248905628920e-04,2.233403176069259644e-02,-8.290641126222908497e-04,2.338842488825321198e-02,-1.279607694596052170e-02,1.010337378829717636e-03,1.014648377895355225e-02,-3.140960261225700378e-02,-1.200766419060528278e-03,1.814639754593372345e-02,7.920184731483459473e-02,2.689250558614730835e-02,-2.996352501213550568e-03,-8.815367706120014191e-03,3.276582574471831322e-03,3.488682582974433899e-02,-3.461901471018791199e-02,4.632724821567535400e-02,1.962004415690898895e-02,4.867493733763694763e-02,4.275154694914817810e-02,-2.875370346009731293e-02,2.746659703552722931e-02,-5.852168425917625427e-02,-8.503958582878112793e-02,8.691121824085712433e-03,2.132577635347843170e-02,1.152176037430763245e-01,3.292904049158096313e-02,7.257618755102157593e-02,-2.408600784838199615e-02,-2.729734033346176147e-02,-4.344728216528892517e-02,2.990813925862312317e-02,3.127099573612213135e-02,-5.136639811098575592e-03,9.993130806833505630e-04,-1.903469488024711609e-02,-7.862767577171325684e-02,-7.377386838197708130e-02,-6.285227090120315552e-02,-2.057061716914176941e-02,3.048607334494590759e-02,3.639782220125198364e-02,-1.162750553339719772e-02,-2.616887539625167847e-02,-1.555095892399549484e-03,-2.595544047653675079e-02,-2.892018109560012817e-02,-6.054101884365081787e-02,-2.237927727401256561e-02,-3.880405426025390625e-02,-6.035033240914344788e-02,-1.071441248059272766e-01,-7.861454039812088013e-02,-6.573567166924476624e-03,-4.521317407488822937e-02,-4.088718071579933167e-02,-4.611350223422050476e-02,-3.494684770703315735e-02,-1.371410768479108810e-02,3.086037188768386841e-02,1.146555878221988678e-02,-2.724741352722048759e-03,1.202418096363544464e-02,-2.120085805654525757e-02,2.830534614622592926e-02,-1.571770943701267242e-02,1.649932749569416046e-02,8.011162281036376953e-03,-5.446224939078092575e-03,2.712390385568141937e-03,-1.588124409317970276e-02,2.812767773866653442e-02,5.286886589601635933e-04,5.629125609993934631e-02,-1.050773411989212036e-01,2.543133869767189026e-02,-4.829600825905799866e-02,2.884855121374130249e-02,3.270618245005607605e-02,4.610834270715713501e-02,6.437379121780395508e-02,3.956465795636177063e-02,6.353750824928283691e-02,1.487865205854177475e-02,9.637281298637390137e-03,5.616777762770652771e-02,-7.514917850494384766e-02,3.665171936154365540e-02,1.470541767776012421e-02,-6.695159245282411575e-03,1.654777862131595612e-02,-5.510787293314933777e-02,-6.981120095588266850e-04,-1.978038996458053589e-02,-3.802895173430442810e-02,7.523761596530675888e-03,-2.499431185424327850e-02,2.978480421006679535e-03,3.338635666295886040e-03,2.737547084689140320e-02,-1.066565886139869690e-02,-3.167500346899032593e-02,-1.659420132637023926e-02,-6.098215654492378235e-02,-3.294208273291587830e-02,4.990740865468978882e-02,-2.514393255114555359e-02,-4.846169054508209229e-02,