1.630164496600627899e-02,2.820753306150436401e-02,4.053158313035964966e-02,-1.604104936122894287e-01,6.967171281576156616e-02,8.483000099658966064e-03,1.110984906554222107e-01,-9.597171097993850708e-02,-5.194170866161584854e-03,9.784237295389175415e-02,-9.210040420293807983e-02,-4.479889571666717529e-02,-1.271045506000518799e-01,-1.493758708238601685e-01,1.155185252428054810e-01,-4.397914558649063110e-02,8.964854478836059570e-02,5.905682966113090515e-02,-1.065671592950820923e-01,-1.215589419007301331e-01,5.433410033583641052e-02,9.907841682434082031e-02,2.350146137177944183e-02,1.983561366796493530e-02,-1.430637538433074951e-01,1.070057153701782227e-01,-5.509546771645545959e-02,-7.243937253952026367e-02,-7.028345018625259399e-02,-2.346722334623336792e-01,2.052969187498092651e-01,1.336779594421386719e-01,-6.633127480745315552e-02,1.934798806905746460e-02,-3.601755574345588684e-02,-7.803020626306533813e-02,1.588930189609527588e-01,-8.282853662967681885e-02,-5.874023959040641785e-02,6.936422735452651978e-02,9.936041384935379028e-02,-1.141806468367576599e-01,7.084983587265014648e-02,6.292406935244798660e-03,-5.442731082439422607e-02,5.928245931863784790e-02,-5.565659701824188232e-02,-5.536647140979766846e-02,-8.339894562959671021e-02,-1.450807154178619385e-01,-1.385781466960906982e-01,1.349847298115491867e-02,2.599625149741768837e-03,-6.635568290948867798e-02,-5.591861531138420105e-02,-2.091785334050655365e-02,-6.005699560046195984e-02,-1.225323602557182312e-01,-1.826809346675872803e-01,1.099590659141540527e-01,6.527499854564666748e-02,-2.169414237141609192e-02,-9.341297298669815063e-02,1.770522743463516235e-01,-7.417899370193481445e-02,3.215733449906110764e-03,1.198264285922050476e-01,7.128473371267318726e-02,6.781502813100814819e-02,-9.616658836603164673e-02,1.136693507432937622e-01,1.677959561347961426e-01,1.186670660972595215e-01,1.020107269287109375e-01,-9.933039546012878418e-02,-2.069647796452045441e-02,-5.705784261226654053e-02,-9.793466329574584961e-02,-4.478369653224945068e-02,4.200156405568122864e-02,1.185939088463783264e-01,7.989235967397689819e-02,1.632289774715900421e-02,-8.962281281128525734e-04,-9.400054067373275757e-02,7.493655383586883545e-02,-1.792754046618938446e-02,-3.885528538376092911e-03,-1.806140691041946411e-01,3.265066444873809814e-02,4.672598466277122498e-02,8.309201337397098541e-03,-2.536267973482608795e-02,-2.279790490865707397e-02,8.434087038040161133e-02,-8.247280865907669067e-02,-1.433071941137313843e-01,4.578223079442977905e-02,-4.414162039756774902e-02,1.313609909266233444e-02,1.665655374526977539e-01,-1.454181820154190063e-01,2.096405997872352600e-02,5.886769667267799377e-02,1.088097989559173584e-01,-2.231496572494506836e-01,3.998995199799537659e-02,-6.213591992855072021e-02,-1.567132957279682159e-02,-8.590966463088989258e-03,-7.105249166488647461e-02,-1.067880913615226746e-01,3.389804437756538391e-02,-1.510777026414871216e-01,-8.904678374528884888e-02,-1.493206471204757690e-01,3.812133148312568665e-02,9.624512493610382080e-02,-1.155425235629081726e-01,-1.199428960680961609e-01,-4.269975423812866211e-02,1.095844730734825134e-01,4.647164419293403625e-02,-7.569977641105651855e-02,6.142266839742660522e-02,-1.262450311332941055e-02,-2.557259798049926758e-02,1.438626945018768311e-01,5.115904659032821655e-02,4.777177795767784119e-02,-1.173737868666648865e-01,3.904345631599426270e-02,5.422025453299283981e-03,-1.448834687471389771e-02,1.023389846086502075e-01,1.360648684203624725e-02,-2.630205638706684113e-02,-4.211716726422309875e-02,-1.244560629129409790e-01,6.767443119315430522e-05,-8.458172529935836792e-02,-3.352349158376455307e-03,-3.417323157191276550e-02,2.540508285164833069e-02,4.055909067392349243e-02,-4.680727049708366394e-02,9.472802281379699707e-02,2.792467921972274780e-02,-7.286855578422546387e-02,1.048053577542304993e-01,4.517862945795059204e-02,7.026021927595138550e-02,-2.489195764064788818e-01,1.717028766870498657e-01,1.464829687029123306e-02,2.141620665788650513e-01,1.077576056122779846e-01,-6.510444730520248413e-02,6.815362721681594849e-02,9.484440833330154419e-02,-5.793018639087677002e-02,-1.999224573373794556e-01,7.751487195491790771e-02,-1.527960896492004395e-01,6.279510259628295898e-02,3.439743816852569580e-02,-8.522350341081619263e-02,-1.224581673741340637e-01,-8.546737581491470337e-02,8.548572659492492676e-03,1.422207206487655640e-01,1.725714802742004395e-01,-1.689676046371459961e-01,-2.491052029654383659e-03,-1.629087782930582762e-04,6.678001582622528076e-02,1.869193613529205322e-01,-2.587255323305726051e-03,-2.379114627838134766e-01,2.647981345653533936e-01,-2.398672401905059814e-01,1.604726165533065796e-01,9.226337820291519165e-02,-1.202841550111770630e-01,-3.155998885631561279e-01,1.950955390930175781e-01,-3.954419195652008057e-01,1.438822895288467407e-01,2.265998423099517822e-01,8.236473798751831055e-02,1.031822040677070618e-01,-4.016517847776412964e-02,2.739760093390941620e-02,4.200575873255729675e-02,1.389730572700500488e-01,1.931973546743392944e-02,-1.662937849760055542e-01,5.453986302018165588e-02,1.141770835965871811e-02,5.806122720241546631e-02,5.032963305711746216e-02,1.055166870355606079e-01,-9.131653234362602234e-03,1.719201169908046722e-02,-1.357744634151458740e-01,-9.854184091091156006e-02,-7.992195338010787964e-02,5.767157673835754395e-02,-2.376841939985752106e-02,-2.342140972614288330e-01,2.808638215065002441e-01,1.029441505670547485e-02,-4.242118820548057556e-02,4.949814174324274063e-03,7.351491600275039673e-02,2.788364291191101074e-01,1.839596591889858246e-02,9.803637117147445679e-02,6.284657120704650879e-02,-2.739370567724108696e-03,9.562840312719345093e-02,-1.283601075410842896e-01,9.670671820640563965e-02,6.945842504501342773e-02,3.955681994557380676e-02,5.419914424419403076e-02,-2.346715703606605530e-02,-6.049156188964843750e-02,5.740488693118095398e-02,-2.281193062663078308e-02,9.344950318336486816e-02,-1.363889127969741821e-02,2.939203009009361267e-02,4.426616802811622620e-02,-7.476559281349182129e-02,-7.291088253259658813e-02,-5.492521077394485474e-02,-1.118732392787933350e-01,3.063634783029556274e-02,-1.082877349108457565e-02,-2.439085207879543304e-02,1.104743778705596924e-01,-2.103051729500293732e-02,1.246269643306732178e-01,2.035272540524601936e-03,1.294725835323333740e-01,4.577813297510147095e-02,-2.880135923624038696e-02,3.536755102686583996e-04,8.660275489091873169e-02,1.218332536518573761e-02,-9.111936390399932861e-02,1.120470091700553894e-02,7.908104360103607178e-02,4.197138175368309021e-02,2.312582544982433319e-02,7.158461958169937134e-02,8.568158000707626343e-02,-1.273620035499334335e-02,-3.656519353389739990e-01,-8.240134455263614655e-03,-6.923942267894744873e-02,3.323974832892417908e-02,1.559255719184875488e-01,-1.272112280130386353e-01,-8.706168830394744873e-02,1.624976843595504761e-01,-1.446245610713958740e-02,-5.612096190452575684e-02,-3.433318138122558594e-01,6.800314038991928101e-02,-2.856745570898056030e-02,1.801100969314575195e-01,1.452646255493164062e-01,1.622998267412185669e-01,-1.337364502251148224e-02,1.450596153736114502e-01,2.217818610370159149e-02,2.626437842845916748e-01,2.326024323701858521e-01,2.457596128806471825e-03,1.456882208585739136e-01,6.778514385223388672e-02,-4.050985723733901978e-02,7.599536329507827759e-02,-1.044627726078033447e-01,2.735673785209655762e-01,-1.415241975337266922e-02,-6.880504637956619263e-02,-6.444277614355087280e-02,-7.424849271774291992e-02,1.258317846804857254e-02,-1.086764410138130188e-01,-2.043719775974750519e-02,-1.067276969552040100e-01,-5.884337797760963440e-02,2.898273989558219910e-02,-7.521969825029373169e-02,-2.029915526509284973e-02,2.210879139602184296e-02,-5.233525298535823822e-03,-1.270259637385606766e-02,-1.687234267592430115e-02,6.351651391014456749e-04,7.007018476724624634e-02,-2.319579944014549255e-02,-1.215970590710639954e-01,-1.152858436107635498e-01,-1.037694215774536133e-01,5.248669162392616272e-02,-2.598140388727188110e-02,1.584621146321296692e-02,-1.266750842332839966e-01,4.832467529922723770e-03,5.281667783856391907e-02,-1.021957919001579285e-01,8.767005801200866699e-02,1.682829856872558594e-02,-7.574024796485900879e-02,-5.388131365180015564e-02,-9.416671842336654663e-02,4.477960616350173950e-02,3.503265231847763062e-02,7.250206917524337769e-02,-1.742476038634777069e-02,7.317622750997543335e-02,1.027918383479118347e-01,-6.409357488155364990e-02,2.213421650230884552e-02,1.172776333987712860e-02,1.585162058472633362e-02,-1.057603731751441956e-01,-1.761988364160060883e-02,-1.385070476680994034e-02,3.701955080032348633e-02,3.720857948064804077e-02,2.112249732017517090e-01,-1.905368268489837646e-02,8.225942403078079224e-02,-9.461966156959533691e-02,1.108270138502120972e-01,-4.561024252325296402e-05,3.591065704822540283e-01,2.245160341262817383e-01,-5.214189365506172180e-02,1.476978659629821777e-01,-5.376568809151649475e-02,-1.485970467329025269e-01,8.190056681632995605e-02,-1.820733845233917236e-01,2.965007424354553223e-01,-3.136422038078308105e-01,4.406701773405075073e-02,-7.347508799284696579e-03,-3.256786987185478210e-02,2.317582815885543823e-02,2.143891155719757080e-02,1.348434984683990479e-01,-3.278611600399017334e-02,-1.245809569954872131e-01,5.749614909291267395e-02,2.202843725681304932e-01,-2.392421104013919830e-02,5.060730618424713612e-04,6.996624171733856201e-03,6.498233973979949951e-02,5.602248013019561768e-02,6.835814565420150757e-02,8.406945317983627319e-02,1.413838714361190796e-01,6.465375423431396484e-02,2.530553564429283142e-02,1.009796261787414551e-01,1.856657117605209351e-02,1.075097247958183289e-01,3.315083682537078857e-02,3.359901905059814453e-02,9.449671953916549683e-02,-3.144534677267074585e-02,-2.094584889709949493e-02,-2.710698544979095459e-02,1.748842187225818634e-02,4.731036256998777390e-03,-4.100875928997993469e-03,-2.761463820934295654e-01,-1.790148168802261353e-01,1.761960610747337341e-02,1.696959510445594788e-02,-5.353274941444396973e-02,-1.487348377704620361e-01,-4.238862171769142151e-02,-2.863499103114008904e-03,1.222951933741569519e-01,-1.944554299116134644e-01,-6.801592558622360229e-02,1.504697948694229126e-01,-4.500879347324371338e-02,4.869637638330459595e-02,-1.731376200914382935e-01,1.060329098254442215e-02,5.857751145958900452e-02,-8.988162130117416382e-02,-5.863650515675544739e-02,-6.907292176038026810e-03,-8.051905035972595215e-02,1.578985899686813354e-01,-1.174516081809997559e-01,-1.370585709810256958e-01,-9.538875520229339600e-02,5.092075467109680176e-02,7.897440344095230103e-02,6.875717639923095703e-02,3.666986525058746338e-02,8.782657235860824585e-02,-7.576760649681091309e-02,8.541008830070495605e-02,1.916576474905014038e-01,1.868629753589630127e-01,-2.214049994945526123e-01,5.922095105051994324e-02,9.290099143981933594e-02,-1.042638570070266724e-01,-2.332961373031139374e-02,-2.014770358800888062e-02,-1.414047181606292725e-01,-1.692362278699874878e-01,5.282372981309890747e-02,1.496102213859558105e-01,1.731443703174591064e-01,1.976298987865447998e-01,-4.594272002577781677e-02,-1.508533060550689697e-01,4.616991430521011353e-02,-1.192209944128990173e-01,-1.501915454864501953e-01,-1.428609490394592285e-01,2.486359477043151855e-01,2.053441107273101807e-02,-9.230654686689376831e-02,2.136109918355941772e-01,2.516098879277706146e-02,-6.690691411495208740e-02,1.314600408077239990e-01,-1.466885954141616821e-01,2.991373538970947266e-01,1.124811023473739624e-01,2.154549658298492432e-01,1.018657982349395752e-01,4.980569705367088318e-02,-1.874090582132339478e-01,5.846371129155158997e-02,1.455204784870147705e-01,1.460924595594406128e-01,-8.807325363159179688e-02,4.497829067986458540e-04,1.251477748155593872e-01,9.316378086805343628e-02,1.471545081585645676e-02,1.841600984334945679e-02,6.034386530518531799e-02,8.464694023132324219e-02,2.268672138452529907e-01,-5.772074684500694275e-02,-9.202090650796890259e-02,9.524844586849212646e-02,-1.075363904237747192e-02,-1.719294339418411255e-01,6.991107016801834106e-02,-3.019431978464126587e-02,6.244318932294845581e-02,1.620725542306900024e-02,-8.544073998928070068e-02,-2.225160151720046997e-01,-2.925323881208896637e-02,-9.424731135368347168e-02,8.165413886308670044e-02,1.815225183963775635e-01,1.015787720680236816e-01,1.587102562189102173e-02,1.933290250599384308e-02,1.547571271657943726e-02,4.613206535577774048e-02,-2.125872373580932617e-01,-1.418344080448150635e-01,2.827817499637603760e-01,4.332448169589042664e-02,9.618798270821571350e-03,-1.214839285239577293e-03,7.909520715475082397e-02,-2.246474474668502808e-01,5.262166634202003479e-02,-1.995025761425495148e-02,1.383557170629501343e-01,1.097233444452285767e-01,2.020425349473953247e-01,1.164485514163970947e-02,1.138022765517234802e-01,-1.224963273853063583e-02,-1.991137629374861717e-03,-5.503614991903305054e-02,7.078076153993606567e-02,-8.818623423576354980e-02,1.491755694150924683e-01,-2.030718699097633362e-02,-1.049919333308935165e-02,1.174639910459518433e-01,-1.043179631233215332e-01,2.380847930908203125e-02,-1.242983043193817139e-01,-1.908616423606872559e-01,1.498243212699890137e-01,-6.084955763071775436e-03,-1.189401187002658844e-02,-7.885083556175231934e-02,-1.247822656296193600e-04,6.996186077594757080e-02,-1.849472988396883011e-03,-1.650792546570301056e-02,-2.533923834562301636e-02,-3.759914264082908630e-02,-7.147979736328125000e-02,-6.914626806974411011e-02,1.345784366130828857e-01,6.770273204892873764e-03,6.109495460987091064e-02,2.006866335868835449e-01,1.623431220650672913e-02,-1.052707955241203308e-01,-1.339750438928604126e-01,-2.795003056526184082e-01,1.227682009339332581e-01,7.627516984939575195e-02,6.034963950514793396e-02,-3.064350485801696777e-01,4.766032472252845764e-02,7.833731919527053833e-02,2.334425747394561768e-01,-2.132132649421691895e-01,-1.557093560695648193e-01,-3.698531363625079393e-04,3.479492291808128357e-02,1.185754984617233276e-01,-1.666753590106964111e-01,-1.775230020284652710e-01,7.487837970256805420e-02,3.005094453692436218e-02,-2.732769586145877838e-02,-3.765104338526725769e-02,6.195943802595138550e-02,-4.056018311530351639e-03,1.034301072359085083e-01,2.846566215157508850e-02,-1.486381981521844864e-02,1.952359639108181000e-02,-9.037027508020401001e-02,5.752955377101898193e-02,4.998541437089443207e-03,-4.179694131016731262e-02,-9.043890982866287231e-03,-5.579406861215829849e-03,8.130722492933273315e-02,-7.729756087064743042e-02,-8.482984453439712524e-02,-4.022134095430374146e-02,1.214621495455503464e-02,-7.819695770740509033e-02,-2.014466561377048492e-02,-6.152112968266010284e-03,-1.106112450361251831e-01,1.614765636622905731e-02,2.342703938484191895e-02,-1.266905218362808228e-01,5.766457691788673401e-02,5.597645044326782227e-02,-2.667876891791820526e-02,-7.518173009157180786e-02,-9.759889543056488037e-02,-1.051804199814796448e-01,9.921658784151077271e-03,6.785751879215240479e-02,6.417440623044967651e-02,-6.915488839149475098e-02,-3.101798519492149353e-02,-4.564554616808891296e-02,3.205419704318046570e-02,8.259983733296394348e-03,-7.785941660404205322e-02,1.063083857297897339e-01,-4.671966657042503357e-02,3.138646017760038376e-03,-7.489150017499923706e-02,2.450386062264442444e-02,7.425213605165481567e-02,2.559190429747104645e-02,5.597867071628570557e-02,3.071425016969442368e-03,-3.049987368285655975e-02,-6.584107130765914917e-02,7.227359712123870850e-02,2.928026765584945679e-02,-3.679355978965759277e-02,-9.606535546481609344e-03,2.989421226084232330e-02,-3.886701166629791260e-02,3.278908506035804749e-02,-1.078670024871826172e-01,1.830768771469593048e-02,-8.812253922224044800e-02,4.223451763391494751e-02,1.948028430342674255e-02,-2.188058570027351379e-04,1.434447765350341797e-01,-2.172390520572662354e-01,1.377532035112380981e-01,-8.771093934774398804e-02,-9.127590805292129517e-02,3.592817112803459167e-02,8.045138418674468994e-02,-3.866173699498176575e-02,6.194248795509338379e-02,6.837189197540283203e-02,1.380000710487365723e-01,-6.231469288468360901e-02,-7.691574865020811558e-04,6.274893134832382202e-02,-3.282481105998158455e-03,2.199432579800486565e-03,2.865906246006488800e-02,-4.789126396644860506e-04,6.291758269071578979e-03,-1.283269561827182770e-02,-1.372417435050010681e-02,-4.375447332859039307e-02,2.205930836498737335e-02,-6.116957962512969971e-02,-4.877878725528717041e-02,1.163762435317039490e-02,6.214761361479759216e-02,8.008772134780883789e-02,-2.191359736025333405e-02,-4.963153228163719177e-02,-6.941890716552734375e-02,7.202624529600143433e-02,2.836605906486511230e-02,1.704625599086284637e-02,1.301833838224411011e-01,6.202446669340133667e-02,2.191937528550624847e-02,-6.825822591781616211e-02,1.055629253387451172e-01,-5.450512841343879700e-02,1.719764620065689087e-01,1.139239873737096786e-02,-2.639010734856128693e-02,-4.686414822936058044e-02,1.752800941467285156e-01,5.995404440909624100e-03,-8.331424742937088013e-02,-1.297553032636642456e-01,-2.107560187578201294e-01,4.966358840465545654e-02,1.061390992254018784e-02,-1.699167676270008087e-02,4.497430846095085144e-02,-5.461541190743446350e-02,-7.620833814144134521e-02,-1.385326497256755829e-02,-5.466611683368682861e-02,8.319217711687088013e-02,-1.329470425844192505e-02,-2.548307366669178009e-02,6.305758655071258545e-02,2.559030195698142052e-03,6.216491386294364929e-02,-2.116320468485355377e-02,4.535286873579025269e-02,7.552868872880935669e-02,8.649959228932857513e-03,-1.755833066999912262e-02,-7.929243892431259155e-02,-4.074611514806747437e-02,9.038862586021423340e-02,1.318091005086898804e-01,-2.840474061667919159e-02,1.771307922899723053e-02,4.830645397305488586e-02,1.777619421482086182e-01,-5.485095083713531494e-02,1.401600986719131470e-01,-4.155884310603141785e-02,5.487719178199768066e-02,3.288615867495536804e-02,-1.278874278068542480e-01,-8.594701439142227173e-02,-3.503835946321487427e-02,-1.664260029792785645e-01,-4.967726394534111023e-02,2.307458668947219849e-01,1.600683778524398804e-01,3.792513161897659302e-02,-1.184937506914138794e-01,4.993148148059844971e-02,2.090524323284626007e-02,-1.273831725120544434e-01,-7.933921366930007935e-02,2.167572453618049622e-02,3.944566100835800171e-02,-2.868033247068524361e-03,1.419570297002792358e-01,-8.828055858612060547e-02,5.720693245530128479e-02,1.068326979875564575e-01,2.660027146339416504e-02,-8.762422204017639160e-02,7.849571993574500084e-04,-1.425415929406881332e-02,-1.458854880183935165e-02,8.193997666239738464e-03,6.814337521791458130e-02,-6.785590946674346924e-02,1.466472726315259933e-02,8.629740774631500244e-02,3.893378749489784241e-02,-1.302530057728290558e-02,-8.267571777105331421e-02,-6.485705077648162842e-02,-1.461086571216583252e-01,-4.328985884785652161e-02,5.878255143761634827e-02,4.487477988004684448e-02,1.387556665576994419e-03,-1.336067616939544678e-01,-8.383034914731979370e-02,-7.550423592329025269e-02,7.435694336891174316e-02,5.888535082340240479e-02,-7.375179976224899292e-02,-1.963430643081665039e-02,-8.500896394252777100e-02,-1.525111794471740723e-01,1.821893602609634399e-01,-1.068142428994178772e-01,9.507481753826141357e-02,1.481118202209472656e-01,7.359430938959121704e-02,-2.546671330928802490e-01,1.417799443006515503e-01,-9.403445571660995483e-02,7.467329502105712891e-02,3.679972887039184570e-02,3.403428196907043457e-02,-7.030662894248962402e-02,7.551284879446029663e-02,-2.737826108932495117e-02,-1.111818403005599976e-01,-1.486021876335144043e-01,6.275101751089096069e-02,1.388981379568576813e-02,-1.154149174690246582e-01,-8.767431974411010742e-02,7.140659727156162262e-03,1.213144436478614807e-01,4.094611853361129761e-02,-2.260960452258586884e-02,8.151525259017944336e-02,3.687404468655586243e-02,9.991209208965301514e-02,1.971416324377059937e-01,1.069014053791761398e-02,-8.515753597021102905e-02,-9.306981414556503296e-02,-1.624221540987491608e-02,-2.587265567854046822e-03,5.643074214458465576e-02,-5.473948270082473755e-02,-7.275920361280441284e-02,-3.772413730621337891e-02,-1.260363310575485229e-01,6.604366470128297806e-03,-7.105062901973724365e-02,1.025346666574478149e-02,1.161653995513916016e-01,3.193593397736549377e-02,-6.335013359785079956e-02,5.694216489791870117e-02,3.294899314641952515e-02,2.084967680275440216e-02,-2.962948987260460854e-03,-5.381379276514053345e-02,-8.653475344181060791e-02,1.371569484472274780e-01,3.921856358647346497e-02,5.610459670424461365e-02,-5.146656930446624756e-02,-4.787563532590866089e-02,-1.176695059984922409e-02,-1.452684551477432251e-01,-8.655356615781784058e-02,-1.650224179029464722e-01,-1.068622246384620667e-01,4.247754812240600586e-02,1.188280899077653885e-02,1.310923099517822266e-01,4.412346333265304565e-02,-9.036879986524581909e-02,1.561543792486190796e-01,8.547113090753555298e-02,5.127484723925590515e-02,-1.251229196786880493e-01,2.425674647092819214e-01,1.096897423267364502e-01,2.068672180175781250e-01,-6.198104098439216614e-02,-1.378766540437936783e-02,1.196053177118301392e-01,9.654199331998825073e-02,6.022714823484420776e-02,7.803005725145339966e-02,1.140675842761993408e-01,1.496419426985085011e-03,-1.494369097054004669e-02,2.933380566537380219e-02,2.979235909879207611e-02,-1.154373306781053543e-02,4.193486645817756653e-02,5.131081119179725647e-02,2.895712107419967651e-02,6.492853164672851562e-02,-8.433272689580917358e-02,-8.257780224084854126e-03,-6.029484793543815613e-02,-6.201081722974777222e-02,-1.355467885732650757e-01,1.803739964962005615e-01,3.132973611354827881e-02,6.784695386886596680e-02,7.561500370502471924e-02,6.525436788797378540e-02,5.411662161350250244e-02,-6.998561322689056396e-03,1.449908614158630371e-01,-3.062086179852485657e-02,1.162079628556966782e-02,-9.119136258959770203e-03,-2.074779197573661804e-02,5.282793566584587097e-02,1.083409041166305542e-01,4.148427397012710571e-02,-1.035246625542640686e-01,7.235833257436752319e-02,-1.049742288887500763e-02,3.639056230895221233e-04,5.940419808030128479e-02,-3.597219241783022881e-03,-1.276591327041387558e-02,-1.020725741982460022e-01,1.821539998054504395e-01,-1.441715508699417114e-01,1.866347156465053558e-02,-1.613082885742187500e-01,-7.785768806934356689e-02,1.350043118000030518e-01,-1.562020629644393921e-01,-1.406726539134979248e-01,9.058880060911178589e-02,6.370572000741958618e-02,9.514144062995910645e-02,6.753499805927276611e-02,-1.205118931829929352e-02,2.661023102700710297e-02,4.801708832383155823e-02,8.171350508928298950e-02,-9.209911525249481201e-02,7.953605800867080688e-02,8.386692404747009277e-02,9.902963042259216309e-02,3.869077935814857483e-02,-4.853389039635658264e-02,7.457466423511505127e-02,9.423031657934188843e-02,6.361375004053115845e-02,-5.781108886003494263e-02,-1.984277740120887756e-02,-2.095747552812099457e-02,2.747228834778070450e-03,-3.306726366281509399e-02,2.843912132084369659e-02,-1.093705520033836365e-01,-1.505542639642953873e-02,2.473672619089484215e-03,4.454842954874038696e-02,-7.022605091333389282e-02,-6.209827214479446411e-02,1.328155398368835449e-02,-4.939496517181396484e-02,-7.189709693193435669e-02,-8.068420924246311188e-03,-9.950037300586700439e-02,-4.151764512062072754e-02,9.220884740352630615e-02,-1.799897477030754089e-02,-1.683215796947479248e-01,3.435424342751502991e-02,2.280550822615623474e-02,-8.781783282756805420e-03,-1.487013697624206543e-01,-7.048832625150680542e-02,5.759037286043167114e-02,-1.659873127937316895e-02,1.322969645261764526e-01,-2.188102751970291138e-01,-4.997246712446212769e-02,4.325575381517410278e-02,4.554364830255508423e-02,9.389994293451309204e-02,-7.725976407527923584e-02,7.482640445232391357e-02,1.263247430324554443e-01,1.700620353221893311e-01,7.770058512687683105e-02,-1.230801194906234741e-01,1.881681382656097412e-01,1.161665320396423340e-01,5.062302947044372559e-02,6.764863617718219757e-03,-1.090288460254669189e-01,7.551138848066329956e-02,1.941416263580322266e-01,2.504445798695087433e-02,-4.081944748759269714e-02,-5.156553164124488831e-02,-4.776669666171073914e-02,1.319276690483093262e-01,-4.438160359859466553e-02,-1.850194670259952545e-02,-3.515082970261573792e-02,-2.469087392091751099e-02,-6.882822513580322266e-02,8.597841486334800720e-03,-2.639780286699533463e-03,4.745170846581459045e-02,1.065586283802986145e-01,5.758861824870109558e-02,-6.576380878686904907e-02,5.678613483905792236e-02,2.556711807847023010e-02,-1.166334897279739380e-01,-5.484725814312696457e-03,-6.601183116436004639e-02,-8.207852952182292938e-03,-1.474610567092895508e-01,-3.710440127179026604e-03,-1.329372227191925049e-01,-1.207838878035545349e-01,5.190156400203704834e-02,-5.925901979207992554e-02,2.077189646661281586e-02,2.182690659537911415e-03,-1.660203747451305389e-02,1.204086653888225555e-02,3.699046000838279724e-02,-2.173302024602890015e-01,5.777023360133171082e-02,3.372534364461898804e-02,7.189735770225524902e-02,-1.793685741722583771e-02,1.734047383069992065e-02,-5.463146790862083435e-02,2.542967163026332855e-02,1.165457908064126968e-02,7.593820244073867798e-02,-7.064162287861108780e-03,-7.717324793338775635e-02,2.427516877651214600e-02,3.224022453650832176e-03,-8.778347820043563843e-02,1.766946353018283844e-02,1.577094756066799164e-02,1.718322932720184326e-02,1.247136145830154419e-01,8.054328709840774536e-02,-1.135598048567771912e-01,8.913326263427734375e-02,6.092870235443115234e-02,2.617867663502693176e-02,8.847147971391677856e-02,-7.429569959640502930e-02,1.564681231975555420e-01,-7.747052609920501709e-02,-1.007872745394706726e-01,3.760067373514175415e-02,-3.940967842936515808e-02,-2.071127854287624359e-02,6.371305882930755615e-02,7.193723320960998535e-02,9.616082906723022461e-02,1.095418408513069153e-01,-8.179443329572677612e-02,-8.500798046588897705e-02,-1.296775694936513901e-02,1.262378394603729248e-01,-7.577219605445861816e-02,3.940957039594650269e-02,4.046779870986938477e-02,-2.479925192892551422e-02,9.894604980945587158e-02,-4.795810952782630920e-02,-3.599771857261657715e-02,2.979185432195663452e-02,4.164821654558181763e-02,5.187826231122016907e-02,-2.194612286984920502e-02,-2.154107987880706787e-01,1.513225138187408447e-01,1.388000398874282837e-01,1.106441318988800049e-01,-1.268883645534515381e-01,-3.959076106548309326e-02,-3.657301142811775208e-02,8.854886889457702637e-02,4.351423680782318115e-02,-1.237535700201988220e-01,-9.717062860727310181e-02,6.856851279735565186e-02,3.415376320481300354e-02,-2.690677717328071594e-02,6.599584221839904785e-02,-7.029401510953903198e-02,-7.335004955530166626e-02,1.048989519476890564e-01,-4.122260957956314087e-02,4.602856934070587158e-02,-7.721225172281265259e-02,9.669987484812736511e-03,8.007581532001495361e-02,-2.300992608070373535e-02,3.907660767436027527e-02,2.636623941361904144e-02,-4.537242650985717773e-02,7.536362856626510620e-02,-8.603180944919586182e-02,5.079981684684753418e-02,4.948342591524124146e-02,-2.529230434447526932e-03,-9.383591264486312866e-02,1.938192173838615417e-02,-4.546675086021423340e-02,-1.548183709383010864e-02,-3.695244435220956802e-03,-6.318186968564987183e-02,3.640376031398773193e-02,4.953674599528312683e-02,1.948769786395132542e-03,2.012998983263969421e-02,-3.617776557803153992e-02,-3.766543418169021606e-02,-1.488701999187469482e-02,-1.318161785602569580e-01,-1.043723076581954956e-01,-4.233704134821891785e-02,1.034688651561737061e-01,3.161425143480300903e-02,-1.479340717196464539e-02,-8.271845430135726929e-02,-6.564335525035858154e-02,-1.006864830851554871e-01,-5.056369118392467499e-03,-9.864804148674011230e-02,5.952813476324081421e-02,1.098885312676429749e-01,4.955235123634338379e-02,-9.571942687034606934e-02,2.015615105628967285e-01,1.592614501714706421e-01,7.315611839294433594e-02,8.127891272306442261e-02,-2.901118434965610504e-02,-1.207244619727134705e-01,1.264823526144027710e-01,1.021998897194862366e-01,-4.686756432056427002e-02,5.067048594355583191e-02,-2.585351653397083282e-02,3.236815705895423889e-02,-7.704722695052623749e-03,-4.351826757192611694e-02,1.506997831165790558e-02,-2.973742038011550903e-02,3.241164609789848328e-03,-1.137975007295608521e-01,-1.750916093587875366e-01,-4.981335252523422241e-02,5.235040932893753052e-02,-7.811369746923446655e-02,-1.473707705736160278e-01,5.618580430746078491e-02,-1.017381204292178154e-03,-1.084428802132606506e-01,-9.647565893828868866e-03,-2.205590307712554932e-01,-1.451194006949663162e-02,7.114454358816146851e-02,-1.649064756929874420e-02,3.679582104086875916e-02,1.592916809022426605e-02,-1.819229871034622192e-02,1.439269445836544037e-02,-2.825887128710746765e-02,-7.774849236011505127e-02,-1.824606209993362427e-02,9.160268306732177734e-02,1.128368005156517029e-01,8.905685506761074066e-03,8.196023851633071899e-02,-2.305345237255096436e-02,-9.069736301898956299e-02,7.517544925212860107e-02,-4.676305223256349564e-03,-6.345367431640625000e-02,-3.268953040242195129e-02,1.649687290191650391e-01,8.451432920992374420e-03,-4.834238812327384949e-02,4.734210204333066940e-03,-2.241880074143409729e-02,-5.520575121045112610e-02,1.086704209446907043e-01,4.002533480525016785e-02,-1.055759862065315247e-01,1.218184307217597961e-01,-1.551965903490781784e-02,-1.013850211165845394e-03,4.831990599632263184e-02,-6.826087087392807007e-02,2.039973437786102295e-02,1.065642014145851135e-01,-9.577707387506961823e-03,-2.775424905121326447e-02,8.311749994754791260e-02,3.384018316864967346e-02,5.861327797174453735e-02,-8.684423565864562988e-02,1.155140399932861328e-01,1.073226332664489746e-01,5.518082901835441589e-02,1.891936920583248138e-02,-4.383147228509187698e-03,9.501954168081283569e-02,-1.526250988245010376e-01,-8.344073779881000519e-03,5.804349854588508606e-02,-2.632302418351173401e-02,6.688600778579711914e-02,2.563063986599445343e-02,-9.019400179386138916e-02,-3.092966787517070770e-02,2.197311446070671082e-02,8.447849005460739136e-02,2.908341959118843079e-02,2.157567813992500305e-02,-6.784898787736892700e-02,1.175260543823242188e-01,-1.149921864271163940e-01,-9.733978658914566040e-02,8.061567693948745728e-02,-1.867890916764736176e-02,-1.931007020175457001e-02,8.337360620498657227e-02,-3.271567821502685547e-02,-2.991494908928871155e-02,-4.135126248002052307e-02,9.195412695407867432e-02,-9.104321897029876709e-02,-7.564379274845123291e-02,-4.800315946340560913e-02,5.548804625868797302e-02,-5.460317805409431458e-02,-4.510523285716772079e-03,2.917635068297386169e-02,-6.254656612873077393e-02,-1.566300168633460999e-02,-4.959800280630588531e-03,-1.412357836961746216e-01,2.116613462567329407e-02,5.656043067574501038e-02,8.873957395553588867e-02,-3.289995715022087097e-02,5.919097922742366791e-03,8.063409477472305298e-03,9.361367672681808472e-03,-2.741944044828414917e-02,-6.867913063615560532e-03,2.849709801375865936e-02,-8.148686960339546204e-03,1.236804947257041931e-02,-4.506565257906913757e-02,-6.317961215972900391e-02,-6.248573958873748779e-02,-5.121125653386116028e-02,-1.175550185143947601e-02,-5.091506987810134888e-02,-4.563210904598236084e-02,-7.015988230705261230e-02,-6.949967704713344574e-03,-5.152184888720512390e-02,-5.387753248214721680e-02,-1.035776063799858093e-01,-1.483212262392044067e-01,8.134203404188156128e-02,-8.763424307107925415e-02,-6.622000783681869507e-02,1.850958541035652161e-02,-8.099447190761566162e-02,2.896407805383205414e-02,-4.567470028996467590e-02,-1.333538070321083069e-02,2.999798394739627838e-02,5.816706269979476929e-02,3.458151221275329590e-02,-1.004857420921325684e-01,1.269971951842308044e-02,1.301047578454017639e-02,5.314471200108528137e-02,1.591666042804718018e-02,-3.918403759598731995e-02,6.605444103479385376e-02,-4.166280478239059448e-02,-4.026644304394721985e-02,-1.089169755578041077e-01,-5.787599086761474609e-02,-1.279516816139221191e-01,4.594106227159500122e-02,8.323138952255249023e-02,1.115841493010520935e-01,5.265616625547409058e-02,1.510136388242244720e-02,-8.863437175750732422e-02,1.104638352990150452e-01,-2.271578274667263031e-02,-1.000942662358283997e-01,-2.568084374070167542e-02,-2.880935790017247200e-04,8.454563096165657043e-03,1.531012542545795441e-02,-9.603813290596008301e-03,5.277967825531959534e-02,-6.102032586932182312e-02,-1.493097655475139618e-02,1.607993990182876587e-02,1.648868434131145477e-02,-8.609975874423980713e-02,-8.624003082513809204e-02,-4.945425782352685928e-03,7.193910330533981323e-02,-5.654712766408920288e-02,3.943630680441856384e-02,3.189169988036155701e-02,-1.045007631182670593e-02,-1.835336210206151009e-03,-8.925600349903106689e-02,2.389299497008323669e-02,5.192322283983230591e-02,9.078332222998142242e-03,9.842719882726669312e-02,4.005331173539161682e-02,8.524187654256820679e-02,-1.839146576821804047e-02,-5.135838314890861511e-02,4.344938695430755615e-02,5.888345092535018921e-02,-9.614915400743484497e-02,-4.123052954673767090e-02,-3.305694460868835449e-02,-4.929630085825920105e-02,8.568827807903289795e-02,-2.869812026619911194e-02,-4.131386056542396545e-03,7.326901704072952271e-02,5.112054198980331421e-02,-4.636870697140693665e-02,3.791952505707740784e-02,1.558480709791183472e-01,-7.892618328332901001e-02,-8.273517340421676636e-02,-2.414880245923995972e-01,-3.582036495208740234e-02,-1.196953095495700836e-02,-1.359320431947708130e-01,-7.610699534416198730e-02,2.443115971982479095e-02,-6.563989818096160889e-02,-8.651646226644515991e-02,-2.253042906522750854e-01,-1.810464560985565186e-01,-1.390831172466278076e-02,-4.109994694590568542e-02,8.603578805923461914e-02,7.689529657363891602e-02,7.494334876537322998e-02,-7.379479706287384033e-03,5.762073025107383728e-02,-9.381804615259170532e-02,3.949360176920890808e-02,-1.246410328894853592e-02,-3.065665438771247864e-02,1.346183661371469498e-02,6.063908338546752930e-02,-2.128716744482517242e-02,-1.396704912185668945e-01,-4.290089011192321777e-02,6.892137974500656128e-02,-4.065492749214172363e-02,-2.913367189466953278e-02,-2.888656686991453171e-03,5.972424149513244629e-02,7.893505692481994629e-02,1.152459010481834412e-01,-3.055170550942420959e-02,3.526787832379341125e-02,-3.131234273314476013e-02,6.438024342060089111e-02,-4.198538139462471008e-03,-4.977428913116455078e-02,9.167094528675079346e-02,2.689064480364322662e-02,8.154838532209396362e-02,3.255948796868324280e-02,1.598880067467689514e-02,-1.809527166187763214e-02,-8.983161300420761108e-02,2.344905957579612732e-02,9.845273941755294800e-02,1.177788362838327885e-03,-3.162937983870506287e-02,-6.482902914285659790e-02,-4.349631071090698242e-02,8.649579435586929321e-02,-3.970839548856019974e-03,3.792152553796768188e-02,1.979604922235012054e-02,-6.527378410100936890e-02,4.603801295161247253e-02,3.732149302959442139e-02,-3.731431812047958374e-02,1.747752726078033447e-02,-1.207728758454322815e-01,-4.797208681702613831e-02,-3.137362748384475708e-02,-1.176843196153640747e-01,2.902678586542606354e-02,-7.741401344537734985e-02,4.493156448006629944e-02,-1.349736154079437256e-01,-3.808908164501190186e-02,-8.475475944578647614e-03,-1.681549400091171265e-01,1.334923040121793747e-02,-9.717420674860477448e-03,-8.565723150968551636e-02,6.982841342687606812e-02,1.520249899476766586e-02,7.912198454141616821e-02,-1.005580648779869080e-01,1.033859699964523315e-01,-2.320986241102218628e-02,2.903397195041179657e-02,3.707172721624374390e-02,2.773549593985080719e-02,-1.569216251373291016e-01,-9.814556688070297241e-03,-3.507305169478058815e-03,6.512790173292160034e-02,-6.273899227380752563e-02,-3.096372820436954498e-02,-2.139057219028472900e-02,-3.034697473049163818e-02,4.940390586853027344e-02,-7.669603079557418823e-02,-8.932720520533621311e-04,-9.568934328854084015e-03,3.993089124560356140e-02,9.259974583983421326e-03,3.505313768982887268e-02,6.718190759420394897e-02,-1.444951891899108887e-01,6.860322505235671997e-02,5.546994134783744812e-02,1.238270103931427002e-01,-1.852378062903881073e-02,-7.943257689476013184e-03,3.044986352324485779e-02,-2.721249498426914215e-02,-1.323596760630607605e-02,-4.791523143649101257e-02,5.604006722569465637e-02,-3.097393549978733063e-02,-8.399773389101028442e-02,1.716587319970130920e-02,4.409227520227432251e-02,1.990648359060287476e-02,6.137730181217193604e-02,-1.420448534190654755e-02,2.115240134298801422e-02,-8.755596354603767395e-03,2.392351999878883362e-02,-1.578785851597785950e-02,-1.309255808591842651e-01,4.458101466298103333e-02,8.470246568322181702e-03,-1.150485798716545105e-01,-1.592768589034676552e-03,1.445273905992507935e-01,-6.185806123539805412e-04,8.190249209292232990e-04,-6.814782321453094482e-02,-5.841948091983795166e-02,-3.331108763813972473e-02,-8.317478001117706299e-03,1.918333116918802261e-03,2.711236663162708282e-02,-6.106232851743698120e-02,4.100404679775238037e-02,-8.814894407987594604e-02,2.264760807156562805e-02,-4.123220965266227722e-02,-1.096600443124771118e-01,-9.200930595397949219e-03,-9.773769229650497437e-02,-1.781420223414897919e-02,-3.944961354136466980e-02,-1.148392558097839355e-01,4.840147122740745544e-02,-4.269267618656158447e-02,-1.183533221483230591e-01,7.378768920898437500e-02,-4.051993042230606079e-02,-3.463356196880340576e-02,-4.128715489059686661e-03,5.561788007616996765e-02,-9.536250494420528412e-03,2.584539726376533508e-02,-1.169464811682701111e-01,-9.638067334890365601e-02,-7.901450991630554199e-02,-6.681956350803375244e-02,7.399314641952514648e-02,-8.116688579320907593e-02,-7.121580839157104492e-02,-3.165599703788757324e-02,-7.615108788013458252e-02,1.291050165891647339e-01,-5.527661740779876709e-02,4.700747504830360413e-02,1.722361445426940918e-01,-9.453179687261581421e-02,-2.275326661765575409e-02,1.666377633810043335e-01,3.421380743384361267e-02,-5.043435096740722656e-02,9.722685068845748901e-02,-7.910776883363723755e-02,4.463991895318031311e-02,1.224532499909400940e-01,-1.842110790312290192e-02,-8.584599196910858154e-02,3.353242576122283936e-02,-7.168257981538772583e-02,4.706280678510665894e-02,6.678928434848785400e-02,2.628738002385944128e-04,-6.631955504417419434e-02,-7.880140095949172974e-03,-1.205496788024902344e-01,-6.449963897466659546e-02,-1.892469450831413269e-02,-3.417732892557978630e-03,1.105436384677886963e-01,-8.258087188005447388e-02,-1.422756165266036987e-01,3.274761140346527100e-03,5.145579576492309570e-02,-6.207308545708656311e-02,8.935868740081787109e-02,1.356621505692601204e-04,-3.594312816858291626e-02,3.975966945290565491e-02,5.512020736932754517e-02,4.003605991601943970e-02,-7.871961593627929688e-02,-1.484178751707077026e-01,-1.067277118563652039e-01,-3.618290275335311890e-02,-9.513669461011886597e-02,1.061885058879852295e-01,1.016628928482532501e-02,7.638624403625726700e-03,-5.917641893029212952e-02,9.166370332241058350e-02,-1.479465812444686890e-01,2.443239651620388031e-02,3.695242479443550110e-02,-1.210875958204269409e-01,-9.608924388885498047e-02,1.527728736400604248e-01,-3.778423368930816650e-02,-1.069813072681427002e-01,-5.228019133210182190e-02,-6.130127981305122375e-02,-2.631800435483455658e-02,-9.485748410224914551e-02,-1.064361110329627991e-01,-7.857424765825271606e-02,-4.537619184702634811e-03,-9.932816773653030396e-02,7.302252203226089478e-02,-3.322357311844825745e-02,-1.421548705548048019e-02,4.465732723474502563e-02,1.846478320658206940e-02,1.480357069522142410e-02,1.405207440257072449e-02,4.481458291411399841e-02,-8.908500522375106812e-02,-2.035461738705635071e-02,-2.814661897718906403e-02,5.371538177132606506e-02,-1.009627133607864380e-01,-1.349572986364364624e-01,-8.860462903976440430e-02,-7.925883680582046509e-02,4.048914089798927307e-02,1.076933294534683228e-01,-4.587674513459205627e-02,3.669328615069389343e-02,-6.048502773046493530e-02,-3.056081477552652359e-04,-7.293464988470077515e-02,-8.941321074962615967e-02,4.504229873418807983e-02,4.340971633791923523e-02,1.393447518348693848e-01,-1.388393342494964600e-01,-1.067999228835105896e-01,1.892967522144317627e-01,-1.929838210344314575e-02,-6.505513191223144531e-02,2.958078496158123016e-02,9.447718970477581024e-03,-2.518457593396306038e-03,-1.406708266586065292e-02,1.031911149621009827e-01,1.446652263402938843e-01,3.865187987685203552e-02,-8.630368113517761230e-02,-1.392624676227569580e-01,3.712712600827217102e-02,-6.644258648157119751e-02,-1.101267784833908081e-01,-1.727415770292282104e-01,-1.315192431211471558e-01,-3.987435996532440186e-02,-3.983822092413902283e-02,-9.820146113634109497e-02,3.644877672195434570e-02,-4.565823078155517578e-02,-4.270154982805252075e-02,-6.647723913192749023e-02,8.008351922035217285e-02,3.199568018317222595e-02,-7.001781463623046875e-02,1.309085339307785034e-01,-9.882123768329620361e-02,3.559640422463417053e-02,-1.006909906864166260e-01,5.267706885933876038e-02,1.083578541874885559e-01,2.030704915523529053e-02,6.517851352691650391e-02,9.348806925117969513e-03,-2.707719616591930389e-02,-6.663817167282104492e-02,-2.065495848655700684e-01,3.026756644248962402e-02,7.233881205320358276e-02,4.147620126605033875e-02,4.197465255856513977e-02,1.126333177089691162e-01,-5.110543966293334961e-02,4.333516210317611694e-02,-1.089941933751106262e-01,-1.765513047575950623e-02,1.794174015522003174e-01,1.010759845376014709e-01,2.666278928518295288e-02,3.625385090708732605e-02,-9.822123683989048004e-03,1.004460901021957397e-01,-8.001662045717239380e-02,-1.522916462272405624e-02,-1.597916893661022186e-02,4.623011220246553421e-03,-1.184047907590866089e-01,3.385826945304870605e-02,-1.162179931998252869e-02,3.754880651831626892e-02,2.980626560747623444e-02,-1.277693212032318115e-01,1.652683913707733154e-01,-8.770307153463363647e-02,1.716329306364059448e-01,4.662600532174110413e-02,-7.395656406879425049e-02,1.959582976996898651e-02,-8.670917153358459473e-02,4.932895675301551819e-02,1.264005452394485474e-01,9.832764416933059692e-02,1.118237972259521484e-01,7.246360648423433304e-03,3.197520226240158081e-02,3.180415928363800049e-02,-5.991031229496002197e-02,1.019060015678405762e-01,5.639346316456794739e-02,-3.940295428037643433e-02,7.976163178682327271e-02,-6.483904272317886353e-02,1.031706258654594421e-01,-1.196399256587028503e-01,-7.833552360534667969e-02,3.202563524246215820e-02,6.367670837789773941e-03,-5.894906446337699890e-02,-1.059348955750465393e-01,1.968048512935638428e-02,4.929612576961517334e-02,5.297631770372390747e-02,-6.922816485166549683e-02,-4.778704419732093811e-02,8.936189115047454834e-02,4.852382838726043701e-02,4.797085374593734741e-02,-2.206919342279434204e-02,-1.163328345865011215e-02,5.773359443992376328e-03,4.141613468527793884e-02,9.691985696554183960e-02,1.234167907387018204e-02,-1.702707707881927490e-01,-1.079761311411857605e-01,1.382763683795928955e-01,9.318555891513824463e-02,7.914218120276927948e-03,-1.745037138462066650e-01,-1.493317782878875732e-01,1.415730267763137817e-01,1.639426499605178833e-01,-5.238648131489753723e-02,-4.045310616493225098e-02,5.091960355639457703e-02,-2.275123028084635735e-03,-5.000847950577735901e-02,-2.495301328599452972e-02,3.270163014531135559e-02,8.841872215270996094e-02,-1.095287576317787170e-01,-1.520790308713912964e-01,-9.511829703114926815e-04,4.145062062889337540e-03,4.428604990243911743e-02,-2.898134524002671242e-03,-5.820256471633911133e-02,-3.901309892535209656e-02,5.401389673352241516e-02,-6.571852415800094604e-02,-1.003350783139467239e-02,1.282911002635955811e-01,1.053358688950538635e-01,-1.352909207344055176e-01,-1.630242913961410522e-02,3.747914358973503113e-02,2.968096174299716949e-02,1.015288308262825012e-01,7.754555344581604004e-02,-2.802983671426773071e-02,1.114088818430900574e-01,6.595476716756820679e-02,4.809676483273506165e-02,2.008458785712718964e-02,7.919968664646148682e-02,-8.366115391254425049e-03,8.869510889053344727e-02,2.801554463803768158e-02,1.807734556496143341e-02,-7.315561920404434204e-02,-5.408065021038055420e-02,7.627916336059570312e-02,-4.609575122594833374e-02,-1.163994669914245605e-01,-1.146292090415954590e-01,-2.037426456809043884e-02,9.000179916620254517e-02,1.244900822639465332e-01,-2.234051935374736786e-02,-9.359437227249145508e-02,1.797098293900489807e-02,9.036244451999664307e-02,-8.445109426975250244e-02,6.309726089239120483e-02,7.178300991654396057e-03,3.693019598722457886e-02,-8.862689882516860962e-02,1.943310722708702087e-02,-2.140187472105026245e-02,-1.081323698163032532e-01,-5.115943402051925659e-02,-4.510994255542755127e-02,2.714623324573040009e-02,4.060571268200874329e-02,1.068644225597381592e-01,-8.229795098304748535e-02,-6.466933339834213257e-02,-1.126333922147750854e-01,-5.110633000731468201e-02,1.046054437756538391e-01,-1.010327320545911789e-02,-8.487630635499954224e-03,-3.059525741264224052e-03,1.517188455909490585e-02,-1.081652119755744934e-01,4.392172209918498993e-03,7.667101919651031494e-02,1.247844472527503967e-01,3.039315901696681976e-02,5.036358535289764404e-02,-2.892402932047843933e-02,7.205712795257568359e-02,-1.108382269740104675e-02,-7.812732458114624023e-02,2.849545516073703766e-02,-2.486046776175498962e-02,4.262279253453016281e-03,-8.647977374494075775e-03,1.006577629595994949e-02,-7.657723128795623779e-02,-7.552009075880050659e-02,4.807448014616966248e-02,8.561927825212478638e-02,1.481154933571815491e-02,-2.577713131904602051e-02,1.863229647278785706e-02,-7.492033392190933228e-02,1.170487925410270691e-01,2.360410429537296295e-02,-3.387058153748512268e-02,1.050272658467292786e-01,-9.793039411306381226e-02,8.302815258502960205e-02,3.737823339179158211e-03,1.973012648522853851e-02,4.121970012784004211e-02,2.271939516067504883e-01,-1.736693531274795532e-01,-2.859486341476440430e-01,-1.255225390195846558e-01,-6.019873172044754028e-02,2.147611975669860840e-02,-1.431342512369155884e-01,4.053457081317901611e-02,-1.023383513092994690e-01,-5.161820724606513977e-02,-2.246258705854415894e-01,-2.173878252506256104e-01,-1.450129747390747070e-01,-1.419479846954345703e-01,-7.203030586242675781e-02,-8.938586339354515076e-03,2.728124335408210754e-02,6.961429864168167114e-02,5.975346267223358154e-02,1.867020968347787857e-03,-8.288915269076824188e-03,-2.363757975399494171e-02,4.456540197134017944e-02,-2.008952759206295013e-02,-4.833081737160682678e-02,-1.405358407646417618e-02,1.034477576613426208e-01,-5.926513671875000000e-02,2.617531083524227142e-02,-2.845485322177410126e-02,-4.491285234689712524e-02,2.911114133894443512e-03,1.086864992976188660e-01,-1.368974000215530396e-01,1.572687551379203796e-02,4.221484437584877014e-02,-1.008089724928140640e-02,-1.121375560760498047e-01,4.385406151413917542e-02,-4.838226363062858582e-02,-1.297478843480348587e-02,-9.722661972045898438e-02,-4.650264605879783630e-02,1.221581399440765381e-01,-3.920937702059745789e-02,2.917825244367122650e-03,6.585715711116790771e-02,-1.132631972432136536e-01,-6.998171657323837280e-02,-3.526669368147850037e-02,5.746436864137649536e-02,-3.519756346940994263e-02,9.144505113363265991e-02,-6.047784909605979919e-02,-1.355559676885604858e-01,1.782269030809402466e-02,4.648295789957046509e-02,-3.256407752633094788e-02,1.303118914365768433e-01,-4.483644291758537292e-02,6.040253117680549622e-02,-7.142753154039382935e-02,3.283961117267608643e-02,-5.038576200604438782e-02,5.427704192698001862e-03,-8.924989402294158936e-02,-4.423059895634651184e-02,1.364803314208984375e-01,-9.525515139102935791e-02,-3.591372072696685791e-02,3.176472708582878113e-02,-3.156430646777153015e-02,-1.071792617440223694e-01,9.456515312194824219e-02,-5.679250136017799377e-02,-6.870065629482269287e-02,-4.963744059205055237e-02,-3.034280054271221161e-02,1.211640983819961548e-01,3.581553325057029724e-02,-6.133522465825080872e-02,-6.988574564456939697e-02,-1.709624379873275757e-02,-1.882858341559767723e-03,9.235519170761108398e-02,-2.613951452076435089e-02,-1.643038839101791382e-01,-4.892560467123985291e-02,8.359827846288681030e-02,-9.887017309665679932e-02,4.138112068176269531e-02,-3.062664344906806946e-02,-3.126127645373344421e-02,5.461878702044487000e-02,-3.252957761287689209e-02,-3.947192803025245667e-02,-2.208143100142478943e-02,9.242472052574157715e-02,-1.737839281558990479e-01,2.306188493967056274e-01,-1.486130654811859131e-01,7.967619597911834717e-02,1.452126652002334595e-01,9.886875748634338379e-03,-3.271222859621047974e-02,2.648468315601348877e-02,-6.541538238525390625e-02,-1.691670119762420654e-01,-2.463572621345520020e-01,1.744908541440963745e-01,-2.247479045763611794e-03,-5.722739920020103455e-02,-1.185156852006912231e-01,-1.863900013267993927e-02,-7.974021881818771362e-02,-2.208226593211293221e-03,8.302450180053710938e-02,-4.636553302407264709e-02,-4.216764122247695923e-02,-8.224072866141796112e-03,-7.824213057756423950e-02,1.584916189312934875e-02,2.507619559764862061e-02,2.239857800304889679e-02,2.645082212984561920e-02,-2.141284197568893433e-02,1.167863830924034119e-01,1.296088378876447678e-02,-1.814999878406524658e-01,3.319015726447105408e-02,-1.535678002983331680e-02,3.948295488953590393e-02,-2.370046265423297882e-02,-1.116113886237144470e-01,3.333100676536560059e-02,-3.798289690166711807e-03,9.256540983915328979e-02,8.966355770826339722e-02,-4.821501299738883972e-02,-6.173955742269754410e-03,-5.984197556972503662e-02,6.168085709214210510e-02,8.376127108931541443e-03,-6.133895739912986755e-02,3.351866081357002258e-02,-7.414309680461883545e-02,-4.557700082659721375e-02,-1.217781305313110352e-01,6.818768382072448730e-02,6.266270647756755352e-04,-7.611661404371261597e-02,-7.583563774824142456e-02,-4.699227958917617798e-02,4.705318808555603027e-02,5.314846057444810867e-03,-1.422090530395507812e-01,-1.161117777228355408e-01,-9.155778586864471436e-02,2.915888093411922455e-02,2.175178006291389465e-02,-7.347136270254850388e-03,6.534052640199661255e-02,-8.657866716384887695e-02,-1.991013064980506897e-02,-1.194123551249504089e-02,4.121653735637664795e-02,-7.424844056367874146e-02,2.663424797356128693e-02,8.793686330318450928e-02,-2.643151022493839264e-02,-1.225160714238882065e-02,-1.098705828189849854e-01,-1.082015782594680786e-01,2.736910805106163025e-02,-2.966196835041046143e-02,-7.994669489562511444e-03,9.822115302085876465e-03,-1.236812174320220947e-01,-6.917174905538558960e-02,2.672963961958885193e-02,-2.611534204334020615e-03,-5.982155352830886841e-02,-8.213459700345993042e-02,-1.479804422706365585e-02,6.976539641618728638e-02,-5.907927080988883972e-02,-4.567089676856994629e-02,-5.921905860304832458e-02,-1.152351126074790955e-01,5.144449323415756226e-02,7.929002493619918823e-02,8.530314080417156219e-03,-1.518954988569021225e-02,2.387333288788795471e-02,-3.248584270477294922e-02,1.240167915821075439e-01,-2.606818638741970062e-02,3.085754998028278351e-02,1.933743432164192200e-02,4.445640742778778076e-02,-1.143827140331268311e-01,4.131363332271575928e-02,4.550608806312084198e-03,-1.124975644052028656e-02,1.890640892088413239e-02,-1.046059653162956238e-02,-1.114569418132305145e-02,-7.855735719203948975e-02,-1.061667725443840027e-01,1.916230097413063049e-02,-1.258870307356119156e-02,3.712538629770278931e-02,2.814051695168018341e-02,-5.235113203525543213e-02,3.406199440360069275e-02,-1.766756363213062286e-02,-4.442804679274559021e-02,-1.237632483243942261e-01,1.161229982972145081e-01,4.862592741847038269e-02,-1.068777367472648621e-01,2.472162060439586639e-02,1.290378868579864502e-01,-6.394483894109725952e-02,-3.655867278575897217e-02,7.041926681995391846e-02,9.098059684038162231e-02,7.948359102010726929e-02,7.010817993432283401e-03,1.132619753479957581e-01,9.998011589050292969e-02,9.885124117136001587e-02,3.626906499266624451e-02,-1.333117485046386719e-01,-4.773397371172904968e-02,-3.070231713354587555e-02,-1.209642440080642700e-01,3.424770385026931763e-02,-1.050220988690853119e-02,3.508222475647926331e-02,5.669317021965980530e-02,4.756719246506690979e-02,-2.193731814622879028e-02,-2.724183164536952972e-02,3.743356466293334961e-02,-4.307921975851058960e-02,-9.870506823062896729e-03,-1.248732581734657288e-01,-1.740054110996425152e-03,2.492828480899333954e-02,1.926163956522941589e-02,-3.145524486899375916e-02,3.151423530653119087e-03,7.563193142414093018e-02,-1.369124185293912888e-02,-1.353071909397840500e-02,5.160664394497871399e-02,-2.769685722887516022e-02,-2.660018205642700195e-02,1.972466707229614258e-03,-8.447591960430145264e-02,3.408673405647277832e-02,8.239892125129699707e-02,1.088810805231332779e-02,-1.375945508480072021e-01,8.402903564274311066e-03,-2.268144488334655762e-02,5.735782440751791000e-03,-1.115142181515693665e-02,2.110489271581172943e-02,-4.948058724403381348e-02,1.559959538280963898e-02,-1.018588617444038391e-01,-8.641008287668228149e-02,-5.976418778300285339e-02,6.534664332866668701e-02,5.861238390207290649e-02,-3.707616031169891357e-02,-8.843131363391876221e-02,1.867592521011829376e-02,7.724085450172424316e-02,3.792471438646316528e-02,-5.780662968754768372e-02,5.627835169434547424e-02,-1.083942689001560211e-02,1.513753272593021393e-02,1.138999536633491516e-01,1.787704299204051495e-03,7.860913127660751343e-02,-1.886460371315479279e-02,9.159559383988380432e-03,5.164318904280662537e-02,-3.625891357660293579e-02,1.223074123263359070e-01,1.798149198293685913e-02,-8.315612375736236572e-02,-7.331390678882598877e-02,-7.412029802799224854e-02,-3.167389705777168274e-02,-3.192710131406784058e-02,3.651954978704452515e-02,-5.193357542157173157e-02,4.932081326842308044e-02,2.501794695854187012e-02,-7.166039198637008667e-02,6.731751840561628342e-03,4.324566572904586792e-02,-3.734978660941123962e-02,9.986575692892074585e-02,-6.155128590762615204e-03,7.236124575138092041e-02,-1.353704333305358887e-01,8.708824217319488525e-02,2.958670444786548615e-02,1.512882709503173828e-01,6.923276931047439575e-02,-1.605023443698883057e-02,1.758460514247417450e-02,1.297345161437988281e-01,1.923572830855846405e-02,-1.483799070119857788e-01,1.170150861144065857e-01,-1.016211509704589844e-01,2.787307836115360260e-02,3.738921880722045898e-02,4.223259165883064270e-02,-6.802408397197723389e-02,-5.713412165641784668e-02,1.230513793416321278e-03,1.102795675396919250e-01,9.082241356372833252e-02,-9.329520910978317261e-02,-4.776034504175186157e-02,2.981069125235080719e-02,3.540357202291488647e-02,4.675439372658729553e-02,-7.054895162582397461e-02,-1.140559092164039612e-01,1.445752531290054321e-01,-1.122339889407157898e-01,1.285803467035293579e-01,-3.034998662769794464e-02,-1.318855881690979004e-01,-1.710132658481597900e-01,4.150987416505813599e-02,-2.303383350372314453e-01,1.143545433878898621e-01,1.047070845961570740e-01,1.339393388479948044e-02,3.127404488623142242e-03,-4.386259708553552628e-03,2.039509359747171402e-03,5.020380485802888870e-03,8.182511478662490845e-02,2.259781397879123688e-02,-9.263040125370025635e-02,6.359051913022994995e-02,-2.088688686490058899e-02,2.449935767799615860e-03,2.604860626161098480e-02,9.143707156181335449e-02,-1.646261289715766907e-02,1.007128786295652390e-02,-1.194144338369369507e-01,-1.132203117012977600e-01,-2.162593044340610504e-02,-5.447863601148128510e-03,-3.420727699995040894e-02,-1.156498938798904419e-01,6.621474027633666992e-02,-3.111984208226203918e-02,4.106172826141119003e-03,-2.317564561963081360e-02,7.690358161926269531e-02,4.725077375769615173e-02,2.297870960319414735e-04,7.034508883953094482e-02,-5.276233330368995667e-02,8.988706395030021667e-03,8.932332694530487061e-02,-5.719995126128196716e-02,-2.461264654994010925e-02,4.672481864690780640e-02,-1.127567607909440994e-02,2.640153095126152039e-02,-1.458923518657684326e-02,-4.855271056294441223e-02,1.535671181045472622e-03,-1.041804789565503597e-03,1.084187552332878113e-01,-1.964020915329456329e-02,-2.753451466560363770e-03,1.300070201978087425e-03,-6.064274534583091736e-02,-1.145248860120773315e-02,8.754694834351539612e-03,-6.616370379924774170e-02,-2.280920185148715973e-02,-4.856303334236145020e-02,-1.959680579602718353e-02,4.596385359764099121e-02,-3.462009131908416748e-02,6.664023548364639282e-02,-9.278547018766403198e-03,2.244255319237709045e-02,4.594683274626731873e-02,2.732351236045360565e-02,-2.289334684610366821e-02,7.408846169710159302e-03,5.309199448674917221e-03,-1.163117680698633194e-02,7.207312434911727905e-02,5.799877643585205078e-02,5.749200470745563507e-03,4.499246180057525635e-02,4.773696139454841614e-02,6.349345296621322632e-02,-4.439674690365791321e-02,-1.988453716039657593e-01,2.827958576381206512e-02,2.380350232124328613e-02,-1.838355697691440582e-02,1.344324499368667603e-01,-4.082950949668884277e-02,-8.292885869741439819e-02,2.286074124276638031e-02,-9.531830251216888428e-02,-3.674578666687011719e-02,-1.762149333953857422e-01,4.177528992295265198e-02,-2.523952722549438477e-02,9.810081869363784790e-02,7.542904466390609741e-02,9.063080698251724243e-02,7.521605491638183594e-02,1.079543977975845337e-01,-1.830257847905158997e-02,8.491955697536468506e-02,9.050251543521881104e-02,3.613994270563125610e-02,-2.818893082439899445e-02,4.175494983792304993e-02,2.626379765570163727e-02,6.752535700798034668e-02,-1.399971195496618748e-03,6.299785524606704712e-02,-6.513992697000503540e-02,-4.759873077273368835e-02,-4.034576006233692169e-03,1.858027651906013489e-02,-2.523363567888736725e-02,-3.025133162736892700e-02,-7.276636362075805664e-02,-1.549588516354560852e-02,-6.666766852140426636e-02,-2.228076756000518799e-02,-1.008244697004556656e-02,-7.159247249364852905e-02,1.981298439204692841e-02,-1.216501276940107346e-02,2.039324492216110229e-02,-2.039496414363384247e-02,9.608886204659938812e-03,8.105695247650146484e-03,-5.612345412373542786e-02,-5.896431952714920044e-02,-6.632602959871292114e-02,-9.798064827919006348e-02,4.128916561603546143e-02,4.987290501594543457e-02,3.026924654841423035e-02,-3.974056988954544067e-02,-1.541568152606487274e-02,-5.294734612107276917e-02,-8.650248497724533081e-02,4.175487533211708069e-02,8.687993884086608887e-02,-6.638156622648239136e-02,-1.707002893090248108e-02,-9.644621051847934723e-03,-3.039472922682762146e-02,-2.965860627591609955e-02,-4.225005861371755600e-03,2.299837209284305573e-02,1.924909651279449463e-02,8.280378580093383789e-02,-2.281814068555831909e-02,4.076412413269281387e-03,3.147073835134506226e-02,-1.324048545211553574e-02,-3.444397449493408203e-02,2.534191822633147240e-03,2.462020888924598694e-02,-1.348849851638078690e-02,1.711575873196125031e-02,7.190182060003280640e-02,-5.140879750251770020e-02,1.390880998224020004e-02,-4.102567583322525024e-02,9.513221681118011475e-03,-3.652965277433395386e-02,1.146326437592506409e-01,3.331559710204601288e-03,3.874428570270538330e-02,2.490109205245971680e-02,-1.034978963434696198e-02,-1.425075437873601913e-02,3.741022199392318726e-02,-6.049773469567298889e-02,1.150969490408897400e-01,-2.512009739875793457e-01,3.064031898975372314e-02,2.178828604519367218e-02,-7.365614920854568481e-02,-2.487991238012909889e-03,7.451815158128738403e-02,3.705883771181106567e-02,-9.200118482112884521e-02,-9.556045383214950562e-02,2.215240709483623505e-02,1.007588282227516174e-01,4.630606621503829956e-02,-4.171924665570259094e-02,-1.178598962724208832e-02,5.961865559220314026e-02,-1.858333125710487366e-03,4.285629093647003174e-02,1.441318076103925705e-02,6.471200287342071533e-02,-5.899926275014877319e-02,4.956502839922904968e-02,3.168338164687156677e-02,4.827526584267616272e-02,8.030529320240020752e-02,6.908857822418212891e-02,-2.248823828995227814e-02,2.988721430301666260e-02,-6.949914246797561646e-02,-1.033639907836914062e-02,-2.001345343887805939e-02,5.187849327921867371e-02,-9.070564061403274536e-02,1.181657542474567890e-03,-1.864248365163803101e-01,-9.874372929334640503e-02,2.980274707078933716e-02,5.075829685665667057e-04,-6.021087989211082458e-02,-1.399746444076299667e-02,-4.181653261184692383e-02,1.103693898767232895e-02,3.302136063575744629e-02,-1.611386984586715698e-01,-9.058924019336700439e-02,1.283573359251022339e-01,-4.972979798913002014e-02,1.568153873085975647e-02,-1.024566069245338440e-01,1.995763368904590607e-02,-3.745559975504875183e-02,-8.856602758169174194e-02,-4.167609289288520813e-02,-3.569999942556023598e-03,-9.058905392885208130e-02,7.899323850870132446e-02,-9.813377261161804199e-02,-1.044319868087768555e-01,-5.281166732311248779e-02,4.411969706416130066e-02,6.656459718942642212e-02,5.724667757749557495e-02,2.363294735550880432e-02,3.007423691451549530e-02,-3.827752172946929932e-02,5.173202604055404663e-02,1.868771016597747803e-01,1.519276648759841919e-01,-4.074467346072196960e-02,5.574184656143188477e-02,3.162427619099617004e-02,-8.745284378528594971e-02,-8.741629868745803833e-02,6.781611591577529907e-02,-9.382009506225585938e-02,-1.186976432800292969e-01,7.742057740688323975e-02,1.514768898487091064e-01,4.353153333067893982e-02,2.257764339447021484e-01,-2.347639529034495354e-03,-8.441019803285598755e-02,-4.253219440579414368e-02,-7.050582021474838257e-02,-1.117989048361778259e-01,-5.933575704693794250e-02,1.202479526400566101e-01,-1.289789564907550812e-02,-5.721294879913330078e-02,3.902874514460563660e-02,-8.444183506071567535e-03,-8.003398776054382324e-02,7.328796386718750000e-02,-1.933889277279376984e-02,1.370815187692642212e-01,1.176666617393493652e-01,1.012760028243064880e-01,3.869937732815742493e-02,8.079044520854949951e-03,-1.578618288040161133e-01,1.138767153024673462e-01,1.206284537911415100e-01,7.281082123517990112e-02,-1.240383163094520569e-01,2.241447567939758301e-02,1.031672060489654541e-01,2.408202178776264191e-02,9.873433038592338562e-03,8.545014262199401855e-02,3.927009552717208862e-02,1.265715509653091431e-01,9.597697854042053223e-02,-2.524480223655700684e-02,-7.931648939847946167e-02,1.352751106023788452e-01,8.460479229688644409e-02,-1.963507831096649170e-01,1.054199039936065674e-01,-3.839901089668273926e-02,7.310812920331954956e-02,-4.333120584487915039e-02,-4.277014359831809998e-02,-8.998493105173110962e-02,2.240790240466594696e-02,-1.236783936619758606e-01,4.016568139195442200e-02,1.720584481954574585e-01,1.290044635534286499e-01,-9.127985686063766479e-03,2.084019035100936890e-02,1.719836518168449402e-02,-2.042764239013195038e-02,-7.943008840084075928e-02,-3.674182668328285217e-02,1.882154941558837891e-01,6.033199280500411987e-02,-2.975954115390777588e-02,-6.262764800339937210e-03,7.186961174011230469e-02,-1.229652464389801025e-01,-1.261381432414054871e-02,-1.350798737257719040e-02,1.030239835381507874e-01,8.282175660133361816e-02,8.487705886363983154e-02,-3.029308095574378967e-02,-7.721909135580062866e-02,-3.530450165271759033e-02,5.365126952528953552e-02,-7.880086451768875122e-02,1.070602983236312866e-01,-5.230587348341941833e-02,4.367500171065330505e-02,-2.047064341604709625e-02,5.574902147054672241e-02,5.821748450398445129e-02,-1.099115759134292603e-01,2.635189890861511230e-02,-9.813602082431316376e-03,-2.615233696997165680e-02,5.597281828522682190e-02,-2.922944957390427589e-03,8.001926541328430176e-02,-7.160861510783433914e-03,3.132325038313865662e-02,3.312928602099418640e-02,-5.089554935693740845e-02,1.130772382020950317e-02,-2.358708716928958893e-02,-9.055525995790958405e-03,-3.802080824971199036e-02,1.007282873615622520e-03,5.655319243669509888e-02,2.052657678723335266e-02,-7.688739337027072906e-03,4.885052144527435303e-02,-3.804469481110572815e-02,-6.698561459779739380e-02,-3.413368389010429382e-02,-1.398475915193557739e-01,-7.352670188993215561e-03,-2.573866955935955048e-02,-2.209929050877690315e-03,-1.778834313154220581e-01,4.330034554004669189e-02,-4.494781419634819031e-02,7.344831526279449463e-02,-3.836981952190399170e-02,-6.612204015254974365e-02,-5.886923521757125854e-02,-1.785038737580180168e-03,-1.108984183520078659e-02,-1.586029119789600372e-02,-9.221029281616210938e-02,1.195668056607246399e-02,-1.320271519944071770e-03,-4.060360416769981384e-02,-3.047045692801475525e-02,5.249375477433204651e-02,4.249219223856925964e-02,3.831883892416954041e-02,-4.674797132611274719e-02,1.072412729263305664e-02,3.544996026903390884e-03,-8.736567199230194092e-02,8.840251713991165161e-02,-1.219005696475505829e-02,3.292825445532798767e-02,1.201005093753337860e-02,-4.563586320728063583e-03,5.042008310556411743e-02,7.395996712148189545e-03,-1.870572008192539215e-02,1.107940915971994400e-03,3.230388090014457703e-02,-3.692347183823585510e-02,-5.748448427766561508e-03,2.263230830430984497e-02,-8.927880972623825073e-02,-1.415463536977767944e-02,5.817879363894462585e-02,-9.330110251903533936e-02,7.244947482831776142e-04,-4.110717214643955231e-03,-5.562588945031166077e-02,-2.273559384047985077e-02,-1.079285219311714172e-01,-1.062493920326232910e-01,-4.407706670463085175e-03,5.562484636902809143e-02,6.368241459131240845e-02,-2.691295556724071503e-02,3.394024446606636047e-02,-5.688560381531715393e-02,1.014223173260688782e-01,7.979344576597213745e-02,-1.023480966687202454e-01,1.148811653256416321e-01,-3.111052885651588440e-02,-3.389140218496322632e-02,-4.032053053379058838e-02,9.547324478626251221e-02,1.033523678779602051e-01,1.562620140612125397e-02,3.349932283163070679e-02,4.937276616692543030e-02,1.953508472070097923e-03,-1.111506074666976929e-01,8.407949656248092651e-02,5.127044394612312317e-02,-6.061840802431106567e-02,7.987353950738906860e-02,2.665001526474952698e-02,-5.179249867796897888e-02,1.063548377715051174e-03,-7.430175691843032837e-02,1.118267793208360672e-02,-3.842091560363769531e-02,1.289908308535814285e-02,-3.660171851515769958e-02,-1.079799327999353409e-02,2.070115320384502411e-02,-1.568396091461181641e-01,5.192700028419494629e-02,-6.793436408042907715e-02,-4.804541543126106262e-02,-2.808166434988379478e-03,1.274856738746166229e-02,-3.614350035786628723e-02,1.239877007901668549e-02,4.399314150214195251e-02,1.104156449437141418e-01,-6.693335622549057007e-02,-6.882884353399276733e-02,3.387732058763504028e-02,2.015472948551177979e-02,3.769749402999877930e-02,5.182773619890213013e-02,-1.883090846240520477e-02,2.827816084027290344e-02,-2.070554532110691071e-02,-1.305816788226366043e-02,-1.916795037686824799e-02,-3.894421271979808807e-03,-6.551569700241088867e-02,-1.233777124434709549e-02,-4.449876770377159119e-02,1.324636861681938171e-02,-1.129793375730514526e-02,-5.304570123553276062e-02,-5.561558902263641357e-02,-1.531317550688982010e-02,-1.314039900898933411e-02,2.338311076164245605e-02,8.127772249281406403e-03,-9.600608609616756439e-03,5.495957657694816589e-02,-4.630799591541290283e-02,-3.859647084027528763e-03,6.517107039690017700e-02,-5.032021179795265198e-02,9.760435670614242554e-02,-4.974396526813507080e-02,-2.868357300758361816e-02,-3.749319538474082947e-02,8.651502430438995361e-02,-4.129894450306892395e-02,2.442832291126251221e-02,-6.295939534902572632e-02,-1.265513300895690918e-01,-4.433425143361091614e-02,1.176794618368148804e-01,-1.360898092389106750e-02,-4.191255720797926188e-05,-2.757784165441989899e-02,-4.067309573292732239e-02,-4.054445307701826096e-03,-5.205957964062690735e-02,5.780845880508422852e-02,4.896939545869827271e-02,-4.274033010005950928e-02,2.286884002387523651e-02,2.339847572147846222e-02,2.311545796692371368e-02,-6.207992136478424072e-02,-5.529780313372612000e-02,7.568685710430145264e-02,7.967597804963588715e-03,-4.763865470886230469e-02,-1.198032572865486145e-01,-4.659719765186309814e-03,1.624514535069465637e-02,9.445847570896148682e-02,-3.572501242160797119e-02,4.182247817516326904e-02,2.923754043877124786e-02,1.536928117275238037e-01,-2.209501340985298157e-02,6.973995268344879150e-02,-5.154039710760116577e-02,5.698549747467041016e-02,-1.811327785253524780e-02,4.480930045247077942e-03,-6.011975556612014771e-02,-1.948206685483455658e-02,-1.632159650325775146e-01,2.585289068520069122e-02,7.604402303695678711e-02,8.817143738269805908e-02,2.949019521474838257e-02,-4.860170185565948486e-02,4.403327777981758118e-02,-4.816110804677009583e-02,-9.219819307327270508e-02,-4.252513125538825989e-02,1.182712800800800323e-02,9.777531772851943970e-02,7.938941940665245056e-03,7.616005092859268188e-02,-1.932998374104499817e-02,3.892153874039649963e-02,2.425056695938110352e-02,2.437930554151535034e-02,-1.603317447006702423e-02,-4.016217589378356934e-02,1.987229473888874054e-02,4.057525470852851868e-02,-6.024143472313880920e-02,-2.617712318897247314e-02,7.260329276323318481e-02,2.974675782024860382e-02,6.861925125122070312e-02,4.644252732396125793e-02,3.440896421670913696e-02,3.667092695832252502e-02,-3.684968873858451843e-02,-1.720125041902065277e-02,4.982253909111022949e-02,-1.389145478606224060e-02,1.956007257103919983e-02,5.573491007089614868e-02,-1.242813393473625183e-01,-4.957173764705657959e-02,-5.643789842724800110e-02,-3.070731088519096375e-02,3.601102903485298157e-02,-1.196289993822574615e-02,1.740099303424358368e-02,-7.434648275375366211e-02,3.145702183246612549e-02,3.954957425594329834e-02,-8.197691291570663452e-02,1.715523935854434967e-02,2.826774679124355316e-02,-2.309299260377883911e-02,-1.239431053400039673e-01,6.606033444404602051e-02,3.813910530880093575e-03,1.795467105694115162e-03,9.586172550916671753e-02,-2.454493194818496704e-02,-1.958354003727436066e-02,4.719034582376480103e-02,-2.624176442623138428e-02,-8.257517218589782715e-02,-8.649826049804687500e-02,5.888810381293296814e-02,-3.318157419562339783e-02,-1.120309606194496155e-01,-7.976531237363815308e-02,1.812992244958877563e-02,8.570864796638488770e-02,-5.465294793248176575e-02,-7.965933531522750854e-02,2.004984579980373383e-02,1.388085074722766876e-03,3.420795500278472900e-02,9.871121495962142944e-02,1.989889703691005707e-02,-3.507184609770774841e-02,-3.699545562267303467e-02,2.146850712597370148e-02,4.279159475117921829e-03,2.725997567176818848e-02,5.289370939135551453e-02,-1.817768905311822891e-03,-8.005481213331222534e-02,-6.789401918649673462e-02,2.002483606338500977e-02,-3.061739169061183929e-02,4.280108213424682617e-02,5.661409720778465271e-02,3.266730904579162598e-02,-7.241380214691162109e-02,-5.954740941524505615e-02,2.428328990936279297e-02,2.288307994604110718e-02,5.136387422680854797e-02,-3.561099246144294739e-02,-1.003928929567337036e-01,6.137160584330558777e-02,-2.100474387407302856e-02,-4.133078083395957947e-02,-5.916824191808700562e-02,-1.400321163237094879e-02,-1.306475792080163956e-02,-4.593228921294212341e-02,-2.869893424212932587e-02,-1.264523267745971680e-01,-6.864701956510543823e-02,3.656226675957441330e-03,-5.567881464958190918e-02,9.877369552850723267e-02,4.603926837444305420e-02,1.108801458030939102e-02,3.827804699540138245e-02,-1.084642112255096436e-02,-1.710117980837821960e-02,-5.700477957725524902e-02,-3.238077973946928978e-03,5.395258590579032898e-02,1.332133710384368896e-01,-2.107384800910949707e-02,7.871269434690475464e-02,-2.868943661451339722e-02,1.495529245585203171e-02,1.646142266690731049e-02,4.582720249891281128e-02,6.572968512773513794e-02,-1.993777975440025330e-02,-2.670120820403099060e-02,4.021282866597175598e-02,8.181557990610599518e-03,1.084611285477876663e-03,2.237121947109699249e-02,3.530946001410484314e-02,-4.161081742495298386e-03,3.400737047195434570e-02,-2.395004965364933014e-02,3.348255529999732971e-02,-1.480987179093062878e-03,-7.582259178161621094e-02,1.014103181660175323e-02,1.334668844938278198e-01,3.303645551204681396e-02,-4.565860331058502197e-02,5.346404388546943665e-02,9.138503670692443848e-02,2.741206437349319458e-02,4.155572876334190369e-02,9.148664772510528564e-02,4.985307157039642334e-02,5.429544299840927124e-02,-3.824092075228691101e-02,-9.369214065372943878e-03,2.656268328428268433e-02,1.212068274617195129e-01,9.781033731997013092e-03,1.567841507494449615e-02,7.325065881013870239e-02,6.757262349128723145e-02,2.357133477926254272e-02,3.844891116023063660e-02,4.258443787693977356e-02,-1.109241414815187454e-02,-6.620981544256210327e-02,1.053285300731658936e-01,2.959998790174722672e-03,-1.016671885736286640e-03,-3.108089976012706757e-02,-9.765994735062122345e-03,8.014558814465999603e-03,-1.934945955872535706e-02,-9.340663254261016846e-02,4.651119187474250793e-02,2.605303563177585602e-02,2.019195258617401123e-02,5.481493845582008362e-02,-1.163297425955533981e-02,1.898363791406154633e-02,8.265978842973709106e-02,2.615047805011272430e-02,-2.846657857298851013e-02,8.640344440937042236e-02,4.536072537302970886e-02,6.077440828084945679e-02,3.003735281527042389e-02,-1.576237380504608154e-02,4.017633572220802307e-02,-5.057814065366983414e-03,3.706618770956993103e-02,4.169225320219993591e-02,-4.907980188727378845e-02,-4.711511731147766113e-02,-5.736204609274864197e-02,-4.690196365118026733e-02,3.412217646837234497e-02,-7.317356765270233154e-02,-1.956709660589694977e-02,-1.634170673787593842e-02,3.041954524815082550e-02,-6.424735486507415771e-02,-1.035316661000251770e-01,-8.407946676015853882e-03,-3.329004347324371338e-02,-5.261117592453956604e-02,1.837965287268161774e-02,-1.479176711291074753e-02,-8.274852484464645386e-02,7.649757713079452515e-02,-3.354253992438316345e-02,-4.461584612727165222e-02,5.774424597620964050e-02,3.237672522664070129e-02,2.974983304738998413e-02,-3.466713055968284607e-02,-5.566306784749031067e-02,2.927021495997905731e-02,-7.016154378652572632e-02,4.782894253730773926e-02,-1.531436145305633545e-01,-4.895167425274848938e-02,4.863356426358222961e-02,-2.378568518906831741e-03,9.289401769638061523e-02,-4.379723593592643738e-02,8.700770139694213867e-02,6.833202391862869263e-02,1.147681623697280884e-01,3.922823444008827209e-02,-3.715903684496879578e-02,5.625719577074050903e-02,1.073673926293849945e-02,1.774021238088607788e-02,1.069432962685823441e-02,-6.735819578170776367e-02,7.524728775024414062e-02,9.520330280065536499e-02,2.407352626323699951e-02,1.494927611202001572e-02,-6.575835496187210083e-02,1.978744566440582275e-02,3.213315084576606750e-02,-1.409814506769180298e-02,2.418277785181999207e-02,2.573987096548080444e-02,1.681911945343017578e-02,-3.747327718883752823e-03,8.532997220754623413e-02,-1.292511075735092163e-02,4.098263755440711975e-02,6.534958630800247192e-02,-2.651355415582656860e-02,1.639092341065406799e-02,2.839024551212787628e-02,4.356698319315910339e-02,-6.565286964178085327e-02,1.939933747053146362e-02,-5.780211649835109711e-03,-1.998074119910597801e-03,-7.218236569315195084e-03,3.551209717988967896e-02,-4.526685550808906555e-02,-4.468906298279762268e-02,3.121853061020374298e-02,-3.074755705893039703e-02,-4.309242218732833862e-02,3.416533395648002625e-02,2.373879402875900269e-02,3.220436349511146545e-02,-5.882683396339416504e-02,-1.518952567130327225e-02,3.237507864832878113e-02,2.506660483777523041e-02,6.437101215124130249e-02,-3.257327526807785034e-02,1.961544528603553772e-02,-1.432452816516160965e-02,6.941225379705429077e-02,2.033208124339580536e-02,-4.701351746916770935e-02,-2.455481700599193573e-02,-8.267697691917419434e-02,-2.978693693876266479e-03,-1.391062885522842407e-02,-1.080706417560577393e-01,2.142206067219376564e-03,6.433805078268051147e-02,3.287689760327339172e-02,4.575971513986587524e-02,-2.214607410132884979e-02,-6.620972603559494019e-02,1.025700792670249939e-01,-7.480956148356199265e-03,4.083280637860298157e-02,4.203477501869201660e-02,-2.637820318341255188e-02,1.647264137864112854e-02,-2.748466096818447113e-02,9.308142587542533875e-03,5.304250866174697876e-02,2.146988920867443085e-02,-5.960139632225036621e-02,8.616132289171218872e-02,1.975054107606410980e-02,1.328354422003030777e-02,3.735044971108436584e-02,1.931792823597788811e-03,-6.311916559934616089e-02,-2.437813952565193176e-02,6.506052333861589432e-03,-3.895319998264312744e-02,3.374275192618370056e-02,-5.156911909580230713e-02,-6.249786540865898132e-02,7.204765081405639648e-02,3.478274494409561157e-02,8.613251149654388428e-03,-1.013358086347579956e-01,-1.484059263020753860e-02,-6.999436020851135254e-02,-1.084773149341344833e-02,-1.202753931283950806e-01,5.150769837200641632e-03,3.192723169922828674e-02,1.601861044764518738e-02,-9.939860552549362183e-02,-7.534584403038024902e-02,-4.077556729316711426e-02,2.967600151896476746e-02,8.727103471755981445e-03,-3.729898110032081604e-02,-6.672053784132003784e-02,-5.014044046401977539e-02,5.810035392642021179e-02,9.178456850349903107e-03,5.651322193443775177e-03,-6.920890882611274719e-03,-3.897545114159584045e-02,2.026005089282989502e-02,-2.141776122152805328e-02,2.940264530479907990e-02,3.902496770024299622e-03,-7.117738481611013412e-03,7.989896833896636963e-02,-1.980208046734333038e-02,1.601101830601692200e-02,1.674159988760948181e-02,-3.664799779653549194e-02,3.079797327518463135e-02,-8.472780138254165649e-02,2.191856689751148224e-02,1.877604052424430847e-02,-5.031525716185569763e-02,3.142045438289642334e-02,3.579489141702651978e-02,3.839066624641418457e-02,1.294090878218412399e-02,6.500213593244552612e-02,-5.389694124460220337e-02,3.164215758442878723e-02,5.654519423842430115e-02,-4.825932160019874573e-02,-3.007470816373825073e-02,-1.750472374260425568e-02,-4.800489172339439392e-02,1.560768298804759979e-02,-7.437929511070251465e-02,-1.034463718533515930e-01,-5.083983018994331360e-02,-4.015666991472244263e-02,8.682993799448013306e-02,4.740914702415466309e-02,-3.251643478870391846e-02,-6.583432108163833618e-02,-6.185862049460411072e-02,2.604053169488906860e-02,-3.771962597966194153e-02,4.174270108342170715e-02,9.162399917840957642e-02,2.751742489635944366e-02,-8.648439496755599976e-02,6.422962248325347900e-02,6.164062395691871643e-02,3.960134461522102356e-02,4.939596727490425110e-02,-1.882550120353698730e-02,-5.534527078270912170e-02,5.262874811887741089e-02,1.225296854972839355e-01,1.458998210728168488e-02,1.896820589900016785e-02,-3.916811197996139526e-02,1.114408485591411591e-02,1.525262743234634399e-02,-7.796675711870193481e-02,7.694307714700698853e-04,-1.079967152327299118e-02,-4.463644698262214661e-02,-1.152671799063682556e-01,-3.512510284781455994e-02,-3.558539971709251404e-02,2.640108868945389986e-04,-5.494793504476547241e-02,-8.040947467088699341e-02,-7.269209250807762146e-03,5.343816056847572327e-02,-1.836490631103515625e-02,3.794173523783683777e-02,-1.398047059774398804e-01,3.294449299573898315e-02,-1.036542188376188278e-02,-4.340318590402603149e-02,4.616376757621765137e-02,4.410467669367790222e-02,4.013180732727050781e-02,-6.338941864669322968e-03,-7.830446586012840271e-03,-4.596373438835144043e-02,-5.184430256485939026e-02,3.065983951091766357e-02,2.118667028844356537e-02,8.442892134189605713e-02,1.541405636817216873e-02,-4.460741579532623291e-02,-2.269680146127939224e-03,1.889166608452796936e-02,4.244026169180870056e-02,-9.784327447414398193e-02,-3.888418897986412048e-02,1.491264067590236664e-02,-1.674773171544075012e-02,-3.930241614580154419e-02,8.345868438482284546e-03,4.884216189384460449e-02,3.058181889355182648e-02,1.347945351153612137e-02,5.293953046202659607e-02,-2.638008818030357361e-02,5.129474401473999023e-02,-1.107315625995397568e-02,-5.507202818989753723e-03,1.801902661100029945e-03,-6.554495193995535374e-04,-1.890428178012371063e-02,9.650456160306930542e-02,-1.512011047452688217e-02,-7.318794727325439453e-02,9.059381484985351562e-02,4.968790709972381592e-02,6.138176470994949341e-02,-2.555600181221961975e-02,2.360718324780464172e-02,2.061512693762779236e-02,-3.227119892835617065e-02,-1.328026968985795975e-02,1.390371657907962799e-02,1.722550392150878906e-02,-3.633624687790870667e-02,2.947039343416690826e-02,-3.176522150170058012e-04,-6.443648785352706909e-02,-1.114365737885236740e-02,-1.766321435570716858e-02,1.199631579220294952e-02,-4.155238717794418335e-02,3.279162198305130005e-02,6.929805129766464233e-02,5.539655312895774841e-02,1.141541358083486557e-02,3.759726881980895996e-03,9.583664685487747192e-02,-7.606276194564998150e-04,-2.234959788620471954e-02,1.659139059484004974e-02,3.779365867376327515e-02,-6.644331663846969604e-02,8.348470926284790039e-02,-5.190299451351165771e-02,3.212713077664375305e-02,-1.255462318658828735e-02,4.112935438752174377e-02,-9.170016646385192871e-02,-3.509157896041870117e-02,-3.699313104152679443e-02,3.974404186010360718e-03,-1.881419308483600616e-02,-3.912697732448577881e-02,-2.412681281566619873e-02,-2.761086635291576385e-02,-3.159276396036148071e-02,-5.830823443830013275e-03,-2.854017168283462524e-02,9.648279845714569092e-02,-5.076602101325988770e-03,2.962457574903964996e-02,4.404527135193347931e-03,3.135304199531674385e-03,4.029941186308860779e-02,-5.020932853221893311e-02,-3.012749832123517990e-03,-5.487159267067909241e-02,5.139862373471260071e-02,-1.765272952616214752e-02,6.787103414535522461e-02,-7.177879661321640015e-02,-3.011569380760192871e-02,-1.589992083609104156e-02,-2.360088005661964417e-02,4.026902467012405396e-02,-8.503532409667968750e-02,-8.568863570690155029e-02,-9.491350501775741577e-02,-5.817531421780586243e-02,-2.376166358590126038e-02,-2.941670455038547516e-02,-1.195232123136520386e-01,-1.417926102876663208e-01,-7.665884215384721756e-03,-2.632988989353179932e-02,1.032022386789321899e-02,5.667107179760932922e-02,-5.965139716863632202e-02,-8.331112563610076904e-03,1.865331456065177917e-02,-3.422356024384498596e-02,3.570636734366416931e-02,-2.843843773007392883e-02,-5.535354837775230408e-02,1.213703770190477371e-02,2.138007618486881256e-02,-4.687695950269699097e-02,-1.962529867887496948e-02,-7.627487182617187500e-02,9.014951996505260468e-03,-1.331004686653614044e-02,1.101238746196031570e-02,-3.518507629632949829e-02,-6.663283705711364746e-02,3.911655023694038391e-02,-1.459323614835739136e-01,6.519770622253417969e-02,1.846691779792308807e-02,1.078579872846603394e-01,5.896625295281410217e-02,-1.844207197427749634e-02,-4.432732611894607544e-02,-5.014026910066604614e-02,5.500372126698493958e-02,2.688442124053835869e-03,1.550993695855140686e-02,-8.666341193020343781e-03,1.044166162610054016e-01,5.859092250466346741e-02,-1.459825597703456879e-02,3.988360986113548279e-02,-1.849033311009407043e-02,-6.402056198567152023e-03,5.966053530573844910e-02,1.015755906701087952e-02,-7.757709175348281860e-02,-3.316824883222579956e-02,-1.146586611866950989e-02,4.182942584156990051e-02,-3.247581422328948975e-02,-8.149415254592895508e-03,-8.173057809472084045e-03,-1.719734258949756622e-02,6.249881535768508911e-02,-3.591130301356315613e-02,-2.302988246083259583e-02,-9.571094997227191925e-04,-2.248914213851094246e-03,9.004894644021987915e-02,-1.792445033788681030e-02,5.634988471865653992e-02,-5.625101923942565918e-02,-2.388703264296054840e-02,5.716292932629585266e-02,5.936272442340850830e-03,-6.459535658359527588e-02,-8.028709888458251953e-02,-1.321747992187738419e-02,-8.583028684370219707e-04,4.076005518436431885e-02,-2.539676241576671600e-02,-1.305596716701984406e-02,7.095438241958618164e-02,6.319452822208404541e-02,2.860295213758945465e-02,2.366646006703376770e-02,3.233416005969047546e-02,-3.884679405018687248e-03,-1.260095392353832722e-03,-1.563170850276947021e-01,-1.031309589743614197e-01,2.732713334262371063e-02,-6.921743601560592651e-02,-3.561028465628623962e-02,-1.459569856524467468e-02,-6.831945502199232578e-04,-3.799340873956680298e-02,-8.769991248846054077e-02,-7.865795493125915527e-02,-3.333657979965209961e-02,-4.994542151689529419e-02,5.188602209091186523e-02,1.305461954325437546e-02,6.250601261854171753e-02,-3.671549784485250711e-04,1.165161002427339554e-02,-3.199477121233940125e-02,-1.713407784700393677e-02,-2.085032127797603607e-02,-2.372586727142333984e-02,1.992854056879878044e-03,1.498420163989067078e-02,3.315113112330436707e-02,-8.777786791324615479e-02,-4.839958995580673218e-02,1.036602780222892761e-01,5.068734288215637207e-02,7.278337329626083374e-02,-4.560158029198646545e-02,9.033687412738800049e-02,2.513139974325895309e-03,2.863258495926856995e-02,-5.672395601868629456e-02,1.362496428191661835e-02,9.171880036592483521e-02,-6.966734305024147034e-03,8.333595842123031616e-02,4.057201743125915527e-02,2.145633660256862640e-02,2.202647179365158081e-02,-4.555811360478401184e-02,4.963048547506332397e-02,-2.449783030897378922e-03,3.107583150267601013e-02,2.719730511307716370e-02,-1.343691255897283554e-02,-2.792341262102127075e-02,2.038005553185939789e-02,1.650741510093212128e-02,-3.214323893189430237e-02,1.199379563331604004e-02,2.940941229462623596e-02,3.000367665663361549e-03,3.512881696224212646e-02,8.336883038282394409e-02,-2.962089516222476959e-02,4.423350095748901367e-02,2.133066765964031219e-02,-4.651455208659172058e-02,3.610939532518386841e-02,-1.722982712090015411e-02,-4.348820075392723083e-02,-4.991347715258598328e-02,-7.033607363700866699e-02,4.197154194116592407e-03,2.516096457839012146e-02,-1.645762100815773010e-02,-7.551106810569763184e-02,3.431650111451745033e-03,-2.028277702629566193e-02,-6.088864430785179138e-02,2.102203667163848877e-02,6.362664699554443359e-02,-6.394627690315246582e-02,4.730781167745590210e-02,2.127599157392978668e-02,2.335384953767061234e-03,-3.699584305286407471e-02,5.506986752152442932e-03,-2.371522225439548492e-02,2.693617716431617737e-02,3.741101920604705811e-02,-6.613183021545410156e-02,-1.261767297983169556e-01,1.395585201680660248e-02,-3.948004171252250671e-02,-4.438533447682857513e-03,2.484104596078395844e-02,-1.832257770001888275e-02,-5.317860841751098633e-02,2.473155781626701355e-02,1.060514245182275772e-02,-3.852745145559310913e-02,-8.025755174458026886e-03,-5.449678376317024231e-02,-2.075665164738893509e-03,-1.978050917387008667e-02,2.220607921481132507e-02,-2.642705477774143219e-02,-1.635231077671051025e-02,2.859955281019210815e-02,-5.341290496289730072e-03,6.363311409950256348e-02,2.853351831436157227e-02,1.384994387626647949e-02,7.073572278022766113e-02,-5.186024308204650879e-02,-4.674839228391647339e-02,1.605867035686969757e-02,7.093165814876556396e-02,-3.554078191518783569e-02,-3.155022114515304565e-02,6.833811756223440170e-03,4.062836617231369019e-02,9.161157067865133286e-04,-2.705044811591506004e-03,-2.287678048014640808e-02,4.043156281113624573e-03,-2.320987841812893748e-04,5.051916465163230896e-03,-4.465380683541297913e-02,-6.206674501299858093e-02,-1.232137344777584076e-02,1.472473423928022385e-02,-3.553720191121101379e-02,-3.709315508604049683e-02,8.399865031242370605e-02,-8.730378001928329468e-02,1.983481831848621368e-02,-7.648422569036483765e-02,3.380468860268592834e-02,-2.859978005290031433e-02,-1.770119927823543549e-02,-5.397390946745872498e-02,1.077292673289775848e-02,-2.502922527492046356e-02,-5.313709378242492676e-03,-3.932926431298255920e-02,-3.125003725290298462e-02,-4.003023356199264526e-02,7.896361872553825378e-03,-3.600080311298370361e-02,-2.254671603441238403e-02,3.817871958017349243e-02,-2.345832251012325287e-02,1.085331942886114120e-02,-8.662778884172439575e-03,-7.472646236419677734e-02,-1.041706930845975876e-02,2.857406809926033020e-02,-2.775780856609344482e-02,-8.762071281671524048e-02,-8.980446495115756989e-03,5.765580758452415466e-02,1.237029116600751877e-02,7.506430894136428833e-02,-2.983918972313404083e-02,-4.372258856892585754e-02,-1.060573384165763855e-01,-1.895931549370288849e-02,1.967420801520347595e-02,-9.911592304706573486e-02,-7.033321261405944824e-02,-3.435033932328224182e-02,1.573357544839382172e-02,4.803856089711189270e-02,5.754946731030941010e-03,5.525656417012214661e-02,6.501023471355438232e-02,3.166962787508964539e-02,-3.950974717736244202e-02,1.113117560744285583e-01,-8.373090997338294983e-03,-5.397789645940065384e-03,4.100518673658370972e-02,-6.709122657775878906e-02,3.150171041488647461e-02,7.076246291399002075e-02,1.767308637499809265e-02,-7.243603467941284180e-02,6.906504929065704346e-02,-1.155616194009780884e-01,3.173519670963287354e-02,-2.524281619116663933e-03,3.433766542002558708e-03,-2.866918221116065979e-02,-6.314413249492645264e-02,-5.461718887090682983e-02,-1.264312583953142166e-02,8.005293458700180054e-02,5.370021611452102661e-02,4.422232881188392639e-02,-7.932654023170471191e-02,-1.282430291175842285e-01,-2.242742851376533508e-02,-2.252323180437088013e-02,-1.213201284408569336e-01,5.729660764336585999e-02,-5.098150111734867096e-03,-9.021475911140441895e-02,4.104676842689514160e-02,3.731321170926094055e-02,1.072231978178024292e-01,-7.330790907144546509e-02,-1.253083050251007080e-01,-1.369764376431703568e-02,-3.985031321644783020e-02,2.851093374192714691e-02,6.672639399766921997e-02,1.951736398041248322e-02,-4.493161290884017944e-02,-1.505410950630903244e-02,9.485142678022384644e-02,-1.042312160134315491e-01,5.171740427613258362e-02,-1.055378559976816177e-02,-4.025682061910629272e-02,-9.582454338669776917e-03,1.410288959741592407e-01,-2.192897163331508636e-02,-3.376520425081253052e-02,1.096754800528287888e-02,-6.564122438430786133e-02,-3.317219018936157227e-02,-9.933488816022872925e-02,-6.994761526584625244e-02,-3.674272075295448303e-02,-3.105271235108375549e-02,-3.686634451150894165e-02,7.140088826417922974e-02,-6.967940181493759155e-02,1.383346319198608398e-02,-1.480745524168014526e-02,-6.715016067028045654e-02,5.747699365019798279e-02,-1.750938035547733307e-02,3.695293515920639038e-02,1.123219146393239498e-03,-8.879301138222217560e-03,-5.320508405566215515e-02,8.004253357648849487e-02,-2.291888371109962463e-02,-5.371598899364471436e-02,-7.279279828071594238e-02,-1.181985717266798019e-02,-3.218388557434082031e-02,9.016649425029754639e-02,-4.722356051206588745e-02,-8.314199745655059814e-03,-7.522496581077575684e-02,-2.545193396508693695e-02,-5.561213195323944092e-02,-6.779259443283081055e-02,3.240243345499038696e-02,1.356095820665359497e-01,1.004497706890106201e-01,-1.215924322605133057e-01,-7.194998860359191895e-02,1.604945510625839233e-01,-1.193654607050120831e-03,-4.214521497488021851e-02,8.895000815391540527e-02,-4.054763168096542358e-02,-7.236001547425985336e-03,-4.729764536023139954e-02,8.453916758298873901e-02,1.095113679766654968e-01,7.416947931051254272e-02,-2.027712063863873482e-03,-1.011831909418106079e-01,1.342270243912935257e-02,-7.687962800264358521e-02,-8.877646178007125854e-02,-1.311020106077194214e-01,-6.506442558020353317e-03,-2.667756751179695129e-02,3.166209533810615540e-02,-8.494101464748382568e-02,-5.232954397797584534e-02,-1.817619893699884415e-03,-6.342055648565292358e-02,-1.113846376538276672e-01,5.235016718506813049e-02,-9.774981066584587097e-03,-4.298092797398567200e-02,2.561667747795581818e-02,-4.586315900087356567e-02,-1.172324921935796738e-02,-6.785125285387039185e-02,-1.036522630602121353e-02,9.213379025459289551e-02,-1.472879387438297272e-02,4.048795998096466064e-02,5.970427393913269043e-02,-7.575919385999441147e-03,-1.301158871501684189e-02,-1.098985970020294189e-01,3.175571933388710022e-02,7.321987301111221313e-02,-1.228205021470785141e-02,2.463563717901706696e-02,4.360349476337432861e-02,3.793238895013928413e-03,4.888444393873214722e-02,-3.500468283891677856e-02,6.349059194326400757e-02,7.931649684906005859e-02,4.056415706872940063e-02,-3.202996915206313133e-03,1.904869265854358673e-02,-4.205796867609024048e-02,5.819525569677352905e-02,2.001919969916343689e-02,-1.920705661177635193e-02,2.715503983199596405e-02,3.860843554139137268e-02,-1.233243197202682495e-01,3.429746627807617188e-02,3.160917013883590698e-02,-1.934093795716762543e-02,1.771565899252891541e-02,-4.607925936579704285e-02,5.445715412497520447e-02,-7.493959367275238037e-02,1.416656561195850372e-02,5.222896859049797058e-02,1.597971306182444096e-03,1.146101057529449463e-01,-4.765097424387931824e-02,-4.394200444221496582e-02,6.825026124715805054e-02,3.469155170023441315e-03,3.441922366619110107e-02,-4.463867098093032837e-02,-4.161388427019119263e-02,2.214049361646175385e-02,-6.471716612577438354e-02,3.420720621943473816e-02,1.764013199135661125e-03,-5.382454767823219299e-02,-7.908637821674346924e-02,-2.529228571802377701e-03,7.412441074848175049e-02,-6.362808495759963989e-02,2.729680947959423065e-02,-7.455959916114807129e-02,-8.816079795360565186e-02,3.834094479680061340e-02,5.981661961413919926e-04,5.040266364812850952e-02,1.797923073172569275e-02,5.103239044547080994e-02,4.597184434533119202e-02,-1.076355297118425369e-02,-4.256940260529518127e-02,1.665908657014369965e-02,3.526313602924346924e-02,-3.198390826582908630e-02,-8.096008561551570892e-03,-4.262013733386993408e-02,-2.817031741142272949e-02,6.135436706244945526e-03,-3.966828435659408569e-02,-6.875360757112503052e-02,-8.493773639202117920e-02,2.370605990290641785e-02,3.267174959182739258e-02,-1.718492433428764343e-02,-1.754174754023551941e-02,-2.872374840080738068e-02,4.902207851409912109e-02,-1.614604331552982330e-02,1.983691565692424774e-02,-3.003056533634662628e-02,1.009266749024391174e-01,-4.093003645539283752e-02,-1.160426884889602661e-01,7.232944667339324951e-02,4.765606299042701721e-02,8.310469798743724823e-03,-1.101331263780593872e-01,-4.323064908385276794e-02,-2.309683337807655334e-02,-9.071599692106246948e-03,1.594726555049419403e-02,1.180877164006233215e-02,-6.799104157835245132e-03,6.733291782438755035e-03,-1.424111239612102509e-02,2.479593269526958466e-03,-1.932485215365886688e-02,1.002330258488655090e-01,1.296696066856384277e-01,-9.723637998104095459e-02,-4.542959854006767273e-03,8.018436841666698456e-03,7.776778936386108398e-02,7.062416523694992065e-02,2.129328437149524689e-02,-2.386311255395412445e-02,5.709343031048774719e-02,3.741390258073806763e-02,5.509191006422042847e-02,-2.460430562496185303e-02,2.167951315641403198e-02,4.853007569909095764e-02,9.070598334074020386e-02,6.055887043476104736e-02,-1.370327081531286240e-02,-6.170216482132673264e-03,-2.541131980251520872e-04,5.663349106907844543e-02,5.228171590715646744e-03,-3.833441436290740967e-02,-8.240874856710433960e-02,-3.551091998815536499e-03,1.512581557035446167e-01,1.246093064546585083e-01,-2.835746668279170990e-02,-1.505472809076309204e-01,-4.124058783054351807e-02,2.492739446461200714e-02,-6.805738806724548340e-02,4.695935547351837158e-02,8.857172727584838867e-02,6.208499148488044739e-02,-7.623727619647979736e-02,5.202284082770347595e-02,1.452483981847763062e-02,-6.110648810863494873e-02,4.111958295106887817e-02,-6.173247937113046646e-03,6.243845447897911072e-02,3.437075763940811157e-03,2.636335231363773346e-02,9.600849822163581848e-03,1.063900720328092575e-02,-7.889264076948165894e-02,-6.803475786000490189e-03,2.795712649822235107e-02,4.233692307025194168e-03,-7.543922960758209229e-02,-2.088680677115917206e-02,3.271803632378578186e-02,-6.142636761069297791e-02,-2.090061828494071960e-02,-8.539599366486072540e-03,8.785714954137802124e-02,2.480230852961540222e-02,4.766187071800231934e-02,-1.320853643119335175e-02,3.619143366813659668e-02,2.610588818788528442e-02,-2.629728615283966064e-02,2.007725834846496582e-02,-5.419660732150077820e-02,8.416107296943664551e-02,-4.079329967498779297e-02,-7.428474724292755127e-03,-7.421920448541641235e-02,-2.793942578136920929e-02,5.243621021509170532e-02,-1.509793568402528763e-03,3.681615740060806274e-02,6.007922068238258362e-02,3.188748657703399658e-02,-7.374630123376846313e-02,8.858595043420791626e-02,-2.900935336947441101e-02,-6.789352744817733765e-03,5.647889524698257446e-02,-2.454579249024391174e-02,2.878827217500656843e-04,-2.131052687764167786e-02,9.012796916067600250e-03,-5.778145976364612579e-03,1.600629687309265137e-01,-4.525269940495491028e-02,-1.508907377719879150e-01,-5.526940524578094482e-02,-7.535222917795181274e-02,4.718815162777900696e-02,-1.254425197839736938e-01,2.969896420836448669e-02,-3.554759547114372253e-02,-4.223228991031646729e-02,-1.522753387689590454e-01,-9.303677827119827271e-02,-3.091035224497318268e-02,-1.568079590797424316e-01,-4.085798189043998718e-02,6.490331888198852539e-02,2.601696550846099854e-02,6.633171439170837402e-02,1.789936330169439316e-03,-3.312979359179735184e-03,-7.741127163171768188e-02,5.389457568526268005e-02,-1.319861505180597305e-02,-3.115161322057247162e-02,5.687506403774023056e-03,-2.135558798909187317e-02,8.961082249879837036e-02,1.713696494698524475e-02,2.233797125518321991e-02,-9.101173840463161469e-03,-7.217982411384582520e-02,2.789787203073501587e-02,9.439226984977722168e-02,-1.014671660959720612e-02,7.161968946456909180e-02,-9.444667026400566101e-03,-5.039808899164199829e-02,-3.270164132118225098e-02,3.042274527251720428e-02,-2.030232176184654236e-02,-5.938205495476722717e-02,-1.082474216818809509e-01,-9.814666584134101868e-03,5.782887712121009827e-02,-3.128812462091445923e-02,4.104044288396835327e-02,2.418070472776889801e-02,-5.856249108910560608e-02,2.989057451486587524e-03,-3.824634710326790810e-03,-6.374634802341461182e-02,-1.387938391417264938e-03,6.507623940706253052e-02,-4.321800172328948975e-02,-7.211413234472274780e-02,-4.110878333449363708e-02,1.851372793316841125e-02,-5.092509463429450989e-02,4.477904736995697021e-02,-8.482505567371845245e-03,8.753786236047744751e-02,-6.615538150072097778e-02,7.804736495018005371e-02,-7.883338257670402527e-03,2.623499184846878052e-02,-4.347650706768035889e-02,-5.002691596746444702e-02,1.787130236625671387e-01,-8.093101531267166138e-02,2.579296473413705826e-03,4.553728550672531128e-02,-3.598522394895553589e-02,1.278379000723361969e-02,2.860895916819572449e-02,-4.841500893235206604e-02,-5.064511206001043320e-03,1.360235270112752914e-02,-8.171018213033676147e-03,1.221154853701591492e-01,8.466248214244842529e-02,5.255967751145362854e-02,-7.041346281766891479e-02,-1.909303106367588043e-02,7.051545381546020508e-02,8.136240392923355103e-02,-7.013391703367233276e-03,-1.575513333082199097e-01,-2.107653766870498657e-02,6.181572750210762024e-02,-2.372818626463413239e-02,5.075718834996223450e-02,-5.870921537280082703e-02,-5.148469284176826477e-02,1.080815270543098450e-01,-1.477841287851333618e-02,-4.712996538728475571e-03,-5.741783231496810913e-02,5.373658984899520874e-02,-8.771549165248870850e-02,1.381261199712753296e-01,-1.265555471181869507e-01,6.614434532821178436e-03,7.121374458074569702e-02,4.049296677112579346e-02,3.440548107028007507e-02,1.975510269403457642e-03,4.011905938386917114e-02,-1.597689837217330933e-01,-1.569451391696929932e-01,-1.975533179938793182e-02,-6.456574425101280212e-03,-6.432963162660598755e-02,-6.698998808860778809e-02,-3.361004218459129333e-02,-2.501931786537170410e-02,-3.677776828408241272e-02,2.494125813245773315e-02,-3.644326329231262207e-02,-5.088338162750005722e-03,-5.765688419342041016e-02,-7.132863998413085938e-02,1.309565850533545017e-03,-7.083115633577108383e-03,-9.071723558008670807e-03,4.715408757328987122e-02,-1.745654270052909851e-02,8.395625278353691101e-03,1.058638282120227814e-02,-1.171076595783233643e-01,3.785363212227821350e-02,-2.645634114742279053e-02,1.304008252918720245e-02,-4.145617038011550903e-02,-1.255942732095718384e-01,1.396336685866117477e-02,6.454984098672866821e-02,4.596407711505889893e-02,1.681558438576757908e-03,-1.089881062507629395e-01,2.624469809234142303e-02,-3.833907097578048706e-02,2.793678827583789825e-02,5.051890760660171509e-02,-7.242331653833389282e-02,2.171870879828929901e-02,2.894111722707748413e-02,-2.070612460374832153e-02,-2.111009694635868073e-02,-1.160628534853458405e-02,-6.124799139797687531e-03,-7.705043256282806396e-02,-6.359185278415679932e-02,-2.275180444121360779e-02,1.025150623172521591e-02,1.509936293587088585e-03,-1.041574701666831970e-01,1.281666848808526993e-02,-2.795992046594619751e-02,3.742387285456061363e-03,2.156608924269676208e-02,-1.174104586243629456e-02,1.355347596108913422e-02,-8.363842219114303589e-02,-2.191197127103805542e-02,-6.380152702331542969e-02,4.636708647012710571e-03,-7.887683063745498657e-02,-4.937558248639106750e-02,5.232298001646995544e-02,-3.260392323136329651e-02,-8.824745193123817444e-03,-6.328421831130981445e-02,-4.303445294499397278e-02,5.597357824444770813e-02,-4.229397326707839966e-02,7.492196280509233475e-03,5.288699176162481308e-03,-9.667603671550750732e-02,-6.368134170770645142e-02,-2.348919212818145752e-02,1.597107271663844585e-03,-2.738871611654758453e-02,-3.540558740496635437e-02,-3.470661118626594543e-02,6.621864624321460724e-03,-8.390219509601593018e-02,-7.247903943061828613e-02,-7.728664577007293701e-02,-1.207011491060256958e-01,1.407039016485214233e-01,5.788087844848632812e-02,-4.189170431345701218e-03,3.384486213326454163e-02,4.047238081693649292e-02,-9.599754586815834045e-03,1.020896583795547485e-01,-5.716029182076454163e-02,1.475061755627393723e-02,1.158737391233444214e-02,4.524383693933486938e-02,-8.348011970520019531e-02,-6.615861319005489349e-03,-4.968850314617156982e-02,-3.656416758894920349e-02,1.262420602142810822e-02,-1.999765262007713318e-02,4.814396612346172333e-03,-1.242773607373237610e-01,-3.114192374050617218e-02,-6.828576326370239258e-03,-9.716258384287357330e-03,-1.587804593145847321e-02,-1.461524888873100281e-02,-1.881508901715278625e-02,5.582643672823905945e-02,6.391977518796920776e-02,-4.854582995176315308e-02,-6.354819238185882568e-02,9.720600396394729614e-02,3.760842233896255493e-02,2.570852078497409821e-02,3.091736137866973877e-02,1.162190064787864685e-01,-1.116354018449783325e-01,-9.497615508735179901e-03,-1.116258464753627777e-02,6.471828371286392212e-02,7.084298413246870041e-03,-8.376623690128326416e-02,9.826852381229400635e-02,1.227678209543228149e-01,7.006281614303588867e-02,-3.128149546682834625e-03,-1.129850074648857117e-01,-5.570366606116294861e-02,-8.066902309656143188e-02,-1.155886277556419373e-01,7.280503958463668823e-02,1.282563991844654083e-02,